svm_type c_svc
kernel_type rbf
gamma 0.09
nr_class 3
total_sv 118
rho 0.261208 0.206397 -0.367298
label 20131 20132 20133
probA -4.17672 -3.85538 -3.88474
probB 0.436243 0.549984 -0.147983
nr_sv 19 55 44
SV
6.569925856744577 2.098458516403348 1:0.48634177 2:0.35806718 3:0.33483291 4:0.53884202 5:0.51820743 6:0.66397262 7:0.67369002 8:0.49698788 9:0.23095916 10:0.78160602 11:0.47670224 12:0.50559926 13:0.43335527 14:0.78254908 15:0.61935127 16:0.33091542 17:0.4679769 18:0.48772889 19:0.32418144 20:0.5474444 21:0.62739551 22:0.65567607 23:0.24442033 24:0.68982875 25:0.47422755 26:0.3533583 27:0.78301477 28:0.50691974 29:0.55442429 30:0.29543367 31:0.67760801 32:0.88448608 33:0.44256926 34:0.78056628 35:0.48374775 36:0.45560578 37:0.53799498 38:0.84073001 39:0.0713576 40:0.8331247 41:0.65917814 42:0.45366529 43:0.55282378 44:0.21377799 
4.786152205418488 1.566152299984749 1:0.5278278 2:0.1910211 3:0.58557296 4:0.40614873 5:0.69360149 6:0.92319703 7:0.7876507 8:0.65051824 9:0.22764611 10:0.61532348 11:0.53478795 12:0.83345538 13:0.29460132 14:0.59068072 15:0.55317056 16:0.72310805 17:0.71818614 18:0.70709747 19:0.46718946 20:1 21:0.62477773 22:0.8847574 23:0.62569088 24:0.59939086 25:0.48184019 26:0.31176877 27:0.64219546 28:0.20525557 29:0.4316048 30:0.51718628 31:0.7072832 32:0.69018906 33:0.50734037 34:0.64530319 35:0.42370969 36:0.54767036 37:0.35088959 38:0.49526337 39:0.52549893 40:0.47766411 41:1 42:0.70438927 43:0.17733799 44:0.20029482 
0 0.3951457181981328 1:0.46581805 2:0.34271601 3:0.51484263 4:0.61786127 5:0.68739694 6:0.65932041 7:0.820705 8:0.86905593 9:0.50569052 10:0.32451278 11:0.50742704 12:0.54349142 13:0.6317414 14:0.88500661 15:0.42861298 16:0.38797325 17:0.6143719 18:0.78505719 19:0.44599879 20:0.49396819 21:0.70647031 22:0.49188629 23:0.191999 24:0.47935015 25:0.34771487 26:0.28342998 27:0.88646305 28:0.62133819 29:0.62786961 30:0.33055612 31:0.59765685 32:0.58212233 33:0.59181821 34:0.59840709 35:0.45089167 36:0.43600127 37:0.55603898 38:0.63485748 39:0.56229895 40:0.42539391 41:0.90338737 42:0.54302883 43:0.15912281 44:0.14346144 
0 3.273020004240047 1:0.44818205 2:0.53805286 3:0.42199853 4:0.82857782 5:0.55367047 6:0.26038748 7:0.37709108 8:0.66895396 9:0.40481779 10:0.37542853 11:0.2863653 12:0.64340997 13:0.67258155 14:0.51959443 15:0.57174683 16:0.52095205 17:0.62240887 18:0.54505485 19:0.43062779 20:0.52805805 21:0.81726533 22:0.61985117 23:0.36720261 24:0.64626288 25:0.47805187 26:0.14451675 27:0.51212132 28:0.63973445 29:0.38696304 30:0.3967323 31:0.52233171 32:0.76753801 33:0.69185126 34:0.35085031 35:0.12377259 36:0.34254679 37:0.38953906 38:0.42037898 39:0.47983801 40:0.57281065 41:0.90098214 42:0.65461004 43:0.18639179 44:0.15003563 
0 0.4371213094656141 1:0.35730174 2:0.30430189 3:0.072529078 4:0.63693196 5:0.78553206 6:0.16417842 7:0.51521277 8:0.56894028 9:0.55181032 10:0.32255191 11:0.37030748 12:0.40879962 13:0.84498501 14:0.63138556 15:0.21990177 16:0.78847659 17:0.49111965 18:0.62584817 19:0.52331686 20:0.24737628 21:0.30036429 22:0.63797677 23:0.28342712 24:0.5549522 25:0.70313984 26:0.46933126 27:0.66220486 28:0.40405929 29:0.64915305 30:0.40137208 31:0.76731676 32:0.74684095 33:0.4449912 34:0.72674608 35:0.3415232 36:0.42661297 37:0.62665343 38:0.58193976 39:0.1940902 40:0.44730249 41:0.53356558 42:0.37958938 43:0.50381517 44:0.15223633 
10 0.6399218490522711 1:0.43522102 2:0.71066672 3:0.35548541 4:0.4826906 5:0.83697504 6:0.66764373 7:0.64015442 8:0.43528923 9:0.50737083 10:0.40641835 11:0.30611354 12:0.36665651 13:0.89939797 14:0.62856966 15:0.37331069 16:0.42058912 17:0.31929401 18:0.47728896 19:0.38998091 20:0.33300722 21:0.64369333 22:0.59193796 23:0.29297456 24:0.29532814 25:0.39278176 26:0.39186478 27:0.24974057 28:0.9668026 29:0.53668195 30:0.38674733 31:0.7892437 32:0.82681853 33:0.50377983 34:0.49703452 35:0.22429001 36:0.26458794 37:0.4485009 38:0.8177315 39:0.33104357 40:0.47390482 41:0.52780449 42:0.66113132 43:0.18650845 44:0.12821072 
4.91999565041437 0 1:0.40367237 2:0.44830477 3:0.48043242 4:0.39653453 5:0.48817256 6:0.51205176 7:0.072699122 8:0.6483134 9:0.61789584 10:0.51530224 11:0.59710574 12:0.61880797 13:0.37299573 14:0.66765893 15:0.25987259 16:0.49902448 17:0.7329852 18:0.52871466 19:0.44052815 20:0.44237474 21:0.49164945 22:0.72348559 23:1 24:0.48039505 25:0.71340877 26:0.34900168 27:0.20657867 28:0.49426943 29:0.55143058 30:0.29434288 31:0.82267064 32:0.81798148 33:0.29420283 34:0.47543016 35:0.27004871 36:0.42199227 37:0.48721603 38:0.71848512 39:0.27338132 40:0.63001215 41:0.5244537 42:0.73285186 43:0.16987951 44:0.081270166 
2.220601432789177 0 1:0.53397965 2:0.35873741 3:0.36665615 4:0.41054356 5:0.61368769 6:0.29647183 7:0.44175422 8:0.64330429 9:0.68218178 10:0.24118799 11:0.55013406 12:0.60207623 13:0.75643754 14:0.57223791 15:0.54232126 16:0.44835007 17:0.90461797 18:0.62050593 19:0.37631461 20:0.52339935 21:0.84345412 22:0.77823496 23:0.30410117 24:0.42536193 25:0.57848489 26:0.047830645 27:0.47802809 28:0.79324859 29:0.47178876 30:0.51706058 31:0.65777075 32:0.76811731 33:0.55939251 34:0.33075553 35:0.20676771 36:0.66171932 37:0.41438714 38:0.56180239 39:0.35008955 40:0.47774765 41:0.80954146 42:0.56174946 43:0.12609206 44:0.1492219 
2.185259062093361 1.30862343613963 1:0.52405453 2:0.30953014 3:0.69232595 4:0.33615887 5:0.40008697 6:0.73440218 7:0.41048473 8:0.50283349 9:0.39943266 10:0.50234461 11:0.41827297 12:0.52214044 13:0.91750264 14:0.5891999 15:0.48872915 16:0.42211515 17:0.089264542 18:0.75394136 19:0.83243805 20:0.58909553 21:0.2646127 22:0.11961894 23:0.31516749 24:0.11621486 25:0.60837954 26:0.40297681 27:0.37892583 28:0 29:0.14780049 30:0.31155536 31:0.5274626 32:0.70917863 33:0.29405808 34:0.63575101 35:0.39504725 36:0.063624963 37:0.58277321 38:0.48551074 39:0.37359065 40:0.41386718 41:0.88943374 42:0.38033387 43:0.68086672 44:0.16648386 
10 3.117909108956883 1:0.50845265 2:0.40010813 3:0.089872792 4:0.56905937 5:0.6831966 6:0.61436468 7:0.61124051 8:0.59645581 9:0.48014569 10:0.48703 11:0.6931839 12:0.71311992 13:0.73151129 14:0.60469157 15:0.4011884 16:0.58526492 17:0.61176842 18:0.58461189 19:0.58433169 20:0.27617502 21:0.70599461 22:0.47411671 23:0.36935285 24:0.42466128 25:0.71967095 26:0.5931229 27:0.54406309 28:0.42353669 29:0.2598713 30:0.46426553 31:0.58580416 32:0.68658918 33:0.64832622 34:0.54569036 35:0.32926467 36:0.2404723 37:0.35190558 38:0.4461908 39:0.33225599 40:0.69944531 41:0.87944305 42:0.75117362 43:0.64316046 44:0.20871441 
4.528831406431514 0.6614345312858423 1:0.47687709 2:0.65688288 3:0.41003618 4:0.73350096 5:0.80582565 6:0.66960269 7:0.23937505 8:0.52985024 9:0.36724663 10:0.61986804 11:0.37475985 12:0.74198514 13:0.72361124 14:0.45034915 15:0.45489788 16:0.40726492 17:0.60144007 18:0.81444752 19:0.68157101 20:0.19943726 21:0.74706757 22:0.95669526 23:0.58621937 24:0.5439651 25:0.56184465 26:0.20331928 27:0.1866415 28:0.74016142 29:0.16316636 30:0.21765682 31:0.82894379 32:0.73190647 33:0.48017943 34:0.63589329 35:0.51430786 36:0.69640714 37:0.79341149 38:0.46011692 39:0.4506624 40:0.47556996 41:0.81493533 42:0.11006978 43:0.3717933 44:0.22714271 
5.628354125387916 1.946417011026143 1:0.42885351 2:0.48992151 3:0.67714226 4:0.43992302 5:0.52573341 6:0.88860667 7:0.22933194 8:0.76717818 9:0.313077 10:0.9268043 11:0.23575464 12:0.69181353 13:0.29973099 14:0.69910425 15:0.76925397 16:0.54703796 17:0.52185649 18:0.59491795 19:0.64875072 20:0.6900447 21:0.63016814 22:0.52842051 23:0.75616026 24:0.86886138 25:0.52196187 26:0.10486297 27:0.69008565 28:0.384431 29:0.44146946 30:0.20728293 31:0.4988918 32:0.68250972 33:0.17948571 34:0.61952871 35:0.43957639 36:0.47153017 37:0.41014808 38:0.70026064 39:0.55383331 40:0.53532362 41:0.58223724 42:0.72185612 43:0.13970435 44:0.16610031 
4.684506572006118 2.902632749104178 1:0.53809708 2:0.75702155 3:0.23556164 4:0.78540748 5:0.59400034 6:0.45138374 7:0.68725729 8:0.60754913 9:0.77745527 10:0.14387667 11:0.3134059 12:0.6304481 13:0.36190292 14:0.57666039 15:0.47022146 16:0.62352127 17:0.53785574 18:0.60301924 19:0.67813784 20:0.40093175 21:0.80066997 22:0.74590909 23:0.24554805 24:0.22113344 25:0.80444986 26:0.64327627 27:0.66010457 28:0.76509398 29:0.14034168 30:0.37649581 31:0.48918793 32:0.54997516 33:0 34:0.62136352 35:0.71072513 36:0.82688576 37:0.81457675 38:0.69578272 39:1 40:0.46669334 41:0.96385539 42:0.20902695 43:0.15590659 44:0.2431058 
0.9820720644114223 0.7088236358332669 1:0.17034011 2:0.62255394 3:0.15646356 4:0.74822611 5:0.53280431 6:0.52384663 7:0.79893881 8:0.70517462 9:0.28068718 10:0.41339809 11:0.54634458 12:0.52802193 13:0.71368271 14:0.33838287 15:0.52411562 16:0.59050894 17:0.31478542 18:0.8496365 19:1 20:0.749107 21:0.48475194 22:0.27312878 23:0.34591648 24:0.65553713 25:0.70522881 26:0.46031925 27:0.38013747 28:0.48474616 29:0.43712929 30:0.28053099 31:0.40871629 32:0.5317989 33:0.22859439 34:0.47033292 35:0.37140998 36:0.055186149 37:0.93774402 38:1 39:0.21358427 40:0.54430956 41:0.55268252 42:0.52301234 43:0.55753958 44:0.14241835 
3.644025397285943 1.931326376265033 1:0.48762533 2:0.13548605 3:0.61523736 4:0.64807016 5:0.71065426 6:0.40018249 7:0.6232447 8:0.31466129 9:0.23958263 10:0.2268099 11:0.40891534 12:0.23905472 13:0.40050158 14:0.50365657 15:0.13619976 16:0.6551137 17:0.70519066 18:0.76796496 19:0.58738357 20:0.16939573 21:0.76079452 22:0.47912842 23:0.54584074 24:0.90718412 25:0.6058374 26:0.20981358 27:0.38833192 28:0.54715842 29:0.61406845 30:0.37663916 31:0.20296948 32:0.94797182 33:0.33316958 34:0.76400757 35:0.29466462 36:0.54783243 37:0.74288541 38:0.30237406 39:0.58228922 40:0.30260202 41:0.74769706 42:0.96807516 43:0.57285595 44:0.14613456 
4.023316783851631 2.506571883390927 1:0.36150789 2:0.56450093 3:0.50933051 4:0.81061482 5:0.42233604 6:0.58645022 7:0.83107013 8:0.68133867 9:0.52897185 10:0.067233346 11:0.17165357 12:0.80345166 13:0.23684156 14:0.71688288 15:0.14719406 16:0.65900367 17:0.71357274 18:0.60241175 19:0.34623706 20:0.57552588 21:0.67798626 22:0.7685101 23:0.052812699 24:0.53514045 25:0.29974213 26:0.56168854 27:0.94988972 28:0.18580022 29:0.670901 30:0.54116374 31:0.74793637 32:0.68459171 33:0.4757818 34:0.60301715 35:0.49758172 36:0.38774681 37:0.46669543 38:0.39828578 39:0.62196892 40:0.25902006 41:0.82798618 42:0.77934611 43:0.4290351 44:0.12880912 
0.469435342004316 2.442127566689808 1:0.4553577 2:0.80606139 3:0.42990217 4:0.57971483 5:0.41029784 6:0.57523936 7:0.47656167 8:0.5101288 9:0.60678279 10:0.64161426 11:0.68452573 12:0.29908088 13:0.3394672 14:0.71624684 15:0.48026547 16:0.69864076 17:0.6667549 18:0.46845427 19:0.45641017 20:0.40571886 21:0.4087581 22:0.78463429 23:0.20554711 24:0.55159581 25:0.70024735 26:0.17357402 27:0.33620864 28:0.63495153 29:0.46893457 30:0.27938882 31:0.74730963 32:0.4362604 33:0.36331573 34:0.87559551 35:0.41577506 36:0 37:0.73474854 38:0.38743708 39:0.40124547 40:0.16880523 41:0.75341934 42:0.49531981 43:0.50559014 44:0.10790272 
0.2222534256751187 0 1:0.34514466 2:0.52941656 3:0.4440746 4:0.2559942 5:0.66180682 6:0.56839836 7:0.42660651 8:0.32263985 9:0.3379637 10:0.67051232 11:0.17036247 12:0.23221524 13:0.39344311 14:0.871364 15:0.44238484 16:0.76461869 17:0.69242376 18:0.6947642 19:0.66692001 20:0.22823527 21:0.43312064 22:0.48400488 23:0.40152013 24:0.057731956 25:0.59183109 26:0.070628434 27:0.82747877 28:0.52338541 29:0.59999204 30:0.21982765 31:0.79759049 32:0.61076701 33:0.37199229 34:0.80524522 35:0.35207933 36:0.14781308 37:0.58661926 38:0.34763354 39:0.41224164 40:0.15189157 41:0.62984449 42:0.47673211 43:0.53404713 44:0.14785536 
10 5.355057294927506 1:0.29028019 2:0.46669599 3:0.49074656 4:0.71242851 5:0.56416351 6:0.40369862 7:0.16767958 8:0.44299901 9:0.48182553 10:0.92128247 11:0.42599645 12:0.49095607 13:0.43442079 14:0.97608542 15:0.36680633 16:0.54000837 17:0.65840578 18:0.80773497 19:0.66749042 20:0.27454266 21:0.0072384528 22:0.4296622 23:0.35861653 24:0.45642492 25:0.56065637 26:0.31705707 27:0.48625687 28:0.3717452 29:0.47491449 30:0.28861153 31:0.37779534 32:0.74294263 33:0.2071107 34:0.72478771 35:0.37251037 36:0.16757692 37:0.41425484 38:0.50331372 39:0.4249779 40:0.45079988 41:0.61594772 42:0.34382463 43:0.24227214 44:0.13993947 
-5.108434865777724 3.875240374066039 1:0.38585892 2:0.43964559 3:0.94105256 4:0.55821127 5:0.64662951 6:0.46448308 7:0.88339788 8:0.7791416 9:0.53219306 10:0.34131479 11:0.21452151 12:0.75020599 13:0.38367149 14:0.28826258 15:0.51036292 16:0.58169723 17:0.77677852 18:0.48279932 19:0.79440367 20:0.20541398 21:0.24202365 22:0.65719026 23:0.73339611 24:0.12128866 25:0.75419867 26:0.53384739 27:0.6493994 28:1 29:0.5087086 30:0.35803682 31:0.58393192 32:0.39393064 33:0.65623415 34:0.54057926 35:0.10607311 36:0.44026974 37:0.62285298 38:0.88612717 39:0.43149015 40:0.67421192 41:0.52599674 42:0.15919226 43:0.17944025 44:0.30755344 
-1.56810004443281 0 1:0.28685048 2:0.44177425 3:0.37665191 4:0.506257 5:0.45446563 6:0.7462942 7:0.36748764 8:0.68343818 9:0.62539518 10:0.68538934 11:0.27496114 12:0.64740431 13:0.59881604 14:0.75176275 15:0.50292939 16:0.48600206 17:0.79495674 18:0.70005125 19:0.63609552 20:0.28969061 21:0.51997161 22:0.42591876 23:0.7764622 24:0.45861286 25:0.39995813 26:0.46583563 27:0.40593886 28:0.62130785 29:0.2728661 30:0.35004672 31:0.41427493 32:0.65091532 33:0.50294751 34:0.096302502 35:0.37073451 36:0.30364084 37:3.5212608e-16 38:0.43912163 39:0.43105689 40:0.55743802 41:0.65991193 42:0.52066457 43:0.17901896 44:0.11079004 
-1.275904915059205 0 1:0.50925404 2:0.70591402 3:0.0076726032 4:0.77664244 5:0.44133332 6:0.51348269 7:0.67520714 8:8.7964827e-16 9:0.3919878 10:0.36593264 11:0.32553136 12:0.50112206 13:0.74780083 14:0.51370925 15:0.2358959 16:0.79189932 17:0.75530887 18:0.76277047 19:0.66532815 20:0.45841253 21:0.58836412 22:0.59247947 23:0.67623967 24:0.66109753 25:0.24805048 26:0.46648622 27:0.57059389 28:0.56835222 29:0.58482993 30:0.48104012 31:0.62258393 32:0.51775169 33:0.69510794 34:0.49452245 35:0.42797905 36:0.47968259 37:0.4431518 38:0.77295429 39:0.43864611 40:0.68385428 41:0.47303399 42:0.53489387 43:0.1876601 44:0.067395076 
-6.941076794523689 1.805290302762816 1:0.47462764 2:0.52722359 3:0.11937626 4:0 5:0.72356862 6:0.74883091 7:0.35731557 8:0.54969722 9:0.10768233 10:0.7353701 11:0.42873815 12:0.66768312 13:0.1705492 14:0.62413239 15:0.5978682 16:0.10345412 17:0.54283863 18:0.91543883 19:0.3319495 20:0.45304927 21:0.44986975 22:0.46954143 23:0.60342294 24:0.59999937 25:0.56320363 26:0.51452243 27:0.55693132 28:0.63206154 29:0.4330011 30:0.39012122 31:0.59040493 32:0.54253376 33:0.26197189 34:0.68018866 35:0.39069366 36:0.49974665 37:0.34507996 38:0.43923461 39:0.59499878 40:0.37562028 41:0.96872503 42:0.58042395 43:0.21440895 44:0.18026279 
-6.336197739750832 0 1:0.47404882 2:0.44783798 3:0.81258297 4:0.63809276 5:0.65887558 6:0.36999121 7:0.31511569 8:0.38735896 9:0.35763192 10:0.55900544 11:0.68226707 12:0.55869162 13:0.11017904 14:0.60740805 15:0.25586247 16:0.4607552 17:0.62621635 18:0.79346865 19:0.78734928 20:0.37826341 21:0.4752779 22:0.86764663 23:0.61343706 24:0.5648914 25:0.5040471 26:0.62889355 27:0.80509102 28:0.59440488 29:0.15765423 30:0.16744135 31:0.7551648 32:0.59321928 33:0.49883777 34:0.81923962 35:0.61048651 36:0.33457887 37:0.34325913 38:0.64033568 39:0.1167789 40:0.50215036 41:0.4268513 42:0.57013077 43:0.67435962 44:0.1261929 
-1.579471358347924 0 1:0.6401661 2:0.40341398 3:0.4740243 4:0.58804792 5:0.56013191 6:0.66129863 7:0.88891184 8:0.64514446 9:0.3674835 10:0.57664746 11:0.49315619 12:0.57005918 13:0.68664616 14:0.65664202 15:0.68022096 16:0.55442476 17:0.59131372 18:0.76058942 19:0.74156433 20:0.50721478 21:0.62483209 22:0.44431844 23:0.60555851 24:0.65286314 25:0.32459867 26:0.31672889 27:0.5190202 28:0.65089083 29:0.59698951 30:0.31403792 31:0.3415105 32:0.38597149 33:0.59606642 34:0.42454752 35:0.55880839 36:0.47620505 37:0.38548553 38:0.57360178 39:0.68707341 40:0.60493463 41:0.77059096 42:0.51806933 43:0.1705035 44:0.10577815 
-3.345199387700489 0 1:0.46471021 2:0.34781206 3:0.34442976 4:0.29970083 5:0.54094505 6:0.60536247 7:0.57796466 8:0.26431736 9:0.70552635 10:0.73779231 11:0.82274711 12:0.53541076 13:0.51979482 14:0.74515224 15:0.55129707 16:0.53257781 17:0.66769415 18:0.46166018 19:0.30297333 20:0.25109947 21:0.60509717 22:0.50948334 23:0.49481627 24:0.58680302 25:0.20113797 26:0.3863501 27:0.34922528 28:0.43377712 29:0.32247281 30:0.48386022 31:0.57763749 32:0.39346987 33:0.34980765 34:0.63966924 35:0.44215956 36:0.41653815 37:0.17065427 38:0.5223456 39:0.63454938 40:0.48947003 41:0.77230543 42:0.5556711 43:0.25099641 44:0.11983091 
-3.033368689822423 0 1:0.30140579 2:0.61332053 3:0 4:0.37784958 5:0.42390811 6:0.58151412 7:0.25104889 8:0.2134746 9:0.219235 10:0.77301008 11:0.46533993 12:0.61962146 13:0.66518629 14:0.64390117 15:0.31108999 16:0.66429007 17:0.49394196 18:0.65086019 19:0.44348907 20:0.55803651 21:0.18401836 22:0.65432471 23:0.12845391 24:0.51406437 25:0.40740111 26:0.26850811 27:0.31199774 28:0.57366288 29:0.5773533 30:0.58287078 31:0.44268024 32:0.52262062 33:0.31258813 34:0.45564499 35:0.55110478 36:0.57707274 37:0.40309754 38:0.83383459 39:0.52971214 40:0.65541071 41:0.64373404 42:0.26893765 43:0.21522918 44:0.12949786 
-0.7037239684759619 0 1:0.24197006 2:0.24118795 3:0.72185463 4:0.77233636 5:0.55768561 6:0.64047801 7:0.52105975 8:0.68542361 9:0.19362722 10:0.40389827 11:0.32432526 12:0.5040167 13:0.2230462 14:0.46951985 15:0.44196808 16:0.72553468 17:0.22430559 18:0.81975615 19:0.57843608 20:0.27317065 21:0.31039488 22:0.61123246 23:0.45834345 24:0.86100447 25:0.36175996 26:0.67448324 27:0.59535056 28:0.6230486 29:0.64501542 30:0.26215982 31:0.96481293 32:0.62216061 33:0.53446561 34:0.64863324 35:0.47538406 36:0.68704271 37:0.4003385 38:0.76863033 39:0.51289397 40:0.61047238 41:0.46266568 42:0.54749376 43:0.19276018 44:0.14910944 
-0 0.646628617497358 1:0.60975003 2:0.53888381 3:0.19264032 4:0.73924696 5:0.44126043 6:0.38679317 7:0.50501055 8:0.55967009 9:0.19402735 10:0.43990681 11:0.66410714 12:0.64765078 13:0.63832217 14:0.5130505 15:0.6642614 16:0.48023802 17:0.5100435 18:0.78504843 19:0.43198341 20:0.47025642 21:0.25454673 22:0.56789196 23:0.87307435 24:0.51494759 25:0.81884253 26:0.5420661 27:0.56706768 28:0.61251092 29:0.41819993 30:0.42743292 31:0.509969 32:0.43287924 33:0.52536255 34:1 35:0.42882013 36:0.41965508 37:0.10377663 38:0.41894391 39:0.64354509 40:0.55925018 41:0.59608865 42:0.5277611 43:0.26841035 44:0.21849029 
-5.270441644652743 0 1:0.51481473 2:0.41016379 3:0.65450656 4:0.61085308 5:0.51308346 6:0.63490212 7:0.31260973 8:0.56921524 9:0.57252336 10:0.7628848 11:0.15987906 12:0.56823581 13:0.61263287 14:0.66004485 15:0.24037917 16:0.55487937 17:0.44303638 18:0.62135226 19:0.42575276 20:0.15934454 21:0.65983421 22:0.3565017 23:0.63278979 24:0.41195416 25:0.54559362 26:0.46627447 27:0.33088592 28:0.7718392 29:0.64096385 30:0.38414934 31:0.060223583 32:0.64439279 33:0.4295021 34:0.15213761 35:0.31425357 36:0.33939469 37:0.56786966 38:0.57860905 39:0.51433682 40:0.79759461 41:0.42371458 42:0.6376546 43:0.2365949 44:0.12569672 
-0 2.700436922764466 1:0.45420924 2:0.25650647 3:0.61700636 4:0.50493294 5:0.54003078 6:0.69224507 7:0.31669715 8:0.37786901 9:0.23248416 10:0.41046271 11:0.43879303 12:0.56718355 13:0.62987888 14:0.57395124 15:0.6965785 16:0.61157435 17:0.44951645 18:0.73583359 19:0.49399307 20:0.60577613 21:0.62344009 22:0.75885934 23:0.40196228 24:0.83290905 25:0.2701312 26:0.61063623 27:0.70700568 28:0.63750923 29:0.18138424 30:0.27957118 31:0.54496592 32:0.67961216 33:0.40896085 34:0.40749311 35:0.46404421 36:0.45558783 37:0.411706 38:0.48750761 39:0.21572891 40:0.70058858 41:0.55373114 42:0.79670864 43:0.71998554 44:0.20745125 
-1.09990626108775 0 1:0.58972007 2:0.31512824 3:0.3814933 4:0.52151501 5:0.6100648 6:0.57989985 7:0.27395535 8:0.34710124 9:0.97981 10:0.56323338 11:0.35137168 12:0.34993103 13:0.82722819 14:0.46257862 15:0.43739581 16:0.40928316 17:0.79150856 18:0.70868278 19:0.33499917 20:0.46588847 21:0.31990033 22:0.54157895 23:0.45117259 24:0.43825358 25:0.65680736 26:0.7288835 27:0.66818261 28:0.82014227 29:0.26416552 30:0.30416957 31:0.74125594 32:0.69480604 33:0.43318823 34:0.74978459 35:0.43415719 36:0.48043212 37:0.39052016 38:0.4562777 39:0 40:0.45454422 41:0.38020828 42:0.54105127 43:0.66340524 44:0.15059693 
-1.641400575464459 0 1:0.84392977 2:0.29730985 3:0.33216834 4:0.63545418 5:0.83980709 6:0.67957914 7:0.25922027 8:0.40108871 9:0.67303228 10:0.3543565 11:0.49946579 12:0.63077724 13:0.55507284 14:0.65088409 15:0.19019049 16:0.59964609 17:0.64341497 18:0.69083577 19:0.41425067 20:0.30425826 21:0.38886654 22:0.77463114 23:0.032261133 24:0.89101845 25:0.37779123 26:0.64878225 27:0.28056189 28:0.47526506 29:0.43762487 30:0.45832703 31:0.63804096 32:0.6067816 33:0.34973207 34:0.65241915 35:0.57889479 36:0.62717819 37:0.61614418 38:0.55859047 39:0.2611669 40:0.60320914 41:0.39386624 42:0.7252934 43:0.77475214 44:0.09767703 
-1.594901528827451 0 1:0.79368377 2:0.63275969 3:0.92660505 4:0.5874266 5:0.612423 6:0.59770614 7:0.45014 8:0.66132385 9:0.15083918 10:0.23619236 11:0.49891454 12:0.42623079 13:0.64808315 14:0.72404146 15:0.25112355 16:0.65576428 17:0.63795596 18:0.55964482 19:0.40367174 20:0.6724723 21:0.43253845 22:0.44939035 23:0.24838352 24:0.85238057 25:0.1593792 26:0.48854327 27:0.64870679 28:0.72901374 29:0.36072087 30:0.23706503 31:0.87142819 32:0.70697623 33:0.45914218 34:0.40370256 35:0.48099011 36:0.44122443 37:0.43558195 38:0.71901453 39:0.37317178 40:0.60088742 41:0.45844972 42:0.60207605 43:0.28793183 44:0.072200127 
-1.081144125840853 0 1:0.58054608 2:0.74101096 3:0.33036992 4:0.63929623 5:0.49092853 6:0.86053634 7:0.79680914 8:0.40675893 9:0.4075118 10:0.48976305 11:0.13254982 12:0.48175207 13:0.54668379 14:0.6423136 15:0.5792408 16:0.62137395 17:0.61104715 18:0.91564721 19:0.40971729 20:0.34846821 21:0.30033246 22:0.6300211 23:0.44063476 24:0.5105024 25:0.37933522 26:0.7096836 27:0.6155259 28:0.7345441 29:0.45828786 30:0.51035619 31:0.32728001 32:0.57301003 33:0.63545591 34:0.84998339 35:0.46435562 36:0.42133233 37:0.30598295 38:0.63992053 39:0.50514925 40:0.60766631 41:0.63246638 42:0.63987464 43:0.1814656 44:0.13828841 
-2.565267185517312 0 1:0.55289412 2:0.43884808 3:0.36156553 4:0.61343253 5:0.54033285 6:0.59923083 7:0.38244703 8:0.52671349 9:0.48309818 10:0.61018026 11:0.47372508 12:0.44314268 13:0.45703718 14:0.54271078 15:0.60353142 16:0.34562826 17:0.54861403 18:0.51243168 19:0.40972048 20:0.92504072 21:0.49252856 22:0.73055136 23:0.47397178 24:0.78555995 25:0.53784919 26:0.56648815 27:0.61381942 28:0.38175613 29:0.26399732 30:0.39706695 31:0.14083949 32:0.6011017 33:0.70842665 34:0.47658557 35:0.74558157 36:0.23214063 37:0.87536591 38:0.45033562 39:0.16287726 40:0.43820372 41:0.76148885 42:0.25111565 43:0.67045444 44:0.16855955 
-6.581275022659584 0.9310287081246483 1:0.83840072 2:0.14605516 3:0.21206141 4:0.80231786 5:0.6180703 6:0.97016346 7:0.41882154 8:0.62334144 9:0.30789524 10:0.46487117 11:0.3144553 12:0.81173074 13:0.57679939 14:0.71058196 15:0.64982623 16:0.5417673 17:0.42134663 18:0.45093867 19:0.51897705 20:0.15371805 21:0.61394066 22:0.32949951 23:0.098652467 24:0.44172904 25:0.58937103 26:0.5897857 27:0.28459436 28:0.62296116 29:0.47923768 30:0.42514953 31:0.28308403 32:0.7607224 33:0.66721666 34:0.44278416 35:0.52873272 36:0.36701736 37:0.33546129 38:0.20583269 39:0.37681684 40:0.59054762 41:0.80293512 42:0.68946511 43:0.70542586 44:0.14806907 
-0 1.323133149345469 1:0.48565993 2:0.27072236 3:0.44634849 4:0.32958278 5:0.82130873 6:0.57616782 7:0.54050511 8:0.1021015 9:0.45281225 10:0.53740889 11:0.51145852 12:0.59138477 13:0.56143641 14:0.70543808 15:0.36075529 16:0.68167382 17:0.39395481 18:0.52496904 19:0.45129842 20:0.18254986 21:0.57514328 22:0.14185743 23:0.36604276 24:0.55926931 25:0.56161207 26:0.5917381 27:0.58856368 28:0.67918009 29:0.37633124 30:0 31:0.18580979 32:0.68873721 33:0.15084165 34:0.2013514 35:0.6108498 36:0.7369656 37:0.65484715 38:0.52920836 39:0.83047324 40:0.54433036 41:0.9005084 42:0.039460193 43:0.24194446 44:0.21060842 
-0.1029040182035554 0 1:0.48580596 2:0.55931914 3:0.22823043 4:0.60055143 5:0.52225721 6:0.71020401 7:0.4425737 8:0.45994499 9:0.67256588 10:0.64608341 11:0.50622892 12:0.51462972 13:0.42570317 14:0.68442667 15:0.60716236 16:0.24684376 17:0.43067282 18:0.49278447 19:0.48586145 20:0.85107702 21:0.70668393 22:0.55811185 23:0.43127453 24:0.6463086 25:0.50836515 26:0.48901182 27:0.6137659 28:0.42889321 29:0.28975499 30:0.44711208 31:0.10119138 32:0.51124412 33:0.82218224 34:0.39343086 35:0.73501486 36:0.17591117 37:0.8192699 38:0.39931384 39:0.19723606 40:0.43468645 41:0.8529104 42:0.19848001 43:0.75269693 44:0.19696362 
-0.262116007123093 2.453583731780476 1:0.48580596 2:0.55931914 3:0.22823043 4:0.60055143 5:0.52225721 6:0.71020401 7:0.4425737 8:0.45994499 9:0.67256588 10:0.64608341 11:0.50622892 12:0.51462972 13:0.42570317 14:0.68442667 15:0.60716236 16:0.24684376 17:0.43067282 18:0.49278447 19:0.48586145 20:0.85107702 21:0.70668393 22:0.55811185 23:0.43127453 24:0.6463086 25:0.50836515 26:0.48901182 27:0.6137659 28:0.42889321 29:0.28975499 30:0.44711208 31:0.10119138 32:0.51124412 33:0.82218224 34:0.39343086 35:0.73501486 36:0.17591117 37:0.8192699 38:0.39931384 39:0.19723606 40:0.43468645 41:0.8529104 42:0.19848001 43:0.75269693 44:0.19696362 
-0 1.440631462590944 1:0.79683298 2:0.10192065 3:0.44353622 4:0.47521943 5:0.67874527 6:0.34675467 7:0.57552165 8:0.33163577 9:0.54742116 10:0.23844798 11:0.69773299 12:0.72173202 13:0.35529688 14:0.66061401 15:0.37954247 16:0.42675865 17:0.34584436 18:0.95486474 19:0.081385821 20:0.47163129 21:0.47679284 22:0.98020619 23:0.71404511 24:0.7458601 25:0.39380246 26:0.45530298 27:0.6551742 28:0.542925 29:0.17146216 30:0.49379683 31:0.69907647 32:0.43015352 33:0.66657257 34:0.23870763 35:0.60176921 36:0.45296967 37:0.9060567 38:0.72080809 39:0.27948886 40:0.624421 41:0.14068232 42:0.55453968 43:0.45043084 44:0.14400476 
-0 1.819961753969443 1:0.39009115 2:0.25383592 3:0.43109477 4:0.58506614 5:0.55741054 6:0.36597961 7:0.5105871 8:0.69051993 9:0.46341702 10:0.78216559 11:0.46053642 12:0.54946977 13:0.47965658 14:0.48570302 15:0.491234 16:0.69274032 17:0.73451465 18:0.71434504 19:0.50810474 20:0.42989624 21:0.47832242 22:0.69185847 23:0.60875529 24:0.5259372 25:0.49076983 26:0.44879183 27:0.5832172 28:0.59572959 29:0.49867445 30:0.39571661 31:0.33869353 32:0.48428115 33:0.72431535 34:0.44688267 35:0.43960032 36:0.40608996 37:0.21602891 38:0.43030718 39:0.53292209 40:0.70622975 41:0.58205074 42:0.40010238 43:0.016089249 44:0.19342336 
-0 1.424166790104888 1:0.74470747 2:0.23436603 3:0.42068148 4:0.55765253 5:0.41924962 6:0.49709392 7:0.6699301 8:0.63032246 9:0.2916227 10:0.45297006 11:0.86864859 12:0.64629906 13:0.55277878 14:0.64218086 15:0.73519695 16:0.89557731 17:0.67556798 18:0.91497004 19:0.27123097 20:0.82754248 21:0.022904359 22:0.25587794 23:0.54161096 24:0.84051538 25:0.91990215 26:0.35317409 27:0.020429369 28:0.75707722 29:0.55532289 30:0.17025095 31:0.26612011 32:0.48314461 33:0.56787908 34:0.49548912 35:0.41397312 36:0.78461987 37:0.60691643 38:0.28523064 39:0.38371506 40:0.33938509 41:0.85278684 42:0.2582618 43:0.29051605 44:0.2223931 
-0 1.84028962542817 1:0.26281148 2:0.64917737 3:0.53705752 4:0.53322852 5:0.63150936 6:0.26608378 7:0.55208516 8:0.45228571 9:0.45039335 10:0.5361011 11:0.30466923 12:0.55227423 13:0.63154459 14:0.40108988 15:0.29585433 16:0.37389094 17:0.39317459 18:0.8847748 19:0.41259205 20:0.37366506 21:0.76361316 22:0.64100331 23:0.50708383 24:0.38251215 25:0.38102809 26:0.4144758 27:0.37820774 28:0.42551568 29:0.60642439 30:0.30517364 31:0.5923456 32:0.048747025 33:0.34494853 34:0.77304196 35:1 36:0.61814404 37:0.24296492 38:0.44614467 39:0.31024545 40:0.69459993 41:0.78854561 42:0.56781369 43:0.90944415 44:0.20363653 
-4.767689739753146 0 1:0.59997284 2:0.5491581 3:0.29117543 4:0.18641677 5:0.50706851 6:0.54768008 7:0.6018737 8:0.22488914 9:0.3828302 10:0.44889733 11:0.58178675 12:0.62282842 13:0.72918046 14:0.47961161 15:0.36085546 16:0.45931455 17:0.60425389 18:0.32084125 19:0.16075782 20:0.85436839 21:0.67937273 22:0.35742509 23:0.67682803 24:0.55772799 25:0.25008413 26:0.33789113 27:0.53990847 28:0.43104979 29:0.55214173 30:0.39612621 31:1 32:0.48573309 33:0.28526333 34:0.25030434 35:0.36357653 36:0.43492675 37:0.39994183 38:0.83869106 39:0.58219212 40:0.53517687 41:0.69158345 42:0.52293932 43:0.20872073 44:0.079990275 
-0 0.5354725355890493 1:0.33609647 2:0.57863897 3:0.17611578 4:0.67286825 5:0.53121746 6:0.76370472 7:0.40368542 8:0.39915556 9:0.36886144 10:0.64919829 11:0.61088169 12:0.73886466 13:0.75438374 14:0.095319882 15:0.3668592 16:0.75193226 17:0.28643528 18:0.69414651 19:0.41316137 20:0.11064485 21:0.80530304 22:0.18941717 23:0.57765806 24:1 25:0.53312224 26:0.62662828 27:0.64345628 28:0.49934807 29:0.526797 30:0.4546769 31:0.38416645 32:0.55895507 33:1 34:0.61136347 35:0.35465661 36:0.70709795 37:0.57620609 38:0.31848985 39:0.34733775 40:0.20022541 41:0.64049917 42:0.43210697 43:0.47039533 44:0.22508848 
-0 4.208859744217793 1:0.5504657 2:0.54732585 3:0.25170824 4:0.83946389 5:0.52020735 6:0.31775457 7:0.47494698 8:0.06658268 9:0.3622503 10:0.47473708 11:0.80795205 12:0.42653662 13:0.42978433 14:0.7670663 15:0.48605517 16:0.68331581 17:0.22592011 18:0.39138833 19:0.60069799 20:0.41506013 21:0.56098574 22:0.19844057 23:0.78007019 24:0.61733079 25:0.61427081 26:0.3034763 27:0.44948682 28:0.35613686 29:0.47209957 30:0.39973992 31:0.24689616 32:0.15922149 33:0.15979069 34:0.45757949 35:0.47851938 36:0.067501634 37:0.076252863 38:0.471683 39:0.81297481 40:0.74084818 41:0.81800187 42:0.56701994 43:0.23547438 44:0.20969903 
-0 1.403933235919226 1:0.50789905 2:0.52024543 3:0.88654989 4:0.65769523 5:0.68211704 6:0.53300977 7:0.44344446 8:0.40967402 9:0.37568873 10:0.46953559 11:0.3095901 12:0.32573256 13:0.52983779 14:0.67900127 15:0.84727955 16:0.62939721 17:0.71662277 18:0.74968517 19:0.53734642 20:0.34266767 21:0.24215207 22:0.14768811 23:0.72869945 24:0.27180937 25:0.322346 26:0.071851388 27:0.47932208 28:0.31177703 29:0.13814598 30:1 31:0.99480653 32:0.40207985 33:0.34502089 34:0.099005796 35:0.69643688 36:0.88645488 37:1 38:0.56062186 39:0.43159673 40:0.58667594 41:0.18773393 42:0.43214366 43:0.6898877 44:0.26777512 
-0 0.6372493959244557 1:0.35171273 2:0.39535508 3:0.42890203 4:0.73062009 5:0.4533152 6:0.36631411 7:0.8353796 8:0.43945491 9:0.41009226 10:0.278483 11:0.19339095 12:0.52866864 13:0.34568897 14:0.56934083 15:0.61277193 16:0.80383503 17:0.50588864 18:0.30330387 19:0.71011019 20:0.29993561 21:0.058375362 22:0.80032331 23:0.77235901 24:0.52205777 25:0.2596719 26:0.74705762 27:0.37304911 28:0.53797758 29:0.26702207 30:0.32130751 31:0.42578974 32:0.62358129 33:0.81117719 34:0.47768423 35:0.365964 36:0.16024235 37:0.52067643 38:0 39:0.32664472 40:0.4841823 41:0.64458823 42:0.3038595 43:0.7208581 44:0.19371779 
-0 1.299121798035904 1:0.71676338 2:0.74391687 3:0.60041112 4:0.83859575 5:0.74703169 6:0.75543272 7:0.33591095 8:0.76886153 9:0.32913744 10:0.5972836 11:0.12009041 12:0.31873396 13:0.36783949 14:0.50311679 15:0.030327531 16:0.63504291 17:6.9996722e-16 18:0.68962574 19:0.38665879 20:0.65285343 21:0.38156644 22:0.92411864 23:0.58821607 24:0.40535304 25:0.75778753 26:0.4873921 27:0.31635308 28:0.49311984 29:0.6505115 30:0.42880049 31:0.49013114 32:0.18189408 33:0.59406185 34:0.53225458 35:0.3562524 36:0.22005193 37:0.52231264 38:0.18788734 39:0.55281287 40:0.23312888 41:0.49775377 42:0.46769422 43:0.34922028 44:0.071400493 
-3.77551070498908 1.828695842570431 1:0.24409907 2:0.24628308 3:0.61900693 4:0.90543139 5:0.51781988 6:0.70647192 7:0.51257038 8:0.42178446 9:0.11824435 10:0.15835784 11:0.17635208 12:0.54969847 13:0.61044335 14:0.86422789 15:0.31361726 16:0.71433771 17:0.30956244 18:0.5890429 19:0.56121224 20:0.57943654 21:0.59096056 22:0.80822247 23:0.30603841 24:0.55798918 25:0.26953903 26:0.4798674 27:0.81049371 28:0.6780917 29:0.47891667 30:0.16582224 31:0.6548894 32:0.46636575 33:0.46439463 34:0.47190183 35:0.51208305 36:0.69676167 37:0.39976513 38:0.22867547 39:0.606929 40:0.27087751 41:0.6876359 42:0.77181596 43:0.45170254 44:0.10533123 
-1.966833938418007 0 1:0.28928679 2:0.42817369 3:0.31808224 4:0.40212032 5:0.34925979 6:0.74010205 7:0.32279509 8:0.60116273 9:0.92614394 10:0.37557295 11:0.62695646 12:0.71323901 13:0.4385502 14:0.61662984 15:0.25938103 16:1 17:0.58288884 18:0.59065038 19:0.77747077 20:0.89182127 21:0.5403958 22:0.60115629 23:0.35546473 24:0.50730169 25:0.27925184 26:0.38849139 27:0.51253563 28:0.90891421 29:0.45409438 30:0.2080487 31:0.62867397 32:0.67156911 33:0.40255028 34:0.41710067 35:0.43709847 36:0.55479002 37:0.60378623 38:0.28337663 39:0.35797855 40:0.055863909 41:0.43624875 42:0.59915251 43:0.41973177 44:0.022817358 
-1.795243126259172 0 1:0.27359721 2:0.48256996 3:0.4402335 4:0.38273364 5:0.84742403 6:0.29887989 7:0.61794138 8:0.43836412 9:0.63893014 10:0.60300785 11:0.67507452 12:0.37512767 13:0.35168785 14:0.36470413 15:0.2217851 16:0.55897278 17:0.5358569 18:0.83371794 19:0.72572941 20:0.80546898 21:0.60202223 22:0.5367974 23:0.67444491 24:0.63610059 25:0.21037348 26:0.29007497 27:0.58700293 28:0.52365148 29:0.40938634 30:0.3776536 31:0.49913123 32:0.49834806 33:0.49587473 34:0.27985263 35:0.39611372 36:0.40721586 37:0.2011791 38:0.47712117 39:0.47763366 40:0.50914013 41:0.81513059 42:0.41577855 43:0.050425228 44:0.14002697 
-0 0.05630700318348864 1:0.78480387 2:0.62358391 3:0.55802685 4:0.43060568 5:0.55203909 6:0.48081771 7:0.42571178 8:0.33876318 9:0.47665602 10:0.67677969 11:0.21761359 12:0.3932555 13:0.37975246 14:0.4061847 15:0.46015039 16:0.66342109 17:0.43388245 18:0.68858302 19:0.62488544 20:0.26315987 21:0.60643858 22:0.46836448 23:0.46122238 24:0.76481628 25:0.71504325 26:0.61299235 27:0.59053743 28:0.6771993 29:0.321336 30:0.19631305 31:0.24289961 32:0.60592681 33:0.20804967 34:0.27718773 35:0.70251131 36:0.7589376 37:0.62120706 38:0.58561027 39:0.9824543 40:0.58515495 41:0.98015171 42:0.12803882 43:0.26005939 44:0.24244048 
-0 1.051363958053648 1:0.78480387 2:0.62358391 3:0.55802685 4:0.43060568 5:0.55203909 6:0.48081771 7:0.42571178 8:0.33876318 9:0.47665602 10:0.67677969 11:0.21761359 12:0.3932555 13:0.37975246 14:0.4061847 15:0.46015039 16:0.66342109 17:0.43388245 18:0.68858302 19:0.62488544 20:0.26315987 21:0.60643858 22:0.46836448 23:0.46122238 24:0.76481628 25:0.71504325 26:0.61299235 27:0.59053743 28:0.6771993 29:0.321336 30:0.19631305 31:0.24289961 32:0.60592681 33:0.20804967 34:0.27718773 35:0.70251131 36:0.7589376 37:0.62120706 38:0.58561027 39:0.9824543 40:0.58515495 41:0.98015171 42:0.12803882 43:0.26005939 44:0.24244048 
-3.232613414820547 1.48188044600689 1:0.4396795 2:0.5078246 3:0.10299967 4:0.48670009 5:0.7378394 6:0.53552622 7:0.27649367 8:0.40841061 9:0.53883505 10:0.57658625 11:0.43298981 12:0.46199223 13:0.66554785 14:0.77498269 15:0.49040371 16:0.25949383 17:0.4406822 18:0.75133365 19:0.25014907 20:0.18731461 21:0.22578782 22:0.83546895 23:0.396184 24:0.42135024 25:0.61875266 26:0.49514544 27:0.33166847 28:0.7981317 29:0.45013052 30:0.40864256 31:0.49583045 32:0.47678578 33:0.50779009 34:0.73700869 35:0.56849003 36:0.36982551 37:0.46550152 38:0.65517813 39:0.33037549 40:0.36819381 41:0.49617615 42:0.29040802 43:0.35522041 44:0.15468474 
-0 0.0003855040500481304 1:0.63041848 2:0.47519243 3:0.71669549 4:0.43005571 5:0.44269899 6:0.69926506 7:0.50616175 8:0.60452902 9:0.17945063 10:0.93023425 11:0.58164841 12:0.48875466 13:0.44224843 14:0.73397821 15:0.047788609 16:0.87554532 17:0.76399094 18:0.49639332 19:0.48082602 20:0.085293934 21:0.21088028 22:0.71040148 23:0.639934 24:0.85129571 25:0.42443243 26:0.91087681 27:0.64564806 28:0.53262782 29:0.36465949 30:0.30019343 31:0.87137979 32:0.59256965 33:0.83759832 34:0.67554736 35:0.37451291 36:0.58437699 37:0.60989308 38:0.22926497 39:0.079033531 40:0.51280403 41:0.54635608 42:0.25606969 43:0.62082797 44:0.25330055 
-0 0.5797552267380678 1:0.63041848 2:0.47519243 3:0.71669549 4:0.43005571 5:0.44269899 6:0.69926506 7:0.50616175 8:0.60452902 9:0.17945063 10:0.93023425 11:0.58164841 12:0.48875466 13:0.44224843 14:0.73397821 15:0.047788609 16:0.87554532 17:0.76399094 18:0.49639332 19:0.48082602 20:0.085293934 21:0.21088028 22:0.71040148 23:0.639934 24:0.85129571 25:0.42443243 26:0.91087681 27:0.64564806 28:0.53262782 29:0.36465949 30:0.30019343 31:0.87137979 32:0.59256965 33:0.83759832 34:0.67554736 35:0.37451291 36:0.58437699 37:0.60989308 38:0.22926497 39:0.079033531 40:0.51280403 41:0.54635608 42:0.25606969 43:0.62082797 44:0.25330055 
-1.555508740439948 0.4002687257361756 1:0.55139571 2:0.55164641 3:0.50879908 4:0.65926057 5:0.45198193 6:0.32376388 7:0.50417215 8:0.67582995 9:0.19582549 10:0.9182952 11:0.5882439 12:0.52497405 13:0.45590225 14:0.74758691 15:0.47398594 16:0.53513163 17:0.5479461 18:0.73709267 19:0.43127263 20:0.50224972 21:0.5070979 22:0.27684546 23:0.37996379 24:0.57029575 25:0.43530989 26:0.36612999 27:0.37358463 28:0.5148899 29:0.28437135 30:0.26199722 31:0.75979441 32:0.56314695 33:0.47170311 34:0.45226651 35:0.41593719 36:0.36497042 37:0.32332554 38:0.29278481 39:0.63247395 40:0.26787496 41:0.55652899 42:0.21448976 43:0.38279223 44:0.15096654 
-0 3.460659010684986 1:0.5442915 2:0.57781219 3:0.44353193 4:0.71350837 5:0.25206769 6:0.45266238 7:0.4538717 8:0.44618592 9:0.061353695 10:0.42505169 11:0.80546993 12:0.48333719 13:0.40612507 14:0.64430028 15:0.28119922 16:0.67818224 17:0.5371781 18:0.81406045 19:0.17835271 20:0.43437031 21:0.44205141 22:0.45706004 23:0.31050164 24:0.64289528 25:0.5268352 26:0.57935131 27:0.42045215 28:0.45038161 29:0.38554174 30:0.31577811 31:0.67624533 32:0.50815743 33:0.58944052 34:0.63463736 35:0.45655587 36:0.35568789 37:0.52676034 38:0.64164716 39:0.53379154 40:0.37368655 41:0.53086835 42:0.30831403 43:0.40326819 44:0.13368194 
-0 10 1:0.19915335 2:0.29003045 3:0.40494704 4:0.8096087 5:0.74565119 6:0.59391683 7:0.49819452 8:0.25337464 9:0.47053218 10:0.97286934 11:0.63961565 12:0.69324261 13:0.22894958 14:0.29914418 15:0.46429601 16:0.67276025 17:0.47440097 18:0.75873935 19:0.50415659 20:0.42068619 21:0.39249679 22:0.41765502 23:0.40475035 24:0.56184119 25:0.5099678 26:0.20899595 27:0.55764866 28:0.84298134 29:0.12522103 30:0.48548558 31:0.38238224 32:0.41235787 33:0.5200215 34:0.73809522 35:0.44434315 36:0.44859505 37:0.43543985 38:0.6946342 39:0.58883357 40:0.44876084 41:0.27859187 42:0.6613431 43:0.71936005 44:0.83206797 
-2.232346901901104 0.8919852170790946 1:0.46648845 2:0.49464011 3:0.21772335 4:0.55576348 5:0.6392746 6:0.57125175 7:0.69902885 8:0.45444077 9:0.24456145 10:0.16827147 11:0.62148881 12:0.5465731 13:0.21434791 14:0.58069193 15:0.53089398 16:0.83417982 17:0.54510266 18:0.71046263 19:0.47174332 20:0.57698178 21:0.60925817 22:0.56842899 23:0.0888521 24:0.64907569 25:0.5416612 26:0.63153118 27:0.37883148 28:0.52138281 29:0.27342883 30:0.43513441 31:0.54926461 32:0.84260118 33:0.15227345 34:0.54501158 35:0.49360326 36:0.57613909 37:0.18011786 38:0.67252874 39:0.047142889 40:0.46287116 41:0.46187457 42:0.26427883 43:0.69487119 44:0.16714741 
-0.2413203789452964 0 1:0.55382466 2:0.38661268 3:0.51956302 4:0.7989049 5:0.62598968 6:0.6413396 7:0.36817971 8:0.55340838 9:0.26156655 10:0.44238514 11:0.79641944 12:0.61371195 13:0.41545248 14:0.63474196 15:0.52422607 16:0.48636508 17:0.65412599 18:0.89909601 19:0.49093539 20:0.30111173 21:0.79882967 22:0.34155917 23:0.19477029 24:0.30705941 25:0.34552416 26:0.28922528 27:0.51044869 28:0.45151967 29:0.52012455 30:0.18297414 31:0.53710157 32:0.61059421 33:0.47059765 34:0.56293213 35:0.59768033 36:0.19038022 37:0.53211135 38:0.39650011 39:0.64795107 40:0.59460205 41:0.15331404 42:0.30785197 43:0.58443171 44:0.060858946 
-0 1.072413296397152 1:0.44208902 2:0.51356018 3:0.55598402 4:0.61689162 5:0.65217137 6:0.53081959 7:0.38799906 8:0.58680487 9:0.48179522 10:0.65146393 11:0.55228621 12:0.56070149 13:0.57524991 14:0.73715544 15:0.46587494 16:0.54818821 17:0.62899327 18:0.87904024 19:0.36545452 20:0.3083691 21:0.63112617 22:0.57316053 23:0.28958994 24:0.30468318 25:0.33898798 26:0.32980919 27:0.37234247 28:0.59110975 29:0.55038542 30:0.20458171 31:0.32223958 32:0.51077342 33:0.4210175 34:0.4489806 35:0.44797608 36:0.22479276 37:0.59695023 38:0.28224489 39:0.57612127 40:0.75396025 41:0.084282748 42:0.34078223 43:0.56623477 44:0.088421896 
-1.601944308695684 0 1:0.43398675 2:0.54215288 3:0.38353187 4:0.70587546 5:0.62371618 6:0.35158339 7:0.27749893 8:0.51228535 9:0.42072991 10:0.37339762 11:0.43018922 12:0.49226096 13:0.55037308 14:0.57782727 15:0.72650588 16:0.47271895 17:0.43431386 18:0.58616024 19:0.44690189 20:0.80255246 21:0.48433167 22:0.57867861 23:0.31241468 24:0.65739894 25:0.72260237 26:0.38238779 27:0.29735842 28:0.65365517 29:0.41647294 30:0.43727586 31:0.23833935 32:0.7909407 33:0.25651762 34:0.63284123 35:0.41489574 36:0.52577657 37:0.37289926 38:0.10492561 39:0.54227865 40:0.85532737 41:0.40831736 42:0.33151013 43:0.76367801 44:0.17437258 
-0 0.875294866143879 1:0.59561372 2:0.60420936 3:0.37700358 4:0.63303846 5:0.58976018 6:0.54461306 7:0.37212184 8:0.36689308 9:0.4731243 10:0.57697523 11:0.41268483 12:0.4949019 13:0.52486008 14:0.65059239 15:0.6790266 16:0.58360505 17:0.31562871 18:0.65331495 19:0.25037673 20:0.56136125 21:0.34101695 22:0.64350235 23:0.2168099 24:0.49805632 25:0.49809605 26:0.49962834 27:0.30265823 28:0.59418046 29:0.45951301 30:0.4340187 31:0.37762824 32:0.65737784 33:0.35237601 34:0.63528597 35:0.41424531 36:0.48882574 37:0.36279503 38:0.34175786 39:0.47571936 40:0.91414815 41:0.17360693 42:0.28260699 43:0.69533616 44:0.15797405 
-0 1.63867605858092 1:0.45863086 2:0.46687493 3:0.52720058 4:0.65946776 5:0.52203101 6:0.49351713 7:0.48054036 8:0.35790977 9:0.37431559 10:0.67604345 11:0.13730854 12:0.53754127 13:0.65070367 14:0.61497414 15:0.3211875 16:0.47455716 17:0.73157912 18:0.7233907 19:0.28392088 20:0.24886858 21:0.49314079 22:0.26285636 23:0.3732796 24:0.86450899 25:0.51422602 26:0.59536749 27:0.52501309 28:0.51470977 29:0.53919959 30:0.29770032 31:0.41249233 32:0.59556425 33:0.23897141 34:0.19984001 35:0.49679941 36:0.30647102 37:0.45048082 38:0.60500789 39:0.2304648 40:0.095230579 41:0.32681391 42:0.3746247 43:0.59482318 44:0.14483543 
-0 0.3525033285372275 1:0.44876665 2:0.31970575 3:0.5972926 4:0.67931408 5:0.42968807 6:0.54409802 7:0.73118901 8:0.52072173 9:0.73100561 10:0.4182862 11:0.75330293 12:0.5496785 13:0.55138427 14:0.51428401 15:0.42541036 16:0.41289878 17:0.41101712 18:0.65239936 19:0.60121721 20:0.50417274 21:0.51266158 22:0.130485 23:0.51719898 24:0.31287739 25:0.51880395 26:0.35214591 27:0.50299543 28:0.52839172 29:0.62275755 30:0.54588705 31:0.56357634 32:0.61586928 33:0.45536047 34:0.77915543 35:0.43755984 36:0.73607641 37:0.39528757 38:0.34808272 39:0.41396016 40:0.046014138 41:0.29070032 42:0.33009222 43:0.59701842 44:0.1531115 
-0 0.8037320900775428 1:0.42117006 2:0.29209125 3:0.4352003 4:0.72575122 5:0.54833496 6:0.77089506 7:0.64688164 8:0.59590209 9:0.49896425 10:0.56416637 11:0.38604677 12:0.50004613 13:0.5341844 14:0.54856455 15:0.36030114 16:0.4436931 17:0.34719187 18:0.59781474 19:0.32484582 20:0.22096905 21:0.50723982 22:0.45000589 23:0.24461226 24:0.65067667 25:0.48440424 26:0.44564804 27:0.45824558 28:0.4038198 29:0.37759134 30:0.38810638 31:0.6862238 32:0.55547714 33:0.26965466 34:0.40673456 35:0.45886779 36:0.49036178 37:0.31719109 38:0.55002761 39:0.34401128 40:0 41:0.20671801 42:0.28738886 43:0.38452932 44:0.10889328 
-0.0549475791305055 2.094709020616345 1:0.2460261 2:0.55274808 3:0.52626771 4:0.44656581 5:0.48238048 6:0.50490087 7:0.76410341 8:0.48205391 9:0.58150345 10:0.64952868 11:0.38453573 12:0.60196471 13:0.53042394 14:0.69209272 15:0.34101346 16:0.53157389 17:0.29226342 18:0.64106131 19:0.36035496 20:0.41527057 21:0.72987682 22:0.88386953 23:0.27410108 24:0.83115709 25:0.55775553 26:0.44267824 27:0.4566896 28:0.7504732 29:0.06393154 30:0.30872342 31:0.80026925 32:0.62291509 33:0.23917663 34:0.35237059 35:0.45622817 36:0.5102098 37:0.34661418 38:0.4006345 39:0.32430795 40:0.11069942 41:0.30186975 42:0.23978895 43:0.43435997 44:0.17056984 
-0.8612910803299689 0 1:0.32634544 2:0.3560974 3:0.28245759 4:0.4845823 5:0.48817492 6:0.51318413 7:0.68020368 8:0.23623842 9:0.65256548 10:0.68753493 11:0.46991256 12:0.58723396 13:0.82663512 14:0.61681837 15:0.32912791 16:0.69287467 17:0.46073055 18:0.42941326 19:0.40650401 20:0.45009616 21:0.74085206 22:0.35040292 23:0.55698502 24:0.49237499 25:0.65666497 26:0.28639391 27:0.31610635 28:0.47442788 29:0.17213435 30:0.52518237 31:0.78091908 32:0.43145862 33:0.26519066 34:0.63648659 35:0.50218058 36:0.68793571 37:0.26213077 38:0.36456844 39:0.30863962 40:0.26877251 41:0.34544018 42:0.28136104 43:0.70057887 44:0.18744555 
-0 0.1439613593400167 1:0.54640853 2:0.54159468 3:0.45345443 4:0.50270778 5:0.50656718 6:0.56504768 7:0.59204608 8:0.22723338 9:0.24520296 10:0.4443813 11:0.37884858 12:0.6068446 13:0.50929439 14:0.75992101 15:0.29707384 16:0.52018833 17:0.60144544 18:0.75306773 19:0.29395142 20:0.46628302 21:0.35147217 22:0.35016692 23:0.15371159 24:0.70058858 25:0.40395179 26:0.39827713 27:0.44392496 28:0.5090732 29:0.20132785 30:0.23026216 31:0.55274814 32:0.66818368 33:0.21033622 34:0.45830032 35:0.52887803 36:0.22669147 37:0.53038251 38:0.18582597 39:0.81867582 40:0.50748515 41:0.26264951 42:0.33419541 43:0.57406372 44:0.097453192 
-2.688645277563634 0 1:0.47229725 2:0.47731149 3:0.25948113 4:0.52109408 5:0.48965064 6:0.67119396 7:0.70278674 8:0.48775682 9:0.33767071 10:0.29486778 11:0.55365795 12:0.47962064 13:0.49493024 14:0.40150967 15:0.36460426 16:0.60257417 17:0.58801574 18:0.66095239 19:0.38705328 20:0.44088244 21:0.4962917 22:0.75134867 23:0.38174823 24:0.5401994 25:0.59980309 26:0.31432974 27:0.34061259 28:0.53757966 29:0.40529555 30:0.2911908 31:0.88186908 32:0.64118445 33:0.22074831 34:0.52908176 35:0.33433259 36:0.29911342 37:0.41632769 38:0.36188823 39:0.73005795 40:0.5314244 41:0.12496563 42:0.25502819 43:0.44220462 44:0.087597236 
-0 0.2872641534870044 1:0.4386805 2:0.40310848 3:0.46550333 4:0.41979265 5:0.73548913 6:0.38518682 7:0.56335849 8:0.57248068 9:0.26846382 10:0.054278042 11:0.59341836 12:0.52167201 13:0.41779616 14:0.75134522 15:0.41632703 16:0.56299669 17:0.61165619 18:0.53125262 19:0.8877455 20:0.79114544 21:0.32744664 22:0.63248092 23:0.63945323 24:0.680632 25:0.38400963 26:0.53469568 27:0.50412536 28:0.73644722 29:0.38127837 30:0.36456117 31:0.47461608 32:0.66599709 33:0.26676041 34:0.45374209 35:0.47537917 36:0.33525559 37:0.64554107 38:0.058038767 39:0.83410823 40:0.63923955 41:0.16269204 42:0.44115627 43:0.67746973 44:0.12342515 
-0 -5.543211076357955 1:0.31842867 2:0.31879398 3:0.75442672 4:0.62930369 5:0.47860071 6:0.79452491 7:0.5316003 8:0.33621779 9:0.3789871 10:0.46389952 11:0.66137576 12:0.68769908 13:0.30166921 14:0.61756128 15:0.60739917 16:0.6218462 17:0.1772735 18:0.62941945 19:0.51846772 20:0.25108671 21:0.39904001 22:0.8831858 23:0.17308635 24:0.62826329 25:0.52839541 26:0.010740118 27:0.61354214 28:0.54103529 29:0.29241771 30:0.34088239 31:0.4220466 32:0.49563131 33:0.46155047 34:0.55046815 35:0.54553825 36:0.58115608 37:0.46681523 38:0.51010114 39:0.43792957 40:0.54651445 41:0.32823467 42:0.38970369 43:0.22924407 44:0.78931087 
-0.3707094981919078 -0.2000431665463288 1:0.53575462 2:0.2700685 3:0.21271594 4:0.84124768 5:0.58137995 6:0.79993564 7:0.73295259 8:0.55005068 9:0.31920496 10:0.51546985 11:0.16392133 12:0.5456565 13:0.46145138 14:0.30117124 15:0.77721345 16:0.46119758 17:0.39425159 18:0.65686488 19:0.62319112 20:0.35339871 21:0.31603625 22:0.7377786 23:0.27028474 24:0.71153134 25:0.21369357 26:0.33584601 27:0.2714121 28:0.59018368 29:0.26306146 30:0.33568272 31:0.42929089 32:0.37792474 33:0.10331114 34:0.88713682 35:0.33972788 36:0.68578529 37:0.45640752 38:0.65934795 39:0.43122467 40:0.41149017 41:0.32253316 42:0.62268943 43:0.39786312 44:0.81699216 
-1.915905323792718 -0 1:0.88171554 2:0.60073292 3:0.38791898 4:0.53519821 5:0.36260545 6:0.44627842 7:0.45279247 8:0.48037261 9:0.48311633 10:0.14291251 11:0.16351308 12:0.57381463 13:0.64317292 14:0.49094126 15:0.39454913 16:0.20526637 17:0.93832666 18:0.83588994 19:0.59816647 20:0.6009081 21:0.15589979 22:0.53045106 23:0.035637405 24:0.67979395 25:0.37092227 26:0.74564356 27:0.49680582 28:0.2231081 29:0.41126254 30:0.29327276 31:0.61409843 32:0.69436842 33:0.14530122 34:0.55701679 35:0.60544586 36:0.59249461 37:0.45612243 38:0.16066815 39:0.38229021 40:0.44412816 41:0.59399593 42:0.60258937 43:0.28635821 44:0.95970988 
-0 -2.076580992496751 1:0.50727826 2:0.46265358 3:0.17736398 4:0.62434381 5:0.64797562 6:0.4042438 7:0.25265977 8:0.49557918 9:0.32526958 10:0.49293786 11:0.38325217 12:0.49498844 13:0.51919812 14:0.33386573 15:0.65124696 16:0.59255677 17:0.52451628 18:0.4807145 19:0.38849667 20:0.31813061 21:0.35222399 22:0.4979344 23:0.4914813 24:0.41027227 25:0.33524513 26:0.67160702 27:0.64190912 28:0.39149269 29:0.3893984 30:0.34634346 31:0.12258083 32:0.76072001 33:0.35943571 34:0.60726744 35:0.49564964 36:0.6375913 37:0.53139341 38:0.53652561 39:0.3905251 40:0.41525656 41:0.22729172 42:0.63759607 43:0.42792976 44:0.81123829 
-0.2389711916914602 -0 1:0.33147493 2:0.21912822 3:0.38395196 4:0.28371996 5:0.72255993 6:0.39924154 7:0.68179655 8:0.73510623 9:0.7223174 10:0.55380243 11:0.22850674 12:0.4987559 13:0.46858928 14:0.80268186 15:0.56858587 16:0.71129864 17:0.69604653 18:0.59536976 19:0.69591737 20:0.72302157 21:0.64401859 22:0.50234079 23:0.67492765 24:0.38325992 25:0.34725505 26:0.42712477 27:0.66679734 28:0.34620309 29:0.71936363 30:0.23881191 31:0.3228538 32:0.55943775 33:0.51551276 34:0.65888911 35:0.58542269 36:0.50487828 37:0.45475262 38:0.32895765 39:0.35437363 40:0.44690466 41:0.56773502 42:0.39318684 43:0.21607096 44:0.94557232 
-0 -0.001350071546610271 1:0.36501384 2:0.26877177 3:0.24572466 4:0.46699283 5:0.6263451 6:0.65618503 7:0.55612248 8:0.46447781 9:0.22016212 10:0.47189209 11:0.46583816 12:0.63082248 13:0.73778379 14:0.82679343 15:0 16:0.45572823 17:0.82325131 18:0.61168975 19:0.66836149 20:0.84265006 21:0.89999038 22:0.17845018 23:0.57106072 24:0.27251226 25:0.80433029 26:0.87728238 27:0.317691 28:0.64070058 29:0.30064112 30:0.2438602 31:0.46991313 32:0.42085713 33:0.95034206 34:0.63434124 35:0.42805544 36:0.41704962 37:0.59050679 38:0.63026589 39:0.54403776 40:0.40832058 41:0.18820016 42:0.42032775 43:0.37536743 44:0.85544288 
-0.7451015549045547 -1.571825690732345 1:0.36501384 2:0.26877177 3:0.24572466 4:0.46699283 5:0.6263451 6:0.65618503 7:0.55612248 8:0.46447781 9:0.22016212 10:0.47189209 11:0.46583816 12:0.63082248 13:0.73778379 14:0.82679343 15:0 16:0.45572823 17:0.82325131 18:0.61168975 19:0.66836149 20:0.84265006 21:0.89999038 22:0.17845018 23:0.57106072 24:0.27251226 25:0.80433029 26:0.87728238 27:0.317691 28:0.64070058 29:0.30064112 30:0.2438602 31:0.46991313 32:0.42085713 33:0.95034206 34:0.63434124 35:0.42805544 36:0.41704962 37:0.59050679 38:0.63026589 39:0.54403776 40:0.40832058 41:0.18820016 42:0.42032775 43:0.37536743 44:0.85544288 
-0 -1.396632121781787 1:0.22417614 2:0.90881783 3:0.38804588 4:0.62128699 5:0.64951867 6:0.59042984 7:1 8:0.28121006 9:0.38329357 10:0.47470313 11:0.47535211 12:0.67456257 13:0.48307842 14:0.87852627 15:0.5168125 16:0.37569779 17:0.36600769 18:0.56466103 19:0.32662487 20:0.68173647 21:0.34266251 22:0.11054507 23:0.40818778 24:0.76256156 25:0.83580327 26:0.51433748 27:0.48077828 28:0.7244578 29:0.52815604 30:0.21796398 31:0.70347846 32:0.73332667 33:0.51256472 34:0.39933422 35:0.37340331 36:0.59233129 37:0.47247696 38:0.58077949 39:0.20592919 40:0.65562046 41:0.42278963 42:0.63561034 43:0.97730798 44:0.90906352 
-0.4364298667213143 -0 1:0.10246567 2:0.62993842 3:0.15340146 4:0.68752283 5:0.70289069 6:0.90292358 7:0.36501688 8:0.23026627 9:0.37538001 10:0.43047825 11:0.59280562 12:0.54234189 13:0.38768196 14:0.60362571 15:0.47722134 16:0.4764975 17:0.71012634 18:0.61324281 19:0.5441255 20:0.64054674 21:0.33088928 22:0.71508008 23:0.33349249 24:0.56336063 25:0.35913569 26:0.25574768 27:0.58564156 28:0.49551511 29:0.36210707 30:0.21302822 31:0.50301212 32:0.6213817 33:0.52275002 34:0.28360581 35:0.38964075 36:0.61652941 37:0.53533202 38:0.36958182 39:0.2627669 40:0.50561035 41:0.48469174 42:0.31381702 43:0.27592617 44:0.89477873 
-0 -0.03426921810297093 1:0.39451379 2:0.5090434 3:0.41758445 4:0.51531225 5:0.6591689 6:0.49086335 7:0.46569172 8:0.60310423 9:0.39058468 10:0.26626682 11:0.2839286 12:0.67737532 13:0.63395458 14:0.58142817 15:0.27901015 16:0.66215318 17:0.59672892 18:0.62110233 19:0.50557512 20:0.36085901 21:0.42882976 22:0.3448306 23:0.6312927 24:0.88974595 25:0.2133714 26:0.042531785 27:0.58800787 28:0.94599974 29:0.36341488 30:0.50705838 31:0.33431172 32:0.43897808 33:0.23317161 34:0.85836756 35:0.33632469 36:0.23795821 37:0.48114961 38:0.5312764 39:0.36699483 40:0.53174049 41:0.82638019 42:0.03222416 43:0.89537293 44:0.76090181 
-0 -2.180895795243453 1:0.39451379 2:0.5090434 3:0.41758445 4:0.51531225 5:0.6591689 6:0.49086335 7:0.46569172 8:0.60310423 9:0.39058468 10:0.26626682 11:0.2839286 12:0.67737532 13:0.63395458 14:0.58142817 15:0.27901015 16:0.66215318 17:0.59672892 18:0.62110233 19:0.50557512 20:0.36085901 21:0.42882976 22:0.3448306 23:0.6312927 24:0.88974595 25:0.2133714 26:0.042531785 27:0.58800787 28:0.94599974 29:0.36341488 30:0.50705838 31:0.33431172 32:0.43897808 33:0.23317161 34:0.85836756 35:0.33632469 36:0.23795821 37:0.48114961 38:0.5312764 39:0.36699483 40:0.53174049 41:0.82638019 42:0.03222416 43:0.89537293 44:0.76090181 
-1.434985321106121 -1.052053646167508 1:0.70020086 2:0.52162439 3:0.9288702 4:0.51244593 5:0.56002104 6:0.42396402 7:0.47309572 8:0.60482961 9:0.068106025 10:0.74948877 11:0.18469669 12:1 13:0.42741486 14:0.36061949 15:0.53215539 16:0.49094337 17:0.83387405 18:0.62956071 19:0.44217953 20:0.33467469 21:0.40275073 22:0.27673832 23:0.080421425 24:0.53587842 25:0.77257031 26:0.32318953 27:0.52153093 28:0.63397437 29:0.14081293 30:0.35632131 31:0.44839692 32:0.28621799 33:0.20329486 34:0.60281444 35:0.20145404 36:0.29543602 37:0.63410062 38:0.30721423 39:0.26415396 40:0.50462842 41:0.48580578 42:0.56921083 43:0.32855365 44:0.87788451 
-10 -10 1:0.42299721 2:0.25704324 3:0.39518327 4:0.85661101 5:0.45910722 6:0.42430994 7:0.61471647 8:0.59466004 9:0.53632152 10:0.50965995 11:0.31108066 12:0.50736272 13:0.21719572 14:0.77112556 15:0.35235113 16:0.52600282 17:0.32993627 18:0.72612512 19:0.22521278 20:0.32911685 21:0.477588 22:0.543136 23:0.49466604 24:0.63074726 25:0.48933339 26:0.41464472 27:0.5309571 28:0.52394074 29:0.35081047 30:0.3971113 31:0.37461379 32:0.39909247 33:0.56006747 34:0.27875924 35:0.53797919 36:0.042388242 37:0.29577321 38:0.44148457 39:0.53615028 40:0.60308564 41:0.73692638 42:0.57794952 43:0.28942755 44:0.12332521 
-2.075644403169099 -0 1:0.29531026 2:0.56046259 3:0.92009854 4:0.54740894 5:0.32019454 6:0.38632333 7:0.29644749 8:0.44483793 9:0.58609045 10:0.43631434 11:0.75669336 12:0.46220809 13:0.54322374 14:0.70662874 15:0.86674494 16:0.6270467 17:0.5389877 18:0.80196267 19:0.5065617 20:0.48081276 21:1 22:0.93695939 23:0.41441789 24:0.88093501 25:0.49304816 26:0.86858606 27:0.34466687 28:0.32566836 29:0.65235686 30:0.46020591 31:0.48387069 32:0.79767442 33:0.50418139 34:0.67697513 35:0.28565174 36:0.53437752 37:0.5516243 38:0.62495267 39:0.78175527 40:0.34936726 41:0.57931644 42:0.38648206 43:0.66176015 44:0.8282162 
-0.003357421637819603 -0 1:0.54008579 2:0.38938686 3:0.14378165 4:0.63497144 5:0.67325926 6:0.36928102 7:0.49297079 8:1 9:0.53811097 10:0.64423883 11:0.52080423 12:0.36467808 13:0.52840453 14:0.69739437 15:0.85941744 16:0.80715466 17:0.57914382 18:0.71504402 19:0.2273418 20:0.57751209 21:0.51689118 22:0.34261784 23:0.74677724 24:0.44238713 25:0.077453926 26:0.58166671 27:0.5794763 28:0.58930278 29:0.52083647 30:0.3410373 31:0.80778146 32:0.96386576 33:0.3312532 34:0.68857974 35:0.80245709 36:0.28650245 37:0.46058294 38:0.5403834 39:0.61699122 40:0.23296128 41:0.64410084 42:0.31162363 43:0.41459313 44:0.839517 
-0.9912501609116102 -0 1:0.54008579 2:0.38938686 3:0.14378165 4:0.63497144 5:0.67325926 6:0.36928102 7:0.49297079 8:1 9:0.53811097 10:0.64423883 11:0.52080423 12:0.36467808 13:0.52840453 14:0.69739437 15:0.85941744 16:0.80715466 17:0.57914382 18:0.71504402 19:0.2273418 20:0.57751209 21:0.51689118 22:0.34261784 23:0.74677724 24:0.44238713 25:0.077453926 26:0.58166671 27:0.5794763 28:0.58930278 29:0.52083647 30:0.3410373 31:0.80778146 32:0.96386576 33:0.3312532 34:0.68857974 35:0.80245709 36:0.28650245 37:0.46058294 38:0.5403834 39:0.61699122 40:0.23296128 41:0.64410084 42:0.31162363 43:0.41459313 44:0.839517 
-1.609243725799598 -0 1:0.50762957 2:0.62235475 3:0.86945111 4:0.75105512 5:0.74622315 6:0.72699749 7:0.30212364 8:0.33742735 9:0.33139375 10:0.76748508 11:0.80851179 12:0.73640239 13:0.66615647 14:0.61750066 15:0.6310721 16:0.7019245 17:0.45538571 18:0.5311349 19:0.66269779 20:0.52186078 21:0.60759157 22:0.79921734 23:0.30308041 24:0.78684592 25:0.49895179 26:0.15359564 27:0.64853239 28:0.6066125 29:0.41037202 30:0.37060261 31:0.46718985 32:0.27545711 33:0.22615895 34:0.7264539 35:0.54821134 36:0.43481621 37:0.54119372 38:0.3562758 39:0.43369833 40:0.41069958 41:0.53976619 42:0.51348788 43:0.25992456 44:0.88112944 
-0 -1.351928107092212 1:0.46122953 2:0.38585126 3:0.002773121 4:0.75946838 5:0.57525933 6:0 7:0.4658682 8:0.3296057 9:0.57956898 10:0.88830167 11:0.41927254 12:0.61664546 13:0.59613049 14:0.47140494 15:0.40800115 16:0.36123344 17:0.43426907 18:0.49094349 19:0.56518221 20:0.4547424 21:0.51496321 22:0.30947459 23:0.38586989 24:0.71603489 25:0.63173854 26:0.51476127 27:0.56721401 28:0.65510792 29:0.40675288 30:0.23516054 31:0.50513005 32:0.45548949 33:0.53977448 34:0.41688982 35:0.25560263 36:0.5810318 37:0.52718222 38:0.64381945 39:0.4356975 40:0.57038617 41:0.23205249 42:0.72734553 43:0.87908071 44:0.91399086 
-1.724411619267284 -2.436304511584083 1:0.33095306 2:0.43585914 3:0.10517326 4:0.52657443 5:0.77358252 6:0.54032975 7:0.5955407 8:0.54247159 9:0.24007539 10:0.74616009 11:0.78989434 12:0.26206478 13:0.57613504 14:0.61475778 15:0.81028372 16:0.85344315 17:0.56137538 18:0.62026364 19:0.65399307 20:0.51578248 21:0.5882659 22:0.51097208 23:0.55651695 24:0.71037054 25:0.52890801 26:0.42412221 27:0.6050998 28:0.67975199 29:0.47874466 30:0.4357779 31:0.99111527 32:0.0742478 33:0.09678784 34:0.68979639 35:0.45958719 36:0.43445432 37:0.68247604 38:0.44728464 39:0.35833901 40:0.31588799 41:0.531712 42:0.43520173 43:0.11751397 44:0.83252174 
-0.001313657316139263 -0 1:0.45279852 2:0.45602918 3:0.39806798 4:0.46212366 5:0.65747416 6:0.55962837 7:0.47464234 8:0.57864571 9:0.40815026 10:0.22921108 11:0.21622466 12:0.67365128 13:0.81193101 14:0.79266214 15:0.023266234 16:0.76679444 17:0.61041772 18:0.58398223 19:0.35797331 20:0.44119608 21:0.31099623 22:0.48058641 23:0.59740692 24:0.88059777 25:0.084412806 26:0.034100663 27:0.5768581 28:0.86821449 29:0.39413214 30:0.46277475 31:0.29356575 32:0.51829773 33:0.25137821 34:0.84721082 35:0.45216459 36:0.3201786 37:0.47889107 38:0.54674 39:0.44156781 40:0.49427447 41:0.85877472 42:0.020334804 43:0.92766929 44:0.754592 
-1.360524566125563 -0 1:0.45279852 2:0.45602918 3:0.39806798 4:0.46212366 5:0.65747416 6:0.55962837 7:0.47464234 8:0.57864571 9:0.40815026 10:0.22921108 11:0.21622466 12:0.67365128 13:0.81193101 14:0.79266214 15:0.023266234 16:0.76679444 17:0.61041772 18:0.58398223 19:0.35797331 20:0.44119608 21:0.31099623 22:0.48058641 23:0.59740692 24:0.88059777 25:0.084412806 26:0.034100663 27:0.5768581 28:0.86821449 29:0.39413214 30:0.46277475 31:0.29356575 32:0.51829773 33:0.25137821 34:0.84721082 35:0.45216459 36:0.3201786 37:0.47889107 38:0.54674 39:0.44156781 40:0.49427447 41:0.85877472 42:0.020334804 43:0.92766929 44:0.754592 
-1.071114827011568 -0 1:0.48065996 2:0.517371 3:0.49937823 4:0.48362616 5:0.82757884 6:0.49287832 7:0.49840593 8:0.32805541 9:0.3584452 10:0.45828521 11:0.65620315 12:0.56981778 13:0.37676564 14:0.37993357 15:0.21817069 16:0.56626034 17:0.31014606 18:0.50579107 19:0.70360148 20:0.64878207 21:0.26722363 22:0.63670242 23:0.13233693 24:0.32486388 25:0.39661542 26:0.13118093 27:0.59631222 28:0.57671094 29:0.46840271 30:0.30538458 31:0.49981311 32:0.59642088 33:0.46447703 34:0.39436382 35:0.41306788 36:0.50109279 37:0.48841333 38:0.19014925 39:0.22196113 40:0.46149677 41:0.65933806 42:0.31439415 43:0.049533654 44:0.90928257 
-2.605889117258619e-06 -0.0006481009477921849 1:0.6554876 2:0.4921121 3:0.44541651 4:0.47637114 5:0.42197081 6:0.5866347 7:0.21764523 8:0.48475149 9:0.61102462 10:6.0512129e-16 11:0.15055564 12:0.48503745 13:0.19546379 14:0.77622908 15:0.38566279 16:0.70892507 17:0.38379994 18:0.71708912 19:0.51559925 20:0.4523465 21:0.81134152 22:0.29516599 23:0.59149474 24:0.63092983 25:0.67479765 26:1.6991419e-16 27:0.35715422 28:0.26995477 29:0.63532692 30:0.28110212 31:0.94616586 32:0.38171795 33:0.92213184 34:0.414924 35:6.3242233e-16 36:0.64499599 37:0.35754508 38:0.69946045 39:0.27698234 40:0.83016324 41:0.60661393 42:0.099616818 43:0.79885596 44:0.75599509 
-1.24336215614791 -0.9763067715762581 1:0.6554876 2:0.4921121 3:0.44541651 4:0.47637114 5:0.42197081 6:0.5866347 7:0.21764523 8:0.48475149 9:0.61102462 10:6.0512129e-16 11:0.15055564 12:0.48503745 13:0.19546379 14:0.77622908 15:0.38566279 16:0.70892507 17:0.38379994 18:0.71708912 19:0.51559925 20:0.4523465 21:0.81134152 22:0.29516599 23:0.59149474 24:0.63092983 25:0.67479765 26:1.6991419e-16 27:0.35715422 28:0.26995477 29:0.63532692 30:0.28110212 31:0.94616586 32:0.38171795 33:0.92213184 34:0.414924 35:6.3242233e-16 36:0.64499599 37:0.35754508 38:0.69946045 39:0.27698234 40:0.83016324 41:0.60661393 42:0.099616818 43:0.79885596 44:0.75599509 
-0 -0.7505682961227054 1:0.41482159 2:0.79337972 3:0.41337669 4:0.4693909 5:0.37913948 6:0.48217809 7:0.48315993 8:0.45375288 9:0.4239361 10:0.3800211 11:0.22837512 12:0.46472755 13:0.60298437 14:0.30851352 15:0.64386249 16:0.46217901 17:0.56404746 18:0.53670949 19:0.20190328 20:0.33934748 21:0.60055721 22:0.16340302 23:0.47806111 24:0.38944253 25:0.12184682 26:0.34626567 27:0.31616905 28:0.67424476 29:0.25964105 30:0.25613624 31:0.26512003 32:0.71800131 33:0.5249812 34:0.64544326 35:0.36012116 36:0.5880037 37:0.61685026 38:0.54456633 39:0.16537836 40:0.4699569 41:0.3567932 42:0.50480092 43:0.29161277 44:0.82696843 
-1.016080474359154 -0 1:0.57076848 2:0.55350798 3:0.90095818 4:0.29207215 5:0.51613092 6:0.93226904 7:0.58112007 8:0.27208281 9:0.56041515 10:0.30781144 11:1 12:0.62948459 13:0.55314487 14:0.70913309 15:0.3604894 16:0.53754956 17:0.53487253 18:0.50225383 19:9.0724495e-17 20:0.52231932 21:0.15451843 22:0.56372017 23:0.36507329 24:0.30358201 25:0.65796423 26:0.50348103 27:0.6479938 28:0.51969236 29:0.40510127 30:0.25601608 31:0.43499804 32:0.81989056 33:0.30165645 34:0.67085189 35:0.46382937 36:0.4827421 37:0.42358598 38:0.48874268 39:0.6566624 40:0.27219346 41:0.64574474 42:0.47726843 43:0.65214312 44:0.8036862 
-0 -1.420715556598396 1:1 2:0.2606113 3:0.34071362 4:0.68620121 5:0.75096327 6:0.33436435 7:0.79415101 8:0.47976628 9:0.40686536 10:0.79805988 11:0.26761314 12:0.64140022 13:0.51949477 14:0.61918998 15:0.33508721 16:0.5866096 17:0.31304568 18:0.49992484 19:0.29237536 20:0.59151232 21:0.23195024 22:0.19526532 23:0.37894645 24:0.48294044 25:0.2125638 26:0.34443465 27:0.72592932 28:0.5835551 29:0.28006735 30:0.29644358 31:0.41505805 32:0.45001146 33:0.37412608 34:0.67664546 35:0.1468347 36:0.57846707 37:0.53215379 38:0.77516609 39:0.4894731 40:0.53812706 41:0.40586466 42:0.51414078 43:0.9162429 44:0.77606726 
-0 -1.48640321582145 1:0.51928598 2:0.64728206 3:0.29836458 4:0.29080316 5:0.75225329 6:0.43536699 7:0.38122541 8:0.43073815 9:0.21385753 10:0.63515925 11:0.83823913 12:0.55023372 13:0.44067925 14:0.19541402 15:0.54400831 16:0.74026793 17:0.89700949 18:0.6530807 19:0.74260354 20:0.39909711 21:0.1877957 22:0.613859 23:0.016062349 24:0.5784837 25:0.69368988 26:0.0031776845 27:0.50025773 28:0.56017119 29:0.40051273 30:0.39248335 31:0.53430724 32:0.27761364 33:0.90226787 34:0.47598299 35:0.52472419 36:0.48162609 37:0.40828973 38:0.56329012 39:0.89708954 40:0.35257024 41:0.62983721 42:0.47166446 43:0.6833365 44:0.84809947 
-0.9914134479594917 -0 1:0.3270905 2:0.44470981 3:0.67625123 4:0.084892049 5:0.63227761 6:0.41956955 7:0.72542846 8:0.65183592 9:0.28258422 10:0.43580264 11:0.51693344 12:0.61617118 13:0.56533623 14:0.66786486 15:0.78907812 16:0.48070771 17:0.70408767 18:0.59338754 19:0.39704052 20:0.1499842 21:0.45295334 22:0.40088511 23:0.37515375 24:0.43716633 25:0.8023501 26:0.40595528 27:0.82726371 28:0.56090695 29:0.3045516 30:0.29730338 31:0.36263582 32:0.44735408 33:0.61304861 34:0.69031203 35:0.28125954 36:0.39684296 37:0.49545759 38:0.64565122 39:0.54554331 40:0.46084523 41:0.44349074 42:0.48494831 43:0.70293707 44:0.79870617 
-0.9542950930734212 -4.913060479881827 1:0.81956458 2:0.4615891 3:0.42771718 4:0.5913837 5:0.83267778 6:0.55251443 7:0.49016941 8:0.53016824 9:0.54525894 10:0.6841864 11:0.69563729 12:0.58039612 13:0.53184319 14:0.43099445 15:0.42062452 16:0.68767685 17:0.43025783 18:0.69206089 19:0.49253726 20:0.39644074 21:0.33739758 22:0.54487538 23:0.12532727 24:0.6093052 25:0.37089512 26:0.23129024 27:0.67400318 28:0.47326955 29:0.33404085 30:0.30198473 31:0.31693551 32:0.34760934 33:0.35926586 34:0.96662581 35:0.54043406 36:0.56692249 37:0.38761371 38:0.65528989 39:0.49321961 40:0.50418806 41:0.33614698 42:0.45040885 43:0.42440283 44:0.74021721 
-1.119184091413149e-05 -0 1:0.37845942 2:0.8192516 3:0.10282208 4:0.60806125 5:0.40663499 6:0.58698505 7:0.47142181 8:0.90310842 9:6.2127638e-16 10:0.40117258 11:0.92252105 12:0.53758693 13:0.61787599 14:0.76751328 15:0.55589879 16:0.32897907 17:0.63118911 18:0.45864695 19:0.41912633 20:0.037748363 21:0.19215883 22:0.83669835 23:0.53693217 24:0.4524096 25:0.2599591 26:0.43591967 27:0.60590672 28:0.48218417 29:0.46913409 30:0.30905741 31:0.24320851 32:0.38757795 33:0.11022665 34:0.078940213 35:0.13873379 36:0.86078376 37:0.66602778 38:0.39280319 39:0.59436041 40:0.40310574 41:0.77381146 42:0.68705702 43:0.81953377 44:0.85277009 
-0.4434475076678926 -0.315703770712936 1:0.37845942 2:0.8192516 3:0.10282208 4:0.60806125 5:0.40663499 6:0.58698505 7:0.47142181 8:0.90310842 9:6.2127638e-16 10:0.40117258 11:0.92252105 12:0.53758693 13:0.61787599 14:0.76751328 15:0.55589879 16:0.32897907 17:0.63118911 18:0.45864695 19:0.41912633 20:0.037748363 21:0.19215883 22:0.83669835 23:0.53693217 24:0.4524096 25:0.2599591 26:0.43591967 27:0.60590672 28:0.48218417 29:0.46913409 30:0.30905741 31:0.24320851 32:0.38757795 33:0.11022665 34:0.078940213 35:0.13873379 36:0.86078376 37:0.66602778 38:0.39280319 39:0.59436041 40:0.40310574 41:0.77381146 42:0.68705702 43:0.81953377 44:0.85277009 
-0 -2.399199166562246 1:0.37758797 2:0.46364486 3:0.72444433 4:0.60319096 5:0.51718587 6:0.39896312 7:0.54032469 8:0.23605427 9:0.55159765 10:0.84738696 11:0.61922836 12:0.48059088 13:0.49634579 14:0.56141084 15:0.45735118 16:0.38112333 17:0.44712299 18:0.78637141 19:0.78839904 20:0.52489638 21:0.49938497 22:0.73221874 23:0.33085206 24:0.49041986 25:0.46994981 26:0.42516094 27:0.46938407 28:0.90908277 29:0.4819262 30:0.36888081 31:0.63385659 32:0.75071108 33:0.80136657 34:0.41783303 35:0.5811218 36:0.32806745 37:0.26603889 38:0.64033324 39:0.79705673 40:0.34672627 41:0.47484797 42:0.39734134 43:0.71539503 44:0.87393028 
-0.3376065552398165 -0 1:0.33193642 2:0.31738234 3:0.79188782 4:0.65298945 5:0.64124507 6:0.54142624 7:0.63163859 8:0.31158593 9:0.23651114 10:0.67652184 11:0.27200124 12:0.48336408 13:0.47074759 14:0.61847925 15:0.67875367 16:0.46026707 17:0.59660524 18:0.76573908 19:0.65995699 20:0.57593 21:0.48889032 22:0.84263396 23:0.38905865 24:0.21439555 25:0.48730418 26:0.44572234 27:0.41493466 28:0.66367501 29:0.55956984 30:0.480012 31:0.41669938 32:0.53351939 33:0.43155274 34:0.48276636 35:0.24041034 36:0.51724684 37:0.38613439 38:0.42849618 39:0.80798405 40:0.20672821 41:0.73284125 42:0.28219706 43:0.73896718 44:0.81526709 
-0.3223869544778631 -0 1:0.62902182 2:0.74111187 3:0.53427631 4:0.79699105 5:0.84985799 6:0.49993771 7:0.76082373 8:0.44296956 9:0.53932905 10:0.97265345 11:0.53192616 12:0.74222571 13:0.57874846 14:0.63248253 15:0.67668962 16:0.54855764 17:0.47318256 18:0.57892096 19:0.54272062 20:0.5657658 21:0.18277332 22:0.67781419 23:0.46607402 24:0.48777404 25:0.5367772 26:0.46517465 27:0.58614087 28:0.66342455 29:0.42929992 30:0.3046914 31:0.94560879 32:0.64431536 33:0.35461971 34:0.47108263 35:0.75753969 36:0.36488059 37:0.34253702 38:0.62362528 39:0.84768039 40:0.32353541 41:0.63508248 42:0.48586103 43:0.73986703 44:0.8916015 
-0 -1.438583975446631 1:0.11099632 2:0.39973539 3:0.82759291 4:0.15112063 5:0.4908177 6:0.5599575 7:0.58310181 8:0.45587355 9:0.019911189 10:0.46091029 11:0.58926648 12:0.54435879 13:0.47225448 14:0.40749198 15:0.48894733 16:0.47225714 17:0.45107627 18:0.73726231 19:0.24225646 20:0.22804055 21:0.53503966 22:0.74997556 23:0.3807188 24:0.40433171 25:0.67914236 26:0.37052479 27:0.48108464 28:0.76897776 29:0.63106555 30:0.53820258 31:0.39624223 32:0.70510679 33:0.76645607 34:0.46091452 35:0.5954504 36:0.30528787 37:0.42148772 38:0.54394454 39:0.55530328 40:0.429894 41:0.63588345 42:0.23121779 43:0.68700671 44:0.8251853 
-0 -3.367439891728784 1:0.46880439 2:0.32769221 3:0.8629275 4:0.56177211 5:0.41876486 6:0.72460252 7:0.58388042 8:0.29959199 9:0.46551466 10:0.66735196 11:0.35512471 12:0.68943459 13:0.87677366 14:0.42953777 15:0.56099081 16:0.42989966 17:0.70840573 18:0.87018365 19:0.53317827 20:0.51246023 21:0.42328012 22:0.59107399 23:0.97338951 24:0.45872936 25:0.7533347 26:0.54804748 27:0.54867256 28:0.71839356 29:0.28912652 30:0.31522289 31:0.30797976 32:0.43278772 33:0.14193502 34:0.45722324 35:0.35494608 36:0.55790979 37:0.64202178 38:0.44163054 39:0.50417566 40:0.40652874 41:0.32164678 42:0.82740247 43:0.80276132 44:0.9187628 
-0 -4.549510829404421 1:0.37328511 2:0.49680573 3:0.58966005 4:0.69886655 5:1 6:0.65035468 7:0.32441121 8:0.3736504 9:0.29736403 10:0.59566659 11:0.59348536 12:0.6298753 13:0.60488039 14:0.60329837 15:0.49759054 16:0.72292876 17:0.48497725 18:0.77742696 19:0.15831779 20:0.64226258 21:0.86346251 22:0.45629108 23:0.75365543 24:0.63042217 25:0.37305629 26:0.88113999 27:0.23942311 28:0.46018451 29:0.53062391 30:0.37746373 31:0.87648922 32:0.55079049 33:0.34809867 34:0.47892734 35:0.30800039 36:0.52978987 37:0.59227109 38:0.36268896 39:0.49458614 40:0.34954938 41:0.84742886 42:0.013716565 43:0.40599537 44:0.76495397 
-0 -0.01854979342306912 1:0.61735594 2:0.50686282 3:0.4597162 4:0.76561791 5:0.80220485 6:0.92129827 7:0.49246064 8:0.31271788 9:0.38245371 10:0.19890219 11:0.66165882 12:0.55698246 13:0.21017209 14:0.94251126 15:0.65216905 16:0.54766589 17:0.76824623 18:0.54640102 19:0.43072242 20:0.47122663 21:0.35310423 22:0.1902822 23:0.4934209 24:0.73495185 25:0.63696432 26:0.67661369 27:0.17070989 28:0.66112286 29:0.44725543 30:0.34739512 31:0.48258519 32:0.21422499 33:0.69665378 34:0.78844762 35:0.45440716 36:0.2712616 37:0.37422565 38:0.84012133 39:0.88459724 40:0.19717205 41:0.25954583 42:0.3613103 43:0.55034542 44:0.78637141 
-0 -1.25105653261074 1:0.61735594 2:0.50686282 3:0.4597162 4:0.76561791 5:0.80220485 6:0.92129827 7:0.49246064 8:0.31271788 9:0.38245371 10:0.19890219 11:0.66165882 12:0.55698246 13:0.21017209 14:0.94251126 15:0.65216905 16:0.54766589 17:0.76824623 18:0.54640102 19:0.43072242 20:0.47122663 21:0.35310423 22:0.1902822 23:0.4934209 24:0.73495185 25:0.63696432 26:0.67661369 27:0.17070989 28:0.66112286 29:0.44725543 30:0.34739512 31:0.48258519 32:0.21422499 33:0.69665378 34:0.78844762 35:0.45440716 36:0.2712616 37:0.37422565 38:0.84012133 39:0.88459724 40:0.19717205 41:0.25954583 42:0.3613103 43:0.55034542 44:0.78637141 
-0 -0.9868962623992578 1:0.45932981 2:0.096159078 3:0.093804181 4:0.76450688 5:0.21193434 6:0.6697346 7:0.37057421 8:0.5276072 9:0.16790187 10:0.73729503 11:0.51909339 12:0.50499827 13:0.44004565 14:0 15:0.35611129 16:0.88572305 17:0.66178644 18:0.92931795 19:0.54470438 20:0.45444801 21:0.58269769 22:0.68690139 23:0.20557196 24:0.71720201 25:0.24547513 26:0.4263787 27:0.6079933 28:0.91383308 29:0.432733 30:0.42433062 31:0.50265491 32:0.30560094 33:0.092565924 34:0.53686827 35:0.29092404 36:0.29650077 37:0.59104103 38:0.40360719 39:0.45081171 40:0.32413295 41:0.75841081 42:0.4415763 43:0.72032726 44:0.87165982 
-0.8698920863191688 -1.60854919940813 1:0.50904405 2:0.64608228 3:0.030940926 4:0.38601878 5:0.55563384 6:0.40877399 7:0.2568703 8:0.41685039 9:0.27515 10:0.42696291 11:0.66208822 12:0.46054915 13:0.17119344 14:0.33462313 15:0.27048692 16:0.75958765 17:0.59660822 18:0.51952779 19:0.36394042 20:0.54207385 21:0.40798056 22:0.49932823 23:0.68419135 24:0.060754728 25:0.44809979 26:0.44489291 27:0.53664207 28:0.70137388 29:0.40792564 30:0.45021355 31:0.47981521 32:0.97496301 33:0.45023459 34:0.5546428 35:0.86497378 36:0.22094445 37:0.56311464 38:0.60774779 39:0.82926029 40:0.044776205 41:0.51250619 42:0.43335029 43:0.57077652 44:0.80637938 
-1.133282080341867 -1.414158659350049 1:0.011653733 2:0.73575872 3:0.062755682 4:0.50709331 5:0.4594973 6:0.45726153 7:0.32916123 8:0.28594238 9:0.42541146 10:0.49954686 11:0.33238944 12:0.46298689 13:0.26112807 14:0.70789468 15:0.36945838 16:0.67187589 17:0.41546434 18:1 19:0.59832144 20:0.42119923 21:0.49158183 22:1 23:0.45725265 24:0.5369013 25:0.58566463 26:0.82098746 27:0.33162025 28:0.58490872 29:0.36987111 30:0.46943817 31:0.43573225 32:0.68506199 33:0.49770489 34:0.689973 35:0.42697367 36:0.44355443 37:0.45773581 38:0.65680224 39:0.71379632 40:0.31015861 41:0.58862686 42:0.35195217 43:0.57370913 44:0.82857883 
-0 -0.6224383557573611 1:0.31043521 2:0.50830728 3:0.51056063 4:0.42195135 5:0.40567973 6:0.36112484 7:0.69021142 8:0.092406347 9:0.52871174 10:0.51701409 11:0.33746144 12:0.69563878 13:0.24877679 14:0.66725063 15:0.21993579 16:0.75057513 17:0.70118314 18:0.86263609 19:0.64870995 20:0.55451906 21:0.52626568 22:0.42783472 23:0.56135696 24:0.41495398 25:0.72392589 26:0.72618788 27:0.49231032 28:0.59802675 29:0.29760909 30:0.43191537 31:0.32132986 32:0.6484133 33:0.43330297 34:0.74904859 35:0.52105516 36:0.41289166 37:0.55773038 38:0.65607035 39:0.65402895 40:0.29509363 41:0.26189271 42:0.71976584 43:0.60170615 44:0.87024701 
