svm_type c_svc
kernel_type rbf
gamma 0.09
nr_class 2
total_sv 36
rho -1.20843
label 10051 10052
probA -4.48023
probB -0.770199
nr_sv 27 9
SV
0.9500581402766463 1:0.46308583 2:0.40670273 3:0.3478055 4:0.40119332 5:0.54561919 6:0.4877632 7:0.39400482 8:0.55636197 9:0.35178402 10:0.42798114 11:0.47243661 12:0.32225332 13:0.46284521 14:0.75041318 15:0.29624513 16:0.56439137 17:0.77897447 18:0.35698226 19:0.47404295 20:0.54118031 21:0.40537241 22:0.62668586 23:0.56918204 24:0.4808079 25:0.3234973 26:0.64173979 27:0.44668528 28:0.74322098 29:0.46562338 30:0.44522384 31:0.64997488 32:0.68874496 33:1 34:0.68878168 35:0.1282381 36:0.022741714 37:0.69575179 38:0.45167181 39:0.76989073 
5.055050757471906 1:0.81857908 2:0.43969101 3:0.24104401 4:0.39005217 5:0.28540662 6:0.55578268 7:0.28573346 8:0.60585582 9:0.4980025 10:0.39860174 11:0.46614233 12:0.63400304 13:0.53169101 14:0.62296069 15:0.059389491 16:0.63092965 17:0.71702129 18:0.60526139 19:0.36122239 20:0.49733955 21:0.61937249 22:0.38926014 23:0.46104026 24:0.51716059 25:0.62270695 26:0.57224613 27:0.21920811 28:0.62887466 29:0.48411071 30:0.44904384 31:0.7343387 32:0.50302827 33:0.70082223 34:0.57495612 35:0.0014344375 36:0 37:0.6602999 38:0.41275877 39:0.92279887 
3.472660357076255 1:0.52568257 2:0.5733152 3:0.33137852 4:0.23925714 5:0.70088261 6:0.66676301 7:0.47474343 8:0.5165593 9:0.35117546 10:0.21605498 11:0.41992277 12:0.49455178 13:0.35891914 14:0.46545497 15:0.17143463 16:0.32813531 17:0.68808866 18:0.70000821 19:0.60732448 20:0.55922848 21:0.55242807 22:0.50594312 23:0.47247428 24:0.37835923 25:0.49325839 26:0.38741469 27:0.27958593 28:0.72908986 29:0.59507042 30:0.53726023 31:0.72074789 32:0.70543522 33:0.6179927 34:0.51494813 35:0.24068953 36:0.78224659 37:0.14123754 38:0.37359613 39:0.49056143 
3.326589462298755 1:0.51611483 2:0.38338441 3:0.22429308 4:0.4527407 5:0.45358047 6:0.45590514 7:0.32032323 8:0.54713005 9:0.45487121 10:0.49184155 11:0.67666078 12:0.8954441 13:0.38657725 14:0.55745667 15:0.34587815 16:0.4548865 17:0.40590739 18:0.77133131 19:0.69370443 20:0.58211172 21:0.31939876 22:0.5378086 23:0.51335317 24:0.57806796 25:0.41787249 26:0.47692066 27:0.37209457 28:0.6685279 29:0.48296097 30:0.32951146 31:0.68565267 32:0.40471157 33:0.40787601 34:0.85763234 35:0.16383742 36:0.52428842 37:0.75725073 38:0.43684447 39:0.74300587 
0.6354821223179533 1:0.84346014 2:0.041876916 3:0.90308517 4:0.090965822 5:0.44420871 6:0.98815006 7:0.65781307 8:0.77100468 9:1.4097856e-16 10:0.45466474 11:0.055966768 12:0.82337004 13:0.055449128 14:0.73568368 15:1 16:0.59488177 17:0.52161574 18:0.3682822 19:0.83692712 20:5.9788202e-16 21:1 22:0.59314901 23:0 24:0 25:0.44572163 26:0.90447885 27:0.55337596 28:0.75433618 29:0.78707796 30:0.65059561 31:0.36407465 32:0.52305657 33:0.42336881 34:0.51864815 35:0.4792462 36:0.91873413 37:0.74313599 38:0.47492298 39:0.43452069 
0.3503639961627408 1:0.054493442 2:0.5736531 3:0.60412115 4:0.24974133 5:0.5015707 6:0.27106139 7:0.32269326 8:0.30508396 9:0.50104827 10:0.36483461 11:0.58355749 12:0.60330701 13:0.5112564 14:0.57087719 15:0.16143857 16:0.48995617 17:0.56215596 18:0.44494572 19:0.4664551 20:0.44407412 21:0.48678547 22:0.763879 23:0.41171199 24:0.79615337 25:0.53558195 26:0.45727721 27:0.24062093 28:0.5798983 29:0.36185223 30:0.52404511 31:0.83282298 32:0.33387786 33:9.2461947e-16 34:1 35:0.38176993 36:0.52335078 37:0.58805597 38:0.45602092 39:0.55968845 
0.5680075661419545 1:0.53275758 2:0.56903201 3:0.61069006 4:0.58202749 5:0.62251419 6:0.52847034 7:0.30662873 8:0.37744316 9:0.3952879 10:0.11234164 11:0.49994639 12:0.4263936 13:0.31381869 14:0.51957381 15:0.28346926 16:0.66405028 17:0.72737116 18:0.44096503 19:0.38727543 20:0.60196012 21:0.48423016 22:0.38274351 23:0.61574143 24:0.56325048 25:0.56050944 26:0.4121581 27:0.38462919 28:0.81740713 29:0.31951687 30:0.51254129 31:0.77233988 32:0.2590721 33:0.17924757 34:0.73304051 35:0.066365726 36:0.62233764 37:0.84019154 38:0.67847377 39:0.38074353 
0.1937296670275749 1:0.54516411 2:0.72401613 3:0.37668222 4:0.67149055 5:0.98184764 6:0.55967891 7:0.5171079 8:0.48748386 9:0.42004564 10:0.42209756 11:0.68592536 12:0.14152704 13:0.26241753 14:0.44384885 15:0.27273124 16:0.36613578 17:0.57681441 18:0.57439184 19:0.57741243 20:0.35840714 21:0.73762196 22:0.64641678 23:0.44256601 24:0.53422093 25:0.66507417 26:0.67009252 27:0 28:0.44666013 29:0.46083429 30:0.41763312 31:0.74222237 32:0.6801824 33:0.37639883 34:0.68973273 35:0.6712538 36:0.34446743 37:0.17313468 38:0.3828668 39:0.28389049 
2.73874476581735 1:0.68819672 2:0.73195595 3:0.51943403 4:0.44745108 5:0.81355429 6:0.69638151 7:0.3950004 8:0.40084544 9:0.35907999 10:0.41729769 11:0.63011056 12:0.61617756 13:0.30288741 14:0.50936097 15:0.15907697 16:0.50342083 17:0.52338153 18:0.58136064 19:0.36086836 20:0.24162643 21:0.7500096 22:0.46220055 23:0.14944242 24:0.54890287 25:0.40812024 26:0.26953977 27:0.56289446 28:0.49280718 29:0.40647364 30:0.28362894 31:0.83286703 32:0.3718178 33:0.78671139 34:0.45979482 35:0.52946299 36:0.79141766 37:0.4693253 38:0.42331618 39:0.7460978 
0.4171231866192741 1:0.42730892 2:0.59197074 3:0.052765165 4:0.29335275 5:0.35440537 6:0.32353929 7:0.42943805 8:0.68511379 9:0.22528349 10:0.58928573 11:0.58205283 12:0.11747351 13:0.37594914 14:0.13937096 15:0.17899381 16:0.59209657 17:0.6540882 18:0.50908232 19:0.7598083 20:0.41782752 21:0.27900237 22:0.57225543 23:0.43017343 24:0.60570449 25:0.40071794 26:0.56089425 27:0.26953912 28:0.76025647 29:0.53805113 30:0.11555468 31:0.67646354 32:0.41707122 33:0.11928605 34:0.76204354 35:0.36015409 36:0.32954255 37:0.43046802 38:0.4798716 39:0.41340104 
2.039402124426812 1:0.22910142 2:0.58082074 3:0.32262468 4:0.67974734 5:0.48336488 6:0.75351572 7:0.18759283 8:0.43574783 9:0.62597549 10:0.55081213 11:0.54918963 12:0.3823415 13:0.44370073 14:0.69690824 15:0.36364007 16:0.77573758 17:0.77480865 18:0.38860404 19:0.67900765 20:0.63163227 21:0.47992593 22:0.6802876 23:0.8148489 24:0.36168757 25:0.50174063 26:0.22560778 27:0.066838779 28:0.65010959 29:0.26708028 30:0.66973799 31:0.32807708 32:0.49330929 33:0.44384548 34:0.2010798 35:0.34863448 36:0.58167768 37:0.18202825 38:0.27734822 39:0.7095753 
2.525579958235772 1:0.1076537 2:0.63640898 3:0.38862637 4:0.96497625 5:0.82397753 6:0.72661215 7:0.85264325 8:0.7863372 9:0.62553728 10:0.41333011 11:0.57719392 12:0.59329659 13:0.16070442 14:0.45756504 15:0.21846251 16:0.58820677 17:0.49683759 18:0.49776688 19:0.6377579 20:0.38339087 21:0.73701578 22:0.37262869 23:0.56505138 24:0.55006737 25:0.63018382 26:0.46030182 27:0.54769498 28:0.67333907 29:0.14503083 30:0.31473556 31:0.51721084 32:0.52114707 33:0.79286784 34:0.54498655 35:0.29205936 36:0.60252368 37:0.67519945 38:0.78806251 39:0.1558273 
0.7532050524537943 1:0.74869311 2:0.51999414 3:0.8212235 4:0.45660451 5:0.92000175 6:0.44686839 7:0.31982756 8:0.77220833 9:0.46986896 10:0.37625045 11:0.55339074 12:0.57726711 13:0.42299068 14:0.64611739 15:0.13228433 16:0.68741602 17:0.54435545 18:0.66378647 19:0.27255243 20:0.4632957 21:0.6938895 22:0.60915291 23:0.45792168 24:0.77231395 25:0.65138954 26:0.32414868 27:0.65488756 28:0.75197512 29:0.27908781 30:0.25702301 31:0.36590305 32:0.42261767 33:0.65303522 34:0.63910162 35:0.30765438 36:0.54954177 37:0.25868359 38:0.57762754 39:0.35299245 
2.88626407713519 1:0.58611768 2:0.35118282 3:0.56328529 4:0.65661448 5:0.58219373 6:0.60227638 7:0.45139632 8:0.48245472 9:0.67844367 10:0.3342467 11:0.6299904 12:0.357384 13:0.10129195 14:0.78526479 15:0.12169812 16:0.91587847 17:0.44589186 18:0.65080583 19:0.46175489 20:0.4583647 21:0.45833829 22:0.37857303 23:0.38618857 24:0.18491761 25:0.44060725 26:0.36719388 27:0.39869526 28:0.69570827 29:0.24446681 30:0.71653813 31:0.45664522 32:0.28753445 33:0.5670374 34:0.39341184 35:0.80641419 36:0.53116214 37:0.52350831 38:0.16618171 39:0.9057855 
0.1837566415649556 1:0.21818399 2:0.86515075 3:0.67547995 4:0.48594987 5:0.48710313 6:0.39726821 7:0.29960603 8:0.43044907 9:0.66997111 10:0.18866803 11:0.55028337 12:0.81706256 13:0.48384646 14:0.27296436 15:0.48788679 16:0.48431295 17:0.42054918 18:0.58524895 19:0.39394608 20:0.35431883 21:0.33768979 22:0.57265317 23:0.43055096 24:0.45121339 25:0.54384124 26:0.41792819 27:0.43721852 28:0.7207796 29:0.60914576 30:0.36976713 31:0.5788638 32:0.78319705 33:0.5270161 34:0.52657866 35:0.5577125 36:0.40969193 37:0.53513116 38:0.51437479 39:0.17662178 
0.004999805007156207 1:0.96660411 2:0.47813991 3:0.046442147 4:0.95818424 5:0.74966174 6:0.91976428 7:1 8:0.61356133 9:0.52459627 10:0.41016382 11:0.67314166 12:0.31358796 13:0.23169649 14:0.64004928 15:0.32359862 16:0.76187617 17:0.82412511 18:0.49082786 19:0.53177267 20:0.090967543 21:0.17329718 22:0.50454676 23:0.65099096 24:0.37449625 25:0.60737723 26:0.75304264 27:0.28013399 28:0.50193512 29:0.45451036 30:0.3563239 31:0.47385302 32:0.75776893 33:0.64033371 34:0.52110165 35:0.27342975 36:0.62163508 37:0.58201647 38:0.45823848 39:0.33305708 
2.259374149129292 1:0.20384736 2:0.46274945 3:0.40932652 4:0.40255341 5:0.37758139 6:0.70145631 7:0.43533784 8:0.13616008 9:0.61319381 10:0.62942082 11:0.48930696 12:0.11798556 13:0.54144579 14:0.54378134 15:0.42430231 16:0.72507119 17:0.38749737 18:0.97351998 19:0.3779543 20:0.24251416 21:0.44308358 22:0.39565352 23:0.50996584 24:0.65568119 25:0.54658425 26:0.29256675 27:0.71688545 28:0.65583462 29:0.6438781 30:0.44758433 31:0.44732568 32:0.86943978 33:0.55407679 34:0.73181456 35:0.39593512 36:0.56164402 37:0.56314039 38:0.25881076 39:0.76766485 
0.5668839832704198 1:0.38785216 2:0.59588832 3:0.46393237 4:0.54549026 5:0.78542674 6:0.5917176 7:0.54114044 8:0.68878204 9:0.59619224 10:0.41648099 11:0.51450467 12:0.84586614 13:0.19438905 14:0.44426087 15:0.22786365 16:0.40003547 17:0.5273146 18:0.44329849 19:0.89306808 20:0.51896071 21:0.31126416 22:0.62360072 23:0.48661351 24:0.55146962 25:0.60380346 26:0.42540482 27:0.28202465 28:0.72606856 29:0.43128186 30:0.36215821 31:0.63386559 32:0.62087137 33:0.65205598 34:0.62438995 35:0.22542033 36:0.3440975 37:0.77842081 38:0.24888863 39:0.86055845 
0.7275715007721548 1:0.36168122 2:0.561171 3:0.51189035 4:0.90548521 5:0.60765499 6:0.54986888 7:0.26882786 8:0.68044901 9:0.47695184 10:0.54198313 11:0.51522106 12:0.78364849 13:0.33230948 14:0.35550159 15:0.29750121 16:0.77627736 17:0.56373394 18:0.61336696 19:0.38758746 20:0.59728366 21:0.80078173 22:0.5636099 23:0.58687741 24:0.40419728 25:0.29511547 26:0.48942575 27:0.77127272 28:0.59149605 29:0.55857193 30:0.48871395 31:0.94416356 32:0.63274711 33:0.52298623 34:0.76845717 35:0.38003367 36:0.30551937 37:0.26615453 38:0.33078623 39:0.55085874 
1.860042912480445 1:0.28441337 2:0.75557137 3:0.50718212 4:0.23493651 5:0.55650979 6:0.35577214 7:0.25038224 8:0.50399005 9:0.59009165 10:0.58407778 11:0.42083228 12:0.36411437 13:0.42770505 14:0.50542367 15:0.077918082 16:0.057237595 17:0.67852241 18:0.23714979 19:0.083553709 20:0.13947095 21:0.49047804 22:0.055483121 23:0.72610384 24:0.7965048 25:0.65691543 26:0.97688425 27:1 28:3.3043486e-16 29:0.91581041 30:0.56973892 31:0.12362689 32:0.21243872 33:0.49367216 34:5.1049056e-16 35:0.83261728 36:0.4454571 37:0.75717783 38:0.74767631 39:0.9621073 
0.0917084967803827 1:0.47935233 2:0.6106683 3:0.38299155 4:0.58556318 5:0.47673318 6:0.57376409 7:0.1462974 8:0.64287484 9:0.69460499 10:0.33552405 11:0.42572436 12:0.49852365 13:0.45051146 14:0.59761012 15:0.19969176 16:0.6082918 17:0.26049 18:0.63059688 19:0.67677134 20:0.30289611 21:0.47613657 22:0.60719025 23:0.6915158 24:0.32624257 25:0.44641626 26:0.53707319 27:0.21110925 28:0.6646719 29:0.37384152 30:0.38522768 31:0.58738297 32:0.92242312 33:0.61055672 34:0.48796371 35:0.36858493 36:0.5918656 37:0.66072905 38:0.57161456 39:0.15768474 
3.064359824321313 1:0.41437003 2:0.72352642 3:0.39998668 4:0.52884912 5:0.50761205 6:0.50212455 7:0.54698348 8:0.62888342 9:0.39588535 10:0.31689414 11:0.52940232 12:0.59312153 13:0.27219498 14:0.59011495 15:0.11945599 16:0.8701781 17:0.45182317 18:0.18692148 19:0.50469559 20:0.60985833 21:0.52930284 22:0.43623388 23:0.35997245 24:0.54413986 25:0.69317716 26:0.67958724 27:0.51871175 28:0.83232212 29:0.38437599 30:0.35784003 31:0.38713446 32:0.61385876 33:0.6252954 34:0.69011027 35:0.4824132 36:0.9143213 37:0.49918795 38:0.32549798 39:0.51913381 
1.17520943556688 1:0.39185092 2:0.38077641 3:0.63495034 4:0.65455121 5:0.48888218 6:0.67477673 7:0.41773233 8:0.52173525 9:0.69792527 10:0.38587183 11:0.53824878 12:0.58728278 13:0.5040102 14:0.61044115 15:0.25628352 16:0.82848883 17:0.45476973 18:0.35204113 19:0.29243365 20:0.44839057 21:0.7340548 22:0.56876087 23:0.40753651 24:0.50745845 25:0.3667157 26:0.49756503 27:0.81502908 28:0.67524141 29:0.59859771 30:0.47547629 31:0.64035773 32:0.71404469 33:0.66586649 34:0.85299844 35:0.45604011 36:0.16759926 37:0.58123773 38:0.22022393 39:0.79803693 
2.036234080841768 1:0.60270298 2:0.55293238 3:0.53992921 4:0.38752988 5:0.63057077 6:0.56998724 7:0.37454015 8:0.53932542 9:0.64291269 10:0.3737576 11:0.60236323 12:0.8027457 13:0.2608096 14:0.36373445 15:0.28975755 16:0.35194781 17:0.44982752 18:0.33165646 19:0.68690246 20:0.4935239 21:0.39685398 22:0.57015711 23:0.5082767 24:0.48589069 25:0.5227145 26:0.48436072 27:0.30306119 28:0.7044034 29:0.44848299 30:0.43335435 31:0.62139708 32:0.73721159 33:0.76383722 34:0.68979573 35:0.22499396 36:0.18257263 37:0.76428741 38:0.25527132 39:0.8779431 
0.5807592237686369 1:0.48651037 2:0.89735067 3:0.271979 4:0.54968476 5:0.66053486 6:0.74614227 7:0.30854639 8:0.81482744 9:0.79325062 10:0.31706989 11:0.33161476 12:0.74546182 13:0.29353032 14:0.67366379 15:0.17224669 16:0.5581643 17:0.60227984 18:0.59185791 19:0.69907439 20:0.55024421 21:0.29602686 22:0.52137482 23:0.19820763 24:0.42643037 25:0.61064917 26:0.34841082 27:0.40563193 28:0.72280848 29:0.50584656 30:0.33210465 31:0.62835628 32:0.45388028 33:0.59707487 34:0.65964204 35:0.45470348 36:0.48372036 37:0.73888803 38:0.20358166 39:0.83679211 
2.881559832411645 1:0.60095692 2:0.40828997 3:0.48352787 4:0.18808913 5:0.7698071 6:0.39548293 7:0.39593881 8:0.52207792 9:0.72828501 10:0.51486844 11:0.3800523 12:0.70900148 13:0.33969477 14:0.55352753 15:0.2239933 16:0.5864976 17:0.50380039 18:0.50000858 19:0.62636757 20:0.48853579 21:0.34347105 22:0.31037393 23:0.52458566 24:0.62544054 25:0.32576534 26:0.37833476 27:0.49363697 28:0.56591594 29:0.3086026 30:0.47688863 31:0.4471322 32:0.60715717 33:0.57103962 34:0.95716518 35:0.47241145 36:0.44962332 37:0.17054456 38:0.44698736 39:0.44155985 
0.7168978493807545 1:0.47858435 2:0.21359688 3:0.74284428 4:0.61396575 5:0.21672404 6:0 7:0.59218347 8:0.19845462 9:0.55456287 10:0.40689194 11:0.89050096 12:0.98946083 13:0.1112518 14:0.53580213 15:0.29781571 16:0.69796258 17:0.46044135 18:0.80616945 19:0.9732163 20:0.26688945 21:0.47906321 22:0.51277983 23:1 24:0.37143248 25:0.48291674 26:0.59152246 27:0.52711159 28:0.8784793 29:0.60698241 30:0.51797324 31:0.43308768 32:0.52312988 33:0.7911815 34:0.46652853 35:0.38772106 36:0.67438918 37:0.64108968 38:0.68879014 39:0.18403634 
-1.96658863021304 1:0.58030319 2:0.7936368 3:0.43863627 4:0.23091482 5:0.77638 6:0.54524583 7:0.46592823 8:0.60959589 9:0.40220049 10:0.30111888 11:0.51698148 12:0.64109236 13:0.42173466 14:0.32770693 15:0.22213495 16:0.86156964 17:0.70436192 18:0.7494809 19:0.27967876 20:0.60972744 21:0.64136541 22:0.32655823 23:0.65807801 24:0.25571296 25:0.68859637 26:0.48511294 27:0.39644492 28:0.64572966 29:0.63673311 30:0.51901549 31:0.49103987 32:0.66191506 33:0.55958194 34:0.70730984 35:0.40226433 36:0.42212304 37:0.44756177 38:0.74808002 39:1 
-2.93986846613296 1:1 2:0.42391998 3:0.40741602 4:0.25678459 5:0.65028334 6:0.57077539 7:0.27379569 8:9.7892451e-17 9:0.34736437 10:1 11:0.49408519 12:0.71316469 13:0.5326938 14:0.68576825 15:0.20275892 16:0.77014154 17:0.37085131 18:0.31417376 19:0.87843257 20:0.54260522 21:0.74265707 22:0.45282254 23:0.52847797 24:0.20734251 25:0.41379115 26:0.30690366 27:0.62414002 28:0.88062912 29:0.30185464 30:0.56639212 31:0.8567816 32:0.52600396 33:0.48788494 34:0.54272377 35:0.68728793 36:1 37:0.36736163 38:0.81197369 39:0.91485977 
-3.76783035414884 1:0.7951287 2:0.35095814 3:0.50171727 4:0.6407941 5:0.51174212 6:0.52276015 7:0.16827261 8:0.51524371 9:0.60895395 10:0.69684583 11:0.48714229 12:0.98317939 13:0.34225827 14:0.60014009 15:0.20802864 16:0.53597796 17:0.79697216 18:0.71644306 19:0.26587433 20:0.40055943 21:0.51979291 22:0.23650518 23:0.63648957 24:0.45950601 25:0.59643251 26:0.4011403 27:0.53525245 28:0.6555354 29:0.46636721 30:0.45093599 31:0.58523601 32:0.45047149 33:0.27311283 34:0.49299929 35:0.52783608 36:0.81818676 37:0.31634158 38:0.90723771 39:0.88393706 
-10 1:0.35502937 2:0.84025121 3:0.29880261 4:0.47714493 5:0.85712242 6:0.56480563 7:0.5188756 8:0.45653698 9:0.34819517 10:0.31202227 11:0.63800406 12:0.89344603 13:0.1841151 14:0.54975569 15:0.22624387 16:0.99178743 17:0.56656343 18:0.61252975 19:0.27609369 20:0.53856838 21:0.718472 22:0.48810357 23:0.64253056 24:0.24353789 25:0.58593887 26:0.57769793 27:0.13140708 28:0.72850102 29:0.58467042 30:0.50239158 31:0.52570856 32:0.60577369 33:0.5641917 34:0.73236513 35:0.21503484 36:0.43439537 37:0.43375754 38:0.72604144 39:0.95803821 
-4.763783922913905 1:0.46424991 2:0.53346503 3:0.47517148 4:0.40942475 5:0.40017408 6:0.76324737 7:0.66483116 8:0.66366953 9:0.67990881 10:0.25983846 11:0.47254193 12:0.73937726 13:0.32909289 14:0.78935152 15:0.28878114 16:0.28168464 17:0.47250929 18:0.5155496 19:0.63544911 20:0.37827289 21:0.49545699 22:0.45162234 23:0.41776004 24:0.57936233 25:0.49603635 26:0.26020902 27:0.69720745 28:0.77850598 29:0.42220238 30:0.460839 31:0.66844302 32:0.67921841 33:0.39127335 34:0.66157097 35:0.60027349 36:0.6068027 37:0.47931156 38:0.7759698 39:0.92517489 
-7.853852292107833 1:0.49576712 2:0.49560985 3:0.54813641 4:0.49683911 5:0.57098258 6:0.62038112 7:0.59403688 8:0.60127056 9:0.52332616 10:0.29681891 11:0.64058244 12:0.27203393 13:0.50852901 14:0.58052355 15:0.25709036 16:0.4978168 17:0.44845301 18:0.37516439 19:0.44069049 20:0.34951517 21:0.31749338 22:0.68043047 23:0.38876948 24:0.59731585 25:0.581285 26:0.45724407 27:0.39727172 28:0.74942851 29:0.41549721 30:0.44343397 31:0.53668183 32:0.75919569 33:0.77582878 34:0.69033629 35:0.61549026 36:0.2996608 37:0.47167715 38:0.8047787 39:0.90016681 
-0.5558400600955529 1:0.85083914 2:0.65363032 3:0.32886314 4:0.35985237 5:0.47205693 6:0.4937979 7:0.44581538 8:0.78715086 9:0.57231128 10:0.56403333 11:0.73431188 12:0.55276239 13:1 14:0.61983627 15:0.3993645 16:0.58387136 17:0.54427874 18:0.25109887 19:0.62440324 20:0.43319532 21:0.40148342 22:0.50096887 23:0.53367281 24:0.44344124 25:0.57792985 26:0.43387863 27:0.53441495 28:0.62536794 29:0.53039092 30:0.59400892 31:0.68212843 32:0.61624455 33:0.63076758 34:0.62015772 35:0.82623476 36:0.85472745 37:0.5453946 38:0.76224267 39:0.98899049 
-0.2138552431456499 1:0.67820942 2:0.59506583 3:0.44553691 4:0.22235452 5:0.60283387 6:0.52711046 7:0.61576891 8:0.59340298 9:0.6261031 10:0.30776015 11:0.54937381 12:0.88733059 13:0.29317755 14:0.49766865 15:0.34941551 16:0.74732602 17:0.64575654 18:0.4977988 19:0.36043012 20:0.68220866 21:0.65658939 22:0.4443242 23:0.48674658 24:0.33781192 25:0.72223908 26:0.62474215 27:0.44534945 28:0.64514291 29:0.54004031 30:0.63941509 31:0.5996989 32:0.60400236 33:0.61393589 34:0.59004569 35:0.57221812 36:0.75984091 37:0.64014876 38:0.8049112 39:0.94397819 
-10 1:0.49000448 2:0.3409355 3:0.32245049 4:0.55979067 5:0.34556615 6:0.52202928 7:0.26640284 8:0.68137485 9:0.68746942 10:0.45029771 11:0.35044602 12:0.31706378 13:0.23152758 14:0.44227207 15:0.19084984 16:0.50029355 17:0.55575478 18:0.56519091 19:0.78603226 20:0.43857098 21:0.41272354 22:0.56524235 23:0.40183043 24:0.60600787 25:0.60876721 26:0.40288579 27:0.47449452 28:0.78493369 29:0.47572774 30:0.41353256 31:0.6202116 32:0.7201553 33:0.54321152 34:0.62150335 35:0.45549294 36:0.42506307 37:0.47187114 38:0.84610295 39:0.84785849 
