svm_type c_svc
kernel_type rbf
gamma 0.09
nr_class 2
total_sv 29
rho 0.508549
label 20101 20102
probA -3.1561
probB 0.0180314
nr_sv 11 18
SV
7.459199797285775 1:0.54072785 2:0.44688919 3:0.20069556 4:0.47812706 5:0.43630338 6:0.62160194 7:0.27729136 8:0.065570667 9:0.44401005 10:0.59899229 11:0.41366071 12:0.70684195 13:0.57841676 14:0.62357217 15:0.32577688 16:0.36737442 17:0.70591635 18:0.21233784 19:0.69698763 20:0.70410144 21:0.18000689 22:0.60474861 23:0.74799585 24:0.70723319 25:0.72263277 26:0.3583006 
4.438204455505947 1:0.7541396 2:0.51631588 3:0.11052577 4:0.31340465 5:0.58200216 6:0.4216072 7:0.59754097 8:0.52819139 9:0.46808687 10:0.50995219 11:0.56125271 12:0.49304885 13:0.5941847 14:0.326103 15:0.93618405 16:0.46910885 17:0.54936469 18:0.47215867 19:0.56636554 20:0.52229434 21:0.29575771 22:0.97043711 23:0.5683549 24:0.50407338 25:0.89173907 26:0.24896993 
8.280274483018331 1:0.62345058 2:0.41553718 3:0.63159853 4:0.36497253 5:0.86360198 6:0.31479931 7:0.45660266 8:0.64344865 9:0.21712525 10:0.36554065 11:0.53420806 12:0.40229049 13:0.62502247 14:0.41060957 15:0.70209122 16:0.24211194 17:0.71099889 18:0.64214867 19:0.46288577 20:0.40529579 21:0.20923956 22:0.87835729 23:0.36404216 24:0.50017363 25:1 26:0.24543139 
9.261490914486446 1:0.87576026 2:0.3337096 3:0.031784687 4:0.7816782 5:0.3964259 6:0.61978793 7:0 8:0.29506567 9:0.26667324 10:0.48359361 11:9.697972e-17 12:0.51287431 13:0.95788491 14:0.78179145 15:0.53376853 16:0.70097381 17:2.7062491e-16 18:0.60460913 19:0.38537198 20:0.089364976 21:0.29774085 22:0.27741235 23:0 24:0.33328432 25:0.29992968 26:0.08747682 
2.231961824993038 1:0.43996114 2:0.12237498 3:0.13531792 4:0.63300174 5:0.59175938 6:0.36301738 7:0.66056526 8:0.43690985 9:0.89365566 10:0.60470939 11:0.39763698 12:0.72934151 13:0.41103303 14:0.35822228 15:0.77373642 16:0.44660494 17:0.35853872 18:0.47685927 19:0.74400151 20:0.56628436 21:0.19787239 22:0.6477353 23:0.76463157 24:0.89540958 25:0.58671981 26:0.27634159 
8.430156635333125 1:0.84364498 2:0.45129001 3:0.41218957 4:0.037211102 5:0.63909066 6:0.50809282 7:0.87806541 8:0.68407744 9:0.47030523 10:0.68984401 11:0.50755453 12:0.64331394 13:0.30610162 14:0.41628575 15:0.44885024 16:0.30389217 17:0.31705353 18:0.4158183 19:0.64064378 20:0.13408838 21:0.19839582 22:0.80737263 23:0.48187044 24:0.86600518 25:0.47088796 26:0.44857019 
6.733400826733768 1:0.77369165 2:0.66010582 3:0.7963317 4:0.47160071 5:0.20097008 6:0.5476231 7:0.5927158 8:0.45733446 9:0.64279151 10:0.87205082 11:0.31706342 12:0.63629204 13:0.47391194 14:0.32700363 15:0.87968349 16:0.38036364 17:0.50891972 18:0.43008697 19:0.79572439 20:0.32950553 21:0.31258476 22:0.62181312 23:0.54753017 24:0.24161975 25:0.37724489 26:0.93539822 
10 1:0.51850396 2:0.56786531 3:0.46140525 4:0.35865539 5:0.40791959 6:0.5870868 7:0.45535132 8:0.28957129 9:0.47890478 10:0.65553999 11:0.42751023 12:0.78829759 13:0.68113661 14:0.58427614 15:0.36592871 16:0.39763477 17:0.50718862 18:0.15840682 19:0.72525579 20:0.71585011 21:0.12724203 22:0.70679134 23:0.77142906 24:0.74878913 25:0.63059521 26:0.33432791 
3.013939631674081 1:0.78410149 2:0.66609472 3:0.84086055 4:0.6799348 5:0.74292135 6:0.76736635 7:0.96516484 8:0.29745662 9:0.5172261 10:0.304142 11:0.33826429 12:0.30378133 13:0.52241886 14:0.24350274 15:0.52937919 16:0.15356477 17:0.31154925 18:0.79321104 19:0.60219926 20:0.20424257 21:0.14854014 22:0.51182485 23:0.17595509 24:0.70714051 25:0.63230008 26:0.45403439 
9.789115789969493 1:0.63464296 2:0.30602294 3:5.7748308e-16 4:0.36122739 5:0.5072782 6:0.23826526 7:0.34149748 8:0.428179 9:0.49906197 10:0.47623974 11:0.59705585 12:0.32692122 13:0.40190887 14:0.1714285 15:0.70756841 16:0.3062053 17:0.31490839 18:0.29304215 19:0.58443594 20:0.85811931 21:0.20836018 22:0.39483583 23:0.53638452 24:0.16938177 25:0.3302238 26:0.87615168 
5.039338595880301 1:0.42205092 2:0.57568491 3:0.53533912 4:0.44197598 5:0.69532645 6:0.52359605 7:0.58039415 8:0.55291861 9:0.56413472 10:0.46622956 11:0.44755703 12:0.80768657 13:0.31889054 14:0.098169319 15:0.40613598 16:0.55787259 17:0.58313274 18:0.29931951 19:0 20:0.43014571 21:1 22:0.43387803 23:0.33922213 24:0.98745131 25:0 26:0.20615466 
-2.289294641319263 1:0.72221881 2:0 3:1 4:0.19279794 5:0.55587602 6:0.69079405 7:0.55919421 8:0.18658772 9:0.45054322 10:0.78313464 11:0.43683901 12:0.51641995 13:0.46667105 14:0.13685793 15:0.074334994 16:1 17:0.9400183 18:0.81346059 19:0.61874413 20:0.59794158 21:0.18397948 22:0.65791857 23:0.39910093 24:0.310056 25:0.59213924 26:0.2889269 
-1.521198638393298 1:0.09965872 2:0.11109504 3:0.57037997 4:0.29341078 5:0.62909871 6:0.56267321 7:0.81812274 8:0.34237933 9:0.47207952 10:0.6410411 11:0.19642642 12:0.7345953 13:0.98904681 14:0.40866631 15:0.76565105 16:0.31130576 17:0.56217146 18:0.00046378144 19:0.74927777 20:1.9089772e-16 21:0.064939059 22:0.51766694 23:0.095331669 24:0.24300429 25:0.1656789 26:0.35059953 
-10 1:1 2:0.40536401 3:0.33374339 4:0.3204149 5:0.23655182 6:0.37392139 7:0.34544045 8:0.14850725 9:0.37773722 10:0.43636963 11:0.17227846 12:0.80412948 13:0.41961098 14:0.15453047 15:0.40650094 16:0.18801314 17:0.48001325 18:0.3905836 19:0.71096295 20:0.67006218 21:0.20529878 22:0.80491525 23:0.55642205 24:0.69931114 25:0.42856449 26:0.058978796 
-5.235592279334703 1:0.92062515 2:0.29730862 3:0.27438751 4:0.28874528 5:0.33870968 6:0.48522741 7:0.39814046 8:0 9:0.36037174 10:0.41468218 11:0.25007179 12:0.77134389 13:0.26970789 14:0.064073972 15:0.27867138 16:0.14355372 17:0.47706723 18:0.43024224 19:0.74541152 20:0.63898307 21:0.14919743 22:0.65235794 23:0.59169585 24:0.6774801 25:0.36901528 26:0.12703758 
-10 1:0.56014603 2:0.63710266 3:0.33991745 4:0.49711394 5:0.5795356 6:0.39954197 7:0.39408556 8:0.019358674 9:0.64210117 10:0.79289371 11:0.75492758 12:0.91025019 13:0.36170954 14:0.36333901 15:0.56859893 16:0.33345976 17:0.43998522 18:0.3458865 19:0.44767424 20:0.3294858 21:0.10353972 22:0.54112494 23:0.072373323 24:0.076197743 25:0.69161916 26:0.29995885 
-7.133004442092094 1:0.82470876 2:0.57570833 3:0.5489943 4:0.21176061 5:1 6:0.43957078 7:0.48079789 8:0.29216829 9:0.35999876 10:0.68166965 11:0.28155431 12:0.14701565 13:0.47714776 14:1 15:0.74000853 16:0.55672687 17:0.62975782 18:0.20127751 19:0.95274431 20:0.4653933 21:0.3373675 22:0.3544763 23:0.66181904 24:0.55235618 25:0.052495643 26:0.21832851 
-3.270817422453637 1:0.95102447 2:0.47210675 3:0.065262273 4:0 5:0.84661132 6:0.42838502 7:0.93950939 8:1 9:1 10:0.48152098 11:0.32063943 12:0.93364847 13:0.85415143 14:0.50518101 15:1.0636776e-16 16:0.46726614 17:0.28531536 18:0.28981492 19:0.6643483 20:0.41350907 21:0.108849 22:0.81202281 23:0.51974809 24:0.14840907 25:0.15435617 26:0.48147026 
-4.09011745343962 1:0.45988092 2:0.57029253 3:0.61572391 4:0.47771806 5:0.53161198 6:0.1445135 7:0.70078313 8:0.86891788 9:0.27919441 10:0.35750073 11:0.20199129 12:0.60565484 13:0.42997608 14:0.34325343 15:0.86186624 16:0.25279325 17:0.76023847 18:0.32245988 19:0.60337192 20:0.31610152 21:0.075462103 22:0.5237568 23:0.41853225 24:0.48944965 25:0.25668108 26:0.18069766 
-0.6522538907143109 1:0.32261187 2:0.74582076 3:0.43628594 4:0.51757991 5:0.75247484 6:0.92102379 7:0.18025233 8:0.70316577 9:0.79379374 10:0.24921691 11:0.25930846 12:0.9205966 13:0.028005879 14:0.45412287 15:0.36529639 16:0.25443277 17:0.50620294 18:0.42752081 19:0.75573206 20:0.64057386 21:0.22298011 22:0.71767157 23:0.21352604 24:0.0038606739 25:0.41331497 26:0.32978725 
-4.374939473403518 1:0.46871021 2:0.46706104 3:0.15151963 4:0.37544274 5:0.5216229 6:7.5153905e-17 7:0.56771153 8:0.69834203 9:0.49058285 10:1 11:0.31966743 12:0.41361248 13:0 14:0.41029096 15:1 16:0.66672307 17:0.60608387 18:0.76556247 19:0.38693026 20:0.44786277 21:0.06279359 22:0.59633505 23:0.50909185 24:0.30368829 25:0.53454 26:0.12547606 
-1.298818690698716 1:0.60291994 2:0.4309015 3:0.76166689 4:0.18975359 5:0.47475812 6:0.35078162 7:0.5252834 8:0.24276787 9:0.61079317 10:0.67313975 11:0.50525755 12:0.16573213 13:0.85372859 14:0.2496374 15:0.27771217 16:4.4715581e-17 17:0.5850994 18:0.32682836 19:0.38825554 20:0.35082185 21:0.19829905 22:0.84740615 23:0.24496314 24:0.20859993 25:0.74266267 26:0.20689778 
-7.106660547505196 1:0.5559479 2:0.44747031 3:0.33129236 4:0.041119024 5:0.13284057 6:0.61692536 7:0.36651322 8:0.7523126 9:0.68713111 10:0.21588692 11:0.83953732 12:0.56254977 13:1 14:0.55295759 15:0.8168841 16:0.29386213 17:0.5483458 18:0.47002035 19:0.83943546 20:0.45365131 21:0.35679194 22:0.41523731 23:0.25709024 24:0.40968838 25:0.19101241 26:0.17281592 
-5.245823760289542 1:0.67562687 2:0.33541065 3:0.036771476 4:1 5:0.47541165 6:0.6522246 7:0.66840559 8:0.7396698 9:0.59542143 10:0.66725278 11:0.44089901 12:3.5590405e-16 13:0.75291616 14:0.42107674 15:0.23985606 16:0.64606172 17:0.89233321 18:0.70401639 19:0.78773844 20:0.48757169 21:0.31713799 22:0.98659986 23:0.33013579 24:0.19901274 25:0.70723456 26:0.24473581 
-0.6308913227939629 1:0 2:0.55285764 3:0.18705791 4:0.19643161 5:0.60770351 6:1 7:0.52669322 8:0.019805685 9:0.2743665 10:0.54641616 11:0.41693759 12:0.37245187 13:0.33445388 14:0.28070346 15:0.47744933 16:0.32568932 17:0.48578751 18:0.63280123 19:0.85169297 20:0.45243999 21:0.21386579 22:0.6669808 23:0.54652596 24:0.28363821 25:0.31278846 26:0.21995722 
-3.57856599795563 1:0.55262733 2:0.35028076 3:0.31759846 4:0.55136395 5:0.45599079 6:0.77297783 7:0.6687693 8:0.65027839 9:0.4267064 10:0.56712687 11:0.54724568 12:0.44831261 13:0.43675065 14:0.4195447 15:0.4974671 16:0.2933009 17:0.577887 18:0.4851571 19:0.53940201 20:0.084892139 21:0.13978422 22:0.54201585 23:0.84115469 24:0.4434976 25:0.071639732 26:0.15864763 
-0.4018136880263048 1:0.88184381 2:0.51032364 3:0.8402468 4:0.80261779 5:0.59286231 6:0.76210749 7:0.6080876 8:0.71991634 9:0.46709341 10:0.72419828 11:0.44826239 12:0.45674163 13:0.32449338 14:0.46140993 15:0.47481465 16:0.46943751 17:0.42297366 18:0.37903956 19:0.99212915 20:0.77547443 21:0.17571865 22:0.2382208 23:0.7554636 24:0.56584585 25:0.086928308 26:0.13283962 
-5.915369448977729 1:0.41323391 2:0.55810302 3:0.43457574 4:0.60869044 5:0.4936434 6:0.21666744 7:0.78441274 8:0.35153347 9:0.33699533 10:0.67460269 11:0.31257004 12:0.28153357 13:0.49428809 14:0.6356672 15:0.3410081 16:0.1460073 17:0.16878748 18:0.26747218 19:0.57299101 20:0.83888817 21:0.34941348 22:0.80778039 23:0.57956016 24:0.34910733 25:0.49951044 26:0.057820201 
-1.931921257482771 1:0.71750104 2:0.58875084 3:0.49197957 4:0.65138638 5:0.4769879 6:0.59793055 7:0.49284333 8:0.37191302 9:0.82457304 10:0.50804567 11:0.47156259 12:0.23774192 13:0.62106156 14:0.16139813 15:0.48733357 16:0.24079891 17:0.50088036 18:0.24752727 19:0.30334553 20:0.23944382 21:0.10284681 22:0.62690204 23:0.8970567 24:0.38655055 25:0.14924607 26:0.14914453 
