svm_type c_svc
kernel_type rbf
gamma 0.09
nr_class 2
total_sv 31
rho 0.0121663
label 10011 10012
probA -4.11859
probB -0.193768
nr_sv 17 14
SV
2.327904766376512 1:0.2370889 2:0.51427919 3:0.20088725 4:0.69965553 5:0.6558007 6:0.22533409 7:0.59547514 8:0.50580215 9:0.5250662 10:0.58814168 11:0.53048122 12:0.33104795 13:0.53946304 14:0.32116166 15:0.15862447 16:0.49529207 17:0 18:0.19511271 19:0.87065262 20:0.26758671 21:0.64300907 22:0.55731457 23:1 24:0.64530063 
2.152084013855961 1:0.25491416 2:0.29588369 3:0.58426738 4:0.49502 5:0.32979113 6:0.63280416 7:0.46629745 8:0.5019471 9:0.45608947 10:0.88787109 11:0.62144738 12:0.19996271 13:0.43806338 14:0.69658405 15:0.66461766 16:0.4358097 17:0.61505377 18:0.84821451 19:0.44843307 20:0.82681113 21:0.49829206 22:0.71308815 23:0.71573287 24:0.73124278 
1.354582646853657 1:0.53955615 2:0.34266827 3:0.31954715 4:0.48934075 5:0.54006624 6:0.29826009 7:0.5317322 8:0.51495737 9:0.47257227 10:0.56197804 11:0.59309602 12:0.42585996 13:0.36425555 14:0.77675438 15:0.31679249 16:0.82158649 17:0.61573517 18:0.063182801 19:0.49571541 20:0.37524828 21:0.67576027 22:0.89063597 23:0.77455682 24:0.76594287 
1.32911577305696 1:0.51521409 2:0.3303791 3:0.7306354 4:0.50766009 5:0.32588184 6:0.28096068 7:0.26152545 8:0.8301841 9:0.54262036 10:0.15536445 11:0.45682085 12:0.72053289 13:0.70997196 14:0.56803262 15:0.1699838 16:0.21102802 17:0.51132929 18:0.47550899 19:0.5528568 20:0.83311474 21:0.4714573 22:0.72212946 23:0.64614016 24:0.80847478 
0.1129159078331808 1:0.6366592 2:0.22684263 3:0.44386214 4:0.66662598 5:0.55405766 6:0.29548538 7:0.13485801 8:0.73903513 9:0.46467471 10:0.31757602 11:0.48546582 12:0.40698814 13:0.55898172 14:0.46416515 15:0.80219334 16:0.47472778 17:0.51158124 18:0.093632236 19:0.31812137 20:0.7046212 21:0.47701609 22:0.88463479 23:0.71755564 24:0.77704167 
0.3786090549609231 1:0.67571253 2:0.39700037 3:0.65731472 4:0.25863579 5:0.37524313 6:0.41979995 7:0.68525529 8:0.56759328 9:0.35984513 10:0.78407413 11:0.30066735 12:1 13:0.28126353 14:0.42212707 15:0.31907308 16:0.43555763 17:0.54993677 18:0.78328145 19:0.82297361 20:0.50580728 21:0.48280987 22:0.8298735 23:0.88635808 24:0.70335764 
2.911979651354185 1:1 2:0.3760584 3:0.58569938 4:0.32512575 5:0.51051074 6:0.45205918 7:0.46677208 8:0.68403667 9:0.34168249 10:0.58257973 11:0.29360062 12:0.76733625 13:0.090818666 14:0.51080322 15:0.33088517 16:0.60154855 17:0.53033406 18:0.52271789 19:0.7642923 20:0.38914755 21:0.491741 22:0.97454482 23:0.94622195 24:0.67769003 
4.018381486477486 1:0.56580144 2:0.42222849 3:0.21954574 4:0.32919109 5:0.47669828 6:0.45816517 7:0.91583955 8:0.4190982 9:0.20841789 10:0.73816997 11:0.52691358 12:0.47568741 13:0.7211377 14:0.63649231 15:0.71403635 16:0.51048803 17:0.30237025 18:0.34043583 19:0.52430695 20:0.39166754 21:0.48796219 22:0.71079099 23:0.76664227 24:0.72935796 
1.390395938577584 1:0.5885303 2:0.41702622 3:0.63176078 4:0.20780483 5:0.26867384 6:0.41741019 7:0.22716728 8:0.47677395 9:0.52879238 10:0.29457095 11:0.55337465 12:0.46873802 13:0.40961376 14:0.66546899 15:0.63791436 16:0.61668867 17:0.61490828 18:0.29186043 19:0.51600081 20:0.3356441 21:0.73558569 22:0.2578159 23:0.5793525 24:0.90217555 
0.2051364990955421 1:0.86750561 2:0.50159252 3:0.53223079 4:0.70171428 5:0.45720914 6:0.39569727 7:0.4457382 8:0.6728918 9:0.48840213 10:0.28024483 11:0.51779425 12:0.41738284 13:0.33465472 14:0.6960296 15:0.41438365 16:0.71261585 17:0.83305478 18:0.53644234 19:0.59404361 20:0.25489712 21:0.71781021 22:0.33512488 23:0.56263977 24:0.87858081 
2.904026214773535 1:0.42631498 2:0.42523575 3:0.76923448 4:0.35969731 5:0.38233355 6:0.51682168 7:0.12449555 8:0.3731856 9:0.38704348 10:0.3799473 11:0.29638001 12:0.64072967 13:0.47314981 14:0.5072453 15:0.88262665 16:0.59454143 17:0.65720892 18:0.25181478 19:0.54063696 20:0.32619739 21:0.71595806 22:0.18802339 23:0.52417082 24:0.9056074 
0.4453847891744478 1:0.67367893 2:0.41664845 3:0.53805709 4:0.33295888 5:0.1353339 6:0.29905728 7:0.25819793 8:0.23962642 9:0.50080574 10:0.55631483 11:0.59382176 12:4.2926452e-16 13:0.31197512 14:0.5922603 15:0.71572375 16:0.70001906 17:0.65124393 18:0.10424409 19:0.3997511 20:0.21701081 21:0.72752273 22:0.26808664 23:0.66991311 24:0.8491739 
5.393560168673871 1:0.30757412 2:0.31769741 3:0.38387504 4:0.36319348 5:0.34751332 6:0.058452792 7:0.11928766 8:0.013303132 9:0.58437473 10:0.74483109 11:0.20050049 12:0.35398096 13:0.31599542 14:0.7803039 15:0.62816268 16:0.24005476 17:0.93564516 18:0.27849969 19:0.49937853 20:0.50546789 21:0.64849681 22:0.23826835 23:0.59488028 24:0.85337007 
2.075339385610332 1:0.86029381 2:0.40507841 3:0.38309661 4:4.9175165e-16 5:0.27008542 6:0.40861228 7:0.73335439 8:0.32606557 9:0.52575672 10:2.1863254e-16 11:0.57057756 12:0.48778585 13:0.28047436 14:0.68405515 15:0.24362378 16:0.99191576 17:0.47891229 18:0.43651325 19:0.54869103 20:0.64326751 21:0.5126856 22:0.25357193 23:0.6007126 24:0.8813777 
2.295885137679919 1:0.63349658 2:0.32194856 3:0.41245186 4:0.88548261 5:0.22214817 6:0.15314107 7:0.47007859 8:0.37562084 9:0.3390522 10:0.82080185 11:0.48634452 12:0.31910336 13:0.55267406 14:0.70715386 15:0.35948348 16:1 17:0.31746185 18:0.50490975 19:0.62019497 20:0.89406896 21:0.45316324 22:0.094921723 23:0.69685143 24:0.81000471 
1.735868120805026 1:0.53573895 2:0.76402342 3:0.65485871 4:0.70932591 5:0.31614533 6:1 7:0.54231632 8:0.55982876 9:0.23812167 10:0.32391828 11:0.50182611 12:0.21136183 13:0.077844493 14:0.72933114 15:0 16:0.4599115 17:0.31420761 18:0.1942139 19:0.85990494 20:0.58524394 21:0.44353321 22:0.13079813 23:0.61296582 24:0.82047856 
0.1031717911202969 1:0.5520618 2:0.56464386 3:0.33821741 4:0.46219847 5:0.85057563 6:0 7:1 8:0.41391766 9:0.40452623 10:0.66337228 11:0.7758472 12:0.434425 13:0.81796098 14:0.14967126 15:0.6119895 16:0.67609632 17:0.40383023 18:0.18732607 19:0.34938648 20:0.096301839 21:0.57741171 22:0.1486447 23:0.50772744 24:0.90905374 
-0.0316385469016334 1:0.54296845 2:0.44010088 3:0.60016686 4:0.37996572 5:0.44137797 6:0.27666727 7:0.63658625 8:0.62741852 9:0.47682527 10:0.56797028 11:0.17138295 12:0.31785649 13:0.50285912 14:0.60040659 15:0.56996495 16:0.73190147 17:0.58124405 18:0.23271102 19:0.94176883 20:0.78709722 21:1 22:0.68267089 23:0.08483959 24:0.32467133 
-4.77522156881005e-07 1:0.59431565 2:0.38009953 3:0.48638591 4:0.49554104 5:0.35414597 6:0.40135434 7:0.49047628 8:0.55925131 9:0.5029822 10:0.60224622 11:0.16148125 12:0.45670813 13:0.26677737 14:0.60563028 15:0.35976616 16:0.52793509 17:0.30568567 18:0.45851532 19:0 20:0.19612849 21:0.61101741 22:0.44260594 23:0.038307082 24:0.25330418 
-3.487012671665383 1:0.68418014 2:1 3:0.1490393 4:0.39524028 5:0 6:0.18628164 7:0.057649001 8:0.23252432 9:0.94661385 10:0.7843616 11:1 12:0.89506227 13:0.26239359 14:0.77464628 15:0.36596259 16:0.59959275 17:0.48272914 18:0.58785748 19:0.44538766 20:0.79698604 21:0.69454306 22:0.62375951 23:0.60217392 24:0.25916207 
-2.579570724787251 1:0.69994146 2:0.19753203 3:0.19835594 4:0.4053705 5:0.80442971 6:0.71921909 7:0.29252785 8:0.17279235 9:0.20593247 10:0.45824787 11:0.82417679 12:0.60905224 13:0.41759038 14:0.53298366 15:0.57840329 16:0.51648134 17:0.60704398 18:0.31540707 19:0.55919784 20:0.91627318 21:0.75237858 22:0.31158614 23:0.079166122 24:0.36099106 
-1.447184036302597 1:0.59431565 2:0.38009953 3:0.48638591 4:0.49554104 5:0.35414597 6:0.40135434 7:0.49047628 8:0.55925131 9:0.5029822 10:0.60224622 11:0.16148125 12:0.45670813 13:0.26677737 14:0.60563028 15:0.35976616 16:0.52793509 17:0.30568567 18:0.45851532 19:0 20:0.19612849 21:0.61101741 22:0.44260594 23:0.038307082 24:0.25330418 
-3.949513219198811 1:0.54296845 2:0.44010088 3:0.60016686 4:0.37996572 5:0.44137797 6:0.27666727 7:0.63658625 8:0.62741852 9:0.47682527 10:0.56797028 11:0.17138295 12:0.31785649 13:0.50285912 14:0.60040659 15:0.56996495 16:0.73190147 17:0.58124405 18:0.23271102 19:0.94176883 20:0.78709722 21:1 22:0.68267089 23:0.08483959 24:0.32467133 
-2.143134858056028 1:0.48139289 2:0.094135277 3:0.5085848 4:0.35152635 5:0.40887481 6:0.34766415 7:0.53531295 8:0.47573397 9:0.35461634 10:0.50742096 11:0.53197056 12:0.30278137 13:0.50271279 14:0.67906141 15:0.628519 16:0.43823773 17:0.60137784 18:0.39283746 19:1 20:0.12793984 21:1.0842781e-16 22:0.45261487 23:0.18686706 24:0.33819041 
-2.815550408142957 1:0.38681248 2:0.12960035 3:0.39654869 4:0.40815595 5:0.1912943 6:0.17295682 7:0.31205624 8:0.30747005 9:0.32756394 10:0.5356071 11:0.33547482 12:0.37675703 13:0.40428537 14:0.73563451 15:0.57597226 16:0.48530987 17:0.62593782 18:0.29961401 19:0.98506826 20:0.12494694 21:0.058833729 22:0.44225302 23:0.12537479 24:0.36152571 
-1.500016679317751 1:0.58758193 2:0.54431325 3:0.49116334 4:0.31702626 5:0.50719404 6:0.43579325 7:0.32524398 8:0.51464152 9:0.43764716 10:0.6599887 11:0.34788975 12:0.43179187 13:0.73612797 14:0.72061241 15:0.40221623 16:0.66713762 17:0.7019912 18:0.17140919 19:0.88900858 20:8.8056738e-17 21:0.077194057 22:0.43080038 23:0.18298383 24:0.34796101 
-1.15306784375766 1:0.58154279 2:0.15516607 3:0.5735482 4:0.56389189 5:0.24979854 6:0.58505464 7:0.58312279 8:0.58238453 9:0.47322574 10:0.3742643 11:0.40707955 12:0.44601658 13:0.84914476 14:0.83281553 15:0.53725678 16:0.5311228 17:0.54970402 18:0.45091772 19:0.50597036 20:0.47828653 21:0.68589407 22:0.10402046 23:0.82941455 24:0.063832708 
-3.145120742604008 1:0.48896575 2:0.30737886 3:0.4774881 4:0.32785973 5:0.52911752 6:0.51723289 7:0.72200352 8:0.35738665 9:0.73925704 10:0.54941583 11:0.39261597 12:0.48027 13:0.46294865 14:0.62238467 15:0.68357855 16:0.59544545 17:0.56330383 18:0.33655348 19:0.47918329 20:0.43602991 21:0.56507087 22:0.27573416 23:0.86014026 24:0.057025235 
-3.562823838446556 1:0.47681013 2:0.34130144 3:0.35324523 4:0.38941675 5:0.15297025 6:0.29356983 7:0.48703933 8:0.46011117 9:0.18423487 10:0.5832175 11:0.40611964 12:0.46256661 13:0.38422778 14:0.63398445 15:0.34051275 16:0.65133488 17:0.58749938 18:0.13246629 19:0.51552552 20:0.51937574 21:0.63136482 22:0.2190977 23:0.96183813 24:0.030750055 
-2.064822015612328 1:0.73745525 2:0.43503174 3:0.73182213 4:0.6667369 5:1 6:0.39009154 7:0.02917028 8:0.51105285 9:0.23094063 10:0.52111274 11:0.46194881 12:0.2948238 13:0.48033929 14:0.80659592 15:0.46471199 16:0.34259468 17:0.36852697 18:0.77163345 19:0.54391408 20:0.43674654 21:0.71220648 22:0.32134992 23:0.64503586 24:0.082478248 
-3.254885283964302 1:0.42409146 2:0.53479987 3:0.64884764 4:0.27237606 5:0.27858683 6:0.21136041 7:0.44965389 8:0.43915588 9:0.399176 10:0.59036458 11:0.5929386 12:0.63036054 13:0.12065949 14:0.5966627 15:0.57455933 16:0.46474355 17:0.53551245 18:0.14580789 19:0.52539033 20:0.54030472 21:0.63211083 22:0.41492769 23:0.88927639 24:0.084191099 
