svm_type c_svc
kernel_type rbf
gamma 0.09
nr_class 4
total_sv 492
rho -1.15683 -0.841374 -0.570548 0.94656 0.246409 -0.394223
label 21 22 23 3
probA -5.00285 -4.70897 -6.2615 -4.74455 -5.01874 -5.83718
probB -0.0763134 -0.819908 0.00522635 0.282497 0.51856 0.376833
nr_sv 201 24 167 100
SV
0 6.345739060986814 0 1:0.74417186 2:0.53188908 3:0.82889128 4:0.52177227 5:0.26269016 6:0.51450682 7:0.46451122 8:0.57470655 9:0.5493114 10:0.70482516 11:0.52322292 12:0.42778882 13:0.46601582 14:0.4553023 15:0.42263234 16:0.42198905 17:0.44427454 18:0.48524293 19:0.74890691 20:0.28878471 21:0.60017049 22:0.46000382 23:0.89889872 24:0.55631953 25:0.61231875 26:0.57041579 27:0.59622759 28:0.36335316 29:0.45160526 30:0.26230156 31:0.46593627 32:0.51871055 33:0.39173511 34:0.54529428 35:0.55465907 36:0.64648581 37:0.41498327 38:0.65633577 39:0.35728866 40:0.3969886 41:0.31734261 42:0.53335094 43:0.61575395 44:0.34967348 45:0.45129186 46:0.53659189 47:0.51223844 48:0.72663671 49:0.6234597 50:0.61590111 51:0.46664628 52:0.46257579 53:0.16567941 54:0.68910623 55:0.4889417 56:0.6614483 57:0.59450877 58:0.52452791 59:0.60635555 60:0.37616175 61:0.51695055 62:0.79672807 63:0.2541509 64:0.66552502 65:0.45458382 66:0.44091409 67:0.61170065 68:0.42492208 69:0.42627144 70:0.34509581 71:0.27045712 72:0.18054433 73:0.53391379 74:0.34593651 75:0.7339949 76:0.42854038 77:0.48665243 78:0.38769343 79:0.4439435 80:0.44391739 81:0.544541 82:0.26287946 83:0.78776133 84:0.55665928 85:0.45516676 86:0.57306606 87:0.58034497 88:0.4512797 89:0.58102626 90:0.6885038 91:0.60036534 92:0.78124315 
2.306515690710019 1.085193331390899 0 1:0.58680809 2:0.47611216 3:0.61394358 4:0.57502782 5:0.62934804 6:0.54847848 7:0.45132861 8:0.53688639 9:0.58745849 10:0.49545762 11:0.58434707 12:0.52664828 13:0.51584828 14:0.60565734 15:0.62238121 16:0.50882053 17:0.45847458 18:0.44818115 19:0.46256572 20:0.291087 21:0.59402382 22:0.63989532 23:0.81958026 24:0.4145892 25:0.48755351 26:0.3959904 27:0.37131602 28:0.52738792 29:0.58254439 30:0.62280518 31:0.35766995 32:0.45476711 33:0.47946084 34:0.43288797 35:0.27684212 36:0.47323826 37:0.34889737 38:0.39818966 39:0.48347285 40:0.34854263 41:0.39612633 42:0.66621661 43:0.5558753 44:0.66067564 45:0.68938702 46:0.56965071 47:0.65998369 48:0.51238769 49:0.47532967 50:0.54052681 51:0.40244672 52:0.71079266 53:0.42484105 54:0.5847314 55:0.51274437 56:0.60328209 57:0.71288198 58:0.617755 59:0.41956201 60:0.45231798 61:0.33182159 62:0.38089654 63:0.58195472 64:0.56584245 65:0.61659598 66:0.30593964 67:0.49313316 68:0.75089341 69:0.46255729 70:0.38732195 71:0.44635305 72:0.34023014 73:0.57265359 74:0.25363201 75:0.59852237 76:0.34554365 77:0.4945994 78:0.42083913 79:0.40032259 80:0.56243938 81:0.54084367 82:0.4724097 83:0.42545584 84:0.33173782 85:0.41306078 86:0.42297536 87:0.7207939 88:0.38824034 89:0.52718019 90:0.63987797 91:0.75961286 92:0.79936808 
0 2.100928289295495 0 1:0.48850721 2:0.26183721 3:0.30346608 4:0.50902855 5:0.52299374 6:0.49807712 7:0.54813868 8:0.47699758 9:0.58952075 10:0.20548275 11:0.39175102 12:0.3917861 13:0.41389102 14:0.30755207 15:0.53831589 16:0.38681063 17:0.5972383 18:0.47874916 19:0.57820845 20:0.41017246 21:0.37760967 22:0.54771984 23:0.46062165 24:0.39399782 25:0.50619936 26:0.52267128 27:0.38862789 28:0.43033728 29:0.71717948 30:0.34438375 31:0.39318755 32:0.67849195 33:0.30483156 34:0.55004025 35:0.18351859 36:0.70729858 37:0.52230191 38:0.5848217 39:0.46631879 40:0.64619631 41:0.5532499 42:0.48013848 43:0.55754596 44:0.3599914 45:0.45515311 46:0.27176639 47:0.38674113 48:0.44809219 49:0.48457742 50:0.5837658 51:0.43198419 52:0.485127 53:0.39339992 54:0.60915166 55:0.47605553 56:0.43112412 57:0.44938663 58:0.55538225 59:0.58906919 60:0.54512745 61:0.57951337 62:0.54293591 63:0.64414352 64:0.48543397 65:0.64115512 66:0.41332233 67:0.47177356 68:0.4270463 69:0.61118305 70:0.44322109 71:0.48814633 72:0.52920771 73:0.40174639 74:0.47775292 75:0.67911983 76:0.77024561 77:0.59612602 78:0.50080717 79:0.46421447 80:0.55669063 81:0.45939523 82:0.39725339 83:0.7765134 84:0.17026412 85:0.81540066 86:0.74987477 87:0.55552328 88:0.68372798 89:0.13386333 90:0.11079907 91:0.093304649 92:0.77617627 
0 3.490954299210015 0 1:0.65357226 2:0.63872701 3:0.095278561 4:0.71299744 5:0.4423779 6:0.56171918 7:0.48734877 8:0.54793739 9:0.88848829 10:0.64777356 11:0.56742537 12:0.58890426 13:0.56602651 14:0.50690132 15:0.44346815 16:0.61741233 17:0.4865405 18:0.58105516 19:0.4076114 20:0.48705459 21:0.38841876 22:0.41289052 23:0.5931983 24:0.86986977 25:0.46360335 26:0.42289978 27:0.28112137 28:0.3442542 29:0.51484144 30:0.51498663 31:0.3907854 32:0.57524562 33:0.39813337 34:0.6261909 35:0.41921073 36:0.48176244 37:0.31999189 38:0.45642629 39:0.51414961 40:0.45107225 41:0.79227215 42:0.43195191 43:0.49267486 44:0.52616465 45:0.033951279 46:0.52191353 47:0.46855259 48:0.53945792 49:0.52670103 50:0.56601709 51:0.10723943 52:0.41144192 53:0.49526551 54:0.61711103 55:0.29562771 56:0.40806556 57:0.57854372 58:0.60374844 59:0.5602172 60:0.38196811 61:0.51324373 62:0.32263806 63:0.37236825 64:0.47189161 65:0.28779837 66:0.50712454 67:0.52021217 68:0.51526403 69:0.64824957 70:0.56674021 71:0.5686394 72:0.23062144 73:0.24568386 74:0.54811502 75:0.59049761 76:0.58391196 77:0.34798005 78:0.7276454 79:0.26036522 80:0.59645563 81:0.35018972 82:0.43267262 83:0.82026547 84:0.31263125 85:0.73883778 86:0.45202443 87:0.67622364 88:0.87714165 89:0.40664479 90:0.35711321 91:0.16608864 92:0.85898119 
0 2.001389763409974 0 1:0.40443864 2:0.63520384 3:0.4821991 4:0.27661946 5:0.22561416 6:0.39136332 7:0.39656842 8:0.52343482 9:0.58164358 10:0.34510639 11:0.6724481 12:0.59154123 13:0.43931049 14:0.62348366 15:0.62323409 16:0.555785 17:0.42617017 18:0.54728317 19:0.51298589 20:0.21983884 21:0.27469555 22:0.47169557 23:0.48967552 24:0.55777484 25:0.56330281 26:0.48280597 27:0.82823151 28:0.85683143 29:0.64586669 30:0.5244574 31:0.53257596 32:0.57637936 33:0.31323135 34:0.32010564 35:0.37960789 36:0.3477731 37:0.3655287 38:0.5765323 39:0.2925899 40:0.42397875 41:0.4385609 42:0.40502435 43:0.4306418 44:0.48179361 45:0.52601659 46:0.94163179 47:0.50251842 48:0.36749187 49:0.37472698 50:0.82344866 51:0.46758938 52:0.16505651 53:0.58916903 54:0.41725028 55:0.57192886 56:0.54453164 57:0.605097 58:0.61165255 59:0.45679012 60:0.64288473 61:0.45824024 62:0.46738288 63:0.28297535 64:0.38246199 65:0.33830786 66:0.37823853 67:0.51989454 68:0.43400532 69:0.46272114 70:0.57641643 71:0.44381174 72:0.51729792 73:0.38331199 74:0.5710097 75:0.74488276 76:0.44260839 77:0.50170934 78:0.41095322 79:0.10561545 80:0.49107939 81:0.55085438 82:0.42990389 83:0.59678829 84:0.08873491 85:0.48270157 86:0.5698244 87:0.37289295 88:0.64165616 89:0.3835493 90:0.15602913 91:0.17476399 92:0.8210988 
0 1.20074163168534 0 1:0.52799094 2:0.34345588 3:0.47092104 4:0.49034864 5:0.4509384 6:0.54511052 7:0.59128231 8:0.53246289 9:0.75477457 10:0.58247012 11:0.56995487 12:0.71829522 13:0.55235595 14:0.56391364 15:0.83225912 16:0.59820974 17:0.82092893 18:0.6481232 19:0.44495326 20:0.31215873 21:0.39934605 22:0.52310538 23:0.34187144 24:0.44672632 25:0.38019529 26:0.6404807 27:0.41402644 28:0.20337665 29:0.69143456 30:0.43157867 31:0.39659703 32:0.48563001 33:0.47939596 34:0.68692446 35:0.36592603 36:0.4521645 37:0.63216454 38:0.58468837 39:0.55789119 40:0.61850041 41:0.65266305 42:0.27596697 43:0.62141734 44:0.62352353 45:0.34781685 46:0.14849636 47:0.32061061 48:0.63539279 49:0.69644475 50:0.58363247 51:0.45243853 52:0.62665141 53:0.61471856 54:0.40239987 55:0.44908857 56:0.72292399 57:0.58022249 58:0.43492192 59:0.32524887 60:0.45003372 61:0.60438657 62:0.61082143 63:0.46561286 64:0.63273162 65:0.6193167 66:0.39963892 67:0.6883086 68:0.45323163 69:0.47882292 70:0.51428813 71:0.55227768 72:0.5363006 73:0.29830065 74:0.73469478 75:0.63764173 76:0.62320733 77:0.47869247 78:0.40180516 79:0.52371836 80:0.55352032 81:0.76919621 82:0.32071787 83:0.6447199 84:0.24849227 85:0.60832202 86:0.3779988 87:0.50317895 88:0.51276797 89:0.0014007123 90:0.2625488 91:0.13823584 92:0.82554615 
0.354615640351053 1.457739912207164 0 1:0.28491744 2:0.69641578 3:0.50946325 4:0.41157314 5:0.4369525 6:0.4038533 7:0.50070572 8:0.58489043 9:0.61636662 10:0.45659629 11:0.31754288 12:0.66602552 13:0.44467983 14:0.38570607 15:0.45873594 16:0.33075052 17:0.69212419 18:0.41104054 19:0.70746398 20:0.34742555 21:0.44161803 22:0.50552499 23:0.52989674 24:0.39557171 25:0.5921821 26:0.58652651 27:0.49991015 28:0.55430067 29:0.48340666 30:0.71547824 31:0.51260453 32:0.57653993 33:0.5655396 34:0.46400118 35:0.44095299 36:0.65879589 37:0.36514571 38:0.37078309 39:0.4576335 40:0.56012702 41:0.40307105 42:0.60125929 43:0.51238155 44:0.35142127 45:0.36034998 46:0.74537361 47:0.37212169 48:0.5756489 49:0.31346193 50:0.56460029 51:0.41701841 52:0.49908781 53:0.61024839 54:0.40515751 55:0.39249083 56:0.38477451 57:0.46962079 58:0.63778096 59:0.74736917 60:0.48139924 61:0.54528654 62:0.42522639 63:0.47330743 64:0.45352253 65:0.64187044 66:0.37792203 67:0.39098024 68:0.59974211 69:0.50391901 70:0.43822902 71:0.57250464 72:0.47361368 73:0.39835581 74:0.79948419 75:0.7964927 76:0.54025728 77:0.4674325 78:0.60500968 79:0.49595013 80:0.6880511 81:0.30653489 82:0.56959164 83:0.53146803 84:0.49320364 85:0.87813938 86:0.31467816 87:0.3999778 88:0.46256804 89:2.6481871e-16 90:0.30617279 91:0.31307724 92:0.7733137 
0 0.5709768622481414 0 1:0.48319811 2:0.34715974 3:0.72520709 4:0.43597776 5:0.69773591 6:0.59175265 7:0.60713142 8:0.39646417 9:0.54980558 10:0.53741038 11:0.34658492 12:0.3736504 13:0.51996911 14:0.6997667 15:0.36779755 16:0.40326858 17:0.45476031 18:0.63113147 19:0.64815992 20:0.44040722 21:0.52761126 22:0.35883397 23:0.47604305 24:0.47565648 25:0.53075331 26:0.58692551 27:0.75051391 28:0.5648573 29:0.58894467 30:0.51982939 31:0.55442244 32:0.55181921 33:0.58006686 34:0.78894573 35:0.35355562 36:0.58830643 37:0.60448718 38:0.4856292 39:0.66275918 40:0.57892269 41:0.56533694 42:0.095491603 43:0.46127242 44:0.39422324 45:0.31175536 46:0.49491465 47:0.27956164 48:0.76252633 49:0.62326527 50:0.59584987 51:0.51628286 52:0.47914481 53:0.575697 54:0.43796164 55:0.47611251 56:0.52780521 57:0.42424199 58:0.55726016 59:0.41646537 60:0.62949049 61:0.44214585 62:0.29634073 63:0.53736496 64:0.57474083 65:0.59606987 66:0.31109649 67:0.33183858 68:0.46670103 69:0.31497109 70:0.13092463 71:0.46795684 72:0.19186859 73:0.26794371 74:0.40456185 75:0.45455265 76:0.72831845 77:0.45060202 78:0.46595415 79:0.35838401 80:0.65080309 81:0.48704955 82:0.68716758 83:0.39101264 84:0.28713909 85:0.40744168 86:0.12457751 87:0.50658894 88:0.1944434 89:0.22523472 90:0.50399935 91:0.45516592 92:0.88217282 
0 0 1.267353946734911 1:0.56288332 2:0.48287967 3:0.65255368 4:0.61934227 5:0.48786297 6:0.61225528 7:0.53340143 8:0.69459087 9:0.87592292 10:0.29951721 11:0.45681483 12:0.32302544 13:0.21332173 14:0.66460317 15:0.070256658 16:0.46669537 17:0.46069917 18:0.40819871 19:0.77134323 20:0.33031249 21:0.47180694 22:0.59020054 23:0.48868623 24:0.46861532 25:0.26653257 26:0.41508394 27:0.57373482 28:0.56063408 29:0.45163807 30:0.34113294 31:0.54662693 32:0.59396178 33:0.40508932 34:0.31911024 35:0.36992621 36:0.55397242 37:0.42682943 38:0.523049 39:0.5347454 40:0.35741326 41:0.48180825 42:0.45722371 43:0.53055835 44:0.43392 45:0.39022365 46:0.4038372 47:0.58229375 48:0.43556064 49:0.50488758 50:0.67524672 51:0.42029157 52:0.22207844 53:0.52522725 54:0.56426769 55:0.37420487 56:0.16824906 57:0.65384048 58:0.32277995 59:0.77723461 60:0.58771282 61:0.57542008 62:0.38461637 63:0.64731735 64:0.55307305 65:0.41102946 66:0.75742811 67:0.35708752 68:0.40175074 69:0.69610798 70:0.38076842 71:0.56307334 72:0.57513183 73:0.41990826 74:0.47401264 75:0.43974316 76:0.43749636 77:0.66667265 78:0.7260884 79:0.61152035 80:0.49915579 81:0.60182905 82:0.41753554 83:0.54042292 84:0.64983219 85:0.46143058 86:0.46094003 87:0.39058819 88:0.39293212 89:0.28076828 90:0.61347425 91:0.45797732 92:0.69572169 
1.629792948582614 0 0.2802233783737011 1:0.33424953 2:0.63434875 3:0.6220513 4:0.58749723 5:0.53671426 6:0.44485953 7:0.34007666 8:0.41024685 9:0.77735311 10:0.49873465 11:0.42842528 12:0.65601349 13:0.59977168 14:0.35952777 15:0.7500599 16:0.44609138 17:0.77440059 18:0.32780212 19:0.44243038 20:0.45555794 21:0.55515051 22:0.78643483 23:0.47623175 24:0.55455631 25:0.61457187 26:0.65604913 27:0.4526062 28:0.54752392 29:0.53952688 30:0.32331139 31:0.51874024 32:0.58956587 33:0.2964313 34:0.39870143 35:0.34243888 36:0.50687504 37:0.46353725 38:0.38056907 39:0.63820261 40:0.36654812 41:0.79361016 42:0.57339996 43:0.48375303 44:0.66511464 45:0.58292222 46:0.28992197 47:0.4702397 48:0.55501777 49:0.65965831 50:0.33819968 51:0.19057423 52:0.57447845 53:0.39778009 54:0.36861843 55:0.34222656 56:0.74522275 57:0.62187248 58:0.6469779 59:0.37745243 60:0.30584943 61:0.74617493 62:0.61443257 63:0.59967911 64:0.36758158 65:0.59561831 66:0.57142872 67:0.46388742 68:0.57560498 69:0.70345742 70:0.45732954 71:0.68830997 72:0.36236489 73:0.055851918 74:0.53380775 75:0.41031227 76:0.55231118 77:0.59793299 78:0.34767962 79:0.44837305 80:0.41229522 81:0.46544945 82:0.50515711 83:0.64460224 84:0.0643766 85:0.53517526 86:0.50562435 87:0.84855223 88:0.84037048 89:0.40990973 90:0.44277066 91:0.54150939 92:0.82011455 
0.7077604077521789 0.6210907267154347 0.5742935381557006 1:0.37507704 2:0.67767179 3:0.82037067 4:0.40122101 5:0.35814679 6:0.39117685 7:0.64483839 8:0.68267578 9:0.74590343 10:0.31538725 11:0.48615551 12:0.47374833 13:0.68471724 14:0.44352737 15:0.64391941 16:0.55279374 17:0.46098804 18:0.44615272 19:0.4351503 20:0.35618213 21:0.35683516 22:0.54038769 23:0.43588835 24:0.51354754 25:0.36685136 26:0.66403294 27:0.076283403 28:0.49439973 29:0.64509833 30:0.42061806 31:0.73525929 32:0.21161044 33:0.41434994 34:0.41269392 35:0.47492251 36:0.49691838 37:0.52841777 38:0.65208715 39:0.58572924 40:0.49074927 41:0.68939543 42:0.60321343 43:0.24644619 44:0.58538729 45:0.41140825 46:0.81988347 47:0.49857673 48:0.47060719 49:0.61181092 50:0.53971016 51:0.5158388 52:0.62134492 53:0.41724336 54:0.44503841 55:0.4918496 56:0.39916605 57:0.59910196 58:0.47847658 59:0.4709582 60:0.53197497 61:0.56342381 62:0.44972149 63:0.68725175 64:0.17147659 65:0.53435397 66:0.35479167 67:0.3725208 68:0.42268622 69:0.73760355 70:0.47005814 71:0.29754898 72:0.45503569 73:0.56603819 74:0.36091784 75:0.73709941 76:0.53319782 77:0.6957835 78:0.73250514 79:0.66689122 80:0.65607023 81:0.87877804 82:0.24000882 83:0.75074673 84:0.52203166 85:0.70862561 86:0.52340645 87:0.24199836 88:0.37404463 89:0.10344643 90:0.33484796 91:0.26993519 92:0.7177282 
0 10 0 1:0.39100033 2:0.90448225 3:0.65966231 4:0.55339915 5:0.56970084 6:0.49133074 7:0.46728215 8:0.52752465 9:0.80423063 10:0.42908707 11:0.56427944 12:0.56223303 13:0.38830525 14:0.54299915 15:0.54574955 16:0.35249984 17:0.55970788 18:0.51965123 19:0.72200304 20:0.28888437 21:0.33245182 22:0.274885 23:0.69005275 24:0.4097243 25:0.44429731 26:0.61941975 27:0.56448656 28:0.62929118 29:0.52134567 30:0.50332397 31:0.16855787 32:0.68248284 33:0.60343695 34:0.62192863 35:0.46534011 36:0.54442579 37:0.36035955 38:0.30169103 39:0.34139663 40:0.25057843 41:0.55859518 42:0.50562614 43:0.75143468 44:0.42616233 45:0.46369791 46:0.56180668 47:0.38740754 48:0.39443579 49:0.62994766 50:0.50368267 51:0.31805518 52:0.28574324 53:0.51134396 54:0.2615723 55:0.53535056 56:0.66809177 57:0.28247729 58:0.43797371 59:0.41693088 60:0.54463023 61:0.45653832 62:0.49314138 63:0.61553657 64:0.56067377 65:0.58618152 66:0.32590887 67:0.45565215 68:0.50241119 69:0.40933615 70:0.39966673 71:0.49684817 72:0.37905627 73:0.38704062 74:0.58346379 75:0.49790841 76:0.60003817 77:0.6633423 78:0.39548811 79:0.71950835 80:0.35507628 81:0.50064844 82:0.521635 83:0.63943315 84:0.50059646 85:0.36108285 86:0.50071794 87:0.80016088 88:0.50524986 89:0.17074558 90:0.80991608 91:0.77092707 92:0.79338527 
1.058516907215107 0.9046344383056824 0 1:0.55052733 2:0.41151524 3:0.41979074 4:0.66633689 5:0.64753711 6:0.45004123 7:0.60217297 8:0.58309114 9:0.64772189 10:0.41756386 11:0.6825971 12:0.47109368 13:0.05011123 14:0.30044043 15:0.54817092 16:0.54626864 17:0.53640926 18:0.31874561 19:0.55219698 20:0.32171506 21:0.77114803 22:0.48750022 23:0.32127523 24:0.66823894 25:0.4947671 26:0.38369915 27:0.54775214 28:0.3519859 29:0.38225234 30:0.62744528 31:0.82495886 32:0.75665534 33:0.62996155 34:0.67565215 35:0.32843924 36:0.63045925 37:0.30790928 38:0.30128264 39:0.72998613 40:0.45472586 41:0.51643074 42:0.81976819 43:0.20902714 44:0.65180367 45:0.29644018 46:0.49361384 47:0.55199671 48:0.42684528 49:0.33111286 50:0.42812583 51:0.42368048 52:0.43517572 53:0.44429749 54:0.35882586 55:0.49037445 56:0.37148055 57:0.25929248 58:0.50113541 59:0.47271714 60:0.49501884 61:0.33736837 62:0.3426902 63:0.57975769 64:0.61750746 65:0.5356462 66:0.65062457 67:0.35320863 68:0.4431496 69:0.66776305 70:0.25858194 71:0.52823305 72:0.50334609 73:0.49204564 74:0.38508695 75:0.50406957 76:0.25671804 77:0.52862084 78:0.54348427 79:0.41606623 80:0.45676211 81:0.3317275 82:0.54521704 83:0.53428429 84:0.5936802 85:0.47750503 86:0.85473007 87:0.75674772 88:0.54843932 89:0.4569011 90:0.66374999 91:0.54434437 92:0.72812533 
0 4.198237987364188 0 1:0.79414284 2:0.30716708 3:0.60211957 4:0.58635807 5:0.68977737 6:0.52859521 7:0.42105609 8:0.47096413 9:0.52010155 10:0.46852827 11:0.59728813 12:0.4820573 13:0.46400407 14:0.40812892 15:0.51628429 16:0.27877668 17:0.74255353 18:0.60480195 19:0.4833357 20:0.47545221 21:0.34831274 22:0.59715629 23:0.67966795 24:0.4262875 25:0.64425689 26:0.49275732 27:0.59361041 28:0.32170239 29:0.84402025 30:0.82831138 31:0.49694642 32:0.63690352 33:0.47853419 34:0.36748666 35:0.19130392 36:0.47261786 37:0.63473982 38:0.41703558 39:0.74991173 40:0.57811671 41:0.43720528 42:0.65402228 43:0.71782935 44:0.32008883 45:0.49768829 46:0.22770886 47:0.62848514 48:0.38039529 49:0.58011663 50:0.36594874 51:0.35599315 52:0.59903216 53:0.34171191 54:0.66885555 55:0.41587552 56:0.24406174 57:0.62454194 58:0.48430839 59:0.4826605 60:0.57263762 61:0.53790677 62:0.29690465 63:0.57074994 64:0.4260053 65:0.28826296 66:0.5109663 67:0.41819367 68:0.56205988 69:0.41349956 70:0.53211677 71:0.37557349 72:0.71717191 73:0.33353782 74:0.46969983 75:0.46738848 76:0.37146628 77:0.63971233 78:0.47779268 79:0.50957084 80:0.44104198 81:0.73723745 82:0.43101552 83:0.51260024 84:0.44975588 85:0.41958806 86:0.33832774 87:0.76567638 88:0.62546825 89:0.40025926 90:0.76064855 91:0.21603772 92:0.88133967 
0 0 1.156183330535719 1:0.47967872 2:0.42579678 3:0.66033918 4:0.63240969 5:0.53790009 6:0.41742408 7:0.43562812 8:0.24850757 9:0.44381037 10:0.35348707 11:0.47737461 12:0.45802078 13:0.33912882 14:0.6990968 15:0.53381497 16:0.54057682 17:0.6063391 18:0.63642424 19:0.58251858 20:0.26406917 21:0.66479295 22:0.47087899 23:0.40847588 24:0.4712342 25:0.54012507 26:0.3660523 27:0.63855112 28:0.56833452 29:0.67003179 30:0.42680922 31:0.48256645 32:0.86159682 33:0.37999892 34:0.56489813 35:0.19838426 36:0.36018792 37:0.39903674 38:0.66880184 39:0.65046787 40:0.41632378 41:0.42826587 42:0.74543148 43:0.82085365 44:0.53596771 45:0.50665998 46:0.5344038 47:0.58258402 48:0.70202917 49:0.5662781 50:0.56390524 51:0.44406477 52:0.57085937 53:0.46998 54:0.48541236 55:0.31095695 56:0.34615436 57:0.49629581 58:0.63823193 59:0.38949105 60:0.57008243 61:0.4799467 62:0.53017217 63:0.58058745 64:0.38836908 65:0.38285223 66:0.58603287 67:0.23321234 68:0.59793907 69:0.45397675 70:0.32922205 71:0.30142367 72:0.51474357 73:0.50110418 74:0.18806583 75:0.6007989 76:0.50642312 77:0.5634563 78:0.4783231 79:0.28696373 80:0.53099787 81:0.37150386 82:0.55677402 83:0.58853155 84:0.56705254 85:0.58958536 86:0.74444455 87:0.68597549 88:0.41555858 89:0.37687922 90:0.84964609 91:0.35071865 92:0.72584248 
1.153350731816563 0.6401827573013387 0 1:0.86683625 2:0.89560562 3:0.77466559 4:0.6857475 5:0.3909232 6:0.43562797 7:0.60706496 8:0.55545253 9:0.57525271 10:0.32984275 11:0.80845678 12:0.5616802 13:0.45476681 14:0.43001607 15:0.46382928 16:0.45959526 17:0.55764252 18:0.47916037 19:0.34890017 20:0.36196971 21:0.51331973 22:0.55539912 23:0.55131358 24:0.42729262 25:0.45427901 26:0.55123651 27:0.33164945 28:0.76015151 29:0.42380705 30:0.53210747 31:0.54610384 32:0.085473903 33:0.22822821 34:0.49942616 35:0.4353987 36:0.33944163 37:0.35073203 38:0.41994509 39:0.39394745 40:0.41560423 41:0.50344157 42:0.40300936 43:0.41133556 44:0.55255902 45:0.33075646 46:0.44746864 47:0.60596442 48:0.62254971 49:0.59655255 50:0.48356608 51:0.37432835 52:0.58568871 53:0.43258557 54:0.61157829 55:0.52995908 56:0.55502701 57:0.53078765 58:0.41022825 59:0.54778123 60:0.51652622 61:0.52527362 62:0.43926004 63:0.42000288 64:0.64843976 65:0.55962956 66:0.51351267 67:0.47275952 68:0.45613325 69:0.4191407 70:0.2720803 71:0.29387951 72:0.24136192 73:0.31140631 74:0.57065278 75:0.43929467 76:0.50958914 77:0.61501539 78:0.32970852 79:0.20015839 80:0.3937737 81:0.40069088 82:0.59736711 83:0.39917186 84:0.22429712 85:0.460637 86:0.61964667 87:0.63544989 88:0.79868823 89:0.70548862 90:0.70643651 91:0.6749897 92:0.75183487 
0 10 0.5177311671335311 1:0.60244745 2:0.36682665 3:0.43053323 4:0.33642292 5:0.58527493 6:0.44194219 7:0.68104792 8:0.34644341 9:0.64072335 10:0.42981467 11:0.31713033 12:0.36155689 13:0.44505352 14:0.5731312 15:0.41513208 16:0.34527671 17:0.45759538 18:0.20449415 19:0.84170121 20:0.32285035 21:0.31967586 22:0.55243254 23:0.68440574 24:0.48899603 25:0.5589447 26:0.54872131 27:0.70797896 28:0.68851167 29:0.47340029 30:0.39967984 31:0.3666884 32:0.36342829 33:0.52334422 34:0.29438522 35:0.30052736 36:0.45305812 37:0.4151549 38:0.69756603 39:0.70673561 40:0.50329012 41:0.53069061 42:0.79621893 43:0.36946887 44:0.5019806 45:0.72156137 46:0.57511461 47:0.57059872 48:0.39012149 49:0.56048453 50:0.6489321 51:0.43163979 52:0.60261798 53:0.36610419 54:0.43739215 55:0.47883761 56:0.4799003 57:0.58836669 58:0.39945465 59:0.59844232 60:0.38668513 61:0.63190812 62:0.36272728 63:0.25809288 64:0.23104641 65:0.40741831 66:0.60702449 67:0.44404721 68:0.61308545 69:0.58234555 70:0.60868949 71:0.42282587 72:0.33043262 73:0.55221462 74:0.28729048 75:0.57492208 76:0.53368014 77:0.54362881 78:0.58133829 79:0.3025071 80:0.6085152 81:0.34731379 82:0.67318636 83:0.43881771 84:0.50783026 85:0.27717838 86:0.25562009 87:0.70310098 88:0.69452006 89:0.55259061 90:0.49551201 91:0.34194511 92:0.74635315 
0 2.469129826654809 0 1:0.78132826 2:0.6198169 3:0.53191233 4:0.49599418 5:0.40708876 6:0.39694884 7:0.71695793 8:0.72947818 9:0.6630469 10:0.56705123 11:0.71162218 12:0.6079762 13:0.59712392 14:0.64854479 15:0.5475778 16:0.53522152 17:0.62399453 18:0.28492472 19:0.68061459 20:0.3911607 21:0.68869919 22:0.26779485 23:0.33025223 24:0.59428221 25:0.32090077 26:0.64959067 27:0.49913633 28:0.64051342 29:0.49083078 30:0.15232916 31:0.48763865 32:0.50933695 33:0.25403509 34:0.5160504 35:0.23955251 36:0.5115723 37:0.47256911 38:0.66593188 39:0.55666322 40:0.41352507 41:0.39823139 42:0.38057318 43:0.46986255 44:0.63963413 45:0.29559273 46:0.49818772 47:0.43285283 48:0.67168641 49:0.60131723 50:0.6224919 51:0.54136735 52:0.46055055 53:0.35885862 54:0.47788686 55:0.50503832 56:0.39712593 57:0.63207644 58:0.35615009 59:0.60726601 60:0.58865672 61:0.64116168 62:0.59317231 63:0.58973974 64:0.62470609 65:0.73346776 66:0.33978173 67:0.28952631 68:0.58005929 69:0.61259341 70:0.29934737 71:0.63170964 72:0.24418747 73:0.50240558 74:0.32652524 75:0.41222537 76:0.31633198 77:0.47661522 78:0.62364441 79:0.29794514 80:0.53606695 81:0.68956745 82:0.61360514 83:0.69317758 84:0.48701501 85:0.54133862 86:0.29949707 87:0.66972506 88:0.3699078 89:0.26267859 90:0.70452857 91:0.56423366 92:0.82814175 
0 3.249165148191647 0 1:0.70060945 2:0.52664334 3:0.48624665 4:0.53319699 5:0.54026198 6:0.62134862 7:0.71794838 8:0.59626496 9:0.7271747 10:0.28138229 11:0.67099738 12:0.50960296 13:0.41915798 14:0.68410176 15:0.52783787 16:0.37192136 17:0.55754483 18:0.66746271 19:0.46621105 20:0.35775328 21:0.60958129 22:0.52659553 23:0.52068424 24:0.63993871 25:0.45069608 26:0.52197754 27:0.39675543 28:0.51444197 29:0.38922992 30:0.26195166 31:0.43857047 32:0.42889026 33:0.35326615 34:0.40089825 35:0.59262866 36:0.53136289 37:0.4259426 38:0.82472032 39:0.42387661 40:0.38049167 41:0.49084976 42:0.56003106 43:0.27890539 44:0.45399627 45:0.22798429 46:0.49268302 47:0.47275564 48:0.60684669 49:0.46528119 50:0.57206357 51:0.43299916 52:0.61396533 53:0.44542345 54:0.52958608 55:0.63007742 56:0.47913167 57:0.62096184 58:0.53319466 59:0.64397043 60:0.52517873 61:0.41870487 62:0.47614101 63:0.46813172 64:0.3049047 65:0.47096953 66:0.52565742 67:0.30518878 68:0.67293638 69:0.44000846 70:0.37213567 71:0.39327502 72:0.58539844 73:0.58354408 74:0.4411194 75:0.51359034 76:0.6730541 77:0.70964736 78:0.65772825 79:0.36023659 80:0.50275773 81:0.58796507 82:0.48776951 83:0.52727032 84:0.50858635 85:0.4806006 86:0.40388036 87:0.75525039 88:0.56855249 89:0.29058015 90:0.84772748 91:0.66331869 92:0.77118009 
0 0 0.576611000552804 1:0.4665634 2:0.59743428 3:0.57502961 4:0.60769969 5:0.42589763 6:0.74668479 7:0.49291581 8:0.66983193 9:0.57881659 10:0.49774027 11:0.73068631 12:0.65743321 13:0.65877199 14:0.54986471 15:0.5597623 16:0.31750295 17:0.48495334 18:0.62973541 19:0.47520974 20:0.3809897 21:0.41893122 22:0.76109308 23:0.60013247 24:0.46474105 25:0.50306213 26:0.46786216 27:0.48818699 28:0.65567821 29:0.56310141 30:0.47496954 31:0.47298098 32:0.60967112 33:0.72387964 34:0.55785203 35:0.38900241 36:0.56992596 37:0.35186186 38:0.52344018 39:0.37092254 40:0.45971397 41:0.54584789 42:0.51551503 43:0.71274412 44:0.40687722 45:0.50289911 46:0.6596387 47:0.45247981 48:0.2454329 49:0.468108 50:0.50138158 51:0.51284957 52:0.31919584 53:0.49794921 54:0.61226922 55:0.3869586 56:0.31941774 57:0.58894932 58:0.47917926 59:0.46717307 60:0.60515159 61:0.3472921 62:0.38200417 63:0.40660223 64:0.5235973 65:0.39289826 66:0.49944153 67:0.53167188 68:0.55540353 69:0.21320845 70:0.32065547 71:0.19989704 72:0.50486225 73:0.3694174 74:0.33665842 75:0.71581465 76:0.45117351 77:0.57990658 78:0.56497699 79:0.38391647 80:0.46513852 81:0.50500685 82:0.46297708 83:0.56259632 84:0.33834752 85:0.39524519 86:0.46413299 87:0.66545606 88:0.61389601 89:0.46914971 90:0.6497646 91:1 92:0.7254526 
0 0 0.7608671152073043 1:0.70936918 2:0.80795139 3:0.38037682 4:0.39798918 5:0.32229611 6:0.57039577 7:0.24400902 8:0.37190768 9:0.6435048 10:0.53445262 11:0.72394359 12:0.45610145 13:0.51701874 14:0.56600016 15:0.89445019 16:0.65040034 17:0.63709605 18:0.75107521 19:0.39920086 20:0.31571361 21:0.51830256 22:0.68356788 23:0.53246427 24:0.66359019 25:0.66611058 26:0.39328641 27:0.53240573 28:0.84650457 29:0.43309835 30:0.51319516 31:0.55613589 32:0.5041551 33:0.50418282 34:0.55670494 35:0.30466622 36:0.53732413 37:0.37657687 38:0.42828521 39:0.64326429 40:0.15930626 41:0.31404474 42:0.38010785 43:0.47376636 44:0.56483454 45:0.37175879 46:0.73445505 47:0.69832671 48:0.47599304 49:0.57235372 50:0.47171745 51:0.57958889 52:0.39653373 53:0.33724841 54:0.53367245 55:0.48779526 56:0.44335935 57:0.55029649 58:0.42263466 59:0.41804039 60:0.45496193 61:0.60991257 62:0.49389297 63:0.52113122 64:0.67569059 65:0.32949227 66:0.54835743 67:0.38706928 68:0.4746899 69:0.98714924 70:0.59667593 71:0.67139959 72:0.15489373 73:0.52251887 74:0.55268788 75:0.59053093 76:0.51579046 77:0.7073667 78:0.54292232 79:0.43139318 80:0.43898782 81:0.69199121 82:0.50701737 83:0.5657444 84:0.56366581 85:0.54048091 86:0.52303094 87:0.52228534 88:0.69018871 89:0.61732453 90:0.83774066 91:0.36529326 92:0.72585833 
0 0 0.1368910707990272 1:0.49662831 2:0.53877532 3:0.49582064 4:0.68131089 5:0.2535857 6:0.75196075 7:0.27477258 8:0.23892945 9:0.41038278 10:0.63502127 11:0.59318721 12:0.34886745 13:0.29780611 14:0.69026387 15:0.63772351 16:0.42404109 17:0.43826544 18:0.63694066 19:0.66061974 20:0.34718832 21:0.34733945 22:0.56328499 23:0.64209187 24:0.35675693 25:0.25537243 26:0.64465082 27:0.52514416 28:0.14564228 29:0.75021178 30:0.33221924 31:0.48463181 32:0.35327956 33:0.62373281 34:0.59764063 35:0.21680233 36:0.51724666 37:0.3945393 38:0.0011072446 39:0.31451961 40:0.4763419 41:0.69639605 42:0.44344267 43:0.61201572 44:0.32662988 45:0.31796268 46:0.42497218 47:0.45568842 48:0.63620251 49:0.43719622 50:0.46064901 51:0.66084903 52:0.28169942 53:0.50803566 54:0.31928122 55:0.60248816 56:0.64403397 57:0.256989 58:0.67374158 59:0.27220151 60:0.42936283 61:0.40244472 62:0.30580506 63:0.77233326 64:0.44218558 65:0.39431444 66:0.31093949 67:0.36592722 68:0.28531685 69:0.55485082 70:0.59430057 71:0.69470471 72:0.70486742 73:0.39720178 74:0.38236549 75:0.57634574 76:0.56086624 77:0.59681773 78:0.51329589 79:0.48725724 80:0.53562748 81:0.4053964 82:0.74992371 83:0.55669767 84:0.55204087 85:0.64134598 86:0.71696073 87:0.59853017 88:0.64840233 89:0.40879267 90:0.95938897 91:0.41076908 92:0.69657326 
0 0.9516502266142769 0 1:0.47838497 2:0.43876684 3:0.29206923 4:0.32128909 5:0.38031176 6:0.49427724 7:0.46412271 8:0.45541871 9:0.34326056 10:0.63275719 11:0.68814886 12:0.57498127 13:0.59834987 14:0.48953956 15:0.55479288 16:0.5882318 17:0.34765574 18:0.5148477 19:0.63212001 20:0.43110061 21:0.3416746 22:0.40206641 23:0.52588397 24:0.69421679 25:0.29718238 26:0.64631903 27:0.60180008 28:0.41212162 29:0.60289258 30:0.22381791 31:0.48711726 32:0.50163162 33:0.46944943 34:0.44245073 35:0.28599703 36:0.43075153 37:0.55085301 38:0.46128893 39:0.43233448 40:0.42270714 41:0.64813191 42:0.54652107 43:0.56791818 44:0.52567023 45:0.28138259 46:0.47432348 47:0.53150982 48:0.63090116 49:0.38166672 50:0.51744086 51:0.45190081 52:0.35256448 53:0.42866698 54:0.44634336 55:0.51618779 56:0.35833722 57:0.7097379 58:0.43167022 59:0.70834786 60:0.63836795 61:0.72753817 62:0.26678655 63:0.57446724 64:0.18627912 65:0.57076788 66:0.40283996 67:0.29534319 68:0.53587306 69:0.7733593 70:0.64708549 71:0.4148874 72:0.46989551 73:0.45537001 74:0.41084602 75:0.59826779 76:0.38409233 77:0.67719835 78:0.46229485 79:0.35973653 80:0.46565649 81:0.46304947 82:0.35338256 83:0.50967699 84:0.22776218 85:0.72131556 86:0.43575078 87:0.84674948 88:0.67962629 89:0.45202774 90:0.49568099 91:0.21495926 92:0.88442218 
0 0 0.3068222362726484 1:0.38958958 2:0.73739666 3:0.28500065 4:0.5362677 5:0.2714389 6:0.37599227 7:0.16803946 8:0.23558261 9:0.55414152 10:0.63731134 11:0.59859437 12:0.75227153 13:0.38055944 14:0.74693781 15:0.51405472 16:0.40307891 17:0.52515662 18:0.67184186 19:0.41926685 20:0.39566711 21:0.50364846 22:0.37557605 23:0.46893919 24:0.36862397 25:0.4256306 26:0.69353235 27:0.5376839 28:0.31033814 29:0.54256105 30:0.44307604 31:0.4628199 32:0.50085562 33:0.53409821 34:0.1739058 35:0.52072895 36:0.60191172 37:0.57562572 38:0.46393612 39:0.57249147 40:0.33000538 41:0.59466785 42:0.5851624 43:0.42876583 44:0.34305322 45:0.51849842 46:0.406021 47:0.62130749 48:0.69530112 49:0.5375793 50:0.5550828 51:0.41372108 52:0.56856948 53:0.53824967 54:0.29101226 55:0.37617081 56:0.47430921 57:0.2731238 58:0.29013732 59:0.43490356 60:0.53605193 61:0.49740046 62:0.47277638 63:0.48814663 64:0.88860607 65:0.68908608 66:0.494874 67:0.3197518 68:0.45097512 69:0.45317027 70:0.34202236 71:0.5147137 72:0.70775878 73:0.35257694 74:0.47721291 75:0.42300013 76:0.26474845 77:0.54948044 78:0.72704482 79:0.57765561 80:0.57432002 81:0.42082512 82:0.40565544 83:0.58551478 84:0.40311867 85:0.48033476 86:0.46501678 87:0.59604591 88:0.523004 89:0.94773251 90:0.59019172 91:0.32048398 92:0.7979266 
0 0 0.9391600197316586 1:0.44913635 2:0.4064903 3:0.45312253 4:0.73107308 5:0.69640625 6:0.66078371 7:0.36960045 8:0.41562742 9:0.50447226 10:0.36722672 11:0.73018163 12:0.46843815 13:0.56988645 14:0.67594635 15:0.24459845 16:0.27996969 17:0.69319755 18:0.41652343 19:0.69406915 20:0.41695568 21:0.58691716 22:0.32696664 23:0.47415024 24:0.70983404 25:0.55535036 26:0.35029063 27:0.68655741 28:0.58585811 29:0.44991577 30:0.50143206 31:0.68766218 32:0.51162744 33:0.49987814 34:0.38877979 35:0.36224601 36:0.50431305 37:0.65084195 38:0.43465549 39:0.30927938 40:0.64658594 41:0.49090904 42:0.83902216 43:0.47365412 44:0.40958676 45:0.3279441 46:0.81276041 47:0.43899855 48:0.38803047 49:0.5846495 50:0.54636347 51:0.37372708 52:0.37866911 53:0.53133279 54:0.7342422 55:0.44228667 56:0.52571827 57:0.23812357 58:0.56675136 59:0.5119012 60:0.61113465 61:0.67362541 62:0.5077464 63:0.54421037 64:0.20116702 65:0.48002046 66:0.45413786 67:0.3407383 68:0.55325282 69:0.54306149 70:0.33457008 71:0.50104266 72:0.63211447 73:0.37243733 74:0.21560813 75:0.56124967 76:0.59689224 77:0.82750106 78:0.44337827 79:0.60292977 80:0.44526979 81:0.46130142 82:0.58945084 83:0.4835954 84:0.34401456 85:0.37235406 86:0.84718508 87:0.40003562 88:0.17982084 89:0.42288256 90:0.54022151 91:0.186997 92:0.74638885 
0 1.320382404300025 0 1:0.49178195 2:0.84501278 3:0.46882531 4:0.65696549 5:0.4767153 6:0.67568833 7:0.3197194 8:0.83503288 9:0.71562976 10:0.061020184 11:0.50103867 12:0.65917951 13:0.78529745 14:0.48742026 15:0.47906581 16:0.66771239 17:0.63870221 18:0.44749367 19:0.57600617 20:0.37373239 21:0.48135751 22:0.40552896 23:0.39259821 24:0.22764918 25:0.50524122 26:0.57393026 27:0.39514786 28:0.5273695 29:0.36319458 30:0.55963528 31:0.40634152 32:0.7260111 33:0.52142614 34:0.26624462 35:0.42718124 36:0.36547974 37:0.55365938 38:0.69678009 39:0.53324521 40:0.3758235 41:0.41277835 42:0.59266174 43:0.456617 44:0.30672991 45:0.59977818 46:0.72193611 47:0.50581431 48:0.73704541 49:0.43988019 50:0.32943758 51:0.46520141 52:0.41207999 53:0.47054249 54:0.3087503 55:0.34917766 56:0.48166031 57:0.60140514 58:0.41655278 59:0.52606332 60:0.25659195 61:0.57767946 62:0.47519627 63:0.65637559 64:0.4044942 65:0.58478636 66:0.53265262 67:0.23769172 68:0.57743078 69:0.5419848 70:0.59338129 71:0.69869679 72:0.3978405 73:0.73234642 74:0.33158395 75:0.44080988 76:0.4597466 77:0.58994538 78:0.34064436 79:0.45423886 80:0.52026898 81:0.32701942 82:0.46207678 83:0.54530573 84:0.30013382 85:0.36519548 86:0.27635276 87:0.62767589 88:0.39014378 89:0.43077326 90:0.74469024 91:0.16692536 92:0.91817421 
2.604952825133917 5.049816357180045 0 1:0.31886536 2:0.79477274 3:0.46083015 4:0.41912192 5:0.49996746 6:0.73755431 7:0.68887579 8:0.47428918 9:0.23762332 10:0.60657233 11:0.51747012 12:0.59225523 13:0.53107369 14:0.54267204 15:0.45087287 16:0.58105171 17:0.55208665 18:0.33428663 19:0.71578014 20:0.26111388 21:0.6489296 22:0.4765597 23:0.58957082 24:0.55221426 25:0.21532854 26:0.29666531 27:0.18590379 28:0.51194352 29:0.89905 30:0.40007329 31:0.56426305 32:0.5079419 33:0.54069501 34:0.43073097 35:0.34607628 36:0.55410123 37:0.43344516 38:0.58902228 39:0.50446182 40:0.43500462 41:0.23556767 42:0.44505319 43:0.43724692 44:0.36558098 45:0.5141024 46:0.67337227 47:0.41876069 48:0.48971549 49:0.43504614 50:0.29532129 51:0.095160231 52:0.46712422 53:0.45676348 54:0.42805263 55:0.39760989 56:0.52545458 57:0.60922766 58:0.4562839 59:0.42424425 60:0.26737604 61:0.55482262 62:0.68391204 63:0.52374816 64:0.3054069 65:0.47058058 66:0.47399622 67:0.47732875 68:0.48050329 69:0.58212942 70:0.53790033 71:0.36700332 72:0.67197138 73:0.46159703 74:0.32724392 75:0.70853204 76:0.43365884 77:0.58928704 78:0.62929124 79:0.47160479 80:0.37829536 81:0.37393439 82:0.56610107 83:0.49071231 84:0.46848038 85:0.40104416 86:0.67878449 87:0.65463191 88:0.67924142 89:0.57567078 90:0.79526466 91:0.1448229 92:0.77216655 
0 8.773089441750827 0 1:0.51933128 2:0.48705775 3:0.59576136 4:0.6239363 5:0.72357607 6:0.65825492 7:0.46016601 8:0.58610833 9:0.43076482 10:0.51290745 11:0.54687965 12:0.44389465 13:0.4510349 14:0.69219136 15:0.71097636 16:0.5152126 17:0.50000745 18:0.5459187 19:0.49653089 20:0.40430641 21:0.54894221 22:0.47464162 23:0.44005689 24:0.48964602 25:0.39768866 26:0.7568478 27:0.27110681 28:0.61681378 29:0.65466124 30:0.39825934 31:0.42029271 32:0.31491134 33:0.47661668 34:0.67051393 35:0.40350625 36:0.6437062 37:0.29197481 38:0.71285486 39:0.55097932 40:0.46579415 41:0.48316097 42:0.4296706 43:0.65310657 44:0.52845597 45:0.53335172 46:0.27501053 47:0.21259868 48:0.57280463 49:0.62474 50:0.52430421 51:0.37703589 52:0.55776489 53:0.49583423 54:0.26684663 55:0.53504699 56:0.85502899 57:0.49991632 58:0.19667509 59:0.35980779 60:0.19348218 61:0.31231546 62:0.43179253 63:0.511518 64:0.56879228 65:0.50784236 66:0.63591194 67:0.2949082 68:0.41818875 69:0.58638424 70:0.43625462 71:0.62887782 72:0.4746244 73:0.62457436 74:0.37119192 75:0.57707119 76:0.40006563 77:0.53281945 78:0.45455837 79:0.29899329 80:0.4592067 81:0.55980456 82:0.46840602 83:0.69809014 84:0.52407253 85:0.42696816 86:0.17849202 87:0.64395958 88:0.60278696 89:0.3666878 90:0.83187622 91:0.10730599 92:0.83095759 
0 0 0.1345854080626868 1:0.40801969 2:0.27694175 3:0.4622103 4:0.68134552 5:0.5331468 6:0.80488533 7:0.63878256 8:0.34257621 9:0.53429174 10:0.45406932 11:0.69799846 12:0.53473836 13:0.55613172 14:0.47740954 15:0.53112012 16:0.14124851 17:0.59079778 18:0.70185006 19:0.68377453 20:0.29003546 21:0.35293621 22:0.66070932 23:0.52237546 24:0.41731489 25:0.67016715 26:0.49962413 27:0.64613515 28:0.19969693 29:0.92218238 30:0.55138755 31:0.074525662 32:0.52238965 33:0.3515656 34:0.31241307 35:0.52155221 36:0.47469002 37:0.5161165 38:0.67536002 39:0.69158828 40:0.18963821 41:0.63566637 42:0.70278352 43:0.53294647 44:0.45512098 45:0.62540406 46:0.71301156 47:0.43920445 48:0.58720064 49:0.45742846 50:0.39994866 51:0.3739557 52:0.17868459 53:0.51041019 54:0.44784459 55:0.3141315 56:0.32747942 57:0.48104927 58:0.33770394 59:0.30584446 60:0.16157532 61:0.49969026 62:0.5781517 63:0.66316921 64:0.37903494 65:0.3053824 66:0.53862393 67:0.28330532 68:0.64214051 69:0.53824735 70:0.42044696 71:0.51872218 72:0.48752514 73:0.56491047 74:0.25222772 75:0.6364271 76:0.58153361 77:0.65805733 78:0.67797583 79:0.75581294 80:0.6389454 81:0.49971899 82:0.22262119 83:0.63959432 84:0.44809827 85:0.40457246 86:0.39704087 87:0.57108939 88:0.45172366 89:0.37838289 90:0.73227161 91:0.22213677 92:0.83463395 
0.06568039364172648 0 0 1:0.52287346 2:0.29507291 3:0.66390795 4:0.30676645 5:0.35629901 6:0.51530588 7:0.81350684 8:0.64877403 9:0.81447262 10:0.80615264 11:0.34789166 12:0.4635458 13:0.50794101 14:0.50110918 15:0.29396299 16:0.40328252 17:0.64765507 18:0.52059197 19:0.29867244 20:0.53927749 21:0.55542648 22:0.53888315 23:0.59909934 24:0.31758416 25:0.3690775 26:0.58273232 27:0.2878173 28:0.41458786 29:0.31942028 30:0.58139074 31:0.57199878 32:0.33959928 33:0.30367059 34:0.52275163 35:0.51948899 36:0.39449641 37:0.4728213 38:0.78392822 39:0.55018425 40:0.52276444 41:0.64632666 42:0.42326003 43:0.35678232 44:0.40963832 45:0.52246398 46:0.41668522 47:0.42345324 48:0.4424606 49:0.60406703 50:0.50801408 51:0.49153286 52:0.6321277 53:0.52768815 54:0.43853056 55:0.69973254 56:0.46521798 57:0.64086151 58:0.29241058 59:0.34139407 60:0.098439328 61:0.50480211 62:0.43281883 63:0.51967698 64:0.48064092 65:0.47291854 66:0.74942183 67:0.5371058 68:0.67165583 69:0.7695564 70:0.46221498 71:0.25135183 72:0.48292643 73:0.55041325 74:0.38710359 75:0.54764926 76:0.70074189 77:0.68001431 78:0.54624724 79:0.37620702 80:0.57237017 81:0.42591932 82:0.46516111 83:0.38722992 84:0.38020611 85:0.54733676 86:0.45577109 87:0.6823535 88:0.6004892 89:0.42806983 90:0.91700411 91:0.27667668 92:0.79273844 
0 0 0.2977808784330818 1:0.33572364 2:0.67903799 3:0.38783631 4:0.46491638 5:0.47192174 6:0.75983411 7:0.59844601 8:0.33318663 9:0.74641865 10:0.37109801 11:0.61560804 12:0.55260104 13:0.10905766 14:0.64565367 15:0.65923882 16:0.89143616 17:0.37315276 18:0.18368037 19:0.39026052 20:0.23462044 21:0.61343247 22:0.45917886 23:0.55175519 24:0.42950141 25:0.39364499 26:0.2228328 27:0.84047812 28:0.051440518 29:0.37652534 30:0.70171976 31:0.53632331 32:0.6314345 33:0.42873177 34:0.56763399 35:0.36233395 36:0.37463099 37:0.36561546 38:0.68647122 39:0.38007069 40:0.34243751 41:0.58105469 42:0.77778256 43:0.67279482 44:0.44665527 45:0.51795048 46:0.45933378 47:0.52956277 48:0.722812 49:0.63194883 50:0.41274941 51:0.31001085 52:0.53141958 53:0.32273671 54:0.58742052 55:0.60380673 56:0.18488486 57:0.44078326 58:0.5420993 59:0.69911915 60:0.42022204 61:0.53080398 62:0.43760061 63:0.41175929 64:0.56787568 65:0.59684175 66:0.42089391 67:0.15180686 68:0.66716528 69:0.52820224 70:0.27112126 71:0.58257174 72:0.64304382 73:0.5180968 74:0.58052498 75:0.60849613 76:0.48796752 77:0.34838641 78:0.54735482 79:0.32027867 80:0.57016367 81:0.39284617 82:0.65051806 83:0.51036096 84:0.72685301 85:0.95836604 86:0.18885821 87:0.63869715 88:0.41204986 89:0.25401515 90:0.76497233 91:0.19626829 92:0.79513896 
0 0.02257191293170678 0 1:0.62824655 2:0.66814077 3:0.40097934 4:0.35014433 5:0.46778747 6:0.52411646 7:0.46547976 8:0.5294624 9:0.5330925 10:0.35005501 11:0.66814554 12:0.43969396 13:0.40870553 14:0.60327995 15:0.33100611 16:0.26732817 17:0.66258609 18:0.40455648 19:0.51410496 20:0.38861439 21:0.35454741 22:0.43502402 23:0.34885457 24:0.54175496 25:0.48803332 26:0.58481485 27:0.57448077 28:0.4907797 29:0.41746345 30:0.42206261 31:0.49937239 32:0.68687385 33:0.51272458 34:0.51187807 35:0.16892898 36:0.46592677 37:0.67078382 38:0.58327639 39:0.7708205 40:0.44353074 41:0.47793153 42:0.62785596 43:0.62760258 44:0.45945147 45:0.65068895 46:0.24725449 47:0.4897711 48:0.42965031 49:0.48079565 50:0.26913375 51:0.49300331 52:0.70893812 53:0.42170197 54:0.53516018 55:0.38189128 56:0.50237823 57:0.57833922 58:0.26690453 59:0.23048161 60:0.53370982 61:0.58119482 62:0.32301798 63:0.48233378 64:0.70752257 65:0.44623598 66:0.65666282 67:0.40954402 68:0.46190277 69:0.58163828 70:0.48800442 71:0.64691353 72:0.27906626 73:0.37485707 74:0.4050003 75:0.52470481 76:0.20969574 77:0.49463227 78:0.50454289 79:0.51436949 80:0.50884235 81:0.69590676 82:0.51597774 83:0.59310174 84:0.57864392 85:0.61580139 86:0.34138066 87:0.59613723 88:0.59030735 89:0.40886295 90:0.87538666 91:0.16065501 92:0.82380676 
0 1.514892600302084 0 1:0.59652007 2:0.3375712 3:0.52336717 4:0.4335086 5:0.36160222 6:0.64831853 7:0.78017449 8:0.66256368 9:0.47812265 10:0.0014615338 11:0.84568322 12:0.5040279 13:0.39353651 14:0.57937866 15:0.78112352 16:0.34528595 17:0.59659547 18:0.70792675 19:0.3414548 20:0.38162741 21:0.34644416 22:0.76645935 23:0.44376722 24:0.2563473 25:0.51563352 26:0.34018433 27:0.57107443 28:0.47524625 29:0.60199195 30:0.75992739 31:0.36133623 32:0.43953601 33:0.52118015 34:0.60485327 35:0.29586118 36:0.81703156 37:0.47310704 38:0.6011498 39:0.50848567 40:0.54247606 41:0.70422012 42:0.65903419 43:0.45080876 44:0.32670406 45:0.36801034 46:0.68380874 47:0.64409363 48:0.61871392 49:0.56735641 50:0.71396399 51:0.3552748 52:0.6414206 53:0.48314217 54:0.60528779 55:0.3124699 56:0.51708829 57:0.51941288 58:0.56652129 59:0.61232787 60:0.55443019 61:0.35413399 62:0.14312042 63:0.48954839 64:0.66764629 65:0.39558333 66:0.47543988 67:0.39090097 68:0.50662923 69:0.51537836 70:0.67461419 71:0.38617021 72:0.65127313 73:0.53131831 74:0.18341105 75:0.60527432 76:0.7294988 77:0.55469364 78:0.5966118 79:0.53138995 80:0.65928417 81:0.1973055 82:0.6327256 83:0.73054844 84:0.5853734 85:0.33868504 86:0.54482216 87:0.48276031 88:0.54320717 89:0.20569657 90:0.80989742 91:0.12329052 92:0.76648867 
1.542290483951773 0 0.1614356531044045 1:0.41962829 2:0.59465039 3:0.46106192 4:0.60010499 5:0.65635431 6:0.56177461 7:0.69651526 8:0.31076458 9:0.63589221 10:0.74319702 11:0.56876826 12:0.26846269 13:0.6322152 14:0.53495461 15:0.45303392 16:0.40641269 17:0.64597356 18:0.64729816 19:0.38618445 20:0.40991628 21:0.4688282 22:0.74762118 23:0.47064516 24:0.54052496 25:0.69689971 26:0.34022045 27:0.56271511 28:0.38902453 29:0.85956872 30:0.29691121 31:0.24615762 32:0.34258586 33:0.54756981 34:0.33727777 35:0.50197828 36:0.44785213 37:0.43670776 38:0.46729073 39:0.40156278 40:0.32983407 41:0.62648755 42:0.50350058 43:0.55163664 44:0.48050067 45:0.31801766 46:0.58050972 47:0.47564366 48:0.39720762 49:0.56170684 50:0.46838847 51:0.42498535 52:0.33378798 53:0.49103147 54:0.45262697 55:0.36494294 56:0.51419729 57:0.76707572 58:0.33165574 59:0.48690975 60:0.5064829 61:0.51931655 62:0.44381058 63:0.33135536 64:0.36271986 65:0.54523951 66:0.81302691 67:0.35994512 68:0.4002637 69:0.52206928 70:0.7151621 71:0.31575397 72:0.4595935 73:0.25391203 74:0.20975685 75:0.66204679 76:0.493664 77:0.63094866 78:0.6434955 79:0.41637802 80:0.59503961 81:0.42707634 82:0.41222915 83:0.45695549 84:0.25747809 85:0.50526202 86:0.73701656 87:0.76033866 88:0.43075478 89:0.62284946 90:0.73363823 91:0.35540485 92:0.79565668 
0 0 1.166836431531858 1:0.45704991 2:0.38305151 3:0.57613504 4:0.6169095 5:0.580661 6:0.64948767 7:0.32640487 8:0.50991279 9:0.68197405 10:0.41287667 11:0.3805044 12:0.7050693 13:0.42243481 14:0.50573981 15:0.58379984 16:0.53785789 17:0.51000786 18:0.34292158 19:0.53335899 20:0.32939649 21:0.39788488 22:0.54140306 23:0.48352921 24:0.61697131 25:0.80014056 26:0.57498765 27:0.4189398 28:0.31422216 29:0.73048449 30:0.59323072 31:0.61241066 32:0.50046563 33:0.51228845 34:0.56274772 35:0.50510627 36:0.63925231 37:0.34676045 38:0.35237288 39:0.58825564 40:0.3842119 41:0.39056394 42:0.31209636 43:0.65651917 44:0.41510156 45:0.44455421 46:0.17811657 47:0.40541074 48:0.59426385 49:0.45491028 50:0.40937608 51:0.60182166 52:0.41833568 53:0.54396617 54:0.39811838 55:0.41839913 56:0.66610122 57:0.15723559 58:0.23274131 59:0.27361691 60:0.45001617 61:0.67693758 62:0.66260582 63:0.30435559 64:0.71405989 65:0.43749624 66:0.71166277 67:0.19908497 68:0.39853847 69:0.61891663 70:0.59681922 71:0.27169093 72:0.36991027 73:0.64138001 74:0.29633778 75:0.61845416 76:0.80280572 77:0.62464261 78:0.53741378 79:0.62334555 80:0.49255881 81:0.49920061 82:0.76845264 83:0.69019294 84:0.52535141 85:0.6269865 86:0.47927031 87:0.62884724 88:0.56182235 89:0.28451344 90:1 91:0.12128112 92:0.70181608 
0 8.306378265366389 0 1:0.55642432 2:0.69648576 3:0.67285621 4:0.41078299 5:0.48702675 6:0.58993739 7:0.66003323 8:0.39813405 9:0.46239248 10:0.63035214 11:0.6232487 12:0.56077641 13:0.52348697 14:0.59315932 15:0.60869342 16:0.69138569 17:0.49608293 18:0.57666814 19:0.58594102 20:0.63440895 21:0.40874615 22:0.64084059 23:0.26734719 24:0.34263816 25:0.39400297 26:0.55827659 27:0.38990751 28:0.47311687 29:0.69609016 30:0.45025155 31:0.57102865 32:0.60761321 33:0.45727351 34:0.4384433 35:0.32478386 36:0.61108756 37:0.44352996 38:0.54753 39:0.64266592 40:0.48736733 41:0.42512989 42:0.46135655 43:0.42057329 44:0.22518344 45:0.70361471 46:0.74098426 47:0.45627269 48:0.43598753 49:0.45360062 50:0.44740984 51:0.34588048 52:0.35493761 53:0.3988699 54:0.41376966 55:0.24187587 56:0.25752345 57:0.52282774 58:0.37177357 59:0.52271014 60:0.425529 61:0.5391019 62:0.52209288 63:0.42607319 64:0.45763358 65:0.32370692 66:0.45763338 67:0.46994445 68:0.47729549 69:0.31934601 70:0.59766686 71:0.39811501 72:0.48131642 73:0.46126476 74:0.29911244 75:0.6647867 76:0.2953929 77:0.58842856 78:0.43986538 79:0.61227918 80:0.62292206 81:0.30987585 82:0.51300573 83:0.44850704 84:0.39747667 85:0.45982298 86:0.28582707 87:0.6485756 88:0.64293188 89:0.55740756 90:0.76911932 91:0.15502463 92:0.89739156 
0 0.2881403927418349 0 1:0.44194219 2:0.47816005 3:0.38843158 4:0.30624399 5:0.42117131 6:0.60404277 7:0.42478484 8:0.81683159 9:0.67506206 10:0.51558566 11:0.48099443 12:0.45150825 13:0.37238568 14:0.48543295 15:0.67036033 16:0.53783548 17:0.48580033 18:0.38090578 19:0.53528959 20:0.28196958 21:0.38158038 22:0.3967734 23:0.36358383 24:0.44107273 25:0.38095513 26:0.45202062 27:0.62080306 28:0.65160203 29:0.35986355 30:0.45607427 31:0.5237658 32:0.3950294 33:0.40103135 34:0.31781238 35:0.51174825 36:0.558649 37:0.34394646 38:0.37961128 39:0.6527003 40:0.39449131 41:0.63071114 42:0.54520452 43:0.69208556 44:0.37625358 45:0.67035669 46:0.62613964 47:0.12654084 48:0.71088439 49:0.6571508 50:0.54594117 51:0.43292013 52:0.29677022 53:0.44184172 54:0.55047768 55:0.20953634 56:0.30515921 57:0.51365107 58:0.57585067 59:0.64862657 60:0.30037165 61:0.60225815 62:0.59541744 63:0.36931077 64:0.48907995 65:0.66844594 66:0.68774211 67:0.48855251 68:0.63998061 69:0.46176809 70:0.34639889 71:0.50781709 72:0.33168674 73:0.39199644 74:0.3544378 75:0.56613004 76:0.58455771 77:0.50368226 78:0.63875991 79:0.6388827 80:0.45168006 81:0.34701771 82:0.45682293 83:0.79062641 84:0.55657667 85:0.52754009 86:0.51211166 87:0.60007566 88:0.3554917 89:0.27805626 90:0.75306076 91:0.15088068 92:0.85910279 
0 0 0.3018218367205327 1:0.71807265 2:0.46445352 3:0.35276434 4:0.62171239 5:0.32980764 6:0.6387105 7:0.44063705 8:0.49584451 9:0.49011192 10:0.58786488 11:0.6135416 12:0.52380717 13:0.43446508 14:0.43964276 15:0.69784671 16:0.6219514 17:0.31267181 18:0.47707319 19:0.50095183 20:0.17260957 21:0.41572541 22:0.48321933 23:0.41867471 24:0.58852398 25:0.32326931 26:0.53544134 27:0.28983223 28:0.51088792 29:0.65040684 30:0.34721136 31:0.50593561 32:0.29477289 33:0.4620561 34:0.22910213 35:0.40507966 36:0.57864767 37:0.44070515 38:0.29003197 39:0.54313272 40:0.3174811 41:0.3984814 42:0.34475324 43:0.42467442 44:0.47290888 45:0.47034639 46:0.18181235 47:0.91897446 48:0.47736862 49:0.49706227 50:0.57070291 51:0.28967032 52:0.53391564 53:0.52333009 54:0.46416861 55:0.68395358 56:0.93431747 57:0.55211782 58:0.47321734 59:0.41901961 60:0.41332373 61:0.57342601 62:0.75109345 63:0.16596358 64:0.62898123 65:0.43175662 66:0.51222742 67:0.4385885 68:0.45027861 69:0.61068362 70:0.449065 71:0.58769143 72:0.44586492 73:0.48245549 74:0.20092073 75:0.58339775 76:0.61808145 77:0.55808991 78:0.27248636 79:0.47422111 80:0.54973751 81:0.43388015 82:0.5128665 83:0.75745249 84:0.48022297 85:0.46418625 86:0.7028234 87:0.65631777 88:0.23370492 89:0.50058436 90:0.72877699 91:0.30342922 92:0.7807734 
0.5427537359990281 0 0 1:0.7788325 2:0.5851323 3:0.3953622 4:0.39760587 5:0.37097132 6:0.43740967 7:0.34311968 8:0.50009441 9:0.70411205 10:0.29791397 11:0.55664819 12:0.42092448 13:0.58179241 14:0.71437848 15:0.47840419 16:0.26954415 17:0.6682837 18:0.63962394 19:0.69961619 20:0.38792962 21:0.54155719 22:0.59404814 23:0.28666708 24:0.45020115 25:0.29851657 26:0.44974452 27:0.54988527 28:0.39491865 29:0.54909694 30:0.56455368 31:0.082229473 32:0.53048801 33:0.40070722 34:0.30195594 35:0.25756648 36:0.56949681 37:0.40070698 38:0.56658977 39:0.3852506 40:0.31278944 41:0.70956552 42:0.75421482 43:0.78303337 44:0.44867048 45:0.62364668 46:0.50685865 47:0.36200133 48:0.59349442 49:0.63450336 50:0.67029816 51:0.32105362 52:0.55014402 53:0.48528516 54:0.55273145 55:0.25410518 56:0.41210198 57:0.5941686 58:0.49823412 59:0.78028917 60:0.41362369 61:0.50032425 62:0.50555384 63:0.45088106 64:0.5143069 65:0.49512458 66:0.48314261 67:0.46200806 68:0.54946518 69:0.75343895 70:0.61907923 71:0.43314347 72:0.52485681 73:0.42605928 74:0.51570684 75:0.69514722 76:0.54723155 77:0.45639774 78:0.48344615 79:0.40876803 80:0.41894972 81:0.47054777 82:0.35651055 83:0.37518647 84:0.39510772 85:0.56885022 86:0.46025544 87:0.71701914 88:0.45523944 89:0.51558167 90:0.88578981 91:0.23930718 92:0.85486519 
0.1023828233420946 0 0 1:0.23388308 2:0.2915495 3:0.84754813 4:0.63513911 5:0.44638807 6:0.63132215 7:0.63641107 8:0.63519818 9:0.32478246 10:0.37243807 11:0.4714511 12:0.57664168 13:0.48971704 14:0.50453836 15:0.3874529 16:0.68233597 17:0.39555225 18:0.32631937 19:0.5707134 20:0.55974048 21:0.40291676 22:0.60232687 23:0.48688206 24:0.58823407 25:0.55554241 26:0.55042911 27:0.47722605 28:0.42548096 29:0.57209975 30:0.40005639 31:0.68564719 32:0.52389687 33:0.44510686 34:0.59287256 35:0.49534658 36:0.41921747 37:0.67182046 38:0.31734285 39:0.62049323 40:0.56769234 41:0.37819329 42:0.26660919 43:0.32650837 44:0.72814202 45:0.54841006 46:0.5952667 47:0.21280365 48:0.37569329 49:0.50872391 50:0.61913091 51:0.60928029 52:0.61103845 53:0.5772379 54:0.22948821 55:0.39233163 56:0.46137297 57:0.52277941 58:0.51014352 59:0.66602749 60:0.60688889 61:0.56377441 62:0.39419731 63:0.48763159 64:0.36757991 65:0.5811609 66:0.40428814 67:0.64264822 68:0.42225054 69:0.35645694 70:0.55683041 71:0.19441019 72:0.54810226 73:0.42972606 74:0.25387534 75:0.51497251 76:0.53252262 77:0.55945069 78:0.52976012 79:0.48860189 80:0.53430796 81:0.54061699 82:0.49222091 83:0.60708708 84:0.44022894 85:0.47855833 86:0.48794535 87:0.65036476 88:0.43373069 89:0.45181382 90:0.7301349 91:0.84280068 92:0.82484436 
0 0 0.8113133055972902 1:0.69790351 2:0.43339592 3:0.54710197 4:0.49180678 5:0.50031084 6:0.62428623 7:0.40547344 8:0.38370439 9:0.72498822 10:0.44292912 11:0.5362891 12:0.56330013 13:0.62236208 14:0.7679159 15:0.46035308 16:0.41907388 17:0.43826172 18:0.81246555 19:0.63057959 20:0.36681101 21:0.38338634 22:0.52327514 23:0.47744808 24:0.6110422 25:0.60417545 26:0.29718933 27:0.4592962 28:0.75115788 29:0.68559808 30:0.33461368 31:0.61566323 32:0.46011642 33:0.54432696 34:0.48273763 35:0.52580547 36:0.49178061 37:0.65415847 38:0.75026035 39:0.35184544 40:0.4515799 41:0.65871859 42:0.56145352 43:0.47668853 44:0.54675514 45:0.32481909 46:0.76688004 47:0.63307774 48:0.53292245 49:0.44666266 50:0.42028719 51:0.25760484 52:0.20928064 53:0.36291352 54:0.54685915 55:0.28562352 56:0.75079036 57:0.58712083 58:0.30399406 59:0.38889566 60:0.43726203 61:0.53138101 62:0.77804393 63:0.52965045 64:0.63253218 65:0.56686205 66:0.41609308 67:0.39474976 68:0.59484607 69:0.74128467 70:0.74287087 71:0.63324898 72:0.32741529 73:0.35888132 74:0.46167159 75:0.61619174 76:0.50681913 77:0.45609406 78:0.68264008 79:0.44544363 80:0.60713875 81:0.4477931 82:0.76112169 83:0.87827051 84:0.49229392 85:0.31690368 86:0.41800371 87:0.42171466 88:0.59878325 89:0.35522896 90:0.78061038 91:0.23104627 92:0.72988945 
0 0.1213301723016618 0 1:0.49233636 2:0.47009835 3:0.64309758 4:0.45740947 5:0.13531534 6:0.75383991 7:0.38685098 8:0.40041041 9:0.70088875 10:0.5870713 11:0.5084644 12:0.68071526 13:0.34687477 14:0.78015667 15:0.34765628 16:0.36940792 17:0.72719908 18:0.25693509 19:0.34527725 20:0.56780076 21:0.75258714 22:0.50929534 23:0.32613477 24:0.4579466 25:0.53896981 26:0.40794939 27:0.69997942 28:0.40689668 29:0.69588244 30:0.49199733 31:0.24296136 32:0.45331252 33:0.61289459 34:0.41033265 35:0.22886643 36:0.5907675 37:0.41049835 38:0.5627225 39:0.21780214 40:0.37340897 41:0.74121279 42:0.45790845 43:0.3476145 44:0.48276848 45:0.39868948 46:0.75748622 47:0.58230573 48:0.58795363 49:0.59265202 50:0.54839909 51:0.59808725 52:0.36720294 53:0.54736972 54:1 55:0.54022068 56:0.40630671 57:0.67881221 58:0.57187808 59:0.64653587 60:0.54571182 61:0.47693166 62:0.83414042 63:0.36489183 64:0.43896744 65:0.099523313 66:0.48854333 67:0.44869772 68:0.80711693 69:0.32712719 70:0.51997703 71:0.47499102 72:0.75435096 73:0.41364798 74:0.85273182 75:0.54564977 76:0.4542776 77:0.44852 78:0.54298067 79:0.69040477 80:0.5510475 81:0.40570474 82:0.60384423 83:0.58630049 84:0.45624736 85:0.57854247 86:0.46577057 87:0.76979059 88:0.4937869 89:0.17104009 90:0.9158197 91:0.35008425 92:0.83490014 
0 1.165486907703895 0 1:0.66995603 2:0.53305244 3:0.50527692 4:0.44901994 5:0.49431965 6:0.13233192 7:0.49790728 8:0.54320019 9:0.55680603 10:0.54640305 11:0.48599285 12:0.64681739 13:0.36991656 14:0.66995013 15:0.37039578 16:0.45614323 17:0.53030068 18:0.25686443 19:0.37158564 20:0.2243862 21:0.70786977 22:0.34730858 23:0.45369405 24:0.63934267 25:0.64919788 26:0.25879344 27:0.12494702 28:0.38874695 29:0.60793501 30:0.35920641 31:0.37316045 32:0.68451077 33:0.36712265 34:0.58557898 35:0.17700596 36:0.63468027 37:0.64512885 38:0.85903275 39:0.39027971 40:0.55386567 41:0.4327572 42:0.6623556 43:0.61681569 44:0.3657206 45:0.61714149 46:0.47018915 47:0.3989549 48:0.58724171 49:0.35763311 50:0.44858232 51:0.41488725 52:0.49311328 53:0.33622476 54:0.49505529 55:0.40313873 56:0.59945363 57:0.48313355 58:0.23525357 59:0.57749206 60:0.63321459 61:0.67873025 62:0.4770627 63:0.51377004 64:0.6945495 65:0.54610872 66:0.67139673 67:0.0075504514 68:0.36117941 69:0.49631494 70:0.65930378 71:0.54747677 72:0.72941548 73:0.42580867 74:0.38050151 75:0.54529017 76:0.64662796 77:0.63869673 78:0.70198894 79:0.47470394 80:0.58643043 81:0.38142207 82:0.51883274 83:0.68499726 84:0.44233868 85:0.61058134 86:0.71302032 87:0.71901929 88:0.19864364 89:0.57247621 90:0.40895811 91:0.27497509 92:0.74721569 
0 0.6406606014326642 0 1:0.69784492 2:0.49449357 3:0.59433883 4:0.71006203 5:0.15512781 6:0.54758143 7:0.52153069 8:0.56235278 9:0.56062025 10:0.59339267 11:0.54561031 12:0.61361194 13:0.5043481 14:0.59326077 15:0.57903206 16:0.54723477 17:0.36280218 18:0.36972952 19:0.054317031 20:0.47545952 21:0.47770613 22:0.41469499 23:0.41627985 24:0.94747561 25:0.65513963 26:0.47248036 27:0.30257097 28:0.47485965 29:0 30:0.44471022 31:0.46231848 32:0.60165125 33:0.37141487 34:0.78339225 35:0.38583818 36:0.69122934 37:0.38024911 38:0.44056898 39:0.55519265 40:0.62742978 41:0.6642459 42:0.60570931 43:0.37057811 44:0.69961053 45:0.59803015 46:0.58037901 47:0.15892202 48:0.58316499 49:0.087853417 50:0.90367734 51:0.44272649 52:0.72126186 53:0.53969234 54:0.57782501 55:0.46088108 56:0.4724997 57:0.31437376 58:0.36606148 59:0.62024647 60:0.26284316 61:0.61554068 62:0.5256452 63:0.63542163 64:0.58735234 65:0.45936802 66:0.4482471 67:0.38176396 68:0.5566597 69:0.46633697 70:0.66385967 71:0.57444233 72:0.68830055 73:0.27184036 74:0.23041786 75:0.64040923 76:0.61145061 77:0.6861431 78:0.54639804 79:0.48310766 80:0.50096858 81:0.49748605 82:0.71388197 83:0.90285784 84:0.51325363 85:0.31419846 86:0.24180704 87:0.54545575 88:0.65487844 89:0.32273889 90:0.80870336 91:0.23539439 92:0.81927103 
0.3699832095893477 0.8634730334240827 0.5630464792120206 1:0.39396989 2:0.53010809 3:0.50999922 4:0.52946079 5:0.29213804 6:0.64483297 7:0.50941408 8:0.68749422 9:0.40708116 10:0.26815316 11:0.38141638 12:0.45688409 13:0.29587767 14:0.81730652 15:0.51190698 16:0.27627981 17:0.32429999 18:0.70490676 19:0.36900026 20:0.56760192 21:0.42208555 22:0.8067441 23:0.40779907 24:0.69250625 25:0.78525674 26:0.39937836 27:0.5037998 28:0.57757443 29:0.5043599 30:0.36845446 31:0.48336861 32:0.54835713 33:0.73684597 34:0.45851567 35:0.5210833 36:0.68186313 37:0.84635454 38:0.52753282 39:0.42047834 40:0.56026709 41:0.50563681 42:0.67936695 43:0.64765102 44:0.4038209 45:0.53371167 46:0.56151307 47:0.25432545 48:0.51707506 49:0 50:0.60742295 51:0.49659657 52:0.42309579 53:0.51185304 54:0.55926895 55:0.49987739 56:0.67203343 57:0.51139832 58:0.55015224 59:0.31756523 60:0.39252737 61:0.33510691 62:0.39480031 63:0.31013206 64:0.43404648 65:0.58431584 66:0.43865168 67:0.36561546 68:0.7334798 69:0.36528069 70:0.65135711 71:0.50285625 72:0.63925081 73:0.45174968 74:0.48477122 75:0.63737208 76:0.42784858 77:0.29023394 78:0.566594 79:0.46645501 80:0.73270011 81:0.17315137 82:0.70462012 83:0.58209264 84:0.63765317 85:0.67109591 86:0.40186813 87:0.64410418 88:0.52610743 89:0.30548623 90:0.88772321 91:0.34402138 92:0.73449302 
0 0 0.5176400285205949 1:0.55340445 2:0.59147638 3:0.66271067 4:2.7139878e-16 5:0.34287319 6:0.67463797 7:0.21402279 8:0.3572315 9:0.56271368 10:0.53345072 11:0.55991107 12:0.38869855 13:0.65201086 14:0.45107359 15:0.84026599 16:0.069652863 17:0.641114 18:0.54896438 19:0.67028773 20:0.3517023 21:0.82971984 22:0.36927333 23:0.28424874 24:0.64199609 25:0.50290614 26:0.12421253 27:0.37198809 28:0.43565571 29:0.45423716 30:0.40448388 31:0.50164455 32:0.30155048 33:0.33713907 34:0.61612564 35:0.43056563 36:0.74588042 37:0.26344135 38:0.59925842 39:0.26942155 40:0.61974585 41:0.74766219 42:0.12018937 43:0.46193305 44:0.37615111 45:0.85420138 46:0.31930244 47:0.49703813 48:0.75421 49:0.79590881 50:0.21650304 51:0.34892377 52:0.2949352 53:0.48669943 54:0.47504458 55:0.46900311 56:0.61020559 57:0.54208249 58:0.29868588 59:0.59134853 60:0.48635077 61:0.53909284 62:0.38099679 63:0.63483024 64:0.64311117 65:0.51181811 66:0.53652972 67:0.48601624 68:0.5508098 69:0.47609118 70:0.43356022 71:0.25781226 72:0.5501864 73:0.78841782 74:0.50529945 75:0.89705819 76:0.79695839 77:0.53604323 78:0.55402368 79:0.29861906 80:0.42114881 81:0.31381312 82:0.56772417 83:0.65611541 84:0.55312216 85:0.53128743 86:0.53251529 87:0.59542918 88:0.61035079 89:0.25608224 90:0.93552536 91:0.29032418 92:0.7369144 
0 0 1.685078073325301 1:0.3092137 2:0.54237592 3:0.66931152 4:0.65358698 5:0.45123535 6:0.36579254 7:0.71935344 8:0.71548206 9:0.34317267 10:0.40418762 11:0.48626938 12:0.42258629 13:0.28986996 14:0.49373534 15:0.52473438 16:0.58381575 17:0.45579913 18:0.55386388 19:0.41823804 20:0.40424445 21:0.46150443 22:0.43861952 23:0.5724144 24:0.52969843 25:0.47026065 26:0.64322728 27:0.69612831 28:0.64337707 29:0.12134835 30:0.18403108 31:0.85576612 32:0.65833694 33:0.66139585 34:0.33743364 35:0.15311183 36:0.44317806 37:0.50149775 38:0.49982086 39:0.358046 40:0.48990321 41:0.51806664 42:0.37070379 43:0.52523822 44:0.30639827 45:0.25422928 46:0.43100426 47:0.49711967 48:0.42592254 49:0.38098359 50:0.28464186 51:0.4007861 52:0.64641935 53:0.4885464 54:0.76229846 55:0.40484542 56:0.46650711 57:0.56447518 58:0.60102791 59:0.72414052 60:0.7898671 61:0.53747714 62:0.23237106 63:0.43811637 64:0.44465175 65:0.56984347 66:0.55627733 67:0.36122522 68:0.4445928 69:0.75700861 70:0.51178169 71:0.63759536 72:0.69900143 73:0.54349375 74:0.59733611 75:0.85356933 76:0.44490018 77:0.57342911 78:0.51441467 79:0.48644373 80:0.71590674 81:0.38228175 82:0.23372933 83:0.46571821 84:0.32896519 85:0.5246321 86:0.38024265 87:0.23439245 88:0.47332332 89:0.32946503 90:0.20391698 91:0.64018542 92:0.68852693 
0 0.04384290996419425 0 1:0.54824483 2:0.58811212 3:0.495509 4:0.3443293 5:0.52635121 6:0.66777933 7:0.36923024 8:0.30920231 9:0.53125226 10:0.51045173 11:0.55388647 12:0.47945577 13:0.59791702 14:0.48463997 15:0.67318034 16:0.55322707 17:0.39321327 18:0.3284798 19:0.49387139 20:0.26650444 21:0.48292679 22:0.3189387 23:0.73219097 24:0.59564513 25:0.24560285 26:0.45527667 27:0.59093565 28:0.63437903 29:0.52018559 30:0.66288346 31:0.44582108 32:0.56176162 33:0.44547918 34:0.38131237 35:0.27061716 36:0.46623239 37:0.29993635 38:0.26042578 39:0.45364913 40:0.36000329 41:0.91409028 42:0.52783859 43:0.31941286 44:0.31614605 45:0.45030704 46:0.54170412 47:0.4640882 48:0.67078787 49:0.47864133 50:0.51896405 51:0.31915176 52:0.23586567 53:0.34537461 54:0.48352066 55:0.37206766 56:0.4253445 57:0.57021582 58:0.64915311 59:0.54057753 60:0.49336883 61:0.47375554 62:0.70289218 63:0.49118695 64:0.41734153 65:0.64519727 66:0.39427814 67:0.65680778 68:0.47961563 69:0.51653916 70:0.42893606 71:0.41253957 72:0.45261353 73:0.51187992 74:0.46961117 75:0.68188798 76:0.58627039 77:0.47517815 78:0.54869241 79:0.38676849 80:0.40975741 81:0.39269525 82:0.54219592 83:0.64745444 84:0.5940851 85:0.50484574 86:0.65549517 87:0.72331655 88:0.31356978 89:0.41529724 90:0.74484783 91:0.78086597 92:0.79979742 
0 0 0.07044354593215402 1:0.34286642 2:0.71115512 3:0.3078666 4:0.62627339 5:0.50799358 6:0.69383782 7:0.39081192 8:0.41627109 9:0.71878856 10:0.61326283 11:0.57202005 12:0.32557175 13:0.29744813 14:0.45289472 15:0.47766069 16:0.48324749 17:0.36986682 18:0.35052544 19:0.48155066 20:0.30808568 21:0.4446905 22:0.71385366 23:0.15866643 24:0.42459422 25:0.43526983 26:0.497309 27:0.32533804 28:0.65316635 29:0.62176788 30:0.35195914 31:0.51125538 32:0.65878993 33:0.48901683 34:0.71581042 35:0.40806308 36:0.83294266 37:0.47771558 38:0.73915082 39:0.60320872 40:0.53228176 41:0.40919721 42:0.79505354 43:0.59986049 44:0.4905389 45:0.46282148 46:0.69762474 47:0.47680736 48:0.51027054 49:0.32171413 50:0.43461466 51:0.33155209 52:0.50100827 53:0.34533885 54:0.29277769 55:0.49016792 56:0.38017857 57:0.63506931 58:0.31900701 59:0.50044966 60:0.56992733 61:0.48349038 62:0.47754955 63:0.45461056 64:0.60386485 65:0.49594265 66:0.23299764 67:0.3808012 68:0.57352805 69:0.72827768 70:0.725577 71:0.3784765 72:0.78378135 73:0.39576033 74:0.28987515 75:0.8137061 76:0.46708113 77:0.62348974 78:0.68566746 79:0.35172728 80:0.4819929 81:0.35960609 82:0.54907793 83:0.73835963 84:0.49295861 85:0.57614303 86:0.55363721 87:0.65339297 88:0.52584624 89:0.57374692 90:0.79633272 91:0.32608461 92:0.77466005 
0 0 0.5430133363450911 1:0.60423112 2:0.79749477 3:0.29839334 4:0.4892464 5:0.35539782 6:0.3736468 7:0.57274479 8:0.43997988 9:0.2745156 10:0.47787803 11:0.6756534 12:0.48571682 13:0.35225222 14:0.55071223 15:0.66691184 16:0.45535263 17:0.5435738 18:0.4620052 19:0.29428896 20:0.57219577 21:0.63272202 22:0.49166059 23:0.24230124 24:0.39842409 25:0.61648351 26:0.57907194 27:0.39713442 28:0.38734797 29:0.69418329 30:0.27320927 31:0.45140541 32:0.64496917 33:0.24127036 34:0.58103317 35:0.23883575 36:0.42623001 37:0.44320408 38:0.55488271 39:0.53287822 40:0.24866341 41:0.62649858 42:0.46676177 43:0.42688671 44:0.17333372 45:0.84946489 46:0.60775572 47:0.39498124 48:0.87355655 49:0.40361279 50:0.30404806 51:0.20805873 52:0.58091515 53:0.68294668 54:0.47560948 55:0.51353002 56:0.56231743 57:0.37286487 58:0.66376525 59:0.61298478 60:0.55742896 61:0.35295683 62:0.5037868 63:0.49593037 64:0.57989824 65:0.43728289 66:0.39939773 67:0.60845029 68:0.55966169 69:0.50094336 70:0.28450382 71:0.40954089 72:0.65176612 73:0.4439877 74:0.22579472 75:0.6507622 76:0.42706209 77:0.67628622 78:0.36846849 79:0.78762919 80:0.56357241 81:0.29682505 82:0.53434312 83:0.53701454 84:0.33318526 85:0.43634665 86:0.41306877 87:0.43036714 88:0.18264395 89:0.33202282 90:0.64627862 91:0.22270329 92:0.90117407 
0 0.7012794208194474 0 1:0.42946449 2:0.3670451 3:0.44410229 4:0.4471162 5:0.33352956 6:0.54336995 7:0.33288747 8:0.45612228 9:0.46203741 10:0.42092338 11:0.49264678 12:0.73895222 13:0.6262657 14:0.55184418 15:0.38551524 16:0.48239574 17:0.43300736 18:0.5826633 19:0.72221005 20:0.31125531 21:0.452851 22:0.48691118 23:0.35031441 24:0.64209396 25:0.52439612 26:0.44398493 27:0.46372971 28:0.48239428 29:0.23425899 30:0.73006201 31:0.62119049 32:0.5133099 33:0.35070166 34:0.8073296 35:0.29995599 36:0.50499409 37:0.45950666 38:0.74872577 39:0.47913194 40:0.4021045 41:0.8029148 42:0.34784856 43:0.57172376 44:0.44141468 45:0.53220713 46:0.80494076 47:0.63036072 48:0.96682423 49:0.63803929 50:0.34511912 51:0.33089969 52:0.51158237 53:0.42014113 54:0.49470571 55:0.45218292 56:0.4722231 57:0.20672756 58:0.64287823 59:0.47136223 60:0.52794707 61:0.54105425 62:0.49024042 63:0.48817676 64:0.47496629 65:0.476771 66:0.38461208 67:0.12666908 68:0.57880026 69:0.38468465 70:0.29717547 71:0.23390912 72:0.47258818 73:0.6362049 74:0.23670329 75:0.8168875 76:0.30848369 77:0.55990565 78:0.60512841 79:0.34134939 80:0.52251625 81:0.2299604 82:0.63246518 83:0.65400422 84:0.71773714 85:0.9210636 86:0.34563583 87:0.5610261 88:0.25157741 89:0.28105065 90:0.84584546 91:0.21858445 92:0.74222058 
0 0 0.3766823899826953 1:0.67420137 2:0.80893624 3:0.40442804 4:0.43565512 5:0.46589687 6:0.53703094 7:0.35600713 8:0.71298647 9:0.25419748 10:0.65224725 11:0.21587627 12:0.34652364 13:0.52406663 14:0.55214369 15:0.35800427 16:0.21038814 17:0.30283359 18:0.31107575 19:0.34061894 20:0.049209412 21:0.62916225 22:0.82160085 23:0.61772239 24:0.55059755 25:0.48000169 26:0.57521033 27:0.56106597 28:0.59961903 29:0.50863248 30:0.20720562 31:0.59087563 32:0.4065209 33:0.45022213 34:0.39377508 35:0.23356257 36:0.47820023 37:0.80073202 38:0.65400594 39:0.52092463 40:0.24078019 41:0.6924783 42:3.141295e-16 43:0.65712869 44:0.34421164 45:0.45836118 46:0.37331825 47:0.5196172 48:0.5205456 49:0.50016928 50:0.49451005 51:0.22032481 52:0.73314434 53:0.50453949 54:0.50329369 55:0.75877368 56:0.39635485 57:0.32142007 58:0.75447732 59:0.75057834 60:0.5867371 61:0.41646037 62:0.61790419 63:0.38183928 64:0.33151752 65:0.61709505 66:0.38166302 67:0.32985628 68:0.98187315 69:0.51669729 70:0.45946756 71:0.50935245 72:0.51358342 73:0.68488777 74:0.46378791 75:0.56276482 76:0.44585401 77:0.58074754 78:0.61316365 79:0.47715542 80:0.52142853 81:0.23905644 82:0.54703635 83:0.62416124 84:0.61923802 85:0.70341641 86:0.50252908 87:0.69385731 88:0.15602158 89:0.16511063 90:0.84557092 91:0.32093808 92:0.76635122 
0.1190456005252134 0 0 1:0.61742908 2:0.59567666 3:0.34904754 4:0.43919623 5:0.5890128 6:0.41258916 7:0.20511298 8:0.7664355 9:0.69530702 10:0.48616806 11:0.70047504 12:0.46844712 13:0.45279416 14:0.61027175 15:0.39694116 16:0.29687631 17:0.47255859 18:0.39763135 19:0.54449403 20:0.37209818 21:0.64038229 22:0.4200488 23:0.49473146 24:0.39986783 25:0.38935763 26:0.62032956 27:0.61425406 28:0.44622362 29:0.53329653 30:0.29029197 31:0.52741796 32:0.67593747 33:0.48330665 34:0.44570857 35:0.32699957 36:0.46944252 37:0.17014933 38:0.49617136 39:0.78070271 40:0.55559975 41:0.51134807 42:0.46455553 43:0.41344929 44:0.49299303 45:0.88428867 46:0.76063085 47:0.23456225 48:0.63829589 49:0.50474244 50:0.64898151 51:0.27277818 52:0.19520384 53:0.51380467 54:0.45898792 55:0.44250819 56:0.57224172 57:0.14850935 58:0.52285779 59:0.64350581 60:0.78867322 61:0.33076608 62:0.36233261 63:0.48263445 64:0.60893977 65:0.54636049 66:0.20025493 67:0.38848495 68:0.53106713 69:0.5500114 70:0.30901182 71:0.41993615 72:0.51437861 73:0.34831008 74:0.76014519 75:0.70071781 76:0.25515756 77:0.61594808 78:0.60345846 79:0.65690285 80:0.29847834 81:0.28346476 82:0.52698785 83:0.62608194 84:0.36174533 85:0.95735073 86:0.53274429 87:0.84704572 88:0.39677843 89:0.10354543 90:0.71390915 91:0.19578813 92:0.80353713 
1.601780095017671 0 0.7551483713093512 1:0.37373805 2:0.50165409 3:0.54384124 4:0.61527103 5:0.37366498 6:0.76535475 7:0.58074671 8:0.65612167 9:0.68734187 10:0.76648259 11:0.63112664 12:0.66501224 13:0.37320614 14:0.61244738 15:0.88789135 16:0.47473705 17:0.55335552 18:0.24169396 19:0.19269022 20:0.36103845 21:0.22896516 22:0.18737288 23:0.51733828 24:0.47753662 25:0.48758328 26:0.56384474 27:0.49261197 28:0.51314259 29:0.68656796 30:0.69094759 31:0.53965688 32:0.21787645 33:0.46666238 34:0.61062479 35:0.53080952 36:0.38876995 37:0.44422916 38:0.44543463 39:0.3739368 40:0.65888941 41:0.37584847 42:0.6138522 43:0.69505173 44:0.6491915 45:0.56109202 46:0.6410538 47:0.71502572 48:0.57227731 49:0.19894768 50:0.67501932 51:0.65109557 52:0.5820412 53:0.59066999 54:0.46170774 55:0.59764528 56:0.75629467 57:0.59803361 58:0.36649927 59:0.63470817 60:0.41501927 61:0.26462221 62:0.7621631 63:0.42217702 64:0.44266888 65:0.68442774 66:0.28530309 67:0.42828041 68:0.42150226 69:0.53527182 70:0.54869503 71:0.54468042 72:0.84333128 73:0.43240425 74:0.25067914 75:0.49555236 76:0.30203021 77:0.70655364 78:0.55076998 79:0.54824728 80:0.73230278 81:0.46070087 82:0.60938573 83:0.51848751 84:0.43158492 85:0.51887673 86:0.58950222 87:0.32817131 88:0.48696011 89:0.39290014 90:0.67532545 91:0.24069716 92:0.74420506 
0 2.678229256261917 0 1:0.52294976 2:0.79872948 3:0.42129597 4:0.39040577 5:0.47283173 6:0.63698214 7:0.85314125 8:0.63008553 9:0.45265546 10:0.75152522 11:0.6048876 12:0.55193287 13:0.35552347 14:0.5631187 15:0.63716698 16:0.67870814 17:0.27803937 18:0.49538508 19:0.54034621 20:0.54915035 21:0.51197332 22:0.53434944 23:0.53026426 24:0.53409308 25:0.39242706 26:0.64802927 27:0.43434265 28:0.43158591 29:0.80076027 30:0.53842896 31:0.61122465 32:0.40611613 33:0.65191334 34:0.258333 35:0.38398248 36:0.50200123 37:0.65487981 38:0.52729005 39:0.55908298 40:0.41015399 41:0.6601041 42:0.37325871 43:0.76116508 44:0.25008839 45:0.24307348 46:0.63563073 47:0.74291301 48:0.4655793 49:0.4032515 50:0.41636708 51:0.5095576 52:0.40313151 53:0.51167798 54:0.57543409 55:0.2443798 56:0.53607064 57:0.62637913 58:0.41637549 59:0.46837184 60:0.45782995 61:0.73679966 62:0.51474482 63:0.35393485 64:0.75645906 65:0.53384668 66:0.51475501 67:0.45942903 68:0.29185799 69:0.49842808 70:0.77493513 71:0.19699073 72:0.63133794 73:0.28470489 74:0.31161034 75:0.59150505 76:0.44762498 77:0.53499806 78:0.24930674 79:0.56916392 80:0.45935363 81:0.63136202 82:0.38824785 83:0.7843709 84:0.61832559 85:0.39746124 86:0.60647565 87:0.69394749 88:0.25619608 89:0.54217774 90:0.69174784 91:0.57809854 92:0.84639639 
0 2.071496171406423 0 1:0.40831172 2:0.66334963 3:0.50219721 4:0.55027431 5:0.39204842 6:0.52048975 7:0.64196271 8:0.73268753 9:0.61925697 10:0.70664805 11:0.40283144 12:0.64999527 13:0.46043646 14:0.58750182 15:0.6963895 16:0.50349617 17:0.76477575 18:0.52998227 19:0.66038734 20:0.52628946 21:0.54172963 22:0.69780302 23:0.70330411 24:0.55963737 25:0.51527649 26:0.26076102 27:0.3219386 28:0.43920997 29:0.54742509 30:0.47154847 31:0.34804818 32:0.36934152 33:0.50624096 34:0.34852117 35:0.34275693 36:0.39241931 37:0.24983919 38:0.54735547 39:0.34418836 40:0.50006336 41:0.26805267 42:0.45943299 43:0.77078986 44:0.69601816 45:0.53302449 46:0.41575462 47:0.52341205 48:0.36360633 49:0.62091279 50:0.53922349 51:0.53276426 52:0.37996641 53:0.48110461 54:0.38587233 55:0.43633381 56:0.59390932 57:0.47164518 58:0.58791006 59:0.56485283 60:0.33610868 61:0.36401263 62:0.61707902 63:0.54346305 64:0.32886237 65:0.55675226 66:0.29712066 67:0.53820086 68:0.44100916 69:0.39384702 70:0.62162077 71:0.40678012 72:0.69888854 73:0.58932483 74:0.52618849 75:0.67131126 76:0.45908374 77:0.46422312 78:0.64868325 79:0.62890702 80:0.4526597 81:0.39139712 82:0.54726732 83:0.73185974 84:0.82295841 85:0.61149633 86:0.33571401 87:0.66125232 88:0.48792449 89:0.26875037 90:0.86783016 91:0.53329283 92:0.81498134 
0 3.146174496526271 0 1:0.6941976 2:0.72889245 3:0.30973557 4:0.55451363 5:0.48080644 6:0.36762828 7:0.53177458 8:0.64894766 9:0.67188376 10:0.64990413 11:0.60910356 12:0.43183929 13:0.22959019 14:0.61082596 15:0.49336308 16:0.50019193 17:0.29705876 18:0.51843596 19:0.53396702 20:0.40803751 21:0.36700675 22:0.59633386 23:0.29876873 24:0.47286925 25:0.5497207 26:0.29673383 27:0.42906055 28:0.66037303 29:0.3830834 30:0.47073919 31:0.53370857 32:0.063691154 33:0.53000736 34:0.66032016 35:0.28530672 36:0.65120935 37:0.45302892 38:0.54046375 39:0.47707778 40:0.40903264 41:0.48283219 42:0.49140552 43:0.59594953 44:0.20690171 45:0.57647973 46:0.17208582 47:0.59490794 48:0.47890446 49:0.57023233 50:0.59159982 51:0.40633643 52:0.58955532 53:0.44644794 54:0.35844707 55:0.67841125 56:0.20696755 57:0.49694738 58:0.48310965 59:0.46156341 60:0.30123252 61:0.608073 62:0.39299342 63:0.5332756 64:0.19573587 65:0.44376019 66:0.65588862 67:0.17959726 68:0.42277947 69:0.44454888 70:0.53152418 71:0.382671 72:0.26496053 73:0.39354274 74:0.64051902 75:0.61271179 76:0.74079162 77:0.38530537 78:0.80905306 79:0.31067136 80:0.49901265 81:0.64417106 82:0.38368344 83:0.69882834 84:0.40638971 85:0.62462497 86:0.3352038 87:0.70535386 88:0.33297211 89:0.43407559 90:0.31417474 91:0.35619736 92:0.8448531 
0.1247318051492366 1.283552297194195 1.497272506870302 1:0.97515714 2:0.39491761 3:0.68994671 4:0.40499905 5:0.51409787 6:0.20313601 7:0.47222453 8:0.36662737 9:0.34349158 10:0.43258911 11:0.27467492 12:0.82745397 13:0.14730705 14:0.75233567 15:0.57908225 16:0.13005149 17:0.73223835 18:0.78190368 19:0.63450146 20:0.26926431 21:0.29717803 22:0.75470364 23:0.91194099 24:0.36356232 25:0.79951346 26:0.57397705 27:0.10553849 28:0.84168714 29:0.57478046 30:0.44200706 31:0.32193053 32:0.32448557 33:0.52923763 34:0.64706445 35:0.1885667 36:0.70738322 37:0.80672514 38:0.076335229 39:0.57781672 40:1 41:0.49643615 42:0.41302273 43:0.53659034 44:0.48157364 45:0.44637892 46:0.53434241 47:0.11563059 48:1 49:0.51038969 50:0.85255677 51:0.63621521 52:0.81251425 53:0.74105757 54:0.55411822 55:0.2161964 56:0.56901336 57:0.64640146 58:0.44627079 59:0.65255702 60:0.59609002 61:0.77014607 62:0.60899013 63:0.53983915 64:0.680686 65:0.25551328 66:0.67236817 67:0.06109716 68:0.52783954 69:0.6435535 70:0.56785518 71:0.79340005 72:0.42059383 73:0.27778876 74:1 75:0.79647446 76:0.52284282 77:0.62916148 78:0.72479767 79:0.51221246 80:0.64658993 81:0.25266203 82:0.45330915 83:0.48848653 84:0.47059536 85:0.68402183 86:0.49969798 87:0.80773461 88:0.50412631 89:0.69679093 90:0.53487849 91:0.68644005 92:0.49152079 
0 0 1.040330808173218 1:0.83022285 2:0.52297801 3:0.65588683 4:0.62605447 5:0.42762768 6:0.48796895 7:0.54327935 8:0.38249633 9:0.43991408 10:0.46552053 11:0.69749427 12:0.31551811 13:0.59952235 14:0.59269565 15:0.51291132 16:0.38756639 17:0.67597866 18:0.53869194 19:0.48507112 20:0.14275652 21:0.56741136 22:0.53688765 23:0.57250535 24:0.58767629 25:0.75181073 26:0.68598872 27:0.55965924 28:0.72608727 29:0.82215488 30:0.37040287 31:0.55309099 32:0.35334915 33:0.5250718 34:0.50330096 35:0.42554 36:0.65462852 37:0.29177558 38:0.78476262 39:0.68408829 40:0.4579328 41:0 42:0.30955502 43:0.35587344 44:0.74625498 45:0.50359297 46:0.50037384 47:0.27711925 48:0.63809854 49:0.49311465 50:0.49851075 51:0.51883668 52:0.46814042 53:0.53224748 54:0.44407758 55:0.27220395 56:0.47172898 57:0.15163858 58:0.52975786 59:0.89932197 60:0.62029332 61:0.47262299 62:0.10624076 63:0.38984478 64:0.36116844 65:0.75873047 66:0.17993483 67:0.20684546 68:0.63959593 69:0.40356547 70:0.49581033 71:0.44605908 72:0.47548756 73:0.62746131 74:0.43275207 75:0.52048331 76:0.34525189 77:0.71289933 78:0.19040257 79:0.42721373 80:0.4208163 81:0.18860856 82:0.52705395 83:0.87181199 84:0.43006182 85:0.56956565 86:0.70607018 87:0.15097404 88:0.80230385 89:0.58566797 90:0.25402504 91:0.37962154 92:0.66590321 
1.762913671218032 0 0 1:0.75871831 2:0.52633166 3:0.56114912 4:0.45193547 5:0.13908327 6:0.72205353 7:0.47014874 8:0.94853675 9:0.41151178 10:0.54744852 11:0.42397964 12:0.54793733 13:0.46151784 14:0.48117718 15:0.67050087 16:0.99655557 17:0.66288269 18:0.22358151 19:0.60160708 20:0.50653398 21:0.53960395 22:0.68621176 23:0.3277294 24:0.54256177 25:0.40901345 26:0.38472477 27:0.31494558 28:0.52196312 29:0.45730263 30:0.20552433 31:0.84738386 32:0.30610105 33:0.43112519 34:0.3079831 35:0.25906956 36:0.66297656 37:0.34421706 38:0.48739877 39:0.56704175 40:0.43152925 41:0.53609037 42:0.4352068 43:0.27339974 44:0.47314531 45:0.4477427 46:0.63112098 47:0.67428041 48:0.37510774 49:0.28351513 50:0.54541123 51:0.38540447 52:0.59822565 53:0.66043419 54:0.62914801 55:0.60899341 56:0.6635949 57:0.41060796 58:0.28402713 59:0.62258452 60:0.47357398 61:0.60491687 62:0.47138983 63:0.53950655 64:0.55749291 65:0.41750771 66:0.49162808 67:0.29533952 68:0.48552108 69:0.69526148 70:0.53049111 71:0.46310747 72:0.52545154 73:0.81701976 74:0.3855179 75:0.42529389 76:0.42517811 77:0.49368107 78:0.45475444 79:0.61682385 80:0.68696827 81:0.4920525 82:0.32063648 83:0.47129408 84:0.32970661 85:0.38353178 86:0.48339921 87:0.75991452 88:0.31575036 89:0.59503138 90:0.66144383 91:0.50131583 92:0.85877109 
0 1.31448825998485 0 1:0.55493546 2:0.66697001 3:0.32685938 4:0.32220492 5:0.45487991 6:0.66415352 7:0.45642427 8:0.32744241 9:0.62036312 10:0.55550879 11:0.67274857 12:0.35243151 13:0.31867498 14:0.42282051 15:0.48425496 16:0.61249471 17:0.42825127 18:0.47505403 19:0.32284078 20:0.52249479 21:0.38782117 22:0.68617398 23:0.1645667 24:0.79546338 25:0.36795679 26:0.66271961 27:0.5779897 28:0.73459113 29:0.5701468 30:0.56246758 31:0.46044716 32:0.49547425 33:0.55960822 34:0.52317858 35:0.43299913 36:0.48230213 37:0.17181687 38:0.21326807 39:0.53521079 40:0.50924784 41:0.53199357 42:0.50964993 43:0.46961656 44:0.53160644 45:0.52068919 46:0.80948406 47:0.39945158 48:0.46587917 49:0.65942115 50:0.6480487 51:0.49548298 52:0.16467844 53:0.32848841 54:0.44059518 55:0.52209282 56:0.58432126 57:0.32664087 58:0.43300858 59:0.21830887 60:0.68813032 61:0.23245008 62:0.2939097 63:0.44236982 64:0.8749969 65:0.58078676 66:0.49163395 67:0.58363569 68:0.43561578 69:0.57865918 70:0.68020165 71:0.64693278 72:0.47699997 73:0.58542413 74:0.46510938 75:0.32882956 76:0.49488658 77:0.36591679 78:0.60997999 79:0.79856449 80:0.71229172 81:0.42364442 82:0.31758738 83:0.63546753 84:0.44840881 85:0.43741593 86:0.29951537 87:0.68583727 88:0.29681057 89:0.42160138 90:0.54117751 91:0.31953958 92:0.89635986 
0 0 0.4443095458043297 1:0.3904303 2:0.48670042 3:0.65304023 4:0.51851737 5:0.29007059 6:0.59327191 7:0.45851821 8:0.59578288 9:0.63319707 10:0.45161751 11:0.53409755 12:0.55726767 13:0.34517431 14:0.52095562 15:0.43003052 16:0.57422447 17:0.42528215 18:0.40481731 19:0.64961529 20:0.40666443 21:0.32379213 22:0.63118976 23:0.62038505 24:0.6011194 25:0.26840085 26:0.44673488 27:0.60195518 28:0.53614002 29:0.40326399 30:0.24866535 31:0.45763573 32:0.46516019 33:0.35776362 34:0.52380687 35:0.30116445 36:0.82445949 37:0.61543971 38:0.56783384 39:0.49558625 40:0.61536515 41:0.80320787 42:0.48289645 43:0.76826227 44:0.52933323 45:0.40545022 46:0.62878555 47:0.46490431 48:0.70526814 49:0.53289807 50:0.81645477 51:0.49781319 52:0.53693265 53:0.2393683 54:0.66270393 55:0.60008252 56:0.51585782 57:0.37968165 58:0.27788529 59:0.48944402 60:0.33902559 61:0.49866992 62:0.5490877 63:0.32310033 64:0.49759659 65:0.71089613 66:0.5449028 67:0.34704047 68:0.48314402 69:0.42857 70:0.42183158 71:0.47436669 72:0.49470365 73:0.41354927 74:0.36666131 75:0.44987518 76:0.61093026 77:0.68550754 78:0.37976804 79:0.45853323 80:0.46141022 81:0.83424956 82:0.34639376 83:0.53952718 84:0.27341986 85:0.4133921 86:0.2009201 87:0.65471733 88:0.30944452 89:0.33533967 90:0.66693425 91:0.58310008 92:0.8266173 
0 4.849623759905882 0.1106276671956094 1:0.35265374 2:0.63328081 3:0.29401922 4:0.1936993 5:0.63967508 6:0.65434659 7:0.85100657 8:0.50823891 9:0.59297329 10:0.85423964 11:0.43737462 12:0.37739372 13:0.35081285 14:0.40686154 15:0.46241978 16:0.32723013 17:0.67778784 18:0.41959488 19:0.59925115 20:0.24489434 21:0.37264982 22:0.7601065 23:0.69279057 24:0.50652391 25:0.54711717 26:0.31162438 27:0.36723816 28:0.73939967 29:0.59877408 30:0.20453663 31:0.30404991 32:0.51050365 33:0.27355549 34:0.55268002 35:0.18351062 36:0.4533968 37:0.39975742 38:0.2953153 39:0.58919591 40:0.46156886 41:0.46728501 42:0.67042625 43:0.5092653 44:0.42242813 45:0.52974302 46:0.57629633 47:0.65346944 48:0.54709613 49:0.55925626 50:0.44421008 51:0.64689404 52:0.43844664 53:0.29766417 54:0.67822391 55:0.5968948 56:0.4015432 57:0.4534131 58:0.27935499 59:0.4684405 60:0.48441958 61:0.51964658 62:0.41196918 63:0.62493432 64:0.59415859 65:0.62952483 66:0.32819161 67:0.36902389 68:0.2416424 69:0.6410386 70:0.30821389 71:0.47145575 72:0.56666398 73:0.66048729 74:0.5532552 75:0.61544794 76:0.57310665 77:0.6439063 78:0.43855911 79:0.63379502 80:0.43343231 81:0.38338494 82:0.53809339 83:0.63164747 84:0.50141275 85:0.18324068 86:0.7002548 87:0.29254618 88:0.23060036 89:0.13505052 90:0.5410676 91:0.36215055 92:0.70977563 
0 4.077137526382967 0 1:0.45431575 2:0.62282705 3:0.5716098 4:0.55322027 5:0.48406267 6:0.57174295 7:0.7429229 8:0.64969254 9:0.65180022 10:0.51867038 11:0.5509218 12:0.68818605 13:0.6042099 14:0.27406856 15:0.45866668 16:0.38018361 17:0.57472938 18:0.48584187 19:0.54126126 20:0.4623903 21:0.57831585 22:0.16285564 23:0.62005574 24:0.65295619 25:0.67333454 26:0.66437668 27:0.2660138 28:0.4864372 29:0.52506679 30:0.48139554 31:0.53103077 32:0.48379466 33:0.55875474 34:0.38809219 35:0.54036891 36:0.42394298 37:0.17717133 38:0.27267835 39:0.6956799 40:0.43354708 41:0.26805541 42:0.72498226 43:0.36893356 44:0.56637001 45:0.4701162 46:0.51367939 47:0.66575807 48:0.59943032 49:0.64544111 50:0.51871789 51:0.39291543 52:0.43470573 53:0.44675207 54:0.52190214 55:0.40706074 56:0.58256829 57:0.50120378 58:0.41322008 59:0.50731808 60:0.56118441 61:0.49519655 62:0.56360239 63:0.29992568 64:0.59293044 65:0.56971318 66:0.4023734 67:0.38035622 68:0.72348922 69:0.49170518 70:0.38607317 71:0.42543256 72:0.43410549 73:0.57140619 74:0.52135807 75:0.56760722 76:0.29976606 77:0.4692266 78:0.54859954 79:0.35972607 80:0.63797826 81:0.3384909 82:0.47831476 83:0.54509276 84:0.63418657 85:0.81343257 86:0.063999884 87:0.72393566 88:0.2352225 89:0.24004069 90:0.66639543 91:0.37877217 92:0.84445935 
0 8.976067462594674 0 1:0.74607646 2:0.48479867 3:0.547162 4:0.49124733 5:0.32590565 6:0.42218393 7:0.38272035 8:0.33749413 9:0.42114162 10:0.54640043 11:0.59246188 12:0.37732539 13:0.45860234 14:0.52325493 15:0.64381808 16:0.63604087 17:0.78780067 18:0.44457656 19:0.61266673 20:0.5036884 21:0.62884718 22:0.2333215 23:0.36905009 24:0.75348389 25:0.63656092 26:0.34060645 27:0.447514 28:0.38801542 29:0.6296649 30:0.21098055 31:0.61271423 32:0.59071726 33:0.76230109 34:0.72641712 35:0.31720632 36:0.65004271 37:0.49351504 38:0.67156011 39:0.47025153 40:0.55025899 41:0.47295892 42:0.74130642 43:0.5447759 44:0.22872387 45:0.63421172 46:0.57776099 47:0.38497093 48:0.60253066 49:0.50430965 50:0.56014031 51:0.4712556 52:0.51224554 53:0.55196273 54:0.30383912 55:0.45851251 56:0.74046463 57:0.66581458 58:0.46328524 59:0.43152282 60:0.5164392 61:0.61571842 62:0.3577756 63:0.42175871 64:0.29943344 65:0.64437568 66:0.48896486 67:0.28992495 68:0.36615586 69:0.66737872 70:0.62163818 71:0.48643601 72:0.46485475 73:0.50263429 74:0.31982568 75:0.55145311 76:0.60302681 77:0.63041151 78:0.40954649 79:0.3433913 80:0.60845298 81:0.34660405 82:0.45053762 83:0.79031569 84:0.52051216 85:0.31635869 86:0.38638169 87:0.45501769 88:0.47138828 89:0.33128941 90:0.47981337 91:0.30707303 92:0.84917504 
0 2.739625469610448 0 1:0.24151205 2:0.60349566 3:0.32384041 4:0.3506617 5:0.40267938 6:0.87286115 7:0.62259543 8:0.31122056 9:0.83624011 10:0.83167887 11:0.44515356 12:0.46367231 13:0.76475632 14:0.44480708 15:0.45018497 16:0.49637541 17:0.52799976 18:0.25471649 19:0.42016435 20:0.50397927 21:0.26759905 22:0.4969829 23:0.57650012 24:0.29863057 25:0.50800979 26:0.53977036 27:0.79167938 28:0.4100911 29:0.94971365 30:0.58558041 31:0.62559021 32:0.20859025 33:0.30718485 34:0.38286269 35:0.50504398 36:0.84246522 37:0.08991605 38:0.27922422 39:0.59871244 40:0.59258831 41:0.54376525 42:0.53091919 43:0.30064934 44:0.44901165 45:0.58612108 46:0.23258929 47:0.32576087 48:0.61550474 49:0.32392436 50:0.29824284 51:0.61028045 52:0.8380602 53:0.46415484 54:0.37531948 55:0.57027274 56:0.61008871 57:0.77729082 58:0.38431695 59:0.78379381 60:0.72361505 61:0.40343601 62:0.70435917 63:0.18675821 64:0.75044459 65:0.54639071 66:0.55529034 67:0.63045079 68:0.35376549 69:0.38191998 70:0.7192449 71:0.40640566 72:0.14033309 73:0.620978 74:0.25874066 75:0.84455329 76:0.45473793 77:0.40576795 78:0.49474329 79:0.36561355 80:0.74658477 81:0.55307835 82:0.38058808 83:0.66944867 84:0.613814 85:0.52944756 86:0.55482304 87:0.5207414 88:0.32359833 89:0.4115921 90:0.63901424 91:0.34682193 92:0.80971557 
0 0 0.2994337202929788 1:0.45359764 2:0.60306323 3:0.5367645 4:0.19206776 5:0.42356992 6:0.39272097 7:0.45071897 8:0.45318538 9:0.7072798 10:0.47394964 11:0.57665986 12:0.33902812 13:0.35032108 14:0.71830201 15:0.63692749 16:0.54319668 17:0.51741338 18:0.2766948 19:0.37914553 20:0.3281782 21:0.44006094 22:0.53299278 23:0.63174713 24:0.54900116 25:0.47521609 26:0.65344238 27:0.69573545 28:0.46882865 29:0.37945506 30:0.31554377 31:0.57402033 32:0.51947886 33:0.63709408 34:0.29530284 35:0.35286376 36:0.3890326 37:0.37219778 38:0.56393349 39:0.51707989 40:0.42807144 41:0.37066382 42:0.47272721 43:0.3925485 44:0.66943485 45:0.27603179 46:0.50671911 47:0.48321354 48:0.45368934 49:0.35510597 50:0.66155398 51:0.55335969 52:0.46280044 53:0.44661164 54:0.52830803 55:0.71605569 56:0.34165546 57:0.63623941 58:0.48992503 59:0.59151387 60:0.48010051 61:0.39870158 62:0.63386929 63:0.69225901 64:0.51639444 65:0.49973714 66:0.51318902 67:0.38070345 68:0.44239292 69:0.88161522 70:0.7160629 71:0.69561887 72:0.64149743 73:0.84901065 74:0.67725086 75:0.62884843 76:0.33540243 77:0.62040377 78:0.61913675 79:0.38025323 80:0.52998549 81:0.39637205 82:0.14582786 83:0.41309389 84:0.55806917 85:0.54040956 86:0.49612269 87:0.42273983 88:0.61896098 89:0.74839866 90:0.65141231 91:0.5901596 92:0.67986357 
0 0 0.8920257767726515 1:0.49188438 2:0.58265513 3:0.35260025 4:0.65550929 5:0.7223801 6:0.72942036 7:0.84463477 8:0.7802282 9:0.59756958 10:0.70101434 11:0.62202728 12:0.4113802 13:0.42523685 14:0.80684263 15:0.53325224 16:0.39276391 17:0.84929824 18:0.43435827 19:0 20:0.60752958 21:0.22626294 22:0.44034049 23:0.46948919 24:0.17117414 25:0.76990336 26:0.32129112 27:0.42356014 28:0.27673793 29:0.71717137 30:0.4242951 31:0.79390866 32:0.29801062 33:0.3473756 34:0.57518482 35:0.36108834 36:0.82798314 37:0 38:0.52424109 39:0.73068702 40:0.70967609 41:0.45344281 42:0.65372866 43:0.70812184 44:0.36577803 45:0.60409182 46:0.46831429 47:0.64938527 48:0.56152469 49:0.56879508 50:0.54828596 51:0.31794268 52:0.69158477 53:0.29043496 54:0.34513971 55:0.47710571 56:0.44604182 57:0.57086235 58:0.4146266 59:0.50685954 60:0.40691209 61:0.32366079 62:0.81671852 63:0.34961858 64:0.72485155 65:0.60394627 66:0.38953391 67:0.49187589 68:0.51685095 69:0.55693316 70:0.48268327 71:0.54483289 72:0.48694137 73:0.35102668 74:0.48175171 75:0.62748474 76:0.46527964 77:0.72572649 78:0.75084072 79:0.35866442 80:0.36380252 81:0.39351019 82:0.54740906 83:0.70221323 84:0.54204416 85:0.45594746 86:0.60796165 87:0.57489479 88:0.51875728 89:0.6586076 90:0.58258969 91:0.3733227 92:0.75651419 
0 0.2535501576305633 0 1:0.31955642 2:0.6453765 3:0.33727023 4:0.61148369 5:0.63729829 6:0.48008007 7:0.5383653 8:0.1651787 9:0.6953522 10:0.62723941 11:0.54599351 12:0.47914198 13:0.61626959 14:0.44218326 15:0.70009345 16:0.50113785 17:0.44129479 18:0.44741791 19:0.48367923 20:0.25042698 21:0.0014638122 22:0.54807979 23:0.52680808 24:0.3736113 25:0.39486009 26:0.71252549 27:0.57970542 28:0.45510224 29:0.68971014 30:0.26819664 31:0.4193882 32:0.392268 33:0.84762532 34:0.55902123 35:0.31672648 36:0.35730276 37:0.50303358 38:0.48993933 39:0.66043568 40:0.40448731 41:0.36475012 42:0.75028145 43:0.5269236 44:0.36264095 45:0.5440641 46:0.72419757 47:0.24274427 48:0.81854814 49:0.53318638 50:0.55181956 51:0.41861627 52:0.34713015 53:0.4372772 54:0.41546318 55:0.4240464 56:0.40335208 57:0.69029081 58:0.5538016 59:0.49737656 60:0.51607436 61:0.36079034 62:0.35543668 63:0.46274883 64:0.49582866 65:0.47221607 66:0.39395404 67:0.41940725 68:0.73936468 69:0.54826069 70:0.271626 71:0.32789868 72:0.5663712 73:0.54900944 74:0.39223593 75:0.4689087 76:0.15262482 77:0.36474046 78:0.70198381 79:0.37843725 80:0.74479282 81:0.73455673 82:0.49733278 83:0.74120623 84:0.58180964 85:0.56310815 86:0.66701299 87:0.54559594 88:0.58802742 89:0.48262915 90:0.64336675 91:0.48141441 92:0.78674835 
0 0 0.2032232391700041 1:0.3124657 2:0.54633778 3:0.66040623 4:0.42102066 5:0.33039999 6:0.46117091 7:0.63562417 8:0.35817194 9:0.31000185 10:0.66253215 11:0.66826963 12:0.77255124 13:0.56487733 14:0.54828721 15:0.56861091 16:0.42785177 17:0.4168013 18:0.52135599 19:0.86065358 20:0.34055021 21:0.25178671 22:0.3701185 23:0.5153687 24:0.3098816 25:0.19323428 26:0.37821397 27:0.52429897 28:0.42793012 29:0.65228426 30:0.17876695 31:0.56987804 32:0.50945157 33:0.39869836 34:0.58529234 35:0.4249213 36:0.34379607 37:0.21796623 38:0.32817703 39:0.43065289 40:0.29129404 41:0.48888132 42:0.67683715 43:0.54500377 44:0.44565052 45:0.49317986 46:0.50564229 47:0.7329151 48:0.54574496 49:0.608859 50:0.71250415 51:0.21788394 52:0.42320451 53:0.33433646 54:0.16657829 55:0.69596738 56:0.62834585 57:0.68868935 58:0.18740165 59:0.69422156 60:0.72873259 61:0.26653537 62:1 63:0.27663061 64:0.68945575 65:0.33143407 66:0.41053787 67:0.3523351 68:0.49566519 69:0.75668573 70:0.85818088 71:0.42783585 72:0.46538416 73:0.57280844 74:0.58366132 75:0.56387615 76:0.75477707 77:0.33726129 78:0.71791542 79:0.53799701 80:0.96784317 81:0.7554993 82:0.27263874 83:0.64480942 84:0.55084813 85:0.46769494 86:0.29945761 87:0.48403445 88:0.49768817 89:0.41760251 90:0.60539359 91:0.31153125 92:0.79706067 
0 0.09110927540967449 0 1:0.46868593 2:0.50343502 3:0.66636723 4:0.47393438 5:0.32346764 6:0.59732366 7:0.26127839 8:0.71382034 9:0.51964581 10:0.51708841 11:0.51769197 12:0.45992482 13:0.49030498 14:0.63632309 15:0.7811079 16:0.63982612 17:0.52691251 18:0.48582238 19:0.6222949 20:0.23258671 21:0.41961914 22:0.57853478 23:0.45683861 24:0.6426298 25:0.53161496 26:0.63971263 27:0.056440286 28:0.36967996 29:0.54058719 30:0.53264946 31:0.51417422 32:0.5938316 33:0.53607863 34:0.54230279 35:0.48466671 36:0.82263821 37:0.50816327 38:0.5904581 39:0.53872657 40:0.57690585 41:0.60179806 42:0.45913735 43:0.33367124 44:0.46439642 45:0.59677351 46:0.59896231 47:0.47262982 48:0.50530505 49:0.46568274 50:0.44998747 51:0.41704664 52:0.38106737 53:0.32264009 54:0.34359735 55:0.30058682 56:0.6347875 57:0.57469845 58:0.65064973 59:0.45725209 60:0.49366099 61:0.7025727 62:0.77095956 63:0.62890798 64:0.50993896 65:0.43919867 66:0.5316115 67:0.46460205 68:0.38810945 69:0.65729171 70:0.54283053 71:0.36578697 72:0.42440873 73:0.65080971 74:0.35369116 75:0.45927536 76:0.78475779 77:0.7046476 78:0.42872009 79:0.38877755 80:0.43869147 81:0.29698423 82:0.66793978 83:0.6191256 84:0.30330893 85:0.3937346 86:0.39289457 87:0.67571551 88:0.73961723 89:0.60202664 90:0.77359307 91:0.39876121 92:0.84544504 
0.2058945579791751 0 0 1:0.66692621 2:0.66623819 3:0.53009152 4:0.64680707 5:0.60126889 6:0.292088 7:0.75715643 8:1 9:0.78271562 10:0.55826372 11:0.51451492 12:0.46160698 13:0.43871069 14:0.41318533 15:0.39381233 16:0.346064 17:0.47027862 18:0.29888445 19:0.5193907 20:0.37616274 21:0.48488471 22:0.47721204 23:0.71301162 24:0.49933919 25:0.61437994 26:0.44165671 27:0.37317899 28:0.3444933 29:0.51253831 30:0.24888068 31:0.51938105 32:0.42496464 33:0.48441109 34:0.49098909 35:0.31262651 36:0.21805643 37:0.48594686 38:0.39915246 39:0.69354981 40:0.22846802 41:0.37027857 42:0.49010459 43:0.45889109 44:0.79230362 45:0.24380735 46:0.24616697 47:0.35305741 48:0.49574065 49:0.15479127 50:0.53067833 51:0.51801682 52:0.55356264 53:0.52703875 54:0.54996955 55:0.43040717 56:0.32558247 57:0.50596845 58:0.41471595 59:0.92572606 60:0.48958638 61:0.60888332 62:0.49164745 63:0.68363965 64:0.27385217 65:0.45757848 66:0.32712895 67:0.45016533 68:0.27507651 69:0.60776496 70:0.52692139 71:0.45263383 72:0.54892844 73:0.57199204 74:0.41920224 75:0.63029325 76:0.45543796 77:0.4896321 78:0.40059745 79:0.6143989 80:0.5659427 81:0.37874931 82:0.29867384 83:0.59984434 84:0.56215978 85:0.53477454 86:0.65764385 87:2.3553429e-16 88:0.49064782 89:0.60138798 90:0.44580963 91:0.65167326 92:0.72848696 
0.943271579840598 0 0 1:0.52412283 2:0.53883773 3:0.49498051 4:0.32474399 5:0.41857129 6:0.45105794 7:0.6465503 8:0.46509448 9:0.5842573 10:0.53013837 11:0.58590728 12:0.52077544 13:0.63603222 14:0.64810801 15:0.472776 16:0.86969227 17:0.6489504 18:0.4072752 19:0.3657867 20:0.37697241 21:0.60666054 22:0.28003785 23:0.58840311 24:0.33029532 25:0.39290154 26:0.36413005 27:0.494147 28:0.53796661 29:0.44448826 30:0.25607929 31:0.6801337 32:0.51614463 33:0.44519556 34:0.56207937 35:0.34125558 36:0.46275339 37:0.5410313 38:0.53656077 39:0.64463985 40:0.53204769 41:0.6901533 42:0.57662189 43:0.73737478 44:0.63546717 45:0.70939535 46:0.31739166 47:0.50112939 48:0.46389654 49:0.71210158 50:0.67257303 51:0.42387778 52:0.31937462 53:0.48610431 54:0.70911688 55:0.37527522 56:0.54179651 57:0.44139823 58:0.44163242 59:0.32245201 60:0.43130583 61:0.51700783 62:0.34858671 63:0.23094858 64:0.20242399 65:0.51532274 66:0.31515214 67:0.5902307 68:0.78047138 69:0.60542512 70:0.26997009 71:0.72439462 72:0.29010192 73:0.40744606 74:0.42406115 75:0.59639806 76:0.40196386 77:0.67481208 78:0.83245635 79:0.6716032 80:0.50834548 81:0.5375458 82:0.31979972 83:0.66149324 84:0.35063362 85:0.49433988 86:0.60048807 87:0.82001054 88:0.40074474 89:0.4478046 90:0.53537887 91:0.40829048 92:0.78164071 
0 1.390319677426866 0 1:0.56959969 2:0.67752594 3:0.64020258 4:0.6280567 5:0.15140219 6:0.80984658 7:0.52719998 8:0.66686368 9:0.81584442 10:0.86477852 11:0.53581429 12:0.2705839 13:0.64100426 14:0.60618812 15:0.61278391 16:0.54153931 17:0.33297822 18:0.59429997 19:0.39455265 20:0.3668679 21:0.36908966 22:0.77979213 23:0.51883274 24:0.28004861 25:0.55825347 26:0.5214057 27:0.24915187 28:0.37437236 29:0.55482262 30:0.47692975 31:0.5443511 32:0.39435953 33:0.48432341 34:0.26876628 35:0.36251098 36:0.38536832 37:0.56862658 38:0.38035035 39:0.62281889 40:0.53553718 41:0.61699504 42:0.38015318 43:0.54430312 44:0.52075124 45:0.33580446 46:0.65044129 47:0.39190766 48:0.53646183 49:0.57554263 50:0.52539837 51:0.45466048 52:0.62730616 53:0.4501147 54:0.33721739 55:0.55191326 56:0.73290443 57:0.67565155 58:0.36142603 59:0.7724486 60:0.44142503 61:0.82414687 62:0.44266078 63:0.46545663 64:0.26547676 65:0.60746527 66:0.60646349 67:0.61360937 68:0.46802321 69:0.3775489 70:0.4928844 71:0.52387941 72:0.67043525 73:0.46926394 74:0.42382669 75:0.21954831 76:0.65432471 77:0.63354427 78:0.49171603 79:0.54443562 80:0.56803465 81:0.62843883 82:0.91123921 83:0.54064608 84:0.43275011 85:0.73354357 86:0.51949579 87:0.63642555 88:0.15261687 89:0.5323171 90:0.64574933 91:0.51125246 92:0.84828073 
0 0 0.4849474734902922 1:0.42647868 2:0.37271145 3:0.33610699 4:0.65593803 5:0.58573025 6:0.65403843 7:0.67207986 8:0.68127733 9:0.5951162 10:0.5693506 11:0.64588678 12:0.42259035 13:0.81010908 14:0.67100412 15:0.71304357 16:0.27761945 17:0.6044004 18:0.39786848 19:0.63343233 20:0.53699511 21:0.62132388 22:0.42873788 23:0.44352904 24:0.85426843 25:0.73334342 26:0.69584483 27:0.29803768 28:0.40569171 29:0.50400931 30:0.66864562 31:0.86300129 32:0.33270314 33:0.3466976 34:0.53073293 35:0.54591721 36:0.3445186 37:0.47385809 38:0.50882119 39:0.68573934 40:0.3424423 41:0.68792856 42:0.40874562 43:0.20292453 44:0.48041537 45:0.35358354 46:0.49386168 47:0.33623683 48:0.54660976 49:0.45611337 50:0.70631015 51:0.46017361 52:0.39888903 53:0.55158162 54:0.59299153 55:0.88336331 56:0.53513199 57:0.4748933 58:0.45421261 59:0.44764093 60:0.62117267 61:3.4918602e-16 62:0.5584783 63:0.57467335 64:0.92316705 65:0.60276294 66:0.38254145 67:0.34191191 68:0.50654542 69:0.75538439 70:0.44738117 71:0.6805529 72:0.4752343 73:0.79029709 74:0.19469252 75:0.48196551 76:0.73892677 77:0.57339585 78:0.5123201 79:0.37593082 80:0.45156744 81:0.41106534 82:0.34350294 83:0.61235553 84:0.36131003 85:0.6717754 86:0.55684179 87:0.83372885 88:0.17727758 89:0.22986665 90:0.59214091 91:0.54070467 92:0.78914094 
0 4.164233337718826 0 1:0.45942849 2:0.53276479 3:0.47163454 4:0.39469814 5:0.34214485 6:0.37178582 7:0.62525576 8:0.41750091 9:0.56161356 10:0.35186458 11:0.59831423 12:0.53106475 13:0.68341863 14:0.67488432 15:0.70492232 16:0.41089806 17:0.67826337 18:0.46484137 19:0.62022132 20:0.2422549 21:0.45886454 22:0.50506997 23:0.69494301 24:0.58717829 25:0.37626866 26:0.51965845 27:0.45233274 28:0.72812331 29:0.19931181 30:0.31771138 31:0.27483326 32:0.5552265 33:0.7275129 34:0.40307984 35:0.29444289 36:0.54049391 37:0.44758812 38:0.61296946 39:0.44154423 40:0.4727357 41:0.53058165 42:0.59821391 43:0.50489503 44:0.35933682 45:0.40357023 46:0.47071168 47:0.42194584 48:0.49930218 49:0.37301108 50:0.47921768 51:0.20511413 52:0.43424392 53:0.53636068 54:0.42581356 55:0.36333671 56:0.6216985 57:0.66611528 58:0.38688734 59:0.71558827 60:0.40373546 61:0.59901822 62:0.37673822 63:0.55073231 64:0.58551466 65:0.41435564 66:0.73535532 67:0.36859849 68:0.43938127 69:0.44193774 70:0.52378434 71:0.6899637 72:0.62383497 73:0.47881952 74:0.47046912 75:0.50172138 76:0.37064201 77:0.50834495 78:0.96870375 79:0.29384863 80:0.59039605 81:0.77337915 82:0.59402364 83:0.70545644 84:0.62004757 85:0.55073178 86:0.42497271 87:0.69535214 88:0.23943834 89:0.73084188 90:0.54513741 91:0.70301962 92:0.79367405 
