svm_type c_svc
kernel_type rbf
gamma 0.09
nr_class 2
total_sv 119
rho 0.105188
label 2011 2011657
probA -5.90212
probB -6.46258e-05
nr_sv 57 62
SV
0.6297166689574015 1:0.2900843 2:0.29977685 3:0.65304255 4:0.32440048 5:0.5097363 6:0.40758291 7:0.59124088 8:0.5832445 9:0.34470704 10:0.65043664 11:0.56270415 12:0.57111925 13:0.28262627 14:0.29527327 15:0.63079506 16:0.79880625 17:0.4430033 18:0.57220793 19:0.4738102 20:0.59841853 21:0.50544506 22:0.29808027 23:0.43065813 24:0.44876009 25:0.41703385 26:0.33516908 27:0.29779562 28:0.6510222 29:0.35173935 30:0.56776881 31:0.46972433 32:0.60345179 33:0.25777075 34:0.55490953 35:0.4194153 36:0.15937407 37:0.49071401 38:0.47183368 39:0.74409246 40:0.61441278 41:0.46837452 42:0.4231886 43:0.33708429 44:0.92342728 45:0.51718092 46:0.40984529 47:0.45757487 48:0.5388521 49:0.55903941 50:0.62384129 51:0.58438802 52:0.66529888 53:0.86780328 54:0.15706615 55:0.46020123 56:0.877518 57:0.72278005 58:0.521788 59:0.75365734 60:0.46808538 61:0.24090621 62:0.48227781 63:0.64821744 64:0.55054569 65:0.51580781 66:0.39195356 67:0.41076449 68:0.61496836 69:0.26441398 70:0.51240712 71:0.38789287 72:0.83636135 73:0.76257396 74:0.56458408 75:0.58092433 76:0.62943786 77:0.25585023 
1.010987046796465 1:0.15035452 2:0.30635458 3:0.65931004 4:0.35196039 5:0.78846312 6:0.36559147 7:0.39365062 8:0.39809227 9:0.5257495 10:0.34666759 11:0.73432624 12:0.5814178 13:0.44707599 14:0.31196406 15:0.51243889 16:0.71606737 17:0.38078645 18:0.43610841 19:0.58350927 20:0.75793767 21:0.79526156 22:0.58806217 23:0.43264753 24:0.86531401 25:0.84385049 26:0.30014497 27:0.50038803 28:0.73613614 29:0.69348043 30:0.62981796 31:0.73784143 32:0.71490043 33:0.52166903 34:0.36513972 35:0.77734745 36:0.92194331 37:0.6107381 38:0.41703293 39:0.30413303 40:0.75862914 41:0.65795076 42:0.67818457 43:0.75174612 44:0.26860347 45:0.59167552 46:0.34801129 47:0.41010725 48:0.42689312 49:0.74648637 50:0.27672833 51:0.54823804 52:0.51943976 53:0.2449863 54:0.76639187 55:0.73842013 56:0.34871027 57:0.65663582 58:0.46336538 59:0.46180296 60:0.38784036 61:0.63938403 62:0.5142923 63:0.63839877 64:0.65513694 65:0.32859248 66:0.10334601 67:0.47784132 68:0.72195196 69:0.37133411 70:0.44005311 71:0.56668949 72:0.74899155 73:0.45680425 74:0.21297342 75:0.46924439 76:0.68891275 77:0.19748127 
0.08879895978651228 1:0.50327808 2:0.3768355 3:0.7313779 4:0.49199191 5:0.65212625 6:0.29935762 7:0.24065532 8:0.69900942 9:0.39263678 10:0.40115333 11:0.31612208 12:0.29281515 13:0.71744722 14:0.55054116 15:0.33965558 16:0.7388674 17:0.57892913 18:0.30005452 19:0.57220602 20:0.80870771 21:0.47850201 22:0.47247466 23:0.30706257 24:0.55075049 25:0.40411693 26:0.27406934 27:0.47135824 28:0.39959115 29:0.61484277 30:0.66699648 31:0.48018897 32:0.45291746 33:0.70735413 34:0.42422396 35:0.74036789 36:0.39506727 37:0.83376223 38:0.42441472 39:0.6281209 40:0.38331065 41:0.73250055 42:0.48092163 43:0.5939157 44:0.3250609 45:0.69352669 46:0.43571919 47:0.36019418 48:0.73651314 49:0.62005538 50:0.39093065 51:0.50231951 52:0.75276601 53:0.57284725 54:0.51328248 55:0.43667474 56:0.78524423 57:0.54235327 58:0.41862169 59:0.67444611 60:0.17174815 61:0.47315094 62:0.67966199 63:0.72188342 64:0.73572898 65:0.43125337 66:0.013854932 67:0.5835892 68:0.53768784 69:0.38059148 70:0.50354767 71:0.73017895 72:0.62908179 73:0.41178349 74:0.16137147 75:0.54587823 76:0.81488782 77:0.15274027 
0.5747537949510989 1:0.36178771 2:0.54980922 3:0.50908983 4:0.23431663 5:0.7717737 6:0.61900437 7:0.45472795 8:0.258459 9:0.26859814 10:0.74226809 11:0.1974804 12:0.83353597 13:0.95767337 14:0.55910546 15:0.26582757 16:0.71005982 17:0.54900664 18:0.48284671 19:0.32834446 20:0.51425207 21:0.36723968 22:0.39139697 23:0.12996416 24:0.80125141 25:0.61457807 26:0.60944825 27:0.59118164 28:0.57147306 29:0.63756394 30:0.40597329 31:0.56454754 32:0.17869565 33:0.49862784 34:0.56938785 35:0.56109059 36:0.66750467 37:0.59344631 38:0.45021972 39:0.39972705 40:0.38100961 41:0.48190099 42:0.13214542 43:0.75850207 44:0.47280496 45:0.15679324 46:0.37565646 47:0.46530902 48:0.4298104 49:0.44061151 50:0.43326297 51:0.61191523 52:0.4934904 53:0.58994097 54:0.57371187 55:0.3623378 56:0.57207382 57:0.30819246 58:0.50373632 59:0.44126314 60:0.69217628 61:0.40144065 62:0.49894962 63:0.65012145 64:0.53182232 65:0.62876409 66:0.19918878 67:0.20437108 68:0.4308385 69:0.46972278 70:0.75593281 71:0.89565873 72:0.6095193 73:0.46376282 74:0.15025595 75:0.39575416 76:0.9772613 77:0.18991394 
0.6521634732954431 1:0.59446096 2:0.41221473 3:0.65706152 4:0.3880119 5:0.5236342 6:0.2289792 7:0.44998178 8:0.45903185 9:0.47183976 10:0.50221217 11:0.47559813 12:0.59009027 13:0.78068769 14:0.61782837 15:0.61672652 16:0.48730257 17:0.56844175 18:0.42993155 19:0.95734197 20:0.45931974 21:0.75262362 22:0.34019476 23:0.35063931 24:0.52019781 25:0.55078691 26:0.42139277 27:0.74947935 28:0.58832127 29:0.42270315 30:0.31130034 31:0.43944716 32:0.54792798 33:0.4109042 34:0.58516186 35:0.68261141 36:0.65038365 37:0.45820796 38:0.73335648 39:0.4267531 40:0.0044083474 41:0.68805885 42:0.29861304 43:0.63946486 44:0.84974939 45:0.40969411 46:0.66172296 47:0.65335667 48:0.35466278 49:0.23192485 50:0.41109338 51:0.4670803 52:0.50589854 53:0.38347811 54:0.82758266 55:0.29106605 56:0.60927707 57:0.59862745 58:0.55188966 59:0.44234091 60:0.32939664 61:0.24798931 62:0.61433464 63:0.56746703 64:0.24626891 65:0.882303 66:0.36505911 67:0.31492952 68:0.49099192 69:0.5488084 70:0.46258324 71:1 72:0.7410624 73:0.57931423 74:0.14095224 75:0.39067802 76:1 77:0.21095166 
0.00288387564800885 1:0.50881177 2:0.50156444 3:0.71117043 4:0.5721215 5:0.08189594 6:0.68069547 7:0.61661762 8:0.69013137 9:0.30026969 10:0.4052414 11:0.387025 12:0.84958738 13:0.77011466 14:0.45021501 15:0.31330439 16:0.43138054 17:0.46839219 18:0.41052476 19:0.71530306 20:0.44591027 21:0.37352353 22:0.43699381 23:0.53552568 24:0.56007659 25:0.34475079 26:0.42651364 27:0.54431289 28:0.48620588 29:0.60982239 30:0.58494323 31:0.61838305 32:0.27521318 33:0.37077296 34:0.18383473 35:0.43557844 36:0.6410808 37:0.4565621 38:0.76375788 39:0.49849024 40:0.67523986 41:0.74663538 42:0.28079307 43:0.85508209 44:0.49630049 45:0.35802925 46:0.42870215 47:0.34314671 48:0.59039342 49:0.31840923 50:0.28286439 51:0.51287073 52:0.66165358 53:0.55098832 54:0.26077172 55:0.50620449 56:0.74023682 57:0.48386669 58:0.24497586 59:0.413149 60:0.44475466 61:0.3503719 62:0.47383851 63:0.52028114 64:0.71612465 65:0.45702434 66:0.57735634 67:0.15276484 68:0.19177154 69:0.51526976 70:0.38142884 71:0.79629129 72:0.72114867 73:0.4513492 74:0.66739118 75:0.48315027 76:0.40936384 77:0.18181443 
3.208827759492749 1:0.48710078 2:0.44529179 3:0.65782404 4:0.35257572 5:0.67512155 6:0.35410604 7:0.4261505 8:0.45183617 9:0.15418249 10:0.2573767 11:0.29885578 12:0.41332886 13:0.48759046 14:0.44971287 15:0.58613837 16:0.62906975 17:0.7959339 18:0.34601244 19:0.49690199 20:0.52661031 21:0.48240811 22:0.62158895 23:0.60687542 24:0.72567779 25:0.5726229 26:0.57778198 27:0.5466212 28:0.42019087 29:0.46288055 30:0.46868637 31:0.58919716 32:0.40089917 33:0.46110496 34:0.52928084 35:0.28451252 36:0.52576131 37:0.45562205 38:0.73942709 39:0.4370341 40:0.94313121 41:0.43534949 42:0.34185699 43:0.35856098 44:0.51114893 45:0.49680769 46:0.62269163 47:0.67825222 48:0.18675913 49:0.60078949 50:0.55723208 51:0.78137648 52:0.38037607 53:0.33402905 54:0.48706388 55:0.55899316 56:0.45078981 57:0.51383489 58:0.69493663 59:0.39844459 60:0.52045411 61:0.36000329 62:0.57349747 63:0.3838371 64:0.46678537 65:0.34919691 66:0.39904034 67:0.40484595 68:0.46684369 69:0.49776834 70:0.32897648 71:0.63627577 72:0.28894061 73:0.64131463 74:0.31606051 75:0.25624514 76:0.61345625 77:0.21445897 
0.088884614155744 1:0.4410893 2:0.48129091 3:0.4781453 4:0.35030425 5:0.47783381 6:0.43187565 7:0.60822201 8:0.32703385 9:0.45759812 10:0.32053849 11:0.55996925 12:0.79535836 13:0.54803967 14:0.32479969 15:0.75073701 16:0.73352766 17:0.42638779 18:0.22600555 19:0.49634725 20:0.50802749 21:0.62736356 22:0.55385578 23:0.50462461 24:0.49149558 25:0.7149688 26:0.65893966 27:0.51838928 28:0.20733647 29:0.51412368 30:0.46857715 31:0.23167901 32:0.46876401 33:0.78574312 34:0.57794255 35:0.72744417 36:0.76817149 37:0.42163771 38:0.44688672 39:0.61245281 40:0.40914425 41:0.57521248 42:0.34673172 43:0.40956584 44:0.43695113 45:0.13794243 46:0.61762899 47:0.62699652 48:0.10845275 49:0.4521189 50:0.6210804 51:0.49104169 52:0.32410657 53:0.67097831 54:0.41532594 55:0.64653659 56:0.41814157 57:0.54349381 58:0.26750124 59:0.72536141 60:0.50705665 61:0.49368924 62:0.60838574 63:0.1947877 64:0.49682808 65:0.40308842 66:0.54167002 67:0.41194147 68:0.43207473 69:0.42145765 70:0.76485866 71:0.62278301 72:0.47216955 73:0.64504045 74:0.58625668 75:0.29751763 76:0.57128251 77:0.17361619 
1.622856578321849 1:0.78367913 2:0.58835655 3:0.29704657 4:0.29312828 5:0.93371069 6:0 7:0.83844942 8:0.35696295 9:0.61704177 10:0.53413904 11:0.4197467 12:0.80436033 13:0.57572395 14:0.42728889 15:0.4397094 16:0.5119462 17:0.27381501 18:0.41030797 19:0.3978197 20:1 21:0.16760594 22:0.39256343 23:0.1984383 24:0.62034333 25:0.46843022 26:0.66397011 27:0.56842023 28:0.58703458 29:0.055015821 30:0.27234155 31:0.53699344 32:0.65736878 33:0.31881648 34:0.74576366 35:0.42472377 36:0.22809082 37:0.51832211 38:0.47061142 39:0.65277839 40:0.61682367 41:0.42227119 42:0.39643487 43:0.60417557 44:0.59982085 45:0.62838167 46:0.53882253 47:1 48:0.17740785 49:0.80120873 50:0.60408598 51:0.41195518 52:0.74953562 53:0.4680458 54:0.44511229 55:0.55111152 56:0.33360884 57:0.94676185 58:0.64550245 59:0.52760178 60:0.54446888 61:0.28469837 62:0.46907535 63:0.43463036 64:0.65660602 65:0.55959898 66:0.6501807 67:0.21913704 68:0.54681975 69:0.19648153 70:0.41593805 71:0.39198294 72:0.73001319 73:0.95832151 74:0.46240515 75:0.578659 76:0.42924073 77:0.38784224 
1.512954343241228 1:0.63646257 2:0.49159464 3:0.51996481 4:0.61352783 5:0.45548615 6:0.39443287 7:0.43261313 8:0.59149438 9:0.50117683 10:0.62146372 11:0.58446634 12:0.77068681 13:0.70688409 14:0.36331999 15:0.37536517 16:0.68803006 17:0.46199155 18:0.35698092 19:0.54031193 20:0.53873336 21:0.26729938 22:0.47110355 23:0.45327988 24:0.80776471 25:0.34626579 26:0.43363205 27:0.17003703 28:0.16217604 29:0.38685179 30:0.62230998 31:0.4108327 32:0.51506078 33:0.4312624 34:0.72746766 35:0.32811338 36:0.60798669 37:0.52431142 38:0.65659231 39:0.39859226 40:0.51533192 41:0.49049366 42:0.51189488 43:0.49126393 44:0.57958961 45:0.24924472 46:0.6671145 47:0.66362005 48:0.59816128 49:0.39891407 50:0.64814609 51:0.40148762 52:0.57885724 53:0.76019049 54:0.28744084 55:0.59116441 56:0.55786729 57:0.32475919 58:0.4318516 59:0.58471316 60:0.19717833 61:0.3039135 62:0.46919218 63:0.4425998 64:0.36462563 65:0.73282945 66:0.61035693 67:0.30764583 68:0.51995045 69:0.11339813 70:0.67505538 71:0.5793457 72:0.64909005 73:0.72392958 74:0.77304506 75:0.54206437 76:0.55227619 77:0.28577286 
1.914033211034412 1:0.53373235 2:0.38801941 3:0.79516429 4:0.50043756 5:0.69168341 6:0.17519729 7:0.7572217 8:0.39599332 9:0.57813734 10:0.55836517 11:0.72303998 12:0.76690263 13:0.73988479 14:0.46659976 15:0.59733033 16:0.60652596 17:0.42989823 18:0.4661144 19:0.52823842 20:0.35568941 21:0.19721098 22:0.34319508 23:0.22958831 24:0.52036983 25:0.47873351 26:0.63337684 27:0.23753907 28:0.33223915 29:0.54859215 30:0.74419856 31:0.40818444 32:0.58889616 33:0.53334069 34:0.60037374 35:0.70131737 36:0.52500743 37:0.69170564 38:0.90641308 39:0.54851061 40:0.71412301 41:0.63913292 42:0.33085111 43:0.22960335 44:0.43008998 45:0.54208207 46:0.59061456 47:0.38098711 48:0.59413767 49:0.46553001 50:0.36965522 51:0.55949229 52:0.38685685 53:0.59171659 54:0.43132365 55:0.44225329 56:0.72441089 57:0.48099846 58:0.15372993 59:0.97446561 60:0.4231236 61:0.30490401 62:0.83332789 63:0.65115649 64:0.56254208 65:0.2842541 66:0.16648601 67:0.39450133 68:0.39564091 69:0.39177287 70:0.42283374 71:0.53182667 72:0.55795461 73:0.63919908 74:0.54515678 75:0.57930624 76:0.51924521 77:0.18476632 
0.5404984794526911 1:0.67137921 2:0.41828921 3:0.65083897 4:0.50316471 5:0.6516856 6:0.6231454 7:0.44140002 8:0.48739508 9:0.43588734 10:0.44774565 11:0.42864758 12:0.43348524 13:0.46221042 14:0.46647522 15:0.40424773 16:0.5794757 17:0.29000887 18:0.43691412 19:0.64387637 20:0.39080951 21:0.63707918 22:0.56506622 23:0.64804614 24:0.36713159 25:0.16751736 26:0.54387826 27:0.53173685 28:0.29833221 29:0.59595454 30:0.51840979 31:0.47960576 32:0.50177419 33:0.63368481 34:0.27247784 35:0.70967919 36:0.32278866 37:0.3480126 38:0.19859102 39:0.34293431 40:0.31392407 41:0.44410998 42:0.3354367 43:0.38709471 44:0.6709469 45:0.48501819 46:0.2238043 47:0.2300258 48:0.42228863 49:0.65151042 50:0.84590906 51:0.39645311 52:0.36616537 53:0.33943489 54:0.64961213 55:0.4925603 56:0.68315953 57:0.58385861 58:0.76535493 59:0.92399651 60:0.68149936 61:0.56495249 62:0.25603265 63:0.82164025 64:0.31310135 65:0.23114295 66:0.74888116 67:0.72211963 68:0.63311148 69:0.16663538 70:0.21387173 71:0.24409409 72:0.27322808 73:0.92494631 74:0.47251278 75:0.53464597 76:0.77705145 77:0.29004347 
0.3682233656401277 1:0.63533646 2:0.49491087 3:0.31874844 4:0.48809865 5:0.56804949 6:0.22600737 7:0.35715708 8:0.46761808 9:0.43508187 10:0.66676664 11:0.6019699 12:0.71541333 13:0.55451989 14:0.54238999 15:0.50780952 16:0.60369968 17:0.587484 18:0.39881369 19:0.42681858 20:0.59383112 21:0.29349503 22:0.3900438 23:0.44044197 24:0.51857853 25:0.52092218 26:0.57976639 27:0.68404949 28:0.75417101 29:0.51852608 30:0.48236632 31:0.49151129 32:0.54589564 33:0.46160591 34:0.31813157 35:0.7171753 36:0.47070897 37:0.80532479 38:0.62050045 39:0.41068318 40:0.58574015 41:0.47721332 42:0.39939964 43:0.35396847 44:0.38553151 45:0.48461834 46:0.63078094 47:0.67847335 48:0.46303266 49:0.36292958 50:0.66913867 51:0.55239803 52:0.66082257 53:0.54705435 54:0.4626492 55:0.30809382 56:0.41220069 57:0.46887562 58:0.55076081 59:0.15698369 60:0.44087416 61:0.54633075 62:0.44879106 63:0.56580156 64:0.52284271 65:0.67139804 66:0.65046293 67:0.15181395 68:0.59617335 69:0.44956109 70:0.61766481 71:0.59131503 72:0.53313744 73:0.71532905 74:0.6659705 75:0.44425395 76:0.59856349 77:0.29047266 
0.8267794617710099 1:0.31218421 2:0.49148831 3:0.4274393 4:0.43803543 5:0.36993477 6:0.47801343 7:0.54182398 8:0.1148555 9:0.69098049 10:0.62497538 11:0.60308665 12:0.89400202 13:0.65965396 14:0.43539613 15:0.48748043 16:0.56364709 17:0.32627869 18:0.36686137 19:0.8445453 20:0.46272397 21:0.41243854 22:0.31298593 23:0.23323613 24:0.36458343 25:0.60921848 26:0.50426811 27:0.41017404 28:0.54883248 29:0.44321761 30:0.71246868 31:0.46314171 32:0.36076388 33:0.52202743 34:0.27262571 35:0.42656401 36:0.29497311 37:0.31558669 38:0.63444126 39:0.5480653 40:0.4351368 41:0.78590649 42:0.43007436 43:0.63935572 44:0.47323981 45:0.50035965 46:0.56003404 47:0.38967758 48:0.48124927 49:0.47126165 50:0.38528979 51:0.69031608 52:0.48455727 53:0.70122373 54:0.43404958 55:0.56644666 56:0.48085254 57:0.63290185 58:0.53850257 59:0.72250462 60:0.33200833 61:0.55574054 62:0.55924255 63:0.69488674 64:0.55769736 65:0.48594829 66:0.43474936 67:0.48545015 68:0.46649936 69:0.49970385 70:0.66040993 71:0.30572256 72:0.53778386 73:0.51593667 74:0.53251904 75:0.41715571 76:0.47325689 77:0.23166004 
0.7767216671052569 1:0.56971562 2:0.70176405 3:0.35098267 4:0.57195461 5:0.28661972 6:0.49774021 7:0.46934775 8:0.47950065 9:0.40445036 10:0.70626998 11:0.58889484 12:0.43859288 13:0.65399688 14:0.61495054 15:0.43774757 16:0.49193922 17:0.40584654 18:0.11599582 19:0.40729925 20:0.52703214 21:0.68458492 22:0.25285682 23:0.25070557 24:0.83660495 25:0.36898673 26:0.70764142 27:0.29220292 28:0.53082657 29:0.75861329 30:0.57762396 31:0.38969663 32:0.47220603 33:0.33033475 34:0.56808323 35:0.39873257 36:0.25555474 37:0.75691271 38:0.48890355 39:0.058593407 40:0.63947511 41:0.37758553 42:0.54336375 43:0.27303737 44:0.38000545 45:0.51242721 46:0.68282473 47:0.5308634 48:0.42324826 49:0.57783318 50:0.32366815 51:0.57974011 52:0.36732164 53:0.52975303 54:0.58682567 55:0.35903871 56:0.48629785 57:0.29476413 58:0.66233021 59:0.57806164 60:0.50502628 61:0.32146165 62:0.46774632 63:0.463222 64:0.43887049 65:0.30375451 66:0.49646309 67:0.23343456 68:0.44630021 69:0.48275399 70:0.35619706 71:0.55107743 72:0.69549775 73:0.42070332 74:0.57941324 75:0.53039318 76:0.55050373 77:0.25475553 
2.514899061672226 1:0.54589677 2:0.32090053 3:0.59881079 4:0.44847405 5:0.61102813 6:0.3635383 7:0.50787342 8:0.34024328 9:0.30869886 10:0.45288217 11:0.27988631 12:0.49513698 13:0.4004406 14:0.61067015 15:0.30541542 16:0.19873591 17:0.4260332 18:0.21122582 19:0.73694313 20:0.49813941 21:0.50590491 22:0.45543194 23:0.27267101 24:0.26925635 25:0.44164759 26:0.16610906 27:0.29230604 28:0.34043404 29:0.36459211 30:0.57073528 31:0.32526648 32:0.3755683 33:0.49294665 34:0.55878836 35:0.46571091 36:0.6680916 37:0.68294406 38:0.25923488 39:0.7884748 40:0.6671893 41:0.54115993 42:0.5146144 43:0.55013865 44:0.38315117 45:0.6571455 46:0.4647975 47:0.65799087 48:0.51436496 49:0.50547087 50:0.668971 51:0.5192191 52:0.32067823 53:0.1669822 54:0.55016929 55:0.32858533 56:0.32520232 57:0.49262959 58:0.49538404 59:0.45880029 60:0.83413309 61:0.6065557 62:0.54976416 63:0.30347911 64:0.56896114 65:0.36889163 66:0.79911995 67:0.48447451 68:0.43178916 69:0.41573387 70:0.54136688 71:0.59299034 72:0.34549883 73:0.31180224 74:0.47371793 75:0.38816294 76:0.61704886 77:0.25395647 
0.4880533665449514 1:0.21714917 2:0.4432396 3:0.52780902 4:0.40025643 5:0.43580461 6:0.57686687 7:0.47263592 8:0.69551522 9:0.52336502 10:0.57911295 11:0.45027828 12:0.46727958 13:0.42354071 14:0.21848918 15:0.42846 16:0.45869461 17:0.40665057 18:0.26022369 19:0.38626605 20:0.47971925 21:0.55260211 22:0.39133555 23:0.53170997 24:0.50407636 25:0.52835602 26:0.23368829 27:0.31866562 28:0.56733084 29:0.35665098 30:0.46800095 31:0.66661114 32:0.39116782 33:0.50332552 34:0.18752998 35:0.57572585 36:0.53061116 37:0.66826856 38:0.37091741 39:0.49306884 40:0.54875487 41:0.75568843 42:0.51596355 43:0.48405609 44:0.66973031 45:0.81875342 46:0.48886669 47:0.49095482 48:0.43358141 49:0.26117036 50:0.6379652 51:0.72240341 52:0.64552724 53:0.8698886 54:0.43617493 55:0.17318206 56:0.51161456 57:0.3373315 58:0.58897382 59:0.34406483 60:0.4851996 61:0.22763914 62:0.60100067 63:0.46717867 64:0.33302015 65:0.46087497 66:0.6979183 67:0.4463352 68:0.35963297 69:0.63467616 70:0.21677431 71:0.43006155 72:0.45767885 73:0.60281622 74:0.51465148 75:0.59631395 76:0.59932315 77:0.13597459 
1.050597013527642 1:0.47153112 2:0.34398359 3:0.57514691 4:0.5564245 5:0.61169302 6:0.23849691 7:0.51080883 8:0.514189 9:0.58679175 10:0.70551342 11:0.25903499 12:0.45915484 13:0.70568681 14:0.52421761 15:0.44158167 16:0.44831058 17:0.43588626 18:0.5763998 19:0.29281232 20:0.50575387 21:0.65064269 22:0.62490976 23:0.51627368 24:0.29994288 25:0.42144686 26:0.71518594 27:0.36878398 28:0.49377817 29:0.58608979 30:0.68504781 31:0.5096662 32:0.45811138 33:0.3845273 34:0.41201267 35:0.72077489 36:0.4126533 37:0.7724849 38:0.82515109 39:0.67395788 40:0.71009874 41:0.38439149 42:0.31659466 43:0.60352033 44:0.54530466 45:0.62303203 46:0.69882089 47:0.3471114 48:0.59733826 49:0.2665377 50:0.27131453 51:0.43724608 52:0.48589221 53:0.71972424 54:0.48460299 55:0.56892073 56:0.85959876 57:0.60684818 58:0.56226897 59:0.47845691 60:0.53350693 61:0.54699486 62:0.53116339 63:0.8718729 64:0.73464417 65:0.32725218 66:0.45703053 67:0.23289257 68:0.24254772 69:0.80784941 70:0.19988516 71:0.47337669 72:0.42068434 73:0.40385398 74:0.35052451 75:0.63952011 76:0.4930464 77:0.11496504 
2.200779006794405 1:0.64733225 2:0.66290969 3:0.49200872 4:0.64482188 5:0.85964066 6:0.34630743 7:0.61537206 8:0.45967951 9:0.57703698 10:0.53843808 11:0.55291027 12:0.4513351 13:0.16849691 14:0.49222973 15:0.77554214 16:0.59558046 17:0.58729511 18:0.57098138 19:0.65246785 20:0.45228422 21:0.79146063 22:0.43340281 23:0.45184493 24:0.30462062 25:0.69145894 26:0.66683334 27:0.55913526 28:0.99380052 29:0.073435314 30:0.34876379 31:0.44195503 32:0.4133434 33:0.70201069 34:0.42977402 35:0.3021619 36:0.66803241 37:0.5022462 38:0.12176874 39:0.45823625 40:0.24514666 41:0.47138458 42:0.36664182 43:0.85493469 44:0.35090643 45:0.65064603 46:0.71068424 47:0.68055385 48:0.34872168 49:0.73041195 50:0.36675462 51:0.79182774 52:0.93863505 53:0.47928369 54:0.44663572 55:0.88457024 56:0.13213725 57:0.54961663 58:0.36193091 59:0.1611838 60:0.36468431 61:0.45734724 62:0.85044575 63:1 64:0.57924974 65:0.73135155 66:0.4788906 67:0.23834838 68:0.57772952 69:0.17413422 70:0.77744412 71:0.73430347 72:0.41444099 73:0.32578388 74:0.54224795 75:0.39660433 76:0.30727419 77:0.33149502 
2.964100282887925 1:1 2:0.24358453 3:0.61832082 4:0.37449408 5:0.59320664 6:0.34219459 7:0.31215304 8:0.42627877 9:0.090816654 10:0.6852544 11:0.68438154 12:0.55088925 13:0.53113842 14:0.49395549 15:0.32290661 16:0.46172473 17:0.49173647 18:0.33878067 19:0.8860305 20:0.37745866 21:0.38187492 22:0.11603794 23:0.56378877 24:0.44562185 25:0.35657814 26:0.69054419 27:0.38433325 28:0.53840172 29:0.23577407 30:0.49228817 31:0.52043241 32:0.38320756 33:0.43510929 34:0.75865179 35:0.43512046 36:0.41346183 37:0.87133962 38:0.39358595 39:0.51190859 40:0.70491731 41:0.69211018 42:0.22765455 43:0.37328961 44:0.28374973 45:0.56161702 46:0.78825504 47:0.18249011 48:0.59677327 49:0.25772956 50:0.59414321 51:0.24785084 52:0.71686733 53:0.63253993 54:0.32681134 55:0.58806384 56:0.61373472 57:0.25464958 58:0.27575248 59:0.54012275 60:0.48027316 61:0.25863907 62:0.37404594 63:0.80833602 64:0.41152993 65:0.63463801 66:0.36729556 67:0.38169447 68:0.38525146 69:0.16171582 70:0.26893449 71:0.68247414 72:0.82102251 73:0.50064474 74:0.4495728 75:0.67445636 76:0.2458643 77:0.30149823 
2.530111407564027 1:0.25947618 2:0.52902722 3:0.52615517 4:0.41165227 5:0.39408001 6:0.5246101 7:0.67487401 8:0.49496078 9:0.43365681 10:0.46227083 11:0.471508 12:0.28573489 13:0.4399429 14:0.33837351 15:0.41976315 16:0.51176089 17:0.023954013 18:0.51731825 19:0.68557256 20:0.53560692 21:0.52291632 22:0.46787894 23:0.55138516 24:0.63092059 25:0.54615396 26:0.40071502 27:0.71020329 28:0.46310931 29:0.36035001 30:0.53744352 31:0.47754082 32:0.45866507 33:0.44080019 34:0.40834618 35:0.42098153 36:0.4653151 37:0.56012022 38:0.51720071 39:0.47794342 40:0.77623039 41:0.5251314 42:0.13666289 43:0.65673292 44:0.688097 45:0.57019728 46:0.31047723 47:0.84814358 48:0.53030157 49:0.48937017 50:0.48086783 51:0.6276235 52:0.40439761 53:0.62172014 54:0.56299901 55:0.61845815 56:0.58421057 57:0.53579962 58:0.54524529 59:0.46982494 60:0.64434469 61:0.44337404 62:0.18856621 63:0.31673762 64:0.56615537 65:0.2768237 66:0.78266233 67:0.29441601 68:0.42989382 69:0.37185353 70:0.61955613 71:0.66776842 72:0.45049578 73:0.67596704 74:0.51388168 75:0.41216466 76:0.47711578 77:0.2879799 
0.9515945184531116 1:0.45437077 2:0.5980491 3:0.6365428 4:0.23519714 5:0.75207776 6:0.37364101 7:0.43018332 8:0.4916479 9:0.35099089 10:0.33716339 11:0.52315402 12:0.41205114 13:0.50987011 14:0.43744591 15:0.43505883 16:0.64407051 17:0.61563301 18:0.36388797 19:0.69561809 20:0.32245719 21:0.47418967 22:0.53118771 23:0.50365555 24:0.39048547 25:0.51563656 26:0.60711956 27:0.39968467 28:0.42447609 29:0.39116174 30:0.34981459 31:0.38262635 32:0.70372814 33:0.44447482 34:0.44392103 35:0.55268645 36:0.40454572 37:0.81817001 38:0.57321298 39:0.35801131 40:0.44771972 41:0.52503228 42:0.49224108 43:0.20956631 44:0.64410335 45:0.30040103 46:0.71719289 47:0.32157329 48:0.40353596 49:0.5368402 50:0.5486787 51:0.27303052 52:0.41647288 53:0.50114703 54:0.39132589 55:0.37859812 56:0.37851831 57:0.35191315 58:0.20625876 59:0.64696085 60:0.43904096 61:0.53479666 62:0.66614902 63:0.34774089 64:0.57592684 65:0.5114367 66:0.49740425 67:0.56855184 68:0.60457063 69:0.45003265 70:0.61741155 71:0.62049752 72:0.49191761 73:0.49919653 74:0.71391803 75:0.30921841 76:0.64926434 77:0.21897617 
0.829135526983924 1:0.48322865 2:0.62086207 3:0.38636833 4:0.3955065 5:0.70167512 6:0.60820454 7:0.56642956 8:0.53096414 9:0.28662574 10:0.5849936 11:0.25587603 12:0.53801286 13:0.37637618 14:0.5118674 15:0.48432574 16:0.50732595 17:0.46132106 18:0.1713552 19:0.41965032 20:0.720487 21:0.33736235 22:0.32651392 23:0.46012804 24:0.41618684 25:0.69715387 26:0.60743165 27:0.42152786 28:0.47734138 29:0.64827758 30:0.55886674 31:0.61710137 32:0.39019698 33:0.42798579 34:0.6026001 35:0.58337033 36:0.45199734 37:0.70165074 38:0.6307953 39:0.31060749 40:0.12928589 41:0.58367383 42:0.46653566 43:0.52555978 44:0.53751451 45:0.30428571 46:0.7298559 47:0.32398087 48:0.56866187 49:0.6711269 50:0.48814148 51:0.64170611 52:0.25989869 53:0.46318972 54:0.35042971 55:0.41341811 56:0.59359396 57:0.4448694 58:0.54102254 59:0.61065942 60:0.41077214 61:0.26426959 62:0.46876109 63:0.49925098 64:0.31656796 65:0.17278658 66:0.68055928 67:0.10369353 68:0.24918675 69:0.32150933 70:0.22556046 71:0.85840249 72:0.76094407 73:0.2961989 74:0.66021311 75:0.43247354 76:0.52847642 77:0.27780169 
0.4898299532263387 1:0.5345518 2:0.24545239 3:0.75231975 4:0.38970882 5:0.11767304 6:0.42060208 7:0.748285 8:0.53533345 9:0.46240503 10:0.40743819 11:0.65948749 12:0.61629748 13:0.52867776 14:0.19424859 15:0.55499727 16:0.59366226 17:0.60728133 18:0.52539837 19:0.51514977 20:0.761967 21:0.57126218 22:0.01385621 23:0.79031628 24:0.81958407 25:0.28277498 26:0.79905587 27:0.49115023 28:0.49845198 29:0.63964695 30:0.43315846 31:0.57520086 32:0.33868086 33:0.64038908 34:0.52977705 35:0.22710328 36:0.83028775 37:0.41652203 38:0.57254374 39:0.29347154 40:0.85180122 41:0.40660924 42:0.71225274 43:0.88089395 44:0.59560376 45:0.5905664 46:0.59177661 47:0.57529032 48:0.19366461 49:0.53384161 50:0.51182699 51:0.49411023 52:0.37577993 53:0.28141814 54:0.7677207 55:0.4252409 56:0.42269176 57:0.56348902 58:0.24365973 59:0.42379695 60:0.30410987 61:0.27520633 62:0.51018333 63:0.47289249 64:0.72239536 65:0.51776832 66:0.30136162 67:0.28258455 68:0.38461691 69:0.44376463 70:0.2594772 71:0.5253647 72:0.56010574 73:0.54327691 74:0.79070628 75:0.31900591 76:0.39665285 77:0.2263702 
1.319713930732559 1:0.28267264 2:0.27491039 3:0.46624616 4:0.69590753 5:0.27539456 6:0.12538859 7:0.81368291 8:0.42327917 9:0.63293433 10:0.48604298 11:0.23489527 12:0.43705836 13:0.50247467 14:0.5708524 15:0.37131578 16:0.35443902 17:0.49842286 18:0.43981531 19:0.55042028 20:0.59326267 21:0.53167534 22:0.43411362 23:0.5021022 24:0.38264659 25:0.57351476 26:0.55954593 27:0.5541656 28:0.58590502 29:0.26393473 30:0.57101613 31:0.38429517 32:0.41764879 33:0.56271219 34:0.41265321 35:0.41776174 36:0.75054383 37:0.25962889 38:0.43228823 39:0.55629134 40:0.61382329 41:0.6680491 42:0.37606764 43:0.45872068 44:0.22949514 45:0.39961377 46:0.79986304 47:0.34741181 48:0.34919322 49:0.58231157 50:0.54509372 51:0.57048249 52:0.49720082 53:0.53613049 54:0.27786869 55:0.57016408 56:0.56708425 57:0.30019987 58:0.38744375 59:0.47215906 60:0.5241729 61:0.46741143 62:0.51087046 63:0.56555843 64:0.45425481 65:0.50450295 66:0.38609621 67:0.30286306 68:0.35303161 69:0.49835297 70:0.58503807 71:0.2072915 72:0.48918045 73:0.5398041 74:0.57550323 75:0.44174072 76:0.48561099 77:0.17935428 
0.03365225736024435 1:0.40556684 2:0.27528843 3:0.39657474 4:0.25700602 5:0.45115954 6:0.44548142 7:0.51579195 8:0.65023673 9:0.48768851 10:0.50546676 11:0.50123143 12:0.71840829 13:0.60158753 14:0.55240291 15:0.28660777 16:0.64601696 17:0.024905162 18:0.32619441 19:0.51495725 20:0.62196898 21:0.45633841 22:0.57295108 23:0.37072185 24:0.63878596 25:0.39360788 26:0.31120971 27:0.56488591 28:0.55060208 29:0.21319613 30:0.27912623 31:0.64966345 32:0.65106523 33:0.43347791 34:0.66339684 35:0.60153681 36:0.87172568 37:0.28617507 38:0.29166558 39:0.61494005 40:0.48218572 41:0.41246966 42:0.63241178 43:0.52454764 44:0.67001331 45:0.4068633 46:0.9497059 47:0.141451 48:0.026777238 49:0.58241582 50:0.51172096 51:0.39101592 52:0.48463988 53:0.42724773 54:0.39950672 55:0.46290144 56:0.68326217 57:0.4164663 58:0.30246466 59:0.56639516 60:0.38609573 61:0.52743471 62:0.571594 63:0.40351048 64:0.54316062 65:0.45378315 66:0.37320289 67:0.5011428 68:0.37735277 69:0.65323269 70:0.23028868 71:0.53820515 72:0.6538378 73:0.57432294 74:0.51094526 75:0.59934205 76:0.49960205 77:0.14279188 
1.049084531956902 1:0.8036508 2:0.28045726 3:0.69810158 4:0.57433128 5:0.49124324 6:0.67716247 7:0.60233301 8:0.558595 9:0.45350221 10:0.6147576 11:0.41120613 12:0.31820977 13:0.60140097 14:0.10360719 15:0.48390216 16:0.43502599 17:0.71985143 18:0.43549803 19:0.37869537 20:0.35019237 21:0.50606883 22:0.44303113 23:0.37902242 24:0.79571325 25:0.34502432 26:0.33422193 27:0.22248879 28:0.54241699 29:0.17075261 30:0.41437331 31:0.51139009 32:0.55577654 33:0.38113418 34:0.3547591 35:0.60872108 36:0.47103122 37:0.45025578 38:0.50969505 39:0.132194 40:0.62354994 41:0.26469195 42:0.35910586 43:0.63566178 44:0.23631138 45:0.21226013 46:0.48345023 47:0.37762499 48:0.44469106 49:0.75412327 50:0.44365108 51:0.66246837 52:0.52952892 53:0.96449971 54:0.36365977 55:0.43634766 56:0.36275083 57:0.46364701 58:0.79011965 59:0.46285167 60:0.34297413 61:0.59841484 62:0.42635837 63:0.57520688 64:0.37366825 65:0.25046772 66:0.63655573 67:0.23165108 68:0.57102716 69:0.45236471 70:0.578677 71:0.11045972 72:0.42615023 73:0.65431899 74:0.75246382 75:0.32882905 76:0.69518429 77:0.23791294 
0.2096202108455917 1:0.36455345 2:0.44716007 3:0.32039893 4:0.5794816 5:0.43028706 6:0.45969468 7:0.23434049 8:0.45468041 9:0.32923201 10:0.4420166 11:0.41790354 12:0.4487558 13:0.47450468 14:0.50917369 15:0.30601913 16:0.32728723 17:0.3817164 18:0.48380402 19:0.29299518 20:0.52747935 21:0.31296864 22:0.31636131 23:0.43638533 24:0.50613016 25:0.29774448 26:0.41619664 27:0.40824214 28:0.58849132 29:0.48392919 30:0.29942718 31:0.40873978 32:0.50047553 33:0.4636448 34:0.11705786 35:0.61524314 36:0.56988466 37:0.77769101 38:0.1556371 39:0.28534949 40:0.26918149 41:0.66852027 42:0.47394553 43:0.53211749 44:0.5182144 45:0.5529272 46:0.95705688 47:0.61987692 48:0.57406408 49:0.5164277 50:0.54038393 51:0.46705458 52:0.26044804 53:0.31972641 54:0.73059905 55:0.48735809 56:0.34483927 57:0.60360157 58:0.26404589 59:0.49606907 60:0.2360952 61:0.33777276 62:0.41345182 63:0.49121267 64:0.6154108 65:0.42967665 66:0.095150076 67:0.58560228 68:0.44418707 69:0.50696927 70:0.5309301 71:0.71325916 72:0.8384372 73:0.48069426 74:0.62860698 75:0.42169487 76:0.64622432 77:0.22979565 
1.415401717752275 1:0.47090593 2:0.47752663 3:0.62961769 4:0.52228802 5:0.61137915 6:0.57899362 7:0.40697417 8:0.081026383 9:0.60668331 10:0.4352951 11:0.63576686 12:0.54691744 13:0.52941799 14:0.58145648 15:0.30780646 16:0.43318811 17:0.12436474 18:0.28507203 19:0.44152954 20:0.52225006 21:0.37007001 22:0.44301131 23:0.40689871 24:0.78885478 25:0.1907893 26:0.43569529 27:0.52155769 28:0.63527048 29:0.38533697 30:0.49898946 31:0.38588324 32:0.17935544 33:0.35295087 34:0.3897416 35:0.47604424 36:0.60381275 37:0.80701214 38:0.52466738 39:0.47201771 40:0.46673989 41:0.50119495 42:0.65019077 43:0.43354079 44:0.10551366 45:0.61396188 46:0.52148962 47:0.97130513 48:0.43866852 49:0.67426729 50:0.49085325 51:0.52530748 52:0.33672801 53:0.46958643 54:0.5070715 55:0.5182904 56:0.67126667 57:0.57740355 58:0.12907186 59:0.63877004 60:0.22862671 61:0.46751234 62:0.26134941 63:0.27441514 64:0.55691415 65:0.2720615 66:0.51856858 67:0.40125042 68:0.57262409 69:0.68303907 70:0.49710563 71:0.56424618 72:0.65459442 73:0.61323041 74:0.43949652 75:0.44233793 76:0.88330722 77:0.25950861 
0.3345628665892421 1:0.46677259 2:0 3:0.69646126 4:0.1081514 5:0.36080223 6:0.46655914 7:0.61113513 8:0.85957658 9:0.38270187 10:0.42359954 11:0.50315583 12:0.46885318 13:0.61585289 14:0.20257488 15:0.58824223 16:0.37376273 17:0.51469803 18:0.3616606 19:0.38659662 20:0.38309523 21:0.56657797 22:5.6039739e-17 23:0.78322232 24:0.82176298 25:0.19554168 26:0.82786667 27:0.38047233 28:0.51776701 29:0.66030777 30:0.378171 31:0.52363068 32:0.49132901 33:0.60566223 34:0.56604594 35:0.26182619 36:0.66777158 37:0.38567096 38:0.46030524 39:0.38227528 40:0.92501491 41:0.51997018 42:0.73451793 43:0.69600093 44:0.5391959 45:0.53506619 46:0.61463261 47:0.51107424 48:0.1203592 49:0.54875433 50:0.66029727 51:0.45121303 52:0.50053227 53:0.37121513 54:0.71904773 55:0.48486027 56:0.3156583 57:0.5038994 58:0.29796496 59:0.43194437 60:0.35092956 61:0.44841725 62:0.56706816 63:0.6443764 64:0.55446339 65:0.55484253 66:0.30799556 67:0.35341793 68:0.39788049 69:0.28207761 70:0.27807623 71:0.46049008 72:0.64855415 73:0.34531656 74:0.79585642 75:0.47181842 76:0.27319589 77:0.20659149 
1.893676963224575 1:0.39904794 2:0.42987853 3:0.45684853 4:0.62265784 5:0.57519984 6:0.42471561 7:0.56371021 8:0.28255329 9:0.34097189 10:0.64517885 11:0.58683556 12:0.50986904 13:0.42443508 14:0.49597448 15:0.54897308 16:0.44199705 17:0.28896096 18:0.47793639 19:0.6642096 20:0.48406324 21:0.22938417 22:0.36175632 23:0.45004335 24:0.44742224 25:0.59368908 26:0.49447909 27:0.50567317 28:0.22007491 29:0.34499562 30:0.55423129 31:0.58531094 32:0.41375259 33:0.69852281 34:0.87525755 35:0.5803861 36:0.23827845 37:0.44001809 38:0.71049654 39:0.47473279 40:0.40199497 41:0.8684454 42:0.60625494 43:0.60598946 44:0.66729569 45:0.43363792 46:0.49865386 47:0.57867509 48:0.64155161 49:0.45520693 50:0.42875475 51:0.46797821 52:0.42381984 53:0.59045142 54:0.38732165 55:0.62369245 56:0.61711544 57:0.70435041 58:0.70549488 59:0.73515409 60:0.25104541 61:0.43164504 62:0.5410282 63:0.61565334 64:0.47316805 65:0.46595517 66:0.20327319 67:0.48985699 68:0.41917852 69:0.31163281 70:0.68281877 71:0.52458483 72:0.86566126 73:0.79472488 74:0.74595571 75:0.55924881 76:0.58893937 77:0.35969591 
1.040809027529674 1:0.46678251 2:0.58490485 3:0.50114095 4:0.12478868 5:0.3096925 6:0.45758978 7:0 8:0.70353532 9:0.53666866 10:0.51636869 11:0.34513485 12:0.38874653 13:0.46014079 14:0.43867189 15:0.37833324 16:0.29503912 17:0.35325509 18:0.041402958 19:0.68116254 20:0.46769962 21:0.39691728 22:0.27464232 23:0.44068384 24:0.57363725 25:0.31666225 26:0.79047829 27:0.77596056 28:0.72747809 29:0.62174451 30:0.39717641 31:0.39046225 32:0.57581931 33:0.42631119 34:0.36994252 35:0.68510813 36:0.52525109 37:0.88948566 38:0.77132106 39:0.64080328 40:0.59874046 41:0.68005359 42:0.59137154 43:0.15776771 44:0.49107888 45:0.55166245 46:0.2149089 47:0.19963215 48:0.33716035 49:0.53835601 50:0.44500807 51:0.54535353 52:0.33690497 53:0.067234345 54:0.71265811 55:0.30398616 56:0.62940645 57:0.10796087 58:0.40743506 59:0.76623333 60:0.32601431 61:0.53554279 62:0.54373258 63:0.48072356 64:0.41475689 65:0.47695789 66:0.56814373 67:0.53994673 68:0.62605029 69:0.5147714 70:0.436212 71:0.58451009 72:0.6355834 73:0.6047079 74:0.4357979 75:0.3664847 76:0.74793661 77:0.26354867 
0.985065090560289 1:0.45906448 2:0.49991405 3:0.59756011 4:0.48588619 5:0.62628216 6:0.64177483 7:0.38458535 8:0.57256806 9:0.61609626 10:0.8094238 11:0.50302351 12:0.44189143 13:0.21155225 14:0.46537903 15:0.68276256 16:0.11632637 17:0.70261502 18:0.42485648 19:0.4441781 20:0.39118463 21:0.37894508 22:0.53113818 23:0.46247402 24:0.67801166 25:0.51577604 26:0.65978074 27:0.60983717 28:0.44735172 29:0.66537887 30:0.14588872 31:0.40706238 32:0.48429865 33:0.57360226 34:0.43108407 35:0.46494496 36:0.51728064 37:0.82186741 38:0.2961452 39:0.66652066 40:0.56162328 41:0.74688929 42:0.14092767 43:0.48616409 44:0.51959676 45:0.39839137 46:0.73773676 47:0.32078162 48:0.63464332 49:0.40629837 50:0.60906637 51:0.47296527 52:0.61817682 53:0.44972399 54:0.54961562 55:0.4528065 56:0.46949688 57:0.31698164 58:0.37993038 59:0.65288639 60:0.4614996 61:0.36243239 62:0.58674914 63:0.40923098 64:0.4735907 65:0.55755305 66:0.74273598 67:0.56450027 68:0.63480604 69:0.30849046 70:0.47013107 71:0.66450888 72:0.64081216 73:0.7158851 74:0.71217555 75:0.31444025 76:0.60526639 77:0.31067556 
0.541948062355752 1:0.38462812 2:0.31700119 3:0.73703349 4:0.68743509 5:0.48104021 6:0.49781513 7:0.48079577 8:0.58512217 9:0.19833368 10:0.63920987 11:0.45577577 12:0.40017784 13:0.24545695 14:0.4748615 15:0.42789847 16:0.46327507 17:0.45909467 18:0.37247211 19:0.47419477 20:0.36999807 21:0.3289676 22:0.40612915 23:0.64209747 24:0.72724468 25:0.35800368 26:0.74861813 27:0.68065333 28:0.61529827 29:0.32944456 30:0.4819431 31:0.7303313 32:0.53668207 33:0.52815908 34:0.38032907 35:0.37256438 36:0.64828414 37:0.51972765 38:0.48653114 39:0 40:0.43691197 41:0.91560543 42:0.16042462 43:0.51969862 44:0.71506685 45:0.60930288 46:0.7163251 47:0.53216636 48:0.41217768 49:0.29748273 50:0.51567113 51:0.38224748 52:0.29388225 53:0.64706898 54:0.44579631 55:1 56:0.27923197 57:0.70669585 58:0.43434408 59:0.56539291 60:0.4250744 61:0.70949596 62:0.43355599 63:0.50166088 64:0.6477958 65:0.44675049 66:0.25902963 67:0.29464862 68:0.60135859 69:0.37001222 70:0.77374285 71:0.76597339 72:0.78754741 73:0.11831154 74:0.58275175 75:0.23216908 76:0.47156566 77:0.26930365 
1.18031823418928 1:0.41196173 2:0.38635215 3:0.60007143 4:0.51637548 5:0.8043229 6:0.92385286 7:0.33052745 8:0.71708041 9:0.68356895 10:0.34567869 11:0.42647913 12:0.19655021 13:0.38336566 14:0.22899294 15:0.4156172 16:0.58431011 17:0.33638209 18:0.64425397 19:0.62713033 20:0.27540088 21:0.66071695 22:0.34558898 23:0.3879424 24:0.61896467 25:0.35387561 26:0.54679286 27:0.45890602 28:0.71986973 29:0.53509289 30:0.46564254 31:0.37072632 32:0.33148733 33:0.71248829 34:0.28537452 35:0.46758148 36:0.48245737 37:0.64378422 38:0.54637659 39:0.37159342 40:0.67316455 41:0.65516168 42:0.23796178 43:0.45198825 44:0.49016967 45:0.33065495 46:0.40804729 47:0.031417385 48:0.42134127 49:0.48294199 50:0.60220599 51:0.37975153 52:0.24654938 53:0.3358722 54:0.55700767 55:0.35833704 56:0.63855314 57:0.018090203 58:0.27498472 59:0.56745011 60:0.48222458 61:0.41642308 62:0.84798366 63:0.56992316 64:0.38116249 65:0.48076785 66:0.58546895 67:0.54434276 68:0.56718755 69:0.39654821 70:0.74243069 71:0.67632908 72:0.40800342 73:0.8130511 74:0.40083331 75:0.26107562 76:0.61069387 77:0.17705761 
0.3904571650259341 1:0.33845538 2:0.56995171 3:0.16795506 4:0.12432252 5:0.41633788 6:0.26691538 7:0.47184405 8:0.39034784 9:0.31200671 10:0.61689585 11:0.55651265 12:0.37744907 13:0.41210058 14:0.55280805 15:0.80016702 16:0.45669645 17:0.63416606 18:0.38220581 19:0.62417275 20:0.52627349 21:0.40302151 22:0.60333866 23:0.52958071 24:0.49149778 25:0.46023282 26:0.50252783 27:0.44838747 28:0.38592511 29:0.47543028 30:0.66046238 31:0.53453684 32:0.19313833 33:0.49433193 34:0.38745046 35:0.39835566 36:0.76147377 37:0.53938746 38:0.29725441 39:0.62666136 40:0.4428505 41:0.52750212 42:0.32849929 43:0.47371292 44:0.66914529 45:0.81227285 46:0.33175448 47:0.77985036 48:0.51428717 49:0.66645944 50:0.71751207 51:0.77118713 52:0.29700619 53:0.39907968 54:0.52787232 55:0.51185471 56:0.49610731 57:0.59717906 58:0.47006986 59:0.80111873 60:0.5397321 61:0.66054267 62:0.37399393 63:0.44402727 64:0.38195947 65:0.30582225 66:0.54473674 67:0.45787895 68:0.42118445 69:0.70072931 70:0.50071943 71:0.71632576 72:0.59025997 73:0.7963143 74:0.60746253 75:0.39258459 76:0.52645153 77:0.32579026 
0.6193094819959021 1:0.54652131 2:0.34362563 3:0.49257562 4:0.45909309 5:0.70339805 6:0.75725806 7:0.3765952 8:0.42988655 9:0.38711232 10:0.22693509 11:0.55600631 12:0.57266581 13:0.66553187 14:0.23247133 15:0.39512867 16:0.61758989 17:0.39553341 18:0.50009191 19:0.55444169 20:0.42580324 21:0.58958602 22:0.2085571 23:0.32665479 24:0.43456876 25:0.17705104 26:0.65000486 27:0.44320914 28:0.40190738 29:0.30077386 30:0.39529625 31:0.34673834 32:0.32985073 33:0.56625891 34:0.67157066 35:0.65584368 36:0.11001365 37:0.62898242 38:0.59292495 39:0.32294989 40:0.45270592 41:0.5393281 42:0.46245864 43:0.12975696 44:0.56050861 45:0.18114975 46:0.51579297 47:0.40004623 48:0.30300498 49:0.61818492 50:0.71436763 51:0.40169787 52:0.47388986 53:0.28248492 54:0.48075181 55:0.33064565 56:0.74505359 57:0.45064139 58:0.22589956 59:0.62159401 60:0.33735424 61:0.61111969 62:0.68677694 63:0.55548477 64:0.45089334 65:0.53048015 66:0.54001182 67:0.42208025 68:0.50303996 69:0.5927574 70:0.43630412 71:0.55766964 72:0.68923718 73:0.73366362 74:0.68031317 75:0.39877981 76:0.81617987 77:0.25854152 
0.08210873331607528 1:0.45696416 2:0.21879119 3:0.567904 4:0.35147947 5:0.72840977 6:0.4909493 7:0.42806372 8:0.34213775 9:0.40365952 10:0.71447837 11:0.61583173 12:0.74145412 13:0.65880156 14:0.25892025 15:0.61914474 16:0.55194634 17:0.79597044 18:0.28999004 19:0.54462838 20:0.3905609 21:0.32761598 22:0.45662966 23:0.51904887 24:0.47828147 25:0.20667158 26:0.54530293 27:0.65180337 28:0.58488548 29:0.4872804 30:0.77018905 31:0.41299871 32:0.56144059 33:0.65916777 34:0.68241525 35:0.49996996 36:0.55828178 37:0.34249598 38:0.33755195 39:0.42405477 40:0.45775265 41:0.42623028 42:0.58949202 43:0.5316546 44:0.65931922 45:0.62663209 46:0.40108109 47:0.38751993 48:0.49280021 49:0.5349558 50:0.4335067 51:0.59200782 52:0.25085464 53:0.78680414 54:0.55805016 55:0.60729611 56:0.26983833 57:0.58272195 58:0.58694339 59:0.47619486 60:0.35608721 61:0.30082756 62:0.3155022 63:0.41807282 64:0.50781292 65:0.28548014 66:0.57149917 67:0.4815118 68:0.44868225 69:0.24918309 70:0.58639473 71:0.51894838 72:0.45779783 73:0.55320126 74:0.7397297 75:0.45534527 76:0.54968953 77:0.25201702 
0.7557440413663743 1:0.77288103 2:0.71943283 3:0.7049467 4:0.77299273 5:0.47034433 6:0.44289273 7:0.71322066 8:0.40955588 9:0.35118747 10:0.43243089 11:0.37078077 12:0.40118039 13:0.69782335 14:0.259725 15:0.74034947 16:0.75254661 17:0.43561873 18:0.5890891 19:0.34730622 20:0.44223586 21:0.7406987 22:0.38909686 23:0.3871938 24:0.64289212 25:0.60143465 26:0.51837271 27:0.40717626 28:0.50913525 29:0.48948979 30:0.29920611 31:0.22835375 32:0.31296831 33:0.6839658 34:0.60656983 35:0.29719487 36:0.50849348 37:0.83622694 38:0.37017229 39:0.41579467 40:0.80839527 41:0.70814788 42:0.30740634 43:0.37841338 44:0.52367693 45:0.47606963 46:0.57785404 47:0.39429298 48:0.7501961 49:0.6354847 50:0.42131284 51:0.72172105 52:0.3871721 53:0.50702268 54:0.73672211 55:0.43921262 56:0.42487156 57:0.60759115 58:0.37533495 59:0.7462343 60:0.50748146 61:0.34382278 62:0.40053293 63:0.3313044 64:0.36954358 65:0.82801425 66:0.46986809 67:0.41474506 68:0.45169365 69:0.21289916 70:0.45866168 71:0.57246524 72:0.79000229 73:0.71072853 74:0.64606243 75:0.52810311 76:0.74614298 77:0.27284005 
0.3903670225369243 1:0.37902513 2:0.52004147 3:0.56626153 4:0.16493247 5:0.43070278 6:0.37822878 7:0.53784895 8:0.36715758 9:0.43892023 10:0.55853158 11:0.51906508 12:0.87806088 13:0.48147476 14:0.43744567 15:0.35691896 16:0.3248584 17:0.46915129 18:0.49211538 19:0.48839825 20:0.67547745 21:0.40088323 22:0.54644299 23:0.54878187 24:0.78389484 25:0.27406022 26:0.58952063 27:0.58378625 28:0.54779834 29:0.35087234 30:0.55193841 31:0.44339257 32:0.28678402 33:0.44045341 34:0.49458665 35:0.56524765 36:0.54444534 37:0.59046632 38:0.51984614 39:0.4956741 40:0.65191674 41:0.27676415 42:0.090903997 43:0.56200641 44:0.2736139 45:0.52808386 46:0.03829075 47:0.78791177 48:0.17214851 49:0.53112614 50:0.488451 51:0.387413 52:0.44557354 53:0.35641724 54:0.56601274 55:0.51770627 56:0.48426893 57:0.38225186 58:0.46491024 59:0.37544319 60:0.57953632 61:0.47017688 62:0.52776909 63:0.45827013 64:0.6141941 65:0.31785798 66:0.53221363 67:0.3627668 68:0.50039661 69:0.49965945 70:0.64681828 71:0.89667273 72:0.38307729 73:0.42598274 74:0.40730774 75:0.21406388 76:0.64462262 77:0.24608937 
1.592499067823776 1:0.57011157 2:0.59917307 3:0.33531106 4:0.69477367 5:0.7004146 6:0.77834839 7:0.69070429 8:0.51863557 9:0.27251336 10:0.68784744 11:0.49983543 12:0.46121153 13:0.54794985 14:0.26417121 15:0.64881927 16:0.58605134 17:0.54397553 18:0.52915806 19:0.64768577 20:0.61008567 21:0.34848753 22:0.58618855 23:0.55262458 24:0.68338251 25:0.59491098 26:0.61260581 27:0.24266165 28:0.52134436 29:0.40787733 30:0.37475866 31:0.34744766 32:0.25403932 33:0.49727497 34:0.4792985 35:0.5499332 36:0.51715666 37:0.45872781 38:0.41610983 39:0.33303544 40:0.42372581 41:0.67847711 42:0.15688147 43:0.26854116 44:0.84596437 45:0.35840154 46:0.61955577 47:0.37078303 48:0.81345952 49:0.80608773 50:0.40705481 51:0.78991431 52:0.4495258 53:0.66416168 54:0.51008511 55:0.78249925 56:0.64650869 57:0.59166068 58:0.42519099 59:0.6954385 60:0.67618489 61:0.19021535 62:0.30386847 63:0.44455305 64:0.52032417 65:0.60903472 66:0.25465965 67:0.34546766 68:0.39170116 69:0.4282499 70:0.68376982 71:0.52680856 72:0.77827817 73:0.84974945 74:0.59409732 75:0.3578105 76:0.81043553 77:0.33162618 
2.363572468245545 1:0.70963103 2:0.48422322 3:0.69968247 4:0.33000714 5:0.52566224 6:0.40941322 7:0.50103277 8:0.7461887 9:0.39327726 10:0.42193264 11:0.45906019 12:0.52327168 13:0.41486663 14:0.45256239 15:0.38351664 16:0.64210916 17:0.70081413 18:0.59926021 19:0.49969181 20:0.48033375 21:0.53443962 22:0.23208091 23:0.44736347 24:0.58856344 25:0.30014244 26:0.53569078 27:0.68751746 28:0.46481615 29:0.50894058 30:0.70229948 31:0.66045028 32:0.60166383 33:0.26830557 34:0.46603602 35:0.83443636 36:0.6771661 37:0.20767678 38:0.41456273 39:0.29596922 40:0.36227539 41:0.57627368 42:0.43671703 43:0.64528227 44:0.85164177 45:0.44788426 46:0.25806344 47:0.30358616 48:0.42565301 49:0.844863 50:0.68456972 51:0.63670462 52:0.49822691 53:0.2374191 54:0.63418311 55:0.66896486 56:0.25059837 57:0.75478369 58:0.61665356 59:0.52903908 60:0.69828451 61:0.41012284 62:0.47277206 63:0.95217907 64:0.77878356 65:0.40755203 66:0.57737488 67:0.69383562 68:0.71695721 69:0.06207272 70:0.42418343 71:0.5416171 72:0.5273242 73:0.66168088 74:0.69525522 75:0.26531401 76:0.51455241 77:0.4215492 
2.556707929932864 1:0.46150771 2:0.53122121 3:0.5760529 4:0.4226163 5:0.70685405 6:0.77467638 7:0.47568062 8:0.58824974 9:0.55034232 10:0.34938982 11:0.34548131 12:0.51778096 13:0.46217388 14:0.36905378 15:0.093128741 16:0.41327792 17:0.61405623 18:0.6552543 19:0.54168284 20:0.51280326 21:0.52678365 22:0.48369169 23:0.22177057 24:0.4844906 25:1.1495036e-16 26:0.66845495 27:0.73257411 28:0.35094902 29:0.29712999 30:0.47361135 31:0.71349329 32:0.25929022 33:0.58873641 34:0.45426053 35:0.77113932 36:0.55991048 37:0.31909505 38:0.36741942 39:0.43459192 40:0.66491276 41:0.63308334 42:0.59873825 43:0.66920555 44:0.64507729 45:0.6513201 46:0.3948324 47:0.46222773 48:0.49842742 49:0.56293643 50:0.63311535 51:0.40713215 52:0.49351323 53:0.10160605 54:0.58248752 55:0.3430059 56:0.32912502 57:0.42336264 58:0.72783369 59:0.88412017 60:0.54765564 61:0.3400546 62:0.46057102 63:0.8754307 64:0.59514928 65:0.30475926 66:0.64120942 67:0.83863485 68:0.54656184 69:0.014647342 70:0.25478199 71:0.42579532 72:0.40911698 73:0.73628175 74:0.53684556 75:0.47268099 76:0.66270876 77:0.32826498 
0.1381532772417891 1:0.36250517 2:0.61679286 3:0.38088924 4:0.84705782 5:0.61145669 6:0.6503756 7:0.61585438 8:0.55747622 9:0.31991169 10:0.55390507 11:0.64324635 12:0.53805244 13:0.58698738 14:0.37608036 15:0.32783365 16:0.63037902 17:0.73869616 18:0.76568246 19:0.61919087 20:0.55574608 21:0.55279124 22:0.7224701 23:0.47451052 24:0.63637149 25:0.50986367 26:0.54441738 27:0.44446111 28:0.53266096 29:0.52340776 30:0.79722995 31:0.30491033 32:0.62600446 33:0.53288901 34:0.59584123 35:0.52155358 36:0.41370851 37:0.57783854 38:0.31224284 39:0.66453463 40:0.56238419 41:0.73146635 42:0.59154618 43:0.37695104 44:0.63226056 45:0.37433586 46:0.47570381 47:0.31686112 48:0.44236121 49:0.66575325 50:0.44130352 51:0.61193067 52:0.36982498 53:0.5220148 54:0.64515799 55:0.53263223 56:0.54597265 57:0.48359853 58:0.43084341 59:0.71340084 60:0.66402417 61:0.15830293 62:0.34136119 63:0.31117979 64:0.44823879 65:0.55448413 66:0.3405681 67:0.55242336 68:0.40708822 69:0.29108131 70:0.6215266 71:0.58555639 72:0.63336933 73:0.64268082 74:0.75017798 75:0.44297037 76:0.69310099 77:0.26699814 
0.184728360477285 1:0.43152571 2:0.25724056 3:0.71883798 4:0.66897714 5:0.60489523 6:0.67020684 7:0.4307991 8:0.50377005 9:0.30367371 10:0.4562462 11:0.36834469 12:0.26158416 13:0.66602564 14:0.38145655 15:0.43914458 16:0.43580914 17:0.45130354 18:0.53020185 19:0.5171991 20:0.36684802 21:0.43162701 22:0.44992164 23:0.30253005 24:0.55564594 25:0.35282409 26:0.51271725 27:0.22919481 28:0.23845869 29:0.48249915 30:0.4595834 31:0.34788916 32:0.2751838 33:0.34552577 34:0.81350267 35:0.48109293 36:0.49477503 37:0.59682071 38:0.49022129 39:0.53137213 40:0.6904152 41:0.41940755 42:0.44397876 43:0.54884511 44:0.62502599 45:0.53655791 46:0.74801606 47:0.37397781 48:0.19743103 49:0.52800441 50:0.39464012 51:0.34003788 52:0.25496277 53:0.6449241 54:0.42042884 55:0.49241501 56:0.49655986 57:0.46509138 58:0.58159763 59:0.61588329 60:0.41486624 61:0.52541941 62:0.71843255 63:0.85020489 64:0.47986418 65:0.31708664 66:0.57456714 67:0.3034474 68:0.43070331 69:0.56381249 70:0.21632828 71:0.69542247 72:0.48039752 73:0.19198801 74:0.63609326 75:0.40637952 76:0.36082509 77:0.17779143 
0.6876722922370269 1:0.42618424 2:0.6248703 3:0.53446841 4:0.26414123 5:0.69539118 6:0.25150889 7:0.31240767 8:0.46221754 9:0.35966313 10:0.41812906 11:0.41047043 12:0.35935405 13:0.70488244 14:0.51745325 15:0.30134088 16:0.50054729 17:0.65036213 18:0.40965429 19:0.58133805 20:0.68989056 21:0.47794557 22:0.42563951 23:0.39920634 24:0.74278718 25:0.40744147 26:0.69511014 27:0.10094241 28:0.23220657 29:0.64389431 30:0.52634722 31:0.35674921 32:0.52232194 33:0.42472541 34:0.80305684 35:0.5846023 36:0.47887504 37:0.73729438 38:0.4345727 39:0.61053115 40:0.49764568 41:0.59423459 42:0.43534788 43:0.49170482 44:0.487196 45:0.39239681 46:0.76424289 47:0.64080203 48:0.46783203 49:0.34480971 50:0.43538219 51:0.4465141 52:0.41045156 53:0.64382237 54:0.41489494 55:0.51435745 56:0.43172264 57:0.5075838 58:0.65708393 59:0.572335 60:0.54150504 61:0.38875794 62:0.67718023 63:0.59242785 64:0.41399127 65:0.048354652 66:0.58051986 67:0.2343754 68:0.41675177 69:0.59049416 70:0.33397698 71:0.89885426 72:0.54379809 73:0.18977065 74:0.65998656 75:0.4762468 76:0.29951397 77:0.26796806 
0.392951674802357 1:0.26284781 2:0.48379716 3:0.4542594 4:0.43758759 5:0.36748311 6:0.21663384 7:0.49521014 8:0.73871607 9:0.43280807 10:0.32162932 11:0.46647644 12:0.012641069 13:0.60469443 14:0.498584 15:0.54739916 16:0.56008863 17:0.51489997 18:0.68915451 19:0.61828303 20:0.63310349 21:0.2935746 22:0.827999 23:0.32343698 24:0.66957754 25:0.31427717 26:0.58242208 27:0.52865779 28:0.5274092 29:0.72298884 30:0.55594009 31:0.37433717 32:0.60973716 33:0.78912848 34:0.11290929 35:0.48099703 36:0.48568588 37:0.77471513 38:0.31324184 39:0.36259478 40:0.39968279 41:0.81877297 42:0.29711941 43:0.51521599 44:0.57211488 45:0.39615312 46:0.51733863 47:0.44909656 48:0.51613599 49:0.60727113 50:0.19490255 51:0.5054161 52:0.33123234 53:0.26816511 54:0.65093285 55:0.59791678 56:0.32117587 57:0.31402132 58:0.20727329 59:0.37586579 60:0.53715748 61:0.21729602 62:0.53994364 63:0.45917663 64:0.77132994 65:0.64687914 66:0.56794107 67:0.33938268 68:0.33217034 69:0.4762291 70:0.55269891 71:0.6814158 72:0.32622844 73:0.49127916 74:0.68780166 75:0.26530835 76:0.55559033 77:0.18568856 
0.5232792796360889 1:0.59689438 2:0.41534266 3:0.68227142 4:0.48751795 5:0.50784713 6:0.77016729 7:0.45718083 8:0.43115652 9:0.46069178 10:0.46386954 11:0.48970035 12:0.58172613 13:0.25998905 14:0.34335101 15:0.52406484 16:0.5509007 17:0.37561017 18:0.64647067 19:0.64906204 20:0.62734938 21:0.46010941 22:0.48297778 23:0.11650427 24:0.5096429 25:0.60530263 26:0.49549833 27:0.42038053 28:0.65818787 29:0.25683692 30:0.49190244 31:0.53961504 32:0.75935602 33:0.56502265 34:0.18839431 35:0.55433643 36:0.45347029 37:0.5090214 38:0.44293472 39:0.13873008 40:0.57118541 41:0.72043926 42:0.44296041 43:0.31690219 44:0.41959578 45:0.41055116 46:0.3416976 47:0.30592605 48:0.46322924 49:0.78850472 50:0.38836151 51:0.72509491 52:0.3615869 53:0.21702026 54:0.49498311 55:0.3295534 56:0.44458532 57:0.5231604 58:0.30698931 59:0.51526403 60:0.52201653 61:0.36679012 62:0.78029466 63:0.66373926 64:0.6549778 65:0.49343571 66:0.45274806 67:0.40280578 68:0.42521515 69:0.46555161 70:0.44959626 71:0.44650829 72:0.62276912 73:0.69243449 74:0.61895245 75:0.26079568 76:0.64620936 77:0.2536284 
1.294410007068656 1:0.656762 2:0.36049756 3:0.512555 4:0.53889698 5:0.32812989 6:0.55447143 7:0.72841352 8:0.33403856 9:0.3279013 10:0.57340926 11:0.7301724 12:0.53941506 13:0.28243065 14:0.28261709 15:0.56320733 16:0.41376305 17:0.63196439 18:0.74178332 19:0.11144027 20:0.57439095 21:0.40672943 22:0.38799858 23:0.55717093 24:0.50430518 25:0.47227493 26:0.58786744 27:0.61185807 28:0.58051181 29:0.68072265 30:0.40320778 31:0.74468076 32:0.59988743 33:0.46484411 34:0.60612309 35:0.52974707 36:0.58122104 37:5.8919808e-16 38:0.72261244 39:0.51406193 40:0.2878589 41:0.31933749 42:0.30968177 43:0.53456169 44:0.56684279 45:0.45507786 46:0.58969027 47:0.48981196 48:0.48130536 49:0.43575412 50:0.42933017 51:0.64145488 52:0.25417301 53:0.47218204 54:0.62501073 55:0.68921506 56:0.39529988 57:0.92481673 58:0.71396679 59:0.37558252 60:0.26169345 61:0.19688854 62:0.28946188 63:0.69413733 64:0.60422486 65:0.53129363 66:0.55585289 67:0.56165189 68:0.40411738 69:0.24629799 70:0.6139468 71:0.60591936 72:0.253277 73:0.53462154 74:0.56712925 75:0.20644152 76:0.62916595 77:0.2991333 
1.367663113256451 1:0.69225508 2:0.2442463 3:0.68843901 4:0.68928844 5:0.29686463 6:0.65993088 7:0.70238262 8:0.37469545 9:0.12844324 10:0.40402561 11:0.62646592 12:0.56268042 13:0.49509388 14:0.22627337 15:0.38603905 16:0.63069302 17:0.60380894 18:0.67163891 19:0.13287261 20:0.67082399 21:0.21666321 22:0.47696012 23:0.46071261 24:0.45548481 25:0.39305428 26:0.50921667 27:0.57358086 28:0.67123133 29:0.68404502 30:0.64288038 31:0.50209254 32:0.64806604 33:0.42473906 34:0.76087421 35:0.64988345 36:0.48932347 37:0.136665 38:0.59395969 39:0.31133392 40:0.24769485 41:0.41771725 42:0.43128589 43:0.50121838 44:0.72308165 45:0.42437935 46:0.62121278 47:0.22612378 48:0.36618495 49:0.4566043 50:0.51690024 51:0.72023696 52:0.21962203 53:0.42254716 54:0.54504955 55:0.62534565 56:0.32634103 57:0.788252 58:0.90465349 59:0.43054312 60:0.39864329 61:0.063739806 62:0.25397366 63:0.76838529 64:0.65292537 65:0.47240645 66:0.64359546 67:0.49059892 68:0.39961016 69:0.11096016 70:0.68949217 71:0.66793835 72:0.29103217 73:0.62984437 74:0.64277023 75:0.16997164 76:0.76712853 77:0.30795556 
0.2080216694653523 1:0.62906086 2:0.50172848 3:0.54255599 4:0.57108772 5:0.46868762 6:0.49560368 7:0.66338581 8:0.24683778 9:0.42318553 10:0.57646006 11:0.41908711 12:0.66351116 13:0.58881801 14:0.42742109 15:0.40105176 16:0.53890496 17:0.60419255 18:0.59920031 19:0.60325146 20:0.53412253 21:0.25712803 22:0.60864723 23:0.3888295 24:0.51476121 25:0.52202499 26:0.69183379 27:0.47637239 28:0.56898582 29:0.55891728 30:0.67869407 31:0.27786061 32:0.41363347 33:0.61036474 34:0.45187187 35:0.37221497 36:0.60303557 37:0.6646992 38:0.58114749 39:0.47760999 40:0.32655367 41:0.58426166 42:0.15787677 43:0.38960683 44:0.6843518 45:0.55126864 46:0.43439916 47:0.49651816 48:0.26521027 49:0.63729382 50:0.39012063 51:0.56307578 52:0.66324192 53:0.53841668 54:0.4941631 55:0.34398776 56:0.35200793 57:0.41571593 58:0.65109873 59:0.6422956 60:0.68507862 61:0.43421951 62:0.93163556 63:0.38868684 64:0.55878705 65:0.28223506 66:0.54058319 67:0.19129208 68:0.37715361 69:0.56231725 70:0.84285724 71:0.72212946 72:0.4523201 73:0.54870367 74:0.15232427 75:0.66649294 76:0.21032193 77:0.17285442 
0.1066791653796075 1:0.5101549 2:0.22484888 3:0.30324396 4:0.65237695 5:0.6900335 6:0.53254086 7:0.5361746 8:0.6255697 9:0.45449436 10:0.705724 11:0.81820875 12:0.42712873 13:0.69510603 14:0.27356562 15:0.3140119 16:0.47641724 17:0.4356674 18:0.45683599 19:0.51652145 20:0.50737947 21:0.32802865 22:0.45776621 23:0.35456911 24:0.52219498 25:0.44621852 26:0.47609764 27:0.21975231 28:0.70698488 29:0.38843572 30:0.6764012 31:0.47015038 32:0.43073019 33:0.57613462 34:0.39719087 35:0.52946216 36:0.566136 37:0.6905089 38:0.23969102 39:0.34503201 40:0.57908922 41:0.54610622 42:0.34539413 43:0.67916012 44:0.59157181 45:0.40368035 46:0.59219593 47:0.36222151 48:0.067494258 49:0.34790298 50:0.35525924 51:0.52954632 52:0.42696768 53:0.30715966 54:0.69997931 55:0.53117013 56:0.34865552 57:0.51002479 58:0.30967745 59:0.36453438 60:0.31855124 61:0.43077135 62:0.91452783 63:0.64544559 64:0.56570661 65:0.32105282 66:0.28836858 67:0.49833292 68:0.5699684 69:0.51648164 70:0.41640386 71:0.56180978 72:0.45559153 73:0.69171333 74:0.087684058 75:0.78930575 76:0.23366527 77:0.13121614 
0.3190420812252963 1:0.22463273 2:0.32250363 3:0.38817593 4:0.90325499 5:0.75326967 6:0.52123737 7:0.2603935 8:0.54376429 9:0.1784102 10:0.48217398 11:0.63467312 12:0.76680994 13:0.33348456 14:0.53595024 15:0.46159562 16:0.59858698 17:0.28571317 18:0.9062447 19:0.75907034 20:0.59354568 21:0.40892711 22:0.58269179 23:0.49812636 24:0.59236807 25:0.54634279 26:0.74213892 27:0.40952423 28:0.51914972 29:0.60022366 30:0.48387989 31:0.41390124 32:0.31421486 33:0.29348591 34:0.42912713 35:0.77575797 36:0.49943927 37:0.67436755 38:0.52092493 39:0.94025522 40:0.42744324 41:0.73869795 42:0.48948887 43:0.7169587 44:0.47669196 45:0.45202091 46:0.41052458 47:0.69000328 48:0.52544409 49:0.71192652 50:0.3336885 51:0.29494265 52:0.3756696 53:0.15844873 54:0.4830521 55:0.63790417 56:0.70527971 57:0.65372556 58:0.54996973 59:0.50930494 60:0.27980745 61:0.24673168 62:0.46521223 63:0.46905005 64:0.7911979 65:0.35521352 66:0.32773891 67:0.30717745 68:0.38130382 69:0.19874385 70:0.81684875 71:0.60799158 72:0.79386091 73:0.74551213 74:0.41370195 75:0.73846889 76:0.56947374 77:0.27710155 
0.3880295934584305 1:0.41225925 2:0.61529207 3:0.63373727 4:0.36817932 5:0.7172116 6:0.35602695 7:0.66058356 8:0.74380654 9:0.3995232 10:0.46282402 11:0.45604336 12:0.69039929 13:0.54586619 14:0.44364327 15:0.60333222 16:0.40147954 17:0.47814488 18:0.54175425 19:0.35037413 20:0.57645559 21:0.36324891 22:0.56768376 23:0.36083815 24:0.48532367 25:0.20975116 26:0.71103954 27:0.36751392 28:0.26047578 29:0.38822481 30:0.44812772 31:0.69806635 32:0.62568814 33:0.5447098 34:0.82595086 35:0.34168023 36:0.23531279 37:0.42063347 38:0.48828515 39:0.4462088 40:0.15353562 41:0.38685498 42:0.33559537 43:0.42461762 44:0.39005247 45:0.27991626 46:0.77182162 47:0.73237211 48:0.49081382 49:0.48176229 50:0.41390866 51:0.55429208 52:0.53596091 53:0.63588262 54:0.45807415 55:0.58023459 56:0.48423684 57:0.74457723 58:0.46392873 59:0.5872097 60:0.56955361 61:0.1129384 62:0.58925718 63:0.30692434 64:0.51302713 65:0.30783543 66:0.44090638 67:0.27411899 68:0.65562147 69:0.36290437 70:0.46259937 71:0.55346102 72:0.58346093 73:0.63139063 74:0.27241534 75:0.86412156 76:0.41083544 77:0.26338032 
2.473860498283581 1:0.61725503 2:0.56890869 3:0.28489444 4:0.47228378 5:0.70699698 6:0.31569278 7:0.46527827 8:0.56512868 9:0.36448058 10:0.75006765 11:0.46278429 12:0.60309708 13:0.56432313 14:0.37918946 15:1 16:0.23420212 17:0.60519105 18:0.69320095 19:0.20362878 20:0.67007184 21:0.42696941 22:0.47454518 23:0.4605642 24:0.41423962 25:0.34929204 26:0.71331018 27:0.58132327 28:0.34064159 29:0.46371067 30:0.1724177 31:0.5543077 32:0.29027697 33:0.25334436 34:0.83417261 35:0.45578569 36:0.32936251 37:0.29359525 38:0.39516047 39:0.33859363 40:0.15723743 41:0.25369322 42:0.34643579 43:0.471605 44:0.52101225 45:0.39415506 46:0.67085242 47:0.95209765 48:0.16681142 49:0.75581229 50:0.55312282 51:0.38026118 52:0.48016775 53:0.57296163 54:0.52985233 55:0.51701164 56:0.53018183 57:0.76480669 58:0.58833754 59:0.54887038 60:0.32982019 61:0.56346989 62:0.66166031 63:4.3020245e-16 64:0.61755317 65:0.36255318 66:0.71035111 67:0.2450148 68:0.62245256 69:0.35504627 70:0.072217859 71:0.48747003 72:0.89741695 73:0.58454269 74:0.46234089 75:0.77143908 76:0.31507483 77:0.35325664 
1.696795820086387 1:0.097614788 2:0.52720565 3:0.41543582 4:0.67067456 5:0.52774453 6:0.45753855 7:0.15016904 8:0.4535656 9:0.40120655 10:0.4092311 11:0.79356277 12:0.69377095 13:0.55868733 14:0.43238375 15:0.17886713 16:0.52104378 17:0.25603378 18:0.53911448 19:0.5989725 20:0.27806553 21:0.39401728 22:0.47390598 23:0.47712979 24:0.66311115 25:0.54938698 26:0.75756246 27:0.29117775 28:0.5990091 29:0.2783232 30:0.40745628 31:0.57886732 32:0.40426558 33:0.63041216 34:0.41374865 35:0.66528404 36:0.46040159 37:0.66838121 38:0.72085094 39:0.67426604 40:0.37375084 41:0.63443416 42:0.34594762 43:0.70993376 44:0.26505929 45:0.4391835 46:0.31191182 47:0.59422374 48:0.45854673 49:0.50792533 50:0.37429705 51:0.40118957 52:0.43288988 53:0.32615137 54:0.34232312 55:0.65352821 56:0.41987965 57:0.81223804 58:0.44446784 59:0.38271752 60:0.36995625 61:0.30301118 62:0.38056406 63:0.82888216 64:0.80336189 65:0.3746821 66:0.15440726 67:0.49253786 68:0.5393284 69:0.46897328 70:0.75559586 71:0.39432347 72:0.52767003 73:0.56741613 74:0.37695286 75:0.80437952 76:0.43248394 77:0.25026473 
0.5930177828692053 1:0.56498545 2:0.6701088 3:0.27746013 4:0.63517994 5:0.55403012 6:0.71638161 7:0.47341517 8:0.54328918 9:0.54260743 10:0.36890829 11:0.64317214 12:0.52483881 13:0.56729072 14:0.47376704 15:0.46412212 16:0.36193481 17:0.31418416 18:0.50802302 19:0.51482999 20:0.23304076 21:0.64458054 22:0.43435329 23:0.52078325 24:0.42408946 25:0.52087188 26:0.53325099 27:0.40054905 28:0.39291632 29:0.30635506 30:0.42107731 31:0.7762168 32:0.19054386 33:0.6609056 34:0.64131242 35:0.67720342 36:0.31549576 37:0.4465239 38:0.59411371 39:0.54083657 40:0.36054519 41:0.45532688 42:0.34152564 43:0.51004785 44:0.23095012 45:0.43952489 46:0.75180048 47:0.56463552 48:0.68476385 49:0.63475323 50:0.4318558 51:0.45819527 52:0.38616699 53:0.56707448 54:0.55578482 55:0.5481931 56:0.52430528 57:0.65880674 58:0.45551428 59:0.74228448 60:0.36574766 61:0.20227249 62:0.24281742 63:0.4204303 64:0.25989237 65:0.22366641 66:0.51086187 67:0.39528465 68:0.54644209 69:0.40799955 70:0.46404108 71:0.42590117 72:0.69420713 73:0.63182998 74:0.26298648 75:1 76:0.44031364 77:0.27371112 
-1.172048806864046 1:0.38810906 2:0.44030994 3:0.48578355 4:0.51929891 5:0.42093533 6:0.67522818 7:0.43837291 8:0.36170676 9:0.31388274 10:0.61921304 11:0.40764019 12:0.4717063 13:0.5931533 14:0.51051676 15:0.28493989 16:0.60606211 17:0.71666789 18:0.52007866 19:0.66899425 20:0.58402139 21:0.42340329 22:0.4777694 23:0.5112291 24:0.9309299 25:0.53492904 26:0.43805048 27:0.83470297 28:0.24084364 29:0.13691497 30:0.5851832 31:0.3879827 32:0.39892519 33:0.41017249 34:0.79357195 35:0.55906355 36:0.47025192 37:0.58388054 38:0.56142288 39:0.25657105 40:0.51610887 41:0.6157158 42:0.42775381 43:0.34928501 44:0.40184087 45:0.49636176 46:0.19665584 47:0.49126357 48:0.34952888 49:0.48961902 50:0.59099829 51:0.50210661 52:0.37076718 53:0.84494108 54:0.67576289 55:0.57917058 56:0.5647648 57:0.48688179 58:0.28571466 59:0.4179669 60:0.38663387 61:0.3323153 62:0.39104205 63:0.61742747 64:0.41053447 65:0.32789525 66:0.17128783 67:0.60128582 68:0.46851367 69:0.20834066 70:0.52597958 71:0.62687081 72:0.2068954 73:0.69187075 74:0.12537324 75:0.39659771 76:0.42865092 77:0.72452343 
-0.439095470483493 1:0.91487718 2:0.62852937 3:0.62417012 4:0.54537135 5:0.48340732 6:0.40616199 7:0.52647793 8:0.5136807 9:0.52007228 10:0.72250265 11:0.49456149 12:0.18399625 13:0.60398382 14:0.2243537 15:0.80769175 16:0.54566091 17:0.38092163 18:0.4949224 19:0.42148644 20:0.30858478 21:0.48765618 22:0.44457576 23:0.45959309 24:0.38085243 25:0.70802402 26:0.63678682 27:0.6172871 28:0.34809783 29:0.41522244 30:0.40180293 31:0.33695024 32:0.40116218 33:0.8782568 34:0.16410471 35:0.54664308 36:0.27972931 37:0.2989586 38:0.50587589 39:0.20978516 40:0.61395043 41:0.53354037 42:0.56480497 43:0.68382847 44:0.53175908 45:0.73051119 46:0.14228192 47:0.34312493 48:0.39483267 49:0.60907722 50:0.23363113 51:0.22104631 52:0.33318344 53:0.59807968 54:0.2167511 55:0.24841021 56:0.35861632 57:0.96709025 58:0.65514845 59:0.64349449 60:0.45792222 61:0.39379326 62:0.50254518 63:0.48170444 64:0.44199935 65:0.46554816 66:0.67953372 67:0.45142931 68:0.46243167 69:0.25021651 70:0.48506007 71:0.43481153 72:0.80979747 73:0.19206454 74:0.51394802 75:0.44099221 76:0.52994168 77:0.8388949 
-0.4832156672035507 1:0.1540104 2:0.43853298 3:0.53444171 4:0.47949636 5:0.52031416 6:0.23660253 7:0.83162642 8:0.59089625 9:0.4614661 10:0.67960751 11:0.43231416 12:0.35917675 13:0.46493983 14:0.20451973 15:0.49748284 16:0.62079197 17:0.5886969 18:0.42810687 19:0.38237676 20:0.83842701 21:0.47337505 22:0.4936758 23:0.63182306 24:0.65521663 25:0.28739107 26:0.59188211 27:0.77123904 28:0.63810807 29:0.53165662 30:0.42586803 31:0.82489669 32:0.75598037 33:0.37075648 34:0.67047882 35:0.7812708 36:0.51328522 37:0.54844403 38:0.29341096 39:0.63671285 40:0.43779641 41:0.44531074 42:0.46387422 43:0.59501493 44:0.24020101 45:0.52415365 46:0.73143548 47:0.48162028 48:0.81472969 49:0.42663777 50:0.31662822 51:0.29752442 52:0.4972434 53:0.35359967 54:0.71868849 55:0.47546598 56:0.60103202 57:0.52414054 58:0.58781022 59:0.59853309 60:0.58163071 61:0.61323082 62:0.58818269 63:0.67746955 64:0.3358669 65:0.32069781 66:0.6303699 67:0.2222389 68:0.45685032 69:0.4044809 70:0.67507905 71:0.35342929 72:0.5366146 73:0.36472839 74:0.27803704 75:0.2124677 76:0.54169381 77:0.82711059 
-8.722825656105869e-05 1:0.5181129 2:0.32522559 3:0.59525603 4:0.43300113 5:0.42942408 6:0.61417812 7:0.37213069 8:0.32788178 9:0.44215742 10:0.44849285 11:0.47486913 12:0.59847993 13:0.73348218 14:0.46560845 15:0.55106592 16:0.65424132 17:0.36111698 18:0.53432232 19:0.89065504 20:0.51068664 21:0.45010516 22:0.50948822 23:0.28616607 24:0.56486166 25:0.81295997 26:0.11400191 27:0.49421844 28:0.51474482 29:0.48484057 30:0.63399565 31:0.54737431 32:0.80569309 33:0.5143562 34:0.60397112 35:0.53366119 36:0.17290978 37:0.63910764 38:0.39422092 39:0.28788263 40:0.61011201 41:0.2493569 42:0.35562971 43:0.4885352 44:0.60779274 45:0.30834663 46:0.42614675 47:0.73907989 48:0.3385556 49:0.41419563 50:0.42985588 51:0.39518043 52:0.67198211 53:0.097149163 54:0.65441358 55:0.50076932 56:0.41650751 57:0.61366421 58:0.13552612 59:0.6894387 60:0.054302916 61:0.28065747 62:0.43472993 63:0.41331702 64:0.4581576 65:0.0056466269 66:0.99433702 67:0.33417615 68:0.29172596 69:0.60842508 70:0.47732273 71:0.058232389 72:0.65281862 73:0.28195101 74:0.33013836 75:0.22397164 76:0.78808981 77:0.82890069 
-1.12290813263877 1:0.86447155 2:0.39695495 3:0.51258379 4:0.1836825 5:0.32418928 6:0.86105907 7:0.41256973 8:0.40172088 9:0.32557008 10:0.62408262 11:0.76278228 12:0.29999653 13:0.50392419 14:0.40328214 15:0.31895825 16:0.47051209 17:0.32508147 18:0.37696579 19:0.43661806 20:0.38966328 21:0.11652967 22:0.75127286 23:0.18896401 24:0.44367829 25:0.23225632 26:0.61271048 27:0.59884852 28:0.53259575 29:0.33457786 30:0.49423879 31:0.53811824 32:0.32759702 33:0.3603732 34:0.76875842 35:0.52368057 36:0.46258181 37:0.44334275 38:0.54730356 39:0.62930393 40:0.1076968 41:0.4380435 42:0.61873186 43:0.65791672 44:0.74335712 45:0.21664535 46:0.47558382 47:0.36852589 48:0.6872223 49:0.36819008 50:0.45189086 51:0.55816191 52:0.61913878 53:0.098232038 54:0.53780413 55:0.39725116 56:0.62504089 57:0.35188109 58:0.21803015 59:0.62691188 60:0.2578207 61:0.32778975 62:0.78597331 63:0.3952952 64:0.50080818 65:0.46562356 66:0.71537191 67:0.72664887 68:0.42232674 69:0.27351376 70:0.49387574 71:0.38999242 72:0.80024648 73:0.45957983 74:0.70279282 75:0.1440559 76:0.55912542 77:0.84564954 
-0.2834167589302526 1:0.5181129 2:0.32522559 3:0.59525603 4:0.43300113 5:0.42942408 6:0.61417812 7:0.37213069 8:0.32788178 9:0.44215742 10:0.44849285 11:0.47486913 12:0.59847993 13:0.73348218 14:0.46560845 15:0.55106592 16:0.65424132 17:0.36111698 18:0.53432232 19:0.89065504 20:0.51068664 21:0.45010516 22:0.50948822 23:0.28616607 24:0.56486166 25:0.81295997 26:0.11400191 27:0.49421844 28:0.51474482 29:0.48484057 30:0.63399565 31:0.54737431 32:0.80569309 33:0.5143562 34:0.60397112 35:0.53366119 36:0.17290978 37:0.63910764 38:0.39422092 39:0.28788263 40:0.61011201 41:0.2493569 42:0.35562971 43:0.4885352 44:0.60779274 45:0.30834663 46:0.42614675 47:0.73907989 48:0.3385556 49:0.41419563 50:0.42985588 51:0.39518043 52:0.67198211 53:0.097149163 54:0.65441358 55:0.50076932 56:0.41650751 57:0.61366421 58:0.13552612 59:0.6894387 60:0.054302916 61:0.28065747 62:0.43472993 63:0.41331702 64:0.4581576 65:0.0056466269 66:0.99433702 67:0.33417615 68:0.29172596 69:0.60842508 70:0.47732273 71:0.058232389 72:0.65281862 73:0.28195101 74:0.33013836 75:0.22397164 76:0.78808981 77:0.82890069 
-1.535567186735081 1:0.58177412 2:0.24226543 3:0.58930904 4:0.46496496 5:0.30102351 6:0.26857752 7:0.47714627 8:0.50182539 9:0.33290967 10:0.48523825 11:0.67021161 12:0.62052619 13:0.61553925 14:0.52514404 15:0.57708138 16:0.51060462 17:0.75099772 18:0.52595466 19:0.54010797 20:0.52417296 21:0.39728478 22:0.30162215 23:0.56706351 24:0.47436538 25:0.50820595 26:0.63956434 27:0.40442997 28:0.7432906 29:0.40417811 30:0.5931282 31:0.38723207 32:0.49368197 33:0.43486747 34:0.34769639 35:0.52258378 36:0.3793782 37:0.36330777 38:0.38502121 39:0.61936063 40:0.55413204 41:0.78177166 42:0.4426285 43:0.3501803 44:0.50458676 45:0.5174309 46:0.63294995 47:0.43107399 48:0.2720677 49:0.37342733 50:0.47019073 51:0.35151759 52:0.29304776 53:0.45692217 54:0.28212684 55:0.44127604 56:0.35079199 57:0.44600534 58:0.41453475 59:0.81092238 60:0.53745812 61:0.32130739 62:0.29071906 63:0.37340972 64:0.48851317 65:0.50543094 66:0.51457602 67:0.37336212 68:0.54951274 69:0.3896147 70:0.3682988 71:0.53249615 72:0.37745789 73:0.67502373 74:0.47497472 75:0.46147379 76:0.72428417 77:0.76715434 
-0.4798881303567419 1:0.43146867 2:0.77994096 3:0.78909749 4:0.55728751 5:0.57729423 6:0.36097938 7:0.46112397 8:0.66774857 9:0.38873363 10:0.53037435 11:0.66030353 12:0.8108874 13:0.29851869 14:0.73283917 15:0.59551412 16:0.34752354 17:0.41948682 18:0.49226645 19:0.57871151 20:0.54116541 21:0.37474975 22:0.40219212 23:0.50473499 24:0.60639471 25:0.60265291 26:0.46602547 27:0.6244505 28:0.74623358 29:0.45430496 30:0.38908246 31:0.51901931 32:0.29594725 33:0.70800197 34:0.53599143 35:0.64588982 36:0.35455692 37:0.38931653 38:0.6373691 39:0.46451676 40:0.87754112 41:0.2404552 42:0.47960633 43:0.60318315 44:0.51826978 45:0.48052695 46:0.76265544 47:0.35540187 48:0.43912446 49:0.17635164 50:0.35425439 51:0.48454481 52:0.45727777 53:0.58066159 54:0.29123154 55:0.49572599 56:0.3274025 57:0.35107943 58:0.57464272 59:0.57568002 60:0.34022978 61:0.3791889 62:0.29097691 63:0.37347969 64:0.63383299 65:0.28311726 66:0.26618344 67:0.38850009 68:0.3809748 69:0.33836916 70:0.28733176 71:0.33126789 72:0.38537517 73:0.35369489 74:0.57786036 75:0.40166911 76:0.72569543 77:0.7362718 
-1.85864392086458 1:0.26484266 2:0.46109051 3:0.62313402 4:0.83536464 5:0.68708593 6:0.7217139 7:0.35494089 8:0.67567676 9:0.46760809 10:0.40235743 11:0.46068192 12:0.64195526 13:0.32823914 14:0.57243872 15:0.62031686 16:0.45562628 17:0.54906738 18:0.30708626 19:0.25362545 20:0.68715572 21:0.63221854 22:0.46640703 23:0.28222764 24:0.38764402 25:0.594769 26:0.5709511 27:0.58427852 28:0.64912355 29:0.41644159 30:0.52362716 31:0.5886488 32:0.26823068 33:0.55735022 34:0.19483824 35:0.6222505 36:0.55408871 37:0.41282806 38:0.52595305 39:0.46315968 40:0.88533765 41:0.28169283 42:0.2975558 43:0.45160037 44:0.36819708 45:0.56514871 46:0.49341291 47:0.36833313 48:0.25578466 49:0.21685319 50:2.1074532e-16 51:0.62696505 52:0.32372397 53:0.73491597 54:0.28795865 55:0.30406454 56:0.46925876 57:0.31125444 58:0.78955448 59:0.70351797 60:0.29302931 61:0.60927027 62:0.49635661 63:0.16028394 64:0.72343814 65:0.22459471 66:0.40401211 67:0.42797136 68:0.36073026 69:0.37814313 70:0.55999047 71:0.59695822 72:0.28845179 73:0.53811502 74:0.43454179 75:0.50263208 76:0.80397791 77:0.62958384 
-0.4408411663405875 1:0.56036204 2:0.50086904 3:0.69440383 4:0.40589377 5:0.52513748 6:0.37319809 7:0.52782154 8:0.34172836 9:0.27721047 10:0.4859058 11:0.66435164 12:0.45563552 13:0.33342618 14:0.38724533 15:0.49185383 16:0.72796613 17:0.49307054 18:0.18175809 19:0.68960196 20:0.72909236 21:0.41566634 22:0.46377257 23:0.41198975 24:0.70657057 25:0.63825512 26:0.90221524 27:0.30827409 28:0.32727903 29:0.2416766 30:0.28748259 31:0.38257238 32:0.079883419 33:0.46387941 34:0.15607727 35:0.64107436 36:0.44019005 37:0.56285089 38:0.53808254 39:0.18381429 40:0.50173777 41:0.54620802 42:0.53974944 43:0.60877037 44:0.75756907 45:0.62290198 46:0.54729605 47:0.44467202 48:0.33389479 49:0.38630256 50:0.45924833 51:0.72519523 52:0.32334822 53:0.27308249 54:0.34501621 55:0.49705067 56:0.20073412 57:0.45617744 58:0.68690073 59:0.47111076 60:0.45567697 61:0.2571452 62:0.50013417 63:0.67435896 64:0.53375721 65:0.55080831 66:0.26711172 67:0.40757915 68:0.28729045 69:0.31591856 70:0.50543594 71:0.5130254 72:0.65234226 73:0.67854047 74:0.60386455 75:0.5836041 76:0.70928502 77:0.8272205 
-1.760729513913472 1:0.34177819 2:0.15275323 3:0.34576094 4:0.16534789 5:0.89593172 6:0.2815465 7:0.27067634 8:0.92833704 9:0.2047385 10:0.69336224 11:0.55954176 12:0.92568696 13:0.4293361 14:0.28144982 15:0.52965361 16:0.59723008 17:0.4532595 18:0.14138205 19:0.59199613 20:0.78691709 21:0.44285476 22:0.71136206 23:0.18213625 24:0.23042206 25:0.25100088 26:0.18215215 27:0.014172911 28:1 29:0.49486262 30:0.47699639 31:0.17894569 32:0.68881619 33:0.84180969 34:0.42317823 35:0.81166589 36:0.15881608 37:0.85572082 38:0.6525147 39:0.57665586 40:0.49530709 41:0.45990577 42:0 43:6.5726522e-16 44:0.43693236 45:0.41179723 46:0.55537176 47:0.21123002 48:0.4163388 49:0.36339623 50:1 51:0.3234767 52:0.52151036 53:0.77723718 54:0.46358716 55:0.19733685 56:0.40549034 57:0.66648275 58:0.35511038 59:0.43345073 60:0.64394116 61:0.51535904 62:0.41179532 63:0.36867628 64:0.93958497 65:0.46890393 66:0.65890986 67:0.46637645 68:0.61539954 69:0.5041154 70:0.19990651 71:0.33327311 72:0.84823287 73:0.59152329 74:0.49526477 75:0.43524945 76:0.47138196 77:0.64362764 
-1.643108806003166 1:0.46938813 2:0.59375668 3:0.56455749 4:0.41933 5:0.64385414 6:0.20456135 7:0.80389154 8:0.22815208 9:0.29074723 10:0.515728 11:0.50573176 12:0.52691233 13:0.55297667 14:0.31214631 15:0.22645816 16:0.56560898 17:0.5535059 18:0.34394741 19:0.18345386 20:0.61177278 21:0.62495369 22:0.22198786 23:0.32875475 24:0.54600829 25:0.50747037 26:0.57611215 27:0.62545991 28:0.32973078 29:0.53467542 30:0.11433934 31:0.61846894 32:0.35067916 33:0.27531862 34:0.26738155 35:0.49157748 36:0.69278097 37:0.41289216 38:0.65153158 39:0.39939296 40:0.53564817 41:0.83551592 42:0.32535288 43:0.66995972 44:0.33591983 45:0.59576005 46:0.61109722 47:0.42469814 48:0.5443787 49:0.32829332 50:0.55723709 51:0.55799043 52:0.33921525 53:0.46455866 54:0.39663985 55:0.71389079 56:0.66448998 57:0.68479997 58:0.72262889 59:0.51492178 60:0.16960514 61:0.26898313 62:0.71939957 63:0.6448983 64:0.54911923 65:0.44206381 66:0.56906575 67:0.46110818 68:0.33357698 69:0.32064667 70:0.36085755 71:0.58500618 72:0.69691896 73:0.56657726 74:0.86404103 75:0.60990703 76:0.53034967 77:0.82157898 
-1.195433578134483 1:0.43321756 2:0.36217067 3:0.5716145 4:0.29585126 5:0.57981306 6:0.30989569 7:0.52660388 8:0.30750969 9:0.32598746 10:0.72369826 11:0.64906293 12:0.88459712 13:0.45891342 14:0.22321305 15:0.50067818 16:0.28505376 17:0.55185187 18:0.25415331 19:0.59996754 20:0.61111134 21:0.3405664 22:0.4977738 23:0.35584995 24:0.54015523 25:0.23904258 26:0.51131099 27:0.37638497 28:0.32022861 29:8.9412586e-16 30:0.23342173 31:0.42236269 32:0.31086129 33:0.43198255 34:0.53703421 35:0.62972945 36:0.64355999 37:0.49379432 38:0.34575191 39:0.31577799 40:0.8040728 41:0.51805478 42:0.34035847 43:0.2155803 44:0.61704695 45:0.51295644 46:0.42774722 47:0.77701664 48:0.69740713 49:0.33419362 50:0.54455256 51:0.55600733 52:0.38185927 53:0.60697758 54:0.47208589 55:0.43044317 56:0.65719301 57:0.39369315 58:0.48281309 59:0.25515205 60:0.36706877 61:0.22206551 62:0.85438299 63:0.67547441 64:0.62549973 65:0.69653171 66:0.48428962 67:0.80814832 68:0.65821171 69:0.49422425 70:0.507195 71:0.48103338 72:0.51633072 73:0.60291374 74:0.54859221 75:0.41145426 76:0.3582733 77:0.79459554 
-1.204714530663235 1:0.30952951 2:0.32002571 3:0.77769899 4:0.89095771 5:0.76625454 6:0.42093176 7:0.63345003 8:0.43622342 9:0.35567397 10:0.35995558 11:0.39146334 12:0.54123777 13:0.61369473 14:0.4647941 15:0.42501971 16:0.57818902 17:0.43711707 18:0.19998953 19:0.32116109 20:0.68471068 21:0.333303 22:0.56930566 23:0.41123468 24:0.53101736 25:0.68904537 26:0.32149899 27:0.4933944 28:0.54985273 29:0.19865507 30:0.56479895 31:0.43408045 32:0.43066847 33:0.47729895 34:0.75930214 35:0.47265315 36:0.63453913 37:0.58043045 38:0.44565341 39:0.48645163 40:0.47250995 41:0.56430763 42:0.37900445 43:0.47174817 44:0.53987795 45:0.57558876 46:0.47150132 47:0.38444784 48:0.60575247 49:0.65513062 50:0.61484456 51:0.25752264 52:0.45316023 53:0.37969014 54:0.66425449 55:0.54002064 56:0.211869 57:0.64806646 58:0.62210667 59:0.83660829 60:0.36425403 61:0.40243432 62:0.5135479 63:0.64079922 64:0.55089945 65:0.40974459 66:0.56949967 67:0.16649814 68:0.29793629 69:0.2714262 70:0.48458856 71:0.69464093 72:0.45246977 73:0.8089214 74:0.63542455 75:0.47871351 76:0.58056396 77:0.79500544 
-0.05025220879155314 1:0.39445126 2:0.76246917 3:0.60547101 4:0.66929412 5:0.57252401 6:0.6998595 7:0.52848375 8:0.49999118 9:0.36396557 10:0.52602273 11:0.39756465 12:0.6106289 13:0.59940618 14:0.49627128 15:0.24824093 16:0.43797755 17:0.47475222 18:0.50383365 19:0.32959321 20:0.62220788 21:0.46906352 22:0.40503985 23:0.59961343 24:0.6841718 25:0.36985976 26:0.51721257 27:0.4397231 28:0.31264368 29:0.54732764 30:0.41170493 31:0.6786105 32:0.67861772 33:0.64104593 34:0.80716932 35:0.57896167 36:0.80899876 37:0.58375454 38:0.51784891 39:0.30679089 40:0.81116807 41:0.37231451 42:0.39248824 43:0.52848101 44:0.52170861 45:0.48443693 46:0.36569536 47:0.71421081 48:0.6726653 49:0.087232165 50:0.51419818 51:0.46634167 52:0.47221431 53:0.58005351 54:0.46964589 55:0.51617908 56:0.49707773 57:0.442424 58:0.54550278 59:0.44577298 60:0.36639106 61:0.34379143 62:0.69290829 63:0.48893595 64:0.45467567 65:0.49635306 66:0.38970169 67:0.42291498 68:0.34821999 69:0.39294225 70:0.42281553 71:0.65487719 72:0.70900387 73:0.63176095 74:0.65941668 75:0.59556013 76:0.53639901 77:0.80223346 
-0.5492458361927984 1:0.37916687 2:0.5854125 3:0.3898986 4:0.58704126 5:0.58923292 6:0.42667729 7:0.47726935 8:0.58745164 9:0.44625586 10:0.64731735 11:0.6615501 12:0.50456774 13:0.61203301 14:0.45764908 15:0.2047631 16:0.4722712 17:0.60112101 18:0.35390574 19:0.92774647 20:0.49140376 21:0.44576743 22:0.33350205 23:0.62292176 24:0.49361405 25:0.4493508 26:0.47485033 27:0.52390581 28:0.40019539 29:0.24449115 30:0.49167961 31:0.45383072 32:0.49996838 33:0.25277531 34:0.47638524 35:0.62339467 36:0.90340757 37:0.48670951 38:0.33263925 39:0.41001096 40:0.46914321 41:0.38067839 42:0.28419802 43:0.38334614 44:0.43277359 45:0.55872369 46:0.28762892 47:0.4187094 48:0.42324331 49:0.59245563 50:0.49406409 51:0.74634731 52:0.26084128 53:0.77466357 54:0.42807198 55:0.73923248 56:0.4086909 57:0.52675307 58:0.46505153 59:0.59947425 60:0.31515837 61:0.37087178 62:0.35643542 63:0.51251221 64:0.21608043 65:0.76747185 66:0.68545538 67:0.28459886 68:0.54344296 69:0.34087804 70:0.5020225 71:0.42625299 72:0.31932163 73:0.31368217 74:0.25821361 75:0.59690732 76:0.55868673 77:0.80338961 
-0.4577232720818139 1:0.47413364 2:0.45702544 3:0.39667386 4:0.65995342 5:0.25431678 6:0.6897372 7:0.66016728 8:0.36957166 9:0.47715744 10:0.50875252 11:0.4621675 12:0.66825777 13:0.46630761 14:0.16153593 15:0.40655047 16:0.76433676 17:0.35834852 18:0.35580018 19:0.6174019 20:0.40367576 21:0.30005419 22:0.53569996 23:0.3296091 24:0.63346595 25:0.45638877 26:0.37388366 27:0.58358335 28:0.59002793 29:0.47682446 30:0.34956518 31:0.60947359 32:0.56442881 33:0.21335426 34:0.84687138 35:0.37575766 36:0.43724811 37:0.59464514 38:0.4884097 39:0.56440002 40:0.44697592 41:0.58871746 42:0.38628539 43:0.6348089 44:0.58091944 45:0.6337356 46:0.57279259 47:0.26931551 48:0.33388394 49:0.63982612 50:0.28992867 51:0.56115729 52:0.55846268 53:0.064777546 54:0.21304208 55:0.2233571 56:0.21713473 57:0.60163385 58:0.66928566 59:0.55033034 60:0.68558013 61:0.41592371 62:0.27502996 63:0.56828624 64:0.54681653 65:0.46811131 66:0.2701157 67:0.23057185 68:0.57414752 69:0.3522023 70:0.30438465 71:0.58333468 72:0.54083741 73:0.38674101 74:0.58283705 75:0.59976262 76:0.67630309 77:0.80580711 
-0.1354095761909838 1:0.28050882 2:0.42900732 3:0.45051405 4:0.46382073 5:0.37064421 6:0.61299998 7:0.62105834 8:0.29803437 9:0.6330111 10:0.5634383 11:0.56177586 12:0.52414125 13:0.47602049 14:0.29378688 15:0.23300497 16:0.10143493 17:0.27615657 18:0.27810127 19:0.21061562 20:0.58601326 21:0.37756151 22:0.38596186 23:0.39011779 24:0.60705316 25:0.2030056 26:0.20898764 27:0.79641622 28:0.31117421 29:0.49704424 30:0.31877762 31:0.68828565 32:0.63353974 33:0.63574785 34:0.96697628 35:0.55311918 36:0.57418108 37:0.54339498 38:0.46293953 39:0.61648339 40:0.48168886 41:0.57449919 42:0.082135744 43:0.58838844 44:0.71474928 45:0.5188098 46:0.54756087 47:0.46681118 48:0.48550746 49:0.35699674 50:0.42532739 51:0.38261628 52:0.50470394 53:0.28781483 54:0.18615663 55:0.15046166 56:0.089775488 57:0.54580563 58:0.36534482 59:0.53216708 60:0.70734549 61:0.32309335 62:0.66713816 63:0.61010504 64:0.68808353 65:0.5645107 66:0.3163203 67:0.34966505 68:0.3967135 69:0.38107553 70:0.32715136 71:0.5026592 72:0.56125814 73:0.63499135 74:0.74694246 75:0.51903564 76:0.77748686 77:0.8093425 
-1.401524387022554 1:0.60077173 2:0.35475069 3:0.62961149 4:0.2949782 5:0.48259896 6:0.93425322 7:1 8:0.6359455 9:0.52207917 10:0.45729914 11:0.56613249 12:0.50731558 13:0.45092013 14:0.38663223 15:0.57934666 16:0.37569243 17:0.20844476 18:0.47728825 19:0.51915056 20:0.41481924 21:1 22:0.82916582 23:0.27827388 24:0.67964518 25:0.41814011 26:0.783925 27:0.48285028 28:0.78608465 29:1 30:0.4898465 31:0.56349629 32:0.4450067 33:0.46317637 34:0.73899603 35:0.32711664 36:0.45120889 37:0.59179097 38:0.57761413 39:0.52763963 40:0.54045588 41:0.26328003 42:0.32407403 43:0.61924547 44:0.95299852 45:0.33108458 46:0.58521563 47:0.24829261 48:0.5598523 49:0.53740442 50:0.75322318 51:0 52:0.60391718 53:0.4376061 54:0.4870702 55:0.67548269 56:0.66760808 57:0.70254982 58:0.42099777 59:0.57459056 60:0.32576597 61:1 62:0.42724851 63:0.62648296 64:0.87212461 65:0.37806383 66:0.66377485 67:0.23949346 68:1.2889265e-15 69:0.046049252 70:0.60420465 71:0.81658798 72:0.37736923 73:0.4454506 74:0.41355503 75:0.67298234 76:0.55557048 77:0.67440259 
-3.745085483756826 1:0.47577474 2:0.22025873 3:0.89210969 4:0.19947721 5:0.43667698 6:0.52311915 7:0.69214708 8:0.49474362 9:0.4404608 10:0.46737182 11:0.45506537 12:0.60856742 13:0.60752535 14:0.41555443 15:0.28565606 16:0.52230024 17:0.40217501 18:0.50388992 19:0.43160608 20:0.50113994 21:0.51652402 22:0.45903981 23:0.33292943 24:0.54662395 25:0.32097289 26:0.50954711 27:0.43954021 28:0.54087031 29:0.48083845 30:0.28142583 31:0.2788811 32:0.68134397 33:0.3903822 34:0.61084139 35:0.25364462 36:0.83327132 37:0.5755291 38:0.71876061 39:0.63453424 40:0.52388179 41:0.46273118 42:0.35912549 43:0.48934901 44:0.62804604 45:0.68757099 46:0.64608186 47:0.61066639 48:0.46984658 49:0.71847266 50:0.62532598 51:0.43496534 52:0.56958926 53:0.13806409 54:0.69282877 55:0.8662107 56:0.62333637 57:0.53607047 58:0.68596017 59:0.4529902 60:0.33523133 61:0.30764809 62:0.71152186 63:0.43273064 64:0.68267536 65:0.27779886 66:0.46407676 67:0.40806681 68:0.53136975 69:0.44799697 70:0.79876584 71:0.56858104 72:0.46615595 73:0.46039113 74:0.34569594 75:0.3953369 76:0.19896527 77:0.69592273 
-0.324742218495412 1:0.63016206 2:0.42879266 3:0.44424036 4:0.62799168 5:0.64123142 6:0.9306494 7:0.84794217 8:0.79449528 9:0.35256982 10:0.50299561 11:0.47341681 12:0.68463767 13:0.61823094 14:0.44079709 15:0.33430618 16:0.44818619 17:0.24648924 18:0.51946145 19:0.94711304 20:0.21542402 21:0.44192013 22:0.67837417 23:0.36621028 24:0.74018615 25:0.48946628 26:0.8507244 27:0.29318377 28:0.37777165 29:0.46611542 30:0.36394817 31:0.34389815 32:0.50718129 33:0.33870238 34:0.39247286 35:0.47029123 36:0.60270983 37:0.70523173 38:0.75976735 39:0.3256366 40:0.62566209 41:0.51780927 42:0.063581459 43:0.57791263 44:0.64587545 45:0.55396533 46:0.6473785 47:0.44196829 48:0.51990646 49:0.34624913 50:0.62227362 51:0.13180552 52:0.39808646 53:0.38610372 54:0.64651972 55:0.82319564 56:0.4681896 57:0.53048807 58:0.77348608 59:0.34457147 60:0.3734912 61:0.38970688 62:0.32890376 63:0.74148071 64:0.4658857 65:0.368826 66:0.6154713 67:0.32635698 68:0.49238282 69:0.2615692 70:0.7419737 71:0.80156469 72:0.41351071 73:0.46777931 74:0.3937878 75:0.47687629 76:0.44943061 77:0.79324442 
-0.3056505567506016 1:0.31432405 2:0.51907057 3:0.33036119 4:0.48415947 5:0.78166544 6:0.43248054 7:0.5017221 8:0.24947315 9:0.16007371 10:0.33359638 11:0.58387864 12:0.70139879 13:0.42812771 14:0.39091858 15:0.20327047 16:0.6661334 17:0.43547863 18:0.27392003 19:0.78118461 20:0.61858946 21:0.40322638 22:0.56118149 23:0.20098248 24:0.69865566 25:0.094111674 26:0.45412502 27:0.34809068 28:0.53720754 29:0.5443157 30:0.7107861 31:0.53623843 32:0.52328032 33:0.78149182 34:0.55673742 35:0.40360147 36:0.64616454 37:0.60640192 38:0.61541808 39:0.55925041 40:0.81167579 41:0.61572641 42:0.48081851 43:0.48397815 44:0.79426241 45:0.44665465 46:0.62530571 47:0.39219302 48:0.65181726 49:0.26756427 50:0.63026482 51:0.53093517 52:0.55700421 53:0.28546435 54:0.34957439 55:0.4266611 56:0.36927471 57:0.59297425 58:0.28956035 59:0.46007034 60:0.5280295 61:0.4050332 62:0.72295016 63:0.4307369 64:0.55563313 65:0.7204147 66:0.31485215 67:0.25989184 68:0.22914073 69:0.18593247 70:0.42073783 71:0.46025044 72:0.45314476 73:0.6856178 74:0.5517866 75:0.63726681 76:0.93775839 77:0.74419302 
-2.910861542682741 1:0.50007868 2:0.52167708 3:0.56177264 4:0.53577054 5:0.64957625 6:0.19695263 7:0.39110282 8:0.43846861 9:0.45344451 10:0.34082565 11:0.48632702 12:0.48082328 13:0.41725418 14:0.6097998 15:0.51636887 16:0.60960245 17:0.47108501 18:0.45677125 19:0.65845716 20:0.44908407 21:0.30071807 22:0.52714092 23:0.7274664 24:0.48424798 25:0.43648985 26:0.47632599 27:0.51849848 28:0.68330264 29:0.56988579 30:0.58856845 31:0.62430227 32:0.45180026 33:0.53669977 34:0.73677903 35:0.30061319 36:0.71026856 37:0.78948981 38:0.34372202 39:0.44489041 40:0.37349927 41:1 42:0.22171712 43:0.1970613 44:0.60160601 45:0.29494804 46:0.66362703 47:0.51798689 48:0.27578303 49:0.41658866 50:0.22468843 51:0.64916122 52:0.51862192 53:0.73963881 54:0.56660408 55:0.43319151 56:0.20473549 57:0.43408832 58:0.82796699 59:0.67039675 60:0.56114548 61:0.45064825 62:0.50832266 63:0.54814494 64:0.56165224 65:0.74696082 66:0.295012 67:0.31829143 68:0.5090887 69:0.353275 70:0.21107826 71:0.36991534 72:0.47639912 73:0.51204145 74:0.59450209 75:0.58270305 76:0.52821767 77:0.76194775 
-0.1948971839035448 1:0.28078774 2:0.34244779 3:0.64184588 4:0.40749046 5:0.5805521 6:0.84008497 7:0.33021492 8:0.77498549 9:0.53129721 10:0.54095829 11:0.70433968 12:0.19805887 13:0.43793586 14:0.38308892 15:0.55098552 16:0.74806821 17:0.55547738 18:0.57016695 19:0.40164357 20:0.61075288 21:0.231039 22:0.22443177 23:0.4240995 24:0.64270633 25:0.33888248 26:0.3422907 27:0.23893049 28:0.59799296 29:0.23885728 30:0.41456866 31:0.19347444 32:0.50380987 33:0.38482556 34:0.43532062 35:0.59316897 36:0.33382094 37:0.11625251 38:0.69414711 39:0.72572696 40:0.4309293 41:0.57893914 42:0.18945885 43:0.64011109 44:0.62828141 45:0.70958984 46:0.55212778 47:0.67301118 48:0.60875285 49:0.021834785 50:0.45548719 51:0.32019722 52:0.38308081 53:0.37955546 54:0.89640105 55:0.60036749 56:0.32874 57:0.424683 58:0.43899608 59:0.6102286 60:0.66853702 61:0.34290358 62:0.44987872 63:0.56560063 64:0.65712041 65:0.64818174 66:0.56825531 67:0.42312723 68:0.63320112 69:0.43561584 70:0.57950562 71:0.62888229 72:0.5937885 73:0.44852474 74:0.52387375 75:0.59451765 76:0.53970152 77:0.81642103 
-1.647987439442594 1:0.70295393 2:0.49526611 3:0.58995652 4:0.3561759 5:0.52466172 6:0.24295579 7:0.48487327 8:0.43128654 9:0.3530235 10:0.36735961 11:0.46974254 12:0.28935438 13:0.59231168 14:0.42871329 15:0.46046376 16:0.45125484 17:0.35830894 18:0.67256939 19:0.5333848 20:0.47568882 21:0.44459942 22:0.62017798 23:0.43376338 24:0.56891328 25:0.42323571 26:0.47473925 27:0.33404544 28:0.43332893 29:0.24460462 30:0.34727126 31:0.40138859 32:0.51521164 33:0.46160662 34:0.22259872 35:0.56623113 36:0.58858925 37:0.66412365 38:0.42762333 39:0.4255105 40:0.38822335 41:0.53911078 42:0.42108446 43:0.27744523 44:0.56790137 45:0.56536061 46:0.57174009 47:0.69123763 48:0.53187758 49:0.89011806 50:0.41091046 51:0.60989016 52:0.58334059 53:0.52189648 54:0.50034392 55:0.49289444 56:0.48443794 57:0.65553528 58:0.53861868 59:0.44933724 60:0.62289327 61:0.27675021 62:0.55172658 63:0.85363632 64:0.51280701 65:0.40601197 66:0.35869175 67:0.47304302 68:0.30775076 69:0.26189044 70:0.37436214 71:0.5779413 72:0.66021144 73:0.69654161 74:0.64890248 75:0.544384 76:0.75289714 77:0.80592996 
-0.002300554077389193 1:0.32265902 2:0.48712444 3:0.65724021 4:0.51009297 5:0.64048719 6:0.68525642 7:0.65440387 8:0.48934102 9:0.49062237 10:0.39569145 11:0.67650551 12:0.40269613 13:0.71972764 14:0.55311692 15:0.42473406 16:0.68632758 17:0.38616142 18:0.42381608 19:0.58694649 20:0.22553305 21:0.5204106 22:0.61694998 23:0.67889458 24:0.53530294 25:0.29166803 26:0.42886668 27:0.40148005 28:0.40297005 29:0.46527177 30:0.32413182 31:0.46336767 32:0.25363716 33:0.12702282 34:0.50675386 35:0.36758849 36:0.36256966 37:0.63500047 38:0.64458203 39:0.52444106 40:0.58732307 41:0.61579341 42:0.23043238 43:0.5721882 44:0.53908914 45:0.25611183 46:0.47381276 47:0.49999881 48:0.53537881 49:0.64343011 50:0.3210614 51:0.69242918 52:0.64548391 53:0.70188618 54:0.78616637 55:0.79000443 56:0.20478386 57:0.64649159 58:0.96842909 59:0.44031063 60:0.42875731 61:0.16426417 62:0.47458544 63:0.32647756 64:0.47869503 65:0.45540401 66:0.24877556 67:0.34178111 68:0.3137528 69:0.23493738 70:0.47078174 71:0.35579774 72:0.62327898 73:0.41883478 74:0.62119853 75:0.59627455 76:0.55466908 77:0.79921091 
-0.3053435866139099 1:0.61573529 2:0.6265679 3:0.83174455 4:0.54449695 5:0.33581865 6:0.20357466 7:0.49634206 8:0.43564424 9:0.27783883 10:0.49527818 11:0.45892027 12:0.50944841 13:0.63089997 14:0.52305794 15:0.39447328 16:0.39972368 17:0.51483679 18:0.30510691 19:0.53833497 20:0.72725564 21:0.45235378 22:0.70549196 23:0.64313972 24:0.68517637 25:0.33784908 26:0.52523607 27:0.53686911 28:0.3837913 29:0.60911232 30:0.37564775 31:0.7046808 32:0.4410975 33:0.44368312 34:0.68504018 35:0.62448221 36:0.45460713 37:0.72187728 38:0.6697588 39:0.65492088 40:0.48925921 41:0.27986577 42:0.35625088 43:0.75084418 44:0.40322876 45:0.65980303 46:0.4625943 47:0.51479238 48:0.30103633 49:0.57788175 50:0.50481039 51:0.51611102 52:0.30202141 53:0.92191732 54:0.57090652 55:0.35492039 56:0.37487346 57:0.65813053 58:0.68029296 59:0.61939681 60:0.18012726 61:0.38323927 62:0.68791479 63:0.42174482 64:0.74953324 65:0.7604335 66:0.59716266 67:0.31054419 68:0.40509555 69:0.3777757 70:0.50520849 71:0.3255139 72:0.28160423 73:0.87725151 74:0.48377457 75:0.39912608 76:0.73499793 77:0.78418398 
-0.5878120623226171 1:0.34214693 2:0.097984113 3:0.49191585 4:0.5473845 5:0.72780234 6:0.22541246 7:0.42404237 8:0.36958683 9:0.26752189 10:0.52996266 11:0.47372782 12:0.67081463 13:0.54833621 14:0.50991321 15:0.70678359 16:0.15916158 17:0.41876683 18:0.56237668 19:0.68887705 20:0.53786588 21:0.42844611 22:0.42343462 23:0.36883417 24:0.32642111 25:0.33288822 26:0.74993664 27:0.57450515 28:0.086904444 29:0.31322455 30:0.49577034 31:0.66804564 32:0.47322387 33:0.69443846 34:0.45770442 35:0.35813123 36:0.61377496 37:0.50235212 38:0.36303934 39:0.4287411 40:0.82060719 41:0.70195931 42:0.55845082 43:0.66687292 44:0.35640723 45:0.557423 46:0.55513114 47:0.21122666 48:0.26549289 49:0.14350604 50:0.57733953 51:0.56089389 52:0.49117669 53:0.50115579 54:0.51108551 55:0.31557593 56:0.51961994 57:0.59071678 58:0.47229379 59:0.70511848 60:0.84442538 61:0.44742158 62:0.51798415 63:0.38117516 64:0.66744936 65:0.68000245 66:0.5956021 67:0.31948438 68:0.41418031 69:0.5178147 70:0.6576336 71:0.48770967 72:0.43338111 73:0.49797601 74:0.59652466 75:0.70930266 76:0.67233306 77:0.84960163 
-1.223808171583682 1:0.43288994 2:0.21358892 3:0.56941676 4:0.42678419 5:0.32764152 6:0.64530295 7:0.43912455 8:0.38673481 9:0.47218952 10:0.65807885 11:0.49598584 12:0.83072984 13:0.43991932 14:0.41815409 15:0.60975027 16:0.64513642 17:0.57081354 18:0.48623425 19:0.46710983 20:0.64753854 21:0.37093261 22:0.66045928 23:0.48097375 24:0.52383095 25:0.40987849 26:0.82331771 27:0.60239905 28:0.36138758 29:0.51825285 30:0.64470845 31:0.66318202 32:0.55138958 33:0.3306838 34:0.67735928 35:0.46903697 36:0.25759515 37:0.70294923 38:0.59903795 39:0.36159414 40:0.69491768 41:0.57271457 42:0.53461248 43:0.50439209 44:0.70641083 45:0.32270864 46:0.67680651 47:0.53271103 48:0.58371973 49:0.50121713 50:0.55985552 51:0.34918255 52:0.25983167 53:0.25268415 54:0.35424346 55:0.80825788 56:0.49695617 57:0.67633665 58:0.73583066 59:0.51877153 60:0.42267507 61:0.28200153 62:0.5510214 63:0.80692363 64:0.59688997 65:0.46985418 66:0.54915649 67:0.40942001 68:0.41202232 69:0.61581337 70:0.51279515 71:0.76229197 72:0.71743751 73:0.41745299 74:0.54054302 75:0.62460941 76:0.65318334 77:0.87826449 
-1.69334884226101 1:0.54588425 2:0.73246664 3:0.48337084 4:0.34465027 5:0.56648558 6:0.42504802 7:0.29800716 8:0.29477319 9:0.22647844 10:0.4597587 11:0.70192933 12:0.50563771 13:0.53066224 14:0.40170789 15:0.34153408 16:0.47866619 17:0.45141572 18:0.85589296 19:0.49416444 20:0.57413608 21:0.5576722 22:0.35273618 23:0.31154966 24:0.56541413 25:0.56959909 26:0.55610108 27:0.43835157 28:0.34445432 29:0.5143984 30:0.55793858 31:0.60314375 32:0.71485555 33:0.3420096 34:0.58824474 35:0.46586448 36:0.63068372 37:0.72089368 38:0.88206851 39:0.08722616 40:0.39005962 41:0.74327385 42:0.49244618 43:0.16044365 44:0.63393432 45:0.56892174 46:0.786623 47:0.66964459 48:0.55491585 49:0.70740974 50:0.59370917 51:0.44197389 52:0.29883823 53:0.62050432 54:0.53417498 55:0.59316564 56:0.369344 57:0.77395535 58:0.65774536 59:0.78310061 60:0.66978675 61:0.45347786 62:0.4726043 63:0.70540357 64:0.24557762 65:0.46463457 66:0.61682695 67:0.35346332 68:0.38163781 69:0.559663 70:0.42641672 71:0.91116107 72:0.63219458 73:0.64644343 74:0.58889621 75:0.57461977 76:0.77438027 77:0.8692528 
-0.03051612450975968 1:0.48898184 2:0.59465671 3:0.60403037 4:0.58261669 5:0.72425288 6:0.30117932 7:0.46882036 8:0.79164046 9:0.38427046 10:0.52333063 11:0.41397208 12:0.58878386 13:0.40078583 14:0.70739883 15:0.39025578 16:0.34232518 17:0.4552784 18:0.379141 19:0.49047506 20:0.43585408 21:0.52472496 22:0.55357957 23:0.50705963 24:0.55873132 25:0.54455858 26:0.48450875 27:0.56339717 28:0.49725494 29:0.46897241 30:0.68702501 31:0.53257918 32:0.67871302 33:0.63895243 34:0.43072811 35:0.55342597 36:0.2569313 37:0.44045517 38:0.66422254 39:0.091125399 40:0.5597899 41:0.56690216 42:0.45896047 43:0.62199551 44:0.22878797 45:0.41837248 46:0.5097357 47:0.47223651 48:0.23889032 49:0.20459493 50:0.50646198 51:0.48740536 52:0.11171824 53:0.7945267 54:0.42656907 55:0.19813015 56:0.50708288 57:0.2858088 58:0.55818301 59:0.60705894 60:0.51608455 61:0.49089965 62:0.81537986 63:0.67025733 64:0.42123231 65:0.605084 66:0.68600512 67:0.48616263 68:0.44544172 69:0.40965304 70:0.69550389 71:0.74613267 72:0.70071334 73:0.71557182 74:0.72142959 75:0.56830418 76:0.64818722 77:0.83033723 
-0.01555104634018858 1:0.5856871 2:0.33152092 3:0.67508191 4:0.52237201 5:0.76436746 6:0.42675442 7:0.39730853 8:0.69300711 9:0.40546572 10:0.51308453 11:0.32416084 12:0.53838724 13:0.39680228 14:0.68462682 15:0.56501377 16:0.35129026 17:0.39936835 18:0.34044516 19:0.48587805 20:0.56001008 21:0.8632136 22:0.40672117 23:0.55543137 24:0.47306284 25:0.42744854 26:0.48552302 27:0.41928262 28:0.47232112 29:0.61425984 30:0.53269231 31:0.54660237 32:0.41906485 33:0.63346034 34:0.58258194 35:0.45878267 36:0.51497489 37:0.5171566 38:0.44732296 39:0.24217947 40:0.79236674 41:0.5969336 42:0.16273099 43:0.56290197 44:0.61638033 45:0.60150087 46:0.41071877 47:0.35726699 48:0.23846693 49:0.73667622 50:0.58187014 51:0.76561052 52:0.47972953 53:0.74495304 54:0.50489718 55:0.49149212 56:0.38743269 57:0.48211324 58:0.60192609 59:0.86282933 60:0.052964658 61:0.21123993 62:0.8045246 63:0.17975011 64:0.87453324 65:0.39371511 66:0.45790705 67:0.15921286 68:0.2579267 69:0.3650142 70:0.67668271 71:0.38013411 72:1.4101961e-15 73:0.73510313 74:0.42994735 75:0.47333005 76:0.77408516 77:0.75423902 
-1.675526653954205 1:0.69172084 2:0.45853731 3:0.88084406 4:0.36506575 5:0.51637101 6:0.71219808 7:0.55790716 8:0.29269263 9:0.33308423 10:0.37389389 11:0.12656331 12:0.24882792 13:0.29848719 14:0.23967093 15:0.6932134 16:0.76387113 17:0.27277669 18:0.5535146 19:0.59202802 20:0.34566021 21:0.11635128 22:0.54580367 23:0.30432943 24:0.51324785 25:0.10424334 26:0.43285578 27:0.4718599 28:0.54479343 29:0.019628715 30:0.4449729 31:0.32534263 32:0.45098364 33:0.62905794 34:0.8452099 35:0.61500072 36:0.49548692 37:0.7089172 38:0.12404432 39:0.54545373 40:0.5467664 41:0.44169542 42:0.55285227 43:0.58268064 44:0.55960929 45:0.34528929 46:0.864124 47:0.53420758 48:0.70724928 49:0.50979 50:0.35283911 51:0.63682783 52:0.56490171 53:0.33450362 54:0.48106742 55:0.30606285 56:0.74239641 57:0.30509317 58:0.55804539 59:0.76871258 60:0.76853848 61:0.24425504 62:0.65379059 63:0.89496106 64:0.45802361 65:0.25233465 66:0.40542424 67:0.4397164 68:0.4884052 69:0.31896999 70:0.4603458 71:0.27204266 72:0.74614847 73:0.5957182 74:0.6295864 75:0.34248897 76:0.7338779 77:0.80953449 
-2.275288935258205 1:0.74434763 2:0.47209957 3:0.57236141 4:0.12985812 5:0.66735083 6:0.44167641 7:0.44144365 8:0.15230466 9:0.36141959 10:0.29490817 11:0.4900448 12:0.45536253 13:0.57912475 14:0.36680779 15:0.18978179 16:0.47737807 17:0.34013313 18:0.46209991 19:0.59251744 20:0.43118593 21:0.47923258 22:0.15129828 23:0.45413509 24:0.12769389 25:0.37486246 26:0.85697806 27:0.22850215 28:0.39077443 29:0.74585569 30:0.70577663 31:0.60939938 32:0.41291523 33:0.67073148 34:0.57216483 35:0.48188025 36:0.5369243 37:0.53017277 38:0.60407567 39:0.3996926 40:0.32506362 41:0.54051 42:0.37704191 43:0.69095701 44:0.46462032 45:0.39551967 46:0.14567617 47:0.5949288 48:0.63705009 49:0.81807929 50:0.2552914 51:0.41886514 52:0.64345741 53:0.49091655 54:0.55777204 55:0.72558832 56:0.47906116 57:0.49317712 58:0.23360494 59:0.29251066 60:0.67670071 61:0.50272149 62:0.33297145 63:0.62556231 64:0.20017976 65:0.18672509 66:0.32259634 67:0.44943437 68:0.84037292 69:0.29096156 70:0.2821559 71:0.81155866 72:0.47461817 73:0.96852958 74:0.53687513 75:0.22656249 76:0.71345544 77:0.77126199 
-1.322318055357619 1:0.44596842 2:0.53749853 3:3.8139556e-16 4:0.48396835 5:0.7589227 6:0.74386448 7:0.7024591 8:0.28258047 9:0.44996306 10:0.65086317 11:0.14621469 12:0.29292858 13:0.46693403 14:0.40219942 15:0.48185098 16:0.44521731 17:0.45122445 18:0.79106307 19:0.53246814 20:0.12012336 21:0.50846726 22:0.3632929 23:0.39192289 24:0.62600547 25:0.47109181 26:0.62043905 27:0.59641445 28:0.77762872 29:0.3934297 30:0.52960241 31:0.6178326 32:0.44669577 33:0.49175617 34:0.91068554 35:0.49952036 36:0.37215281 37:0.6130957 38:0.49245679 39:0.47608596 40:0.46335766 41:0.47807449 42:0.70604914 43:0.72164476 44:0.40360683 45:0.53700942 46:0.66481823 47:0.75572079 48:0.23600385 49:0.5637269 50:0.43365875 51:0.52343178 52:0.54318047 53:0.20342754 54:0.42051435 55:0.42549965 56:0.81001139 57:0.38368583 58:0.57644349 59:0.63825196 60:0.50261492 61:0.27654186 62:0.59912813 63:0.88315994 64:0.56461257 65:0.22552463 66:0.4109081 67:0.33646673 68:0.40860632 69:0.36408055 70:0.39165908 71:0.38950434 72:0.45447394 73:0.89080894 74:0.48410678 75:0.39124456 76:0.7905243 77:0.79588294 
