svm_type c_svc
kernel_type rbf
gamma 0.09
nr_class 4
total_sv 774
rho -0.41355 0.603458 0.706704 1.10279 0.991011 -0.337942
label 30 61 62 63
probA -5.30918 -6.08724 -6.21889 -5.38748 -5.58373 -4.25065
probB -0.165232 0.146508 -0.111074 0.00233872 -0.0611291 -0.337702
nr_sv 154 39 225 356
SV
0.5435773794705009 0 0 1:0.47076002 2:0.77460831 3:0.41115853 4:0.52875316 5:0.39264673 6:0.340523 7:0.42667007 8:0.42659736 9:0.38549909 10:0.60690701 11:0.029159408 12:0.62668079 13:0.41904086 14:0.51478285 15:0.33845156 16:0.4925442 17:0.63397515 18:0.65563446 19:0.58438098 20:0.48145494 21:0.43306121 22:0.49641851 23:0.52654248 24:0.3479315 25:0.56049854 26:0.5981375 27:0.66180426 28:0.56916475 29:0.24310912 30:0.60213029 31:0.62975472 32:0.5670014 33:0.44421756 34:0.34289062 35:0.47180969 36:0.39303899 37:0.67692572 38:0.16851658 39:0.5592953 40:0.3810364 41:0.4335804 42:0.63423461 43:0.39348793 44:0.47187632 45:0.5403077 46:0.68457544 47:0.42321992 48:0.58012342 49:0.5191251 50:0.51774412 51:0.51244682 52:0.54667687 53:0.61424857 54:0.59006518 55:0.59632021 56:0.40504643 57:0.41844517 58:0.56621355 59:0.12412389 60:0.63614792 61:0.31402931 62:0.36021441 63:0.57439578 64:0.62719363 65:0.41745982 66:0.47157457 67:0.46429694 68:0.60870337 69:0.65574509 70:0.46593466 71:0.59445387 72:0.46381354 73:0.37207916 74:0.44356483 75:0.36495999 76:0.73575431 77:0.38129467 78:0.45974836 79:0.54265887 80:0.39376631 81:0.66070831 82:0.59702718 83:0.46685061 84:0.60004163 85:0.54364246 86:0.57800645 87:0.21072999 88:0.73935932 89:0.57339412 90:0.41786137 91:0.60067362 92:0.47715291 93:0.54522926 94:0.43427062 95:0.64752001 96:0.1057897 97:0.37954873 98:0.5050863 99:0.48352346 100:0.24110106 101:0.4814311 102:0.46378958 103:0.50833899 104:0.35580829 105:0.37175298 106:0.76547003 107:0.092688076 108:0.54148793 109:0.46972951 110:0.59924763 111:0.53116035 112:0.49157724 113:0.48745522 114:0.40112281 115:0.53571266 116:0.1755197 117:0.66691667 118:0.54056197 119:0.42054656 120:0.62534606 121:0.66303933 122:0.36966133 123:0.3894783 124:0.42526123 125:0.34837237 126:0.72661793 127:0.64459312 128:0.57231373 129:0.60238665 130:0.9309023 
0.06192042832900332 0 0 1:0.63122314 2:0.32621798 3:0.49441418 4:0.65144831 5:0.28416672 6:0.67170525 7:0.53774506 8:0.66556835 9:0.67659265 10:0.4503338 11:0.22232403 12:0.53137851 13:0.26687214 14:0.36018121 15:0.59050483 16:0.53815925 17:0.44554451 18:0.39406973 19:0.55183274 20:0.33855814 21:0.53626263 22:0.20885541 23:0.48575631 24:0.46556461 25:0.52588201 26:0.58831763 27:0.32482517 28:0.56698024 29:0.55188704 30:0.31561977 31:0.53272176 32:0.42952701 33:0.61127037 34:0.26088583 35:0.47450083 36:0.56665897 37:0.65780091 38:0.56762207 39:0.51080823 40:0.4798775 41:0.58562791 42:0.68243819 43:0.65878677 44:0.46934366 45:0.60195464 46:0.60386783 47:0.40221217 48:0.54723418 49:0.63315874 50:0.28799233 51:0.46040764 52:0.53387225 53:0.4338924 54:0.36156827 55:0.57877731 56:0.48137033 57:0.35910961 58:0.62395179 59:0.58742601 60:0.52450633 61:0.42895523 62:0.40164015 63:0.52747226 64:0.66697216 65:0.38336617 66:0.64834064 67:0.55212462 68:0.65870219 69:0.61349571 70:0.59018785 71:0.5394122 72:0.42732939 73:0.60619003 74:0.62590265 75:0.42913771 76:0.35666269 77:0.55947471 78:0.47102895 79:0.44295961 80:0.25055191 81:0.69802183 82:0.4111014 83:0.53664076 84:0.39165482 85:0.36044443 86:0.48788333 87:0.43466365 88:0.65111279 89:0.56388819 90:0.30770281 91:0.54875308 92:0.69763255 93:0.48728728 94:0.69916314 95:0.4108789 96:0.43966788 97:0.32364371 98:0.31288341 99:0.45008028 100:0.34188029 101:0.64449835 102:0.34113443 103:0.25341639 104:0.45292711 105:0.58940005 106:0.57631135 107:0.60951483 108:0.57036567 109:0.44996628 110:0.60517734 111:0.70225382 112:0.60069633 113:0.52783602 114:0.80945367 115:0.55144686 116:0.44301572 117:0.49668577 118:0.45553613 119:0.44433156 120:0.501647 121:0.56516987 122:0.5572291 123:0.23117729 124:0.58765227 125:0.24791154 126:0.76292217 127:0.68846846 128:0.75640994 129:0.71547514 130:0.67201763 
0 1.116272340630318 1.360911974214137 1:0.43180576 2:0.46572807 3:0.24635291 4:0.56734699 5:0.33692646 6:0.41813356 7:0.54079717 8:0.59798855 9:0.49150419 10:0.67591667 11:0.25693128 12:0.57091749 13:0.5098998 14:0.43799597 15:0.83797026 16:0.39296168 17:0.51008666 18:0.27054802 19:0.3824656 20:0.42173606 21:0.58352882 22:0.2799803 23:0.54124397 24:0.28080472 25:0.52062887 26:0.40790534 27:0.41524157 28:0.2575281 29:0.47263455 30:0.47149637 31:0.71277761 32:0.53758365 33:0.58324134 34:0.27831689 35:0.583996 36:0.72416651 37:0.73167092 38:0.62183225 39:0.30654678 40:0.61671233 41:0.42943859 42:0.50039375 43:0.56826556 44:0.338783 45:0.57669151 46:0.3569369 47:0.59439439 48:0.40737465 49:0.84959453 50:0.54267573 51:0.52504355 52:0.52727449 53:0.39583215 54:0.62439799 55:0.68544 56:0.47913656 57:0.2371365 58:0.62815583 59:0.62319225 60:0.34512874 61:0.6315605 62:0.67574656 63:0.66306144 64:0.34269994 65:0.23831131 66:0.52544177 67:0.47184873 68:0.58148217 69:0.40605086 70:0.43325579 71:0.55293655 72:0.60851681 73:0.53353435 74:0.54790062 75:0.57189095 76:0.41629395 77:0.49215087 78:0.39863163 79:0.42971691 80:0.64206481 81:0.33090308 82:0.44016457 83:0.32168245 84:0.79932064 85:0.49953687 86:0.2959871 87:0.42509305 88:0.61501324 89:0.76382601 90:0.4498252 91:0.78388411 92:0.67292893 93:0.30976319 94:0.28487599 95:0.47304547 96:0.54110211 97:0.26158604 98:0.57694352 99:0.37694043 100:0.54213464 101:0.64925772 102:0.41700879 103:0.32780242 104:0.45932192 105:0.51556635 106:0.46094766 107:0.58786076 108:0.65221053 109:0.29009771 110:0.61226189 111:0.77267957 112:0.80857593 113:0.56113774 114:0.89625275 115:0.51540208 116:0.5494433 117:0.44986409 118:0.47205916 119:0.40118948 120:0.3756806 121:0.56924766 122:0.31966326 123:0.59829283 124:0.671157 125:0.2154375 126:0.83035278 127:0.66336471 128:0.93376881 129:0.73577523 130:0.62541211 
0.7077099839571168 2.920393280532328 2.832363377072885 1:0.37245858 2:0.72688961 3:0.45730129 4:0.56972408 5:0.40008697 6:0.47489989 7:0.6810025 8:0.3651118 9:0.42720675 10:0.58841187 11:0.50938261 12:0.81941277 13:0.32008478 14:0.47464487 15:0.85030347 16:0.4330371 17:0.65050256 18:0.6280545 19:0.46115389 20:0.49630046 21:0.52778405 22:0.22606547 23:0.67051661 24:0.33216044 25:0.45068434 26:0.81186545 27:0.48628721 28:0.57749701 29:0.72916293 30:0.34877649 31:0.54975003 32:0.50186324 33:0.43557027 34:0.40480158 35:0.57590771 36:0.49227223 37:0.59660608 38:2.066951e-16 39:0.52218729 40:0.37718198 41:0.69611204 42:0.40683815 43:0.44395018 44:0.53290486 45:0.59131795 46:0.52998835 47:0.42714712 48:0.69374835 49:0.64166391 50:0.45882937 51:0.59298855 52:0.57343984 53:0.40689507 54:0.21003041 55:0.53592891 56:0.5725435 57:0.37213781 58:0.50759649 59:0.66828364 60:0.52916497 61:0.5001114 62:0.45440775 63:0.52235222 64:0.61564273 65:0.51861137 66:0.38184747 67:0.28357226 68:0.57078058 69:0.48404983 70:0.73555285 71:0.41861865 72:0.52828008 73:0.64890355 74:0.53003174 75:0.67840761 76:0.40110254 77:0.70106572 78:0.62539095 79:0.28103316 80:0.32805091 81:0.45229685 82:0.4830035 83:0.52236789 84:0.35193446 85:0.48522338 86:0.56967622 87:0.32807797 88:0.57944119 89:0.6013239 90:0.61584646 91:0.50869882 92:0.62246585 93:0.37896407 94:0.479532 95:0.31812063 96:0.61288154 97:0.32477793 98:0.4986448 99:0.29074863 100:0.40077364 101:0.3242994 102:0.41509819 103:0.46405295 104:0.45170063 105:0.60871297 106:0.53975773 107:0.53015864 108:0.9862166 109:0.71271068 110:0.6720559 111:0.69110745 112:0.26570088 113:0.46200058 114:0.55502456 115:0.72308975 116:0.42073342 117:0.7111342 118:0.64087093 119:0.62927377 120:0.57500547 121:0.92433947 122:0.4140583 123:0.25193107 124:0.53855431 125:0.28790584 126:0.53960544 127:0.36524495 128:0.49130735 129:0.70420194 130:0.63530499 
0 0 1.072223086924097 1:0.66142261 2:0.54251367 3:0.53921437 4:0.41563919 5:0.58414793 6:0.54113859 7:0.64795113 8:0.62964141 9:0.59619814 10:0.3113924 11:0.46794462 12:0.49911425 13:0.49838531 14:0.28779963 15:0.38753837 16:0.42492202 17:0.60252672 18:0.33480358 19:0.47823423 20:0.54269391 21:0.47943389 22:0.35955024 23:0.52881444 24:0.40329313 25:0.5895775 26:0.52263796 27:0.42668289 28:0.77397424 29:0.39053217 30:0.54004318 31:0.53983092 32:0.5415256 33:0.56083697 34:0.3965019 35:0.43300033 36:0.55844164 37:0.55423975 38:0.35688773 39:0.88483077 40:0.57095402 41:0.51154697 42:0.81882423 43:0.44381392 44:0.56739575 45:0.6230036 46:0.51706558 47:0.51320237 48:0.51265162 49:0.6523971 50:0.39801967 51:0.44952321 52:0.49989852 53:0.5661822 54:0.43939605 55:0.5570699 56:0.28594065 57:0.35619369 58:0.27308884 59:0.51045036 60:0.47469521 61:0.21403888 62:0.42689756 63:0.66595602 64:0.43591574 65:0.58410501 66:0.5622173 67:0.36683527 68:0.47652659 69:0.41828847 70:0.5951432 71:0.55771756 72:0.7434957 73:0.39562485 74:0.6387825 75:0.23462906 76:0.47682524 77:0.69859964 78:0.46127206 79:0.32749951 80:0.53831846 81:0.23724581 82:0.54298925 83:0.53903097 84:0.23315816 85:0.63696045 86:0.35711396 87:0.54631257 88:0.30803904 89:0.6077435 90:0.46853736 91:0.5902912 92:0.53028631 93:0.67278165 94:0.39020997 95:0.30666178 96:0.36544314 97:0.56005877 98:0.52624917 99:0.52209753 100:0.39118144 101:0.73292279 102:0.38130948 103:0.67259634 104:0.51596272 105:0.62186027 106:0.48989803 107:0.49309096 108:0.70066112 109:0.67472786 110:0.73672616 111:0.55683064 112:0.34674266 113:0.63657063 114:0.47004023 115:0.2860879 116:0.44276375 117:0.45784351 118:0.66376102 119:0.70835412 120:0.66098148 121:0.4689258 122:0.77148581 123:0.49820355 124:0.42733523 125:0.33258957 126:0.73443907 127:0.59468424 128:0.65842158 129:0.57186794 130:0.84416735 
0 0 0.2596230065883884 1:0.44192514 2:0.6480518 3:0.53100336 4:0.88099384 5:0.39966935 6:0.52209699 7:0.55518258 8:0.63430989 9:0.62090027 10:0.52100861 11:0.80373365 12:0.52261728 13:0.58040452 14:0.48327923 15:0.69896829 16:0.55450034 17:0.52513331 18:0.50248176 19:0.38174468 20:0.39020696 21:0.33413777 22:0.26215392 23:0.30863601 24:0.41629708 25:0.6559459 26:0.52014726 27:0.44523025 28:0.48027703 29:0.82263047 30:0.20833859 31:0.68761218 32:0.57778347 33:0.48464772 34:0.35706091 35:0.52026945 36:0.53559649 37:0.7200259 38:0.50411236 39:0.45035571 40:0.4963496 41:0.43189985 42:0.49319822 43:0.45508057 44:0.56019694 45:0.43188146 46:0.43082207 47:0.60720944 48:0.39687541 49:0.50819743 50:0.47690788 51:0.42781508 52:0.41088456 53:0.39689955 54:0.61172116 55:0.42817187 56:0.40278295 57:0.35031676 58:0.34487647 59:0.48248836 60:0.25339609 61:0.53290713 62:0.391938 63:0.57574773 64:0.66372699 65:0.31698877 66:0.40850961 67:0.54226303 68:0.56154495 69:0.36314601 70:0.42258811 71:0.49543563 72:0.53021026 73:0.57491648 74:0.73588836 75:0.42867786 76:0.54325509 77:0.62946802 78:0.43533477 79:0.31343925 80:0.49395233 81:0.64674538 82:0.57110345 83:0.62404084 84:0.36056393 85:0.50899583 86:0.3610833 87:0.37027982 88:0.71359688 89:0.68841237 90:0.32740989 91:0.37039629 92:0.38086617 93:0.59578633 94:0.44927663 95:0.78052235 96:0.088994868 97:0.71374786 98:0.7081598 99:0.63370556 100:0.44176477 101:0.67108995 102:0.56164396 103:0.56713438 104:0.56914991 105:0.56018543 106:0.64120179 107:0.19562259 108:0.64896226 109:0.73919743 110:0.87349272 111:0.33618775 112:0.50371873 113:0.48840037 114:0.44467485 115:0.42759988 116:0.24120557 117:0.71006632 118:0.37898397 119:0.32150844 120:0.46123558 121:0.70437253 122:0.37610313 123:0.49193391 124:0.54050791 125:0.46414468 126:0.65324515 127:0.55327421 128:0.56422514 129:0.51178688 130:0.86290544 
0 0.9597327782930305 0 1:0.28855094 2:0.1840789 3:0.40599605 4:0.66217709 5:0.35508531 6:0.61300993 7:0.74349368 8:0.43079364 9:0.30537093 10:0.7191323 11:0.51375997 12:0.59768909 13:0.39439759 14:0.59122324 15:0.56529266 16:0.57622248 17:0.38173798 18:0.59929681 19:0.47617614 20:0.63503873 21:0.4737218 22:0.52745169 23:0.21371129 24:0.26768282 25:0.63716936 26:0.69301999 27:0.52166092 28:0.49912441 29:0.64247346 30:0.40793493 31:0.68397903 32:0.44789323 33:0.53521812 34:0.49101263 35:0.56568176 36:0.57640135 37:0.66078258 38:0.43927422 39:0.40163302 40:0.47888935 41:0.35810927 42:0.51084632 43:0.42554823 44:0.84178013 45:0.43963191 46:0.51555425 47:0.3887001 48:0.49597454 49:0.57625401 50:0.45441428 51:0.56059068 52:0.55944294 53:0.39697871 54:0.39570123 55:0.6138472 56:0.39985922 57:0.45461822 58:0.54520196 59:0.30794099 60:0.48769644 61:0.40261665 62:0.51119351 63:0.73112559 64:0.63114595 65:0.46782339 66:0.61480731 67:0.51788306 68:0.44507447 69:0.56660223 70:0.48863712 71:0.82322621 72:0.50968361 73:0.52122194 74:0.5751074 75:0.34179354 76:0.65726089 77:0.46786487 78:0.27527049 79:0.34706444 80:0.17740458 81:0.58793199 82:0.6010527 83:0.42646331 84:0.2898075 85:0.49270892 86:0.2737385 87:0.33853638 88:0.63268811 89:0.69287837 90:0.48393682 91:0.37487802 92:0.49309587 93:0.64216775 94:0.72755206 95:0.58170909 96:0.30142719 97:0.32308766 98:0.60131532 99:0.49198011 100:0.60327715 101:0.49222574 102:0.2860257 103:0.22029345 104:0.5208692 105:0.49945939 106:0.73652518 107:0.45472533 108:0.39820388 109:0.31715152 110:0.73247081 111:0.50150168 112:0.7123875 113:0.66422248 114:0.63809729 115:0.69605124 116:0.31982297 117:0.57320333 118:0.55873853 119:0.51249802 120:0.6153537 121:0.48120067 122:0.20841034 123:0.72210747 124:0.71086067 125:0.54369527 126:0.45406368 127:0.68668401 128:0.7278558 129:0.78239685 130:0.74592274 
0.6057253630904322 0.04890747667537777 2.926832346244532 1:0.45104143 2:0.51268649 3:0.57311869 4:0.58743846 5:0.2893433 6:0.47178778 7:0.56527382 8:0.51759058 9:0.77222991 10:0.56808591 11:0.6070056 12:0.64678413 13:0.55289143 14:0.35753676 15:0.61686152 16:0.55804056 17:0.69880778 18:0.78473324 19:0.52239394 20:0.2755627 21:0.41840371 22:0.4572396 23:0.45400608 24:0.33140996 25:0.37913701 26:0.53156209 27:0.42321244 28:0.58633918 29:0.39208493 30:0.28710929 31:0.44368014 32:0.62420356 33:0.18800919 34:0.38541728 35:0.51174682 36:0.71860403 37:0.61043638 38:0.31297937 39:0.60346317 40:0.44993427 41:0.51565039 42:0.41913909 43:0.37869892 44:0.4973473 45:0.47756386 46:0.76618701 47:0.55872244 48:0.58413374 49:0.64621627 50:0.68522495 51:0.59708095 52:0.65446573 53:0.54269546 54:0.37230104 55:0.65814084 56:0.52408123 57:0.29072466 58:0.59144247 59:0.54313034 60:0.56579262 61:0.61896116 62:0.38413963 63:0.61637682 64:0.46515125 65:0.58638799 66:0.56910479 67:0.29186341 68:0.54414439 69:0.40729269 70:0.56386882 71:0.56794775 72:0.22327426 73:0.42547676 74:0.77847582 75:0.31079152 76:0.6651842 77:0.64341652 78:0.58915311 79:0.25950199 80:0.22534303 81:0.23480976 82:0.53221273 83:0.47307897 84:0.44348949 85:0.52515012 86:0.48494706 87:0.46674314 88:0.72444463 89:0.60866255 90:0.45781684 91:0.39320534 92:0.66885185 93:0.55002981 94:0.60417408 95:0.70355767 96:0.44900537 97:0.69639176 98:0.43949613 99:0.75263852 100:0.63903373 101:0.50835484 102:0.28036952 103:0.51817757 104:0.50347167 105:0.26988825 106:0.6368854 107:0.44584978 108:0.64350849 109:0.69017082 110:0.7419911 111:0.38348994 112:0.58891648 113:0.58439857 114:0.58858144 115:0.41114837 116:0.80979842 117:0.38127106 118:0.59475958 119:0.78837669 120:0.38867232 121:0.75605696 122:0.46401566 123:0.59764194 124:0.51886249 125:0.604123 126:0.30664033 127:0.033701655 128:0.45687106 129:0.38285401 130:0.68540722 
0 0.9221939370601888 0.7313524742033862 1:0.47634557 2:0.37269673 3:0.52519709 4:0.70165747 5:0.4282563 6:0.65498942 7:0.45987669 8:0.84091932 9:0.49825853 10:0.70923972 11:0.49761102 12:0.66090971 13:0.3654004 14:0.49125141 15:0.61403948 16:0.54078388 17:0.4040879 18:0.7478258 19:0.511186 20:0.75330925 21:0.67896241 22:0.56374121 23:0.37331542 24:0.39213568 25:0.46111175 26:0.44019648 27:0.79885644 28:0.40775269 29:0.59704643 30:0.34826407 31:0.47398159 32:0.37346679 33:0.51804405 34:0.39908832 35:0.6355902 36:0.64040107 37:0.60498184 38:0.47484776 39:0.48466665 40:0.41045636 41:0.56543267 42:0.62855512 43:0.60982329 44:0.75343901 45:0.3462249 46:0.50657851 47:0.53873867 48:0.54681247 49:0.57821316 50:0.41207835 51:0.40588722 52:0.44172201 53:0.51974726 54:0.29837647 55:0.57418776 56:0.21374205 57:0.33360979 58:0.40187746 59:0.26362574 60:0.41247591 61:0.38296518 62:0.52088624 63:0.76442188 64:0.77580512 65:0.64365268 66:0.50266975 67:0.57556611 68:0.77263421 69:0.52270383 70:0.49754718 71:0.69670367 72:0.59597105 73:0.66078866 74:0.86094552 75:0.18293872 76:0.68636423 77:0.68304271 78:0.42367971 79:0.41121066 80:0.31297794 81:0.42610133 82:0.36753336 83:0.42845067 84:0.36987934 85:0.56509298 86:0.36997929 87:0.64792955 88:0.49452627 89:0.53262782 90:0.33403736 91:0.45197564 92:0.41665947 93:0.59280574 94:0.63269347 95:0.27473739 96:0.26039505 97:0.51609439 98:0.70284331 99:0.56947953 100:0.46440831 101:0.81203663 102:0.48087066 103:0.59603733 104:0.55567342 105:0.61577457 106:0.54088026 107:0.43857995 108:0.67943698 109:0.34482169 110:0.75418365 111:0.53759623 112:0.24150629 113:0.47067159 114:0.46776661 115:0.57692993 116:0.45638317 117:0.41487357 118:0.56651676 119:0.33645102 120:0.51648128 121:0.6020239 122:0.35007092 123:0.72673726 124:0.65216917 125:0.50764275 126:0.5826543 127:0.60854959 128:0.65978396 129:0.73280478 130:0.81153625 
0.9973473292532462 4.746243864918069 6.932823759253628 1:0.30786556 2:0.62428284 3:0.94104153 4:0.51662683 5:0.64641982 6:0.24244474 7:0.6461733 8:0.5632081 9:0.55149329 10:0.5533523 11:0.44846296 12:0.60702658 13:0.49321738 14:0.39267981 15:0.67262369 16:0.42604694 17:0.54237717 18:0.62798315 19:0.4935877 20:0.22271354 21:0.48512968 22:0.6994049 23:0.54658556 24:0.20867774 25:0.55408651 26:0.3557393 27:0.63122851 28:0.43657538 29:0.48854563 30:0.22686261 31:0.59952253 32:0.61554259 33:0.80519521 34:0.57396185 35:0.54499781 36:0.56259775 37:0.54224759 38:0.60720998 39:0.66266996 40:0.092291944 41:0.58022356 42:0.44256017 43:0.50604415 44:0.49470198 45:0.20542373 46:0.47431111 47:0.4276911 48:0.50916207 49:0.26228037 50:0.84905744 51:0.59296548 52:0.46773466 53:0.51434588 54:0.64621967 55:0.5637514 56:0.62332487 57:0.34850079 58:0.47601882 59:0.87794495 60:0.58698791 61:0.41263425 62:0.35943192 63:0.48702216 64:0.77581882 65:0.67664498 66:0.54077679 67:0.16346413 68:0.62119401 69:0.51749986 70:0.5536086 71:0.45970792 72:0.50717318 73:0.5790562 74:0.54940116 75:0.19747223 76:0.60401577 77:0.46806949 78:0.44758505 79:0.27883723 80:0.81784034 81:0.52588779 82:0.58203846 83:0.49478987 84:0.48267803 85:0.3795329 86:0.58020592 87:0.23213106 88:0.54039019 89:0.7320323 90:0.43140444 91:0.69440025 92:0.35430482 93:0.53766745 94:0.60231143 95:0.45073223 96:0.47843441 97:0.45912778 98:0.51228809 99:0.29969594 100:0.58873641 101:0.64480537 102:0.50515562 103:0.31259441 104:0.63067365 105:0.57753462 106:0.77934611 107:0.46943063 108:0.33298779 109:0.44697484 110:0.63861507 111:0.46222058 112:0.63775134 113:0.72066724 114:0.52740657 115:0.58216083 116:0.39021173 117:0.40067312 118:0.33826387 119:0.66477501 120:0.45149207 121:0.61203974 122:0.53589815 123:0.54042941 124:0.64630097 125:0.51414329 126:0.80907851 127:0.25662243 128:0.81971473 129:0.62212992 130:0.32445407 
0 1.029133043376476 2.251597812337678 1:0.59604943 2:0.71006668 3:0.37963888 4:0.43851268 5:0.67782366 6:0.37244821 7:0.57392925 8:0.49324489 9:0.49133003 10:0.48728114 11:0.26169902 12:0.54196477 13:0.38743883 14:0.48056987 15:0.73948729 16:0.55995756 17:0.44368482 18:0.50203443 19:0.42110839 20:0.71230656 21:0.43088526 22:0.35075897 23:0.45586103 24:0.45440236 25:0.41776749 26:0.63947666 27:0.58481127 28:0.5165661 29:0.66064841 30:0.38802233 31:0.44494474 32:0.72108513 33:0.47034541 34:0.3144179 35:0.54528517 36:0.4128007 37:0.66211975 38:0.51060742 39:0.57063186 40:0.43412843 41:0.53816944 42:0.59458917 43:0.51928586 44:0.58833253 45:0.30611578 46:0.7201165 47:0.057003237 48:0.37644604 49:0.45552847 50:0.45203173 51:0.45667261 52:0.48773763 53:0.63237923 54:0.48500484 55:0.69825071 56:0.66685277 57:0.471187 58:0.6448282 59:0.35991871 60:0.52539533 61:0.5011462 62:0.45788661 63:0.58033979 64:0.63675845 65:0.66966981 66:0.54482841 67:0.68001783 68:0.52152473 69:0.45557302 70:0.60763043 71:0.6427843 72:0.25848168 73:0.68023032 74:0.3896893 75:0.40716296 76:0.23377101 77:0.49110335 78:0.52657318 79:0.35396266 80:0.54142761 81:0.50638682 82:0.41931185 83:0.50114113 84:0.26266912 85:0.53231186 86:0.23994075 87:0.57583076 88:0.61155641 89:0.79791045 90:0.57157767 91:0.49432072 92:0.37285551 93:0.69296908 94:0.55199325 95:0.66746044 96:0.32700491 97:0.73948455 98:0.41120425 99:0.64256245 100:0.5067085 101:0.62496233 102:0.39008555 103:0.36690456 104:0.58905542 105:0.40378529 106:0.44819555 107:0.35611567 108:0.42913905 109:0.40909323 110:0.55908316 111:0.6382091 112:0.75575364 113:0.4952448 114:0.57549292 115:0.24321334 116:0.52878231 117:0.44247895 118:0.49185482 119:0.50541151 120:0.52459139 121:0.56945193 122:0.28856209 123:0.56952649 124:0.60708326 125:0.27549392 126:0.53552043 127:0.26762253 128:0.45389029 129:0.54124159 130:0.75477338 
0 0.4624251731042167 0.8508654856562857 1:0.52541363 2:0.43862033 3:0.54052132 4:0.59948009 5:0.5442366 6:0.50249875 7:0.22194947 8:0.42723081 9:0.65783489 10:0.5675711 11:0.31770179 12:0.56277645 13:0.5997436 14:0.43577939 15:0.67231613 16:0.68603039 17:0.5332889 18:0.49582914 19:0.37649521 20:0.6523841 21:0.26718763 22:0.3271873 23:0.67045921 24:0.41009367 25:0.44161144 26:0.445299 27:0.48597303 28:0.5431692 29:0.25485745 30:0.36512586 31:0.51863742 32:0.38076776 33:0.51741856 34:0.32483986 35:0.56125206 36:0.60989803 37:0.32524329 38:0.47408614 39:0.40211758 40:0.83825326 41:0.5815798 42:0.31189042 43:0.4173947 44:0.48729193 45:0.67765242 46:0.73197526 47:0.44736701 48:0.44786486 49:0.54747921 50:0.61355102 51:0.43864256 52:0.37885404 53:0.50538433 54:0.69445384 55:0.51410991 56:0.56246728 57:0.31089079 58:0.60944587 59:0.51524687 60:0.55462074 61:0.28901821 62:0.41045064 63:0.60623682 64:0.48190427 65:0.48044324 66:0.59049797 67:0.4765287 68:0.72535396 69:0.61807269 70:0.53226131 71:0.55142212 72:0.48661724 73:0.41916773 74:0.66964442 75:0.62710279 76:0.59679765 77:0.41146737 78:0.49631035 79:0.38676104 80:0.51649177 81:0.31358138 82:0.33473602 83:0.50003576 84:0.39269516 85:0.81168294 86:0.52164394 87:0.29155311 88:0.35016388 89:0.58746701 90:0.37904567 91:0.50271606 92:0.78423083 93:0.28184953 94:0.32595333 95:0.71764117 96:0.4659057 97:0.59998006 98:0.49176559 99:0.60889989 100:0.57026488 101:0.56130099 102:0.48172712 103:0.28096613 104:0.84089863 105:0.48725694 106:0.47677827 107:0.29155511 108:0.55834985 109:0.80633903 110:0.36396798 111:0.54564744 112:0.28547707 113:0.3669928 114:0.50134224 115:0.35983112 116:0.24588953 117:0.6803425 118:0.46986818 119:0.56965005 120:0.79896396 121:0.77127314 122:0.50223905 123:0.33889851 124:0.52844268 125:0.47307879 126:0.56803894 127:0.28202924 128:0.58978367 129:0.55065113 130:0.70685697 
0 0 0.4971875764754956 1:0.28167495 2:0.52125019 3:0.57486027 4:0.70753622 5:0.42994457 6:0.4616465 7:0.44955045 8:0.33904359 9:0.30537146 10:0.38263166 11:0.54950798 12:0.51997823 13:0.55512285 14:0.53796571 15:0.36596501 16:0.3724207 17:0.24835463 18:0.33668533 19:0.35167405 20:0.73120576 21:0.54217219 22:0.46129289 23:0.54783416 24:0.52202564 25:0.58784974 26:0.51746839 27:0.37819737 28:0.44360706 29:0.3660036 30:0.58499235 31:0.50703621 32:0.48547256 33:0.37468842 34:0.64804506 35:0.51812196 36:0.51431519 37:0.61191779 38:0.64238077 39:0.43127534 40:0.45200294 41:0.38270533 42:0.36918867 43:0.63128543 44:0.432179 45:0.55159265 46:0.48759124 47:0.68019515 48:0.20747593 49:0.66872454 50:0.4932133 51:0.48936912 52:0.86032432 53:0.60755312 54:0.35687697 55:0.56360149 56:0.47878921 57:0.53760517 58:0.31572604 59:0.63442236 60:0.5607357 61:0.2865434 62:0.44186735 63:0.5346427 64:0.81082362 65:0.63103521 66:0.50154328 67:0.62798935 68:0.56572074 69:0.61436361 70:0.63763732 71:0.67061847 72:0.222257 73:0.40961 74:0.62259895 75:0.38794222 76:0.49361631 77:0.24518864 78:0.32945627 79:0.2943503 80:0.38724315 81:0.1872949 82:0.33608478 83:0.45764434 84:0.31763005 85:0.53745192 86:0.27859905 87:0.46391118 88:0.72618937 89:0.68679577 90:0.53423721 91:0.59869605 92:0.71878034 93:0.42393377 94:0.30822948 95:0.78109449 96:0.7205866 97:0.44755343 98:0.80942774 99:0.36562765 100:0.51640314 101:0.54573947 102:0.36085072 103:0.37687981 104:0.17079079 105:0.40093899 106:0.68987739 107:0.30770615 108:0.53745514 109:0.83173102 110:0.41156414 111:0.57880026 112:0.4080818 113:0.34950382 114:0.14391477 115:0.32067734 116:0.4173106 117:0.75024015 118:0.37633577 119:0.45371249 120:0.57974499 121:0.51734459 122:0.53651971 123:0.45674855 124:0.55097973 125:0.30180353 126:0.71787041 127:0.66949207 128:0.67444706 129:0.53589785 130:0.81285828 
0 1.252821966534311 0 1:0.62330943 2:0.33008084 3:0.45819703 4:0.76609874 5:0.3109718 6:0.23877181 7:0.63271278 8:0.2332364 9:0.34924147 10:0.69005984 11:0.55587184 12:0.39007446 13:0.12345099 14:0.25926703 15:0.61758029 16:0.4081156 17:0.64134532 18:0.45730776 19:0.51107484 20:0.51201761 21:0.65989298 22:0.39689568 23:0.52929461 24:0.30453593 25:0.45375624 26:0.52234405 27:0.61160058 28:0.36066732 29:0.62047535 30:0.28239855 31:0.60194331 32:0.29139817 33:0.51769722 34:0.46293393 35:0.41979688 36:0.5384351 37:0.4684433 38:0.38702607 39:0.32365733 40:0.28305921 41:0.68708247 42:0.64102042 43:0.50025338 44:0.4574917 45:0.42838585 46:0.71072274 47:0.63385308 48:0.32756439 49:0.55327034 50:0.65328914 51:0.40255681 52:0.52478564 53:0.63323772 54:0.40968621 55:0.60750401 56:0.48997256 57:0.28735408 58:0.5083729 59:0.53742826 60:0.39839935 61:0.42195773 62:0.25229907 63:0.67345214 64:0.67064369 65:0.53359139 66:0.54603881 67:0.46549737 68:0.60600245 69:0.24856241 70:0.54595971 71:0.31026867 72:0.28149652 73:0.65684789 74:0.37701058 75:0.48823366 76:0.65942073 77:0.5041585 78:0.28679964 79:0.40526208 80:0.48914316 81:0.31712785 82:0.29723936 83:0.67197567 84:0.5146594 85:0.6748023 86:0.52112454 87:0.55515254 88:0.51749265 89:0.61195117 90:0.43836817 91:0.53385955 92:0.62765509 93:0.45438123 94:0.57669979 95:0.61894041 96:0.84397167 97:0.51964009 98:0.49199742 99:0.084842436 100:0.63222486 101:0.34440178 102:0.43060338 103:0.49690336 104:0.65278602 105:0.51749319 106:0.64292395 107:0.33288831 108:0.40897971 109:0.17175275 110:0.10948257 111:0.82868332 112:0.68555123 113:0.51173365 114:0.77332735 115:0.45475465 116:0.6244759 117:0.53330898 118:0.63063812 119:0.76767254 120:0.52052397 121:0.62045461 122:0.38561314 123:0.68137485 124:0.58287174 125:0.40947965 126:0.58835071 127:0.20800799 128:0.81178445 129:0.75871742 130:0.53986126 
0.04662402252224205 1.18373363392368 1.603115030895899 1:0.46860862 2:0.73500293 3:0.40596139 4:0.60211837 5:0.65004021 6:0.56861001 7:0.30897003 8:0.56328017 9:0.67032635 10:0.74605775 11:0.4698844 12:0.30215707 13:0.77042079 14:0.63200128 15:0.4745037 16:0.6711424 17:0.58114517 18:0.7445575 19:0.26880485 20:0.35661852 21:0.14999825 22:0.61095589 23:0.4978815 24:0.35954913 25:0.48281613 26:0.58816147 27:0.2607131 28:0.63353598 29:0.53602052 30:0.22750299 31:0.80044359 32:0.27252686 33:0.25106695 34:0.40512687 35:0.52711087 36:0.32389647 37:0.54898316 38:0.22840168 39:0.54399407 40:0.40447196 41:0.4456099 42:0.53448063 43:0.55496544 44:1 45:0.40703547 46:0.42252028 47:0.43473995 48:0.41857406 49:0.56044483 50:0.4853121 51:0.57183373 52:0.15836559 53:0.63321841 54:0.54832071 55:0.48370004 56:0.47646675 57:0.35492167 58:0.14542489 59:0.89870679 60:0.43266964 61:0.38500166 62:0.37844086 63:0.42040607 64:0.66197872 65:0.73593551 66:0.31838596 67:0.55331278 68:0.43987837 69:0.50501919 70:0.52319419 71:0.59595031 72:0.62947381 73:0.58847117 74:0.55680025 75:0.53144586 76:0.68840981 77:0.34168166 78:0.43616325 79:0.54917902 80:0.32006148 81:0.48712364 82:0.53396034 83:0.45897025 84:0.69178843 85:0.19644772 86:0.35707855 87:0.46767572 88:0.5991376 89:0.55549127 90:0.42479342 91:0.42651203 92:0.25267622 93:0.50775456 94:0.27953771 95:0.6221537 96:0.52800709 97:0.34319657 98:0.44689903 99:0.7896651 100:0.60094166 101:0.62873936 102:0.30377686 103:0.54520494 104:0.508008 105:0.6783604 106:0.66134888 107:0.51247394 108:0.57130098 109:0.67471451 110:0.62545002 111:0.55144137 112:0.74056917 113:0.34782249 114:0.61900645 115:0.73904693 116:0.57284331 117:0.39761707 118:0.39757356 119:0.49205858 120:0.52156752 121:0.72121793 122:0.29168895 123:0.65782768 124:0.57179314 125:0.27182549 126:0.76453143 127:0.78750277 128:0.90387845 129:0.67286509 130:0.51229668 
0 0 0.1192525190645601 1:0.41558975 2:0.15599795 3:0.55595988 4:0.68645197 5:0.46431687 6:0.67444652 7:0.41382349 8:0.45587638 9:0.54087555 10:0.53949207 11:0.49066541 12:0.7865001 13:0.40672061 14:0.55186111 15:0.59528017 16:0.30271333 17:0.625696 18:0.4596459 19:0.6351527 20:0.51256102 21:0.6846348 22:0.50785208 23:0.46779475 24:0.28484038 25:0.38055664 26:0.53121531 27:0.47155258 28:0.49896351 29:0.50300878 30:0.60273451 31:0.38118461 32:0.38520959 33:0.48473012 34:0.57328522 35:0.8724879 36:0.41313684 37:0.48412186 38:0.37090492 39:0.51811182 40:0.50730211 41:0.43218997 42:0.52128416 43:0.65225863 44:0.6261251 45:0.27704409 46:0.60799599 47:0.27331004 48:0.49312592 49:0.41523874 50:0.57389086 51:0.68744123 52:0.63789046 53:0.50347209 54:0.51827204 55:0.54759866 56:0.65431088 57:0.36158887 58:0.50518864 59:0.66392744 60:0.24793969 61:0.29825935 62:0.47765657 63:0.61296248 64:0.59471714 65:0.64909995 66:0.63312471 67:0.50507289 68:0.55714911 69:0.31665608 70:0.7423051 71:0.57560867 72:0.70723146 73:0.5851084 74:0.82915062 75:0.26968005 76:0.70472383 77:0.68865275 78:0.39797631 79:0.28624499 80:0.61015409 81:0.21791425 82:0.62863666 83:0.36668426 84:0.44115764 85:0.40574265 86:0.45208147 87:0.29193595 88:0.63632643 89:0.69190818 90:0.39370194 91:0.27238867 92:0.72889805 93:0.33045077 94:0.67072433 95:0.59836286 96:0.34320202 97:0.53460288 98:0.37177843 99:0.45768389 100:0.65292108 101:0.55458254 102:0.44517583 103:0.38602194 104:0.80633533 105:0.64482832 106:0.85711104 107:0.15088147 108:0.62440121 109:0.57501459 110:0.45172012 111:0.44372508 112:0.55950344 113:0.75728613 114:0.52179641 115:0.1925551 116:0.26860133 117:0.48757669 118:0.42397428 119:0.4854638 120:0.36911666 121:0.77117229 122:0.50868469 123:0.40558735 124:0.51533669 125:0.72622037 126:0.59029043 127:0.1051509 128:0.5574556 129:0.68661565 130:0.7125653 
0 1.46051382987764 4.330701568903535 1:0.50349402 2:0.30934629 3:0.31328011 4:0.60007441 5:0.38984355 6:0.438795 7:0.51293766 8:0.4461 9:0.33899519 10:0.70807934 11:0.56320798 12:0.53058964 13:0.52535516 14:0.49492124 15:0.72510386 16:0.60256237 17:0.53468931 18:0.59902883 19:0.51322013 20:0.65653604 21:0.46306637 22:0.30712053 23:0.59715009 24:0.35711974 25:0.41696247 26:0.67122829 27:0.58572006 28:0.41716737 29:0.86996561 30:0.24871735 31:0.57728046 32:0.41734573 33:0.3775129 34:0.24544282 35:0.43286681 36:0.62006766 37:0.35972089 38:0.42566839 39:0.57845539 40:0.39041206 41:0.38697255 42:0.54651123 43:0.60531992 44:0.58215374 45:0.37329289 46:0.56407046 47:0.40982041 48:0.54908186 49:0.74015325 50:0.40054017 51:0.5262323 52:0.62414831 53:0.53152007 54:0.53136778 55:0.35149613 56:0.27282339 57:0.4959875 58:0.4472037 59:0.69754028 60:0.6253286 61:0.38302168 62:0.44762257 63:0.74214494 64:0.70233363 65:0.34046364 66:0.47968227 67:0.63294166 68:0.47528377 69:0.50956631 70:0.45530036 71:0.59333259 72:0.3219727 73:0.48724949 74:0.52466339 75:0.47234541 76:0.54082412 77:0.24688788 78:0.22961877 79:0.55679095 80:0.30613261 81:0.57246459 82:0.57131094 83:0.60308081 84:0.36229137 85:0.53143132 86:0.48010993 87:0.34254321 88:0.56325179 89:0.61071277 90:0.54870415 91:0.27807313 92:0.62081349 93:0.38858223 94:0.7361024 95:0.57009763 96:0.60052627 97:0.58753192 98:0.50124854 99:0.36902314 100:0.52670497 101:0.38472581 102:0.33360526 103:0.38467693 104:0.4122867 105:0.26115125 106:0.65119696 107:0.6339615 108:0.44426242 109:0.29070762 110:0.73527426 111:0.74389923 112:0.54731745 113:0.7127955 114:0.4834885 115:0.37688527 116:0.49645904 117:0.49018991 118:0.51814586 119:0.55725086 120:0.72377259 121:0.44830245 122:0.40426108 123:0.38006249 124:0.43612465 125:0.25339025 126:0.5881052 127:0.76547742 128:0.69074082 129:0.56151462 130:0.7105881 
0 1.477571777690825 1.566592122583721 1:0.44169521 2:0.50047076 3:0.69249833 4:0.58005673 5:0.10822834 6:0.22296274 7:0.59783757 8:0.43419874 9:0.499006 10:0.67868704 11:0.55100393 12:0.34024486 13:0.49046889 14:0.29084194 15:0.57853717 16:0.43068647 17:0.60172379 18:0.44142595 19:0.29943419 20:0.23040909 21:0.34667856 22:0.48052379 23:0.28152502 24:0.24881716 25:0.4021669 26:0.4213618 27:0.45938197 28:0.46354204 29:0.39749587 30:0.17229009 31:0.69664758 32:0.69245589 33:0.48037237 34:0.40020511 35:0.50746554 36:0.51143479 37:0.58177841 38:0.61869955 39:0.62494969 40:0.17570665 41:0.61219633 42:0.64398688 43:0.58879042 44:0.38649985 45:0.45192599 46:0.70722163 47:0.566181 48:0.77108496 49:0.39066857 50:0.42583108 51:0.40982643 52:0.47760677 53:0.72879076 54:0.96076828 55:0.36224887 56:0.57879901 57:0.33077887 58:0.55940264 59:0.7512902 60:0.22765517 61:0.45585167 62:0.1726217 63:0.55415219 64:0.34863535 65:0.39909634 66:0.38670757 67:0.44758457 68:0.41291538 69:0.52931762 70:0.37328264 71:0.58308691 72:0.5549171 73:0.59866118 74:0.90693772 75:0.09549135 76:0.32976845 77:0.62891638 78:0.31302217 79:0.44847104 80:0.72951174 81:0.40712833 82:0.39239797 83:0.67830396 84:0.5231756 85:0.44723901 86:0.43973908 87:0.4564099 88:0.80455929 89:0.60884821 90:0.7586813 91:0.24666283 92:0.70715499 93:0.20361145 94:0.64900666 95:0.62106746 96:0.7038126 97:0.32311943 98:0.7309311 99:0.25111398 100:0.59536731 101:0.36660832 102:0.51413178 103:0.47980726 104:0.67723632 105:0.55438155 106:0.59572512 107:0.21218926 108:0.53537309 109:0.45666087 110:0.59288388 111:0.62070578 112:0.73848182 113:0.55073714 114:0.68824428 115:0.63207704 116:0.3768293 117:0.46052918 118:0.53467292 119:0.65962833 120:0.42958593 121:0.70727462 122:0.2893773 123:0.48005593 124:0.76920235 125:0.37276492 126:0.7798003 127:0.75789201 128:0.96743077 129:0.552315 130:0.51546335 
0 2.237071847063818 2.388175124875298 1:0.49815646 2:0.46079776 3:0.43666074 4:0.44655186 5:0.53538799 6:0.42715394 7:0 8:0.56865567 9:0.60156351 10:0.38170776 11:0.58703971 12:0.45207214 13:0.53013581 14:0.54793376 15:0.57808298 16:0.58367604 17:0.58157456 18:0.34149608 19:0.5793038 20:0.37475038 21:0.42651144 22:0.39761958 23:0.27765208 24:0.47745329 25:0.37930658 26:0.43225923 27:0.8688966 28:0.75540024 29:0.46734852 30:0.028916329 31:0.2653164 32:0.76389569 33:0.32228321 34:0.33174416 35:0.42297354 36:0.66455531 37:0.46120813 38:0.41753116 39:0.6413027 40:0.3922824 41:0.60718101 42:0.51803344 43:0.60197705 44:0.51265478 45:0.59317642 46:0.5271616 47:0.56288952 48:0.7130757 49:0.39194483 50:0.4032217 51:0.6984213 52:0.52667844 53:0.54073507 54:0.23765385 55:0.33220217 56:0.23944455 57:0.60639596 58:0.51941609 59:0.40205681 60:0.57647657 61:0.3970744 62:0.44432825 63:0.61310107 64:0.52448028 65:0.52329475 66:0.65263051 67:0.55533034 68:0.43971354 69:0.22712313 70:0.26820523 71:0.29509798 72:0.51202881 73:0.40767354 74:0.94072384 75:0.23642433 76:0.18913318 77:0.74464923 78:0.37287778 79:0.4126491 80:0.61654228 81:0.75958437 82:0.57709157 83:0.26236987 84:0.54911101 85:0.23046921 86:0.4603568 87:0.45303798 88:0.38581127 89:0.54448146 90:0.48771438 91:0.026373139 92:0.68832701 93:0.22635765 94:0.61547607 95:0.63072217 96:0.54536295 97:0.35097817 98:0.40955511 99:0.5626806 100:0.40279716 101:0.46492267 102:0.37199354 103:0.61116481 104:0.5965057 105:0.67481214 106:0.63818312 107:0.2418469 108:0.68688679 109:0.67389899 110:0.64978749 111:0.39112797 112:0 113:0.58391428 114:0.49686316 115:0.56226152 116:0.46469569 117:0.53557825 118:0.43283883 119:0.8714447 120:0.84990656 121:0.77222264 122:0.31446517 123:0.26781756 124:0.52117598 125:0.48873049 126:0.70643753 127:0.4617925 128:0.75463009 129:0.4422943 130:0.60475242 
0.4195224219577427 2.718556476401978 2.116505585909412 1:0.51949018 2:0.5569576 3:0.45364571 4:0.44504336 5:0.55575562 6:0.24424495 7:0.31090176 8:0.58888608 9:0.68180299 10:0.63617879 11:0.50758636 12:0.56601959 13:0.56938058 14:0.23808128 15:0.44384325 16:0.6245535 17:0.67058355 18:0.41797614 19:0.5007621 20:0.57771176 21:0.58049214 22:0.45510191 23:0.29414114 24:0.63111871 25:0.78856587 26:0.55360287 27:0.37833557 28:0.5556311 29:0.67885047 30:0.36494908 31:0.60461253 32:0.59024841 33:0.50321156 34:0.48151302 35:0.7549628 36:0.6128158 37:0.62646365 38:0.44331536 39:0.45548293 40:0.41897708 41:0.63975048 42:0.66789436 43:0.66600382 44:0.304708 45:0.52474558 46:0.45079491 47:0.72444558 48:0.31749985 49:0.53779691 50:0.62278336 51:0.53685105 52:0.29382819 53:0.41138265 54:0.46297958 55:0.52492088 56:0.44256875 57:0.33288017 58:0.54823631 59:0.52290684 60:0.52687675 61:0.38913202 62:0.57342541 63:0.56330496 64:0.49446046 65:0.47425959 66:0.51482922 67:0.36137101 68:0.4838759 69:0.52211338 70:0.81814432 71:0.20434305 72:0.52465987 73:0.54728872 74:0.56418097 75:0.45826441 76:0.42069095 77:0.21520361 78:0.3594197 79:0.45892143 80:0.62386191 81:0.56304252 82:0.40087813 83:0.54777944 84:0.43457413 85:0.446347 86:0.46540105 87:0.31668964 88:0.70231861 89:0.6540491 90:0.45584899 91:0.56928325 92:0.44580379 93:0.48976332 94:0.59623849 95:0.32728782 96:0.29425851 97:0.43632936 98:0.54994625 99:0.44940472 100:0.54493845 101:0.68567944 102:0.40483227 103:0.60341221 104:0.78371471 105:0.5665645 106:0.37467724 107:0.2576392 108:0.54935753 109:0.53521055 110:0.59879595 111:0.75221419 112:0.65358144 113:0.59952188 114:0.557414 115:0.40278569 116:0.4431062 117:0.28213561 118:0.56073821 119:0.28064871 120:0.44225952 121:0.46107614 122:0.48400903 123:0.62542015 124:0.54310328 125:0.47177252 126:0.64802754 127:0.62218684 128:0.5506205 129:0.61970657 130:0.85330719 
0.6479192087764258 0 0 1:0.63883102 2:0.62507933 3:0.57360876 4:0.54289508 5:0.38706034 6:0.56416488 7:0.42690223 8:0.36581352 9:0.57016861 10:0.47151777 11:0.41328529 12:0.35362253 13:0.58273572 14:0.31124872 15:0.68020105 16:0.49065542 17:0.46973976 18:0.40735474 19:0.42075261 20:0.32587975 21:0.41661915 22:0.51155424 23:0.33904257 24:0.44069263 25:0.4471792 26:0.40423086 27:0.53474098 28:0.66325569 29:0.5356304 30:0.45195821 31:0.61660773 32:0.5677352 33:0.40314278 34:0.52435172 35:0.49870989 36:0.5680669 37:0.51232797 38:0.55930054 39:0.53740585 40:0.43062469 41:0.36517417 42:0.52043402 43:0.48684543 44:0.44416559 45:0.72698307 46:0.60978615 47:0.51537377 48:0.46010602 49:0.47906891 50:0.47633538 51:0.45591924 52:0.67780358 53:0.42835173 54:0.59442401 55:0.47219905 56:0.45788097 57:0.20396855 58:0.33403617 59:0.68357235 60:0.26047966 61:0.38309696 62:0.40501836 63:0.51128173 64:0.54605663 65:0.66305625 66:0.28224817 67:0.5425396 68:0.49331594 69:0.62476504 70:0.50468934 71:0.69144046 72:0.45934319 73:0.54064059 74:0.59840512 75:0.54778636 76:0.54912817 77:0.44915175 78:0.63850915 79:0.39451116 80:0.52206188 81:0.60013241 82:0.48644105 83:0.41801426 84:0.34848273 85:0.49346769 86:0.31329903 87:0.43167225 88:0.60509676 89:0.70209754 90:0.38377061 91:0.40806675 92:0.41433561 93:0.41907403 94:0.49500623 95:0.73692816 96:0.55433798 97:0.20285785 98:0.57418126 99:0.21103279 100:0.40230629 101:0.44686761 102:0.3838948 103:0.53312039 104:0.31448692 105:0.16834822 106:0.56967562 107:0.15188821 108:0.5795567 109:0.64325589 110:0.80047703 111:0.3343057 112:0.46923667 113:0.50608349 114:0.3141332 115:0.59582931 116:0.26228103 117:0.58184969 118:0.53915048 119:0.47927827 120:0.52251089 121:0.65049469 122:0.23515639 123:0.40095672 124:0.5001241 125:0.32413131 126:0.56311643 127:0.69253147 128:0.5957582 129:0.6626398 130:0.88622087 
0.6598942219477758 1.583914170105035 0.4481644441840774 1:0.47701505 2:0.27747154 3:0.38102067 4:0.67049617 5:0.42946687 6:0.42347595 7:0.6915406 8:0.46657315 9:0.35187286 10:0.52355742 11:0.40447676 12:0.38131967 13:0.50586182 14:0.30961034 15:0.35319307 16:0.52055782 17:0.57333857 18:0.52608663 19:0.40374923 20:0.37015915 21:0.37737375 22:0.27982515 23:0.62500024 24:0.43903708 25:0.30736899 26:0.62130016 27:0.46400666 28:0.63160008 29:0.53340787 30:0.39597529 31:0.51074106 32:0.41908759 33:0.36939532 34:0.38764685 35:0.45095932 36:0.49632755 37:0.65634769 38:0.49734628 39:0.39468998 40:0.58330888 41:0.59634101 42:0.53924769 43:0.64586836 44:0.4190774 45:0.44778943 46:0.62551755 47:0.42269361 48:0.66829848 49:0.67263329 50:0.5003857 51:0.63231003 52:0.70034003 53:0.43598688 54:0.42763114 55:0.5607518 56:0.31355271 57:0.56323838 58:0.60349262 59:0.63354272 60:0.33621466 61:0.49317318 62:0.38262042 63:0.5425905 64:0.32130903 65:0.64922744 66:0.2976999 67:0.35475439 68:0.70558947 69:0.70863837 70:0.57910961 71:0.34494102 72:0.50592381 73:0.51628953 74:0.60812229 75:0.49397045 76:0.65555525 77:0.45085207 78:0.4011035 79:0.55750304 80:0.22376207 81:0.37953621 82:0.49674311 83:0.38520515 84:0.40089834 85:0.53486818 86:0.54729253 87:0.45525882 88:0.85363394 89:0.35212833 90:0.64173359 91:0.24929112 92:0.58508283 93:0.63367438 94:0.56292874 95:0.73822379 96:0.46250862 97:0.35812289 98:0.1576585 99:0.53751224 100:0.42919329 101:0.74022633 102:0.46919629 103:0.65162796 104:0.27648818 105:0.50542349 106:0.58645284 107:0.20887147 108:0.60950178 109:0.56606293 110:0.6853587 111:0.38588458 112:0.49747786 113:0.53377438 114:0.45843288 115:0.54799551 116:0.37901676 117:0.68719965 118:0.45066205 119:0.60610908 120:0.64210892 121:0.58544463 122:0.10591093 123:0.24897289 124:0.45356756 125:0.59970731 126:0.47307605 127:0.35326633 128:0.69124341 129:0.36247343 130:0.72748643 
0 0.1278083758923735 0.7050416753685084 1:0.36205107 2:0.61898953 3:0.36000317 4:0.68745488 5:0.31240535 6:0.46438468 7:0.51887441 8:0.430774 9:0.55381465 10:0.32379121 11:0.58644491 12:0.35861439 13:0.45682293 14:0.51292312 15:0.45396265 16:0.53093028 17:0.54908919 18:0.6389032 19:0.44759434 20:0.47708189 21:0.34476051 22:0.47531128 23:0.62179434 24:0.54664451 25:0.38303399 26:0.53620929 27:0.60327774 28:0.43342984 29:0.63974422 30:0.38328221 31:0.6437844 32:0.48238036 33:0.3538973 34:0.37428638 35:0.48803058 36:0.40048948 37:0.76954269 38:0.28884232 39:0.58966225 40:0.52321434 41:0.68911237 42:0.43566936 43:0.5525229 44:0.41143155 45:0.47054321 46:0.58897048 47:0.37476921 48:0.52513725 49:0.5505569 50:0.44058889 51:0.52868801 52:0.77325475 53:0.46171728 54:0.30685529 55:0.56567299 56:0.28391469 57:0.25101674 58:0.57099319 59:0.36435089 60:0.57766211 61:0.57283318 62:0.32138619 63:0.49276978 64:0.65359956 65:0.52125889 66:0.64084822 67:0.42879236 68:0.61344677 69:0.49261114 70:0.52088612 71:0.46703592 72:0.52952826 73:0.51498395 74:0.57320279 75:0.53884977 76:0.41398856 77:0.47170013 78:0.5006966 79:0.3823297 80:0.49582767 81:0.52595723 82:0.61947858 83:0.52981943 84:0.64109397 85:0.30721104 86:0.59104824 87:0.54665315 88:0.42297572 89:0.6298067 90:0.73369426 91:0.43598369 92:0.46617067 93:0.50595188 94:0.49894607 95:0.27389631 96:0.4202027 97:0.53232557 98:0.47241965 99:0.52623135 100:0.37868467 101:0.47760493 102:0.34642154 103:0.66210812 104:0.50200737 105:0.38517085 106:0.52270889 107:0.36518395 108:0.80376667 109:0.71128577 110:0.73986894 111:0.48573974 112:0.59809673 113:0.46836707 114:0.54153198 115:0.40398347 116:0.58232915 117:0.78012043 118:0.45985106 119:0.44900775 120:0.44034615 121:0.57104844 122:0.16945608 123:0.54095954 124:0.35894409 125:0.61108488 126:0.40578979 127:0.097416073 128:0.46066836 129:0.49105847 130:0.75446886 
0.3291051868753761 0 0.177125195179074 1:0.30990165 2:0.61335522 3:0.33031514 4:0.50752842 5:0.68181688 6:0.62559021 7:0.35612276 8:0.47379023 9:0.61457479 10:0.40935445 11:0.60838991 12:0.54314983 13:0.40941682 14:0.43763047 15:0.47987533 16:0.64210248 17:0.67247093 18:0.59566504 19:0.37470034 20:0.51689458 21:0.65982354 22:0.63725221 23:0.1351722 24:0.43944004 25:0.71011943 26:0.47444615 27:0.655146 28:0.61362332 29:0.52118367 30:0.39752832 31:0.56118661 32:0.49633986 33:0.58896714 34:0.46299985 35:0.67415118 36:0.51142067 37:0.60069144 38:0.50503218 39:0.63049877 40:0.63794285 41:0.46340513 42:0.35475922 43:0.51000714 44:0.6233325 45:0.71050966 46:0.58175188 47:0.52593797 48:0.59840375 49:0.62123573 50:0.60892445 51:0.40103033 52:0.39172581 53:0.20778909 54:0.59523177 55:0.55633432 56:0.40607142 57:0.38584116 58:0.30119061 59:0.45730209 60:0.32821316 61:0.31697342 62:0.41757792 63:0.53355604 64:0.77209502 65:0.40662456 66:0.60687876 67:0.58680183 68:0.58821493 69:0.56055522 70:0.50422841 71:0.60590023 72:0.43223745 73:0.4493663 74:0.53768778 75:0.68480974 76:0.38467625 77:0.38488531 78:0.36286214 79:0.62623173 80:0.072500408 81:0.70562309 82:0.53107333 83:0.44793466 84:0.30910936 85:0.53840822 86:0.40540034 87:0.37208492 88:0.20849824 89:0.49787563 90:0.3538368 91:0.24018379 92:0.49119815 93:0.13403612 94:0.1840425 95:0.51436925 96:0.47580695 97:0.55855584 98:0.57443941 99:0.33763936 100:0.6791048 101:0.5288828 102:0.25856349 103:0.37335569 104:0.39218563 105:0.32762906 106:0.60416412 107:0.2326179 108:0.67028117 109:0.7002784 110:0.5019539 111:0.43862793 112:0.4344767 113:0.4266215 114:0.27113098 115:0.36761633 116:0.37430501 117:0.46932563 118:0.27608383 119:0.56326658 120:0.54862547 121:0.4041779 122:0.48895416 123:0.49368533 124:0.4487218 125:0.29130518 126:0.66528702 127:0.53817248 128:0.62116551 129:0.54749721 130:0.82686841 
0.2430744389601852 0 0 1:0.50211686 2:0.50191629 3:0.37722787 4:0.61760169 5:0.49877855 6:0.51103795 7:0.55706298 8:0.61377662 9:0.42704907 10:0.58979565 11:0.61855716 12:0.49577883 13:0.62560385 14:0.58783513 15:0.79459965 16:0.62323046 17:0.68208486 18:0.33155954 19:0.56837368 20:0.2880584 21:0.25052139 22:0.50357294 23:0.59989011 24:0.19587786 25:0.28553253 26:0.42533153 27:0.44058403 28:0.64040524 29:0.45654884 30:0.44441476 31:0.40053043 32:0.57296413 33:0.35715476 34:0.39476001 35:0.59643418 36:0.49106699 37:0.55739152 38:0.44983533 39:0.54961932 40:0.35207221 41:0.47541392 42:0.58905947 43:0.58552223 44:0.57218891 45:0.30973178 46:0.6386475 47:0.40127012 48:0.45879829 49:0.52725118 50:0.58013266 51:0.44332862 52:0.54266006 53:0.56370884 54:0.30571318 55:0.27387801 56:0.56259912 57:0.25991914 58:0.81147331 59:0.58210009 60:0.44300589 61:0.42815459 62:0.42391422 63:0.67913586 64:0.53968978 65:0.56855214 66:0.32214701 67:0.46501848 68:0.62743324 69:0.45586279 70:0.5824092 71:0.4455699 72:0.5424512 73:0.64900881 74:0.59702659 75:0.58254409 76:0.31780276 77:0.46703416 78:0.35220841 79:0.44643497 80:0.70912647 81:0.32883433 82:0.45008019 83:0.44662145 84:0.55653882 85:0.51578814 86:0.50054479 87:0.37408048 88:0.77842581 89:0.53256577 90:0.43426856 91:0.51684242 92:0.44918349 93:0.63915116 94:0.76195383 95:0.72347629 96:0.38917264 97:0.45996922 98:0.57337534 99:0.35681644 100:0.43065265 101:0.41539845 102:0.34715414 103:0.52517551 104:0.67017722 105:0.4480426 106:0.62982285 107:0.5308274 108:0.48529446 109:0.57972318 110:0.79976034 111:0.75948644 112:0.60994399 113:0.51426387 114:0.43004495 115:0.44501942 116:0.43430382 117:0.3313286 118:0.43496439 119:0.26209342 120:0.42708161 121:0.66116595 122:0.46824732 123:0.49576846 124:0.53512669 125:0.46386644 126:0.58031505 127:0.71178848 128:0.57674426 129:0.62197804 130:0.8656016 
0 1.667096376164134 2.218425581221714 1:0.65177733 2:0.66076368 3:0.4277243 4:0.61526603 5:0.49642438 6:0.69522768 7:0.45067826 8:0.68953019 9:0.37104595 10:0.38926417 11:0.51039255 12:0.36684117 13:0.29855415 14:0.43416971 15:0.81549835 16:0.8210175 17:0.75582588 18:0.40854004 19:0.49761847 20:0.36867097 21:0.4123435 22:0.4390102 23:0.73242366 24:0.060387924 25:0.54222083 26:0.21869655 27:0.23879561 28:0.32768956 29:0.71436501 30:0.42007661 31:0.49156103 32:0.70045465 33:0.44789687 34:0.39401746 35:0.50243777 36:0.2731857 37:0.49930871 38:0.3016533 39:0.25793153 40:0.44107851 41:0.41076186 42:0.70973611 43:0.32397962 44:0.42950928 45:0.57405025 46:0.3200554 47:0.59521419 48:0.53904825 49:0.72894961 50:0.41666484 51:0.54457176 52:0.66389054 53:0.48932335 54:0.67137051 55:0.46129832 56:0.45254368 57:0.47228462 58:0.14851494 59:0.45385721 60:0.48126602 61:0.068422183 62:0.51375711 63:0.27874547 64:0.78697276 65:0.60873735 66:0.73114747 67:0.26719922 68:0.66487694 69:0.29234451 70:0.67855722 71:0.54520726 72:0.39693785 73:0.17383794 74:0.40544966 75:0.36647117 76:0.28452826 77:0.75621092 78:0.50656813 79:0.26683587 80:0.68468988 81:0.38859627 82:0.49940997 83:0.3806366 84:0.65051943 85:0.55180728 86:0.39391237 87:0.38582852 88:0.68231773 89:0.42615488 90:0.66165757 91:0.24928746 92:0.35950223 93:0.2781935 94:0.80492574 95:0.51955914 96:0.44767475 97:0.38886845 98:0.2846995 99:0.3377521 100:0.46877635 101:0.62066573 102:0.71366453 103:0.19811778 104:0.51811725 105:0.68364549 106:0.94829869 107:0.46320739 108:0.28466356 109:0 110:0.72353518 111:0.37379313 112:0.5310033 113:0.67451203 114:0.69561779 115:0.47561952 116:0.55634469 117:0.63540477 118:0.35639128 119:0.32175928 120:0.61125004 121:0.81908184 122:0.60206008 123:0.45521027 124:0.47208035 125:0.53754437 126:0.84184957 127:0.29576355 128:0.74198514 129:0.72320795 130:0.5228495 
0 1.407578336388867 1.262959008263128 1:0.35147592 2:0.31175005 3:0.62668055 4:0.52240306 5:0.51538867 6:0.57385862 7:0.682787 8:0.49741313 9:0.63012975 10:0.29943439 11:0.51251501 12:0.63796526 13:0.34679264 14:0.459288 15:0.36770812 16:0.44328856 17:0.43697205 18:0.57307386 19:0.4891589 20:0.59764582 21:0.11470574 22:0.35777542 23:0.39959911 24:0.61300755 25:0.4998852 26:0.57533991 27:0.53287601 28:0.42121911 29:0.53125352 30:0.44904369 31:0.61427563 32:0.49529016 33:0.44549766 34:0.46567446 35:0.44058287 36:0.57251954 37:0.51159108 38:0.40816659 39:0.5405494 40:0.66869539 41:0.62435752 42:0.47361413 43:0.34229872 44:0.50069261 45:0.352514 46:0.55234522 47:0.58281875 48:0.57524043 49:0.64340532 50:0.43257567 51:0.57155126 52:0.3623094 53:0.40193316 54:0.56022668 55:0.47982386 56:0.84676504 57:0.25846627 58:0.66262966 59:0.62739575 60:0.54902756 61:0.57076794 62:0.28296992 63:0.6509189 64:0.66280919 65:0.27741742 66:0.39312729 67:0.5938763 68:0.64368522 69:0.47844562 70:0.44441512 71:0.82649809 72:0.60083777 73:0.52128822 74:0.27988148 75:0.42805228 76:0.6264559 77:0.43179235 78:0.18628785 79:0.35206661 80:0.12381083 81:0.53011471 82:0.33667591 83:0.6565246 84:0.55052054 85:0.56499177 86:0.49848518 87:0.41474757 88:0.75886214 89:0.48653278 90:0.52986431 91:0.42071453 92:0.42341313 93:0.59864169 94:0.45716795 95:0.47892368 96:0.45707831 97:0.47847497 98:0.1830834 99:0.45071894 100:0.32717544 101:0.57264829 102:0.38178566 103:0.47437352 104:0.63592088 105:0.60106361 106:0.70410335 107:0.47548115 108:0.58184808 109:0.56427157 110:0.55100363 111:0.20772527 112:0.27308625 113:0.48290157 114:0.3617014 115:0.63340002 116:0.57269686 117:0.6852299 118:0.43804815 119:0.57256705 120:0.6076166 121:0.69365406 122:0.28106388 123:0.2202661 124:0.33347538 125:0.48418456 126:0.52660537 127:0.23105024 128:0.70690072 129:0.82959694 130:0.61394405 
0.7681326296923786 0 0 1:0.46239275 2:0.60919964 3:0.53338945 4:0.58228254 5:0.54959852 6:0.44893086 7:0.48854387 8:0.3322216 9:0.58754563 10:0.56081504 11:0.64636308 12:0.69085807 13:0.47228125 14:0.49430409 15:0.63096768 16:0.61322409 17:0.45094892 18:0.54769903 19:0.48841232 20:0.32948831 21:0.4178375 22:0.59749776 23:0.83111227 24:0.60233361 25:0.64301527 26:0.52765369 27:0.48570463 28:0.75594479 29:0.65908092 30:0.55818743 31:0.55688393 32:0.41050914 33:0.55135083 34:0.3903566 35:0.57808816 36:0.41583964 37:0.48810437 38:0.5976752 39:0.5208323 40:0.37689152 41:0.48728794 42:0.71653479 43:0.43877923 44:0.34635228 45:0.66498047 46:0.54136932 47:0.5627684 48:0.57925808 49:0.53965151 50:0.55681604 51:0.47161022 52:0.68922633 53:0.77375001 54:0.41792861 55:0.63202471 56:0.36303687 57:0.54062933 58:0.48961145 59:0.3218925 60:0.57571983 61:0.34219012 62:0.42322978 63:0.7027992 64:0.5560059 65:0.40188569 66:0.30379206 67:0.53502154 68:0.55905384 69:0.69395483 70:0.6060822 71:0.5877496 72:0.5703842 73:0.7033726 74:0.59693801 75:0.35993892 76:0.4994314 77:0.39435223 78:0.52146065 79:0.39352563 80:0.5044055 81:0.43356141 82:0.29838157 83:0.44653627 84:0.4685604 85:0.58643973 86:0.40235677 87:0.51361293 88:0.52890754 89:0.7172541 90:0.67993838 91:0.32447323 92:0.49267921 93:0.63681835 94:0.53334302 95:0.81799585 96:0.14792746 97:0.69045109 98:0.6091972 99:0.5108133 100:0.083933562 101:0.60873246 102:0.40591183 103:0.61020744 104:0.25200602 105:0.48590249 106:0.72276008 107:0.57269996 108:0.48698136 109:0.51898283 110:0.66813552 111:0.2230026 112:0.62371165 113:0.36617216 114:0.36394909 115:0.35410327 116:0.37078837 117:0.59347278 118:0.39174926 119:0.52865601 120:0.5440194 121:0.59580904 122:0.61968082 123:0.2818152 124:0.43468815 125:0.2024845 126:0.7423833 127:0.7011807 128:0.73650497 129:0.58138525 130:0.86251926 
0.1587070501284866 1.858332194984766 0.6701254234266695 1:0.27857184 2:0.58834994 3:0.59012979 4:0.62663871 5:0.31271964 6:0.31137991 7:0.71471727 8:0.63271254 9:0.35895863 10:0.72664404 11:0.54612905 12:0.57672173 13:0.58317882 14:0.32145435 15:0.63029337 16:0.74534559 17:0.52070266 18:0.48406535 19:0.49616429 20:0.34912848 21:0.35774294 22:0.55565554 23:0.6017676 24:0.45008934 25:0.79807925 26:0.46892861 27:0.25847003 28:0.78474963 29:0.46039817 30:0.42132545 31:0.59580398 32:0.46218574 33:0.39855331 34:0.35877222 35:0.55567408 36:0.49872109 37:0.55662394 38:0.50419092 39:0.62072706 40:0.44946593 41:0.62867761 42:0.29301879 43:0.4484579 44:0.1408511 45:0.22678091 46:0.48260221 47:0.66070151 48:0.38881442 49:0.6548056 50:0.62888724 51:0.46435478 52:0.3693296 53:0.3243686 54:0.46690065 55:0.56588733 56:0.42570025 57:0.37853473 58:0.50554788 59:0.60875189 60:0.41720906 61:0.51410592 62:0.32530034 63:0.55728132 64:0.44265211 65:0.78480512 66:0.41207138 67:0.66830057 68:0.60721904 69:0.6919449 70:0.72650963 71:0.4436864 72:0.50377643 73:0.49222082 74:0.63320994 75:0.34602064 76:0.68457991 77:0.45400158 78:0.43329066 79:0.36242676 80:0.52308607 81:0.22357613 82:0.54437494 83:0.59384853 84:0.677176 85:0.66209441 86:0.4250938 87:0.54748589 88:0.77997434 89:0.65628552 90:0.50057083 91:0.44064295 92:0.76899642 93:0.52597815 94:0.4780668 95:0.76983452 96:0.38105497 97:0.5032171 98:0.79485124 99:0.64856398 100:0.24234082 101:0.76119959 102:0.26233765 103:0.59308821 104:0.17206484 105:0.54202247 106:0.62754381 107:0.4187609 108:0.4483611 109:0.79014027 110:0.63736552 111:0.35376307 112:0.39152423 113:0.39515543 114:0.36890948 115:0.52377433 116:0.43609276 117:0.7764762 118:0.39871711 119:0.39725992 120:0.35991973 121:0.42149279 122:0.49957237 123:0.21718475 124:0.58072239 125:0.49173114 126:0.71288729 127:0.65341359 128:0.70678318 129:0.57130402 130:0.80238098 
0.6878139938779724 1.430144310251392 0.9980504760500957 1:0.39618635 2:0.20528136 3:0.12779108 4:0.8233161 5:0.54820406 6:0.45690626 7:0.21583182 8:0.55663818 9:0.55768257 10:0.5499562 11:0.60672849 12:0.39288226 13:0.37780422 14:0.45500836 15:0.46883476 16:0.75640523 17:0.54621214 18:0.67474365 19:0.5056352 20:0.49203342 21:0.40489641 22:0.72800207 23:0.50553852 24:0.17539373 25:0.49535769 26:0.5864597 27:0.46744218 28:0.48278233 29:0.56951088 30:0.42813981 31:0.76918632 32:0.39185834 33:0.58315235 34:0.39723295 35:0.29034448 36:0.61128825 37:0.49101284 38:0.65898281 39:0.60721695 40:0.62251639 41:0.51725125 42:0.48146737 43:0.50364131 44:0.7789495 45:0.55655122 46:0.28275687 47:0.4774096 48:0.547297 49:0.82791406 50:0.53793305 51:0.47367391 52:0.37839288 53:0.35057017 54:0.33654171 55:0.43738842 56:0.59981495 57:0.1807059 58:0.58993012 59:0.54162836 60:0.30773413 61:0.53736144 62:0.42810059 63:0.67478067 64:0.65014791 65:0.5743314 66:0.29700586 67:0.59424871 68:0.65496165 69:0.34017345 70:0.42603648 71:0.59063828 72:0.5483132 73:0.33129171 74:0.51196057 75:0.37792996 76:0.32010216 77:0.3488071 78:0.61492884 79:0.61487329 80:0.41173884 81:0.62914044 82:0.45031267 83:0.65941691 84:0.39222273 85:0.45345488 86:0.20436022 87:0.46182275 88:0.35235581 89:0.55211371 90:0.15508589 91:0.53480065 92:0.60648084 93:0.30885342 94:0.3076598 95:0.40411764 96:0.41640535 97:0.51831436 98:0.71445936 99:0.55375773 100:0.56747407 101:0.78567326 102:0.51566315 103:0.37657323 104:0.66172111 105:0.66323495 106:0.41424644 107:0.28151295 108:0.57821667 109:0.5762791 110:0.49166504 111:0.37900788 112:0.2160998 113:0.42126635 114:0.35116705 115:0.42440879 116:0.62515014 117:0.41471127 118:0.47596461 119:0.60351437 120:0.49389035 121:0.64001602 122:0.43981674 123:0.24324703 124:0.34967324 125:0.42288628 126:0.68037581 127:0.14888918 128:0.61618441 129:0.74239933 130:0.60039485 
0.5524646388102412 0 0 1:0.5813185 2:0.53288722 3:0.5357393 4:0.50258881 5:0.5393272 6:0.38997996 7:0.48504975 8:0.52752894 9:0.22632621 10:0.74151421 11:0.65984243 12:0.51414114 13:0.63512844 14:0.58492506 15:0.38166088 16:0.44418049 17:0.45392194 18:0.45443693 19:0.48478737 20:0.31293878 21:0.48978207 22:0.54668444 23:0.58801454 24:0.45674476 25:0.69584966 26:0.41353071 27:0.78341115 28:0.77307087 29:0.6858269 30:0.24820963 31:0.33001882 32:0.45524359 33:0.22110161 34:0.6431995 35:0.49634174 36:0.60598975 37:0.60588956 38:0.67409319 39:0.58662421 40:0.37440571 41:0.4780176 42:0.53101981 43:0.40623662 44:0.58107662 45:0.37081993 46:0.53635222 47:0.63777226 48:0.5155341 49:0.44427973 50:0.51151377 51:0.48037601 52:0.68901515 53:0.41331747 54:0.45836854 55:0.53713012 56:0.35135087 57:0.52271229 58:0.58959442 59:0.77040839 60:0.53556401 61:0.6084199 62:0.21753615 63:0.52577353 64:0.52537274 65:0.52267492 66:0.49486789 67:0.48283228 68:0.5047946 69:0.6117723 70:0.35892603 71:0.57301557 72:0.40899819 73:0.57351613 74:0.48885453 75:0.21267878 76:0.44372591 77:0.68257761 78:0.31905094 79:0.44106042 80:0.58126235 81:0.43338218 82:0.34526181 83:0.35121188 84:0.31679729 85:0.31766111 86:0.4557285 87:0.42409626 88:0.75833505 89:0.79502791 90:0.49674121 91:0.28013283 92:0.5647766 93:0.66357648 94:0.26311687 95:0.61499518 96:0.1587531 97:0.37579072 98:0.60620737 99:0.33444813 100:0.17876014 101:0.61256361 102:0.4082599 103:0.54588294 104:0.32571855 105:0.29435027 106:0.97928941 107:0.48327038 108:0.58646917 109:0.53590238 110:0.76399553 111:0.051082779 112:0.72651947 113:0.36249098 114:0.43658406 115:0.41552773 116:0.54201245 117:0.52385527 118:0.29411337 119:0.53421748 120:0.40220058 121:0.49389401 122:0.35541934 123:0.35401428 124:0.33923221 125:0.37749714 126:0.73690987 127:0.64063781 128:0.87892824 129:0.55635488 130:0.71633613 
0.004930332458957647 0 0 1:0.49512443 2:0.49366897 3:0.44249162 4:0.56865549 5:0.29074255 6:0.56011325 7:0.63651025 8:0.52306366 9:0.46511832 10:0.57432693 11:0.32047325 12:0.65038598 13:0.29466319 14:0.3717005 15:0.70691711 16:0.56524771 17:0.52987874 18:0.43653387 19:0.31791657 20:0.43742037 21:0.35405228 22:0.3491233 23:0.53648436 24:0.358435 25:0.33858919 26:0.28697759 27:0.29746914 28:0.55038959 29:0.66267085 30:0.33170888 31:0.56657207 32:0.74009854 33:0.82902777 34:0.39406201 35:0.75467962 36:0.44155642 37:0.57149309 38:0.60889918 39:0.49123669 40:0.46005294 41:0.5914371 42:0.46239182 43:0.41555792 44:0.55406785 45:0.28254387 46:0.64062101 47:0.37854204 48:0.49234226 49:0.33867013 50:0.4085792 51:0.68500173 52:0.44788173 53:0.34861109 54:0.69577163 55:0.71067381 56:0.50059903 57:0.62313056 58:0.53265733 59:0.58303893 60:0.39684689 61:0.62290484 62:0.62178385 63:0.4447093 64:0.43709189 65:0.59327489 66:0.3548021 67:0.30630422 68:0.62724078 69:0.4509154 70:0.76154345 71:0.27181423 72:0.5374338 73:0.4430595 74:0.61442477 75:0.64117187 76:0.57379651 77:0.44280386 78:0.44202641 79:0.18856853 80:0.38213065 81:0.6088841 82:0.48091912 83:0.67169189 84:0.64706248 85:0.63991106 86:0.51531124 87:0.47976038 88:0.39153507 89:0.58600819 90:0.62597746 91:0.58764964 92:0.52578712 93:0.42866838 94:0.58128023 95:0.6371665 96:0.58075237 97:0.58353317 98:0.57016939 99:0.50856394 100:0.57944393 101:0.80123413 102:0.55257338 103:0.49260816 104:0.34206691 105:0.55369657 106:0.46150243 107:0.2496798 108:0.57421511 109:0.62512088 110:0.57089615 111:0.64756727 112:0.58939153 113:0.59675276 114:0.34297577 115:0.18798769 116:0.36929137 117:0.49141398 118:0.24947338 119:0.47673306 120:0.36446568 121:0.8438924 122:0.56835759 123:0.56375515 124:0.47104216 125:0.60642087 126:0.63444984 127:0.091499284 128:0.47553927 129:0.66902155 130:0.85202372 
0 0 0.4419612161104707 1:0.1857314 2:0.39601868 3:0.52374244 4:0.42498276 5:0.28941518 6:0.70985472 7:0.29483339 8:0.69646597 9:0.54440773 10:0.50047135 11:0.29861304 12:0.42493749 13:0.31509539 14:0.31983334 15:0.64465791 16:0.42035705 17:0.74210191 18:0.42502981 19:0.47055015 20:0.53286064 21:0.28583029 22:0.33316284 23:0.56824797 24:0.32972822 25:0.626571 26:0.76695597 27:0.52633393 28:0.66165555 29:0.59388644 30:0.68446654 31:0.38017139 32:0.71177971 33:0.36264831 34:0.28571546 35:0.55371886 36:0.72124374 37:0.61852568 38:0.26612094 39:0.30787167 40:0.49879894 41:0.53932959 42:0.52769691 43:0.54601759 44:0.57695597 45:0.11237557 46:0.41600856 47:0.42944995 48:0.58569568 49:0.43636259 50:0.47778299 51:0.82510519 52:0.42978758 53:0.37059414 54:0.57929271 55:0.52184266 56:0.30298057 57:0.51015562 58:0.56501919 59:0.2999827 60:0.53123152 61:0.39186212 62:0.5174095 63:0.57932895 64:0.65291089 65:0.59208763 66:0.32161725 67:0.69111753 68:0.41404665 69:0.79713887 70:0.46204296 71:0.32944712 72:0.34930965 73:0.55735344 74:0.65039408 75:0.20770584 76:0.61763996 77:0.86469519 78:0.40290302 79:0.48604313 80:0.89296693 81:0.18419684 82:0.48069692 83:0.66807228 84:0.39806101 85:0.54418969 86:0.73091561 87:0.58332992 88:0.31592962 89:0.42564332 90:0.53301275 91:0.31924725 92:0.50798631 93:0.51069731 94:0.99451083 95:0.77951688 96:0.23010853 97:0.76136202 98:0.81065351 99:0.51244581 100:0.48273575 101:0.64349616 102:0.42174098 103:0.31125587 104:0.41582206 105:0.622926 106:0.76917046 107:0.48327318 108:0.29806623 109:0.56808174 110:0.55734015 111:0.34304762 112:0.50660676 113:0.75547791 114:0.59114677 115:0.21942805 116:0.35135281 117:0.51334733 118:0.34371808 119:0.56921369 120:0.54583609 121:0.71969247 122:0.55469835 123:0.27797982 124:0.32137227 125:0.41196442 126:0.64285082 127:0.36642554 128:0.60264522 129:0.709261 130:0.64478528 
0 1.945221162802008 3.125290308320628 1:0.58559877 2:0.54010594 3:0.43844911 4:0.62236315 5:0.53505737 6:0.72419703 7:0.83717853 8:0.86547023 9:0.53107208 10:0.37288162 11:0.48324582 12:0.52774179 13:0.48743823 14:0.3882719 15:0.4536649 16:0.58340526 17:0.64221191 18:0.46725675 19:0.43864846 20:0.84282255 21:0.4982858 22:0.71718806 23:0.36827821 24:0.30052871 25:0.52096093 26:0.5270654 27:0.45669881 28:0.60267925 29:0.64746904 30:0.016136067 31:0.61177617 32:0.56834453 33:0.35750958 34:0.25821126 35:0.30315492 36:0.34296232 37:0.39745155 38:0.57841933 39:0.65866435 40:0.60078079 41:0.71764958 42:0.81883341 43:0.37380934 44:0.44224551 45:0.47804415 46:0.56967092 47:0.48489246 48:0.46059585 49:0.65401769 50:0.4374918 51:0.45542431 52:0.58558983 53:0.33033049 54:0.60925615 55:0.4448742 56:0.40300608 57:0.48795614 58:0.29168868 59:0.32530013 60:0.41484007 61:0.26165786 62:0.44746894 63:0.63015884 64:0.54997146 65:0.46816212 66:0.34902868 67:0.35690069 68:0.60137355 69:0.71039259 70:0.9017598 71:0.75984132 72:0.40455729 73:0.47333518 74:0.56281424 75:0.43702546 76:0.75726694 77:0.62404704 78:0.52701288 79:0.53961438 80:0.54413521 81:0.46010721 82:0.58207697 83:0.41704866 84:0.74346995 85:0.40147421 86:0.65372348 87:0.1366411 88:0.47633758 89:0.71715289 90:0.39878929 91:0.47511706 92:0.46604046 93:0.34356871 94:0.4341073 95:0.61915684 96:0.47163969 97:0.44594443 98:0.6815688 99:0.75813514 100:0.79464024 101:0.49155846 102:0.21497233 103:0.50150657 104:0.71265876 105:0.72283089 106:0.67383373 107:0.22521693 108:0.67770463 109:0.82953572 110:0.51308626 111:0.57346755 112:0.35727936 113:0.50863504 114:0.30305925 115:0.49766511 116:0.43570453 117:0.40275869 118:0.63371414 119:0.20824033 120:0.51226312 121:0.5619055 122:0.44112325 123:0.62970048 124:0.73218155 125:0.49279988 126:0.58147299 127:0.62528563 128:0.65381056 129:0.63909853 130:0.72961295 
0 0 0.146210022560088 1:0.68065846 2:0.31441784 3:0.57727063 4:0.58367437 5:0.44977495 6:0.48167711 7:0.59495384 8:0.59894609 9:0.74181551 10:0.30860728 11:0.47940204 12:0.51474154 13:0.35927698 14:0.39092985 15:0.55779958 16:0.4477402 17:0.529392 18:0.56216061 19:0.34119314 20:0.4529441 21:0.81421077 22:0.42476001 23:0.70361072 24:0.22034541 25:0.57634288 26:0.55911756 27:0.33335721 28:0.38901243 29:0.63158953 30:0.32207841 31:0.63029283 32:0.30370182 33:0.52964497 34:0.25712028 35:0.52845478 36:0.63716942 37:0.53271687 38:0.47749692 39:0.3261199 40:0.40122241 41:0.51135552 42:0.50424838 43:0.73250961 44:0.31426165 45:0.44872388 46:0.56939071 47:0.59234571 48:0.43561754 49:0.72671783 50:0.17419076 51:0.5027225 52:0.547019 53:0.28278372 54:0.45606786 55:0.48116991 56:0.4489184 57:0.41188061 58:0.5640592 59:0.38433653 60:0.67634368 61:0.26517656 62:0.59811592 63:0.68840641 64:0.37812659 65:0.23492324 66:0.58113676 67:0.60287213 68:0.54640913 69:0.60606277 70:0.47745755 71:0.6880182 72:0.31571633 73:0.57108223 74:0.44624686 75:0.60251105 76:0.72938198 77:0.54970032 78:0.22720753 79:0.57629323 80:0.56996685 81:0.45320275 82:0.41775355 83:0.35631657 84:0.3071942 85:0.45211154 86:0.44456452 87:0.43341964 88:0.5299933 89:0.64824551 90:0.46394077 91:0.47734123 92:0.47216335 93:0.55356878 94:0.6013515 95:0.34276319 96:0.33430627 97:0.50062174 98:0.69477659 99:0.44355026 100:0.39653671 101:0.72180068 102:0.4949778 103:0.57788622 104:0.022856008 105:0.33986792 106:0.56755269 107:0.2489626 108:0.75610262 109:0.75753742 110:0.84756607 111:0.29331926 112:0.35261023 113:0.3895705 114:0.45480621 115:0.46323436 116:0.5824421 117:0.58987015 118:0.36831141 119:0.44970211 120:0.53667331 121:0.43234816 122:0.27358645 123:0.45515564 124:0.65647769 125:0.45622247 126:0.57380134 127:0.22748654 128:0.54499453 129:0.55893576 130:0.77249157 
2.084590484060222 0.007810124482365784 0 1:0.68309754 2:0.422757 3:0.66180855 4:0.79184836 5:0.53675252 6:0.46014503 7:0.65784359 8:0.43322507 9:0.57056838 10:0.34802359 11:0.3350921 12:0.49055797 13:0.53548324 14:0.36509517 15:0.51424927 16:0.47780907 17:0.74560308 18:0.45078614 19:0.3558791 20:0.25951582 21:0.39384842 22:0.69056553 23:0.48657924 24:0.37692404 25:0.52658987 26:0.45502284 27:0.77767748 28:0.49334478 29:0.47140992 30:0.34499618 31:0.42043492 32:0.41057166 33:0.40454358 34:0.29827034 35:0.58396345 36:0.1959084 37:0.44625494 38:0.60940653 39:0.52594388 40:0.75445199 41:0.59124142 42:0.70206994 43:0.71779847 44:0.49407735 45:0.5531646 46:0.76601762 47:0.48569176 48:0.43368313 49:0.58482194 50:0.40763876 51:0.59993231 52:0.74514347 53:0.54145139 54:0.61560088 55:0.40296736 56:0.24045798 57:0.47895241 58:0.49052623 59:0.67854279 60:0.47346401 61:0.63299477 62:0.38360628 63:0.52897513 64:0.53474504 65:0.62149704 66:0.48730105 67:0.23154563 68:0.42781428 69:0.48394179 70:0.58293647 71:0.81203431 72:0.30069861 73:0.59211481 74:0.29882026 75:0.56564146 76:0.48921093 77:0.66803592 78:0.43919739 79:0.41151315 80:0.51879954 81:0.50267434 82:0.47176 83:0.65862983 84:0.52157235 85:0.50592649 86:0.40731841 87:0.23965353 88:0.56425101 89:0.48730913 90:0.34518269 91:0.36862618 92:0.70058811 93:0.58129013 94:0.53157926 95:0.5395031 96:0.38590491 97:0.63109291 98:0.78230238 99:0.67915726 100:0.51384962 101:0.53844398 102:0.31511319 103:0.69329363 104:0.44953895 105:0.5877862 106:0.6764375 107:0.2549217 108:0.55753517 109:0.5197342 110:0.63101196 111:0.74246335 112:0.46565109 113:0.72676474 114:0.55015928 115:0.328271 116:0.51858014 117:0.28669965 118:0.43181023 119:0.6359306 120:0.48844278 121:0.59849292 122:0.42254859 123:0.38822606 124:0.71237612 125:0.42677361 126:0.62092406 127:0.56553245 128:0.70557886 129:0.3893584 130:0.77543652 
0.792082514765272 0.006328655213246353 0.2896752311028553 1:0.61105508 2:0.5838756 3:0.50132769 4:0.47787961 5:0.50757051 6:0.54272163 7:0.51420718 8:0.576868 9:0.62675542 10:0.57482362 11:0.53897065 12:0.8338269 13:0.5278185 14:0.33601078 15:0.61186534 16:0.49666062 17:0.75623888 18:0.34925592 19:0.56238061 20:0.9522754 21:0.51940519 22:0.43947017 23:0.35639694 24:0.42359263 25:0.25105771 26:0.65353149 27:0.61768037 28:0.5805431 29:0.50903165 30:0.40673584 31:0.51469481 32:0.25848266 33:0.46366903 34:0.35110986 35:0.60813791 36:0.56113362 37:0.44585943 38:0.62826937 39:0.62568974 40:0.63725471 41:0.62218457 42:0.92532367 43:0.45570794 44:0.73269087 45:0.3501648 46:0.51164335 47:0.30491659 48:0.66742891 49:0.57128906 50:0.3918635 51:0.69664812 52:0.32041243 53:0.67727411 54:0.48831493 55:0.47701916 56:0.70894283 57:0.36878061 58:0.71436125 59:0.50156164 60:0.51813883 61:0.087938622 62:0.38372517 63:0.55978954 64:0.68312013 65:0.5902738 66:0.35053712 67:0.65849268 68:0.62236571 69:0.60150951 70:0.53910422 71:0.28253326 72:0.73689836 73:0.6048975 74:0.5954895 75:0.59983289 76:0.30004022 77:0.43141058 78:0.73563892 79:0.38328022 80:0.26214036 81:0.20425352 82:0.29076859 83:0.45235619 84:0.14918454 85:0.64706451 86:0.48260278 87:0.60563153 88:0.44273353 89:0.48945096 90:0.6621787 91:0.59694296 92:0.35105959 93:0.55763304 94:0.29864433 95:0.61830688 96:0.30773851 97:0.72491276 98:0.45125625 99:0.84874445 100:0.66048902 101:0.7376985 102:0.36680996 103:0.52088451 104:0.55883294 105:0.66736674 106:0.498133 107:0.51732171 108:0.58030212 109:0.80734384 110:0.72464657 111:0.58890468 112:0.28329322 113:0.50188446 114:0.84569156 115:0.41347507 116:0.61589205 117:0.49550143 118:0.4857749 119:0.63934612 120:0.47552109 121:0.45337188 122:0.65987134 123:0.43120942 124:0.42709404 125:0.31605378 126:0.68148834 127:0.63780844 128:0.63381493 129:0.67249393 130:0.81217313 
0 1.165572326424691 1.152479076877794 1:0.62404394 2:0.69492918 3:0.54170924 4:0.49213713 5:0.40559092 6:0.25497264 7:0.82763845 8:0.85222304 9:0.55178314 10:0.55277705 11:0.60623425 12:0.57061768 13:0.62886226 14:0.74280393 15:0.73115611 16:0.67136538 17:0.54748714 18:0.58314329 19:0.75261402 20:0.7028147 21:0.47098586 22:0.38425669 23:0.62354338 24:0.35265651 25:0.37415069 26:0.38164258 27:0.63897759 28:0.66535497 29:0.36040962 30:0.39199975 31:0.15905924 32:0.54218823 33:0.70987236 34:0.37605312 35:0.38754264 36:0.50304794 37:0.42472851 38:0.76376712 39:0.56397176 40:0.31117013 41:0.53118908 42:0.68366784 43:0.37132275 44:0.63206047 45:0.52084678 46:0.73555368 47:0.57482237 48:0.50780976 49:0.51079124 50:0.40513769 51:0.37627017 52:0.89705169 53:0.69253606 54:0.26213261 55:0.21987218 56:0.75402045 57:0.41205171 58:0.40356687 59:0.44900721 60:0.68091732 61:0.48324394 62:0.7544564 63:0.78118485 64:0.53750807 65:0.39800021 66:0.6232686 67:0.43425953 68:0.50109726 69:0.67343634 70:0.49252364 71:0.61847514 72:0.39652494 73:0.31049505 74:0.73390323 75:0.37581027 76:0.39689422 77:0.4364436 78:0.42154029 79:0.4192352 80:0.67314684 81:0.48233026 82:0.53440148 83:0.50870258 84:0.52670419 85:0.48188037 86:0.20055895 87:0.55348116 88:0.40809134 89:0.70131695 90:0.74557811 91:0.48963532 92:0.47923693 93:0.48980448 94:0.27331987 95:0.69283521 96:0.38874167 97:0.22813936 98:0.45008516 99:0.26672709 100:0.23027974 101:0.73838419 102:0.38712633 103:0.33889112 104:0.14908487 105:0.32905969 106:0.70663512 107:0.39519107 108:0.47609878 109:0.40242609 110:0.35745245 111:0.35645032 112:0.72980928 113:0.48358291 114:0.33515149 115:0.19420038 116:0.42561287 117:0.49461308 118:0.43889141 119:0.64738768 120:0.49857718 121:0.36152214 122:0.40374762 123:0.55777252 124:0.49766585 125:0.30565903 126:0.81256026 127:0.58757716 128:0.93346643 129:0.57858819 130:0.77614021 
0 0.0825560234923586 0 1:0.27096343 2:0.67063409 3:0.44938186 4:0.54684001 5:0.46120673 6:0.59630865 7:0.71197742 8:0.53943282 9:0.69970644 10:0.85233736 11:0.56340849 12:0.60047925 13:0.69936979 14:0.54557645 15:0.66114241 16:0.55888385 17:0.68243092 18:0.79863822 19:0.16099659 20:0.55108947 21:0.49181652 22:0.39993641 23:0.59836626 24:0.58305526 25:0.43079463 26:0.4460701 27:0.3858006 28:0.33315918 29:0.65485704 30:0.27089947 31:0.63143247 32:0.48628405 33:0.43730927 34:0.47623122 35:0.66839486 36:0.58157134 37:0.55172384 38:0.29163632 39:0.3124409 40:0.22485389 41:0.61304277 42:0.4222641 43:0.34216893 44:0.59719968 45:0.52148312 46:0.50995934 47:0.59426558 48:0.59104759 49:0.27681312 50:0.3547537 51:0.72189367 52:0.35491496 53:0.4984042 54:0.44398627 55:0.39655486 56:0.38311136 57:0.56799704 58:0.62488014 59:0.46175826 60:0.60610902 61:0.44969743 62:0.50822973 63:0.5699622 64:0.49385074 65:0.49733618 66:0.57572937 67:0.56376255 68:0.43755084 69:0.51780587 70:0.52969128 71:0.41625217 72:0.4188906 73:0.64813656 74:0.79446983 75:0.40050757 76:0.43605673 77:0.48010516 78:0.14687885 79:0.29362309 80:0.10900216 81:0.58304256 82:0.47396967 83:0.69786 84:0.46343219 85:0.43917978 86:0.56237441 87:0.3899067 88:0.54030991 89:0.65608889 90:0.48928234 91:0.20137057 92:0.65687925 93:0.44247168 94:0.33248514 95:0.80424631 96:0.41002163 97:0.41060138 98:0.16913299 99:0.63621509 100:0.25062916 101:0.51573408 102:0.5177961 103:0.48179337 104:0.34975111 105:0.62186688 106:0.44134083 107:0.40356728 108:0.63059741 109:0.75880021 110:0.566266 111:0.50639224 112:0.63113803 113:0.40090132 114:0.38032168 115:0.35347083 116:0.28493857 117:0.84392107 118:0.46971321 119:0.46128094 120:0.79974908 121:0.47761622 122:0.50891519 123:0.38628608 124:0.43220502 125:0.30912063 126:0.74601007 127:0.7218743 128:0.58214206 129:0.45756063 130:0.8576147 
0 0.8749275931876553 0 1:0.57629198 2:0.80131882 3:0.71434635 4:0.58995467 5:0.25340873 6:0.33944339 7:0.46917084 8:0.51093346 9:0.6027289 10:0.6416325 11:0.682298 12:0.34152001 13:0.57522267 14:0.33066621 15:0.55147022 16:0.53131729 17:0.49653187 18:0.34925598 19:0.48722333 20:0.44188324 21:0.40640661 22:0.57054609 23:0.68172318 24:0.3931365 25:0.58844554 26:0.43294188 27:0.55800581 28:0.47808969 29:0.40431342 30:0.25237215 31:0.27580911 32:0.48929825 33:0.23566277 34:0.51138788 35:0.66444725 36:0.4635731 37:0.59241492 38:0.78399277 39:0.6629113 40:0.35071948 41:0.40610412 42:0.53047603 43:0.64526677 44:0.50378281 45:0.70172435 46:0.61208767 47:0.68634349 48:0.54612362 49:0.61109287 50:0.45370606 51:0.36738417 52:0.46914199 53:0.9692958 54:0.38174 55:0.45312595 56:0.36514544 57:0.30065325 58:0.55960375 59:0.56352192 60:0.72347546 61:0.40437967 62:0.60296237 63:0.55255836 64:0.91366804 65:0.63316077 66:0.56788391 67:0.76566142 68:0.55012321 69:0.70884156 70:0.53850615 71:0.74408716 72:0.44186398 73:0.38403776 74:0.64700633 75:0.31317478 76:0.447916 77:0.58580196 78:0.37528268 79:0.4422105 80:0.45708945 81:0.55311882 82:0.54343092 83:0.53879136 84:0.58043218 85:0.42876476 86:0.42976773 87:0.67419469 88:0.54317141 89:0.44603911 90:0.75089067 91:0.5163691 92:0.42937413 93:0.54429615 94:0.25227812 95:0.45206782 96:0.37715653 97:0.16310443 98:0.53484589 99:0.2492379 100:0.18343772 101:0.44645509 102:0.3683722 103:0.50427729 104:0.38876432 105:0.52265769 106:0.45452586 107:0.36067346 108:0.53426814 109:0.50423741 110:0.51080614 111:0.49171942 112:0.8337763 113:0.37545145 114:0.24045971 115:0.40711987 116:0.33836141 117:0.60949457 118:0.41729012 119:0.45399931 120:0.46733665 121:0.53739011 122:0.33406511 123:0.42131585 124:0.60471427 125:0.33780658 126:0.83277416 127:0.66947353 128:0.9649809 129:0.58214194 130:0.70862532 
0.2047000679672527 3.838916757463693 2.843395460246695 1:0.62062013 2:0.30735508 3:0.17872988 4:0.58747554 5:0.3584443 6:0.53179687 7:0.58448774 8:0.55278087 9:0.32263488 10:0.40188545 11:0.60339099 12:0.36922163 13:0.55416495 14:0.37957028 15:0.43708226 16:0.31033683 17:0.46101883 18:0.43157884 19:0.48986956 20:0.6048063 21:0.47437075 22:0.47955817 23:0.78957367 24:0.62298536 25:0.31105518 26:0.2555396 27:0.47109061 28:0.41925564 29:0.63122767 30:0.39745533 31:0.409219 32:0.25743753 33:0.38905936 34:0.22105481 35:0.4477728 36:0.66519225 37:0.74725223 38:0.73516756 39:0.46532139 40:0.41335535 41:0.40722314 42:0.70227158 43:0.47497097 44:0.70832354 45:0.4061819 46:0.57924807 47:0.36484978 48:0.5550521 49:0.21328631 50:0.58483183 51:0.55631971 52:0.14762318 53:0.5285762 54:0.3257781 55:0.57657468 56:0.32755327 57:0.59607738 58:0.49219033 59:0.71017623 60:0.50393188 61:0.54305542 62:0.43489978 63:0.55156487 64:0.72968578 65:0.63088596 66:0.50597733 67:0.56438231 68:0.45676538 69:0.59547758 70:0.69559532 71:0.46964782 72:0.42873469 73:0.52207059 74:0.46388939 75:0.43937364 76:0.37608111 77:0.43560889 78:0.38512331 79:0.24417523 80:0.61597061 81:0.46307608 82:0.43929887 83:0.51139307 84:0.33706504 85:0.46487716 86:0.68548435 87:0.44627431 88:0.60047036 89:0.48455936 90:0.41567618 91:0.24979597 92:0.46375242 93:0.47189385 94:0.53086174 95:0.67074198 96:0.49858731 97:0.34879413 98:0.30208611 99:0.4280338 100:0.4733485 101:0.48124275 102:0.33248022 103:0.49405059 104:0.76841891 105:0.47184816 106:0.59582645 107:0.49224561 108:0.60238314 109:0.71674758 110:0.50611603 111:0.32852972 112:0.75472271 113:0.46542913 114:0.30984721 115:0.25364462 116:0.45561883 117:0.58345526 118:0.46171549 119:0.57424551 120:0.6521408 121:0.58529413 122:0.23289408 123:0.51439703 124:0.40591979 125:0.34481561 126:0.62057316 127:0.39826617 128:0.56833738 129:0.43701664 130:0.65463424 
0 0 2.202219599808808 1:0.46934912 2:0.54824758 3:0.36364165 4:0.62676454 5:0.58843791 6:0.54516762 7:0.66448909 8:0.57456213 9:0.43215418 10:0.50014293 11:0.43595722 12:0.73644197 13:0.66825169 14:0.48817006 15:0.48839545 16:0.52788341 17:0.58433181 18:0.49786794 19:0.36265832 20:0.55309194 21:0.36198512 22:0.67460084 23:0.49090356 24:0.45476744 25:0.68723387 26:0.76268584 27:0.44406176 28:0.31281719 29:0.36418247 30:0.38848549 31:0.65562934 32:0.55866778 33:0.55055004 34:0.34763452 35:0.51511782 36:0.86069262 37:0.71356398 38:0.87725902 39:0.50707066 40:0.4956876 41:0.43786246 42:0.33794522 43:0.6443336 44:0.47220621 45:0.67607075 46:0.54936451 47:0.31762955 48:0.45000958 49:0.36225805 50:0.3113341 51:0.61455065 52:0.63832849 53:0.5629099 54:0.46091563 55:0.55145609 56:0.39381257 57:0.48747125 58:0.52959293 59:0.76989067 60:0.45438045 61:0.60691786 62:0.28418508 63:0.53784496 64:0.49863014 65:0.59625363 66:0.61969155 67:0.50212586 68:0.56432402 69:0.44028327 70:0.26018301 71:0.5703311 72:0.51515228 73:0.58386838 74:0.44738746 75:0.58972484 76:0.54090434 77:0.29106095 78:0.44815519 79:0.35747063 80:0.33619884 81:0.41269615 82:0.5327301 83:0.41954505 84:0.52177507 85:0.59580183 86:0.45293537 87:0.42364031 88:0.45711794 89:0.47856942 90:0.24398282 91:0.71092659 92:0.50535005 93:0.5458445 94:0.59503108 95:0.42465597 96:0.60040498 97:0.74867672 98:0.59671873 99:0.61887759 100:0.72384489 101:0.36212146 102:0.2763015 103:0.35005793 104:0.83415258 105:0.65608746 106:0.29970208 107:0.28665367 108:0.49921662 109:0.57091886 110:0.40311384 111:0.69962347 112:0.56330121 113:0.62380284 114:0.57957762 115:0.35294285 116:0.22600754 117:0.57307488 118:0.60066193 119:0.60339111 120:1 121:0.63303572 122:0.56587589 123:0.29041293 124:0.4583357 125:0.37263143 126:0.53823173 127:0.38506863 128:0.56335896 129:0.40737283 130:0.70397258 
0 3.798153936165006 2.970871017180286 1:0.46672702 2:0.80897909 3:0.16705075 4:0.80680788 5:0.62301636 6:0.28480005 7:0.50309938 8:0.68735749 9:0.55803102 10:0.38543504 11:0.77482587 12:0.41130221 13:0.36917627 14:0.47199079 15:0.63885772 16:0.59954923 17:0.56044376 18:0.30415529 19:0.37805969 20:0.28391546 21:0.54659343 22:0.32582137 23:0.351818 24:0.071430169 25:0.23349348 26:0.55047196 27:0.52590495 28:0.54332834 29:0.7622233 30:0.43735242 31:0.53951561 32:0.30052432 33:0.14146967 34:0.17916857 35:0.39899865 36:0.4573442 37:0.743716 38:0.62357986 39:0.16147478 40:0.45500958 41:0.57416201 42:0.71536678 43:0.70683825 44:0.4875719 45:0.46861407 46:0.45666766 47:0.73503667 48:0.42053127 49:0.76785046 50:0.12953559 51:0.42022237 52:0.59808421 53:0.52591205 54:0.4820163 55:0.33113962 56:0.72623205 57:0.14762953 58:0.57904422 59:0.53062719 60:0.603513 61:0.25176516 62:0.25584981 63:0.5847367 64:0.70106459 65:0.69710118 66:0.56557482 67:0.34495389 68:0.60028964 69:0.081401199 70:0.23865542 71:0.29974204 72:0.49777716 73:0.48478729 74:0.44839618 75:0.57972401 76:0.36539948 77:0.48322994 78:0.51101971 79:0.50151026 80:0.5921396 81:0.68452585 82:0.15609612 83:0.23279031 84:0.2260351 85:0.68798697 86:0.39882162 87:0.50150216 88:0.41145816 89:0.63103628 90:0.30009624 91:0.55713367 92:0.24892119 93:0.33179089 94:0.7412588 95:0.35389328 96:0.7879293 97:0.35591409 98:0.72098166 99:0.62558281 100:0.58365917 101:0.48994818 102:0.42901295 103:0.56033051 104:0.63915455 105:0.34975624 106:0.52836132 107:0.545026 108:0.36873344 109:0.15882871 110:0.67646581 111:0.48797342 112:0.5662204 113:0.63150257 114:0.20197831 115:0.39405498 116:0.50823855 117:0.46227294 118:0.32418552 119:0.5281592 120:0.47828197 121:0.33775547 122:0.57378101 123:0.54209477 124:0.51583642 125:0.62932259 126:0.56041527 127:0.18525597 128:0.45153275 129:0.67321259 130:0.68685019 
1.114188714593801 2.139567695414822 3.774389911611706 1:0.44408351 2:0.47631058 3:0.33301598 4:0.57263142 5:0.50101602 6:0.47950011 7:0.36814401 8:0.30236766 9:0.50055838 10:0.48954999 11:0.39582971 12:0.59915197 13:0.57000387 14:0.55713248 15:0.43822879 16:0.71544349 17:0.60547346 18:0.48420262 19:0.29430652 20:0.55410469 21:0.31762543 22:0.57356155 23:0.66539043 24:0.564062 25:0.35315853 26:0.42017978 27:0.58114219 28:0.39231628 29:0.47097728 30:0.26807818 31:0.55475032 32:0.70875776 33:0.28620735 34:0.45341381 35:0.48274997 36:0.41350979 37:0.68986088 38:0.41504353 39:0.49924764 40:0.46282706 41:0.63473994 42:0.49349368 43:0.50157654 44:0.58402705 45:0.60154712 46:0.70163471 47:0.49697873 48:0.30612284 49:0.70707989 50:0.4553543 51:0.48261902 52:0.46320954 53:0.41198879 54:0.4938381 55:0.54640657 56:0.51116419 57:0.53759843 58:0.34130126 59:0.30803934 60:0.55186951 61:0.43523008 62:0.31949669 63:0.55665255 64:0.67605668 65:0.32569876 66:0.6024664 67:0.51571709 68:0.66452694 69:0.38778913 70:0.65740079 71:0.68200195 72:0.31739262 73:0.5677067 74:0.39661041 75:0.56809491 76:0.66404772 77:0.54637539 78:0.37419021 79:0.49917945 80:0.51404601 81:0.48767209 82:0.52225095 83:0.40287358 84:0.56117737 85:0.4000003 86:0.62152886 87:0.066255696 88:0.4002893 89:0.63922286 90:0.18821968 91:0.35798693 92:0.47124371 93:0.31072357 94:0.44852194 95:0.37412652 96:0.42970827 97:0.32478848 98:0.66631573 99:0.60592926 100:0.63486111 101:0.45099184 102:0.37375101 103:0.34408996 104:0.45677313 105:0.23508033 106:0.5991416 107:0.58427399 108:0.52615708 109:0.40408975 110:0.70524722 111:0.67520308 112:0.55323297 113:0.42273512 114:0.23340301 115:0.50719827 116:0.45849332 117:0.45088276 118:0.58763015 119:0.55494374 120:0.58883888 121:0.73399937 122:0.39935613 123:0.43880647 124:0.43300888 125:0.27782831 126:0.49123722 127:0.39467731 128:0.53470474 129:0.3722797 130:0.65027738 
1.66811871792626 0.2269737648109392 0 1:0.41363779 2:0.37668142 3:0.4626272 4:0.47825459 5:0.47034323 6:0.59685183 7:0.53277177 8:0.59236372 9:0.82091308 10:0.48034567 11:0.40780723 12:0.72166961 13:0.49278149 14:0.53091753 15:0.45649534 16:0.66483957 17:0.68927187 18:0.40217987 19:0.64993674 20:0.31548271 21:0.5481596 22:0.27890164 23:0.67874169 24:0.36844873 25:0.27648085 26:0.57264769 27:0.55259162 28:0.82484639 29:0.59581131 30:0.5549075 31:0.57897294 32:0.32964799 33:0.31560081 34:0.23097187 35:0.51733887 36:0.53906316 37:0.63868219 38:0.51677388 39:0.44735774 40:0.42236266 41:0.59856826 42:0.38202938 43:0.27841225 44:0.39292625 45:0.57838023 46:0.53409088 47:0.27618948 48:0.55986273 49:0.4570291 50:0.66038179 51:0.74801588 52:0.66958481 53:0.3308346 54:0.28139681 55:0.506302 56:0.53687054 57:0.31111676 58:0.5025388 59:0.69307685 60:0.4272044 61:0.46153167 62:0.65227669 63:0.54791468 64:0.55052948 65:0.4856787 66:0.71661997 67:0.48266187 68:0.49006882 69:0.47078726 70:0.59608895 71:0.36771056 72:0.44186321 73:0.34925169 74:0.50563401 75:0.41009226 76:0.75855601 77:0.49159992 78:0.48362029 79:0.28240067 80:0.44667906 81:0.30231002 82:0.36763296 83:0.42244723 84:0.65821797 85:0.37062925 86:0.50282234 87:0.54442173 88:0.67674547 89:0.50680208 90:0.56878144 91:0.5352326 92:0.63092548 93:0.69258511 94:0.35673329 95:0.73272175 96:0.50322777 97:0.58273214 98:0.28103247 99:0.57480401 100:0.74575722 101:0.53340846 102:0.439513 103:0.48491618 104:0.25474423 105:0.56898588 106:0.58873308 107:0.24570289 108:0.5831629 109:0.62572253 110:0.60090345 111:0.59279585 112:0.63217533 113:0.64558315 114:0.55036569 115:0.35318786 116:0.52341264 117:0.59924847 118:0.36857942 119:0.45089298 120:0.29816812 121:0.76490182 122:0.31157619 123:0.49322432 124:0.5827893 125:0.65595251 126:0.48440796 127:0.082151808 128:0.43887135 129:0.56484252 130:0.7052263 
0.2541905921455639 0 0 1:0.58175522 2:0.39427665 3:0.54421538 4:0.8051278 5:0.38189995 6:0.40845776 7:0.5367381 8:0.66908497 9:0.44422248 10:0.61505479 11:0.23904207 12:0.22288521 13:0.47740424 14:0.71953583 15:0.4107793 16:0.42062482 17:0.50125825 18:0.38432971 19:0.5595898 20:0.63971305 21:0.44509044 22:0.45730853 23:0.72265464 24:0.54855818 25:0.50365651 26:0.5870567 27:0.63919538 28:0.63121313 29:0.57961315 30:0.56698471 31:0.66260469 32:0.37337723 33:0.41166911 34:0.25484279 35:0.44181612 36:0.47710708 37:0.58745927 38:0.52686411 39:0.53457004 40:0.21552087 41:0.55498546 42:0.29882985 43:0.83265221 44:0.63634396 45:0.58924299 46:0.66913849 47:0.52478153 48:0.51412433 49:0.59269702 50:0.48722669 51:0.39595291 52:0.68065977 53:0.49754161 54:0.34032878 55:0.64887208 56:0.25113472 57:0.4492524 58:0.6868754 59:0.57208908 60:0.53722024 61:0.37578633 62:0.4079276 63:0.62071288 64:0.58401811 65:0.37823668 66:0.33842459 67:0.54188818 68:0.62095058 69:0.60024691 70:0.73417079 71:0.65595776 72:0.13594362 73:0.5466187 74:0.56903923 75:0.23630689 76:0.37963375 77:0.38248903 78:0.37455803 79:0.30804256 80:0.61445665 81:0.40749171 82:0.5162527 83:0.56519669 84:0.5408445 85:0.45302236 86:0.16469944 87:0.71440583 88:0.45512563 89:0.71115232 90:0.4883731 91:0.49491069 92:0.42597836 93:0.64269388 94:0.39416727 95:0.64069384 96:0.42190766 97:0.65046805 98:0.76659787 99:0.40946594 100:0.3321912 101:0.6299569 102:0.27589434 103:0.55581361 104:0.3464874 105:0.20369706 106:0.71153736 107:0.42082557 108:0.35897818 109:0.66703135 110:0.58174533 111:0.20432466 112:0.58017468 113:0.40798989 114:0.24499284 115:0.37037852 116:0.60286498 117:0.57163864 118:0.32887927 119:0.5422824 120:0.55586845 121:0.42155677 122:0.49104506 123:0.26293921 124:0.32425913 125:0.15795389 126:0.73239493 127:0.71645087 128:0.72853541 129:0.61453468 130:0.80832988 
1.593761040669818 3.210143566059862 1.601751661074041 1:0.12154695 2:0.40382221 3:0.35710305 4:0.75689405 5:0.026402503 6:0.60517555 7:0.38500756 8:0.36272046 9:0.58564258 10:0.72856796 11:0.72628611 12:0.4060227 13:0.47229165 14:0.38777292 15:0.38785604 16:0.58197033 17:0.61816782 18:0.5873298 19:0.42298955 20:0.34025261 21:0.62567675 22:0.46464115 23:0.48986194 24:0.4951638 25:0.51638353 26:0.45140484 27:0.32938936 28:0.54846764 29:0.34207401 30:0.70597816 31:0.4907892 32:0.44884762 33:0.41641295 34:0.50445366 35:0.41304839 36:0.7885347 37:0.47553876 38:0.41314474 39:0.38156176 40:0.35064271 41:0.47511894 42:0.44313452 43:0.56130606 44:0.54880953 45:0.12527956 46:0.49736375 47:0.50792253 48:0.59420484 49:0.81758648 50:0.62729269 51:0.49026695 52:0.53359032 53:0.53390139 54:0.43144345 55:0.53393334 56:0.57201749 57:0.57043612 58:0.59974748 59:0.28254959 60:0.56160235 61:0.36919817 62:0.25300241 63:0.54995418 64:0.67889059 65:0.41605714 66:0.64072281 67:0.61869085 68:0.59956324 69:0.37633619 70:0.54564637 71:0.76526594 72:0.32065096 73:0.29803264 74:0.56423396 75:0.48981264 76:0.5139659 77:0.38895783 78:0.33960521 79:0.64112282 80:0.40230751 81:0.25161859 82:0.61822593 83:0.86816478 84:0.45450574 85:0.45568207 86:0.50384086 87:0.39978245 88:0.34771785 89:0.34491315 90:0.58317578 91:0.44122592 92:0.51311851 93:0.27443522 94:0.48907766 95:0.4390333 96:0.36908403 97:0.4219307 98:0.5604791 99:0.58899844 100:0.45072684 101:0.45873243 102:0.35100484 103:0.4456808 104:0.50533122 105:0.54472679 106:0.33088252 107:0.22029951 108:0.55794543 109:0.71073973 110:0.61104017 111:0.53602135 112:0.44256216 113:0.3744359 114:0.37484533 115:0.66372305 116:0.6008907 117:0.33995146 118:0.3295545 119:0.7203542 120:0.45336413 121:0.54923278 122:0.20716488 123:0.47880837 124:0.53928 125:0.62506646 126:0.46936077 127:0.1426231 128:0.57133073 129:0.2850191 130:0.67983371 
0.08029354225902734 0 0 1:0.54919833 2:0.5063144 3:0.47492102 4:0.63971436 5:0.29365551 6:0.46363571 7:0.33520055 8:0.31616566 9:0.48141676 10:0.62487108 11:0.71838242 12:0.54055083 13:0.47107765 14:0.37839678 15:0.74647915 16:0.53720546 17:0.42027339 18:0.51879859 19:0.63693863 20:0.50045252 21:0.49955571 22:0.51282984 23:0.70108086 24:0.35976234 25:0.57626969 26:0.52737844 27:0.49740607 28:0.4638871 29:0.48574337 30:0.3979198 31:0.35331374 32:0.31729177 33:0.37629259 34:0.48422572 35:0.53269297 36:0.44487676 37:0.66602331 38:0.37983772 39:0.52981323 40:0.32158446 41:0.59460324 42:0.49141106 43:0.79000473 44:0.56540489 45:0.43694741 46:0.64879274 47:0.56003153 48:0.46475646 49:0.42116478 50:0.54513687 51:0.55569929 52:0.5379988 53:0.67365015 54:0.54748541 55:0.4306002 56:0.31656605 57:0.25536257 58:0.58675849 59:0.70910466 60:0.30779597 61:0.36891547 62:0.4855912 63:0.62012738 64:0.6118319 65:0.60717428 66:0.55621445 67:0.38756451 68:0.46548644 69:0.58051002 70:0.49528444 71:0.60746169 72:0.38134286 73:0.38190761 74:0.46569216 75:0.51734114 76:0.57978946 77:0.46314958 78:0.35129502 79:0.41625106 80:0.7309075 81:0.39229918 82:0.38393691 83:0.58408278 84:0.62310433 85:0.46383908 86:0.47887403 87:0.5108186 88:0.65709358 89:0.60316902 90:0.55489403 91:0.61498153 92:0.52495009 93:0.54168397 94:0.39131898 95:0.65380108 96:0.32726607 97:0.34916916 98:0.62870562 99:0.43751764 100:0.20034547 101:0.69511205 102:0.38076678 103:0.47725993 104:0.23927253 105:0.50397015 106:0.58128607 107:0.32040012 108:0.47125578 109:0.74231803 110:0.72395915 111:0.48274717 112:0.3603012 113:0.40455914 114:0.21501057 115:0.30270672 116:0.3789103 117:0.4677434 118:0.45041734 119:0.31558719 120:0.4694674 121:0.7133556 122:0.27594152 123:0.49610385 124:0.55691618 125:0.47827381 126:0.67705899 127:0.63087499 128:0.66121304 129:0.51621896 130:0.92958629 
0 0.3801313549264689 0.4398496158336944 1:0.34204629 2:0.27253848 3:0.58644152 4:0.51952618 5:0.3823303 6:0.46348664 7:0.77625948 8:0.63634735 9:0.57339573 10:0.48526073 11:0.75032592 12:0.418919 13:0.40797988 14:0.53142548 15:0.49800149 16:0.42586571 17:0.67906046 18:0.35889348 19:0.4767662 20:0.55886823 21:0.46129999 22:0.24165851 23:0.37733939 24:0.45368034 25:0.43859401 26:0.61447948 27:0.46195954 28:0.74724436 29:0.42524585 30:0.36947313 31:0.94397372 32:0.38381094 33:0.36467072 34:0.31227899 35:0.22153012 36:0.6067937 37:0.33256683 38:0.53104997 39:0.38202864 40:0.48465794 41:0.4916907 42:0.37251836 43:0.3416822 44:0.49266249 45:0.52340013 46:0.80884773 47:0.57613552 48:0.40062129 49:0.66503322 50:0.56129336 51:0.40168932 52:0.53865314 53:0.28296199 54:0.62579644 55:0.3556861 56:0.25747028 57:0.15326276 58:0.4923476 59:0.52602452 60:0.40713969 61:0.43516865 62:0.47974896 63:0.57320511 64:0.23950915 65:0.47215387 66:0.37839001 67:0.75353295 68:0.32202089 69:0.59038174 70:0.38038036 71:0.47097063 72:0.43030936 73:0.51893538 74:0.5551905 75:0.61672616 76:0.69249964 77:0.58113497 78:0.60386264 79:0.36780316 80:0.65235764 81:0.43350038 82:0.53698391 83:0.29308873 84:0.33158365 85:0.44698572 86:0.4449712 87:0.35126281 88:0.40935338 89:0.53991348 90:0.67939311 91:0.34505698 92:0.52967703 93:0.52028114 94:0.22769809 95:0.44203761 96:0.46629906 97:0.4302457 98:0.49360666 99:0.46676967 100:0.57228839 101:0.49755365 102:0.62500924 103:0.55685169 104:0.37780192 105:0.60554069 106:0.62665671 107:0.25963879 108:0.42546716 109:0.34754378 110:0.66629171 111:0.33533615 112:0.64025575 113:0.3515152 114:0.85059291 115:0.6277836 116:0.48703259 117:0.45099658 118:0.61359954 119:0.45761746 120:0.55194104 121:0.60143071 122:0.36637041 123:0.50920659 124:0.58906072 125:0.2621977 126:0.66396886 127:0.64770347 128:0.81435245 129:0.75679243 130:0.75349194 
0.8068318009866726 0 0 1:0.59462476 2:0.39558318 3:0.76217204 4:0.65291291 5:0.5226177 6:0.61585766 7:0.5199272 8:0.4750925 9:0.38767499 10:0.29808098 11:0.44492474 12:0.56025624 13:0.42146727 14:0.63860661 15:0.73978245 16:0.4765152 17:0.45184553 18:0.58156002 19:0.40454161 20:0.4248094 21:0.31577566 22:0.39850679 23:0.64987969 24:0.41698244 25:0.53575569 26:0.53962648 27:0.66306925 28:0.59301811 29:0.61997867 30:0.21788684 31:0.55642283 32:0.5614807 33:0.55627567 34:0.47554165 35:0.5867644 36:0.58989328 37:0.30464959 38:0.43556362 39:0.46984929 40:0.3569527 41:0.48801929 42:0.29573005 43:0.45110613 44:0.31696758 45:0.38091519 46:0.56886953 47:0.43491036 48:0.61941534 49:0.36387777 50:0.34289142 51:0.4080644 52:0.55345589 53:0.45573425 54:0.64660496 55:0.30580494 56:0.24326158 57:0.40926161 58:0.41933635 59:0.66516733 60:0.48836043 61:0.45912057 62:0.39908949 63:0.53961819 64:0.54160249 65:0.41304821 66:0.51591802 67:0.62319875 68:0.3643789 69:0.33479452 70:0.55159825 71:0.50262028 72:0.38696107 73:0.58821154 74:0.6533497 75:0.35668015 76:0.59320664 77:0.41091359 78:0.4686833 79:0.44056207 80:0.55864304 81:0.39128599 82:0.39777991 83:0.71085143 84:0.62001234 85:0.35706791 86:0.49008426 87:0.5555042 88:0.69749892 89:0.45556918 90:0.53330338 91:0.30573922 92:0.58889109 93:0.52804631 94:0.6730423 95:0.79114133 96:0.5109024 97:0.62089676 98:0.72168732 99:0.38833037 100:0.58928543 101:0.65474313 102:0.44376767 103:0.60471594 104:0.62043875 105:0.65747839 106:0.5761711 107:0.52981555 108:0.60886258 109:0.68228805 110:0.63332248 111:0.63646185 112:0.53679091 113:0.75959313 114:0.69854647 115:0.55974078 116:0.33310673 117:0.44956857 118:0.60685259 119:0.36203885 120:0.43360081 121:0.75808895 122:0.36399484 123:0.45106512 124:0.68606883 125:0.49190915 126:0.60227227 127:0.67579228 128:0.78585303 129:0.46145329 130:0.74010861 
0 0 0.4293271968032912 1:0.68565017 2:0.86974442 3:0.54181075 4:0.43371907 5:0.35146824 6:0.45548984 7:0.39186627 8:0.48111793 9:0.6170612 10:0.37082854 11:0.35885406 12:0.62216425 13:0.5398019 14:0.40070641 15:0.59527552 16:0.49366733 17:0.71607888 18:0.33853051 19:0.50915843 20:0.43950805 21:0.56624776 22:0.5996089 23:0.47186571 24:0.40818065 25:0.48525673 26:0.41947666 27:0.49822196 28:0.72940183 29:0.44916162 30:0.34863469 31:0.42095196 32:0.44918787 33:0.51791406 34:0.21028005 35:0.35354689 36:0.57019138 37:0.37135148 38:0.31523243 39:0.61200237 40:0.48462301 41:0.61412913 42:0.59753823 43:0.38165659 44:0.54109561 45:0.34708151 46:0.64561594 47:0.38304657 48:0.55869114 49:0.45998225 50:0.60460073 51:0.280348 52:0.48771653 53:0.51852363 54:0.5251528 55:0.59001225 56:0.35777915 57:0.49078217 58:0.48055193 59:0.43755257 60:0.49271774 61:0.52051347 62:0.58769602 63:0.67514855 64:0.55610424 65:0.45535374 66:0.45882079 67:0.36284283 68:0.45995629 69:0.59100199 70:0.56839931 71:0.83256394 72:0.48924541 73:0.50590837 74:0.56547999 75:0.77112198 76:0.77608258 77:0.57845217 78:0.46066034 79:0.38637751 80:0.30442908 81:0.46504933 82:0.4858695 83:0.65831721 84:0.39530861 85:0.41593617 86:0.74122465 87:0.45119727 88:0.30702096 89:0.61525989 90:0.5698666 91:0.55656725 92:0.54520351 93:0.39455751 94:0.38042697 95:0.58080649 96:0.4789196 97:0.39474246 98:0.54175466 99:0.45988083 100:0.48513743 101:0.54699725 102:0.31833756 103:0.48002762 104:0.46336684 105:0.41338983 106:0.74038035 107:0.41921136 108:0.5619815 109:0.50250793 110:0.49784887 111:0.38210478 112:0.78357762 113:0.49746466 114:0.64446795 115:0.35253945 116:0.43935069 117:0.46176979 118:0.47495848 119:0.61605322 120:0.39432797 121:0.28411391 122:0.32405427 123:0.65972978 124:0.52093422 125:0.30769348 126:0.61370409 127:0.58075774 128:0.8421334 129:0.75306916 130:0.66990793 
0 0.02376805857847511 0 1:0.34485227 2:0.53219724 3:0.57909924 4:0.55105585 5:0.27703762 6:0.66916347 7:0.86571813 8:0.5906738 9:0.58063155 10:0.70461011 11:0.46454874 12:0.31089532 13:0.41739565 14:0.3314212 15:0.66203535 16:0.53893042 17:0.71414852 18:0.44080287 19:0.39278004 20:0.30517703 21:0.45907974 22:0.70286721 23:0.38698819 24:0.30235279 25:0.34597015 26:0.29773948 27:0.50146222 28:0.44499078 29:0.23403162 30:0.59585202 31:0.36091208 32:0.50153136 33:0.45864037 34:0.27895766 35:0.43477243 36:0.43327364 37:0.44123289 38:0.41261277 39:0.33305424 40:0.29412466 41:0.64273697 42:0.23544885 43:0.74232751 44:0.29074979 45:0.50121456 46:0.59188879 47:0.5573833 48:0.57647091 49:0.56910592 50:0.4849655 51:0.3021864 52:0.38855451 53:0.56617838 54:0.50041163 55:0.51970559 56:0.29519001 57:0.28047276 58:0.5679124 59:0.69219291 60:0.3298409 61:0.56347233 62:0.38484442 63:0.46926147 64:0.36728206 65:0.70233536 66:0.51934421 67:0.43219388 68:0.37062347 69:0.32143909 70:0.47654733 71:0.42606533 72:0.30565163 73:0.69412374 74:0.4604899 75:0.50273412 76:0.53730184 77:0.45567435 78:0.53112912 79:0.36751071 80:0.55093169 81:0.39300513 82:0.39848471 83:0.66247267 84:0.38909248 85:0.62701416 86:0.61119962 87:0.24258223 88:0.72575301 89:0.64053655 90:0.32481644 91:0.55774468 92:0.61533958 93:0.52881813 94:0.27650648 95:0.47867876 96:0.60038394 97:0.43321684 98:0.52249992 99:0.37292457 100:0.26722479 101:0.48683864 102:0.58712369 103:0.15915278 104:0.7907778 105:0.52842081 106:0.37474403 107:0.41455126 108:0.61868817 109:0.38498902 110:0.53120977 111:0.56432378 112:0.68422002 113:0.48990512 114:0.78555757 115:0.45894444 116:0.60251087 117:0.23274732 118:0.68537062 119:0.83111143 120:0.67374182 121:0.70902288 122:0.46864474 123:0.35720146 124:0.46912518 125:0.36724994 126:0.63555026 127:0.25625244 128:0.80823684 129:0.78104824 130:0.59809178 
0 1.031103140921872 0 1:0.51105797 2:0.33594552 3:0.40969628 4:0.56825292 5:0.4290874 6:0.52596939 7:0.41499585 8:0.72335154 9:0.51190901 10:0.49726817 11:0.62032884 12:0.36712894 13:0.6136198 14:0.43325248 15:0.46105409 16:0.5365352 17:0.73962331 18:0.55756122 19:0.37930247 20:0.30152082 21:0.72983533 22:0.35198835 23:0.32635358 24:0.33232138 25:0.74534124 26:0.49245664 27:0.56293875 28:0.45710152 29:0.48870277 30:0.19945048 31:0.47851065 32:0.60971111 33:0.51118553 34:0.55221713 35:0.77012217 36:0.62464887 37:0.63272744 38:0.40966174 39:0.37096077 40:0.26839265 41:0.63262087 42:0.46112084 43:0.5946573 44:0.76880443 45:0.57795757 46:0.69173759 47:0.57826769 48:0.37801018 49:0.49795938 50:0.35895613 51:0.51646614 52:0.37277767 53:0.63735515 54:0.55857283 55:0.18155012 56:0.44514087 57:0.29040393 58:0.42476717 59:0.59336758 60:0.6253953 61:0.52364105 62:0.42514536 63:0.60974115 64:0.57657039 65:0.36546314 66:0.39979413 67:0.71651644 68:0.47540805 69:0.33202487 70:0.70789981 71:0.53627515 72:0.51919371 73:0.65306705 74:0.67210174 75:0.5674566 76:0.39332241 77:0.53082681 78:0.10510838 79:0.44255602 80:0.3688319 81:0.26063642 82:0.19700797 83:0.58559334 84:0.35151908 85:0.43171513 86:0.48801428 87:0.42578799 88:0.31786194 89:0.60922861 90:0.32456562 91:0.27227554 92:0.38082129 93:0.61838871 94:0.58288336 95:0.84599471 96:0.35556841 97:0.38298944 98:0.6010868 99:0.43874234 100:0.45551491 101:0.50984752 102:0.29923046 103:0.5478825 104:0.33304322 105:0.43645126 106:0.55298346 107:0.33456179 108:0.51669496 109:0.72402024 110:0.70259207 111:0.12332676 112:0.51876831 113:0.4423961 114:0.12531444 115:0.58190072 116:0.49732631 117:0.54458004 118:0.47425991 119:0.52100223 120:0.6648705 121:0.45927006 122:0.30453682 123:0.64541 124:0.46445712 125:0.24496207 126:0.62313724 127:0.71097928 128:0.6466316 129:0.55434054 130:0.78262001 
