svm_type c_svc
kernel_type rbf
gamma 0.09
nr_class 3
total_sv 116
rho 0.0337658 0.0457595 -0.176726
label 10001 10002 10003
probA -3.42206 -4.96398 -4.17578
probB -0.747465 0.476146 1.50208
nr_sv 41 11 64
SV
0.00329248617274244 1.941255190498618 1:0.64525509 2:0.52144676 3:0.57302946 4:0.44952381 5:0.53567058 6:0.49565417 7:0.68904787 8:0.54532081 9:0.41424546 10:0.19060312 11:0.61287528 12:0.57699049 13:0.6257593 14:0.52468777 15:2.0021261e-16 16:0.65459073 17:0.50240725 18:0.33238658 19:0.33071426 20:0.43762678 21:0.62207234 22:0.54620904 23:0.81499547 24:0.66598165 25:0.78040969 26:0.76272923 27:0.20234674 28:0.61110818 29:0.24201196 30:0.38474473 31:0.3041659 32:0.53070867 33:0.61911863 34:0.50755328 35:0.34153154 36:0.45403135 37:0.51898736 38:0.14351705 39:0.29736236 40:0.62473142 41:0.84823591 42:0.23504141 43:0.62294316 44:0.49622595 45:0.4684228 46:0.63220429 47:0.40958446 48:0.5711695 49:0.53458303 50:0.4723596 51:0.51572728 52:0.41383719 53:0.64029104 54:0.60309553 55:0.60519081 56:0.55450249 57:0.075459667 58:0.83221978 
0 1.479175857689969 1:0.64544135 2:0.67025977 3:0.68584037 4:0.28743249 5:0.58277029 6:0.22781368 7:0.6267662 8:0.57539219 9:0.5380286 10:0.19341809 11:0.66876554 12:0.35767421 13:0.49261704 14:0.37692922 15:0.41283521 16:0.46604514 17:0.47038427 18:0.30742592 19:0.67828649 20:0.60489529 21:0.70120764 22:0.87650508 23:0.53307307 24:0.37001309 25:0.3107574 26:0.74745786 27:0.58663988 28:0.41398278 29:0.56600863 30:0.44994152 31:0.28992045 32:0.38976696 33:0.44858849 34:0.47472593 35:0.48119614 36:0.63940084 37:0.54709601 38:0.514063 39:0.38639188 40:0.34144339 41:0.68050212 42:0.42133421 43:0.50574654 44:0.42989811 45:0.43558985 46:0.733262 47:0.32083344 48:0.58667254 49:0.6734041 50:0.42383757 51:0.34995022 52:0.32425821 53:0.42570123 54:0.56434458 55:0.69468832 56:0.54689384 57:0.080943882 58:0.80111194 
0.8611121281717541 1.602364153410456 1:0.74869424 2:0.43630004 3:0.71223193 4:0.44194868 5:4.4167588e-16 6:0.44879216 7:0.76723158 8:0.31930873 9:0.65845799 10:0.72005749 11:0.14300023 12:0.40901747 13:0.65711552 14:0.59868121 15:0.1892695 16:0.73154503 17:0.6495018 18:0.39588872 19:0.52625 20:0.29628015 21:0.60388857 22:0.44302231 23:0.42815992 24:0.4094868 25:0.60495788 26:1.7291998e-16 27:0.31284419 28:1 29:0.33416319 30:0.24308874 31:0.41035476 32:0.40976268 33:0.37428516 34:0.47606388 35:0.31001627 36:0.67104435 37:0.4257018 38:0.46489811 39:0.66234964 40:0.36795193 41:0.58696228 42:0.30370238 43:0.77680093 44:0.79206526 45:0.5386827 46:0.18088913 47:0.66293627 48:0.48348173 49:0.18012984 50:0.59354937 51:0.37370643 52:0.44478649 53:0.42591634 54:0.53130853 55:0.59816366 56:0.57067209 57:0.082571439 58:0.92753488 
0 0.1368822669557874 1:0.45651039 2:0.80432647 3:0.39847907 4:0.52923137 5:0.47330683 6:0.74115562 7:0.58156419 8:0.46628657 9:0.41523379 10:0.35265526 11:0.24474204 12:0 13:0.93650711 14:0.56454611 15:0.24223262 16:0.54422802 17:0.56229156 18:0.3569732 19:0.55364048 20:0.25661051 21:0.51555109 22:0.68939316 23:0.71874505 24:0.40860504 25:0.47829387 26:0.81673074 27:0.62796569 28:0.37249967 29:0.65450972 30:0.51265019 31:0.31646395 32:0.37207732 33:0.58587855 34:0.50241166 35:0.47379497 36:0.46849284 37:0.6182633 38:0.65343726 39:0.74383372 40:0.51342875 41:0.58270222 42:0.50724876 43:0.55677509 44:0.60686791 45:0.61468142 46:0.49127561 47:0.34523425 48:0.0978797 49:0.84749168 50:0.057180546 51:0.44101396 52:0.47166026 53:0.37444767 54:0.57533222 55:0.65741253 56:0.52516025 57:0.032535639 58:0.83130598 
0.6489600369375319 2.670125937484832 1:0.56634873 2:0.56212807 3:0.75738585 4:0.91209036 5:0.64455712 6:0.2242752 7:0.76058018 8:0.75544757 9:0.66088039 10:0.13749732 11:0.49827811 12:0.50575125 13:0.59658879 14:0.60289407 15:0.34050739 16:0.77718014 17:0.66697776 18:0.44134569 19:0.47992986 20:0.80768895 21:0.43662 22:0.60279995 23:0.81711769 24:0.75459743 25:0.35534343 26:0.70677733 27:0.18378492 28:0.14103237 29:0.44616809 30:0.25919083 31:0.4014791 32:0.51306278 33:0.50564033 34:0.41959855 35:0.52772582 36:0.31361431 37:0.55736798 38:0.38808635 39:0.59552348 40:0.45338202 41:0.72750491 42:0.44917032 43:0.38093939 44:0.35725385 45:0.47348636 46:0.9463979 47:0.28059086 48:0.53949672 49:0.76681405 50:0.53663856 51:0.34912789 52:0.30180264 53:0.43175831 54:0.59380126 55:0.70561785 56:0.53666914 57:0.085523143 58:0.76736242 
0.5623422798195455 0 1:0.78326958 2:0.5232355 3:0.69891948 4:0.76734746 5:0.80528843 6:0.54767597 7:0.8106733 8:0.33769801 9:0.5465554 10:0.48895517 11:0.4180854 12:0.47229862 13:0.67633086 14:0.55631351 15:0.2568672 16:0.44979176 17:0.74179691 18:0.22008258 19:0.36726639 20:0.19218312 21:0.36868906 22:0.76912898 23:0.7053566 24:0.54996139 25:0.58797884 26:0.8099066 27:0.5450989 28:0.28904295 29:0.87169671 30:0.70515382 31:0.44932133 32:0.25287706 33:0.60280925 34:0.60366493 35:0.56791025 36:0.42161089 37:0.44385108 38:0.72170573 39:0.70707333 40:0.64315259 41:0.47259289 42:0.4716056 43:0.47815141 44:0.60229635 45:0.76476854 46:0.52614629 47:0.54376382 48:0.19586635 49:0.72053778 50:0.26344079 51:0.35661608 52:0.38219237 53:0.35279414 54:0.53200537 55:0.7019273 56:0.56928736 57:0.058089498 58:0.88295537 
0.07239524104850845 0 1:0.50274169 2:0.52393717 3:0.46012083 4:0.26181254 5:0.44635585 6:0.44431776 7:0.88642353 8:0.65309221 9:0.89917332 10:0.43097273 11:0.20001291 12:0.0070656869 13:0.629807 14:0.26585394 15:0.63974059 16:0.76673698 17:0.27468476 18:0.50177437 19:0.76552951 20:0.68477595 21:0.59972686 22:0.6859827 23:0.40768874 24:0.7840597 25:0.10876212 26:0.25657335 27:0.43998766 28:0.72191679 29:0.33362046 30:0.56441432 31:0.62427843 32:0.33942911 33:0.42610663 34:0.48381829 35:0.38558665 36:0.62724292 37:0.41923288 38:0.42627549 39:0.60883147 40:0.46610561 41:0.46346191 42:0.60334277 43:0.42155102 44:0.45573163 45:0.59804881 46:0.61702037 47:0.33784148 48:0.28706786 49:0.7534669 50:0.37827724 51:0.37109151 52:0.43831205 53:0.27946371 54:0.52533764 55:0.6532824 56:0.52533162 57:0.063260347 58:0.85251141 
0.754448207039057 0.5627683358914144 1:0.42754325 2:0.60378653 3:0.43180895 4:0.32693976 5:0.57940382 6:0.72240758 7:0.56087518 8:0.65700859 9:0.82666612 10:0.64419162 11:0.56907386 12:0.38151973 13:0.77491075 14:0.57068169 15:0.32852343 16:0.93522435 17:0.54379004 18:0.41820627 19:0.65579444 20:0.44691271 21:0.23120134 22:0.53653568 23:0.34577236 24:0.321208 25:0.5901053 26:0.62453175 27:0.19382486 28:0.56223035 29:0.25818494 30:0.36482909 31:0.21393594 32:0.72979063 33:0.55540472 34:0.63775826 35:0.17647482 36:0.24413814 37:0.32031998 38:0.44045144 39:0.56674105 40:0.36932886 41:0.85133785 42:0.44154221 43:0.47788572 44:0.55075967 45:0.54507005 46:0.75943887 47:0.50110263 48:0.54937571 49:0.57946497 50:0.4094013 51:0.48091543 52:0.29808918 53:0.50208765 54:0.55432355 55:0.69389963 56:0.58700532 57:0.094563492 58:0.85711169 
1.262332636844099 0 1:0.65967828 2:0.20707458 3:0.24590932 4:0.78414088 5:0.45240042 6:0.30912721 7:0.99394792 8:0.41136044 9:0.48850039 10:0.26652738 11:0.14899454 12:0.75615406 13:0.54751611 14:0.53789628 15:0.33842012 16:2.4444537e-15 17:0.5369606 18:0.29675382 19:0.4846577 20:0.30298629 21:0.49068683 22:0.42377546 23:0.59178132 24:0.69073951 25:0.44669592 26:0.39925191 27:0.65773654 28:0.24647909 29:0.43094069 30:0.34501964 31:0.086128496 32:0.19634755 33:0.051155459 34:0.76718831 35:0.63311076 36:0.14259654 37:0.29663277 38:0.75374788 39:0.2562089 40:0.67699361 41:0.70516342 42:0.65582365 43:0.44886702 44:0.63752133 45:0.60827577 46:0.64743322 47:0.30098325 48:0.19755903 49:0.80169266 50:0.02548388 51:0.46021962 52:0.36525235 53:0.37363154 54:0.67323452 55:0.62995404 56:0.5721575 57:0.13904081 58:0.88537407 
0.9383164490069229 0 1:0.34952691 2:0.41495034 3:0.64201778 4:0.057237986 5:0.31500104 6:0.77126682 7:0.60661483 8:0.3683444 9:0.57114935 10:0.61161011 11:0.45263001 12:0.54211009 13:0.52070314 14:0.52319849 15:0.77383202 16:0.52213699 17:0.54543632 18:0.175514 19:0.78513473 20:1 21:0.8595078 22:0.70252919 23:0.46900424 24:0.32207581 25:0.41362038 26:0.53050208 27:1 28:0.69024432 29:0.34119859 30:0.82802784 31:0.62440473 32:0.35142094 33:0.6307472 34:0.69962096 35:0.49464622 36:0.57326835 37:0.4822692 38:0.59478748 39:0.75941575 40:0.15650086 41:0.63586342 42:0.44851482 43:0.50223011 44:0.55487269 45:0.62084556 46:0.49575442 47:0.30631447 48:0.46577168 49:0.69010907 50:0.47042686 51:0.3790651 52:0.35381106 53:0.47565618 54:0.5841915 55:0.69524163 56:0.55691856 57:0.062776051 58:0.90214431 
0.3689547542758206 0.9156749169272532 1:0.34915885 2:0.62943906 3:0.43019426 4:0.484705 5:0.70695412 6:0.69077492 7:0.31760007 8:0.19486713 9:0.75387508 10:0.2810328 11:0.45029381 12:0.43266079 13:0.71588111 14:0.64093751 15:0.64033872 16:0.34115562 17:0.6726197 18:0.5639717 19:0.48213336 20:0.040835205 21:0.74271625 22:0.65807325 23:0.49734288 24:0.66885394 25:0.214442 26:0.058119491 27:0.33985692 28:0.31097731 29:0.2320569 30:0.18742974 31:0.21677269 32:0.43249077 33:0.12068705 34:0.21445513 35:0.49047986 36:0.72120583 37:0.31165516 38:0.62860841 39:0.64383745 40:0.37408149 41:0.61334127 42:0.64166194 43:0.65314084 44:0.56138194 45:0.40731451 46:0.0033880684 47:0.67625481 48:0.59387612 49:0.30148774 50:0.76977587 51:0.3212111 52:0.42610979 53:0.4141196 54:0.49126446 55:0.5724985 56:0.57030225 57:0.059207242 58:0.95953578 
0 1.289881045779459 1:0.50339478 2:0.6212815 3:0.60357779 4:0.51748419 5:0.42797291 6:0.64600146 7:0.37728125 8:0.96712321 9:0.51122516 10:0.38453302 11:0.7260263 12:0.58105081 13:0.79284257 14:0.50824642 15:0.31467128 16:0.51461685 17:0.87636226 18:0.36498696 19:0.5820033 20:0.33508655 21:0.44781691 22:0.52613729 23:0.75269818 24:0.95396876 25:0.34560493 26:0.34569436 27:0.30546495 28:0.39094913 29:0.25562835 30:0.40896532 31:0.39911836 32:0.25254887 33:0.77311158 34:0.50242293 35:0.42989483 36:0.28586987 37:0.56813824 38:0.22592773 39:0.56844532 40:0.2559216 41:0.84103161 42:0.55991095 43:0.60392904 44:0.31277519 45:0.47924519 46:0.79806113 47:0.16828516 48:0.62919796 49:0.70253974 50:0.52671587 51:0.40929982 52:0.29776034 53:0.52554333 54:0.51560843 55:0.65076476 56:0.52463603 57:0.10445554 58:0.82418656 
0.03103335996962994 0.572777012088257 1:0.99188286 2:0.76350999 3:0.65901721 4:0.33085221 5:0.39848739 6:0.62062079 7:0.58830702 8:0.23520654 9:0.11168428 10:0.67871863 11:0.57565832 12:0.69501764 13:0.84636837 14:0.6678918 15:0.17979042 16:0.38378257 17:0.48510391 18:0.481895 19:0 20:0.11878785 21:0.37642765 22:0.9544366 23:0.47995022 24:0.77255243 25:0.35949886 26:0.68954605 27:0.49054039 28:0.48734108 29:0.45290726 30:0.3895922 31:0.16874544 32:0.46166152 33:0.27418596 34:0.44819662 35:0.3309831 36:0.19369239 37:0.60249257 38:0.59536117 39:0.65618783 40:0.72168815 41:0.60072857 42:0.41896671 43:0.31606054 44:0.67147338 45:0.76928926 46:0.64238495 47:0.41470838 48:0.15216507 49:0.84106439 50:8.4992789e-16 51:0.45772505 52:0.3616915 53:0.41791531 54:0.49319327 55:0.6691525 56:0.49188903 57:0.067512617 58:0.83201236 
1.214892450966965 0 1:0.85140675 2:0.62377346 3:0.52729398 4:0.83004057 5:0.48262429 6:0.55287999 7:0.29960924 8:0.56904161 9:0.991117 10:0.22536933 11:0.68060905 12:0.27517164 13:0.69270885 14:0.51444697 15:0.22044177 16:0.90590668 17:0.63389456 18:0.48722348 19:0.36323559 20:0.50994617 21:0.19764973 22:0.79931015 23:0.58434081 24:0.72062856 25:0.44392374 26:0.42392024 27:0.11866686 28:0.49936083 29:0.059099644 30:0.48007023 31:0.63908112 32:0.53636456 33:0.49224877 34:0.83840656 35:0.081141189 36:0.61419809 37:0.62292546 38:0.056646127 39:0.8202039 40:0.62339389 41:0.5779174 42:0.37821048 43:0.49625933 44:0.5065425 45:0.66244626 46:0.78275496 47:0.47914314 48:0.51734984 49:0.7203756 50:0.46819326 51:0.31872329 52:0.40762255 53:0.33068016 54:0.5294342 55:0.72475338 56:0.56917983 57:0.10590324 58:0.8777619 
0.1715576605891621 0.08396027477444272 1:0.76853162 2:0.47003257 3:0.070258141 4:0.4913061 5:0.60887659 6:0.62740195 7:0.42672276 8:0.49791068 9:0.52908772 10:0.50988317 11:0.52146125 12:0.41941002 13:0.34708488 14:0.42383096 15:0.69350964 16:0.44546339 17:0.49612942 18:0.69857925 19:0.64974785 20:0.88566017 21:1 22:0.59564227 23:0.070056193 24:0.43448389 25:0.08793734 26:0.55958426 27:0.52551234 28:0.81177557 29:0.38856706 30:0.51963276 31:0.71272004 32:0.44784346 33:0.44670141 34:0.90294009 35:0.5449096 36:0.44496238 37:0.53355092 38:0.73159796 39:0.69157743 40:0.33172214 41:0.63475269 42:0.4123565 43:0.20828079 44:0.33451992 45:0.51896662 46:0.67028725 47:0.53047955 48:0.76707643 49:0.51651764 50:0.83845234 51:0.40874884 52:0.27736428 53:0.47925583 54:0.36835 55:0.6978451 56:0.54146868 57:0.09727063 58:0.90485084 
0 2.521774498146454 1:0.55119044 2:0.37698269 3:0.54759508 4:0.063627101 5:0.41938961 6:0.4413273 7:0.73312187 8:0.6399554 9:0.47924164 10:0.90956664 11:0.44044268 12:0.32737887 13:0.69029665 14:0.60547221 15:0.63258964 16:0.60656756 17:0.73475063 18:0.11170985 19:0.73153019 20:0.42574251 21:0.37012661 22:0.78778225 23:0.36748809 24:0.3821564 25:0.38790196 26:0.40317711 27:0.69721657 28:0.57940936 29:0.57915533 30:0.5554806 31:0.64916182 32:0.39530027 33:0.62723351 34:0.50515473 35:0.56292868 36:0.66247964 37:0.47207454 38:0.66543186 39:0.72121859 40:0.35198236 41:0.5059337 42:0.54592055 43:0.49647352 44:0.58655632 45:0.67400682 46:0.50373095 47:0.33441028 48:0.22940685 49:0.74702245 50:0.21813568 51:0.44963622 52:0.36039501 53:0.36660817 54:0.54695845 55:0.67842907 56:0.52577496 57:0.043103233 58:0.81177771 
0.02861443873887794 0.4989293756881662 1:0.61367404 2:0.37956527 3:0.20900437 4:0.61934787 5:0.74812669 6:0.36658764 7:0.50614226 8:0.58380395 9:0.33125663 10:0.56693059 11:0.47638887 12:0.57952642 13:0.65611559 14:0.51866692 15:0.4833242 16:0.56249094 17:0.57765776 18:0.32628053 19:0.52080429 20:0.37994629 21:0.30346239 22:0 23:0.53058475 24:0.80432361 25:1 26:0.55158001 27:0.36577943 28:0.48048285 29:0.37083709 30:0.17306055 31:0.15488867 32:0.61221534 33:0.48492616 34:0.79482764 35:0.39651778 36:0.44211662 37:0.47810841 38:0.54643881 39:0.54939801 40:0.36904511 41:0.7948826 42:0.41333163 43:0.62961638 44:0.47371784 45:0.59918064 46:0.73287171 47:0.25310045 48:0.37194461 49:0.50270081 50:0.48479375 51:0.42845172 52:0.41725662 53:0.57447416 54:0.58923328 55:0.66982371 56:0.58989954 57:0.086350612 58:0.85577774 
1.409027920920078 2.443283812819977 1:0.4820804 2:0.41823739 3:0.4378573 4:0.27326074 5:0.46643028 6:0.095872842 7:0.56621158 8:0.56717789 9:0.4196893 10:0.59424794 11:0.69182599 12:0.54978806 13:0.77202463 14:0.35557148 15:0.46733463 16:0.32577506 17:0.36093184 18:0.67655116 19:0.56365168 20:0.5607416 21:0.66047812 22:0.70677125 23:0.64660126 24:0.48679286 25:0.57470375 26:0.94992316 27:0.90108573 28:0.36668953 29:0.79458755 30:0.45496207 31:0.092132844 32:0.42711914 33:0.57337707 34:0.4078919 35:0.32560974 36:0.39667654 37:0.66190159 38:0.46225491 39:0.46738157 40:0.4546923 41:0.7341134 42:0.488821 43:0.64497429 44:0.37151095 45:0.42883983 46:0.6736815 47:0.40393063 48:0.35090101 49:0.87599128 50:0.40638644 51:0.38108009 52:0.42555153 53:0.4728657 54:0.55783975 55:0.60563534 56:0.58855188 57:0.098855503 58:0.84035814 
0.05658967064650997 0.2857098983918681 1:0.60547388 2:0.70612985 3:0.70382386 4:0.55168003 5:0.45905885 6:0.55398476 7:0.65896267 8:0.35719123 9:0.5106675 10:0.46793756 11:0.41211867 12:0.28265932 13:0.95737892 14:0.87355745 15:0.52863562 16:0.59765565 17:0.52607435 18:0.35693109 19:0.68336898 20:0.71441907 21:0.5707292 22:1 23:0.66666025 24:0.11402205 25:0.64266342 26:0.5727877 27:0.7147668 28:0.29980698 29:0.88821089 30:0.40590444 31:0.2478901 32:0.37558496 33:0.68159544 34:0.60202885 35:0.56194937 36:0.52938986 37:0.50613433 38:0.7834487 39:0.73937666 40:0.54084456 41:0.52705342 42:0.41207772 43:0.57684422 44:0.60819566 45:0.64652067 46:0.51805902 47:0.54873121 48:0.099467792 49:0.76684248 50:0.26129028 51:0.40506867 52:0.37762809 53:0.40424806 54:0.56179768 55:0.71762735 56:0.53917974 57:0.039463904 58:0.82502145 
0.8499652495738012 0.8384915979242628 1:0.57118016 2:0.57037145 3:0.64231569 4:0.91952586 5:0.30894321 6:0.42997605 7:0.81356585 8:0.4942202 9:0.46789432 10:0.54324061 11:0.37883332 12:0.47402969 13:0.93683976 14:0.82287174 15:0.070908159 16:0.74244785 17:0.6160816 18:0.47373849 19:0.44119692 20:0.52823687 21:0.77420861 22:0.83888423 23:0.83941716 24:0.63809758 25:0.43186116 26:0.74322659 27:0.25808617 28:0.096922077 29:0.74282742 30:0.10832899 31:0.36479956 32:0.31448019 33:0.31196982 34:0.35526091 35:0.068139903 36:0.60114557 37:0.28466171 38:0.49321416 39:0.13361971 40:0.51955807 41:0.53245372 42:0.4368844 43:0.42221639 44:0.49591154 45:0.29741451 46:0.53869885 47:1 48:0.85671055 49:0 50:1 51:0.18807039 52:0.5507834 53:0.53391135 54:0.32459855 55:0.55827761 56:0.53261662 57:0.1430068 58:1 
0.1305591527407005 2.107049566411741 1:0.34950677 2:0.28661397 3:0.5626564 4:0.43515283 5:0.66364557 6:0.63699424 7:0.3328751 8:0.43392316 9:0.87496859 10:0.45395181 11:0.40753427 12:0.34904164 13:0.48674604 14:0.46448624 15:0.44505024 16:0.84297132 17:0.69981843 18:0.46975166 19:0.47513166 20:0.52579367 21:0.61293977 22:0.41657165 23:0.82364684 24:0.45986763 25:0.69480777 26:0.92160326 27:0.74836475 28:0.48339519 29:0.46696842 30:0.60515231 31:0.435545 32:0.61163461 33:0.76330435 34:0.57584804 35:0.52246946 36:0.44252494 37:0.69166821 38:0.48423976 39:0.7259717 40:0.050890815 41:0.81649387 42:0.25707316 43:0.64066422 44:0.44766057 45:0.54058719 46:0.5392428 47:0.34878168 48:0.64366901 49:0.49149996 50:0.50035697 51:0.53455478 52:0.4237445 53:0.53157693 54:0.49602687 55:0.72019732 56:0.56196547 57:0.057488311 58:0.86534876 
0.108722162755091 0.3949153476814488 1:0.38378906 2:0.42911935 3:0.27255732 4:0.6786325 5:0.51428694 6:0.332623 7:0.70238805 8:0.38670167 9:0.028984008 10:0.50220907 11:0.65182161 12:0.41975504 13:0.55116785 14:0.65459627 15:0.61563605 16:0.79696751 17:0.64655739 18:0.33341062 19:0.85711175 20:0.43772677 21:0.36989474 22:0.91175163 23:0.38238007 24:0.16721173 25:0.58574587 26:0.70917714 27:0.42425552 28:0.10888224 29:0.62043208 30:0.14011052 31:0.42217425 32:0.47006798 33:0.25795507 34:0.48040265 35:0.28984678 36:0.5933764 37:0.46441713 38:0.58498371 39:0.23209678 40:0.52006924 41:0.65678483 42:0.3948158 43:0.41433913 44:0.54455501 45:0.26947501 46:0.44262901 47:0.88940865 48:1 49:0.36311802 50:0.81038821 51:0.54581779 52:0.25660619 53:0.5898627 54:0.42897409 55:0.63884085 56:0.58362567 57:0.082818195 58:0.92753214 
0 0.05647430347659278 1:0.70872432 2:0.50599945 3:0.88818085 4:0.62039107 5:0.58153236 6:0.19818193 7:0.44502306 8:0.29347226 9:0.69756448 10:0.95208615 11:0.43642822 12:0.35545915 13:0.55281746 14:0.57214373 15:0.49965319 16:0.53528899 17:0.631374 18:0.26377845 19:0.84159082 20:0.74874234 21:0.51068848 22:0.7093333 23:0.25428483 24:0.4032504 25:0.31583896 26:0.39953616 27:0.67272323 28:0.6678229 29:0.80826896 30:0.82294971 31:0.73453027 32:0.43674871 33:0.68642658 34:0.5515424 35:0.5124858 36:0.63275015 37:0.43714184 38:0.44680995 39:0.70997596 40:0.30345556 41:0.54109359 42:0.52457517 43:0.33777416 44:0.45330417 45:0.41093069 46:0.49870527 47:0.28915009 48:0.57542539 49:0.56857991 50:0.54818815 51:0.32862571 52:0.40172943 53:0.3166962 54:0.43642649 55:0.74598008 56:0.56079823 57:0.090436265 58:0.86974865 
0.9099651763792366 2.27500402471228 1:0.73894751 2:0.74179876 3:0.55079877 4:0.74655038 5:0.62863898 6:0.43834683 7:0.55311823 8:0.27854499 9:0.0019768521 10:0.63222426 11:1 12:0.80400962 13:0.83443069 14:0.28831655 15:0.1737031 16:0.87371081 17:0.22411351 18:0.55207253 19:0.80563855 20:0.78484559 21:0.33641636 22:0.60574555 23:0.069517195 24:0.36481455 25:0.36493847 26:0.23939487 27:0.55575562 28:0.94895792 29:0.32809797 30:0.35946915 31:0.32086912 32:0.48626009 33:0.75017858 34:0.53672522 35:0.39424926 36:0.50621104 37:0.46923739 38:0.74363858 39:0.55753797 40:0.65356916 41:0.44937974 42:0.3477914 43:0.78016281 44:0.72847998 45:0.65943104 46:0.89181399 47:0.263015 48:0.12257928 49:0.64605594 50:0.2723172 51:0.5904997 52:0.63710982 53:0.50254071 54:0.51589745 55:0.67583138 56:0.41637471 57:0.12403656 58:0.73908734 
0.0959983933980631 0 1:0.95036536 2:0.51752055 3:0.80324101 4:0.57737327 5:0.61298776 6:0.56188923 7:0.71153206 8:0.63785893 9:0.16788031 10:0.52964592 11:0.55840653 12:0.3967374 13:0.38322726 14:0.12738197 15:0.32364255 16:0.59774679 17:0.5873301 18:0.26358181 19:0.47323003 20:0.93417799 21:0.76335263 22:0.38522857 23:0 24:0.71653074 25:0.53297204 26:0.51744241 27:0.47163579 28:0.47954363 29:0.52793884 30:0.14336912 31:0.53294241 32:0.46182376 33:0.45440564 34:0.61890924 35:0.64174485 36:0.27465835 37:0.37204754 38:0.73538411 39:0.72206485 40:0.45075753 41:0.41552135 42:0.43370888 43:0.3235909 44:0.57216078 45:0.76614821 46:0.56091255 47:0.63726407 48:0.32679835 49:0.59561878 50:0.51284778 51:0.5876295 52:0.47965637 53:0.48825577 54:0.46967253 55:0.69128954 56:0.50847524 57:0.12069599 58:0.85957026 
0.6283556100891442 0.4694704472314997 1:0.47724199 2:0.6418277 3:0.076543227 4:0.56633562 5:0.42499727 6:0.71604329 7:0.81091291 8:0.22854578 9:6.3874854e-17 10:0.24959092 11:0.040485095 12:0.37724748 13:0.88175863 14:5.1846675e-16 15:0.073240012 16:0.43020844 17:0.2275687 18:0.53154892 19:0.62993938 20:0.20666784 21:0.76135415 22:0.47256291 23:0.42960897 24:0.5879249 25:0.44640675 26:0.646429 27:0.60330832 28:0.47399172 29:0.90092069 30:0.49406657 31:0.50818515 32:0.38157588 33:0.68355554 34:0.52853519 35:0.46899873 36:0.25086063 37:0.76517081 38:0.5933345 39:0.61484367 40:0.64643329 41:0.55066407 42:0.37533644 43:0.49958965 44:0.49327105 45:0.58818597 46:0.71540433 47:0.41700518 48:0.37326878 49:0.73845923 50:0.33938611 51:0.54134828 52:0.42087886 53:0.41243687 54:0.58974028 55:0.68165398 56:0.51448387 57:0.09218812 58:0.82979876 
0.3311377361447725 0 1:0.56716949 2:0.52990019 3:0.2058962 4:6.901112e-16 5:0.52989149 6:0.27924743 7:0.55951679 8:0.41969752 9:0.774028 10:0.45226035 11:0.56200486 12:0.54445171 13:0.86380589 14:0.52424842 15:0.63470042 16:0.57391435 17:0.45542213 18:0.42534956 19:0.47742632 20:0.30594057 21:0.66105169 22:0.47485882 23:0.40105736 24:0.64570189 25:0.48852333 26:0.8453151 27:0.31922862 28:0.21062653 29:0.23001993 30:0.2825883 31:0.20034161 32:0.69565791 33:0.12257367 34:1 35:0.40918779 36:0.34172788 37:0.49543911 38:0.78131294 39:0.35594577 40:0.46641105 41:0.8486774 42:0.14498806 43:0.45998016 44:0.59186167 45:0.66408086 46:0.54084224 47:0.64925867 48:0.65730524 49:0.54522675 50:0.49417302 51:0.5240199 52:0.26026747 53:0.59824002 54:0.52127326 55:0.64099216 56:0.54431564 57:0.066129051 58:0.93857694 
0.2844301247589562 0.2874615824655386 1:0.38913786 2:0.6879226 3:0.57444203 4:0.29950422 5:0.62903613 6:0.80916435 7:0.1124833 8:0.56501096 9:0.33930469 10:0.77184457 11:0.2420007 12:0.37909761 13:0.55753499 14:0.42042702 15:0.40276995 16:0.45030937 17:0.64304203 18:0.62430608 19:0.55460471 20:0.45175123 21:0.55873179 22:0.49201119 23:0.64066124 24:0.6216585 25:0.77165526 26:0.77805471 27:0.69747239 28:0.4192425 29:0.55219513 30:0.48388588 31:0.33229882 32:0.40774781 33:0.91043192 34:0.60715467 35:0.53731954 36:0.41813478 37:0.53320497 38:0.43409094 39:0.36920008 40:0.25002947 41:0.72400278 42:0.34192824 43:0.41606498 44:0.4469288 45:0.22547643 46:0.81928062 47:0.23350218 48:0.76009291 49:0.55825424 50:0.54336834 51:0.47981131 52:0.35409424 53:0.56000626 54:0.50173539 55:0.75686532 56:0.57209527 57:0.074128896 58:0.88200814 
0.7143004918138143 0.7908532140239126 1:0.94609076 2:0.68169218 3:0.29289487 4:0.81143171 5:0.44215614 6:0.53135902 7:0.25431323 8:0.46984386 9:0.22358561 10:0.560265 11:0.62503809 12:0.44093928 13:0.92938215 14:0.46474707 15:0.59462273 16:0.65669912 17:0.38048199 18:0.41935599 19:0.53381687 20:0.40007004 21:0.70074493 22:0.94391382 23:0.15656468 24:0.28211725 25:0.43916219 26:0.82223034 27:0.43640572 28:0 29:0.54106861 30:0.48722807 31:0.33559996 32:0.63583905 33:0.40073359 34:0.96407813 35:0.27801308 36:0.045598779 37:0.56759447 38:0.80456531 39:0.66916662 40:0.50223327 41:0.481287 42:0.39503732 43:0.33870775 44:0.33830929 45:1 46:0.52333981 47:0.88268238 48:0.60960269 49:0.54366368 50:0.60256672 51:0.55237824 52:0.15458943 53:0.61022007 54:0.4247134 55:0.66232562 56:0.54224688 57:0.11682451 58:0.88421947 
0 1.246042943896369 1:0.31354919 2:0.43550441 3:0.87421685 4:0.60862911 5:0.25295132 6:0.34552577 7:0.68427157 8:0.36939853 9:0.62579179 10:0.5034532 11:0.52170306 12:0.3884432 13:0.44704843 14:0.37893283 15:0.37112021 16:0.75573093 17:0.48300102 18:0.29945827 19:0.77958041 20:0.29191938 21:0.61526287 22:0.48385534 23:0.29559326 24:0.48547378 25:0.64160353 26:0.44988003 27:0.30923298 28:0.20121327 29:0.87317401 30:0.1232072 31:0.29016536 32:0.38449344 33:0.40544116 34:0.76167017 35:0.40879127 36:0.14509062 37:0.49059537 38:0.48619077 39:0.82440943 40:0.31258458 41:0.57832044 42:0.65980697 43:0.41585454 44:0.5835346 45:0.99185097 46:0.56523621 47:0.36969557 48:0.15967578 49:0.85343397 50:0.29226711 51:0.45245549 52:0.39403853 53:0.42278937 54:0.6456216 55:0.62808365 56:0.54694724 57:0.098167233 58:0.80027956 
0.3958772339497016 1.03560906949442 1:0.98853439 2:0.72321016 3:0.55696511 4:0.73049492 5:0.50968349 6:0.24239202 7:0.58839107 8:0.57376105 9:0.20152783 10:0.24282168 11:0.59003758 12:0.21100229 13:0.23054144 14:0.13401257 15:0.60483062 16:0.43108353 17:0.66918069 18:0.45368707 19:0.73324829 20:0.62100893 21:0.44234157 22:0.56420135 23:0.036726855 24:0.11277333 25:0.38204476 26:0.43008587 27:0.3673532 28:0.38455951 29:1 30:0.55151427 31:0.51127005 32:0.30466893 33:0.24982253 34:0.50419891 35:0.40117297 36:1 37:0.28155166 38:0.23303656 39:0.40866187 40:0.51305491 41:0.5878455 42:0.59268486 43:0.5393123 44:0.56494898 45:0.4543075 46:0.4001936 47:0.57074648 48:0.54389244 49:0.50423008 50:0.57367218 51:0.23277135 52:0.50607437 53:0.36528999 54:0.51209074 55:0.73533183 56:0.5830335 57:0.06440682 58:0.86991 
0 1.337295949235667 1:0.60769063 2:0.52641904 3:0.40643111 4:0.81974876 5:0.20606479 6:0.32708552 7:0.45102647 8:0.27425331 9:0.24666761 10:0.35909149 11:0.4409855 12:0.29634574 13:0.63553351 14:0.19865364 15:0.38590363 16:0.69556504 17:1.9270991e-16 18:0.91812497 19:0.78267354 20:0.38520393 21:0.53815085 22:0.20070952 23:0.29104075 24:0.61153167 25:0.37166068 26:0.46847016 27:0.50054884 28:0.58583444 29:0.72859329 30:0.46056014 31:0.16792876 32:0.46074432 33:0.43322209 34:0.50975531 35:0.30091396 36:0.62102765 37:0.39726502 38:0.19606106 39:0.14830162 40:0.37190205 41:0.6802606 42:0.39027128 43:0.54025292 44:0.45850146 45:0.29164043 46:0.92064351 47:0.3689383 48:0.60785723 49:0.52230513 50:0.4831627 51:0.33208901 52:0.49039319 53:0.41967076 54:0.45881292 55:0.65635252 56:0.58445227 57:0.094770811 58:0.81070536 
0.3308307256337828 0 1:0.50343484 2:0.55341882 3:0.56320983 4:0.32278278 5:0.63138533 6:0.64921117 7:0.6811738 8:0.31303674 9:0.44542655 10:0.40518749 11:0.34014997 12:0.23808838 13:0.48909345 14:0.15677464 15:0.32834363 16:0.68924487 17:0.72010523 18:0.43025008 19:0.49457985 20:0.37733355 21:0.45974094 22:0.71569782 23:0.60672575 24:0.43871367 25:0.19506085 26:0.8650704 27:0.30746171 28:0.2535004 29:0.62878835 30:0.52923632 31:0.32263842 32:0.46245834 33:0.76481891 34:0.42669338 35:0.49083665 36:0.73194188 37:0.63305712 38:0.54643434 39:0.27701974 40:0.18069516 41:0.9154771 42:0.26915953 43:0.317801 44:0.49902222 45:0.41182467 46:0.79406059 47:0.11072808 48:0.66541922 49:0.5673908 50:0.48115069 51:0.36247563 52:0.43815118 53:0.4101359 54:0.44289789 55:0.7778585 56:0.57980913 57:0.056676734 58:0.86695379 
0.1543910261708586 1.570185877812563 1:0.74292237 2:0.44611824 3:0.45641029 4:0.59697509 5:0.71291381 6:0.24283335 7:0.70079666 8:0.55142188 9:0.31439182 10:0.35281491 11:0.088169597 12:0.684919 13:0.68299681 14:0.45443091 15:0.34229907 16:0.4063285 17:0.36311129 18:0.42930645 19:0.59704518 20:0.44758859 21:0.72566658 22:0.38746688 23:0.26936308 24:0.42775822 25:0.74248183 26:0.57073891 27:0.42827433 28:0.33724788 29:0.75705194 30:0.57952029 31:0.33618772 32:0.39628759 33:0.45479238 34:0.58294034 35:0.50328803 36:0.28079158 37:0.40624329 38:0.64790785 39:0.43391615 40:0.5859499 41:0.5229665 42:0.4655678 43:0.7116397 44:0.58548123 45:0.63629037 46:0.48506856 47:0.52597004 48:0.035631966 49:0.68162328 50:0.28671476 51:0.45480222 52:0.46487644 53:0.4423027 54:0.6487841 55:0.61501026 56:0.57690066 57:0.101393 58:0.83988613 
0.355572305643793 0 1:0.61118674 2:0.49925774 3:0.1988361 4:0.42654434 5:0.19229653 6:0.15955594 7:0.5099799 8:0.61926115 9:0.27725846 10:1 11:0.35516271 12:0.34783396 13:0.48681304 14:0.33841053 15:0.475669 16:0.53217876 17:0.3852821 18:0.38882056 19:0.70683908 20:0.73603845 21:0.55175936 22:0.76485085 23:0.1625585 24:0.71815091 25:0.17209639 26:0.52306157 27:0.53631204 28:0.43751866 29:0.58483249 30:0.30358255 31:0.25934881 32:0.23590764 33:0.30281752 34:0.48429844 35:0.52498436 36:0.31453606 37:0.33869889 38:0.91638017 39:0.24644916 40:0.63829875 41:0.79065096 42:0.64601386 43:9.2780643e-16 44:0.59499443 45:0.21592145 46:0.9228158 47:0.16035265 48:0.52244645 49:0.77886206 50:0.26072475 51:0.22895268 52:0.34131992 53:0.40315545 54:0.47897601 55:0.81594646 56:0.49696177 57:0.15301819 58:0.87867999 
0.3472584079339913 1.163899465152921 1:0.70833218 2:0.33762306 3:0.80460548 4:0.72297704 5:0.36723056 6:0.61894917 7:0.72423416 8:0.2703678 9:0.10357982 10:0.62436736 11:0.55424786 12:0.78573245 13:0.70168436 14:0.41327712 15:0.5276286 16:0.52382714 17:0.78860176 18:0.53146017 19:0.48534027 20:0.39961797 21:0.33608258 22:0.67648679 23:0.79049623 24:0.65492713 25:0.260784 26:0.34025225 27:0.35094219 28:0.24593875 29:0.22231741 30:0.41206741 31:0.73900282 32:0.38303241 33:0.77460718 34:0.63761938 35:0.31433132 36:0.40729702 37:0.65371108 38:0.18964352 39:0.45839441 40:0.11041931 41:0.78195471 42:0.21947552 43:0.38586456 44:0.44651976 45:0.35412696 46:0.79841757 47:0.099581838 48:0.71731526 49:0.42301667 50:0.53142971 51:0.45451725 52:0.47886378 53:0.54375237 54:0.34605101 55:0.7214151 56:0.60688907 57:0.079145625 58:0.82716686 
0.1766517895865106 0 1:0.73711735 2:0.69900769 3:0.34484154 4:0.48515952 5:0.31725284 6:0.59025985 7:0.59767246 8:0.35895643 9:0.59233534 10:0.50303394 11:0.43562153 12:0.74995947 13:0.37153271 14:0.071588099 15:0.60674852 16:0.48706988 17:0.80376589 18:0.40116239 19:0.41613552 20:0.67416418 21:0.57560909 22:0.4361673 23:0.91874456 24:0.95849639 25:7.2229792e-16 26:0.44641295 27:0.59876508 28:0.43024561 29:0.34279886 30:0.38900065 31:0.21957263 32:0.27957293 33:0.4516004 34:0.48552641 35:0.40902779 36:0.45158774 37:0.44847691 38:0.24356203 39:0.38563699 40:0.47712231 41:0.63257706 42:0.38316852 43:0.38483247 44:0.58926421 45:0.34140056 46:1 47:0.23511054 48:0.67223275 49:0.65362406 50:0.43719271 51:0.26401365 52:0.42795491 53:0.33334878 54:0.41185066 55:0.70574987 56:0.59055531 57:0.095442697 58:0.8853842 
0.01257245868707732 0 1:0.38710517 2:0.48552978 3:0.22086728 4:0.50277632 5:0.56219304 6:0.093421243 7:0.65980947 8:0.38060656 9:0.64859939 10:0.46496949 11:0.50913984 12:0.68281364 13:0.84032726 14:0.70609033 15:0.50106889 16:0.76042199 17:0.75338608 18:0.53583902 19:0.39569056 20:0.48941812 21:0.55053884 22:0.94739449 23:0.32957754 24:0.49199176 25:0.76329374 26:0.79342902 27:0.46028662 28:0.11942479 29:0.59789276 30:0.36568803 31:0.57187128 32:0.62432969 33:0.23859759 34:0.89200646 35:0.39275354 36:0.30760348 37:0.51069903 38:0.71956462 39:0.7563833 40:0.68566328 41:0.5373562 42:0.33017039 43:0.4360846 44:0.58786148 45:0.69179022 46:0.51458603 47:0.79812604 48:0.32470736 49:0.69814312 50:0.26934552 51:0.45681053 52:0.30684465 53:0.45916572 54:0.55223364 55:0.70606041 56:0.56882197 57:0.072402678 58:0.89674902 
0.2564319388972293 2.46039863882391 1:0.73696661 2:0.30787867 3:0.39031076 4:0.49378037 5:0.35574192 6:0.88164407 7:0.7497443 8:0.48887041 9:0.38326666 10:0.64493173 11:0.58129328 12:0.52103657 13:0.89218104 14:0.29659271 15:0.48830506 16:0.8867833 17:0.85779369 18:0.27161026 19:0.62950367 20:0.44873211 21:0.139006 22:0.57325238 23:0.44453225 24:0.42905343 25:0.33224165 26:0.73289269 27:0.56744683 28:0.4824608 29:0.59949571 30:0.26721588 31:0.2206044 32:0.50774956 33:0.16542017 34:0.54352033 35:0.79640055 36:0.4173499 37:0.6136058 38:0.6722464 39:0.20501009 40:0.45686516 41:0.63343304 42:0.52358454 43:0.38091719 44:0.42508125 45:0.64654028 46:0.70781308 47:0.2606152 48:0.3044678 49:0.67092752 50:0.24844839 51:0.51060683 52:0.36082318 53:0.31849194 54:0.53005683 55:0.72093838 56:0.47520655 57:0.12189031 58:0.80214602 
0.8708243060930205 0 1:0.42249298 2:0.78933948 3:0.45835635 4:0.52338785 5:0.496225 6:0.55370766 7:0 8:0 9:0.39264122 10:0.71337426 11:0.68537974 12:0.63554555 13:0.7450164 14:0.6658197 15:0.37798789 16:0.2673496 17:0.65012997 18:0.12649602 19:0.53697056 20:0.38890728 21:0.23801582 22:0.65082151 23:0.9291538 24:0.56500053 25:0.79283905 26:0.56758165 27:0.71912271 28:0.37113705 29:0.58008194 30:0.53248745 31:0.39284047 32:0.095579013 33:0.38093641 34:0.50268984 35:0.47820309 36:0.57135963 37:0.42659476 38:0.18329141 39:0.30259433 40:0.32732627 41:0.65008259 42:0.38937655 43:0.37589309 44:0.65880656 45:8.7857868e-16 46:0.403952 47:0.35488415 48:0.90195948 49:0.21039018 50:0.51045269 51:0.25354254 52:0.42613858 53:0.44455484 54:0.46576223 55:0.77607244 56:0.64187253 57:0.087150849 58:0.96701223 
0.1936607896566133 0 1:0.8396998 2:0.71314669 3:0.4616693 4:0.26325414 5:0.13266881 6:0.51729763 7:0.64081436 8:0.4951019 9:0.11659048 10:0.99505895 11:0.62734437 12:0.65132785 13:0.73931277 14:0.38689697 15:0.44592395 16:0.28447455 17:0.77478749 18:0.36637861 19:0.28050065 20:0.69848329 21:0.29823139 22:0.61705863 23:0.50725645 24:0.37411547 25:0.38453898 26:0.48953608 27:0.63744551 28:0.20002386 29:0.35591474 30:0.33518818 31:0.12963465 32:0.3043263 33:0.42584482 34:0.6416347 35:0.27240571 36:0.12551244 37:0.35072258 38:0.57849848 39:0.27984661 40:0.60807359 41:0.78703272 42:0.62776768 43:0.16039529 44:0.70833158 45:0.26843727 46:0.86240125 47:0.12221773 48:0.36514291 49:0.83284408 50:0.14198951 51:0.38091567 52:0.3459765 53:0.42609078 54:0.57196212 55:0.75181931 56:0.50072259 57:0.14044878 58:0.88731134 
-0.2533496209569896 1.480273071925104 1:0.6987204 2:0.3178435 3:0.57208532 4:0.26692057 5:0.51543468 6:0.35903868 7:0.60160488 8:0.32302442 9:0.5893774 10:0.58503228 11:0.46599317 12:0.52105492 13:0.85216522 14:0.54758173 15:0.25996515 16:0.44033679 17:0.41103074 18:0.29329666 19:0.69960713 20:0.68717712 21:0.62067127 22:0.58668667 23:0.40542427 24:0.71139401 25:0.41701892 26:0.49085316 27:0.49293754 28:0.23302567 29:0.53709185 30:0.25345388 31:0.045336939 32:0.012620407 33:0.60631001 34:0.8336184 35:0.14070068 36:0.46045074 37:0.97694945 38:0.18363808 39:0.72000712 40:0.25160858 41:0.55426949 42:0.56322682 43:0.65953708 44:0.72836226 45:0.30108407 46:0.50402582 47:0.48545673 48:0.45806244 49:0.6051451 50:0.5604555 51:0.44770959 52:0.45779601 53:0.45039481 54:0.63400424 55:0.80318993 56:0.97756034 57:0.98986387 58:0.81655312 
-3.644365764106673 1.631714743540478 1:0.74518943 2:0.45799521 3:0.46246874 4:0.22337556 5:0.62215924 6:0.29105079 7:0.63225847 8:0.34719664 9:0.53237122 10:0.55125815 11:0.46506995 12:0.54386586 13:0.9790895 14:0.56744057 15:0.26860723 16:0.51025444 17:0.33880222 18:0.29258457 19:0.62984306 20:0.71849227 21:0.6091457 22:0.58469117 23:0.4584457 24:0.59140438 25:0.4866631 26:0.39522433 27:0.48618272 28:0.24002315 29:0.59176248 30:0.24420503 31:0.053015057 32:0 33:0.64065254 34:0.90628517 35:0.12380984 36:0.51006156 37:1 38:0.16909486 39:0.64914149 40:0.23023571 41:0.51709908 42:0.54260689 43:0.6461485 44:0.74620664 45:0.28908947 46:0.5394882 47:0.50616974 48:0.47258505 49:0.5814811 50:0.57590568 51:0.4315542 52:0.45040542 53:0.50870353 54:0.67119026 55:0.75061685 56:0.98559564 57:0.96734256 58:0.83546555 
-1.391275156103199 1.17899723218911 1:0.18837893 2:0.63380414 3:0.36193147 4:0.5365684 5:0.3495723 6:0.16942093 7:0.24663898 8:0.045590494 9:0.15975054 10:0.57809615 11:0.54941529 12:0.67515022 13:0.51528001 14:0.45680898 15:0.46885601 16:0.67747855 17:0.5044331 18:0.48033535 19:0.4579699 20:0.22848661 21:0.63877583 22:0.30540043 23:0.72856855 24:0.67711109 25:0.69885284 26:0.65143877 27:0.087111801 28:0.20887874 29:0.18662822 30:0.61636227 31:0.845478 32:0.54412299 33:0.44344008 34:0.094489254 35:0.88944501 36:0.51226014 37:0.38100788 38:0.75855732 39:0.44104365 40:0.78526258 41:0.74354225 42:0.37291417 43:0.48347265 44:0.4868229 45:0.54401213 46:0.70973057 47:0.34591031 48:0.65385967 49:0.59682894 50:0.48865145 51:0.41210988 52:0.44286406 53:0.32795542 54:0.6951158 55:0.75886071 56:0.97328633 57:0.98587418 58:0.7981202 
-0.0608188551374998 0 1:0.77174979 2:0.75299644 3:0.64904177 4:0.51445067 5:0.57106531 6:0.39489672 7:0.40278989 8:0.80843443 9:0.2109355 10:0.4830547 11:7.2674717e-16 12:0.6794548 13:0.952007 14:0.34781107 15:0.55329555 16:0.96212101 17:0.45356834 18:0.25544292 19:0.78847528 20:0.6452896 21:0.42373049 22:0.76015341 23:0.99029684 24:0.87611157 25:0.33134744 26:0.53879619 27:0.96376878 28:0.64467311 29:0.30980417 30:0.50781089 31:0.22537051 32:1 33:0.12626711 34:0.72688442 35:0.38454494 36:0.51970339 37:3.5949584e-16 38:0.53835791 39:0.46824795 40:0.50113875 41:0.75296903 42:0.31738839 43:0.3900165 44:0.48733383 45:0.57143021 46:0.69185168 47:0.56718785 48:0.44431421 49:0.42390397 50:0.54514462 51:0.3574293 52:0.37906319 53:0.47155592 54:0.61956692 55:0.79572165 56:0.80976474 57:0.97594094 58:0.75925827 
-0.0175034112883496 0 1:0.72413939 2:0.72803944 3:0.42783692 4:0.38419175 5:0.43652388 6:0.43229482 7:0.55056596 8:0.58721274 9:0.52674496 10:0.58800149 11:0.5897131 12:0.50675285 13:0.62009048 14:0.47851592 15:0.5250504 16:0.72431999 17:0.56901777 18:0.51228797 19:0.58124572 20:0.50298542 21:0.72663695 22:0.36658731 23:0.38625133 24:0.52350193 25:0.92591578 26:0.55354685 27:0.19542627 28:0.31691861 29:0.78616554 30:0.21628936 31:1 32:0.42122433 33:0.51218468 34:2.3881755e-16 35:1 36:0.53447741 37:0.6706177 38:0.83858818 39:0.13700241 40:0.61658198 41:0.71540415 42:0.41830435 43:0.47072488 44:0.6700871 45:0.66888374 46:0.49218553 47:0.35348552 48:0.39973465 49:0.70838535 50:0.27700093 51:0.47393265 52:0.46593681 53:0.4681721 54:0.7922048 55:0.8851074 56:0.90719789 57:0.96576869 58:0.83071345 
-0.06716966095395882 0 1:0.56223637 2:0.27177256 3:0.51255965 4:0.9159441 5:0.59921706 6:0.44474155 7:0.86959082 8:0.13432734 9:0.6075756 10:0.33434939 11:0.94586295 12:0.45569459 13:0.83170187 14:0.42330608 15:0.30494452 16:0.053876519 17:0.92368442 18:0.5836693 19:0.38211176 20:0.31818086 21:0.42166409 22:0.97736377 23:0.52780682 24:0.24716972 25:0.1778214 26:0.65497929 27:0.51208687 28:0.80512655 29:0.25602862 30:0.70327324 31:0.43381774 32:0.48218554 33:0.40891823 34:0.40971011 35:0.41306096 36:0.2940602 37:0.01811946 38:0.66920799 39:0.5346964 40:0.43187758 41:0.5281834 42:0.26827818 43:0.51951504 44:0.37045923 45:0.64684522 46:0.9248876 47:0.46823341 48:0.47667193 49:0.57086939 50:0.40645996 51:0.48769704 52:0.34023073 53:0.36908945 54:0.61354148 55:0.76845533 56:0.84688586 57:0.94984186 58:0.75903773 
-0.01880146494782048 0 1:0.53809136 2:0.67744011 3:0.53663099 4:0.56526661 5:0.18586053 6:1 7:0.71756065 8:0.6753161 9:0.59023321 10:0.43795216 11:0.35251865 12:0.060456354 13:0 14:0.61006308 15:0.52420294 16:0.66634321 17:0.63249242 18:0.63102216 19:0.44305852 20:0.21300909 21:0.35200348 22:0.65521562 23:0.40425712 24:0.30600858 25:0.38390064 26:0.82272631 27:0.52044886 28:0.44812459 29:0.71671307 30:0.49898741 31:0.099834457 32:0.35505533 33:0.6253674 34:0.77210385 35:0.048319802 36:0.38442117 37:0.71252459 38:0.61308163 39:0.63728523 40:0.55037105 41:0.63145655 42:0.42894813 43:0.34878173 44:0.45968193 45:0.60002065 46:0.541493 47:0.51462471 48:0.51184654 49:0.72143459 50:0.44634911 51:0.40797743 52:0.39949366 53:0.55281335 54:0.74971217 55:0.83276397 56:0.87033391 57:1 58:0.8484962 
-2.609286490842307 2.725353396434372 1:0.77174979 2:0.75299644 3:0.64904177 4:0.51445067 5:0.57106531 6:0.39489672 7:0.40278989 8:0.80843443 9:0.2109355 10:0.4830547 11:7.2674717e-16 12:0.6794548 13:0.952007 14:0.34781107 15:0.55329555 16:0.96212101 17:0.45356834 18:0.25544292 19:0.78847528 20:0.6452896 21:0.42373049 22:0.76015341 23:0.99029684 24:0.87611157 25:0.33134744 26:0.53879619 27:0.96376878 28:0.64467311 29:0.30980417 30:0.50781089 31:0.22537051 32:1 33:0.12626711 34:0.72688442 35:0.38454494 36:0.51970339 37:3.5949584e-16 38:0.53835791 39:0.46824795 40:0.50113875 41:0.75296903 42:0.31738839 43:0.3900165 44:0.48733383 45:0.57143021 46:0.69185168 47:0.56718785 48:0.44431421 49:0.42390397 50:0.54514462 51:0.3574293 52:0.37906319 53:0.47155592 54:0.61956692 55:0.79572165 56:0.80976474 57:0.97594094 58:0.75925827 
-1.994395930130909 1.826508989470429 1:0.72413939 2:0.72803944 3:0.42783692 4:0.38419175 5:0.43652388 6:0.43229482 7:0.55056596 8:0.58721274 9:0.52674496 10:0.58800149 11:0.5897131 12:0.50675285 13:0.62009048 14:0.47851592 15:0.5250504 16:0.72431999 17:0.56901777 18:0.51228797 19:0.58124572 20:0.50298542 21:0.72663695 22:0.36658731 23:0.38625133 24:0.52350193 25:0.92591578 26:0.55354685 27:0.19542627 28:0.31691861 29:0.78616554 30:0.21628936 31:1 32:0.42122433 33:0.51218468 34:2.3881755e-16 35:1 36:0.53447741 37:0.6706177 38:0.83858818 39:0.13700241 40:0.61658198 41:0.71540415 42:0.41830435 43:0.47072488 44:0.6700871 45:0.66888374 46:0.49218553 47:0.35348552 48:0.39973465 49:0.70838535 50:0.27700093 51:0.47393265 52:0.46593681 53:0.4681721 54:0.7922048 55:0.8851074 56:0.90719789 57:0.96576869 58:0.83071345 
-3.042830567408759 2.66621496462397 1:0.56223637 2:0.27177256 3:0.51255965 4:0.9159441 5:0.59921706 6:0.44474155 7:0.86959082 8:0.13432734 9:0.6075756 10:0.33434939 11:0.94586295 12:0.45569459 13:0.83170187 14:0.42330608 15:0.30494452 16:0.053876519 17:0.92368442 18:0.5836693 19:0.38211176 20:0.31818086 21:0.42166409 22:0.97736377 23:0.52780682 24:0.24716972 25:0.1778214 26:0.65497929 27:0.51208687 28:0.80512655 29:0.25602862 30:0.70327324 31:0.43381774 32:0.48218554 33:0.40891823 34:0.40971011 35:0.41306096 36:0.2940602 37:0.01811946 38:0.66920799 39:0.5346964 40:0.43187758 41:0.5281834 42:0.26827818 43:0.51951504 44:0.37045923 45:0.64684522 46:0.9248876 47:0.46823341 48:0.47667193 49:0.57086939 50:0.40645996 51:0.48769704 52:0.34023073 53:0.36908945 54:0.61354148 55:0.76845533 56:0.84688586 57:0.94984186 58:0.75903773 
-2.431577879176898 2.491396654072003 1:0.53809136 2:0.67744011 3:0.53663099 4:0.56526661 5:0.18586053 6:1 7:0.71756065 8:0.6753161 9:0.59023321 10:0.43795216 11:0.35251865 12:0.060456354 13:0 14:0.61006308 15:0.52420294 16:0.66634321 17:0.63249242 18:0.63102216 19:0.44305852 20:0.21300909 21:0.35200348 22:0.65521562 23:0.40425712 24:0.30600858 25:0.38390064 26:0.82272631 27:0.52044886 28:0.44812459 29:0.71671307 30:0.49898741 31:0.099834457 32:0.35505533 33:0.6253674 34:0.77210385 35:0.048319802 36:0.38442117 37:0.71252459 38:0.61308163 39:0.63728523 40:0.55037105 41:0.63145655 42:0.42894813 43:0.34878173 44:0.45968193 45:0.60002065 46:0.541493 47:0.51462471 48:0.51184654 49:0.72143459 50:0.44634911 51:0.40797743 52:0.39949366 53:0.55281335 54:0.74971217 55:0.83276397 56:0.87033391 57:1 58:0.8484962 
-1.156149937825665 -0.4554060351226457 1:0.59887594 2:0.60088712 3:0.48751265 4:0.41515443 5:0.5137518 6:0.46377671 7:0.68023646 8:0.40498391 9:0.51508719 10:0.44694781 11:0.48251095 12:0.34032935 13:0.70626754 14:0.58630782 15:0.47569057 16:0.62292713 17:0.59280336 18:0.43328881 19:0.61639792 20:0.44751406 21:0.63108039 22:0.49490958 23:0.55352044 24:0.47881651 25:0.64995325 26:0.49164712 27:0.57490206 28:0.478634 29:0.42180353 30:0.62738657 31:0.28006712 32:0.28947863 33:0.63316005 34:0.46123454 35:0.34528467 36:0.47410154 37:0.61216503 38:0.47176909 39:0.2631605 40:0.81464058 41:0.73286659 42:0.55603653 43:0.39914015 44:0.71655983 45:0.96038508 46:0.91502601 47:0.55897385 48:0.55815506 49:0.33548319 50:0.48123965 51:0.27032506 52:0.26358938 53:0.3189545 54:0.034757391 55:0.73797458 56:0 57:0.50918138 58:0.30732286 
-1.709091074061265 -0.5334581044592107 1:0.57204032 2:0.55138379 3:0.53642106 4:0.57055712 5:0.49640697 6:0.44916713 7:0.63078433 8:0.47905236 9:0.42333749 10:0.47787559 11:0.4379333 12:0.48286831 13:0.62533885 14:0.44350475 15:0.41258869 16:0.53794581 17:0.54842508 18:0.4268752 19:0.60683626 20:0.40367156 21:0.50583899 22:0.62838811 23:0.56660318 24:0.48962304 25:0.45651281 26:0.57403284 27:0.37978983 28:0.40938678 29:0.60171181 30:0.25189033 31:0.38264245 32:0.46763489 33:0.36018509 34:0.58359057 35:0.42599931 36:0.40960079 37:0.41625464 38:0.515562 39:0.72195327 40:0.22686996 41:0.76634109 42:0.28105757 43:0.55796534 44:0.35288793 45:0.19881654 46:0.24167399 47:0.36508071 48:0.43465295 49:0.87316883 50:0.18322404 51:0.47369656 52:0.33144027 53:0.56552696 54:0.022334835 55:0.68394369 56:0.11179961 57:0.56615347 58:0.31209236 
-0.0197236794139331 -0.6384629856838555 1:0.56175023 2:0.32408968 3:0.5532496 4:0.84503788 5:0.44693506 6:0.52965891 7:0.41609561 8:0.5184052 9:0.43922028 10:0.53541803 11:0.30931666 12:0.4919886 13:0.50713611 14:0.5395633 15:0.37281045 16:0.51955593 17:0.67252213 18:0.50417584 19:0.29330781 20:0.76918244 21:0.502514 22:0.59054339 23:0.54440826 24:0.35588083 25:0.36468473 26:0.28997082 27:0.66039437 28:0.10070589 29:0.6982494 30:0.2850309 31:0.35858503 32:0.34729072 33:0.33104792 34:0.40882158 35:0.31221968 36:0.35062137 37:0.21999542 38:0.50695473 39:0.41984192 40:0.60686207 41:0.90919709 42:0.58137828 43:0.36928749 44:0.75658417 45:0.42949775 46:0.84192699 47:0.41674894 48:0.4592602 49:0.47995716 50:0.26064268 51:0 52:0.31828663 53:0.30743703 54:0.87178928 55:0.211475 56:0.27392271 57:0.43774059 58:0.35543579 
-0.7100781324928487 -0 1:0.61227649 2:0.53489351 3:0.38038784 4:0.29480326 5:0.39420593 6:0.61164671 7:0.69181395 8:0.89362496 9:0.60980034 10:0.41229597 11:0.56216383 12:0.65198117 13:0.75411522 14:0.7539928 15:0.39348552 16:0.6005854 17:0.5951795 18:0.50353974 19:0.6407305 20:0.53861499 21:0.65355659 22:0.62453747 23:0.41346005 24:0.28987733 25:0.43550843 26:0.65101761 27:0.64941293 28:0.50689566 29:0.57578087 30:0.43530962 31:0.32075894 32:0.53674203 33:0.44595456 34:0.36975142 35:0.14835355 36:0.71712279 37:0.46169826 38:0.39141664 39:0.4952901 40:0.50648183 41:0.92359895 42:0.34211385 43:0.51435524 44:0.78610599 45:0.42321199 46:0.60696578 47:0.10819427 48:0.40076324 49:0.50852108 50:0.38733903 51:0.2933262 52:0.41209584 53:0.32486805 54:0.90623623 55:0.17238988 56:0.26376703 57:0.3644554 58:0.3777588 
-0 -0.2596490990574103 1:0.54662865 2:0.59005648 3:0.747967 4:0.54366833 5:0.43091279 6:0.48805457 7:0.54178405 8:0.31374672 9:0.51120472 10:0.53614521 11:0.16496818 12:0.53814495 13:0.61754465 14:0.53574121 15:0.34950787 16:0.47935128 17:0.4353728 18:0.44578469 19:0.45346567 20:0.78949606 21:0.22393073 22:0.73993886 23:0.40631253 24:0.13675579 25:0.25961012 26:0.54148644 27:0.27748948 28:0.40957826 29:0.32064936 30:0.27755001 31:0.37266833 32:0.45482752 33:0.18125571 34:0.69760942 35:0.43135825 36:0.19491476 37:0.46394068 38:0.67632818 39:0.26884282 40:0.38877237 41:0.81098092 42:0.43509927 43:0.52723944 44:0.81280279 45:0.42285249 46:0.7932719 47:0.48595643 48:0.50008947 49:0.44571885 50:0.35604593 51:0.05603626 52:0.37723991 53:0.28448522 54:0.90953815 55:0.1897476 56:0.33285752 57:0.34980872 58:0.31240058 
-0 -0.1004316807395132 1:0.62226278 2:0.69666761 3:0.78810847 4:0.61772561 5:0.49958539 6:0.35559234 7:0.73475188 8:0.78666598 9:0.42060584 10:0.59447455 11:0.41496614 12:0.52361161 13:0.56045735 14:1 15:0.4225772 16:0.43067089 17:0.63428855 18:0.46298164 19:0.80615211 20:0.50174516 21:0.36536455 22:0.6635778 23:0.51420087 24:0.31735533 25:0.43646094 26:0.56711304 27:0.4574689 28:0.41959852 29:0.35188109 30:0.29884622 31:0.2967968 32:0.42322919 33:0.35006806 34:0.57425445 35:0.29727301 36:0.65185958 37:0.45153013 38:0.66152322 39:0.45055962 40:0.57915318 41:0.65368867 42:0.38058183 43:0.48860848 44:0.72820956 45:0.32135102 46:0.74184 47:0.29219824 48:0.40301976 49:0.64493227 50:0.37968272 51:0.12006687 52:0.33278111 53:0.19557671 54:0.99518716 55:0.21057707 56:0.28874394 57:0.33580956 58:0.34630865 
-1.947164023970933 -0.7990342440101598 1:0.4641301 2:0.61830151 3:0.68023241 4:0.31590483 5:0.5222227 6:0.53232843 7:0.61025757 8:0.36517116 9:0.48646638 10:0.48706505 11:0.40700966 12:0.6402142 13:0.50022566 14:0.44036344 15:0.11687396 16:0.53007829 17:0.23403513 18:0.35835069 19:0.79793817 20:0.20928197 21:0.30029184 22:0.56776935 23:0.67280918 24:0.5697149 25:0.45289624 26:0.75097901 27:0.4439981 28:0.77817863 29:0.63370526 30:0.42044276 31:0.58829832 32:0.37177429 33:0.2707184 34:0.73150736 35:0.54045331 36:0.04025276 37:0.53671449 38:0.62613881 39:0.52697384 40:0.21882065 41:0.7595911 42:0.6791023 43:0.4715789 44:0.53834552 45:0.67110872 46:0.87442684 47:0.59117591 48:0.52578062 49:0.54991621 50:0.65336406 51:0.2817823 52:0.47945553 53:0.43353918 54:0.72395641 55:0.12662911 56:0.36734289 57:0.3563472 58:0.37555051 
-0 -0.1564567185152081 1:0.66264528 2:0.74167407 3:0.54336774 4:0.5494253 5:0.4919838 6:0.47843334 7:0.76769561 8:0.47968116 9:0.38318679 10:0.4900192 11:0.52392554 12:0.44939566 13:0.77699137 14:0.51920736 15:0.65833104 16:0.37428597 17:0.62298071 18:0.3041667 19:1 20:0.12063465 21:0.33601505 22:0.3377215 23:0.46034127 24:0.67733359 25:0.66823173 26:0.76084316 27:0.51492566 28:0.44888988 29:0.48791698 30:0.59649032 31:0.46650925 32:0.31624576 33:0.56030995 34:0.80367649 35:0.35931778 36:0.81407243 37:0.34614497 38:0.72953039 39:1 40:0.4840067 41:0.68951565 42:0.34556931 43:0.56071454 44:0.261637 45:0.45991439 46:0.65764838 47:0.55223262 48:0.66074651 49:0.8408609 50:0.48901871 51:0.42814407 52:0.3334263 53:0.35560921 54:0.80371034 55:0.12683634 56:0.40275264 57:0.3477816 58:0.32519633 
-2.119883937198411 -0.7129499914012535 1:0.74319458 2:0.55808228 3:0.40536276 4:0.46784231 5:0.59600633 6:0.24407448 7:0.4074544 8:0.26950285 9:0.42202541 10:0.6302954 11:0.75749254 12:0.40251881 13:0.72817892 14:0.54714507 15:0.50217366 16:0.49817306 17:0.66143167 18:0.41295549 19:0.78136039 20:0.064603724 21:0.44470456 22:0.56904078 23:0.56060439 24:0.52185029 25:0.46399522 26:0.59152436 27:0.62029207 28:0.56554222 29:0.80312461 30:0.40198758 31:0.52444792 32:0.54777068 33:0.55083495 34:0.77074611 35:0.44084051 36:0.89173913 37:0.60980523 38:0.47679719 39:0.83246815 40:0.23884484 41:0.95273519 42:0.40074772 43:0.67657602 44:0.42702463 45:0.48576203 46:0.73289329 47:0.49120858 48:0.2946547 49:0.5645721 50:0.53186172 51:0.41248944 52:0.41521245 53:0.25414509 54:0.82874757 55:0.033235017 56:0.36555678 57:0.37113506 58:0.44392809 
-0.9179104301744676 -0.04873455554917018 1:0.7985428 2:0.73860747 3:0.44461319 4:0.42060941 5:0.47001234 6:0.62571377 7:0.4761351 8:0.38972002 9:0.46834192 10:0.47702119 11:0.54327321 12:0.52357095 13:0.75421268 14:0.45532754 15:0.35307851 16:0.708525 17:0.44543746 18:0.2852096 19:0.27622721 20:0.89353025 21:0.68539882 22:0.70440674 23:0.1010347 24:0.43972495 25:0.46036249 26:0.52712667 27:0.45069793 28:0.20392922 29:0.34903386 30:0.55801529 31:0.54944009 32:0.22718604 33:0.66732413 34:0.41897345 35:0.48945597 36:0.39211729 37:0.48332119 38:0.59097403 39:0.72482473 40:0.42016682 41:0.72396183 42:0.1273538 43:0.54111892 44:0.19874606 45:0.4575066 46:0.71570969 47:0.62008792 48:0.55240899 49:0.74608719 50:0.44735625 51:0.28075713 52:0.24833125 53:0.4171063 54:0.70417166 55:0.12835318 56:0.24672946 57:0.39649925 58:0.34988704 
-0.8458263004446057 -0.000585942406797459 1:0.77164346 2:0.41693634 3:0.71344417 4:0.6830501 5:0.4412514 6:0.33601239 7:0.72752118 8:0.14065041 9:0.48200911 10:0.58058715 11:0.32764232 12:0.28611985 13:0.85355556 14:0.1143746 15:0.57387906 16:0.62015206 17:0.57627076 18:0.6209746 19:0.28436834 20:0.67735225 21:0.77182698 22:0.73579574 23:0.49487913 24:0.73612386 25:0.47375327 26:0.76985198 27:0.41231897 28:0.39974362 29:0.72291118 30:0.44671363 31:0.4683083 32:0.38754916 33:0.41392139 34:0.4487187 35:0.42682356 36:0.31685024 37:0.62328118 38:0.40620524 39:0.43485284 40:0.268188 41:0.82244509 42:0.60337555 43:0.5765546 44:0.54778087 45:0.46972731 46:0.80398285 47:0.61536354 48:0.59765017 49:0.57412386 50:0.55090159 51:0.28143626 52:0.52495891 53:0.34430835 54:0.72458327 55:0.012877481 56:0.28079385 57:0.39398476 58:0.41923618 
-0.9267123802064008 -0.6633354134006549 1:0.60284269 2:0.41478413 3:0.31808302 4:1 5:0.5043205 6:0.4126108 7:0.27664256 8:0.60808533 9:0.63330758 10:0.48375937 11:0.56663227 12:0.58990562 13:0.56716752 14:0.47512066 15:0.45336121 16:0.44903222 17:0.58540595 18:0.42786756 19:0.62247634 20:0.60593152 21:0.72142696 22:0.45608559 23:0.67260957 24:0.23981501 25:0.47915846 26:0.68524736 27:0.63097405 28:0.39438784 29:0.67804056 30:0 31:0.04731404 32:0.54090977 33:0.26164311 34:0.54968816 35:0.47155529 36:0.57386976 37:0.499558 38:0.48771772 39:0.36845523 40:0.64846909 41:0.36138207 42:0.59232652 43:0.11972184 44:0.97041506 45:0.31625068 46:0.7111612 47:0.27319199 48:0.34627971 49:0.44294557 50:0.31656533 51:0.29675934 52:0.56571954 53:0.45973325 54:0.80451888 55:0.71909833 56:0.13670994 57:0.38294461 58:0.30228534 
-0.8359147244767318 -0 1:0.50595367 2:0.39945784 3:0.45960775 4:0.47095335 5:0.32818022 6:0.65544349 7:0.53363776 8:0.74539292 9:0.41517282 10:0.43202716 11:0.48601034 12:0.66430598 13:0.87082857 14:0.61381465 15:0.53334028 16:0.57386971 17:0.46093103 18:0.37552255 19:0.42006275 20:0.40511954 21:0.71510136 22:0.70612592 23:0.44484207 24:0.51958573 25:0.443463 26:0.66697329 27:0.42371586 28:0.43975487 29:0.43163374 30:0.52941948 31:0.17545839 32:0.62546897 33:0.42274424 34:0.54831195 35:0.44378456 36:0.60588837 37:0.47429627 38:0.30854169 39:0.26423511 40:0.41636929 41:0.41414514 42:0.4503099 43:0.31947139 44:0.84888899 45:0.53584373 46:0.38369584 47:0.061969668 48:0.55309713 49:0.4827871 50:0.35721296 51:0.36004022 52:0.65366054 53:0.47686967 54:0.86453789 55:0.71231246 56:0.14832915 57:0.36790025 58:0.3083998 
-0.002553161848853922 -0.3549007212723384 1:0.72816879 2:0.60875005 3:0.14839639 4:0.53377151 5:0.2663067 6:0.32478127 7:0.58841574 8:0.36013508 9:0.42951122 10:0.60601485 11:0.23831855 12:0.60792321 13:0.55359226 14:0.41131595 15:0.22376613 16:0.62254584 17:0.41698155 18:0.52836192 19:0.6731177 20:0.21731357 21:0.49211955 22:0.59560007 23:0.78235459 24:0.51240498 25:0.30317765 26:0.7559672 27:0.45992714 28:0.46158507 29:0.017090078 30:0.57861817 31:0.29322988 32:0.12901506 33:0.58546197 34:0.39503273 35:0.7313751 36:0.016610259 37:0.54387408 38:0.65581757 39:0.4882912 40:0.23370887 41:0 42:0.46243772 43:0.49698648 44:0 45:0.50997084 46:0.52159476 47:0.69057822 48:0.70971227 49:0.38222384 50:0.7187826 51:0.48518619 52:0.72202861 53:0.6891771 54:0.60621452 55:0.68284702 56:0.17106941 57:0.33284914 58:0.30244493 
-0.5320877617427358 -0 1:0.82957697 2:0.70756418 3:0.43766671 4:0.36019865 5:0.48981008 6:0.56433386 7:0.3668333 8:0.49114498 9:0.45001563 10:0.51608777 11:0.55697578 12:0.65882784 13:0.72852981 14:0.42662331 15:0.32224521 16:0.72761708 17:0.50163805 18:0.37201953 19:0.29584393 20:0.86835974 21:0.71922553 22:0.71234941 23:0.057290707 24:0.45316556 25:0.42753938 26:0.57371533 27:0.48392034 28:0.18614636 29:0.37772709 30:0.51908463 31:0.57806182 32:0.29765293 33:0.68238395 34:0.38689253 35:0.45020145 36:0.35867676 37:0.55164516 38:0.52724403 39:0.68976635 40:0.44579014 41:0.74999005 42:0.21744712 43:0.53723538 44:0.2199043 45:0.41045973 46:0.67923248 47:0.62364161 48:0.55799103 49:0.75535619 50:0.451092 51:0.26743883 52:0.31053427 53:0.35468137 54:0.69004244 55:0.12043921 56:0.23712248 57:0.3899371 58:0.3579109 
-0.4943977853877694 -0.1390769644948159 1:0.55291504 2:0.66651988 3:0.42247233 4:0.71849686 5:0.53228724 6:0.4960849 7:0.50607723 8:0.36294836 9:0.51740509 10:0.40646842 11:0.41916159 12:0.53777504 13:0.84761733 14:0.46493036 15:0.51697379 16:0.5842104 17:0.49878716 18:0.28809044 19:0.50831115 20:0.25828171 21:0.52747416 22:0.76076263 23:0.28646883 24:0.59050441 25:0.84404916 26:0.63529301 27:0.52411276 28:0.35759622 29:0.39163518 30:0.79471016 31:0.41270733 32:0.49847409 33:0.69478047 34:0.82431 35:0.60499209 36:0.79598135 37:0.39555028 38:0.19920446 39:0.55675089 40:0.26979303 41:0.47139865 42:0.34130517 43:0.40262771 44:0.19180737 45:0.83303165 46:0.28244138 47:0.3125174 48:0.57024753 49:0.76069164 50:0.40676382 51:0.46948314 52:0.78966421 53:0.55455989 54:0.65877116 55:0.80009604 56:0.28685069 57:0.33291605 58:0.25578684 
-0.3323556096389451 -0.09732647280378499 1:0.76098138 2:0.26673749 3:0.46236607 4:0.63362712 5:0.35052776 6:0.18734761 7:0.57706308 8:0.38718501 9:0.50673079 10:0.66055185 11:0.60207856 12:0.48197287 13:0.78732032 14:0.38884994 15:0.4677408 16:0.45725605 17:0.75596118 18:0.2703146 19:0.31951597 20:0.53784174 21:0.452784 22:0.76841283 23:0.78577846 24:0.27232975 25:0.50922835 26:0.52618635 27:0.48393255 28:0.4320915 29:0.96207792 30:0.21406882 31:0.50192422 32:0.71777058 33:0.48440352 34:0.59485155 35:0.29444548 36:0.73347759 37:0.676992 38:0.42464966 39:0.48843583 40:0.41775277 41:0.55414408 42:0.59115505 43:0.37322095 44:0.65208435 45:0.49184212 46:0.73052073 47:0.26061982 48:0.17589468 49:0.36241055 50:0.55460113 51:0.39180136 52:0.91819751 53:0.51840895 54:0.77203637 55:0.46474409 56:0.13824573 57:0.40202197 58:0.42715958 
-0.5132847110080502 -0.493920872499943 1:0.86870408 2:0.5708276 3:0.13520336 4:0.6854654 5:0.36838704 6:0.13919067 7:0.78993249 8:0.53762001 9:0.2826992 10:0.41025445 11:0.399977 12:0.34711665 13:0.79390943 14:0.68251204 15:0.58244973 16:0.6442377 17:0.41322115 18:0.40549764 19:0.59449434 20:0.23083727 21:0.0053471322 22:0.56233877 23:0.48607194 24:0.71455443 25:0.72594845 26:0.7313605 27:0.38679248 28:0.38082862 29:0.35632849 30:0.92488587 31:0.20101048 32:0.41320604 33:0.6133557 34:0.59203947 35:0.51455164 36:0.82003063 37:0.41800767 38:0.42583758 39:0.55300641 40:0.38017157 41:0.51574653 42:0.25777271 43:0.63156396 44:0.34293994 45:0.32004833 46:0.29711047 47:0.3763594 48:0.69018143 49:0.76533848 50:0.32574669 51:0.59239095 52:0.67803431 53:0.72724038 54:0.78593659 55:0.7276572 56:0.33140144 57:0.30770385 58:0.25990921 
-0 -0.6116668486562378 1:0.59827667 2:0.87667662 3:0.49654019 4:0.15341082 5:0.55606061 6:0.57529074 7:0.79521853 8:0.39371559 9:0.627307 10:0.4835414 11:0.45241842 12:0.42889798 13:0.7293694 14:0.73688334 15:0.57792348 16:0.48046938 17:0.57303959 18:0.35384133 19:0.62923747 20:0.58244938 21:0.30665064 22:0.51495647 23:0.31432918 24:0.87049294 25:0.31695399 26:0.51160175 27:0.7744469 28:0.39412487 29:0.75963855 30:0.35951397 31:0.48054329 32:0.41860723 33:0.41089022 34:0.55919254 35:0.35097361 36:0.43174639 37:0.21324541 38:0.28550902 39:0.055120979 40:0.4543044 41:0.46654645 42:0.62099206 43:0.63006419 44:0.45181483 45:0.6014412 46:0.64885706 47:0.72053695 48:0.68288058 49:0.72910714 50:0.40669629 51:0.86719275 52:0.31269607 53:0.84993577 54:0.68611294 55:0.76655388 56:0.36374506 57:0.29800472 58:0.23489656 
-0.06035178096825571 -0.7796239015561136 1:0.74615127 2:0.58483893 3:0.039599232 4:0.30546299 5:0.48126489 6:0.59083855 7:0.56397343 8:0.69614714 9:0.11547742 10:1.1842922e-16 11:0.49969348 12:0.13861485 13:0.64957851 14:0.18229698 15:0.56479377 16:0.30211744 17:0.64241272 18:0.36502185 19:0.28699517 20:0.52642649 21:0.39741868 22:0.70810926 23:0.39769718 24:1 25:0.74858683 26:0.60729182 27:0.4985306 28:0.76044524 29:0.44027445 30:0.2575222 31:0.14765629 32:0.40898123 33:0.75507694 34:0.50427121 35:0.47859272 36:0.50449514 37:0.27909914 38:0.61870223 39:0.8210395 40:0.27913788 41:0.61467254 42:0.58476985 43:0.39457175 44:0.6269024 45:0.41300645 46:0.36179894 47:0.43026039 48:0.5391348 49:0.12952167 50:0.15893644 51:0.49342513 52:0.22724542 53:0.36894855 54:0.52391291 55:0.61779773 56:0.61044806 57:0.32378805 58:0.12856548 
-1.212682722123453 -0.04018737824058949 1:0.36425829 2:0.45142844 3:0.2119101 4:0.4147093 5:0.54500467 6:0.60797721 7:0.64037532 8:0.56799358 9:0.3184011 10:0.44840199 11:0.51159906 12:0.30643705 13:0.7112236 14:0.32021293 15:0.53870398 16:0.58525354 17:0.72183418 18:0.31790555 19:0.64684927 20:0.60810721 21:0.70451164 22:0.61821485 23:0.70381606 24:0.56491655 25:0.61700547 26:0.65941942 27:0.53700376 28:0.66323739 29:0.34899136 30:0.25813299 31:0.28631032 32:0.4034116 33:0.27725774 34:0.31396112 35:0.36927944 36:0.38565981 37:0.57116878 38:0.30229172 39:0.43455333 40:0.6624437 41:0.71959281 42:0.50869578 43:0.44217572 44:0.27179015 45:0.29181471 46:0.78039998 47:0.54362315 48:0.28597087 49:0.95083243 50:0.72213691 51:0.4926919 52:0.43991321 53:0.60050714 54:0.63052231 55:0.70220107 56:0.59630877 57:0.20091487 58:0.16189909 
-0.3352836390352868 -1.016613669718723 1:6.0723427e-16 2:0.35502949 3:0.63940316 4:0.38004267 5:0.38234073 6:0.80794299 7:0.60034841 8:0.45053202 9:0.63377368 10:0.59243637 11:0.16215941 12:0.33453053 13:0.75733268 14:0.054396994 15:0.50248224 16:0.61745584 17:0.54315442 18:0.57130629 19:0.31767368 20:0.15560041 21:0.28013501 22:0.75769442 23:0.44903475 24:0.45739818 25:0.37904418 26:0.28830472 27:0.69831932 28:0.038886938 29:0.77165848 30:0.60351616 31:0.1871216 32:0.508977 33:0.92179286 34:0.4485504 35:0.32233676 36:0.10722972 37:0.37100613 38:0.3610113 39:0.21584648 40:0.48328876 41:0.60752463 42:0.32529238 43:0.47547492 44:0.30258495 45:0.42173821 46:0.37620986 47:0.48615611 48:0.36023828 49:0.45158395 50:0.46578348 51:0.33499122 52:0.25330237 53:0.35199168 54:0.56120324 55:0.56202209 56:0.69274479 57:0.31073573 58:0.16552517 
-0.2572096129839524 -0 1:0.82991487 2:0.44068125 3:0.41809052 4:0.35823086 5:0.46225607 6:0.41949251 7:0.64460492 8:0.50819319 9:0.60141271 10:0.62111688 11:0.5230757 12:0.26511717 13:0.53254211 14:0.55013281 15:0.3465507 16:0.67888153 17:0.52223861 18:0.37552777 19:0.37938172 20:0.62960458 21:0.51726854 22:0.55127949 23:0.44977626 24:0.48357403 25:0.60854644 26:0.55319756 27:0.88587624 28:0.6222527 29:0.43902963 30:0.34952188 31:0.33338943 32:0.46193504 33:0.35648334 34:0.54904455 35:0.56078976 36:0.38938046 37:0.4331542 38:0.51659214 39:0.56347239 40:0.71030051 41:0.67808455 42:0.55359483 43:0.61667532 44:0.60955209 45:0.3854734 46:0.61932671 47:0.41094041 48:0.79857212 49:0.55011499 50:0.53702366 51:0.97692537 52:0.13042952 53:0.63202775 54:0.55757672 55:0.48838043 56:0.53442532 57:0.27528495 58:0.19063084 
-0 -0.1894277718267736 1:0.77124763 2:0.52718735 3:0.30880177 4:0.54849082 5:0.42061111 6:0.66456103 7:0.63062954 8:0.27361244 9:0.44270173 10:0.39288765 11:0.59961039 12:0.55182981 13:0.81403804 14:0.68388897 15:0.35017487 16:0.82464057 17:0.58404332 18:0.48367435 19:0.53739572 20:0.24894005 21:0.53275192 22:0.51386625 23:0.44111124 24:0.47150001 25:0.27566543 26:0.67700833 27:0.78494614 28:0.40762591 29:0.59659386 30:0.10087358 31:0.31128651 32:0.40162271 33:0.36458683 34:0.57453328 35:0.56815559 36:0.63757229 37:0.54267687 38:0.43411484 39:0.47829813 40:0.64970446 41:0.68437994 42:0.56872272 43:0.63331753 44:0.41606024 45:0.75014931 46:0.67890704 47:0.41894588 48:0.81319135 49:0.71593446 50:0.36705118 51:0.93377966 52:0.20895991 53:0.52841169 54:0.48738515 55:0.49408787 56:0.64379668 57:0.28856492 58:0.088523723 
-0 -0.6734169312373398 1:0.65504074 2:0.28909349 3:0.61667395 4:0.60195428 5:0.52297276 6:0.46473527 7:0.62312144 8:0.43950328 9:0.37593582 10:0.8111425 11:0.56317222 12:0.26089579 13:0.63550818 14:0.35130751 15:0.43023476 16:0.60036039 17:0.47669038 18:0.24600221 19:0.45952708 20:0.24183707 21:0.95105922 22:0.76580513 23:0.58143711 24:0.59327883 25:0.38200906 26:0.63924074 27:0.35015219 28:0.56565481 29:0.24152887 30:0.32955357 31:0.41201773 32:0.5291419 33:0.55737293 34:0.53132117 35:0.19615328 36:0.5417608 37:0.44017044 38:0.73503596 39:0.76272082 40:0.64943165 41:0.89463568 42:0.50438428 43:0.43023163 44:0.40129456 45:0.5690828 46:0.5648399 47:0.36821207 48:0.43252444 49:0.49721456 50:0.31410265 51:0.42720523 52:0.53081626 53:1 54:0.67510921 55:0.84937364 56:0.49668223 57:0.24490991 58:0.12585674 
-1.990207546597445 -0.05365152096051985 1:0.47544602 2:0.63341922 3:0.44111249 4:0.70275271 5:0.50193012 6:0.54520088 7:1 8:0.55114049 9:0.35139781 10:0.37803075 11:0.52020955 12:0.12228008 13:0.6152246 14:0.73726404 15:0.57538927 16:0.80962014 17:0.60682595 18:0.85801566 19:0.4641771 20:0.28859657 21:0.00012782752 22:0.44365603 23:0.62217569 24:0.26067275 25:0.87977248 26:0.2539548 27:0.60384065 28:0.79320246 29:0.28081682 30:0.30595711 31:0.32412487 32:0.40739927 33:0.64042836 34:0.31671977 35:0.36682341 36:0.40573189 37:0.64537203 38:0.24635695 39:0.31303376 40:0.1444575 41:0.69044518 42:0.61935622 43:0.73830628 44:0.56758726 45:0.40163469 46:0.6767084 47:0.28238299 48:0.58831996 49:0.65470219 50:0.37252605 51:0.89883757 52:0.35549638 53:0.52769876 54:0.80335641 55:0.4156675 56:0.47322136 57:0.20268241 58:0.30731156 
-0.5823066281714575 -0 1:0.59841824 2:0.57830751 3:0.96080273 4:0.37773946 5:0.4870778 6:0.44306874 7:0.38947812 8:0.29523554 9:0.2718156 10:0.55162913 11:0.4181512 12:0.63178551 13:0.98166496 14:0.20380868 15:0.40228266 16:0.3989518 17:0.49519378 18:0.60645568 19:0.47325668 20:0.37452728 21:0.5625819 22:0.36495593 23:0.46345186 24:0.0038507271 25:0.53977287 26:0.64099401 27:0.58412319 28:0.22301257 29:0.26104414 30:0.42362788 31:0.40362898 32:0.58796012 33:0.39703161 34:0.55578548 35:0.37900555 36:0.6313802 37:0.51359546 38:0.58669376 39:0.62896442 40:0.41260219 41:0.54138428 42:0.68882614 43:0.44967315 44:0.58506459 45:0.58025038 46:0.4171581 47:0.56767774 48:0.67231345 49:0.67490464 50:0.38177699 51:0.24363239 52:0.25484648 53:0.7990132 54:0.55845064 55:0.74561256 56:0.5887512 57:0.22000089 58:0.096106179 
-0.00839491048139975 -0 1:0.38778374 2:0.41585362 3:0.43799475 4:0.31455424 5:0.43015224 6:0.82380104 7:0.18890782 8:0.33031982 9:0.18821059 10:0.45292887 11:0.63998616 12:0.59712726 13:0.47885498 14:0.47799608 15:0.26020178 16:0.59542012 17:0.51594573 18:0.35130441 19:0.49626729 20:0.77736199 21:0.44230986 22:0.6766023 23:0.22269455 24:0.73573232 25:0.59369814 26:0.51008135 27:0.32346556 28:0.49871284 29:0.63813275 30:0.54825532 31:0.058048345 32:0.47932255 33:0.35470298 34:0.43983003 35:0.2709704 36:0.4100602 37:0.52493072 38:0.48056239 39:0.55905223 40:0.71240813 41:0.4134976 42:0.5401507 43:0.56412768 44:0.43991584 45:0.64184511 46:0.33045796 47:0.36798069 48:0.57248139 49:0.28946176 50:0.055646393 51:0.51232988 52:0.47353879 53:0.18250544 54:0.50380725 55:0.5041427 56:0.67526591 57:0.28129327 58:0.098262109 
-0.4361331797898656 -0.2596221224202275 1:0.67900246 2:0.84186697 3:0.49617562 4:0.56636178 5:0.53033727 6:0.090665951 7:0.48223463 8:0.78649449 9:0.58421141 10:0.81913549 11:0.52006662 12:0.76545435 13:0.76324505 14:0.5066393 15:0.55695254 16:0.45550078 17:0.71952963 18:0.028402841 19:0.48550391 20:0.71966422 21:0.582335 22:0.60803586 23:0.54316539 24:0.16445431 25:0.41111594 26:0.53079379 27:0.34520167 28:0.68132794 29:0.5887959 30:0.29034328 31:0.011830535 32:0.68622535 33:1 34:0.19637609 35:0.38162476 36:0.20263845 37:0.66966611 38:0.59028101 39:0.80773234 40:0.1038956 41:0.55953622 42:0.67761642 43:1 44:0.57322592 45:0.86436343 46:0.37744313 47:0.29207489 48:0.44030127 49:0.35557058 50:0.9685514 51:0.48386642 52:0.18958202 53:0.31436858 54:0.55492818 55:0.76043606 56:0.52470398 57:0.27225167 58:0.1703514 
-0.8850447034210721 -0 1:0.46953404 2:0.2777999 3:0.57231188 4:0.29962578 5:0.85191351 6:0.54421705 7:0.81815779 8:0.65450865 9:0.2836594 10:0.71662802 11:0.64438033 12:0.46497807 13:0.59554631 14:0.21753643 15:0.37621185 16:0.67248833 17:0.49399135 18:0.36246213 19:0.46887404 20:0.46084386 21:0.61694872 22:0.85462481 23:0.69855356 24:0.5715965 25:0.23425475 26:0.63383251 27:0.22429051 28:0.52210909 29:0.59325331 30:0.47437695 31:0.37077683 32:0.16447143 33:0.28339711 34:0.4521983 35:0.20330122 36:0.4090541 37:0.50063914 38:0.52394801 39:0.41682991 40:0.21662965 41:0.82743055 42:0.57942206 43:0.60920739 44:0.72496301 45:0.89054227 46:0.37599197 47:0.50416833 48:0.62887317 49:0.77536803 50:0.47773722 51:0.57448304 52:0.49820107 53:0.32517835 54:0.78755438 55:0.87430763 56:0.33056229 57:0.23331268 58:0.17551632 
-0.7845345392251902 -0 1:0.67899942 2:0.37426716 3:0.41542041 4:0.42049342 5:0.51328033 6:0.62864697 7:0.67921686 8:0.061567768 9:0.75677299 10:0.59877628 11:0.51236701 12:0.61109209 13:0.70726395 14:0.23732077 15:0.46805027 16:0.91097742 17:0.65857643 18:0.22867148 19:0.42824548 20:0.54646033 21:0.42798537 22:0.56664288 23:0.36918613 24:0.38398686 25:0.46958521 26:0.82795626 27:0.37834194 28:0.5470047 29:0.6310038 30:0.33745661 31:0.22095799 32:0.36276236 33:0.58911639 34:0.56688505 35:0.53415394 36:0.35534745 37:0.3293862 38:0.66879827 39:0.40486991 40:0.54139757 41:0.71098578 42:0.5085001 43:0.70010424 44:0.55533934 45:0.37855464 46:0.57853287 47:0.28528631 48:0.59890085 49:0.6582495 50:0.5796206 51:0.41150221 52:0.53797591 53:0.41191062 54:0.66271293 55:0.88920277 56:0.43889189 57:0.27153805 58:0.14397307 
-0 -0.2604705201156433 1:0.70739979 2:0.62507588 3:0.73662263 4:0.66241407 5:0.5407654 6:0.27321425 7:0.43279555 8:0.4267202 9:0.56532663 10:0.52138865 11:0.32056847 12:0.33496761 13:0.41040391 14:0.46730545 15:0.32932192 16:0.59445965 17:0.67992717 18:0.74494731 19:0.48479933 20:0.80847013 21:0.60788471 22:0.96476758 23:0.73425901 24:0.49522606 25:0.39359602 26:0.62399238 27:0.41382891 28:0.65611857 29:0.48865744 30:0.41812685 31:0.22974598 32:0.52005631 33:0.41870081 34:0.62885714 35:0.43602315 36:0.39992765 37:0.51285517 38:0.72159553 39:0.42301282 40:0.79411513 41:0.80871004 42:0.91983974 43:0.83651716 44:0.45536143 45:0.44233865 46:0.33553809 47:0.37324604 48:0.44277814 49:0.69001824 50:0.5789364 51:0.355506 52:0.84117746 53:0.50273883 54:0.59360617 55:0.72528195 56:0.47680789 57:0.2559225 58:0.16257593 
-0 -0.2879401820027411 1:0.54689479 2:0.30273119 3:0.22876003 4:0.60618013 5:0.41230515 6:0.67962539 7:0.82224685 8:0.39311448 9:0.26717475 10:0.65629768 11:0.45288625 12:0.35538685 13:0.72241527 14:0.32825187 15:0.44512546 16:0.70306295 17:0.42679116 18:0.25160578 19:0.76363647 20:0.32661256 21:0.59397656 22:0.62440956 23:0.5842703 24:0.57326239 25:0.37559 26:0.75886303 27:0.4897857 28:0.44684106 29:0.43516421 30:0.41208541 31:0.20931245 32:0.33149981 33:0.45809549 34:0.65388387 35:0.35985729 36:0.47869071 37:0.42889822 38:0.3262392 39:0.71752834 40:0.76759899 41:0.69168139 42:0.35540214 43:0.59807742 44:0.41433871 45:0.44058344 46:0.64336985 47:0.37025827 48:0.28222331 49:0.67185432 50:0.88976133 51:0.32213613 52:0.28841233 53:0.43343067 54:0.59113348 55:0.81941885 56:0.52722496 57:0.27359793 58:0.13029073 
-0 -0.4218497844387449 1:0.7218467 2:0.59657997 3:0.6185801 4:0.26799351 5:0.48292089 6:0.79344249 7:0.6301682 8:0.17786185 9:0.37628523 10:0.62007439 11:0.48557696 12:0.085214488 13:0.73557097 14:0.31388679 15:0.080053717 16:0.85862976 17:0.95726186 18:0.35597432 19:0.57406354 20:0.88510102 21:0.61657166 22:0.53519326 23:0.69739789 24:0.3235071 25:0.41797784 26:0.76506555 27:0.51754284 28:0.52703589 29:0.45357674 30:0.50505674 31:0.27902138 32:0.44274855 33:0.057422455 34:0.58170652 35:0.41077614 36:0.58894444 37:0.47197506 38:0.60925329 39:0.51707172 40:0.37286428 41:0.534446 42:0.48165876 43:0.71093601 44:0.46844453 45:0.6092447 46:0.54490012 47:0.45535088 48:0.50095838 49:0.90159959 50:0.51056534 51:0.35184211 52:0.53608644 53:0.20252866 54:0.63196456 55:0.75111127 56:0.42705515 57:0.253566 58:0.11465906 
-0.3844184036344127 -0 1:0.46920446 2:0.4194881 3:0.79066682 4:0.19107798 5:0.30152276 6:0.59335625 7:0.43074468 8:0.40019625 9:0.48101094 10:0.3990998 11:0.54280084 12:0.53079265 13:0.8832255 14:0.39837578 15:0.28867564 16:0.4783825 17:0.56807548 18:0.59417194 19:0.59593987 20:0.61433876 21:0.48972234 22:0.59151721 23:0.19337308 24:0.39763555 25:0.2477777 26:0.82991487 27:0.48318881 28:0.54993254 29:0.8027277 30:0.52277595 31:0.44072172 32:0.3802498 33:0.39091748 34:0.4883987 35:0.52396625 36:0.46883225 37:0.18867864 38:0.11889342 39:0.46910581 40:0.45206231 41:0.71201074 42:0.19244452 43:0.53047448 44:0.70692194 45:0.58747619 46:0.58682024 47:0.50448209 48:0.41463643 49:0.47529694 50:0.32633933 51:0.50686747 52:0.25727195 53:0.33053863 54:0.59041077 55:0.82669979 56:0.56429368 57:0.27196458 58:0.11911396 
-0 -0.3968481649122149 1:0.58002335 2:0.70631456 3:0.92570722 4:0.56518221 5:0.36871126 6:0.1222654 7:0.37979281 8:0.57408154 9:0.73302042 10:0.44466704 11:0.59210747 12:0.4808774 13:0.74024439 14:0.21434799 15:0.27145869 16:0.38860646 17:0.48666224 18:0.45614424 19:0.74796516 20:0.55349505 21:0.40998057 22:0.52988374 23:0.20779701 24:0.46974328 25:0.37285531 26:0.83416587 27:0.3929747 28:0.45899013 29:0.42227453 30:0.78070676 31:0.38072649 32:0.44433481 33:0.47462744 34:0.58010256 35:0.53367561 36:0.38291183 37:0.59579927 38:0.14153317 39:0.45086676 40:0.6220507 41:0.72519052 42:0.2238979 43:0.39000291 44:0.76655716 45:0.51360786 46:0.6107372 47:0.46907008 48:0.57314223 49:0.74523062 50:0.52156335 51:0.54331958 52:0.22816382 53:0.52983534 54:0.600124 55:0.70230013 56:0.49742368 57:0.28733405 58:0.13138378 
-2.067034548309358 -0.4942731342590772 1:0.76184171 2:0.42142636 3:0.70994449 4:0.49050251 5:0.29123768 6:0.46672738 7:0.57362568 8:0.74484158 9:0.17258398 10:0.66662818 11:0.38370907 12:0.53226578 13:0.54239655 14:0.60722542 15:0.44623747 16:0.6770699 17:0.91221601 18:0.37528414 19:0.49229351 20:0.65662742 21:0.11614697 22:0.55848151 23:0.44499093 24:0.26652053 25:0.5135203 26:0.58555257 27:0.69946218 28:0.062876403 29:0.53836924 30:0.29270428 31:0.27897224 32:0.88132626 33:0.60665566 34:0.24025781 35:0.18312526 36:0.28367472 37:0.6548183 38:0.48943883 39:0.38244808 40:0 41:0.46216843 42:0.35516763 43:0.67487979 44:0.22211203 45:0.79665762 46:0.72877425 47:0.59101796 48:0 49:0.4035069 50:0.74944562 51:0.49355462 52:0.34239137 53:0.35947594 54:0.60602403 55:0.948497 56:0.43461874 57:0.2658447 58:0.29232889 
-0 -0.09735147379701892 1:0.5379886 2:0.7262435 3:0.46240157 4:0.30253056 5:0.46373251 6:0.29834169 7:0.63998342 8:0.56308699 9:0.26917541 10:0.48369709 11:0.32404771 12:0.81230426 13:0.50042385 14:0.62682045 15:0.5537228 16:0.7713722 17:0.66983467 18:0.41720399 19:0.70795888 20:0.33846563 21:0.6997906 22:0.80509472 23:0.81823987 24:0.78198922 25:0.43125841 26:0.63911664 27:0.71824777 28:0.23226838 29:0.3487069 30:0.5680213 31:0.53250366 32:0.27801982 33:0.52329779 34:0.65149945 35:0.42314264 36:0.47719553 37:0.45301998 38:0.59548444 39:0.37851873 40:0.26709843 41:0.93786287 42:0.52412987 43:0.59601903 44:0.84564424 45:0.73417312 46:0.71699297 47:0.58003002 48:0.36985362 49:0.79271775 50:0.35230833 51:0.41421074 52:0.93811363 53:0.49227881 54:0.53471076 55:0.70053864 56:0.50416863 57:0.23021746 58:0.10963216 
-0 -0.2293957348118033 1:0.88681829 2:0.43423483 3:0.49943146 4:0.59761357 5:0.77585566 6:0.45924693 7:0.58323187 8:0.45212764 9:0.46331868 10:0.60497767 11:0.31213859 12:0.66031677 13:0.49097511 14:0.17392212 15:0.37627935 16:0.53811753 17:0.46198294 18:0.24042717 19:0.61759907 20:0.22684497 21:0.60134941 22:0.63528723 23:0.47079346 24:0.49441394 25:0.7028175 26:0.56208885 27:0.28896272 28:0.35255936 29:0.36042431 30:0.61529803 31:0.099697031 32:0.51561421 33:0.70447141 34:0.42701146 35:0.50898403 36:0.77247 37:0.37658924 38:0.47414845 39:0.62482154 40:0.51435596 41:0.59019804 42:0.4617224 43:0.12673511 44:0.61252034 45:0.38488817 46:0.79720443 47:0.71430993 48:0.80558354 49:0.78514773 50:0.3504318 51:0.72512448 52:0.26370949 53:0.4817746 54:0.61318076 55:0.58053333 56:0.62631732 57:0.26650804 58:0.1148505 
-1.793784893913407 -0 1:0.5199632 2:0.45088321 3:0.80309081 4:0.56408572 5:0.46573779 6:0.69531476 7:0.54984725 8:0.48593563 9:0.6067161 10:0.41279346 11:0.55799478 12:0.53329194 13:0.4144879 14:0.061050374 15:0.43810529 16:0.6278801 17:0.55545557 18:0.077765226 19:0.79877758 20:0.30545807 21:0.2516351 22:0.7422905 23:0.6053372 24:0.55771345 25:0.43555036 26:0.66317111 27:0.34500146 28:0.50809115 29:0.51117378 30:0.43835449 31:0.56020725 32:0.25745964 33:0.65828323 34:0.76482737 35:0.45483115 36:0.6174773 37:0.48947632 38:0.78149915 39:0.41892785 40:0.74727321 41:0.81934178 42:0.23173235 43:0.45164606 44:0.83493561 45:0.27595869 46:0.6174866 47:0.50910336 48:0.21971191 49:0.14022757 50:0.36759096 51:0.63735414 52:0.58989966 53:0.6597352 54:0.47746292 55:0.63804066 56:0.49690744 57:0.20612223 58:0.2062743 
-0.1797388974309176 -0 1:0.4677048 2:0.45182738 3:0.66288912 4:0.56237155 5:0.565018 6:0.44441938 7:0.66645175 8:0.45412892 9:0.32068148 10:0.29315981 11:0.71580356 12:0.67682666 13:0.41046557 14:0.35004732 15:0.4691422 16:0.41649902 17:0.52977109 18:0.27986577 19:0.64620817 20:0.70169348 21:0.72984111 22:0.70396787 23:0.27271 24:0.49714878 25:0.48987544 26:0.60425848 27:0.46466735 28:0.37812707 29:0.34346935 30:0.52084297 31:0.38096038 32:0.47364634 33:0.48508212 34:0.60672736 35:0.45185307 36:0.33581188 37:0.56118441 38:0.64156038 39:0.41729715 40:0.62671936 41:0.87448871 42:0.66148674 43:0.58337957 44:0.48693061 45:0.24550796 46:0.72087502 47:0.45650786 48:0.47047016 49:0.44842646 50:0.56200808 51:0.76688099 52:0.6744287 53:0.90659881 54:0.56428695 55:0.74984914 56:0.44249511 57:0.25214246 58:0.20268771 
-0 -0.3199230967927164 1:0.5025993 2:0.51934057 3:0.76995873 4:0.32557949 5:0.48665577 6:0.31378305 7:0.50815666 8:0.53434819 9:0.15281101 10:0.54444182 11:0.71458596 12:0.681041 13:0.56414968 14:0.86089945 15:0.46306035 16:0.48791277 17:0.6107319 18:0.40714586 19:0.60685652 20:0.51064759 21:0.78941721 22:0.64873201 23:0.48684171 24:0.5284245 25:0.43126023 26:0.60464233 27:0.29265162 28:0.14126728 29:0.26969305 30:1 31:0.44903043 32:0.39632025 33:0.29202417 34:0.67456454 35:0.31807283 36:0.12684371 37:0.33641377 38:0.44931525 39:0.092573091 40:0.33773756 41:0.75665623 42:0.16457038 43:0.71885467 44:0.51942319 45:0.61692458 46:0.66208726 47:0.64224499 48:0.23684631 49:0.56159663 50:0.48988673 51:0.62377524 52:0.47257352 53:0.72588331 54:0.67209655 55:0.75606686 56:0.35479856 57:0.26904735 58:0.19212589 
-0.2904801090144514 -0 1:0.66139913 2:0.60430062 3:0.25047472 4:0.86435419 5:0.15874688 6:0.20326529 7:0.64316285 8:0.94453984 9:0.54398078 10:0.56558812 11:0.69022804 12:0.61151427 13:0.47565949 14:0.05013812 15:0.21173409 16:0.33373225 17:0.43100956 18:0.36235434 19:0.63429904 20:0.47734639 21:0.46204153 22:0.79670745 23:0.70411867 24:0.68566978 25:0.75492954 26:0.62841761 27:0.59634835 28:0.15059675 29:0.29998067 30:0.48786446 31:0.42488098 32:0.39980954 33:0.6323387 34:0.55409777 35:0.54029673 36:0.59655344 37:0.44396147 38:0.059556056 39:0.27453849 40:0.24476244 41:0.77956402 42:0.61013532 43:0.42015997 44:0.39400199 45:0.70258594 46:0.57042325 47:0.61366886 48:0.34649763 49:0.77289563 50:0.42017353 51:0.40881538 52:0.57349849 53:0.29563636 54:0.58706403 55:0.65654528 56:0.60474598 57:0.21577463 58:0.12253335 
-0 -0.2409787744576229 1:0.59571296 2:0.46474054 3:0.071376957 4:0.77692997 5:0.4152469 6:0.66182292 7:0.4730047 8:0.059775274 9:0.28774416 10:0.47375292 11:0.31349799 12:1 13:0.61647046 14:0.73647302 15:0.34645513 16:0.46593851 17:0.71952349 18:0.62333405 19:0.86875814 20:0.66636616 21:0.48030233 22:0.7188974 23:0.18585289 24:0.57860738 25:0.60771352 26:0.51815736 27:0.28481174 28:0.49693516 29:0.52537155 30:0.54057103 31:0.30504593 32:0.34902942 33:0.47063655 34:0.49992201 35:0.23210232 36:0.55648345 37:0.65997124 38:0.56587833 39:0.73528278 40:0.37439042 41:0.87137681 42:0.83738524 43:0.35487413 44:0.31823188 45:0.5562548 46:0.61975604 47:0.39693353 48:0.56045973 49:0.52422446 50:0.17151329 51:0.40549591 52:0.72705829 53:0.18299592 54:0.49847761 55:0.60916984 56:0.60354525 57:0.27982044 58:0.1042702 
-0 -0.03781810726391002 1:0.65044671 2:0.47563374 3:0.57775563 4:0.22322692 5:0.48934388 6:0.2148384 7:0.044365533 8:0.55013996 9:0.22049251 10:0.33806819 11:0.48685184 12:0.29006979 13:0.74618447 14:0.53849757 15:0.41128224 16:0.6959936 17:0.54797924 18:0.56954885 19:0.47229245 20:0.40753943 21:0.75054425 22:0.64244127 23:0.57534438 24:0.090762042 25:0.5256514 26:0.56179821 27:0.4101449 28:0.549312 29:0.36950973 30:0.55168688 31:0.13113937 32:0.21148205 33:0.28758046 34:0.344953 35:0.090681888 36:0.38778442 37:0.50323504 38:0.35828647 39:0.62541437 40:0.48691696 41:0.7524603 42:0.32695541 43:0.25086021 44:0.24752584 45:0.53547573 46:0.49020937 47:0.46549028 48:0.39403492 49:0.66072553 50:0.55438638 51:0.46995431 52:0.18620667 53:0.73702085 54:0.74115437 55:0.75261849 56:0.52308941 57:0.25708109 58:0.10609805 
-0.5224563528346688 -0.02933051155970054 1:0.76829726 2:0.49536997 3:0.76352942 4:0.45164832 5:0.24137877 6:0.41389406 7:0.64812648 8:0.47702584 9:0.429088 10:0.48521426 11:0.5675655 12:0.43380117 13:0.67301947 14:0.50415838 15:0.59176481 16:0.4627811 17:0.43956816 18:0.27082565 19:0.57691658 20:0.52811527 21:0.75612462 22:0.66204059 23:0.70486617 24:0.60411972 25:0.6189881 26:0.53074163 27:0.57020175 28:0.75385952 29:0.4518688 30:0.47483596 31:0.37070701 32:0.52326065 33:0.28311563 34:0.58534265 35:0.43507814 36:0.181126 37:0.7821579 38:0.42482707 39:0.26487371 40:0.52156711 41:0.40710351 42:0.26404887 43:0.67422467 44:0.62410343 45:0.36094201 46:0.63740748 47:0.53275895 48:0.56336027 49:0.55781913 50:0.012469471 51:0.27446318 52:0.45842353 53:0.3312172 54:0.49428609 55:0.5625065 56:0.68909049 57:0.16098502 58:0.11896531 
-0 -0.09163514219863643 1:0.7190299 2:0.73974949 3:0.6304459 4:0.6366666 5:0.50107914 6:0.29495409 7:0.75738126 8:0.7123363 9:0.5820058 10:0.66132182 11:0.43617579 12:0.38863337 13:0.86066628 14:0.72138596 15:0.55115229 16:0.64798456 17:0.53705704 18:0.61544979 19:0.51297605 20:0.4573186 21:0.52354157 22:0.48045343 23:0.38865325 24:0.35489699 25:0.24006125 26:0.68818289 27:0.72149438 28:0.45876533 29:0.59667039 30:0.72159553 31:0.46327299 32:0.45869154 33:0.352191 34:0.54881877 35:0.57905787 36:0.6631875 37:0.65059584 38:0.59737962 39:0.60656154 40:0.30352619 41:0.69270343 42:0.3466996 43:0.31723991 44:0.74734586 45:0.47712818 46:0.53312767 47:0.35862774 48:0.58952725 49:0.63713884 50:0.53249711 51:0.46634993 52:0.54722834 53:0.47078946 54:0.44716865 55:0.70433581 56:0.68630236 57:0.24459028 58:0.032082412 
-0 -0.07890982123923533 1:0.54446954 2:0.57119316 3:0.52700591 4:0.33794573 5:0.3817648 6:0.33174586 7:0.89425993 8:0.59954292 9:0.31993824 10:0.55240667 11:0.29372939 12:0.21652271 13:0.55131155 14:0.19032806 15:1 16:0.53035969 17:0.39089638 18:1 19:0.31853315 20:0.43496814 21:0.16919452 22:0.68343455 23:0.87688941 24:0.0760739 25:0.98953658 26:0.58307302 27:0.34100458 28:0.61562455 29:0.26714599 30:0.46894315 31:0.66930687 32:0.38763949 33:0.51461339 34:0.61355329 35:0.18710656 36:0.38098094 37:0.41829991 38:0.47542149 39:0.72723889 40:0.31357267 41:0.42679086 42:0.62093455 43:0.53966761 44:0.53673732 45:0.58501405 46:0.56989968 47:0.4919405 48:0.34993783 49:0.51593274 50:0.40404487 51:0.45649093 52:0.51646447 53:0.30798396 54:0.44011408 55:0.53867996 56:0.65274733 57:0.17354031 58:0.17218398 
-1.230337609342226 -0.06633020058067587 1:0.45914197 2:0.70320147 3:0.33396456 4:0.77364516 5:0.64804882 6:0.52624083 7:0.34254551 8:0.81789762 9:0.54808295 10:0.47952843 11:0.34450355 12:0.53199953 13:0.71262437 14:0.73809588 15:0.48427206 16:0.52461421 17:0.59212983 18:0.05257646 19:0.63725656 20:0.57576597 21:0.43699923 22:0.60201228 23:0.55812341 24:0.39134681 25:0.30425116 26:0.58215928 27:0.37561789 28:0.55811691 29:0.59087253 30:0.42840534 31:0.44672748 32:0.3108449 33:0.5124594 34:0.43965617 35:0.33921435 36:0.295551 37:0.65488011 38:0.40411657 39:0.26631474 40:0.59283763 41:0.56381899 42:0.19100058 43:0.59076661 44:0.28928846 45:0.47852197 46:0.48869744 47:0.73500365 48:0.75005907 49:0.79075652 50:0.10147642 51:0.28502741 52:0.47805145 53:0.49538091 54:0.80584836 55:0.89647108 56:0.40292975 57:0.1916364 58:0.21742047 
-0 -0.06339069325450683 1:0.50175196 2:0.69638723 3:0.5423857 4:0.66613036 5:0.59172481 6:0.52602273 7:0.56289357 8:0.58713514 9:0.42428929 10:0.47852069 11:0.48850086 12:0.40524751 13:0.85091907 14:0.50928026 15:0.52360612 16:0.58631223 17:0.58184165 18:0.10081922 19:0.44451818 20:0.34465417 21:0.70585066 22:0.47157645 23:0.71863925 24:0.56222498 25:0.58325565 26:0.59925205 27:0.49678633 28:0.66093522 29:0.56170255 30:0.36048284 31:0.53518498 32:0.34695652 33:0.62234211 34:0.51248938 35:0.24763015 36:0.48218912 37:0.26164138 38:0.61431873 39:0.37191203 40:0.50425386 41:0.52591032 42:0.53133351 43:0.46802723 44:0.58707589 45:0.46487701 46:0.59837335 47:0.54089212 48:0.48166928 49:1 50:0.47769266 51:0.32038611 52:0.88196415 53:0.42135257 54:0.47600129 55:0.67341614 56:0.60814792 57:0.23243643 58:0.11013576 
-0 -0.3120400988668219 1:0.58987117 2:0.62297845 3:0.50902516 4:0.57653636 5:0.55095702 6:0.60946256 7:0.55296564 8:0.6168974 9:0.52351075 10:0.34806409 11:0.2152977 12:0.59134322 13:0.65170324 14:0.28343013 15:0.49174246 16:0.41557866 17:0.63293004 18:0.76757294 19:0.77421892 20:0.51607966 21:0.29074952 22:0.85435468 23:0.51168245 24:0.75126266 25:0.55355757 26:0.57311815 27:0.39414665 28:0.37169477 29:0.61941826 30:0.45951229 31:0.31996354 32:0.33271182 33:0.17488794 34:0.57844567 35:0.44933182 36:0.90017766 37:0.64492005 38:0.74464822 39:0.47023576 40:0.24915978 41:0.43878588 42:8.1867084e-17 43:0.44166267 44:0.75880384 45:0.53953135 46:0.99453843 47:0.47901189 48:0.46891427 49:0.62161881 50:0.56070971 51:0.61171371 52:0.54042792 53:0.57857782 54:0.45018679 55:0.64700443 56:0.54026639 57:0.24432097 58:0.10298155 
-0 -0.1689390751576241 1:0.37678295 2:0.46734327 3:0.56044817 4:0.50781584 5:0.54956484 6:0.54974484 7:0.4565362 8:0.75296921 9:0.57420552 10:0.46543029 11:0.35902864 12:0.60590672 13:0.64664066 14:0.40944752 15:0.30604538 16:0.45664641 17:0.46996593 18:0.59033805 19:0.50798386 20:0.5277828 21:0.60513377 22:0.42154071 23:0.4307417 24:0.55081046 25:0.5075022 26:0.72150636 27:0.40501413 28:0.51201504 29:0.40588167 30:0.55055118 31:0.33570391 32:0.28700134 33:0.1313058 34:0.55119795 35:0.54000843 36:0.62219572 37:0.66279113 38:0.60432708 39:0.72370332 40:0.59971142 41:0.53688401 42:0.16100115 43:0.56558424 44:0.85147125 45:0.48240083 46:0.84190565 47:0.40468544 48:0.45838043 49:0.71296597 50:0.67611033 51:0.50262046 52:0.55998689 53:0.53253454 54:0.46368226 55:0.68248212 56:0.56260192 57:0.25827631 58:0.11424287 
-0.1193079121872503 -0 1:0.7655133 2:0.29873079 3:0.61833352 4:0.64354545 5:0.86389118 6:0.67686033 7:0.38581634 8:0.51177907 9:0.34760025 10:0.62662446 11:0.39091858 12:0.54629749 13:0.73376733 14:0.6364038 15:0.52810854 16:0.45894736 17:0.76280755 18:0.62089962 19:0.67056829 20:0.31148091 21:0.80487537 22:0.51761895 23:0.28729373 24:0.61322778 25:0.5698365 26:0.60944432 27:0.6216135 28:0.56513721 29:0.81746161 30:0.32225248 31:0.14122614 32:0.047675766 33:0.4967615 34:0.51385105 35:0.43810725 36:0.46501833 37:0.31356832 38:0.44266373 39:0.35695454 40:0.26280826 41:0.64690167 42:0.37085432 43:0.62607658 44:0.75980723 45:0.47561347 46:0.82928032 47:0.56378227 48:0.53531355 49:0.78669822 50:0.57650346 51:0.43738231 52:0.84853858 53:0.6260466 54:0.50853711 55:0.81116104 56:0.47181141 57:0.24855462 58:0.17197758 
-1.756654178112164 -0.1525093165185096 1:0.45426631 2:0.58561838 3:0.82719678 4:0.92997605 5:0.45194939 6:0.30240241 7:0.53142941 8:0.72998166 9:0.44325072 10:0.57189244 11:0.85557508 12:0.22253795 13:0.7615211 14:0.4603897 15:0.35188204 16:0.74325365 17:0.56347901 18:0.74775618 19:0.43924657 20:0.41003349 21:0.72153133 22:0.50420469 23:0.39670721 24:0.67026627 25:0.44185349 26:0.47409493 27:0.59732294 28:0.41796041 29:0.17986587 30:0.28941318 31:0.13576758 32:0.21218976 33:0.2224052 34:0.52762097 35:0.65946651 36:0.56447762 37:0.53836828 38:0.48599839 39:0.67617214 40:0.34753072 41:0.55641145 42:0.36282617 43:0.6494711 44:0.31415972 45:0.32689404 46:0.91559941 47:0.4897854 48:0.30938587 49:0.47073981 50:0.37410933 51:0.46075875 52:0.60973477 53:0.54856497 54:0.56327474 55:0.76925617 56:0.55911386 57:0.20782954 58:0.15663123 
-0.7552513621248819 -0 1:0.59737861 2:0.28558302 3:0.67608285 4:0.6328038 5:0.2891461 6:0.39691961 7:0.55104691 8:0.67626619 9:0.47199073 10:0.4905529 11:0.43490428 12:0.46793017 13:0.736099 14:0.49572533 15:0.18598376 16:0.64681309 17:0.5565567 18:0.5561946 19:0.69857001 20:0.52112812 21:0.79083854 22:0.64455777 23:0.70128363 24:0.44579816 25:0.29394346 26:0.45956206 27:0.37771446 28:0.34633443 29:0.48061261 30:0.57362163 31:0.17014244 32:0.36898407 33:0.32307214 34:0.57836652 35:0.62483037 36:0.50223786 37:0.48666495 38:0.48489901 39:0.73478591 40:0.50091457 41:0.48659453 42:0.28294259 43:0.53968257 44:0.70736557 45:0.55998808 46:0.70561045 47:0.49899939 48:0.55208445 49:0.76314503 50:0.49825785 51:0.52665323 52:0.62669581 53:0.43554732 54:0.42034221 55:0.64427644 56:0.60893881 57:0.26256704 58:0.091023907 
-0.3629712327175662 -0 1:0.65163368 2:0.46612135 3:0.33305484 4:0.4072164 5:0.58007097 6:0.5897904 7:0.64813519 8:0.52968711 9:0.37515372 10:0.61076379 11:0.57594126 12:0.096187599 13:0.76410925 14:0.5990935 15:0.18294211 16:0.55515969 17:0.42159086 18:0.47164154 19:0.68023968 20:0.5823186 21:0.65818149 22:0.6707859 23:0.52950937 24:0.41644812 25:0.16337667 26:0.58257174 27:0.11451972 28:0.22677679 29:0.58479917 30:0.39029551 31:0.30836999 32:0.57288319 33:0.63916194 34:0.63798523 35:0.41916153 36:0.24141023 37:0.46279064 38:0.56184584 39:0.53601062 40:0.64670253 41:0.95005614 42:0.25817358 43:0.59775847 44:0.5469377 45:0.59225971 46:0.6641469 47:0.26849121 48:0.479577 49:0.20816338 50:0.31645954 51:0.67363077 52:0.9970119 53:0.44505826 54:0.49004906 55:0.61491674 56:0.61434346 57:0.23211247 58:0.1217256 
-0 -0.05409873383373266 1:0.81752431 2:0.41624528 3:0.60362941 4:0.33827481 5:0.46357486 6:0.78594172 7:0.60593587 8:0.3866258 9:0.71424073 10:0.34332028 11:0.66950047 12:0.53025919 13:0.88886809 14:0.50860345 15:0.31505188 16:0.44513431 17:0.64787072 18:0.86534268 19:0.56060165 20:0.58407921 21:0.87168217 22:0.4715718 23:0.36113253 24:0.54716015 25:0.60666323 26:0.55401284 27:0.54896337 28:0.28580797 29:0.38952857 30:0.45607731 31:0.4859187 32:0.55685616 33:0.64626753 34:0.75895274 35:0.38049987 36:0.41289064 37:0.32907262 38:0.74761444 39:0.37965691 40:0.43750858 41:0.54313856 42:0.40481108 43:0.53456646 44:0.44457421 45:0.44052404 46:0.65390617 47:0.35989279 48:0.36932528 49:0.33299583 50:0.39482474 51:0.62493962 52:0.92325187 53:0.44824713 54:0.3821018 55:0.60102266 56:0.62301135 57:0.28333446 58:0.064460799 
-1.202910920247195 -0.1444172902117041 1:0.50881708 2:0.46978039 3:0.87870163 4:0.58003753 5:0.40317249 6:0.20803371 7:0.69131583 8:0.48698911 9:0.37985724 10:0.32487339 11:0.24472587 12:0.49820074 13:0.87135959 14:0.22843164 15:0.41427428 16:0.66630161 17:0.82264268 18:0.71154922 19:0.55034 20:0.55313408 21:0.51990569 22:0.32137701 23:0.30775437 24:0.80803525 25:0.60738796 26:0.59664285 27:0.44257894 28:0.42669842 29:0.50136542 30:0.38933709 31:0.58995181 32:0.36688384 33:0.53819853 34:0.82244223 35:0.15538089 36:0.5072251 37:0.51304561 38:0.6252383 39:0.40307024 40:0.63916451 41:0.79426849 42:0.54553407 43:0.40378761 44:0.19643225 45:0.69853413 46:0.48544028 47:0.33776233 48:0.55382496 49:0.54365277 50:0.42253131 51:0.52286041 52:0.82341868 53:0.467637 54:0.56077856 55:0.76948798 56:0.50846076 57:0.25579157 58:0.18697314 
-0.0252387180850426 -0 1:0.72069556 2:0.43828297 3:0.56935161 4:0.50448954 5:0.57417315 6:0.6413607 7:0.55171388 8:0.34415865 9:0.47352058 10:0.32865149 11:0.44816253 12:0.45847672 13:0.55548942 14:0.48227558 15:0.39994976 16:0.5365169 17:0.49549946 18:0.53571361 19:0.59892398 20:0.39551079 21:0.53099048 22:0.76656443 23:0.43956798 24:0.58175737 25:0.62997806 26:0.63873863 27:0.65038091 28:0.50066859 29:0.56096113 30:0.5301196 31:0.52344465 32:0.3778218 33:0.51773483 34:0.54637939 35:0.29935551 36:0.59742016 37:0.56754857 38:0.28938973 39:0.045688529 40:0.31320629 41:0.66634244 42:0.29582208 43:0.62874317 44:0.66505063 45:0.33282208 46:0.76222068 47:0.65798676 48:0.21581882 49:0.58856446 50:0.26935336 51:0.3034457 52:0.66017598 53:0.91880023 54:0.53960615 55:0.78079247 56:0.55622357 57:0.20404427 58:0.16813977 
-1.084504483104243 -0 1:0.48748276 2:0.79539353 3:0.64128351 4:0.61728621 5:0.47631904 6:0.49088868 7:0.74050206 8:0.11658703 9:0.70890009 10:0.45443645 11:0.28292471 12:0.85261381 13:0.68715405 14:0.65329343 15:0.077193402 16:0.70317173 17:0.60177296 18:0.48878288 19:0.52269804 20:0.44402674 21:0.72179842 22:0.71569526 23:0.21722423 24:0.8201893 25:0.66829884 26:0.52773947 27:0.51075375 28:0.45574698 29:0.65247077 30:0.48997355 31:0.43286198 32:0.87026238 33:0.58332497 34:0.44190356 35:0.30487397 36:0.54453647 37:0.55244541 38:0.33022541 39:0.38724178 40:0.61374068 41:0.51420707 42:0.64264339 43:0.41932279 44:0.34491402 45:0.47752699 46:0.37368783 47:0.47192004 48:0.28659862 49:0.73151916 50:0.42694589 51:0.41909504 52:0.28352839 53:0.19640094 54:0.63579494 55:0.7565788 56:0.4480505 57:0.21939085 58:0.16417035 
-1.358519598993856 -0.5867715808072234 1:0.91788059 2:0.38996452 3:0.64832157 4:0.1972699 5:0.46808636 6:0.16987863 7:0.93096805 8:0.5855335 9:0.42121205 10:0.54418814 11:0.53187531 12:0.66004419 13:0.2884886 14:0.76180595 15:0.52891779 16:0.33445993 17:0.52958041 18:0.55453116 19:0.59059477 20:0.79631454 21:0.61137664 22:0.44376439 23:0.79255736 24:0.63003749 25:0.30131942 26:0.79803103 27:0.50282782 28:0.4847607 29:0.75699854 30:0.17368613 31:0.16227552 32:0.77253383 33:0.94663143 34:0.22543283 35:0.36772245 36:0.46048209 37:0.48354948 38:0.52192259 39:0.85305804 40:0.3020792 41:0.36207667 42:0.26186755 43:0.83832806 44:0.1350282 45:0.7462517 46:0.81320131 47:0.40377721 48:0.19419977 49:0.22245212 50:0.71964812 51:0.49166757 52:0 53:0.13615707 54:0.46531242 55:0.73858231 56:0.56974858 57:0.27748296 58:0.18846811 
-0 -0.01828016288797809 1:0.59372228 2:0.72532135 3:0.68927878 4:0.66806811 5:0.4024834 6:0.51594198 7:0.70606935 8:0.34239462 9:0.28334448 10:0.58267969 11:0.57094926 12:0.5099349 13:0.55736339 14:0.47369736 15:0.41104779 16:0.63988715 17:0.69403034 18:0.53098392 19:0.57184404 20:0.6528073 21:0.48228854 22:0.36546645 23:0.54791427 24:0.48204634 25:0.62155652 26:1 27:0.40838149 28:0.61354619 29:0.51318884 30:0.32994846 31:0.42130804 32:0.26629364 33:0.6961925 34:0.90672368 35:0.44249883 36:0.51597291 37:0.34795639 38:0.14876632 39:0.51658463 40:0.66178286 41:0.5747478 42:0.14659016 43:0.57930148 44:0.64582878 45:0.45813629 46:0.85007107 47:0.51577902 48:0.57600874 49:0.49670082 50:0.15137805 51:0.63967371 52:0.44429138 53:0.35256219 54:0.57568681 55:0.71296072 56:0.58028018 57:0.24566376 58:0.13172001 
-0 -0.2184549016738737 1:0.75571901 2:0.50691307 3:0.65542257 4:0.51741481 5:0.56267637 6:0.52173215 7:0.53937227 8:0.50752306 9:0.4750661 10:0.79530323 11:0.58736926 12:0.55535984 13:0.50891608 14:0.51881427 15:0.40364099 16:0.6544832 17:0.63573343 18:0.75908583 19:0.62623316 20:0.51385361 21:0.58881575 22:0.39137629 23:0.46669862 24:0.48037204 25:0.35446319 26:0.92022276 27:0.52368796 28:0.47079763 29:0.68116754 30:0.44453987 31:0.33885133 32:0.39219657 33:0.33783105 34:0.62294394 35:0.50531363 36:0.41915044 37:0.41687927 38:0 39:0.68520886 40:1 41:0.75962228 42:0.45730126 43:0.66935366 44:0.61633521 45:0.27907866 46:0.57155824 47:0.62470543 48:0.6625765 49:0.66740489 50:0.43256485 51:0.30576518 52:0.44125411 53:0.44678518 54:0.66044408 55:0.9407981 56:0.46365178 57:0.26413533 58:0.15571284 
-0.2888224721494415 -0.1505626045804639 1:0.83186656 2:0.36220738 3:0.80583954 4:0.26614472 5:0.43822348 6:0.77704716 7:0.8275913 8:0.66888022 9:0.66260153 10:0.18792833 11:0.54617488 12:0.65100843 13:0.60110492 14:0.76432031 15:0.52248871 16:0.56859368 17:0.49939397 18:0.36859941 19:0.61020279 20:0.39454842 21:0.61858761 22:0.7140196 23:0.5980522 24:0.45867744 25:0.54987389 26:0.52070773 27:0.25136161 28:0.27747566 29:0.6822269 30:0.77734983 31:0.57473576 32:0.37624091 33:0.25757337 34:0.63525951 35:0.55280143 36:0.24615265 37:0.55990958 38:0.35721681 39:0.5590812 40:0.47918481 41:0.70650142 42:0.58388805 43:0.52984333 44:0.42242122 45:0.42199194 46:0.86575121 47:0.36354113 48:0.46122369 49:0.44151399 50:0.40278199 51:0.7792967 52:0.24641399 53:0.44658321 54:0.72541845 55:0.9005571 56:0.3583608 57:0.24413727 58:0.1993099 
