svm_type c_svc
kernel_type rbf
gamma 0.09
nr_class 2
total_sv 61
rho -0.164737
label 331 332
probA -4.58774
probB -0.0415452
nr_sv 32 29
SV
10 1:0.42168894 2:0.51722956 3:0.42362115 4:0.20716231 5:0.48437673 6:0.567505 7:0.59896994 8:0.53343004 9:0.43311724 10:0.57833165 11:0.46225408 12:0.34586573 13:0.75386178 14:0.45479491 15:0.6941458 16:0.47734419 17:0.54086167 18:0.6937868 19:0.60252738 20:0.57964128 21:0.2485556 22:0.69667304 23:0.34816977 24:0.46086824 25:0.49202934 26:0.28113762 27:0.47684059 28:0.69798112 29:0.52417022 30:0.48605129 31:0.16679472 
1.374154968215009 1:0.52083689 2:0.51415348 3:0.43554917 4:0.51518542 5:0.36052886 6:0.58921629 7:0.62966454 8:0.4685359 9:0.44581956 10:0.7816233 11:0.56257999 12:0.51694989 13:0.58798724 14:0.579831 15:0.71191674 16:0.47590309 17:0.80086118 18:0.50875312 19:0.4696922 20:0.47275144 21:0.50256443 22:0.66550094 23:0.51449436 24:0.57555163 25:0.72791457 26:0.46088991 27:0.61983824 28:0.51920819 29:0.38290602 30:0.3673141 31:0.086844876 
1.675426055819729 1:0.50789106 2:0.57552505 3:0.75470459 4:0.61155808 5:0.30299911 6:0.29049411 7:0.75407177 8:0.69488329 9:0.4909215 10:0.63328052 11:0.32455125 12:1 13:0.54460955 14:0.35346794 15:0.49872407 16:1 17:0.50113505 18:0 19:0.76997703 20:0.39588013 21:0.28730461 22:0.67984378 23:0.42801952 24:0.54364431 25:0.59891027 26:0.45987099 27:0.70539451 28:0.67095685 29:0.33096525 30:0.28374559 31:0.2571806 
1.40603509982896 1:0.58999747 2:0.33556965 3:0.64352977 4:0.62812221 5:0.012326559 6:0.57642156 7:0.5076139 8:0.68718779 9:0.52531427 10:0.64034915 11:0.61030328 12:0.6017319 13:0.50510359 14:0.48201606 15:0.34078696 16:0.64677846 17:0.57545102 18:0.384841 19:0.65536308 20:0.69521308 21:0.39897656 22:0.83618695 23:0.28721145 24:0.80920762 25:0.43574971 26:0.23205222 27:0.36253843 28:0.34202093 29:0.46424893 30:0.3046014 31:0.23466343 
7.753147196144749 1:0.45615342 2:0.6105445 3:0.51991451 4:0.4614026 5:0.4932059 6:0.62411475 7:0.53452563 8:0.32199726 9:0.47670183 10:0.69125658 11:0.19799407 12:0.34025609 13:0.54047507 14:0.59621114 15:0.46451727 16:0.52738863 17:0.60129684 18:0.35966453 19:0.32048726 20:0.65502894 21:0.48695964 22:0.70366549 23:0.41377327 24:0.62252706 25:0.70141876 26:0.4342719 27:0.56855506 28:0.54836196 29:0.43056226 30:0.39438835 31:0.083458006 
9.605897436102433 1:0.62457412 2:0.59870327 3:0.51076502 4:0.62664169 5:0.62020153 6:0.64590126 7:0.28920183 8:0.35255647 9:0.66178161 10:0.7215308 11:0.65184635 12:0.39449364 13:0.55341351 14:0.47302705 15:0.47897959 16:0.35734043 17:0.82859129 18:0.3399789 19:0.29514512 20:0.53393078 21:0.44272539 22:0.72440094 23:0.59135216 24:0.58076084 25:0.78961611 26:0.34513786 27:0.53607577 28:0.49387905 29:0.44645739 30:0.43202302 31:0.017633341 
3.925842791281209 1:0.21093194 2:0.3097136 3:0.5502938 4:0.70798969 5:0.46609968 6:0.61970806 7:0.56036401 8:0.55385107 9:0.51197803 10:0.39853778 11:0.40061849 12:0.226991 13:0.50646603 14:0.29235682 15:0.49043348 16:0.48535559 17:0.51396346 18:0.13787006 19:0.71649003 20:0.57882583 21:0.24113557 22:0.59978348 23:0.30873197 24:0.51655525 25:0.71084321 26:0.14718801 27:0.15430175 28:0.56537914 29:0.51680344 30:0.46208802 31:0.12363838 
1.171654598229052 1:0.26546142 2:0.68212563 3:0.8255803 4:0.34561732 5:2.0929792e-16 6:0.71040869 7:0.60397512 8:0.51477414 9:0.27453429 10:0.64329493 11:0.47601166 12:0.50497067 13:0.2155623 14:0.26566449 15:0.54815423 16:0.59573424 17:0.46048233 18:0.38048521 19:0.53545678 20:0.36964795 21:0.66710752 22:0.54267085 23:0.43114251 24:0.63980877 25:0.8840825 26:0.53781956 27:0.4025676 28:0.46149105 29:0.44614843 30:0.21352039 31:0.088655151 
10 1:0.25648877 2:0.6968357 3:0.55570543 4:0.40788862 5:0.21043582 6:0.4619512 7:0.6249035 8:0.45804146 9:0.39763263 10:0.43651462 11:0.33607301 12:0.36250049 13:0.23081979 14:0.36334968 15:0.6515063 16:0.5605725 17:0.3459377 18:0.47484177 19:0.61876523 20:0.41546062 21:0.81150651 22:0.44699353 23:0.4384034 24:0.70918083 25:0.96175408 26:0.57619041 27:0.40998358 28:0.3538506 29:0.55031097 30:0.25489891 31:0.11683505 
1.124168089100824 1:0.5512839 2:0.4825747 3:0.73260862 4:0.43444017 5:0.071047589 6:0.33932859 7:0.56962347 8:0.48750952 9:0.52672023 10:0.23237097 11:0.21804702 12:0.25122726 13:0.44796693 14:0.47226366 15:0.62469041 16:0.4383789 17:0.30840194 18:0.55300176 19:0.70960474 20:0.44199347 21:0.88375103 22:0.3954376 23:0.38896114 24:0.68123871 25:0.92815185 26:0.5736661 27:0.29391798 28:0.19825248 29:0.52868903 30:0.27195719 31:0.078992195 
10 1:0.64104295 2:0.47128332 3:0.48977116 4:0.79277688 5:0.56956047 6:0.52009106 7:0.56105119 8:0.65824407 9:0.69423664 10:0.63843668 11:0.52103323 12:0.44130498 13:0.30174333 14:0.39654216 15:0.57888436 16:0.47047317 17:0.63209009 18:0.50582111 19:0.53336084 20:0.47982556 21:0.3219308 22:0.70104378 23:0.30742663 24:0.72955966 25:0.46887076 26:0.13919382 27:0.54102558 28:0.67111582 29:0.66346526 30:0.51628828 31:0.20922694 
10 1:0.61645192 2:0.49318996 3:0.7823208 4:0.27987707 5:0.68934095 6:0.48927459 7:0.5960598 8:0.70439225 9:0.54036701 10:0.82340407 11:0.47791412 12:0.66640133 13:0.57604849 14:0.41045192 15:0.56311578 16:0.57446986 17:0.32442048 18:0.40275633 19:0.68755919 20:0.58447981 21:0.27017048 22:0.73605585 23:0.44122031 24:0.55011529 25:0.50698137 26:0.20308311 27:0.2601853 28:0.71097523 29:0.47272906 30:0.47532967 31:0.14913103 
10 1:0.70311379 2:0.59582484 3:0.70686024 4:0.22479421 5:0.6188975 6:0.72728145 7:0.43053725 8:0.5348801 9:0.61687058 10:0.70905709 11:0.66661555 12:0.48499238 13:0.56017363 14:0.2452378 15:0.53310573 16:0.44243288 17:0.71387255 18:0.47963861 19:0.64987969 20:0.49663195 21:0.31208271 22:0.87278944 23:0.48892719 24:0.46009427 25:0.41014272 26:0.32077423 27:0.35508972 28:0.7284863 29:0.42415467 30:0.52422744 31:0.11529695 
8.13209714047216 1:0.69531512 2:0.72316927 3:0.6076892 4:0.70068491 5:0.3774575 6:0.14235882 7:0.8538627 8:1 9:0.43881094 10:0.45013976 11:0.41984957 12:0.60846871 13:0.68107545 14:0.68333435 15:0.69160551 16:0.23884979 17:0.50760049 18:0.82397389 19:0.43323132 20:0.32785082 21:0.5131067 22:0.26811951 23:0.47548714 24:0.44609949 25:0.7638123 26:0.68522614 27:0.62871289 28:0.50400943 29:0.36296949 30:0.36754417 31:0.14475012 
1.62320407524297 1:0.84886909 2:0.5537129 3:0.62596643 4:0.26953173 5:0.59233636 6:0.70235401 7:0.55778754 8:0.32892618 9:0.60186172 10:0.68543357 11:0.45724434 12:0.8051126 13:0.64529747 14:0.076553993 15:0.55790067 16:0.36007595 17:0.57501358 18:0.34014982 19:0.56072235 20:0.31533411 21:0.21498333 22:0.98580068 23:0.46639115 24:0.358841 25:0.24154818 26:0.38753617 27:0.44380638 28:0.6414873 29:0.39838278 30:0.56289363 31:0.14752662 
1.923248386286083 1:0.6821025 2:0.52967381 3:0.70933223 4:0.47710598 5:0.54658508 6:0.34632325 7:0.6346823 8:0.71306688 9:0.54188728 10:0.61688679 11:0.23781171 12:0.505265 13:0.82841527 14:0.38461873 15:0.23713529 16:0.53932881 17:0.37931392 18:0.072180688 19:0.27571988 20:0.29013622 21:0.059070185 22:0.39048102 23:0.34236273 24:0.37573108 25:0.52342629 26:0.35372612 27:0.91251624 28:0.86473083 29:0.55296189 30:0.57828903 31:0.24648175 
10 1:0.40997991 2:0.65734351 3:0.33920309 4:0.91321397 5:0.3201752 6:0.28929129 7:0.61666977 8:0.61160368 9:0.33800507 10:0.57869118 11:0.19166772 12:0.50750899 13:0.84651917 14:0.95590132 15:0.34716681 16:0.11516197 17:0.46520796 18:0.45960054 19:0.79599679 20:0.47618079 21:0.60455668 22:0.54157305 23:0.53366578 24:0.57944047 25:0.89500451 26:0.66903472 27:0.42770195 28:0.43391362 29:0.27720818 30:0.36446297 31:0.12287481 
0.004947596417792379 1:0.9049837 2:0.33334813 3:0.51901793 4:0.5783242 5:0.074040443 6:0.37980607 7:0.4636679 8:0.57460749 9:0.4439171 10:0.77884984 11:0.60026038 12:0.035584323 13:0.31851777 14:0.56099963 15:0.28564209 16:0.3308776 17:0.68048626 18:0.4262436 19:0.43799365 20:0.52334321 21:0.21088749 22:0.6925779 23:0.37214741 24:0.39688289 25:0.78871101 26:0.8145014 27:0.45574671 28:0.39550424 29:0.95808244 30:0.90315235 31:0.28188756 
0.01022198883893218 1:0.52913749 2:0.67797184 3:0.28373116 4:0.35409224 5:0.56627452 6:0.97246748 7:0.36986479 8:0.67614055 9:0.4728463 10:0.85924679 11:0.10250024 12:0.58226234 13:0.82761252 14:0.12448832 15:0.46115798 16:0.099647664 17:0.49200937 18:0.14996552 19:0.66718888 20:0.17130904 21:0.43270776 22:0.25444373 23:0.14717861 24:0.9705478 25:0.043079253 26:0.49511075 27:0.48172647 28:0.37442222 29:0.35156992 30:0.92877346 31:0.38852388 
0.00343193078360602 1:0.66916835 2:0.64410108 3:1 4:0.26043028 5:0.9093383 6:0.32002705 7:0.63963437 8:0.89273965 9:0.25237009 10:0.86880708 11:0.52211899 12:0.039184868 13:0.83367473 14:0.46317452 15:0.63025951 16:0.19920236 17:0.42927477 18:0.53212667 19:1 20:0.13000108 21:1 22:0.28433838 23:0.71747798 24:0.46480706 25:0.19948821 26:0.71865445 27:0.54301399 28:0.23378971 29:0.3077133 30:0.89025259 31:0.31374043 
0.02558585679684853 1:0.59785575 2:0.51696187 3:0.5191229 4:0.77089959 5:0.50923985 6:0.86750829 7:0.66194546 8:0.60566497 9:0.55084294 10:0.49803635 11:0.26245987 12:0.36140031 13:0.57543904 14:0.55420351 15:0.49977019 16:0.46127117 17:0.71004373 18:0.38432741 19:0.64450437 20:0.54003251 21:0.30644318 22:0.63495332 23:0.53104812 24:0.34406069 25:0.77060771 26:0.91753006 27:0.44336629 28:0.37273648 29:0.86571962 30:0.98166043 31:0.18621883 
0.5757016854796571 1:0.64816254 2:0.69855022 3:0.4154022 4:0.13568735 5:0.16242781 6:0.6822896 7:0.768466 8:0.80830717 9:0.61333358 10:0 11:0.50923181 12:0.86705518 13:0.35256431 14:0.45469883 15:0.34389719 16:0.11177805 17:0.62662625 18:0.42660031 19:0.48116851 20:0.56118858 21:0.16010857 22:0.63198984 23:0.75860113 24:0.369618 25:0.73090494 26:0.86086154 27:0.11970145 28:0.75261563 29:0.10261433 30:0.76268125 31:0.20855258 
6.690579704935498 1:0.66016442 2:0.52330679 3:0.36298975 4:0.53725511 5:0.31418684 6:0.49260634 7:0.6133759 8:0.68134314 9:0.4487915 10:0.47616515 11:0.59917694 12:0.53596848 13:0.46041915 14:0.1377458 15:0.37277713 16:0.43909207 17:0.76410216 18:0.51218635 19:0.25549713 20:0.48674989 21:0.27309936 22:0.61273205 23:0.64685154 24:0.4141441 25:0.643794 26:0.74487531 27:0.070089363 28:0.79313725 29:0.14355953 30:0.79043287 31:0.24639831 
2.018239762934035 1:0.60989612 2:0 3:0.40526891 4:0.64537418 5:0.67478925 6:0.63382167 7:0.52448434 8:0.42803928 9:0.35987508 10:0.68887842 11:0.285954 12:0.59274936 13:0.61887926 14:0.49827322 15:0.54905421 16:0.09638194 17:0.47499204 18:0.3551102 19:0.30761546 20:0.54592305 21:0.30581713 22:0.52612638 23:0.04194919 24:0.83960348 25:0.64605945 26:0.52732003 27:0.15996227 28:0.62777704 29:0.40406302 30:0.9510687 31:0.32021239 
5.889414743154276 1:0.9049837 2:0.33334813 3:0.51901793 4:0.5783242 5:0.074040443 6:0.37980607 7:0.4636679 8:0.57460749 9:0.4439171 10:0.77884984 11:0.60026038 12:0.035584323 13:0.31851777 14:0.56099963 15:0.28564209 16:0.3308776 17:0.68048626 18:0.4262436 19:0.43799365 20:0.52334321 21:0.21088749 22:0.6925779 23:0.37214741 24:0.39688289 25:0.78871101 26:0.8145014 27:0.45574671 28:0.39550424 29:0.95808244 30:0.90315235 31:0.28188756 
2.690720675941618 1:0.68549901 2:0.43499374 3:0.41905421 4:0.38371447 5:0.40208548 6:0.67541939 7:0.58925486 8:0.59378976 9:0.32140556 10:0.67550451 11:0.32418716 12:0.57805413 13:0.47222885 14:0.42008129 15:0.55606413 16:0.59384841 17:0.39087433 18:0.27829248 19:0.52375871 20:0.49211052 21:0.34211761 22:0.73387378 23:0.40002242 24:0.43145153 25:0.76484889 26:0.89890009 27:0.39760965 28:0.3527585 29:0.95122612 30:0.94258851 31:0.25199568 
5.553450556674981 1:0.54298455 2:0.56745809 3:0.66922897 4:0.57109004 5:0.73660582 6:0.33354518 7:0.54904759 8:0.42135859 9:0.42452615 10:0.62521583 11:0.7017284 12:0.33467397 13:0.71237051 14:0.41556379 15:0.49913037 16:0.42491522 17:0.86480659 18:0.55387586 19:0.44988212 20:0.64610171 21:0.21997374 22:0.61138207 23:0.49295583 24:0.51080686 25:0.71120447 26:0.75211 27:0.40452737 28:0.41375598 29:0.88767266 30:0.90900606 31:0.22817257 
0.03952226248726584 1:0.52913749 2:0.67797184 3:0.28373116 4:0.35409224 5:0.56627452 6:0.97246748 7:0.36986479 8:0.67614055 9:0.4728463 10:0.85924679 11:0.10250024 12:0.58226234 13:0.82761252 14:0.12448832 15:0.46115798 16:0.099647664 17:0.49200937 18:0.14996552 19:0.66718888 20:0.17130904 21:0.43270776 22:0.25444373 23:0.14717861 24:0.9705478 25:0.043079253 26:0.49511075 27:0.48172647 28:0.37442222 29:0.35156992 30:0.92877346 31:0.38852388 
1.074341128263975 1:0.66916835 2:0.64410108 3:1 4:0.26043028 5:0.9093383 6:0.32002705 7:0.63963437 8:0.89273965 9:0.25237009 10:0.86880708 11:0.52211899 12:0.039184868 13:0.83367473 14:0.46317452 15:0.63025951 16:0.19920236 17:0.42927477 18:0.53212667 19:1 20:0.13000108 21:1 22:0.28433838 23:0.71747798 24:0.46480706 25:0.19948821 26:0.71865445 27:0.54301399 28:0.23378971 29:0.3077133 30:0.89025259 31:0.31374043 
0.9059991226953494 1:0.59785575 2:0.51696187 3:0.5191229 4:0.77089959 5:0.50923985 6:0.86750829 7:0.66194546 8:0.60566497 9:0.55084294 10:0.49803635 11:0.26245987 12:0.36140031 13:0.57543904 14:0.55420351 15:0.49977019 16:0.46127117 17:0.71004373 18:0.38432741 19:0.64450437 20:0.54003251 21:0.30644318 22:0.63495332 23:0.53104812 24:0.34406069 25:0.77060771 26:0.91753006 27:0.44336629 28:0.37273648 29:0.86571962 30:0.98166043 31:0.18621883 
5.797158834575574 1:0.99966258 2:0.38777757 3:0.61369187 4:0.49479029 5:0.62314761 6:0.88907301 7:0.58816642 8:0.44079077 9:0.57274795 10:0.33601266 11:0.42137668 12:0.26218435 13:0.74022979 14:0.34373748 15:0.33754507 16:0.32676837 17:6.2928169e-16 18:0.52041644 19:0.26690498 20:1 21:0.41266838 22:0.26323709 23:0.81615251 24:0.20062913 25:0.27834672 26:0.36779937 27:0.47690439 28:0.071505703 29:0.28274742 30:0.67172343 31:0.58966088 
0.4273329258553826 1:0.35031667 2:0.32444239 3:0.90421283 4:0.6556434 5:0.39807689 6:0.74557942 7:0.55115491 8:0.54051179 9:0.49424478 10:0.78417712 11:0.54880989 12:0.095798135 13:0.74303877 14:0.61222321 15:0.48831603 16:0.49834949 17:0.40562642 18:0.30385679 19:0.58116341 20:0.47220829 21:0.59898341 22:0.60085803 23:0.7527768 24:0.51069349 25:0.6528759 26:0.81337464 27:0.09897311 28:0.80102724 29:0.12079889 30:0.89378226 31:0.16237018 
-0.09844254389150435 1:0.35924545 2:0.59264946 3:0.56411213 4:0.56175494 5:0.14608762 6:0.53864211 7:0.4803586 8:0.63480318 9:0.39077011 10:0.70231545 11:0.4491981 12:0.35966769 13:0.70872062 14:0.32435465 15:0.17609407 16:0.36972699 17:0.50861633 18:0.30863008 19:0.6837225 20:0.71369803 21:0.49389771 22:0.72100013 23:0.46075574 24:0.50719237 25:0.82805085 26:0.78336555 27:0.71190256 28:0.70929426 29:0.27805534 30:0.41980317 31:0.71862185 
-3.247682145563399 1:0.90388817 2:0.52553165 3:0.52828032 4:0.54008132 5:0.34195212 6:0.45384029 7:0.42727366 8:0.54733384 9:0.33344206 10:0.40017283 11:0.51093483 12:0.25722158 13:0.58903521 14:0.26934573 15:0.8032136 16:0.43059599 17:0.65179831 18:0.35687616 19:0.72326374 20:0.67649513 21:0.29379371 22:0.69229847 23:0.32889107 24:0.56222159 25:0.83517605 26:0.66736126 27:0.6886524 28:0.86699295 29:0.37643862 30:0.58711135 31:0.81131381 
-0.0108276911191118 1:0.35089117 2:0.51487207 3:0.69085193 4:0.56910068 5:0.47191221 6:0.73129863 7:0.42104304 8:0.57786721 9:0.37915277 10:0.65282375 11:0.48075792 12:0.42422456 13:0.40050519 14:0.37001899 15:0.53236246 16:0.42398807 17:0.56544864 18:0.4256393 19:0.45808533 20:0.48434138 21:0.15985613 22:0.56452292 23:0.9605847 24:0.91552693 25:0.58051288 26:0.07377553 27:0.30241534 28:0.62654555 29:0.89170527 30:0.35957617 31:0.49428979 
-3.705670935340395 1:0.70560932 2:0.41838676 3:0.45099074 4:0.53382123 5:0.45194361 6:0.54642016 7:0.6232456 8:0.74518681 9:0.6448828 10:0.65549546 11:0.53906214 12:0.19651459 13:0.36603454 14:0.61355776 15:0.53888857 16:0.33128566 17:0.73906803 18:0.1919407 19:0.53876275 20:0.31124002 21:0.48288244 22:0.61501741 23:0.55426377 24:0.34876502 25:0.49273205 26:0.43398836 27:0.43815434 28:0.75388342 29:0.74654824 30:0.41963294 31:0.13394478 
-2.308644777388569 1:0.78695166 2:0.41456446 3:0.60180426 4:0.55494446 5:0.85814536 6:0.70344526 7:0.64491737 8:0.84325129 9:0.73921257 10:0.56100386 11:0.65993619 12:0.39894375 13:0.74593246 14:0.77854234 15:0.29307327 16:0.20915981 17:0.81035084 18:0.51365846 19:0.73953623 20:0.55830312 21:0.35573325 22:0.65226024 23:0.48267281 24:0.42703369 25:0.74435782 26:0.57666242 27:0.20676452 28:0.78475112 29:0.43420771 30:0.47514436 31:0.18540967 
-10 1:0.62832665 2:0.4402138 3:0.55108434 4:0.43608567 5:0.80865556 6:0.81098527 7:0.67073727 8:0.77156436 9:0.78322697 10:0.6348145 11:0.60901433 12:0.56938767 13:0.56770974 14:0.41778615 15:0.82996917 16:0.26536798 17:0.55152988 18:0.34531224 19:0.54820591 20:0.52905023 21:0.49667889 22:0.83593214 23:0.61454457 24:0.49779347 25:0.47317666 26:0.53549218 27:0.37427452 28:0.76827341 29:0.49978632 30:0.50333339 31:0.17536014 
-4.509884828740575 1:0.57644749 2:0.76525152 3:0.60050821 4:0.62320954 5:0.29896349 6:0.58232051 7:0.51668376 8:0.53675944 9:0.24202494 10:0.77601415 11:0.32747185 12:0.20105372 13:0.5864827 14:0.80858481 15:0.68601531 16:0.523417 17:0.098713666 18:0.29731065 19:0.15288378 20:0.86200726 21:0.41298395 22:0.68871897 23:0.23233688 24:0.51526231 25:0.41135564 26:0.46310839 27:0.34253627 28:0.83149511 29:0.67435193 30:0.39320385 31:0.3792063 
-10 1:0.51224351 2:0.49399084 3:0.31858605 4:0.52226317 5:0.64234471 6:0.35409531 7:0.62205046 8:0.69411057 9:0.39936984 10:0.48585504 11:0.40774032 12:0.32045597 13:0.79121995 14:0.33104837 15:0.6910252 16:0.30581114 17:0.69009107 18:0.44748825 19:0.50169319 20:0.34431773 21:0.56521451 22:0.87689298 23:0.67110431 24:0.40385821 25:0.40788451 26:0.83061296 27:0.5385291 28:0.42433891 29:0.38374016 30:0.27176854 31:0.11238407 
-3.897570895429968 1:0.28564316 2:0.43892345 3:0.21599101 4:0.44230449 5:0.40354285 6:0.37292126 7:0.39524001 8:0.68059099 9:0.4730764 10:0.71640623 11:0.55287725 12:0.42397609 13:0.52875841 14:0.25781077 15:0.9104014 16:0.34656498 17:0.85497636 18:0.36637279 19:0.55661929 20:0.25106084 21:0.33215392 22:1 23:0.88530213 24:0.38553178 25:0.4363037 26:0.87880445 27:0.42002144 28:0.38914761 29:0.25423485 30:0.27363247 31:0.16740817 
-10 1:0.73927611 2:0.54271567 3:0.58886147 4:0.48681542 5:0.16931944 6:0.66689062 7:0.40601128 8:0.59606403 9:0.72129953 10:0.30309299 11:0.54212928 12:0.3124364 13:0.32673049 14:0.26056239 15:0.51861322 16:0.44191998 17:0.50618762 18:0.67699295 19:0.79571289 20:0.36389583 21:0.42954317 22:0.26571244 23:0.42004764 24:0.68080223 25:0.90686834 26:0.79311514 27:0.2090584 28:0.43019363 29:0.54283637 30:0.16319418 31:0.20468119 
-7.288974311619717 1:0.50379419 2:0.53950393 3:0.65017313 4:0.32420146 5:0.55383134 6:0.42913431 7:0.5531975 8:0.69139504 9:0.56990927 10:0.59658998 11:0.30274853 12:0.26780415 13:0.48987916 14:0.54576075 15:0.52180105 16:0.24655165 17:0.61757845 18:0.33296722 19:0.37913755 20:0.73288459 21:0.45683837 22:0.75354117 23:0.34809271 24:0.33956066 25:0.44896626 26:0.57726604 27:0.37967855 28:0.77038872 29:0.67256862 30:0.46638876 31:0.19178176 
-1.378274749436958 1:0.74801636 2:0.54293174 3:0.58972251 4:0.21625271 5:0.73807967 6:0.62416714 7:0.49946216 8:0.15060127 9:0.61407435 10:0.4526861 11:0.68144619 12:0.77510887 13:0.2986362 14:0.64463449 15:0.42075714 16:0.45607197 17:0.34270248 18:0.48490208 19:0.60392308 20:0.38717771 21:0.69751519 22:0.32326612 23:0.42277634 24:0.44491711 25:0.76820654 26:0.63508034 27:0.49807426 28:0.80772436 29:0.74551684 30:0.36007017 31:0.14257187 
-5.454012356891757 1:0.79263103 2:0.64066112 3:0.48067608 4:0.46975565 5:0.38438332 6:0.56258941 7:0.43892786 8:0.43192053 9:0.29504356 10:0.68852592 11:0.41883263 12:0.55397618 13:0.57611084 14:0.31172433 15:0.43269929 16:0.48398194 17:0.769247 18:0.63454449 19:0.53869802 20:0.5395087 21:0.61133093 22:0.45149106 23:0.47115353 24:0.426431 25:0.57057172 26:0.41641808 27:0.1990342 28:0.69970399 29:0.74104005 30:0.32699436 31:0.23498531 
-2.879034101464478 1:0.63962835 2:0.53407329 3:0.16997464 4:0.75844693 5:0.98309964 6:0.4664408 7:0.59372067 8:0.66530293 9:1 10:0.51803637 11:0.59647244 12:0.5148043 13:0.67346233 14:0.67165571 15:0.071965069 16:0.14032927 17:0.80813944 18:0.46951571 19:0.68323588 20:0.63177013 21:0.46426263 22:0.83986312 23:0.19480862 24:0.78493023 25:0.80925584 26:0.35319883 27:0.1706641 28:0.74755585 29:0.47249734 30:0.47335202 31:0.32880709 
-7.233433407356904 1:0.67575145 2:0.46562192 3:0.59534734 4:0.50252193 5:0.44220099 6:0.47885436 7:0.47012761 8:0.24599919 9:0.59094077 10:0.73304373 11:0.24610798 12:0.73195809 13:0.62342626 14:0.42643917 15:0.57777154 16:0.53796571 17:0.57170868 18:0.43934867 19:0.54426575 20:0.74552268 21:0.51772952 22:0.52311021 23:0.45603189 24:0.51823908 25:0.52555525 26:0.50480074 27:0.42997646 28:0.78606313 29:0.7142458 30:0.30833125 31:0.19540676 
-6.685251335748526 1:0.64478916 2:0.60169029 3:0.68463248 4:0.62216258 5:0.6325267 6:0.40272802 7:0.73387027 8:0.53169066 9:0.47351301 10:0.62143528 11:0.55681992 12:0.56493032 13:0.49224433 14:0.46790358 15:0.42151922 16:0.48526424 17:0.50700289 18:0.45504931 19:0 20:0.43276465 21:0.35173655 22:0.2905288 23:0.35924906 24:0.62941366 25:0.65671241 26:0.50538051 27:0.75463885 28:1 29:0.86706322 30:0.38281348 31:0.28589293 
-7.428008650868509 1:0.51962483 2:0.44744444 3:0.50901413 4:0.42482936 5:0.51417089 6:0.67277426 7:0.34598312 8:0.70396775 9:0.7469275 10:0.72881651 11:0.47005922 12:0.32518294 13:0.64835829 14:0.72112727 15:0.56728655 16:0.19432186 17:0.56281525 18:0.34192231 19:0.63068175 20:0.45057723 21:0.53949487 22:0.6140691 23:0.48653373 24:0.43755621 25:0.72959304 26:0.58272535 27:0.29070517 28:0.83513439 29:0.57892334 30:0.4806982 31:0.10043313 
-3.185063133359804 1:0.54438037 2:0.40001798 3:0.45483628 4:0.80034995 5:0.65946001 6:0.48714674 7:0.63449925 8:0.58424169 9:0.39672163 10:0.55313474 11:0.80184758 12:0.5863502 13:0.52665257 14:0.50233525 15:0.53100413 16:0.40026563 17:0.47401237 18:0.56320971 19:0.27250984 20:0.68179971 21:0.50177455 22:0.50965351 23:0.33030307 24:0.70754683 25:0.59404582 26:0.28799808 27:0.29609916 28:0.74881977 29:0.80555296 30:0.36075976 31:0.27556011 
-3.326627178772475 1:0.35333952 2:0.38305554 3:0.44830444 4:0.61440891 5:0.92415696 6:0.3182964 7:1 8:0.76974899 9:0.52027059 10:0.46233338 11:0.22704208 12:0.72065693 13:0.95784396 14:0.49325946 15:0.539832 16:0.80522662 17:0.52868193 18:0.24680863 19:0.42713049 20:0.58331168 21:0.14136174 22:0.46321875 23:0.25009593 24:0.6271112 25:0.28098273 26:0.60433692 27:0.68267405 28:0.51576722 29:0.44653976 30:0.18962012 31:0.3833968 
-4.724752095279662 1:0.28694749 2:0.50765097 3:0.59496462 4:0.4064219 5:0.57357985 6:0.65421492 7:0.43035364 8:0.37701967 9:0.19250239 10:0.29536378 11:0.70693153 12:0.49051994 13:0.75090933 14:0.37691137 15:0.39955983 16:0.44017509 17:0.41587394 18:0.92289096 19:0.41606703 20:0.43390796 21:0.65745217 22:0.63658506 23:0.39986423 24:0.50729144 25:0.58398616 26:0.94215405 27:0.45230499 28:0.46119657 29:0.4285244 30:0.18487339 31:0.17110112 
-4.123629263964692 1:0.41312245 2:0.79291952 3:0.57758671 4:0.64296472 5:0.31080034 6:0.40886781 7:0.39444175 8:0.44264334 9:0.64897668 10:0.61497355 11:0.37455299 12:0.38425779 13:0.46751943 14:0.86126912 15:0.17639457 16:0.34668177 17:0.46102035 18:0.27350181 19:0.58768553 20:0.54972464 21:0.49897498 22:0.84191906 23:0.19286443 24:0.35904515 25:0.37079114 26:0.53960806 27:0.32668453 28:0.66667318 29:0.59088856 30:0.38590616 31:0.36144689 
-4.675064194970569 1:0.74806118 2:0.33511886 3:0.53457654 4:0.77581388 5:0.56542289 6:0.38891619 7:0.31807801 8:0.51535463 9:0.47973588 10:0.62129635 11:0.45114842 12:0.34689614 13:0.69501269 14:0.4517729 15:0.66182142 16:0.39858967 17:0.36023614 18:0.25154257 19:0.56981128 20:0.60025698 21:0.2054818 22:0.61734378 23:0.38630193 24:0.60324401 25:0.69275457 26:0.5960238 27:0.15847638 28:0.35141158 29:0.54626721 30:0.18547076 31:0.19783327 
-2.835601622636045 1:0.4994545 2:0.55428481 3:0.67641318 4:0.43036628 5:0.5220238 6:0.41936412 7:0.44284481 8:0.16866398 9:0.44698063 10:0.55988002 11:0.58841312 12:0.67043418 13:0.6883207 14:0.54311568 15:0.61877114 16:0.61614025 17:0.51144701 18:0.36637551 19:0.72504103 20:0.64315981 21:0.031276338 22:0.48552796 23:0.36040935 24:0.57787752 25:0.58348835 26:0.75597632 27:0.25701648 28:0.29137307 29:0.4752332 30:0.061391708 31:0.27463454 
-5.114885817892142 1:0.35089117 2:0.51487207 3:0.69085193 4:0.56910068 5:0.47191221 6:0.73129863 7:0.42104304 8:0.57786721 9:0.37915277 10:0.65282375 11:0.48075792 12:0.42422456 13:0.40050519 14:0.37001899 15:0.53236246 16:0.42398807 17:0.56544864 18:0.4256393 19:0.45808533 20:0.48434138 21:0.15985613 22:0.56452292 23:0.9605847 24:0.91552693 25:0.58051288 26:0.07377553 27:0.30241534 28:0.62654555 29:0.89170527 30:0.35957617 31:0.49428979 
-5.271911611583692 1:0.8352285 2:0.45462844 3:0.60126835 4:0.38301128 5:0.35928521 6:0.49377409 7:0.5293439 8:0.34034714 9:0.35481575 10:0.57132429 11:0.22155453 12:0.24330708 13:0.58424222 14:0.58274597 15:0.063944973 16:0.38981196 17:0.77121741 18:0.46535441 19:0.64830458 20:0.4364545 21:0.20141238 22:0.68579453 23:0.85201097 24:0.75977683 25:0.67500341 26:0.20067988 27:0.35033557 28:0.62487108 29:0.80002296 30:0.35145408 31:0.53295964 
-0.2570708350010053 1:0.65082842 2:0.69878435 3:0.69554418 4:0.3499921 5:0.45347351 6:0.48787585 7:0.7197051 8:0.58803201 9:0.37847823 10:0.83748472 11:0.34475315 12:0.2717827 13:0.44708061 14:0.33119735 15:0.72834253 16:0.47597054 17:0.76030385 18:0.50660676 19:0.59424734 20:0.63462931 21:0.40128058 22:0.46732858 23:0.34053412 24:0.4568994 25:0.79462254 26:0.27546453 27:0.27144772 28:0.42079344 29:0.4408488 30:0.45230931 31:0.98528725 
-8.159888491509841 1:0.30007067 2:0.52381426 3:0.499477 4:0.58364415 5:0.27998686 6:0.59241706 7:0.74681705 8:0.72781199 9:0.34581316 10:1 11:0.37858632 12:0.44856212 13:0.42874637 14:0.32723719 15:0.16476107 16:0.41280198 17:0.45318073 18:0.46691525 19:0.56023622 20:0.58312881 21:0.50968599 22:0.57092673 23:0.42103928 24:0.41867644 25:0.83822221 26:0.49428794 27:0.33748022 28:0.23803072 29:0.35015729 30:0.35205093 31:0.90880793 
-2.345509567532106 1:0.68889922 2:0.73380703 3:0.61300087 4:0.53515655 5:0.53154904 6:0.45351109 7:0.74181378 8:0.61070639 9:0.3838374 10:0.84179837 11:0.31739444 12:0.2813139 13:0.4336465 14:0.36211225 15:0.73012382 16:0.43108624 17:0.79380375 18:0.54920429 19:0.54527092 20:0.67901736 21:0.43299428 22:0.49011123 23:0.28551716 24:0.43403819 25:0.80684102 26:0.31229523 27:0.27720687 28:0.41104281 29:0.42296076 30:0.48721138 31:0.98459923 
-1.275808069195548 1:0.68643492 2:0.50385147 3:0.60901505 4:0.51387155 5:0.49080399 6:0.65962183 7:0.65827012 8:0.55089605 9:0.31575575 10:0.70897567 11:0.49778402 12:0.48501801 13:0.38499576 14:0.328172 15:0.63619024 16:0.46221277 17:0.65875787 18:0.51803821 19:0.57975972 20:0.63736016 21:0.40446681 22:0.51774818 23:0.30246824 24:0.41738397 25:0.80667639 26:0.34071881 27:0.2941356 28:0.38124102 29:0.41138825 30:0.46476138 31:0.96150964 
