svm_type c_svc
kernel_type rbf
gamma 0.09
nr_class 3
total_sv 578
rho 1.368 1.08306 -0.317913
label 61 62 63
probA -5.68197 -5.82034 -4.56096
probB 0.01358 -0.221414 -0.362098
nr_sv 38 207 333
SV
0.9533317421073378 1.640462976505223 1:0.27445963 2:0.33550292 3:0.39937192 4:0.65838897 5:0.53739071 6:0.54951245 7:0.33602527 8:0.43506664 9:0.43810278 10:0.55492574 11:0.26142082 12:0.39106014 13:0.35468918 14:0.41359514 15:0.38494465 16:0.48496121 17:0.52007705 18:0.51223606 19:0.54586804 20:0.64104354 21:0.60806274 22:0.55638266 23:0.59410834 24:0.48179412 25:0.62242794 26:0.43534514 27:0.53438151 28:0.44760817 29:0.59540361 30:0.59024203 31:0.46904832 32:0.52880514 33:0.51662457 34:0.49851283 35:0.45107213 36:0.41628778 37:0.45392048 38:0.78883266 39:0.43327811 40:0.44171509 41:0.53187883 42:0.59222049 43:0.53952259 44:0.47730303 45:0.43556237 46:0.3002919 47:0.47860512 48:0.3760491 49:0.86677605 50:0.68655562 51:0.55023086 52:0.48609889 53:0.37311751 54:0.52525324 55:0.48601913 56:0.38560244 57:0.64006442 58:0.45648661 59:0.44334298 60:0.70886195 61:0.56053233 62:0.40482682 63:0.37814242 64:0.53549385 65:0.64056158 66:0.64164752 67:0.55085588 68:0.34277499 69:0.48301193 70:0.4472661 71:0.63581079 72:0.67491519 73:0.5073449 74:0.7188313 75:0.52758306 76:0.50607258 77:0.66504979 78:0.65324026 79:0.44529891 80:0.57458961 81:0.70522809 82:0.36822703 83:0.5706538 84:0.74368495 85:0.5113129 86:0.26314732 87:0.6752454 88:0.52321094 89:0.59557945 90:0.43839833 91:0.44951203 92:0.51897699 93:0.54131979 94:0.51383168 95:0.45059806 96:0.46754891 97:0.44490379 98:0.42737404 99:0.46656719 100:0.41116482 101:0.68713999 102:0.41547641 103:0.62272406 104:0.4790408 105:0.36121657 106:0.44315833 107:0.29900947 108:0.27540466 109:0.55778533 110:0.66676259 111:0.33447057 112:0.3931706 113:0.37685132 114:0.27929416 115:0.57866102 116:0.49427283 117:0.50052756 118:0.64992082 119:0.32919124 120:0.37957159 121:0.56737429 122:0.38858631 123:0.38514206 124:0.55380136 125:0.45714641 126:0.70374542 127:0.66924727 128:0.90717709 129:0.37292454 130:0.5241431 131:0.35343722 132:0.63557953 133:0.4009001 134:0.91790634 
2.33383897514799 2.338599655478278 1:0.44089454 2:0.49007118 3:0.45459786 4:0.30354735 5:0.4318819 6:0.56580073 7:0.26950416 8:0.15604316 9:0.50867987 10:0.55022854 11:0.28681868 12:0.53593391 13:0.23226903 14:0.47497377 15:0.72405434 16:0.58349186 17:0.34480822 18:0.16688703 19:0.62713057 20:0.7794804 21:0.7014038 22:0.41070014 23:0.66030014 24:0.40587527 25:0.46724546 26:0.48138711 27:0.18403874 28:0.62619728 29:0.41432202 30:0.51835662 31:0.65194988 32:0.21534987 33:0.49183965 34:0.6284073 35:0.72393394 36:0.53603142 37:0.42524144 38:0.56510532 39:0.42094824 40:0.15200284 41:0.5110808 42:0.24162464 43:0.75747365 44:0.5431301 45:0.47772136 46:0.5319255 47:0.43710151 48:0.64704692 49:0.28317547 50:0.54822677 51:0.33983615 52:0.68931299 53:0.4660973 54:0.12140857 55:0.45323807 56:0.25766924 57:0.43629056 58:0.55098116 59:0.63224155 60:0.60872978 61:0.44278798 62:0.38017979 63:0.41739583 64:0.38901639 65:0.60825378 66:0.32549441 67:0.55367857 68:0.10869794 69:0.57055444 70:0.46452725 71:0.41789141 72:0.63460749 73:0.76061183 74:0.46946323 75:0.48811194 76:0.29423136 77:0.57227731 78:0.38238019 79:0.57968163 80:0.66860533 81:0.27986106 82:0.39630312 83:0.39707583 84:0.79184037 85:0.24922417 86:0.58489084 87:0.30946258 88:0.62511367 89:0.37238517 90:0.30776656 91:0.45373377 92:0.48661381 93:0.61048198 94:0.49213049 95:0.58290684 96:0.23503107 97:0.61498147 98:0.65790868 99:0.59601283 100:0.3746115 101:0.53700763 102:0.54776013 103:0.54255426 104:0.49431697 105:0.38167894 106:0.98011672 107:0.51558995 108:0.18518047 109:0.16193233 110:0.55588681 111:0.77475846 112:0.62089765 113:0.40689766 114:0.64623141 115:0.38982439 116:0.72450066 117:0.26616219 118:0.4849036 119:0.62740177 120:0.49096408 121:0.68333006 122:0.48367339 123:0.88183951 124:0.36441848 125:0.57196277 126:0.33894533 127:0.43009332 128:0.84985775 129:0.5534097 130:0.34786603 131:0.5971216 132:0.46701261 133:0.279414 134:0.61229813 
1.628567386895698 0.7343834610589911 1:0.71150523 2:0.50761479 3:0.44358259 4:0.56098342 5:0.31961355 6:0.28939942 7:0.82658291 8:0.22683969 9:0.47398958 10:0.29574287 11:0.60088366 12:0.31396657 13:0.46457377 14:0.65237796 15:0.4329972 16:0.87262058 17:0.48790064 18:0.68964291 19:0.42721748 20:0.59177399 21:0.58915645 22:0.77370882 23:0.4072589 24:0.38938159 25:0.48633105 26:0.38006708 27:0.68900138 28:0.41619813 29:0.70679921 30:0.73101288 31:0.3080976 32:0.37028721 33:0.41810247 34:0.57060754 35:0.59518415 36:0.44663209 37:0.72410303 38:0.50722444 39:0.68878293 40:0.36750525 41:0.59737414 42:0.33931124 43:0.14827402 44:0.49737206 45:0.50502175 46:0.46771416 47:0.70562083 48:0.66657865 49:0.68096966 50:0.55810398 51:0.66109097 52:0.51796937 53:0.65898001 54:0.42339596 55:0.39055905 56:0.43720764 57:0.63459653 58:0.51117587 59:0.47760719 60:0.51347387 61:0.65922314 62:0.50085133 63:0.53805447 64:0.53433794 65:0.39411721 66:0.70728034 67:0.57555753 68:0.28551215 69:0.60468566 70:0.12002857 71:0.55219209 72:0.68061697 73:0.56776816 74:0.41589284 75:0.70802343 76:0.46761236 77:0.74000823 78:0.54072386 79:0.46982756 80:0.23741725 81:0.36417949 82:0.10340107 83:0.54438829 84:0.76953006 85:0.60160494 86:0.25588116 87:0.42643648 88:0.36945659 89:0.24090558 90:0.75585991 91:0.39044437 92:0.63147998 93:0.33691451 94:0.46166885 95:0.4609285 96:0.26076013 97:0.55548084 98:0.6121012 99:0.57042146 100:0.57328099 101:0.65696388 102:0.66125774 103:0.53429216 104:0.37488893 105:0.43464988 106:0.76037478 107:0.34825283 108:0.21530512 109:0.30224061 110:0.57185644 111:0.55350041 112:0.52267992 113:0.13250671 114:0.32694042 115:0.44761348 116:0.44971833 117:0.59648287 118:0.6784392 119:0.4472234 120:0.34397039 121:0.60610282 122:0.24466324 123:0.28199828 124:0.18916187 125:0.43367153 126:0.50557852 127:0.63435644 128:0.75944871 129:0.67593682 130:0.28406018 131:0.36202869 132:0.67457479 133:0.2096155 134:0.45159709 
1.401927789802106 4.340146413761913 1:0.28891402 2:0.58475786 3:0.63192064 4:0.36984164 5:0.35091174 6:0.56735212 7:0.54102892 8:0.41940063 9:0.53865063 10:0.36360377 11:0.30895838 12:0.49100333 13:0.48225939 14:0.35279748 15:0.47909352 16:0.66178221 17:0.16221584 18:0.45810124 19:0.70683557 20:0.63361359 21:0.42163983 22:0.59803057 23:0.54814613 24:0.36688089 25:0.77017444 26:0.58266979 27:0.53679621 28:0.45715138 29:0.71632612 30:0.46110791 31:0.72838461 32:0.37267685 33:0.55345982 34:0.34143034 35:0.38745761 36:0.42731971 37:0.63979518 38:0.488727 39:0.55036175 40:0.34101516 41:0.58690876 42:0.2642312 43:0.56055945 44:0.4158245 45:0.54475564 46:0.31648421 47:0.55783623 48:0.55661243 49:0.52920914 50:0.68812871 51:0.28949237 52:0.50534183 53:0.34395286 54:0.23117119 55:0.48784259 56:0.41267005 57:0.15333711 58:0.63052756 59:0.379289 60:0.2210411 61:0.50926942 62:0.29494753 63:0.51873159 64:0.72999048 65:0.4050867 66:0.56624913 67:0.37502462 68:0.49563405 69:0.62581784 70:0.34110227 71:0.6689195 72:0.42961788 73:0.62265313 74:0.36636627 75:0.50773537 76:0.52663583 77:0.6575672 78:0.36536789 79:0.46520129 80:0.41173631 81:0.36764228 82:0.45152381 83:0.75427467 84:0.61093688 85:0.66988349 86:0.3227402 87:0.67311466 88:0.6259535 89:0.16120724 90:0.6859594 91:0.50240141 92:0.53363442 93:0.41286975 94:0.61755246 95:0.54666901 96:0.65514326 97:0.84460098 98:0.72510421 99:0.56124169 100:0.47093746 101:0.63929224 102:0.39595851 103:0.59587681 104:0.37954292 105:0.56820816 106:0.42401004 107:0.49707487 108:0.40950218 109:0.48999521 110:0.63401806 111:0.31246868 112:0.19202673 113:0.16961215 114:0.30052876 115:0.63021445 116:0.2592296 117:0.52448004 118:0.42376608 119:0.42831811 120:0.33192101 121:0.6808008 122:0.20613265 123:0.37791535 124:0.47805294 125:0.48211181 126:0.71601397 127:0.45923066 128:0.66740388 129:0.54273683 130:0.48719117 131:0.15711491 132:0.61544442 133:0.38990587 134:0.65689075 
1.282715400790772 2.892839024244564 1:0.51960683 2:0.49582186 3:0.4863736 4:0.5079686 5:0.60266495 6:0.48098952 7:0.44411808 8:0.25199983 9:0.39860737 10:0.43495888 11:0.56512266 12:0.63464248 13:0.47916362 14:0.5966658 15:0.67772412 16:0.43063545 17:0.56605214 18:0.60171354 19:0.46201709 20:0.69557744 21:0.64694786 22:0.52887732 23:0.70943248 24:0.48404014 25:0.57841313 26:0.51688844 27:0.44737864 28:0.5913384 29:0.62795049 30:0.47730941 31:0.45704642 32:0.42021745 33:0.65501601 34:0.46565336 35:0.58385193 36:0.35571703 37:0.40791801 38:0.75654382 39:0.54026008 40:0.48591381 41:0.54467565 42:0.33282712 43:0.43511605 44:0.3492758 45:0.48555675 46:0.38800216 47:0.4687148 48:0.71787322 49:0.7783221 50:0.43391374 51:0.29309687 52:0.66883391 53:0.52752382 54:0.36981854 55:0.53895777 56:0.41881871 57:0.36831546 58:0.45568848 59:0.43717051 60:0.59642237 61:0.51457286 62:0.51673979 63:0.39293322 64:0.36130506 65:0.38629118 66:0.41919598 67:0.68287498 68:0.2855036 69:0.82387769 70:0.67016912 71:0.3891592 72:0.88701701 73:0.69948006 74:0.61867273 75:0.57853997 76:0.59315407 77:0.57547259 78:0.38023391 79:0.40588847 80:0.38031498 81:0.60340613 82:0.26154983 83:0.40896317 84:0.85012633 85:0.43417597 86:0.41829228 87:0.46013036 88:0.40603268 89:0.52517676 90:0.28015739 91:0.48183739 92:0.33295152 93:0.67432761 94:0.41414851 95:0.65957975 96:0.62688428 97:0.57411379 98:0.58248425 99:0.61863148 100:0.38263279 101:0.56835335 102:0.61964309 103:0.49167225 104:0.39456141 105:0.48008269 106:0.45975506 107:0.38210091 108:0.3396242 109:0.54054981 110:0.37075922 111:0.5061059 112:0.36125228 113:0.3620733 114:0.33943295 115:0.64201558 116:0.57256925 117:0.48624563 118:0.69084591 119:0.42588502 120:0.37187633 121:0.6190142 122:0.60418624 123:0.45091954 124:0.42851266 125:0.17718783 126:0.64123815 127:0.63766497 128:0.67569393 129:0.57973313 130:0.33394912 131:0.32472163 132:0.72197163 133:0.3794952 134:0.88664567 
0 0.3125210264747795 1:0.43202525 2:0.69756341 3:0.7227208 4:0.33537227 5:0.40241271 6:0.47262275 7:0.27525374 8:0.79382575 9:0.44240326 10:0.59785187 11:0.5329541 12:0.6499151 13:0.20109275 14:0.46406588 15:0.34124479 16:0.45177394 17:0.50118929 18:0.56033462 19:0.3926712 20:0.68587041 21:0.37586552 22:0.47305864 23:0.88925588 24:0.49822208 25:0.444166 26:0.48887962 27:0.62983352 28:0.54750651 29:0.59508449 30:0.44908008 31:0.39767617 32:0.34119397 33:0.74776286 34:0.37244278 35:0.6030215 36:0.5204159 37:0.67478919 38:0.53077912 39:0.47455689 40:0.45066199 41:0.60635465 42:0.30128884 43:0.4191992 44:0.3168118 45:0.21367067 46:0.27928069 47:0.62953299 48:0.29765198 49:0.68497461 50:0.553514 51:0.71946454 52:0.48344147 53:0.30929625 54:0.22034872 55:0.28684786 56:0.61287737 57:0.37484372 58:0.58557522 59:0.52265775 60:0.39953008 61:0.43892646 62:0.4689846 63:0.57903129 64:0.25290835 65:0.7777372 66:0.53551269 67:0.3402513 68:0.34672275 69:0.63182116 70:0.47421214 71:0.38891551 72:0.4746837 73:0.46208641 74:0.57839459 75:0.60367554 76:0.6087147 77:0.53017896 78:0.62239707 79:0.60793507 80:0.55271065 81:0.36939341 82:0.56412411 83:0.64772904 84:0.63138658 85:0.44519538 86:0.17788701 87:0.63926637 88:0.37105742 89:0.23514277 90:0.30795383 91:0.47014499 92:0.37861106 93:0.66110283 94:0.5680126 95:0.51603502 96:0.30463618 97:0.65127707 98:0.61816454 99:0.54713941 100:0.38301939 101:0.70976579 102:0.19592915 103:0.53333098 104:0.38622943 105:0.37277219 106:0.54007024 107:0.35429689 108:0.29753584 109:0.54270977 110:0.39195496 111:0.37928581 112:0.77835262 113:0.47327828 114:0.18969029 115:0.55273682 116:0.44827569 117:0.60197765 118:0.8250339 119:0.3362996 120:0.48341301 121:0.625139 122:0.62041253 123:0.26205698 124:0.52291232 125:0.505548 126:0.64259893 127:0.56146526 128:0.5674336 129:0.69809157 130:0.44091433 131:0.22334078 132:0.61290818 133:0.19128814 134:0.75525767 
3.420210431804318 3.942965435862407 1:0.26736453 2:0.57863784 3:0.3328473 4:0.57644808 5:0.56066006 6:0.6421116 7:0.47152618 8:0.47526151 9:0.40363774 10:0.65468287 11:0.53924787 12:0.66484338 13:0.29520029 14:0.43027639 15:0.13849096 16:0.67398453 17:0.41759866 18:0.56616616 19:0.6019758 20:0.73584658 21:0.72747141 22:0.39520267 23:0.62369144 24:0.33465162 25:0.28397804 26:0.65409696 27:0.40999612 28:0.46112025 29:0.45112872 30:0.42991725 31:0.39553261 32:0.42866847 33:0.51663387 34:0.61921072 35:0.51919538 36:0.39203143 37:0.59621316 38:0.40559718 39:0.36667114 40:0.33726603 41:0.73576015 42:0.47961757 43:0.49534231 44:0.3137683 45:0.4302755 46:0.57662582 47:0.57541174 48:0.60157907 49:0.61964548 50:0.60555863 51:0.32326916 52:0.44345754 53:0.36856279 54:0.25513569 55:0.11119268 56:0.39345956 57:0.67115301 58:0.4395037 59:0.54480058 60:0.44730005 61:0.5188086 62:0.41632906 63:0.59581119 64:0.37896204 65:0.42751607 66:0.61360162 67:0.48470667 68:0.50331897 69:0.71003717 70:0.45341259 71:0.19870336 72:0.85088241 73:0.73860401 74:0.35959971 75:0.32085168 76:0.48960611 77:0.69231617 78:0.32501373 79:0.82297349 80:0.45406014 81:0.50941771 82:0.18848825 83:0.33030793 84:0.57506329 85:0.36273172 86:0.51054215 87:0.4175896 88:0.62774688 89:0.17940862 90:0.52098441 91:0.69881403 92:0.44750959 93:0.40726686 94:0.68547994 95:0.58678168 96:0.65673226 97:0.40571278 98:0.65466231 99:0.50067031 100:0.38178623 101:0.52669197 102:0.57330644 103:0.6289705 104:0.21211718 105:0.41827783 106:0.72731012 107:0.44990909 108:0.3493728 109:0.29127154 110:0.42136464 111:0.46490118 112:0.53140837 113:0.61454982 114:0.25655875 115:0.51775914 116:0.41167635 117:0.20918795 118:0.70312572 119:0.44329247 120:0.36285976 121:0.55736804 122:0.40362638 123:0.57078642 124:0.33641264 125:0.73608154 126:0.56841421 127:0.59113151 128:0.77347589 129:0.65967804 130:0.5100469 131:0.46204317 132:0.5128994 133:0.49214366 134:0.69677162 
0 2.192842466218564 1:0.27849492 2:0.40107521 3:0.47142306 4:0.51133525 5:0.69245052 6:0.491054 7:0.51554859 8:0.27015352 9:0.39720523 10:0.25933611 11:0.58711916 12:0.43386602 13:0.48768225 14:0.27487481 15:0.44560021 16:0.33674076 17:0.37088987 18:0.58716309 19:0.43926212 20:0.47667804 21:0.73453802 22:0.61497468 23:0.70357835 24:0.53334057 25:0.5305897 26:0.42862764 27:0.6224426 28:0.38272873 29:0.51590312 30:0.32910421 31:0.51912302 32:0.50971419 33:0.54942536 34:0.39478055 35:0.55130816 36:0.47657388 37:0.58984137 38:0.53274024 39:0.41957024 40:0.42972904 41:0.48473451 42:0.38261843 43:0.42788139 44:0.41732454 45:0.61406571 46:0.41457528 47:0.52701294 48:0.54568303 49:0.65902728 50:0.63767731 51:0.3725917 52:0.68648541 53:0.54860163 54:0.42939603 55:0.5136773 56:0.53864229 57:0.42757264 58:0.57660562 59:0.7515552 60:0.41505435 61:0.53011668 62:0.54404712 63:0.38865307 64:0.46984261 65:0.32029417 66:0.63789678 67:0.59090966 68:0.37107146 69:0.49657911 70:0.61936599 71:0.35021883 72:0.49282953 73:0.7009601 74:0.46114585 75:0.40643516 76:0.61149824 77:0.45155856 78:0.57278913 79:0.39879522 80:0.52887863 81:0.59745389 82:0.24811107 83:0.49685499 84:0.52412903 85:0.61891866 86:0.49371636 87:0.5733192 88:0.50671405 89:0.33044845 90:0.49661508 91:0.68843561 92:0.61160135 93:0.31395948 94:0.57857502 95:0.63898432 96:0.53781092 97:0.48354 98:0.37840346 99:0.44607219 100:0.58353788 101:0.64428514 102:0.38491735 103:0.59806764 104:0.26608342 105:0.48201621 106:0.57734239 107:0.39053461 108:0.25251096 109:0.50013292 110:0.36046013 111:0.57843262 112:0.612791 113:0.20071632 114:0.5445568 115:0.51507676 116:0.19971873 117:0.3836222 118:0.56654233 119:0.50692415 120:0.36259216 121:0.592058 122:0.42759106 123:0.73264956 124:0.34454131 125:0.60867363 126:0.61508083 127:0.53897268 128:0.83405036 129:0.34343463 130:0.48360032 131:0.39457566 132:0.55331665 133:0.36896604 134:0.81379837 
5.055167049022783 4.219176958500555 1:0.24852671 2:0.46662095 3:0.43437943 4:0.50500709 5:0.5171653 6:0.3982124 7:0.44440949 8:0.6054517 9:0.65455443 10:0.55184478 11:0.41397682 12:0.5045684 13:0.50881797 14:0.51704228 15:0.41471025 16:0.65674329 17:0.3435584 18:0.46504852 19:0.41587541 20:0.50733829 21:0.51050496 22:0.50131124 23:0.71020937 24:0.32280436 25:0.66856796 26:0.23677702 27:0.40745395 28:0.43653202 29:0.39691871 30:0.49826339 31:0.54662758 32:0.47595412 33:0.4625383 34:0.64087743 35:0.56165612 36:0.43940118 37:0.45529485 38:0.68055212 39:0.47041067 40:0.34831423 41:0.56665379 42:0.41196075 43:0.38124302 44:0.44206107 45:0.32263044 46:0.37989083 47:0.63605016 48:0.52300721 49:0.68674618 50:0.56354421 51:0.46653843 52:0.37964767 53:0.57626045 54:0.37590387 55:0.57307565 56:0.36020759 57:0.49015671 58:0.38041481 59:0.52361274 60:0.22951052 61:0.49061632 62:0.5932675 63:0.42623445 64:0.31965429 65:0.52264142 66:0.40785956 67:0.64536071 68:0.2920537 69:0.57554781 70:0.43872252 71:0.51692754 72:0.54193485 73:0.3352659 74:0.64603245 75:0.2595183 76:0.60734862 77:0.49618226 78:0.49603605 79:0.47443983 80:0.27531943 81:0.4759433 82:0.40134525 83:0.63112831 84:0.86294067 85:0.49988389 86:0.43894672 87:0.57239366 88:0.63342184 89:0.52376705 90:0.6468665 91:0.52581656 92:0.44208965 93:0.19399779 94:0.63540781 95:0.31110665 96:0.60877448 97:0.53890944 98:0.70453048 99:0.62822634 100:0.38650402 101:0.55128247 102:0.44028512 103:0.47260153 104:0.52926654 105:0.40799466 106:0.4327054 107:0.36511937 108:0.31925339 109:0.55197883 110:0.63178402 111:0.58424234 112:0.35903865 113:0.70164216 114:0.43058515 115:0.63327783 116:0.56776536 117:0.2746408 118:0.45275533 119:0.37828842 120:0.27474979 121:0.45949075 122:0.34264138 123:0.76074719 124:0.30920532 125:0.39451233 126:0.68087023 127:0.50467634 128:0.55725127 129:0.44105348 130:0.57906413 131:0.41881049 132:0.55856866 133:0.49141362 134:0.7964617 
1.93733303661791 3.843106691342705 1:0.48873371 2:0.62999946 3:0.61998516 4:0.42419112 5:0.22164081 6:0.67477012 7:0.50908625 8:0.49470341 9:0.64030719 10:0.46062794 11:0.36009774 12:0.43668061 13:0.54986745 14:0.26115847 15:0.53482676 16:0.79943234 17:0.38801512 18:0.42455178 19:0.44040823 20:0.57952297 21:0.43286425 22:0.65524727 23:0.73717576 24:0.41731638 25:0.75838238 26:0.53714991 27:0.61692458 28:0.5951463 29:0.52227789 30:0.58096296 31:0.53636211 32:0.24459517 33:0.49797809 34:0.18434156 35:0.57127285 36:0.3789911 37:0.42258528 38:0.44834432 39:0.48388839 40:0.39007583 41:0.5707016 42:0.5331645 43:0.50506645 44:0.3930397 45:0.30526763 46:0.49890345 47:0.44098511 48:0.47970712 49:0.6041739 50:0.5416981 51:0.4719283 52:0.46087134 53:0.44132188 54:0.26057899 55:0.31538925 56:0.40963829 57:0.51364249 58:0.56587631 59:0.5038113 60:0.52124757 61:0.76409602 62:0.30190513 63:0.49264732 64:0.47271708 65:0.74970728 66:0.52029026 67:0.48123908 68:0.37031749 69:0.71783179 70:0.14380805 71:0.11032302 72:0.59528685 73:0.41129634 74:0.38514727 75:0.5666967 76:0.87016284 77:0.91479421 78:0.53647554 79:0.49488124 80:0.45159781 81:0.3419627 82:0.44902188 83:0.43422675 84:0.67243892 85:0.41543728 86:0.20613487 87:0.58752525 88:0.4120456 89:0.47613734 90:0.54047698 91:0.38729703 92:0.32995322 93:0.64020723 94:0.35145333 95:0.34935018 96:0.47683474 97:0.74400008 98:0.82707965 99:0.31492344 100:0.58094645 101:0.61467481 102:0.61943513 103:0.51204956 104:0.32307288 105:0.21052536 106:0.46766767 107:0.48772395 108:0.064923838 109:0.46372056 110:0.37430245 111:0.57741004 112:0.57648301 113:0.43497708 114:0.37198418 115:0.28198677 116:0.5626688 117:0.66094548 118:0.57913512 119:0.87054938 120:0.38367897 121:0.84007066 122:0.52527654 123:0.55152899 124:0.40492654 125:0.49584049 126:0.63227051 127:0.58027893 128:0.8850261 129:0.53518242 130:0.2633943 131:0.14560893 132:0.54170901 133:0.2569187 134:0.57876474 
0.9325498720416556 0.5766688868414206 1:0.49159765 2:0.3917529 3:0.4522185 4:0.53745627 5:0.4156343 6:0.40580291 7:0.51434809 8:0.54188079 9:0.45476529 10:0.33749491 11:0.17873073 12:0.55852586 13:0.6279819 14:0.2110192 15:0.75814736 16:0.44791695 17:0.42058545 18:0.55235171 19:0.40334222 20:0.44859856 21:0.54942966 22:0.48694116 23:0.61271024 24:0.72759128 25:0.53875065 26:0.58024299 27:0.61723018 28:0.50335026 29:0.57913482 30:0.36084968 31:0.47985283 32:0.67155969 33:0.52170986 34:0.28111503 35:0.43972757 36:0.40838146 37:0.40606123 38:0.61836499 39:0.56275493 40:0.54043835 41:0.53015542 42:0.31459302 43:0.29076576 44:0.46080583 45:0.42891133 46:0.62661684 47:0.41860306 48:0.50214368 49:0.52901137 50:0.67946351 51:0.50188351 52:0.41509455 53:0.45212913 54:0.52809608 55:0.39349067 56:0.49021634 57:0.5634352 58:0.59435683 59:0.57298505 60:0.49298984 61:0.35061014 62:0.65269786 63:0.91475928 64:0.47355753 65:0.55984813 66:0.3874909 67:0.75538582 68:0.53887361 69:0.4156054 70:0.62591439 71:0.51479155 72:0.60375965 73:0.49693638 74:0.70190138 75:0.570023 76:0.59877086 77:0.57661986 78:0.37261155 79:0.43367088 80:0.2852914 81:0.39513394 82:0.28546309 83:0.35153735 84:0.59749991 85:0.62289804 86:0.53848588 87:0.43371513 88:0.74374855 89:0.44548762 90:0.60119563 91:0.26494157 92:0.39138487 93:0.47791341 94:0.47088474 95:0.66288513 96:0.56817079 97:0.4209139 98:0.66053081 99:0.45362821 100:0.25048715 101:0.70734245 102:0.33790156 103:0.55629963 104:0.34883299 105:0.84880739 106:0.42715642 107:0.39501151 108:0.30956832 109:0.42984024 110:0.33721191 111:0.52416503 112:0.45823342 113:0.23447548 114:0.2402896 115:0.47647178 116:0.31225541 117:0.62614423 118:0.56611973 119:0.25043535 120:0.43839058 121:0.76417589 122:0.56669545 123:0.49885234 124:0.26493531 125:0.48220891 126:0.60732836 127:0.68154222 128:0.78933221 129:0.46948719 130:0.45046738 131:0.23076884 132:0.61301088 133:0.011839044 134:0.6055178 
1.677259775338654 2.242050966577392 1:0.31998456 2:0.61140752 3:0.49820918 4:0.63800484 5:0.61861992 6:0.45811367 7:0.67049062 8:0.46046734 9:0.65954596 10:0.51664579 11:0.42347825 12:0.52196139 13:0.69955117 14:0.62913752 15:0.55156302 16:0.49381712 17:0.41854098 18:0.13335495 19:0.51215988 20:0.39973053 21:0.41725406 22:0.59006971 23:0.52963829 24:0.33860555 25:0.40393418 26:0.40164649 27:0.58252937 28:0.45144701 29:0.50279349 30:0.34849754 31:0.29265827 32:0.27229866 33:0.66302168 34:0.57848185 35:0.45003572 36:0.37492731 37:0.3128255 38:0.34413818 39:0.38063827 40:0.31573889 41:0.43408284 42:0.31549972 43:0.60837114 44:0.3568629 45:0.5128181 46:0.4135966 47:0.62023318 48:0.43719375 49:0.76738024 50:0.52111363 51:0.2884593 52:0.39486241 53:0.46943131 54:0.58224458 55:0.62035322 56:0.44947773 57:0.45055291 58:0.58757389 59:0.428471 60:0.41607341 61:0.28952014 62:0.5023967 63:0.61645883 64:0.41098914 65:0.53062934 66:0.49248868 67:0.40651092 68:0.38808963 69:0.53493589 70:0.46457705 71:0.42304376 72:0.63132471 73:0.50062925 74:0.25520074 75:0.53340447 76:0.4545472 77:0.44843954 78:0.61902177 79:0.35343114 80:0.27378583 81:0.47713351 82:0.27917621 83:0.61283773 84:0.64259416 85:0.49251306 86:0.38573462 87:0.60076171 88:0.43274415 89:0.50002652 90:0.62181771 91:0.67659485 92:0.66345304 93:0.29669869 94:0.47484317 95:0.58998257 96:0.68557912 97:0.53420323 98:0.53084868 99:0.51922405 100:0.41088021 101:0.60699922 102:0.45415539 103:0.65310812 104:0.42368826 105:0.67073071 106:0.45348495 107:0.38099998 108:0.3047061 109:0.3313787 110:0.35238606 111:0.61852258 112:0.57149529 113:0.23568586 114:0.58372188 115:0.5436663 116:0.10150847 117:0.56547815 118:0.52598935 119:0.35194242 120:0.43761107 121:0.45269364 122:0.57672149 123:0.73445499 124:0.36229664 125:0.6022234 126:0.64591068 127:0.46905398 128:0.76284111 129:0.5365693 130:0.55951637 131:0.45844778 132:0.54542553 133:0.43335918 134:0.88555658 
1.673155865586697 2.645507005454021 1:0.46397501 2:0.31097326 3:0.51019084 4:0.55325013 5:0.55878633 6:0.45594409 7:0.34067705 8:0.63612056 9:0.60335732 10:0.62554121 11:0.40211207 12:0.25189391 13:0.43748805 14:0.55345285 15:0.51425123 16:0.42543021 17:0.4802115 18:0.45550328 19:0.39685521 20:0.60441995 21:0.55875695 22:0.34154823 23:0.5070011 24:0.60317481 25:0.30787095 26:0.1423433 27:0.46376771 28:0.61204588 29:0.5709824 30:0.62989628 31:0.48310742 32:0.40827614 33:0.54774982 34:0.55974305 35:0.76384056 36:0.58871746 37:0.72218299 38:0.58072329 39:0.4184072 40:0.66876984 41:0.6123597 42:0.44653779 43:0.66020226 44:0.42135823 45:0.56086999 46:0.41271484 47:0.51427406 48:0.37530595 49:0.58530158 50:0.45079949 51:0.4398869 52:0.51090914 53:0.48164743 54:0.45040482 55:0.57869208 56:0.48900536 57:0.48351055 58:0.56036454 59:0.72518605 60:0.43786779 61:0.71883529 62:0.59027886 63:0.46719441 64:0.18575308 65:0.34733555 66:0.56452072 67:0.60910404 68:0.48905155 69:0.53282231 70:0.41755679 71:0.43257067 72:0.55307841 73:0.66196418 74:0.54663897 75:0.33345243 76:0.54000747 77:0.37078905 78:0.31916746 79:0.6177628 80:0.42759407 81:0.74675083 82:0.38120246 83:0.62077242 84:0.56824541 85:0.30542547 86:0.4766469 87:0.54320306 88:0.46264765 89:0.37008008 90:0.42520806 91:0.62748259 92:0.48933187 93:0.78008419 94:0.27794898 95:0.52617526 96:0.50468034 97:0.68447477 98:0.43563518 99:0.73439795 100:0.39131546 101:0.60488003 102:0.24781729 103:0.78387809 104:0.70682639 105:0.60669148 106:0.6424768 107:0.42843255 108:0.44961333 109:0.44700652 110:0.54526961 111:0.5233376 112:0.54680347 113:0.58564711 114:0 115:0.67046142 116:0.53205866 117:0.18898234 118:0.62393051 119:0.30027157 120:0.36225924 121:0.6489501 122:0.24487424 123:0.46899331 124:0.29930016 125:0.56376135 126:0.47337952 127:0.56156558 128:0.78563589 129:0.3224352 130:0.57718426 131:0.61292803 132:0.50057793 133:0.38747054 134:0.84332818 
3.005584975012705 4.264268864632194 1:0.5241034 2:0.39984006 3:0.62968278 4:0.32778752 5:0.33729824 6:0.52977473 7:0.23921935 8:0.43282348 9:0.77052647 10:0.58355153 11:0.26784098 12:0.20708986 13:0.53237772 14:0.35289708 15:0.47491175 16:0.58701223 17:0.26544085 18:0.35872352 19:0.48103115 20:0.7171967 21:0.42138577 22:0.58602786 23:0.58267313 24:0.494293 25:0.62755966 26:0.548675 27:0.29037896 28:0.46924791 29:0.55238426 30:0.74009085 31:0.48037976 32:0.48400268 33:0.15714639 34:0.53742194 35:0.68795371 36:0.6393007 37:0.39834523 38:0.60092562 39:0.39133757 40:0.68643415 41:0.47769648 42:0.31276047 43:0.52930272 44:0.24424373 45:0.43530101 46:0.31561968 47:0.64056492 48:0.45014721 49:0.68793321 50:0.65072048 51:0.58823931 52:0.61862898 53:0.30636144 54:0.38238323 55:0.68647259 56:0.49291429 57:0.61370265 58:0.70710027 59:0.34308502 60:0.51300615 61:0.58379823 62:0.76604086 63:0.38197848 64:0.37520507 65:0.5323022 66:0.23972175 67:0.46379399 68:0.45966569 69:0.58974999 70:0.50671202 71:0.33732289 72:0.39753255 73:0.35272622 74:0.6087082 75:0.68056452 76:0.68519217 77:0.56605917 78:0.62518054 79:0.39336941 80:0.17147276 81:0.46616551 82:0.37488288 83:0.5011608 84:0.77548283 85:0.35241011 86:0.17685035 87:0.61571997 88:0.25926307 89:0.66837621 90:0.49803889 91:0.42141348 92:0.52149707 93:0.55852503 94:0.65161657 95:0.53716624 96:0.31099641 97:0.61092091 98:0.55131811 99:0.47522545 100:0.40265572 101:0.5583936 102:0.51596588 103:0.46255523 104:0.10941605 105:0.46308696 106:0.80231601 107:0.2502906 108:0.21288407 109:0.20239647 110:0.30809319 111:0.72321302 112:0.5711658 113:0.90757447 114:0.54153723 115:0.47517818 116:0.70873916 117:0.4562507 118:0.52393425 119:0.4674159 120:0.39538559 121:0.69326723 122:0.68340635 123:0.80911011 124:0.10472485 125:0.41478091 126:0.58329034 127:0.5242402 128:0.68148237 129:0.35860708 130:0.37382683 131:0.31136957 132:0.5460735 133:0.32510918 134:0.64570689 
4.625922963535772 2.285209999505053 1:0.52601862 2:0.70257038 3:0.47482228 4:0.65462267 5:0.45335534 6:0.29482177 7:0.46609378 8:0.21361266 9:0.49383879 10:0.38168609 11:0.63304931 12:0.30991858 13:0.3006146 14:0.7340889 15:0.48211053 16:0.75320476 17:0.54510134 18:0.59690976 19:0.61514413 20:0.69453502 21:0.39055553 22:0.11752016 23:0.54963404 24:0.35372028 25:0.47780287 26:0.68369412 27:0.69204193 28:0.47743145 29:0.58944452 30:0.35563102 31:0.48407963 32:0.59449714 33:0.57313073 34:0.69940472 35:0.52153039 36:0.45046595 37:0.46055716 38:0.4738847 39:0.69253606 40:0.43714485 41:0.69420624 42:0.21218941 43:0.24775073 44:0.23081088 45:0.48498493 46:0.64102858 47:0.5416773 48:0.45948401 49:0.45952815 50:0.61480367 51:0.25649258 52:0.21193551 53:0.57408464 54:0.45497018 55:0.47315568 56:0.60024142 57:0.40897626 58:0.59186286 59:0.35370541 60:0.49696913 61:0.41454965 62:0.34950554 63:0.59951186 64:0.48394468 65:0.40600568 66:0.24839656 67:0.38521349 68:0.50357115 69:0.61917651 70:0.59333837 71:0.28024906 72:0.54627198 73:0.6952076 74:0.45246357 75:0.5577811 76:0.49263731 77:0.43865317 78:0.5414719 79:0.43247426 80:0.47231594 81:0.44169006 82:0.58850622 83:0.44320023 84:0.75294238 85:0.40944475 86:0.47958866 87:0.34910721 88:0.4573445 89:0.35169321 90:0.43365914 91:0.33450407 92:0.22523457 93:0.32183269 94:0.46349886 95:0.6687299 96:0.33171728 97:0.68310487 98:0.69373244 99:0.45834902 100:0.36618048 101:0.47332492 102:0.33344492 103:0.57792997 104:0.35490745 105:0.47254986 106:0.57373494 107:0.51911598 108:0.29386693 109:0.44507927 110:0.34789792 111:0.49026385 112:0.45464575 113:0.4774195 114:0.75502759 115:0.63353729 116:0.67671686 117:0.45681649 118:0.61245048 119:0.37981042 120:0.42088237 121:0.66274488 122:0.42554903 123:0.65959489 124:0.44886541 125:0.43243915 126:0.65872413 127:0.47710788 128:0.6162883 129:0.58624345 130:0.49402067 131:0.19665046 132:0.63640898 133:0.10288964 134:0.57958442 
0 0.6090214994313126 1:0.61476654 2:0.50838596 3:0.44928661 4:0.50003958 5:0.45817778 6:0.44462833 7:0.3903161 8:0.56031334 9:0.45117486 10:0.36006311 11:0.38693577 12:0.39479676 13:0.28791583 14:0.62841386 15:0.65652102 16:0.4090938 17:0.40522665 18:0.27952093 19:0.57420385 20:0.41027826 21:0.42763987 22:0.35222194 23:0.44346598 24:0.49904621 25:0.57344425 26:0.57740045 27:0.51892066 28:0.36065578 29:0.63087344 30:0.4544493 31:0.50811207 32:0.49515697 33:0.40663159 34:0.29865509 35:0.46385846 36:0.22995503 37:0.47313288 38:0.45872143 39:0.36170766 40:0.41171947 41:0.36709505 42:0.33942389 43:0.47729033 44:0.40869272 45:0.67057753 46:0.52412009 47:0.71951073 48:0.38402417 49:0.5608263 50:0.61627835 51:0.39395905 52:0.5132705 53:0.61671704 54:0.55112183 55:0.35532203 56:0.35120487 57:0.60302329 58:0.40567437 59:0.57469815 60:0.72635227 61:0.50989062 62:0.86449957 63:0.4231239 64:0.53402489 65:0.57598871 66:0.50833678 67:0.60444152 68:0.50726652 69:0.63152248 70:0.39437547 71:0.4929395 72:0.486132 73:0.73478186 74:0.39740083 75:0.55457199 76:0.54005623 77:0.73686779 78:0.46787521 79:0.31053865 80:0.55027455 81:0.56778431 82:0.29976168 83:0.3994236 84:0.693977 85:0.61547267 86:0.36895227 87:0.7014969 88:0.49874237 89:0.47428939 90:0.6810776 91:0.47310746 92:0.53344601 93:0.53631067 94:0.42904431 95:0.53112733 96:0.38650337 97:0.60328084 98:0.58470845 99:0.59997708 100:0.45847455 101:0.77443284 102:0.45644629 103:0.72571683 104:0.44282994 105:0.5498423 106:0.57388371 107:0.36321726 108:0.38869923 109:0.42958194 110:0.46355203 111:0.59008217 112:0.48646235 113:0.065730058 114:0.58819705 115:0.79322404 116:0.27159354 117:0.62815279 118:0.47768688 119:0.50674814 120:0.38736501 121:0.42300576 122:0.44770017 123:0.5120793 124:0.41708535 125:0.48861149 126:0.70615715 127:0.58771479 128:0.75503218 129:0.50948894 130:0.39992234 131:0.24120884 132:0.82002616 133:0.22760926 134:0.70433784 
0 0.9946013344976411 1:0.35208637 2:0.35216638 3:0.39813742 4:0.53126812 5:0.62944508 6:0.68636131 7:0.38493037 8:0.55850536 9:0.19168571 10:0.62888634 11:0.46115142 12:0.56661814 13:0.64071918 14:0.42013338 15:0.48468181 16:0.50452822 17:0.5770123 18:0.48391896 19:0.37213877 20:0.57809949 21:0.67024732 22:0.56744248 23:0.62319618 24:0.51521468 25:0.59169859 26:0.42037612 27:0.52848434 28:0.53081244 29:0.8274312 30:0.44134095 31:0.30945659 32:0.63090998 33:0.6155315 34:0.63214284 35:0.55426532 36:0.44573477 37:0.47059107 38:0.52970487 39:0.40394023 40:0.52341861 41:0.64982915 42:0.3393558 43:0.6351046 44:0.40964016 45:0.46977785 46:0.54270887 47:0.61646408 48:0.369131 49:0.51460195 50:0.45802549 51:0.37110025 52:0.20842262 53:0.50224978 54:0.64818555 55:0.51626521 56:0.40534925 57:0.57705486 58:0.64258444 59:0.43608937 60:0.6198836 61:0.45956281 62:0.67601579 63:0.50050646 64:0.63100868 65:0.71288973 66:0.52240449 67:0.48055527 68:0.54654241 69:0.70796537 70:0.38521588 71:0.63287753 72:0.48856455 73:0.54502708 74:0.50268817 75:0.55209166 76:0.53403145 77:0.75333232 78:0.64956141 79:0.46351638 80:0.26956153 81:0.43272591 82:0.34660494 83:0.54813689 84:0.48988277 85:0.67876577 86:0.33171937 87:0.47662196 88:0.45029157 89:0.55243379 90:0.5619747 91:0.54489756 92:0.5400604 93:0.4189592 94:0.37187052 95:0.52952236 96:0.4109672 97:0.37502146 98:0.65621084 99:0.3993634 100:0.28123432 101:0.6775018 102:0.41813084 103:0.50186545 104:0.43041301 105:0.25842351 106:0.31843179 107:0.40635991 108:0.19609863 109:0.56180167 110:0.32722679 111:0.6353808 112:0.42084792 113:0.2199046 114:0.43208981 115:0.63193285 116:0.34061894 117:0.51861608 118:0.62824059 119:0.39329422 120:0.40438607 121:0.5358175 122:0.56255537 123:0.53332871 124:0.29174814 125:0.63668954 126:0.70250076 127:0.71629822 128:0.67211449 129:0.66381842 130:0.54715264 131:0.11565245 132:0.64380538 133:0.16076428 134:0.68719763 
0.8865718840394566 0 1:0.36042804 2:0.55931777 3:0.43509385 4:0.62716293 5:0.46677175 6:0.30724353 7:0.4573456 8:0.43581796 9:0.42964301 10:0.38731959 11:0.29932377 12:0.41417477 13:0.3245644 14:0.44082719 15:0.47829178 16:0.70838398 17:0.24603419 18:0.2899763 19:0.46108335 20:0.81510514 21:0.37738413 22:0.38771537 23:0.58617949 24:0.44977084 25:0.58382654 26:0.42532477 27:0.31041801 28:0.39877763 29:0.51547474 30:0.34203273 31:0.50021577 32:0.53381002 33:0.53945816 34:0.63392472 35:0.4013066 36:0.38626495 37:0.55653679 38:0.52226764 39:0.48646894 40:0.47954637 41:0.65528023 42:0.21169828 43:0.47645181 44:0.47148329 45:0.69519234 46:0.58081496 47:0.68501836 48:0.50752223 49:0.55853581 50:0.50703293 51:0.34792709 52:0.53172415 53:0.58371538 54:0.36752555 55:0.43233493 56:0.50410974 57:0.58448279 58:0.60226941 59:0.58626759 60:0.43571061 61:0.20208894 62:0.53114134 63:0.62974328 64:0.36099374 65:0.59435123 66:0.42264432 67:0.64290011 68:0.38219595 69:0.42735758 70:0.52155179 71:0.52009511 72:0.45084584 73:0.53789622 74:0.38207176 75:0.47162178 76:0.55803829 77:0.36018911 78:0.57485569 79:0.40261269 80:0.29648861 81:0.18896057 82:0.3463425 83:0.37173218 84:0.62749797 85:0.51847696 86:0.52824652 87:0.65463734 88:0.53745979 89:0.26638648 90:0.57004732 91:0.14255241 92:0.52143753 93:0.3183735 94:0.47321033 95:0.70135564 96:0.12061176 97:0.74961591 98:0.55435956 99:0.39093772 100:0.35977516 101:0.62635773 102:0.35078606 103:0.54321951 104:0.58673131 105:0.62758887 106:0.44644845 107:0.31668529 108:0.17156222 109:0.69455749 110:0.82218784 111:0.53731602 112:0.52942848 113:0.22844853 114:0.2983309 115:0.58885902 116:0.41066611 117:0.55570376 118:0.77776408 119:0.31106114 120:0.3749702 121:0.75215876 122:0.48465672 123:0.50336164 124:0.54752839 125:0.47527573 126:0.40564767 127:0.39116561 128:0.93312103 129:0.85685152 130:0.48613542 131:0.3647489 132:0.4460192 133:0.022842983 134:0.40490857 
1.517055382699854 3.802906540519156 1:0.46578127 2:0.62484103 3:0.47505185 4:0.61407 5:0.28797504 6:0.50403225 7:0.33067444 8:0.47968367 9:0.51867801 10:0.41625002 11:0.26724267 12:0.44715407 13:0.66193324 14:0.52199614 15:0.62251717 16:0.31813261 17:0.34652424 18:0.4925026 19:0.46566647 20:0.57747668 21:0.39121452 22:0.0086506344 23:0.71782649 24:0.72476721 25:0.48355767 26:0.61139548 27:0.76812631 28:0.5023362 29:0.35300314 30:0.3055748 31:0.31012815 32:0.37568337 33:0.31894884 34:0.60982007 35:0.53286606 36:0.41545293 37:0.60450697 38:0.67916286 39:0.40921411 40:0.38585114 41:0.44052461 42:0.34061706 43:0.50009519 44:0.2792421 45:0.41532761 46:0.58227062 47:0.59334868 48:0.51555824 49:0.37052205 50:0.3904317 51:0.34401324 52:0.40701261 53:0.32322651 54:0.44634429 55:0.53737384 56:0.38672101 57:0.70221257 58:0.68084234 59:0.42420539 60:0.29357237 61:0.30137858 62:0.59636497 63:0.24720465 64:0.7240833 65:0.71381545 66:0.55346227 67:0.38909453 68:0.51310539 69:0.47447869 70:0.54408586 71:0.68381917 72:0.45283991 73:0.58735216 74:0.55365407 75:0.50831544 76:0.7034893 77:0.62417728 78:0.472399 79:0.66164404 80:0.63911968 81:0.29475442 82:0.55408353 83:0.50757372 84:0.78841865 85:0.30387992 86:0.17225686 87:0.75146717 88:0.6423353 89:0.47076312 90:0.64800495 91:0.25780961 92:0.41402453 93:0.54905742 94:0.3562479 95:0.71253228 96:0.69066656 97:0.50761056 98:0.81546474 99:0.37143099 100:0.44343349 101:0.69643784 102:0.41388479 103:0.54751682 104:0.3043915 105:0.5903281 106:0.30481026 107:0.38478568 108:0.1098408 109:0.50616562 110:0.45708194 111:0.52934849 112:0.47149569 113:0.23482688 114:0.4969981 115:0.58483332 116:0.28753033 117:0.61052996 118:0.60082424 119:0.34530109 120:0.65715772 121:0.46620989 122:0.50629997 123:0.70029819 124:0.25499251 125:0.37216082 126:0.58958137 127:0.67227083 128:0.57910103 129:0.60456139 130:0.47694182 131:0.1115441 132:0.69633609 133:0.11610056 134:0.67044824 
0.9825533928326073 0 1:0.51999629 2:0.42517173 3:0.43436977 4:0.51045656 5:0.60985816 6:0.54762739 7:0.52290559 8:0.58558255 9:0.51110673 10:0.43427661 11:0.56228662 12:0.39055237 13:0.62793332 14:0.49457932 15:0.24429052 16:0.59893429 17:0.45112693 18:0.4683519 19:0.44639748 20:0.61504263 21:0.42064357 22:0.58807284 23:0.75043511 24:0.44945881 25:0.57510096 26:0.44711229 27:0.46289828 28:0.58489788 29:0.67315239 30:0.5984177 31:0.42233393 32:0.44172594 33:0.361821 34:0.57969248 35:0.43855348 36:0.66524261 37:0.23210701 38:0.56600475 39:0.42317063 40:0.64099485 41:0.64652956 42:0.52576578 43:0.31318328 44:0.40025297 45:0.78947127 46:0.39678994 47:0.54344368 48:0.47145072 49:0.68346524 50:0.53846216 51:0.3777051 52:0.50762266 53:0.45497555 54:0.42915702 55:0.43966451 56:0.52943957 57:0.65822166 58:0.58995867 59:0.34293219 60:0.46304873 61:0.55831569 62:0.64510268 63:0.55100739 64:0.52527153 65:0.47340792 66:0.47649157 67:0.43762115 68:0.53456634 69:0.53404212 70:0.50499916 71:0.31044608 72:0.74500579 73:0.58463985 74:0.46470904 75:0.66009182 76:0.50485766 77:0.69088817 78:0.43422693 79:0.41616902 80:0.40020049 81:0.52069503 82:0.25362819 83:0.25339729 84:0.7483604 85:0.39289609 86:0.36917198 87:0.63725817 88:0.27902427 89:0.33310977 90:0.55573744 91:0.49399 92:0.49188605 93:0.47725683 94:0.62129813 95:0.39461413 96:0.37433991 97:0.50997502 98:0.54329979 99:0.54417473 100:0.41696903 101:0.61744463 102:0.40408942 103:0.57113546 104:0.52323633 105:0.41164678 106:0.45133647 107:0.44894344 108:0.28747791 109:0.49892041 110:0.49075252 111:0.4540152 112:0.50867343 113:0.17493495 114:0.097908184 115:0.85867065 116:0.47836626 117:0.66329569 118:0.69031936 119:0.38201737 120:0.51616734 121:0.71104848 122:0.49611911 123:0.17029212 124:0.65582252 125:0.38903996 126:0.64530176 127:0.55227876 128:0.90746814 129:0.5998832 130:0.43211189 131:0.50837588 132:0.67623073 133:0.30821469 134:0.77127624 
2.549981372981664 1.600561058329758 1:0.44838259 2:0.26731205 3:0.50253397 4:0.40111277 5:0.68625259 6:0.60023147 7:0.53048992 8:0.57068574 9:0.6220507 10:0.39318165 11:0.56871027 12:0.31822756 13:0.47755623 14:0.48295495 15:0.34110516 16:0.67891508 17:0.31492776 18:0.29620725 19:0.64399129 20:0.81438953 21:0.46236342 22:0.33019727 23:0.56683522 24:0.51139879 25:0.56206232 26:0.46999192 27:0.64343119 28:0.44588763 29:0.58181828 30:0.56786227 31:0.35561723 32:0.27463916 33:0.58973449 34:0.55044043 35:0.46562412 36:0.55939698 37:0.54221624 38:0.45652464 39:0.48670125 40:0.2831088 41:0.70733905 42:0.30466136 43:0.55134177 44:0.34650543 45:0.427232 46:0.38293815 47:0.4447099 48:0.36552963 49:0.69985902 50:0.50889295 51:0.40254706 52:0.60296583 53:0.24452792 54:0.34589085 55:0.53493464 56:0.67837542 57:0.44469628 58:0.57981122 59:0.67752224 60:0.47711542 61:0.59948456 62:0.51856416 63:0.55159897 64:0.42165062 65:0.39565101 66:0.66576725 67:0.70937413 68:0.56448066 69:0.57597506 70:0.53122735 71:0.31908002 72:0.35591441 73:0.63571167 74:0.43242931 75:0.51979536 76:0.66332543 77:0.44709098 78:0.21901603 79:0.56553161 80:0.54705483 81:0.59274685 82:0.33018637 83:0.62327969 84:0.66116345 85:0.44725356 86:0.45833069 87:0.53368348 88:0.23926742 89:0.27983108 90:0.42725512 91:0.74204606 92:0.58687973 93:0.62297225 94:0.33141619 95:0.72797328 96:0.50122803 97:0.76416153 98:0.35797292 99:0.60288471 100:0.51119882 101:0.80665612 102:0.24490446 103:0.78063327 104:0.55569535 105:0.62598318 106:0.61427742 107:0.38441536 108:0.35465384 109:0.56666362 110:0.79011559 111:0.51755434 112:0.53742558 113:0.55231154 114:0.18662629 115:0.63663864 116:0.55655414 117:0.46028623 118:0.67638135 119:0.35260797 120:0.30980021 121:0.65565532 122:0.46629122 123:0.39954615 124:0.38417283 125:0.47558519 126:0.55399764 127:0.47936198 128:0.67706674 129:0.29368219 130:0.50790781 131:0.61080146 132:0.45675686 133:0.36217389 134:0.82582277 
0 1.092564367567739 1:0.36266342 2:0.39050803 3:0.39344105 4:0.62907004 5:0.57659066 6:0.42378333 7:0.51633555 8:0.3786377 9:0.38079181 10:0.50215101 11:0.58201176 12:0.38836616 13:0.56638032 14:0.7255922 15:0.35101274 16:0.61947089 17:0.44085884 18:0.12722465 19:0.60822237 20:0.57755637 21:0.40585634 22:0.55871439 23:0.366703 24:0.36603388 25:0.51412028 26:0.39431748 27:0.40287107 28:0.4246259 29:0.60441279 30:0.31981796 31:0.41033658 32:0.4939321 33:0.408227 34:0.67220676 35:0.59151596 36:0.45469612 37:0.59914231 38:0.45651817 39:0.60718894 40:0.28588781 41:0.52756023 42:0.26269516 43:0.50521296 44:0.36110684 45:0.27818772 46:0.49225989 47:0.69150913 48:0.49688119 49:0.49186835 50:0.5900104 51:0.47566479 52:0.2062248 53:0.35697827 54:0.41796252 55:0.53258193 56:0.57759178 57:0.50038767 58:0.68877178 59:0.4597556 60:0.53053617 61:0.57311273 62:0.55598414 63:0.68075818 64:0.61164731 65:0.24632739 66:0.79935217 67:0.72853607 68:0.61339003 69:0.64935434 70:0.49852446 71:0.43217662 72:0.42484316 73:0.99821562 74:0.43459263 75:0.62849313 76:0.50498635 77:0.67273051 78:0.26276574 79:0.60662657 80:0.36507288 81:0.47351232 82:0.57376772 83:0.60713369 84:0.78026354 85:0.50344872 86:0.55669755 87:0.41034526 88:0.40411028 89:0.35798463 90:0.47209641 91:0.6956374 92:0.35318348 93:0.38081646 94:0.47153482 95:0.85141367 96:0.5791508 97:0.57643872 98:0.54187763 99:0.63721371 100:0.27337557 101:0.51941878 102:0.52729577 103:0.54099417 104:0.42300749 105:0.35799158 106:0.46407691 107:0.39834744 108:0.27681637 109:0.48296946 110:0.69015282 111:0.32183132 112:0.36543596 113:0.37876388 114:0.23854721 115:0.57161307 116:0.30953005 117:0.39250001 118:0.72159779 119:0.39562771 120:0.26417395 121:0.64231825 122:0.17314515 123:0.36462492 124:0.38359684 125:0.43166482 126:0.71285486 127:0.45310035 128:0.86256474 129:0.70443326 130:0.54820752 131:0.36579183 132:0.48465708 133:0.31963468 134:0.49888161 
1.345161041007758 2.993878300440753 1:0.4504945 2:0.27365956 3:0.51572996 4:0.38289809 5:0.41454232 6:0.44386452 7:0.65061146 8:0.52380848 9:0.56891966 10:0.37612876 11:0.36520204 12:0.45369393 13:0.50623816 14:0.35559717 15:0.58769524 16:0.6600703 17:0.55446392 18:0.74719346 19:0.35058284 20:0.57709634 21:0.55974692 22:0.68340957 23:0.74234027 24:0.58729023 25:0.44344628 26:0.12202782 27:0.56473345 28:0.69463688 29:0.67064589 30:0.49364161 31:0.33142188 32:0.50119454 33:0.63248557 34:0.33328328 35:0.59059381 36:0.45520422 37:0.36455187 38:0.48423222 39:0.36826479 40:0.4653441 41:0.52637511 42:0.31071493 43:0.29264212 44:0.55261314 45:0.56005812 46:0.40688065 47:0.4377602 48:0.57258469 49:0.8996011 50:0.49879479 51:0.53758693 52:0.53001761 53:0.42785716 54:0.41417807 55:0.4962382 56:0.41359314 57:0.62909675 58:0.71742332 59:0.52299261 60:0.48553231 61:0.6215899 62:0.44904694 63:0.6320585 64:0.47815648 65:0.33532056 66:0.4597933 67:0.30270091 68:0.30951688 69:0.49794891 70:0.57159352 71:0.61115652 72:0.66095555 73:0.6527344 74:0.32726017 75:0.61831808 76:0.3648394 77:0.78841531 78:0.34370488 79:0.46583056 80:0.36335441 81:0.32184279 82:0.45421955 83:0.58430356 84:0.77461243 85:0.59099609 86:0.35735941 87:0.48202339 88:0.43776369 89:0.34672105 90:0.55884981 91:0.37863913 92:0.59892458 93:0.30023551 94:0.50043547 95:0.48021999 96:0.47977915 97:0.57718825 98:0.61511201 99:0.35835189 100:0.4956184 101:0.62289917 102:0.37649778 103:0.58725536 104:0.45315707 105:0.35799432 106:0.55338484 107:0.45279545 108:0.22946951 109:0.62723255 110:0.66901511 111:0.56913835 112:0.53822416 113:0.25567693 114:0.24212018 115:0.39433694 116:0.42568928 117:0.49401328 118:0.65870368 119:0.36538848 120:0.35514545 121:0.64871722 122:0.54192501 123:0.37391374 124:0.5368886 125:0.27139452 126:0.62219745 127:0.57610804 128:0.67395383 129:0.65364039 130:0.36998945 131:0.39084658 132:0.59976488 133:0.2387698 134:0.67938221 
5.087896421376744 2.9207040149253 1:0.62283272 2:0.6396203 3:0.62363577 4:0.3668341 5:0.43644652 6:0.45937255 7:0.55164802 8:0.48115835 9:0.50712007 10:0.65210754 11:0.49113014 12:0.36744702 13:0.31102619 14:0.47047222 15:0.6761182 16:0.4690502 17:0.43779159 18:0.61225921 19:0.48903498 20:0.65843457 21:0.60661197 22:0.65874529 23:0.70028973 24:0.64533383 25:0.31423765 26:0.55849898 27:0.30044967 28:0.43280748 29:0.48866761 30:0.29941824 31:0.53286475 32:0.48567522 33:0.49362019 34:0.43575332 35:0.49866337 36:0.38709506 37:0.55583417 38:0.8386873 39:0.60563147 40:0.44316182 41:0.50002354 42:0.3815178 43:0.52376819 44:0.42711362 45:0.485412 46:0.27216107 47:0.60332268 48:0.52569675 49:0.78600609 50:0.37294945 51:0.566324 52:0.62606806 53:0.46824676 54:0.54250836 55:0.38371512 56:0.41134608 57:0.59362751 58:0.57420969 59:0.40489301 60:0.37087443 61:0.71929419 62:0.67889577 63:0.50336808 64:0.43141976 65:0.68412131 66:0.57596481 67:0.45197448 68:0.4755109 69:0.73909676 70:0.53843957 71:0.45023412 72:0.79397666 73:0.60671031 74:0.5140118 75:0.31903955 76:0.38418359 77:0.51592833 78:0.64586282 79:0.58706206 80:0.58107132 81:0.33031103 82:0.21272598 83:0.58529556 84:0.71980298 85:0.56776178 86:0.43204346 87:0.5446859 88:0.56991035 89:0.35603875 90:0.41888922 91:0.37479851 92:0.74608701 93:0.51303756 94:0.64237928 95:0.52430689 96:0.35147631 97:0.66676253 98:0.34487003 99:0.51084715 100:0.553846 101:0.57817823 102:0.47946128 103:0.614932 104:0.2071362 105:0.57550728 106:0.66346842 107:0.28201583 108:0.37148908 109:0.4280867 110:0.49750203 111:0.56061256 112:0.55628306 113:0.44430411 114:0.25676307 115:0.47626847 116:0.5722779 117:0.35649866 118:0.77442139 119:0.44279653 120:0.33873966 121:0.5308677 122:0.58920467 123:0.37490642 124:0.49326655 125:0.56059593 126:0.49823594 127:0.42320049 128:0.80858386 129:0.67507231 130:0.34894282 131:0.75749671 132:0.44585028 133:0.44706112 134:0.87037575 
2.06725851053906 2.639758856063937 1:0.44524473 2:0.45155171 3:0.53287959 4:0.4604902 5:0.49618942 6:0.56394708 7:0.41564479 8:0.46709698 9:0.40800309 10:0.43293321 11:0.55859929 12:0.30885521 13:0.47709984 14:0.46554968 15:0.62008274 16:0.55146676 17:0.55576622 18:0.4741002 19:0.56658334 20:0.59867924 21:0.51419085 22:0.40862149 23:0.7714774 24:0.44809809 25:0.6945188 26:0.35612303 27:0.65078175 28:0.42213359 29:0.52261662 30:0.45939225 31:0.38126028 32:0.57306039 33:0.53305113 34:0.70144159 35:0.72638774 36:0.29261398 37:0.49232993 38:0.50168777 39:0.63894123 40:0.16652171 41:0.59461838 42:0.43961132 43:0.2751019 44:0.47563565 45:0.3572576 46:0.41928038 47:0.40222737 48:0.6739822 49:0.58683729 50:0.50638992 51:0.33539528 52:0.30222127 53:0.54170132 54:0.43988836 55:0.30302116 56:0.45852485 57:0.43839377 58:0.73010445 59:0.57606512 60:0.21967398 61:0.53618199 62:0.59739161 63:0.6270327 64:0.37548327 65:0.75215918 66:0.45965356 67:0.38239864 68:0.62935799 69:0.61963248 70:0.40645552 71:0.38198832 72:0.60778224 73:0.47139227 74:0.64741755 75:0.7957319 76:0.76550764 77:0.62976253 78:0.40278134 79:0.30793616 80:0.73992628 81:0.66574103 82:0.44194487 83:0.53465003 84:0.60681677 85:0.35030687 86:0.29891345 87:0.38802943 88:0.62539417 89:0.37636152 90:0.50645661 91:0.34386492 92:0.3694495 93:0.42240503 94:0.57415694 95:0.54197508 96:0.5765776 97:0.60140401 98:0.73488373 99:0.66876191 100:0.24999098 101:0.61467254 102:0.51283944 103:0.6241644 104:0.44272709 105:0.47301668 106:0.33502078 107:0.56270599 108:0.37448016 109:0.54227453 110:0.67467302 111:0.74466866 112:0.48886693 113:0.6108138 114:0.46899617 115:0.5116871 116:0.76820242 117:0.26476222 118:0.44047537 119:0.52755374 120:0.31310394 121:0.55709672 122:0.40547904 123:0.63421166 124:0.29613411 125:0.3451272 126:0.60556173 127:0.67962807 128:0.56741709 129:0.51754314 130:0.49974072 131:0.054001857 132:0.71375865 133:0.12348428 134:0.5412392 
2.144742072351475 2.803944601533876 1:0.69040716 2:0.44276109 3:0.37009352 4:0.582578 5:0.60563928 6:0.47686946 7:0.51700717 8:0.48885596 9:0.50170797 10:0.48692137 11:0.53680825 12:0.32629693 13:0.51178241 14:0.43957123 15:0.43385145 16:0.34363717 17:0.3987484 18:0.7069509 19:0.45098108 20:0.62113583 21:0.67952102 22:0.25154436 23:0.65408343 24:0.41463539 25:0.2835767 26:0.59324718 27:0.55774033 28:0.75075436 29:0.53333789 30:0.39560172 31:0.27636406 32:0.55012345 33:0.42186764 34:0.50781155 35:0.59227514 36:0.561387 37:0.39587206 38:0.67021006 39:0.27741274 40:0.46164796 41:0.53637654 42:0.40367556 43:0.38633403 44:0.48122588 45:0.4319596 46:0.41591382 47:0.41930482 48:0.66264707 49:0.46921128 50:0.6443907 51:0.35227612 52:0.34281528 53:0.44536021 54:0.32038561 55:0.71119899 56:0.3423157 57:0.75077093 58:0.67809242 59:0.55802488 60:0.40947908 61:0.31108192 62:0.64929664 63:0.58430076 64:0.56217402 65:0.39547139 66:0.46903422 67:0.58798116 68:0.45377609 69:0.39738387 70:0.48000482 71:0.46698701 72:0.45773837 73:0.54941756 74:0.57731479 75:0.75338227 76:0.44350776 77:0.67000288 78:0.48640746 79:0.64327192 80:0.45257246 81:0.38511592 82:0.40100604 83:0.33501399 84:0.75393385 85:0.52028686 86:0.34993115 87:0.46547589 88:0.53542978 89:0.34503087 90:0.62263745 91:0.61738855 92:0.22802931 93:0.58265543 94:0.34331188 95:0.64106023 96:0.74489534 97:0.40446278 98:0.67562801 99:0.47582978 100:0.50352371 101:0.45961681 102:0.36237639 103:0.58236361 104:0.51373655 105:0.55250323 106:0.54680997 107:0.48180082 108:0.31317195 109:0.52089536 110:0.27842999 111:0.5156461 112:0.63586819 113:0.24409951 114:0.63529909 115:0.55593544 116:0.32611328 117:0.58891124 118:0.61347675 119:0.42919242 120:0.63810366 121:0.64570504 122:0.560794 123:0.85585576 124:0.32936871 125:0.52311027 126:0.80793875 127:0.52432674 128:0.87097889 129:0.64016283 130:0.5787707 131:0.16961481 132:0.56551421 133:0.34827211 134:0.60382503 
1.215821627835406 1.142488284108783 1:0.59924608 2:0.25807261 3:0.57091713 4:0.24488877 5:0.68920082 6:0.29915178 7:0.44870314 8:0.5553059 9:0.28477323 10:0.38924858 11:0.21577476 12:0.662772 13:0.5906502 14:0.14065394 15:0.49520487 16:0.407657 17:0.33838889 18:0.72501814 19:0.48736283 20:0.54315752 21:0.54713815 22:0.53062367 23:0.48861343 24:0.49750626 25:0.077099182 26:0.39249632 27:0.42305705 28:0.41444245 29:0.91577077 30:0.32967708 31:0.55648851 32:0.43181616 33:0.6942848 34:0.69568592 35:0.49255249 36:0.59030515 37:0.10240175 38:0.58002162 39:0.37701848 40:0.5444442 41:0.4452565 42:0.59727204 43:0.36336219 44:0.29299805 45:0.71707344 46:0.44468907 47:0.45551115 48:0.61639887 49:0.58792919 50:0.4848991 51:0.45071298 52:0.39997867 53:0.35079798 54:0.18492031 55:0.78868997 56:0.37662524 57:0.48792642 58:0.42913735 59:0.58632433 60:0.12697519 61:0.38016006 62:0.23996952 63:0.15526286 64:0.28513858 65:0.45367938 66:0.25502381 67:0.21109156 68:0.60724825 69:0.49711099 70:0.56419277 71:0.53899819 72:0.31027818 73:0.38915917 74:0.55379003 75:0.68117309 76:0.52152526 77:0.74576646 78:0.38378325 79:0.3924858 80:0.25127107 81:0.44641602 82:0.29897922 83:0.77705485 84:0.47375804 85:0.24265552 86:0.57828295 87:0.66842723 88:0.54305708 89:0.57009703 90:0.41657031 91:0.8133111 92:0.46545795 93:0.79002184 94:0.97409564 95:0.51765901 96:0.65392244 97:0.54899788 98:0.49903378 99:0.4531962 100:0.25691998 101:0.79773909 102:0.60233533 103:0.4467701 104:0.48356691 105:0.53273714 106:0.58392572 107:0.39855397 108:0.31997287 109:0.42779556 110:0.82852525 111:0.55877382 112:0.67594236 113:0.41567871 114:0.6014356 115:0.72751552 116:0.31946033 117:0.34595209 118:0.54489809 119:0.4163748 120:0.66644853 121:0.53917015 122:0.21268164 123:0.93722278 124:0.3640705 125:0.49485046 126:0.33429739 127:0.35627529 128:0.34428149 129:0.52612847 130:0.65570372 131:0.68011516 132:0.5909245 133:0.18960641 134:0.38786837 
2.050145622104742 1.335592012653589 1:0.479927 2:0.73997366 3:0.48243788 4:0.5959028 5:0.51861674 6:0.59807897 7:0.20900658 8:0.43720472 9:0.43596843 10:0.43273413 11:0.49826357 12:0.3964653 13:0.56333458 14:0.46892279 15:0.54085803 16:0.40022397 17:0.37898302 18:0.36587238 19:0.54251128 20:0.40934891 21:0.47315818 22:0.49562642 23:0.70359749 24:0.51243228 25:0.45844951 26:0.57006931 27:0.57538879 28:0.64919627 29:0.4107534 30:0.4718574 31:0.36139724 32:0.54114854 33:0.70516574 34:0.70329225 35:0.3451215 36:0.50134325 37:0.37690648 38:0.60551667 39:0.50892019 40:0.48782185 41:0.70899463 42:0.61757481 43:0.43262723 44:0.3650336 45:0.4985131 46:0.50025904 47:0.51301438 48:0.69509989 49:0.78146571 50:0.45221505 51:0.59274441 52:0.32013038 53:0.39255625 54:0.29311171 55:0.49430549 56:0.52495354 57:0.7692126 58:0.44047433 59:0.55680114 60:0.57866865 61:0.46520042 62:0.57383072 63:0.25798038 64:0.37239373 65:0.41878325 66:0.65809643 67:0.44689718 68:0.62224269 69:0.49559492 70:0.75853801 71:0.52077395 72:0.4272739 73:0.59307307 74:0.63843125 75:0.4742949 76:0.30730575 77:0.35008088 78:0.595752 79:0.38705161 80:0.44868779 81:0.6295523 82:0.52516878 83:0.62459725 84:0.39936468 85:0.20451312 86:0.34418687 87:0.71326679 88:0.5258742 89:0.63636363 90:0.30033994 91:0.64841861 92:0.31084666 93:0.78321999 94:0.61399144 95:0.2178382 96:0.44491389 97:0.44892582 98:0.37447447 99:0.78059995 100:0.61948699 101:0.65897459 102:0.45758495 103:0.68064892 104:0.40776113 105:0.46209991 106:0.72184461 107:0.38938907 108:0.26903155 109:0.52967912 110:0.7359091 111:0.60610336 112:0.3489275 113:0.33925068 114:0.42918268 115:0.7835744 116:0.38936809 117:0.42450824 118:0.4895927 119:0.30260965 120:0.49082214 121:0.46431464 122:0.23002189 123:0.68421 124:0.52700818 125:0.57666194 126:0.38705364 127:0.49756959 128:0.5653103 129:0.29351446 130:0.46686941 131:0.63612121 132:0.592704 133:0.36928141 134:0.81559527 
3.04612894598321 2.169299107689745 1:0.49316287 2:0.55191088 3:0.53170723 4:0.49614626 5:0.69696218 6:0.61823958 7:0.57711405 8:0.61712092 9:0.48317409 10:0.46146595 11:0.5466212 12:0.42667738 13:0.5262031 14:0.55509591 15:0.56636357 16:0.81829554 17:0.46811187 18:0.70772499 19:0.42081702 20:0.48362121 21:0.60622817 22:0.45568627 23:0.50255454 24:0.63899434 25:0.29548311 26:0.52075976 27:0.45983094 28:0.23453596 29:0.34794965 30:0.19562431 31:0.43926871 32:0.2911886 33:0.42319193 34:0.31048605 35:0.53403604 36:0.51399064 37:0.28562275 38:0.49403349 39:0.55717498 40:0.6180371 41:0.41095439 42:0.62911385 43:0.26791006 44:0.36570302 45:0.89418304 46:0.63968837 47:0.56509775 48:0.43283215 49:0.73104501 50:0.61320531 51:0.28306073 52:0.53777301 53:0.60307539 54:0.3170653 55:0.40222329 56:0.38986036 57:0.45982778 58:0.59872615 59:0.73024911 60:0.42177334 61:0.43013924 62:0.5182808 63:0.3283006 64:0.44157594 65:0.6549263 66:0.64950979 67:0.28908288 68:0.53235197 69:0.80327618 70:0.5581696 71:0.56124103 72:0.65980548 73:0.40784404 74:0.48100111 75:0.9222762 76:0.48116434 77:0.36930054 78:0.51075906 79:0.6875633 80:0.56492192 81:0.66895616 82:0.42329389 83:0.51220208 84:0.5064435 85:0.42570931 86:0.35603082 87:0.71841466 88:0.49238095 89:0.4433867 90:0.03689098 91:0.58344436 92:0.62818933 93:0.52847087 94:0.3226791 95:0.19517381 96:0.53318125 97:0.25344437 98:0.33871886 99:0.4695268 100:0.3227945 101:0.65952307 102:0.49097884 103:0.59089869 104:0.55705863 105:0.55698657 106:0.18290155 107:0.32628411 108:0.1892603 109:0.41729903 110:0.49087626 111:0.46700832 112:0.57129264 113:0.11079626 114:0.36998564 115:0.73341709 116:0.28333229 117:0.23639208 118:0.69466013 119:0.40629351 120:0.52017874 121:0.75219548 122:0.17829518 123:0.7211566 124:0.87384236 125:0.60704523 126:0.43552166 127:0.43506524 128:0.81258982 129:0.33863637 130:0.4935281 131:0.48975101 132:0.5696215 133:0.21459062 134:0.619717 
0.7046774039973434 1.632342750897872 1:0.43706614 2:0.85229498 3:0.16731001 4:0.52312726 5:0.40357462 6:0.54423755 7:0.50583583 8:0.83243984 9:0.40123484 10:0.67778701 11:0.44509715 12:0.62784576 13:0.54685491 14:0.46733665 15:0.42687118 16:0.67692351 17:0.64823228 18:0.16973783 19:0.39303139 20:0.57474655 21:0.25326058 22:0.23562266 23:0.76207614 24:0.72492772 25:0.58454901 26:0.39752188 27:0.6075902 28:0.4561508 29:0.44350743 30:0.35096255 31:0.5170027 32:0.45022619 33:0.57588351 34:0.62340182 35:0.68852568 36:0.444511 37:0.67820954 38:0.4857021 39:0.55792564 40:0.35649505 41:0.39459628 42:0.5549159 43:0 44:0.51594639 45:0.87663305 46:0.68651754 47:0.54610831 48:0.63217682 49:0.48318794 50:0.47547075 51:0.57164419 52:0.1419459 53:0.33788931 54:0.35655627 55:0.413214 56:0.80351353 57:0.49845722 58:0.65305954 59:0.39167508 60:0.21942408 61:0.014159117 62:0.49330255 63:0.65567005 64:0.18044111 65:0.60337412 66:0.30183783 67:0.29434019 68:0.28667748 69:0.53694433 70:0.51894802 71:0.57316166 72:0.21369128 73:0.31528038 74:0.49931887 75:0.44959289 76:0.61646146 77:0.40266389 78:0.54111248 79:0.50628865 80:0.71063602 81:0.27993026 82:0.53734374 83:0.81044465 84:0.51428539 85:0.61824548 86:0.73436427 87:0.73909014 88:0.70886123 89:0.41405669 90:0.30196765 91:0.80262107 92:0.45787209 93:0.620386 94:0.78632116 95:0.25401396 96:0.27049196 97:0.50638968 98:0.15703492 99:0.60255802 100:0.44192785 101:0.71145076 102:0.68076313 103:0.60411888 104:0.30013373 105:0.59144539 106:0.51867145 107:0.52611428 108:0.21246266 109:0.64439601 110:0.62781549 111:0.66737401 112:0.8028841 113:0.30093613 114:0.4435572 115:0.70001924 116:0.2752265 117:0.38202643 118:0.65176433 119:0.50759852 120:0.42892817 121:0.84057188 122:0.14663008 123:0.82070643 124:0.32883263 125:0.66137666 126:0.41028893 127:0.3670277 128:0.57164478 129:0.50053376 130:0.53238922 131:0.51506704 132:0.32862231 133:0.31064186 134:0.29084492 
1.557736067818484 2.195689303569627 1:0.43423468 2:0.60435617 3:0.22843057 4:0.43844464 5:0.53944927 6:0.48661068 7:0.55238271 8:0.72148049 9:0.56372124 10:0.60805702 11:0.61470759 12:0.32208037 13:0.47185329 14:0.91471422 15:0.71064574 16:0.51288569 17:0.56344032 18:0.54738736 19:0.55075943 20:0.70734608 21:0.60361117 22:0.13432273 23:0.68319178 24:0.43591076 25:0.26904961 26:0.40934625 27:0.51529223 28:0.55343294 29:0.58390129 30:0.48272723 31:0.39746171 32:0.73501533 33:0.53588879 34:0.53433174 35:0.80105209 36:0.30944058 37:0.55154175 38:0.56026649 39:0.39263248 40:0.38964912 41:0.41893783 42:0.58836961 43:0.63086426 44:0.45386079 45:0.79990649 46:0.62206382 47:0.62047499 48:0.47081003 49:0.65935796 50:0.60060716 51:0.24360026 52:0.39972135 53:0.53203392 54:0.38509426 55:0.67388165 56:0.57751942 57:0.33474666 58:0.59466356 59:0.51557279 60:0.1180907 61:0.52455938 62:0.69493997 63:0.56227154 64:0.35256445 65:0.57899565 66:0.57872361 67:0.59121066 68:0.55847824 69:0.4495168 70:0.46028003 71:0.36312255 72:0.14710025 73:0.38057879 74:0.65517336 75:0.57011342 76:0.57577747 77:0.71385157 78:0.43038547 79:0.58642858 80:0.60599846 81:0.37679845 82:0.33232829 83:0.75117999 84:0.45658302 85:0.48890811 86:0.81260997 87:0.60544705 88:0.66180062 89:0.51790899 90:0.29604724 91:0.63737839 92:0.66011238 93:0.70344162 94:1 95:0.44801888 96:0.47571939 97:0.5794397 98:0.30591339 99:0.47306946 100:0.41957128 101:0.70525235 102:0.7055971 103:0.50056648 104:0.17326215 105:0.39823177 106:0.50477403 107:0.37149969 108:0.38099661 109:0.6321128 110:0.83012426 111:0.48705691 112:0.39273426 113:0.64127803 114:0.47575656 115:0.49495709 116:0.25377926 117:0.27672899 118:0.55396044 119:0.47310475 120:0.59926921 121:0.40106189 122:0.21622391 123:0.65096807 124:0.29634565 125:0.77661359 126:0.48936227 127:0.38928366 128:0.72398859 129:0.56949085 130:0.70941371 131:0.78280169 132:0.40334314 133:0.49496588 134:0.58441734 
2.183819375170871 2.136156367974013 1:0.32448575 2:0.5647701 3:0.38447952 4:0.48060641 5:0.70113307 6:0.47184306 7:0.42108861 8:0.40251788 9:0.46034989 10:0.38495865 11:0.39455384 12:0.63568497 13:0.42665216 14:0.57698321 15:0.38612562 16:0.60057461 17:0.67746574 18:0.62833881 19:0.51287991 20:0.55017847 21:0.54783821 22:0.41310257 23:0.49770308 24:0.49647596 25:0.34400514 26:0.39011389 27:0.63744944 28:0.37423614 29:0.43435234 30:0.51341093 31:0.34590971 32:0.63040912 33:0.39474472 34:0.5680865 35:0.59341216 36:0.55266905 37:0.53654879 38:0.11039971 39:0.75202185 40:0.62692988 41:0.48302653 42:0.50585431 43:0.17515674 44:0.5639866 45:0.55873877 46:0.70380306 47:0.74600106 48:0.45260063 49:0.58018035 50:0.59496492 51:0.54040736 52:0.60334951 53:0.51529568 54:0.35350448 55:0.3350971 56:0.41983709 57:0.56728834 58:0.43456131 59:0.2297883 60:0.44940519 61:0.57735634 62:0.45264831 63:0.64524275 64:0.38522565 65:0.63462996 66:0.56647497 67:0.55600137 68:0.46937841 69:0.65557623 70:0.45193657 71:0.37183183 72:0.30899644 73:0.80019557 74:0.68090975 75:0.77786171 76:0.62710756 77:0.32096598 78:0.60826921 79:0.4486194 80:0.340913 81:0.13074315 82:0.37204093 83:0.6577099 84:0.58343643 85:0.31676593 86:0.51251084 87:0.65843242 88:0.57893795 89:0.32491404 90:0.22924121 91:0.44706634 92:0.51613581 93:0.87523472 94:0.54406422 95:0.52349806 96:0.2569876 97:0.48481077 98:0.18372932 99:0.69465882 100:0.25303727 101:0.6015262 102:0.3889519 103:0.77000666 104:0.51680505 105:0.4820478 106:0.79892331 107:0.31097531 108:0.36428407 109:0.44220871 110:0.50843501 111:0.62386572 112:0.54130602 113:0.53798443 114:0.36797202 115:0.68107146 116:0.41583356 117:0.42012355 118:0.35617736 119:0.49930578 120:0.53766322 121:0.56511122 122:0.24143338 123:0.88330495 124:0.72955644 125:0.55879378 126:0.27411526 127:0.43199059 128:0.67622107 129:0.26399887 130:0.52111554 131:0.45862454 132:0.71682072 133:0.34126687 134:0.52076018 
1.111533558322262 0.2154238100443247 1:0.40012991 2:0.46312696 3:0.44507197 4:0.66221362 5:0.7014066 6:0.61947769 7:0.38030264 8:0.56101555 9:0.39389089 10:0.64038944 11:0.39755371 12:0.25006595 13:0.653853 14:0.46053812 15:0.50005472 16:0.41694078 17:0.31411892 18:0.51714271 19:0.43121746 20:0.42522368 21:0.68306714 22:0.31726581 23:0.71041447 24:0.25933728 25:0.56622529 26:0.63249952 27:0.060180806 28:0.36881977 29:0.66736513 30:0.38523206 31:0.38532296 32:0.23812032 33:0.6729247 34:0.26398221 35:0.68402272 36:0.71065921 37:0.2092075 38:0.52947342 39:0.47718227 40:0.49454057 41:0.37942696 42:0.53296679 43:0.59429228 44:0.24224931 45:0.45433298 46:0.13107355 47:0.43775785 48:0.41369048 49:0.59120286 50:0.67006934 51:0.43360466 52:0.42266977 53:0.53528029 54:0.50879198 55:0.45314705 56:0.30044416 57:0.56810296 58:0.52761799 59:0.38544285 60:0.39304692 61:0.4771626 62:0.15057857 63:0.51169264 64:0.25478172 65:0.42046306 66:0.34421924 67:0.50627279 68:0.40883908 69:0.43146312 70:0.33144018 71:0.49034545 72:0.81137955 73:0.3643676 74:0.39855331 75:0.76254481 76:0.18889104 77:0.37783489 78:0.55532008 79:0.65437257 80:0.42049912 81:0.37740391 82:0.63877124 83:0.42842123 84:0.86342669 85:0.48572788 86:0.46626788 87:0.65652925 88:0.51853997 89:0.45670554 90:0.28593302 91:0.69623733 92:0.1375954 93:0.55813527 94:0.50446951 95:0.40692085 96:0.493458 97:0.51201957 98:0.31022555 99:0.52251649 100:0.36203352 101:0.65336883 102:0.58300465 103:0.39445093 104:0.52544582 105:0.18751764 106:0.4708862 107:0.49983165 108:0.10165329 109:0.43953258 110:0.49246058 111:0.68267852 112:0.48258066 113:0.48303923 114:0.1891202 115:0.69528401 116:0.27807027 117:0.37990928 118:0.52846372 119:0.48475149 120:0.6645875 121:0.67687619 122:0.41966382 123:0.78024203 124:0.81635082 125:0.45657185 126:0.48387244 127:0.47544047 128:0.76828969 129:0.44586554 130:0.56560647 131:0.43429744 132:0.68775791 133:0.46741027 134:0.56367671 
2.006139165288285 2.341281799160049 1:0.36338171 2:0.5388934 3:0.42077988 4:0.34351492 5:0.56291604 6:0.36195803 7:0.53318322 8:0.60032493 9:0.30018711 10:0.51916152 11:0.50051326 12:0.36722437 13:0.54565597 14:0.47424507 15:0.4893229 16:0.30913231 17:0.34041628 18:0.46848148 19:0.56685251 20:0.33935291 21:0.45767888 22:0.58483166 23:0.45694166 24:0.59278184 25:0.21879245 26:0.19469182 27:0.55858529 28:0.6411801 29:0.67722219 30:0.28415644 31:0.50160813 32:0.5258131 33:0.73964542 34:0.24110311 35:0.45581418 36:0.56371552 37:0.72983795 38:0.52507865 39:0.5577805 40:0.53698117 41:0.5116623 42:0.44551942 43:0.68436843 44:0.52849549 45:0.50722736 46:0.64448202 47:0.49220285 48:0.49278808 49:0.55499065 50:0.34717873 51:0.4449563 52:0.66203284 53:0.58927667 54:0.38219124 55:0.33935168 56:0.36142683 57:0.30119637 58:0.53868347 59:0.372697 60:0.33757815 61:0.55599904 62:0.37866205 63:0.66331172 64:0.28470844 65:0.70810753 66:0.50531852 67:0.55045599 68:0.44346175 69:0.5104112 70:0.44106442 71:0.54471236 72:0.26307651 73:0.55616468 74:0.50133407 75:0.51737744 76:0.73247242 77:0.38546717 78:0.61398095 79:0.47394493 80:0.59204423 81:0.35481942 82:0.5336619 83:0.81718278 84:0.62585491 85:0.45754099 86:0.47642016 87:0.56479585 88:0.5429498 89:0.41989946 90:0.43612069 91:0.5446226 92:0.42221028 93:0.64463758 94:0.31901109 95:0.46464789 96:0.56110114 97:0.44501722 98:0.27864727 99:0.73374081 100:0.51540041 101:0.57562417 102:0.32098997 103:0.63076711 104:0.58040965 105:0.43927747 106:0.69364029 107:0.44120103 108:0.33616045 109:0.67858899 110:0.61267829 111:0.58757275 112:0.49458584 113:0.56146061 114:0.40893385 115:0.7341916 116:0.43431425 117:0.35267434 118:0.50361198 119:0.50856441 120:0.39356351 121:0.38653567 122:0.093819916 123:0.88527465 124:0.54533386 125:0.8317892 126:0.54390335 127:0.41500601 128:0.63616806 129:0.19759487 130:0.60899705 131:0.57968384 132:0.586676 133:0.41054311 134:0.71265376 
1.867450193992192 2.064150060342162 1:0.48690674 2:0.71699989 3:0.46402997 4:0.51163393 5:0.5390467 6:0.59912401 7:0.50074852 8:0.76393467 9:0.39509737 10:0.52440476 11:0.55924374 12:0.58778781 13:0.40458226 14:0.76873541 15:0.41028222 16:0.51834697 17:0.57813823 18:0.23811106 19:0.49327242 20:0.4328962 21:0.60478556 22:0.46730661 23:0.69405317 24:0.51036501 25:0.32680896 26:0.63256472 27:0.39282399 28:0.19830729 29:0.5949834 30:0.24190727 31:0.30911833 32:0.71987605 33:0.63856965 34:0.57518041 35:0.53956509 36:0.40541363 37:0.49278206 38:0.505732 39:0.2165039 40:0.29742283 41:0.40037689 42:0.45605054 43:0.40893096 44:0.35972619 45:0.34904003 46:0.4039295 47:0.61168975 48:0.76543748 49:0.49477017 50:0.46626666 51:0.53661507 52:0.049161073 53:0.30343071 54:0.31227198 55:0.62374765 56:0.36026946 57:0.48669457 58:0.45729816 59:0.59146786 60:0.43288574 61:0.43264377 62:0.50256568 63:0.40537146 64:0.51270467 65:0.44285077 66:0.48645124 67:0.46563977 68:0.54352218 69:0.50507212 70:0.42892653 71:0.54157549 72:0.33183423 73:0.3913379 74:0.71088165 75:0.57437807 76:0.54629487 77:0.49954298 78:0.53698385 79:0.64148772 80:0.23197706 81:0.6579113 82:0.60987657 83:0.77672201 84:0.47754416 85:0.4217039 86:0.40900615 87:0.76672357 88:0.52390426 89:0.4205417 90:0.37145883 91:0.67873889 92:0.48691946 93:0.51506597 94:0.88874489 95:0.3489691 96:0.35797319 97:0.45632723 98:0.66044497 99:0.60969818 100:0.36158702 101:0.76875919 102:0.54698044 103:0.43170649 104:0.65316755 105:0.27230957 106:0.69054937 107:0.40642262 108:0.22298419 109:0.59940356 110:0.61057025 111:0.54167092 112:0.69165605 113:0.4349589 114:0.69546974 115:0.53678364 116:0.37117162 117:0.31681898 118:0.51037341 119:0.40231887 120:0.34949273 121:0.52837193 122:0.28311732 123:0.65340471 124:0.38912743 125:0.46949756 126:0.45224583 127:0.43735957 128:0.73784542 129:0.56614453 130:0.64357668 131:0.60360438 132:0.40504512 133:0.61677939 134:0.64132947 
1.126453632196101 1.035231159911969 1:0.58878517 2:0.40068376 3:0.54864562 4:0.51519853 5:0.68190801 6:0.84074962 7:0.72501767 8:0.34939256 9:0.58169293 10:0.39643312 11:0.50736535 12:0.50172514 13:0.6316433 14:0.68392771 15:0.20030913 16:0.53199726 17:0.48469976 18:0.27869621 19:0.67723161 20:0.52704525 21:0.48495114 22:0.51974887 23:0.66184437 24:0.48683617 25:0.6244306 26:0.66098845 27:0.16536857 28:0.77983421 29:0.60556608 30:0.5624631 31:0.40759754 32:0.36805654 33:0.43061069 34:0.6564824 35:0.53027362 36:0.26584658 37:0.36874336 38:0.56870258 39:0.56223708 40:0.47309694 41:0.61304897 42:0.49217844 43:0.33677989 44:0.36818588 45:0.70426786 46:0.38366842 47:0.50296718 48:0.44775069 49:0.79001874 50:0.52376181 51:0.54154247 52:0.51804703 53:0.25046876 54:0.39452794 55:0.53676927 56:0.48105812 57:0.54825068 58:0.71280605 59:0.4608272 60:0.37572983 61:0.47387654 62:0.1607334 63:0.6892432 64:0.4355804 65:0.2086577 66:0.71900427 67:0.43418178 68:0.44766751 69:0.70755529 70:0.55267102 71:0.53673041 72:0.46647957 73:0.36647001 74:0.62561357 75:0.41536173 76:0.64793795 77:0.6514501 78:0.47850481 79:0.70057535 80:0.46509093 81:0.58270711 82:0.49886683 83:0.50049615 84:0.68421972 85:0.29062977 86:0.31424847 87:0.61951733 88:0.52784032 89:0.5704971 90:0.5780015 91:0.58980668 92:0.21709916 93:0.50163239 94:0.90993226 95:0.30528259 96:0.59757763 97:0.30096343 98:0.451976 99:0.6930635 100:0.26042449 101:0.71453959 102:0.42536387 103:0.46125504 104:0.36603448 105:0.328417 106:0.43591064 107:0.46365634 108:0.3788363 109:0.6359731 110:0.4845044 111:0.50387537 112:0.44600514 113:0.22747913 114:0.54273778 115:0.62106407 116:0.15727386 117:0.41977289 118:0.68159819 119:0.41864094 120:0.61723208 121:0.54807097 122:0.33981994 123:0.57890618 124:0.63426203 125:0.35170925 126:0.48893544 127:0.72546589 128:0.75925666 129:0.40839094 130:0.55593216 131:0.52331495 132:0.62472236 133:0.39183363 134:0.67183673 
1.275004825520791 2.008032038407306 1:0.34883964 2:0.39839169 3:0.59405726 4:0.53560728 5:0.64428765 6:0.64136034 7:0.28499252 8:0.56847441 9:0.24769039 10:0.33286721 11:0.62698936 12:0.48124859 13:0.54455221 14:0.63917565 15:0.45617408 16:0.68263966 17:0.49575621 18:0.34435508 19:0.53994739 20:0.58323556 21:0.465361 22:0.37389371 23:0.5583151 24:0.53223461 25:0.42447835 26:0.45138317 27:0.680718 28:0.51563931 29:0.34002092 30:0.3820225 31:0.42170998 32:0.4844113 33:0.55480558 34:0.46062559 35:0.42909575 36:0.57950687 37:0.45935053 38:0.59514177 39:0.48029071 40:0.48698974 41:0.52756149 42:0.38812017 43:0.64860773 44:0.46820679 45:0.58658093 46:0.55646831 47:0.44328433 48:0.34931064 49:0.57060951 50:0.29633152 51:0.51330882 52:0.42987713 53:0.31450322 54:0.45145977 55:0.47111356 56:0.70345318 57:0.43687707 58:0.5710274 59:0.50319988 60:0.59542638 61:0.64728034 62:0.44847551 63:0.47617835 64:0.41899708 65:0.54377407 66:0.454723 67:0.70611435 68:0.40902358 69:0.60584587 70:0.63870686 71:0.41088277 72:0.54162115 73:0.46475106 74:0.4855001 75:0.63068014 76:0.3530038 77:0.50106382 78:0.61564368 79:0.478807 80:0.50787282 81:0.51209438 82:0.51810467 83:0.47579157 84:0.68788648 85:0.25460482 86:0.50665182 87:0.61846375 88:0.63899225 89:0.47698754 90:0.49392456 91:0.38653427 92:0.30405328 93:0.54301196 94:0.49708724 95:0.65331942 96:0.50987875 97:0.51782662 98:0.31201494 99:0.53532839 100:0.55575413 101:0.64950329 102:0.32826248 103:0.84990686 104:0.38326472 105:0.42069387 106:0.53052443 107:0.34163514 108:0.33747649 109:0.51048821 110:0.48041153 111:0.40859419 112:0.38303083 113:0.28896058 114:0.60372448 115:0.67889351 116:0.4203012 117:0.71764249 118:0.4494805 119:0.29015076 120:0.42863059 121:0.29020095 122:0.36936909 123:0.44886616 124:0.49179393 125:0.52502978 126:0.5729298 127:0.72492468 128:0.73374826 129:0.29752642 130:0.61026365 131:0.41889703 132:0.6156621 133:0.33557808 134:0.78626364 
3.607741908183721 1.863149684282437 1:0.56062001 2:0.58168632 3:0.47619736 4:0.3405183 5:0.58286238 6:0.79237789 7:0.310274 8:0.43298197 9:0.15726167 10:0.43585366 11:0.60554123 12:0.46004865 13:0.54641622 14:0.70919073 15:0.5577383 16:0.46234453 17:0.42774367 18:0.70562291 19:0.33826664 20:0.49517885 21:0.41344813 22:0.29475838 23:0.58756095 24:0.66558945 25:0.36922219 26:0.42064929 27:0.43484792 28:0.55699015 29:0.4449603 30:0.5569008 31:0.40711668 32:0.57752174 33:0.483796 34:0.60667145 35:0.50929636 36:0.43310571 37:0.26951805 38:0.45496348 39:0.41236544 40:0.69873208 41:0.38115236 42:0.54022098 43:0.46291083 44:0.45063883 45:0.44034842 46:0.54439104 47:0.51337904 48:0.57627469 49:0.53056467 50:0.35154438 51:0.55378634 52:0.38768283 53:0.40999505 54:0.54788446 55:0.49897364 56:0.41583627 57:0.61336327 58:0.61269331 59:0.6091466 60:0.59009671 61:0.64721006 62:0.47457504 63:0.31172377 64:0.56277013 65:0.62360406 66:0.39607695 67:0.55174309 68:0.4503352 69:0.54055893 70:0.61566395 71:0.27666804 72:0.52245337 73:0.53641862 74:0.62441206 75:0.44638112 76:0.37001327 77:0.47458351 78:0.55521441 79:0.34780011 80:0.5097512 81:0.49813253 82:0.5181368 83:0.55304033 84:0.66954362 85:0.40537032 86:0.32783711 87:0.62307882 88:0.49484214 89:0.49811983 90:0.57031512 91:0.45236075 92:0.34762076 93:0.46371114 94:0.5010522 95:0.54687446 96:0.52491808 97:0.38087374 98:0.36926049 99:0.48968595 100:0.6374321 101:0.65595889 102:0.33517277 103:0.66823864 104:0.38627928 105:0.55154914 106:0.45271122 107:0.33572036 108:0.35479116 109:0.61173612 110:0.50256407 111:0.53751725 112:0.57132375 113:0.19568066 114:0.60308641 115:0.65220064 116:0.47117603 117:0.64038473 118:0.35140929 119:0.54069734 120:0.45472458 121:0.48089632 122:0.30460581 123:0.68877357 124:0.44110775 125:0.4402259 126:0.5731746 127:0.72028613 128:0.80209243 129:0.3077096 130:0.6295051 131:0.34112421 132:0.64647824 133:0.27030808 134:0.70031279 
-0 6.722426192180458 1:0.39216831 2:0.40824223 3:0.70833099 4:0.3438578 5:0.52345669 6:0.61103636 7:0.12475294 8:0.27250087 9:0.49206653 10:0.40097922 11:0.36201969 12:0.47181335 13:0.24573512 14:0.42937821 15:0.49102768 16:0.80772012 17:0.4223583 18:0.66225916 19:0.46707904 20:0.61657238 21:0.33500335 22:0.51358145 23:0.72162235 24:0.52392429 25:0.34156466 26:0.60962665 27:0.53086019 28:0.58840609 29:0.40752837 30:0.19979739 31:0.46760935 32:0.42224744 33:0.70870239 34:0.47067329 35:0.1926834 36:0.39374253 37:0.64250517 38:0.72646278 39:0.43361783 40:0.31174925 41:0.434266 42:0.35166934 43:0.37843147 44:0.24962628 45:0.36989608 46:0.39116648 47:0.76504403 48:0.42521727 49:0.20430546 50:0.5480268 51:0.20457996 52:0.41780415 53:0.52675533 54:0.33317706 55:0.20797981 56:0.34760624 57:0.69307894 58:0.33965445 59:0.65952587 60:0.26677981 61:0.82471436 62:0.49105313 63:0.49158227 64:0.57339823 65:0.60708565 66:0.55289328 67:0.31097376 68:0.50546628 69:0.39377275 70:0.75444674 71:0.52443343 72:0.55772161 73:0.83611381 74:0.80761021 75:0.88512599 76:0.15930842 77:0.74868208 78:0.39729837 79:0.53585601 80:0.47579876 81:0.48898375 82:0.71360415 83:0.19917694 84:0.60951382 85:0.44948837 86:0.53160453 87:0.73006481 88:0.57737935 89:0.78539246 90:0.56399775 91:0.18957609 92:0.29440889 93:0.63193715 94:0.60207391 95:0.74610454 96:0.31390524 97:0.56305784 98:0.55823034 99:0.43800575 100:0.41582593 101:0.53493571 102:0.45797181 103:0.11851831 104:0.44397604 105:0.73153061 106:0.1566696 107:0.46425769 108:0.35633048 109:0.6036697 110:0.30131829 111:0.49053195 112:0.55683064 113:0.72047949 114:0.42860919 115:0.45466998 116:0.52431339 117:0.32126862 118:0.33077154 119:0.27163774 120:0.70577967 121:0.64402759 122:0.66762716 123:0.54238766 124:0.47885919 125:0.52958584 126:0.53102577 127:0.60823071 128:0.65526313 129:0.28751332 130:0.70289373 131:0.39782339 132:0.56938523 133:0.66880935 134:0.82098973 
-1.668612676452083 7.139729453703112 1:0.66291302 2:0.30276752 3:0.27154216 4:0.53284156 5:0.34175232 6:0.41712695 7:0.25986144 8:0.75974494 9:0.8127237 10:0.42592436 11:0.34158194 12:0.42504814 13:0.67048693 14:0.62450582 15:0.47771785 16:0.48669216 17:0.21573587 18:0.75737137 19:0.4945845 20:0.52112758 21:0.44052461 22:0.34655011 23:0.63917738 24:0.29080451 25:0.25747725 26:0.67867988 27:0.40306723 28:0.21545489 29:0.63641185 30:0.68206483 31:0.6976341 32:0.39152753 33:0.58791882 34:0.6322329 35:0.71029121 36:0.47144753 37:0.4784323 38:0.22253178 39:0.48449743 40:0.65048915 41:0.59490925 42:0.37726045 43:0.18576171 44:0.35020402 45:0.5949567 46:0.32210219 47:0.4459745 48:0.79588765 49:0.65976244 50:0.46353018 51:0.35239387 52:0.32521293 53:0.32668871 54:0.30650315 55:0.61836934 56:0.49010253 57:0.56673115 58:0.55779463 59:0.46460798 60:0.53490394 61:0.44856322 62:0.47039872 63:0.87938797 64:0.45372704 65:0.77918965 66:0.3360284 67:0.61580288 68:0.47007105 69:0.37231368 70:0.5724085 71:0.43091658 72:0.5941416 73:0.68865502 74:0.54156435 75:0.52245158 76:0.49085382 77:0.56263465 78:0.51919526 79:0.42816845 80:0.28070128 81:0.40577573 82:0.42505431 83:0.65566581 84:0.4538689 85:0.24779926 86:0.12918538 87:0.65798223 88:0.44861507 89:0.46997172 90:0.73574311 91:0.50518095 92:0.46422389 93:0.52077562 94:0.47885224 95:0.4585357 96:0.44353709 97:0.77297497 98:0.75758344 99:0.42316812 100:0.48790473 101:0.51992291 102:0.38392782 103:0.7476601 104:0.1220538 105:0.41445866 106:0.43639019 107:0.35951021 108:0.35690212 109:0.27899039 110:0.48460585 111:0.55797225 112:0.41075736 113:0.59814149 114:0.46007001 115:0.65088111 116:0.68979555 117:0.65952253 118:0.56900382 119:0.39959747 120:0.29253507 121:0.55997646 122:0.89549345 123:0.7901153 124:0.43579254 125:0.25629148 126:0.42618844 127:0.4192948 128:0.57722574 129:0.49194378 130:0.73733974 131:0.30248654 132:0.55568832 133:0.83523268 134:0.48996437 
-0 2.709887738533134 1:0.42758289 2:0.43047708 3:0.42087498 4:0.57206196 5:0.20617141 6:0.63569283 7:0.36497331 8:0.50426728 9:0.40551788 10:0.45326257 11:0.53834313 12:0.54605925 13:0.56227535 14:0.2838586 15:0.60312498 16:0.76301694 17:0.52378207 18:0.62593657 19:0.40725869 20:0.45913848 21:0.52700418 22:0.6061458 23:0.59848171 24:0.50920767 25:0.80294245 26:0.5151071 27:0.50910658 28:0.46424299 29:0.56938517 30:0.18710817 31:0.56544077 32:0.51013535 33:0.37816176 34:0.45976177 35:0.88545185 36:0.3018783 37:0.61299139 38:0.46544427 39:0.60488689 40:0.60663283 41:0.64915121 42:0.3252193 43:0.47628698 44:0.39656475 45:0.61170125 46:0.4983817 47:0.68925506 48:0.29375142 49:0.70739597 50:0.41946396 51:0.3933444 52:0.36422676 53:0.38977167 54:0.63406968 55:0.16688637 56:0.39798436 57:0.57429689 58:0.56938833 59:0.61816233 60:0.4755058 61:0.50168878 62:0.44763455 63:0.60689735 64:0.4989244 65:0.6642493 66:0.64634734 67:0.65560716 68:0.36383653 69:0.40749198 70:0.66149753 71:0.45381138 72:0.13219821 73:0.42046595 74:0.74174261 75:0.68328905 76:0.67860377 77:0.63119417 78:0.4190439 79:0.52666342 80:0.61138576 81:0.48610297 82:0.60942918 83:0.54037637 84:0.51316959 85:0.40040886 86:0.52898407 87:0.49945894 88:0.35285571 89:0.44321793 90:0.53601015 91:0.69328725 92:0.60186195 93:0.41535816 94:0.41661406 95:0.54520071 96:0.40904042 97:0.32365969 98:0.58040166 99:0.57001847 100:0.58661884 101:0.52745664 102:0.34926566 103:0.78798437 104:0.50209558 105:0.53707594 106:0.14908472 107:0.33619085 108:0.46363312 109:0.52515239 110:0.37853536 111:0.35958135 112:0.49040478 113:0.43252316 114:0.55588204 115:0.86439157 116:0.54922163 117:0.28641552 118:0.57766396 119:0.41595078 120:0.38598657 121:0.55429769 122:0.52515095 123:0.48865378 124:0.47471237 125:0.49625731 126:0.52612263 127:0.54876316 128:0.51295125 129:0.37092575 130:0.50008887 131:0.52358955 132:0.77796745 133:0.78602922 134:0.29309285 
-0.4719087030030038 0 1:0.13927028 2:0.35222262 3:0.37151444 4:0.43247187 5:0.52565706 6:0.53974468 7:0.48353028 8:0.37404844 9:0.46751392 10:0.3740882 11:0.37039924 12:0.45245054 13:0.37374589 14:0.54329789 15:0.5587272 16:0.50157648 17:0.047611199 18:0.32383555 19:0.44731131 20:0.58800185 21:0.38249362 22:0.45641202 23:0.63711643 24:0.62345725 25:0.52407789 26:0.37399679 27:0.36871406 28:0.15240289 29:0.42215338 30:0.21499614 31:0.51185185 32:0.55448055 33:0.4801932 34:0.6046474 35:0.47084215 36:0.47462854 37:0.90435052 38:0.36202115 39:0.5635761 40:0.49598059 41:0.80242234 42:0.16402301 43:0.39286822 44:0.43178421 45:0.59499878 46:0.39842451 47:0.61946839 48:0.66974211 49:0.56614172 50:0.46431628 51:0.41762373 52:0.22239546 53:0.35262743 54:0.29649574 55:0.75372666 56:0.31411019 57:0.48918307 58:0.37612116 59:0.36756566 60:0.15411408 61:0.59773511 62:0.53987271 63:0.3905738 64:0.41359851 65:0.43235347 66:0.37679732 67:0.45115244 68:0.70799607 69:0.76926339 70:0.75718993 71:0.61939758 72:0.59513372 73:0.52819008 74:0.64771128 75:0.58812124 76:0.51041919 77:0.32809541 78:0.52837861 79:0.45632851 80:0.46468559 81:0.4407492 82:0.32197645 83:0.26144031 84:0.74244386 85:0.70755839 86:0.25356153 87:0.82367903 88:0.62382096 89:0.58920968 90:0.34319016 91:0.56557816 92:0.77260882 93:0.47319087 94:0.35674897 95:0.69219327 96:0.50048953 97:0.50446928 98:0.72874421 99:0.47062784 100:0.70350856 101:0.7131896 102:0.66959417 103:0.19668208 104:0.50521451 105:0.32367218 106:0.47110197 107:0.47800076 108:0.41855496 109:0.57868713 110:0.72586608 111:0.55266601 112:0.23220305 113:0.67718792 114:0.2640014 115:0.41982415 116:0.38142565 117:0.52149504 118:0.71750128 119:0.29919133 120:0.37975886 121:0.71512681 122:0.62061548 123:0.73688173 124:0.28351146 125:0.31949595 126:0.52602911 127:0.58756393 128:0.58354831 129:0.46423841 130:0.47410932 131:0.52256268 132:0.76247036 133:0.59179914 134:0.20189799 
-0 3.378688883163524 1:0.3414157 2:0.66850078 3:0.26671708 4:0.43816113 5:0.71327847 6:0.41795155 7:0.71624476 8:0.46543145 9:0.71595556 10:0.39114988 11:0.70172232 12:0.23604122 13:0.55971754 14:0.39489448 15:0.73327279 16:0.4601596 17:0.49642566 18:0.68339258 19:0.58086985 20:0.60084122 21:0.49016064 22:0.73991978 23:0.52599305 24:0.35642493 25:0.28556651 26:0.57309294 27:0.77777946 28:0.36553431 29:0.46217668 30:0.2245823 31:0.36462918 32:0.67671174 33:0.38581595 34:0.46316725 35:0.87808722 36:0.52152312 37:0.41338506 38:0.49797603 39:0.040055219 40:0.66353005 41:0.43996716 42:0.056521591 43:0.38657957 44:0.31444845 45:0.47762728 46:0.34294716 47:0.58190554 48:0.29405066 49:0.5582397 50:0.51748109 51:0.5244475 52:0.20156392 53:0.46118733 54:0.4189972 55:0.35853291 56:0.57301509 57:0.49078944 58:0.60424089 59:0.59828734 60:0.57385331 61:0.17392933 62:0.45514539 63:0.56212813 64:0.41216832 65:0.56390679 66:0.52249295 67:0.53337157 68:0.38800031 69:0.3703602 70:0.20503552 71:0.40399721 72:0.58594126 73:0.5558123 74:0.73765689 75:0.57030988 76:0.25195438 77:0.45435795 78:0.48343831 79:0.40338638 80:0.42214781 81:0.35260424 82:0.51329523 83:0.51091313 84:0.49556726 85:0.60726994 86:0.54686701 87:0.70579594 88:0.25963414 89:0.47113422 90:0.34119508 91:0.44836622 92:0.49086753 93:0.46692044 94:0.30804491 95:0.65451759 96:0.50562066 97:0.6087001 98:0.42565602 99:0.59679383 100:0.42716277 101:0.25714329 102:0.65647995 103:0.73650712 104:0.49933073 105:0.4456079 106:0.35482755 107:0.53930813 108:0.2893813 109:0.29761824 110:0.42559165 111:0.22681648 112:0.37611666 113:0.041505378 114:0.72596639 115:0.60654175 116:0.41898063 117:0.4677749 118:0.53931272 119:0.35478333 120:0.44237015 121:0.6649732 122:0.4969469 123:0.52756989 124:0.36706597 125:0.51318431 126:0.50151426 127:0.27486387 128:0.42672402 129:0.54586792 130:0.63163167 131:0.44209108 132:0.55892563 133:0.35295063 134:0.29548451 
-0 0.6652807722105403 1:0.29922685 2:0.71251696 3:0.44351998 4:0.60258377 5:0.27377269 6:0.50032884 7:0.49255934 8:0.57250375 9:0.50195622 10:0.55154878 11:0.45551679 12:0.47684738 13:0.5663076 14:0.67099553 15:0.51410896 16:0.46133131 17:0.37714344 18:0.60160697 19:0.61944044 20:0.824296 21:0.3814435 22:0.58220845 23:0.50200522 24:0.62856281 25:0.54852605 26:0.30429435 27:0.56792551 28:0.53059328 29:0.38607571 30:0.31916559 31:0.20605575 32:0.52975661 33:0.30648774 34:0.35311934 35:0.52868962 36:0.37664303 37:0.35808751 38:0.60015988 39:0.50280064 40:0.35086438 41:0.56846398 42:0.62508404 43:0.48866883 44:0.52270049 45:0.71417236 46:0.65940261 47:0.3901301 48:0.71176565 49:0.59935838 50:0.61584532 51:0.51178253 52:0.34698084 53:0.34712788 54:0.20474048 55:0.51579672 56:0.43963075 57:0.48937529 58:0.20527771 59:0.42788815 60:0.52111489 61:0.63567245 62:0.36012241 63:0.55828547 64:0.44644606 65:0.47431758 66:0.39769071 67:0.59105772 68:0.41710466 69:0.65450078 70:0.47416088 71:0.64774984 72:0.59625113 73:0.30470267 74:0.49205294 75:0.58085805 76:0.72307277 77:0.5345363 78:0.67215079 79:0.49037635 80:0.39845243 81:0.91882861 82:0.46802494 83:0.29495895 84:0.57743204 85:0.48065281 86:0.22144152 87:0.44696751 88:0.72770506 89:0.080974899 90:0.43473423 91:0.42857197 92:0.54531771 93:0.68909615 94:0.54607511 95:0.55475283 96:0.36204553 97:0.59735823 98:0.59449589 99:0.74463075 100:0.75994641 101:0.41308799 102:0.52811021 103:0.43978822 104:0.66873246 105:0.60373443 106:0.38361922 107:0.4177193 108:0.27503389 109:0.41024566 110:0.42815545 111:0.36885861 112:0.29551002 113:0.54368842 114:0.86225289 115:0.59301472 116:0.39878753 117:0.35764164 118:0.56820428 119:0.23720631 120:0.66836721 121:0.50440955 122:0.50660968 123:0.54967195 124:0.62759 125:0.74074805 126:0.33431441 127:0.46384105 128:0.52218735 129:0.64303875 130:0.69215888 131:0.50145572 132:0.67551982 133:0.59521389 134:0.12820481 
-0.6999752805240835 2.143269312536045 1:0.61527687 2:0.49546334 3:0.54006976 4:0.48283613 5:0.74109328 6:0.55698472 7:0.48759705 8:0.49068832 9:0.77169859 10:0.57718748 11:0.44044891 12:0.04068207 13:0.68407148 14:0.50095063 15:0.73294783 16:0.45809522 17:0.40196949 18:0.4000707 19:0.6628027 20:0.69330221 21:0.36409426 22:0.31334782 23:0.62426102 24:0.57315475 25:0.65516436 26:0.32715505 27:0.35661376 28:0.66535318 29:0.37363648 30:0.51085126 31:0.45879072 32:0.26381317 33:0.36360216 34:0.62334102 35:0.30031994 36:0.38636887 37:0.52969855 38:0.39304712 39:0.38527846 40:0.48277804 41:0.55976349 42:0.51640856 43:0.3563621 44:0.38161707 45:0.63915932 46:0.35081714 47:0.53195184 48:0.57165504 49:0.79441643 50:0.55119985 51:0.32243255 52:0.60178715 53:0.40855026 54:0.38481781 55:0.42923793 56:0.28650966 57:0.72613955 58:0.36671382 59:0.45635846 60:0.53839183 61:0.49530238 62:0.33782458 63:0.21941319 64:0.35324782 65:0.45164016 66:0.53993016 67:0.59347159 68:0.42131275 69:0.4916274 70:0.39476821 71:0.34206408 72:0.78831071 73:0.45801744 74:0.5548721 75:0.8046 76:0.39026931 77:0.22892766 78:0.63760263 79:0.7127409 80:0.47280335 81:0.4013997 82:0.34716672 83:0.69179076 84:0.54493684 85:0.59371054 86:0.55581105 87:0.70607561 88:0.65450352 89:0.32479998 90:0.58592373 91:0.51487368 92:0.50004834 93:0.37806475 94:0.32905766 95:0.36523977 96:0.55639243 97:0.47191432 98:0.54612631 99:0.74972671 100:0.47961476 101:0.44517317 102:0.51970309 103:0.77732474 104:0.71649522 105:0.47476432 106:0.37522426 107:0.31895038 108:0.21798693 109:0.38953081 110:0.54041159 111:0.43120557 112:0.41758993 113:0.50027257 114:0.65823692 115:0.72598398 116:0.68709183 117:0.37531552 118:0.70869631 119:0.6019451 120:0.39694399 121:0.34732583 122:0.43596753 123:0.72836751 124:0.46263832 125:0.50660646 126:0.35589176 127:0.55093628 128:0.48508364 129:0.40124327 130:0.59180474 131:0.52988923 132:0.66725618 133:0.38002685 134:0.45340824 
-0 2.934569677100755 1:0.37522003 2:0.26579607 3:0.46973366 4:0.63614231 5:0.56107008 6:0.6363951 7:0.59817904 8:0.69534957 9:0.35937014 10:0.19062781 11:0.62309116 12:0.52568406 13:0.56505412 14:0.37404856 15:0.5460797 16:0.60708934 17:0.58556223 18:0.87272769 19:0.6474387 20:0.50957257 21:0.32196775 22:0.68162602 23:0.55357772 24:0.64697909 25:0.45135793 26:0.62905478 27:0.31518281 28:0.6606409 29:0.41037378 30:0.63658965 31:0.5955286 32:0.24604546 33:0.38424829 34:0.61356533 35:0.61555785 36:0.3907353 37:0.48987848 38:0.51534361 39:0.35015801 40:0.54020452 41:0.51065969 42:0.35716611 43:0.36805305 44:0.55984294 45:0.24731156 46:0.28285 47:0.48437557 48:0.53788203 49:0.73749024 50:0.65611893 51:0.29257578 52:0.30836523 53:0.4664264 54:0.47740653 55:0.55205458 56:0.40965936 57:0.56342304 58:0.52107501 59:0.33307275 60:0.20756871 61:0.26749337 62:0.57178348 63:0.53813267 64:0.44315511 65:0.46254945 66:0.69518471 67:0.61500865 68:0.61660725 69:0.50625455 70:0.62518269 71:0.34008768 72:0.5794884 73:0.41841033 74:0.46984905 75:0.62058461 76:0.63195145 77:0.58219767 78:0.20517378 79:0.47217956 80:0.4028337 81:0.36808124 82:0.53240967 83:0.71642274 84:0.32140407 85:0.60144943 86:0.48388657 87:0.7185424 88:0.43455347 89:0.45194396 90:0.36789221 91:0.53163373 92:0.43321815 93:0.49868634 94:0.60474455 95:0.24101329 96:0.60182828 97:0.35791475 98:0.7246235 99:0.54944193 100:0.45197231 101:0.77519602 102:0.654998 103:0.46762127 104:0.40447527 105:0.37536559 106:0.43546242 107:0.38831788 108:0.4994086 109:0.56002057 110:0.52130723 111:0.49302205 112:0.40785643 113:0.4712916 114:0.65677339 115:0.59695125 116:0.79589957 117:0.6294235 118:0.68005157 119:0.53341228 120:0.44704661 121:0.44103619 122:0.43327421 123:0.41908681 124:0.33811653 125:0.58383435 126:0.61709511 127:0.39107326 128:0.77283484 129:0.52534693 130:0.37850031 131:0.55654287 132:0.62478727 133:0.69874942 134:0.30327082 
-0 5.17738026326033 1:0.3508653 2:0.57555056 3:0.24909778 4:0.73054588 5:0.4053365 6:0.48271495 7:0.39968395 8:0.54362059 9:0.6238777 10:0.62284446 11:0.24362321 12:0.47687927 13:0.64997119 14:0.48557958 15:0.33989221 16:0.43197578 17:0.3596186 18:0.42018801 19:0.46751359 20:0.35871667 21:0.47785509 22:0.63174713 23:0.4636766 24:0.59178776 25:0.30269116 26:0.40764856 27:0.47092888 28:0.5296815 29:0.71010375 30:0.51819032 31:0.3569501 32:0.40990996 33:0.31950477 34:0.39848489 35:0.6007452 36:0.39409971 37:0.63374758 38:0.76137739 39:0.3327353 40:0.45461577 41:0.77912694 42:0.51395828 43:0.16426292 44:0.41303903 45:0.48278034 46:0.45771325 47:0.46982583 48:0.71649146 49:0.37430826 50:0.58332384 51:0.4790788 52:0.31153581 53:0.28322947 54:0.33721051 55:0.42166343 56:0.47351345 57:0.58386588 58:0.84917325 59:0.57807958 60:0.43015531 61:0.70864999 62:0.45356867 63:0.7689383 64:0.51440781 65:0.58816379 66:0.42692456 67:0.52693254 68:0.59760994 69:0.61623037 70:0.3739568 71:0.3630349 72:0.67576873 73:0.2737855 74:0.28687415 75:0.60749674 76:0.55381197 77:0.5880881 78:0.57512069 79:0.52374697 80:0.46918106 81:0.49969909 82:0.42742589 83:0.50225133 84:0.52642864 85:0.37934825 86:0.27425811 87:0.68478215 88:0.4300499 89:0.19444731 90:0.24547493 91:0.48293865 92:0.52352673 93:0.46001324 94:0.530711 95:0.42839858 96:0.28553444 97:0.60228521 98:0.35805681 99:0.62780106 100:0.52741885 101:0.47487384 102:0.62749386 103:0.45771262 104:0.57699949 105:0.65112096 106:0.58815449 107:0.19479971 108:0.25215966 109:0.30380607 110:0.43173933 111:0.50958484 112:0.5005908 113:0.48197135 114:0.84374142 115:0.70422447 116:0.49972355 117:0.44362345 118:0.53358275 119:0.51486665 120:0.15634586 121:0.5567627 122:0.90800244 123:0.51974404 124:0.55110425 125:0.49795297 126:0.3836309 127:0.57043821 128:0.5052737 129:0.45444965 130:0.38049614 131:0.3746562 132:0.55870253 133:0.61613476 134:0.3687087 
-0.03907034634773478 0 1:0.56533962 2:0.43024224 3:0.58192801 4:0.41404083 5:0.57454437 6:0.57259262 7:0.25274938 8:0.27270055 9:0.59222823 10:0.5731948 11:0.54850882 12:0.62627113 13:0.48728988 14:0.68333632 15:0.71082991 16:0.75380701 17:0.43302014 18:0.63323587 19:0.52779931 20:0.38586396 21:0.80171239 22:0.50755566 23:0.44894248 24:0.39520434 25:0.031986438 26:0.78322613 27:0.47153512 28:0.26987365 29:0.6284312 30:0.37165105 31:0.68488324 32:0.53333676 33:0.51423562 34:0.63591337 35:0.6669336 36:0.59300333 37:0.76841766 38:0.62103909 39:0.33915538 40:0.35976857 41:0.37853524 42:0.49214911 43:0.4459537 44:0.55611622 45:0.3051739 46:0.58295387 47:0.63902491 48:0.33757871 49:0.70260674 50:0.5735274 51:0.51463646 52:0.24453801 53:0.30667478 54:0.39449966 55:0.38900939 56:0.57335901 57:0.46789858 58:0.77349734 59:0.33616176 60:0.33219579 61:0.84071857 62:0.46339223 63:0.35394669 64:0.70265496 65:0.50883001 66:0.68491209 67:0.28831261 68:0.37515739 69:0.30607206 70:0.51106507 71:0.48016873 72:0.76110673 73:0.74167311 74:0.33981574 75:0.30944741 76:0.85856199 77:0.3670727 78:0.31703901 79:0.41749501 80:0.46675655 81:0.47273102 82:0.22957318 83:0.27918586 84:0.63806218 85:0.32019174 86:0.52763391 87:0.45919558 88:0.5192371 89:0.51894432 90:0.42913416 91:0.71717775 92:0.51795262 93:0.6001845 94:0.58991271 95:0.36162308 96:0.30928314 97:0.47931787 98:0.58355325 99:0.42432225 100:0.63515526 101:0.39914158 102:0.68722844 103:0.65086949 104:0.74239594 105:0.4318774 106:0.59509027 107:0.52449173 108:0.33556491 109:0.25710663 110:0.77589285 111:0.63253224 112:0.37809095 113:0.71499777 114:0.54396904 115:0.51925355 116:0.39540908 117:0.42374715 118:0.61243856 119:0.34504169 120:0.50535411 121:0.72743493 122:0.8117578 123:0.5888651 124:0.43537039 125:0.48296309 126:0.38669059 127:0.52530974 128:0.62265205 129:0.3898105 130:0.62493306 131:0.63420045 132:0.67539823 133:0.34242296 134:0.27414244 
-0.4849870380503276 2.067688402428523 1:0.53668463 2:0.65317672 3:0.23994941 4:0.52412874 5:0.39662647 6:0.6627897 7:0.50788444 8:0.49412778 9:0.41651225 10:0.32722259 11:0.40312371 12:0.4433853 13:0.55070525 14:0.7229017 15:0.39106598 16:0.46047035 17:0.62292689 18:0.57322425 19:0.66251439 20:0.64421427 21:0.52613062 22:0.13530412 23:0.54581696 24:0.30539 25:0.50088787 26:0.73978209 27:0.56032652 28:0.57357061 29:0.67445982 30:0.50215274 31:0.36534023 32:0.59941769 33:0.39773721 34:0.47330824 35:0.42604008 36:0.52260679 37:0.58183992 38:0.45035392 39:0.4448792 40:0.56491876 41:0.64907289 42:0.19348282 43:0.51829088 44:0.23773126 45:0.6028316 46:0.5606916 47:0.86070526 48:0.48158005 49:0.7401163 50:0.46470946 51:0.55651319 52:0.73973823 53:0.60660607 54:0.4425447 55:0.46135697 56:0.417539 57:0.45409739 58:0.41924289 59:0.4713321 60:0.51552224 61:0.63295919 62:0.51775777 63:0.56949925 64:0.59076822 65:0.69291359 66:0.73985451 67:0.47314504 68:0.34735319 69:0.69264549 70:0.50981903 71:0.42600793 72:0.53198737 73:0.43559176 74:0.40087789 75:0.65134352 76:0.35696387 77:0.53007877 78:0.54039907 79:0.54790306 80:0.34849203 81:0.50145483 82:0.49691156 83:0.20505033 84:0.60935301 85:0.4185915 86:0.32622766 87:0.48311198 88:0.41771683 89:0.29867023 90:0.28950706 91:0.77726215 92:0.27429956 93:0.47044086 94:0.22486293 95:0.37754491 96:0.47230962 97:0.73614848 98:0.66990465 99:0.33338553 100:0.49918011 101:0.480041 102:0.63380218 103:0.60296094 104:0.56272817 105:0.55550796 106:0.38688424 107:0.36929861 108:0.39870173 109:0.47007105 110:0.60610288 111:0.59635925 112:0.54106599 113:0.54047132 114:0.64147949 115:0.60750139 116:0.80842149 117:0.068655357 118:0.56783062 119:0.35606822 120:0.66589493 121:0.89138514 122:0.078342833 123:0.44143614 124:0.4536885 125:0.47793666 126:0.42130664 127:0.51765406 128:0.92609107 129:0.49261796 130:0.59823644 131:0.54695946 132:0.62649924 133:0.58144748 134:0.3272703 
-0 2.674972625734643 1:0.40737754 2:0.33543792 3:0.62945437 4:0.31093156 5:0.53728014 6:0.80722576 7:0.53751558 8:0.92483276 9:0.689623 10:0.43086359 11:0.42875782 12:0.65300792 13:0.54383242 14:0.45378491 15:0.74019462 16:0.65346223 17:0.55912352 18:0.50134397 19:0.5157215 20:0.76386553 21:0.62188452 22:0.16712625 23:0.53335279 24:0.74210441 25:0.62634897 26:0.79247868 27:0.39839858 28:0.46444929 29:0.53519875 30:0.55796409 31:0.54554528 32:0.53185236 33:0.55467576 34:0.87651151 35:0.47790602 36:0.41198528 37:0.98475057 38:0.46572363 39:0.6199761 40:0.52821612 41:0.38659459 42:0.28998765 43:0.34729499 44:0.24551708 45:0.51586974 46:0.63076502 47:0.39594093 48:0.78405672 49:0.72332901 50:0.5151093 51:0.37265512 52:0.36958328 53:1 54:0.43457073 55:0.44019365 56:0.51548439 57:0.70958012 58:0.66393971 59:0.43591201 60:0.23764825 61:0.54857212 62:0.59716147 63:0.35680276 64:0.37929738 65:0.36609086 66:0.43466011 67:0.40356249 68:0.54036874 69:0.88844371 70:0.23081337 71:0.35513213 72:0.56795764 73:0.90452635 74:0.48014572 75:0.58063066 76:0.3719115 77:0.50591367 78:0.36643094 79:0.50785136 80:0.61414689 81:0.57272553 82:0.47622102 83:0.59884411 84:0.40106663 85:0.15234648 86:0.94724995 87:0.51569015 88:0.63173103 89:0.3130874 90:0.4644444 91:0.59050834 92:0.67640042 93:0.62984961 94:0.30939293 95:0.42845154 96:0.62202591 97:0.37880865 98:0.69064015 99:0.53278476 100:0.76281357 101:0.446915 102:0.45069423 103:0.36462033 104:0.58166873 105:0.41662705 106:0.53619611 107:0.41652226 108:0.27184454 109:0.53814965 110:0.42890108 111:0.63714176 112:0.40294644 113:0.43338454 114:0.41454992 115:0.51946002 116:0.68220305 117:0.90829444 118:0.37965614 119:0.4465456 120:0.28181636 121:0.50426668 122:0.56057513 123:0.34663355 124:0.55544484 125:0.46630111 126:0.59646535 127:0.68120152 128:0.52052361 129:0.51844603 130:0.57401407 131:0.60507476 132:0.53589261 133:0.69116247 134:0.21864876 
-0 1.279005975232689 1:0.33070251 2:0.52488667 3:0.50562739 4:0.37911066 5:0.61238241 6:0.67225164 7:0.54223424 8:0.74620867 9:0.25334272 10:0.34644669 11:0.18945254 12:0.56144571 13:0.49547511 14:0.3809672 15:0.53597641 16:0.73109919 17:0.73236245 18:0.68003953 19:0.41387394 20:0.59746468 21:0.77598906 22:0.61846137 23:0.44145662 24:0.52838558 25:0.72985899 26:0.59083766 27:0.32398179 28:0.67540854 29:0.51579154 30:0.67806 31:0.44012916 32:0.61579973 33:0.445319 34:0.36428943 35:0.64676875 36:0.30018792 37:0.34113953 38:0.35964325 39:0.45007217 40:0.36208194 41:0.58067852 42:0.35762098 43:0.57715416 44:0.52407867 45:0.50205576 46:0.47357315 47:0.5147621 48:0.68182969 49:0.64988422 50:0.49135834 51:0.23091173 52:0.38497391 53:0.5504275 54:0.33473513 55:0.61044246 56:0.4383786 57:0.75270504 58:0.58720291 59:0.49618059 60:0.32575548 61:0.39835581 62:0.45752004 63:0.58292222 64:0.28433609 65:0.62277997 66:0.45909801 67:0.55975908 68:0.47661451 69:0.43394241 70:0.43726903 71:0.49622902 72:0.40155926 73:0.26679084 74:0.36700225 75:0.51597047 76:0.52069187 77:0.17814265 78:0.35983419 79:0.27756748 80:0.69484311 81:0.8713131 82:0.46157274 83:0.49812838 84:0.46337682 85:0.28179583 86:0.47462577 87:0.55792797 88:0.59916711 89:0.42098686 90:0.65209073 91:0.61544442 92:0.54159427 93:0.61935389 94:0.4654716 95:0.36377883 96:0.76183611 97:0.56456244 98:0.2740272 99:0.86752224 100:0.53344274 101:0.76295036 102:0.4152202 103:0.38703954 104:0.67194045 105:0.39293507 106:0.27587134 107:0.24419406 108:0.42841202 109:0.61543179 110:0.67395163 111:0.12789325 112:0.36701557 113:0.46630177 114:0.69499898 115:0.32067901 116:0.35712269 117:0.11928441 118:0.52036202 119:0.67274332 120:0.34528923 121:0.54742712 122:0.62499613 123:0.85639817 124:0.2606301 125:0.57935172 126:0.65222406 127:0.62779629 128:0.64710313 129:0.64900655 130:0.43926898 131:0.97299087 132:0.46298811 133:0.63259339 134:0.48324904 
-0.6899909074150712 2.009687127999209 1:0.37920871 2:0.30666572 3:0.32260495 4:0.63472199 5:0.41802144 6:0.34205011 7:0.2757518 8:0.44446671 9:0.63865876 10:0.55863225 11:0.32702041 12:0.19757238 13:0.68847376 14:0.54788315 15:0.70801789 16:0.628977 17:0.37539139 18:0.89295244 19:0.21860453 20:0.52874798 21:0.56129974 22:0.41971758 23:0.54045552 24:0.70992613 25:0.60891235 26:0.49573869 27:0.57088429 28:0.30293214 29:0.63169658 30:0.41468644 31:0.53590935 32:0.28912368 33:0.27841124 34:0.36711881 35:0.65747517 36:0.58639652 37:0.29579151 38:0.47034526 39:0.37944591 40:0.50884163 41:0.73468292 42:0.5755983 43:0.45842847 44:0.46245638 45:0.49677646 46:0.50042176 47:0.27936801 48:0.53045988 49:0.56231302 50:0.59551251 51:0.55819738 52:0.52767611 53:0.59038395 54:0.24538118 55:0.28113136 56:0.31347567 57:0.86776179 58:0.60333532 59:0.62545878 60:0.52115911 61:0.57383275 62:0.54826164 63:0.48105037 64:0.49279663 65:0.62805438 66:0.50162083 67:0.53514111 68:0.30293038 69:0.71377105 70:0.41547367 71:0.31894451 72:0.4146252 73:0.66152829 74:0.59077185 75:0.50072652 76:0.2911081 77:0.56141382 78:0.51305693 79:0.77465725 80:0.38100603 81:0.45729271 82:0.28360945 83:0.39278829 84:0.39006293 85:0.54234129 86:0.61636639 87:0.66643667 88:0.55332732 89:0.2566697 90:0.40310293 91:0.49278799 92:0.67602164 93:0.2108115 94:0.3689827 95:0.42355904 96:0.50236291 97:0.48329279 98:0.30715185 99:0.52986658 100:0.50211626 101:0.54412138 102:0.64312553 103:0.6435132 104:0.38042784 105:0.46592942 106:0.33648321 107:0.43764815 108:0.28319496 109:0.68068987 110:0.54819834 111:0.15989508 112:0.58585793 113:0.26932475 114:0.42180559 115:0.45013648 116:0.48098218 117:0.61476505 118:0.40678295 119:0.46484539 120:0.41022214 121:0.56911439 122:0.33587611 123:0.67586672 124:0.64442003 125:0.56201214 126:0.54306716 127:0.49223909 128:0.76386797 129:0.64172232 130:0.72168231 131:0.54217058 132:0.73998553 133:0.68254173 134:0.18240306 
