svm_type c_svc
kernel_type rbf
gamma 0.125
nr_class 2
total_sv 232
rho 0.282733
label 1 0
nr_sv 100 132
SV
1.063700017595428 1:0.36 2:0.122449 3:0.77551 4:0.723214 5:0.561798 6:0.659341 7:0.333333 8:0.444444 9:0.817073 10:0.869565 11:0.691176 12:0.708333 13:0.403846 14:0.818182 15:0.909091 16:0.688312 17:0.730769 18:0.595238 19:0.636364 20:0.540984 21:0.766667 22:0.688312 23:0.604938 24:0.564815 25:0.628205 26:0.797297 27:0.911392 28:0.813333 29:0.753623 30:0.678161 31:0.661972 32:0.666667 33:0.65 34:0.763636 35:0.701493 36:0.640449 37:0.464646 38:0.354839 39:0.612613 40:0.752577 41:0.876543 42:0.763158 43:0.333333 44:0.384615 45:0.822581 46:0.666667 47:0.492308 48:0.733333 49:0.276596 50:0.30303 51:0.666667 52:0.75 53:0.657143 54:0.828125 55:0.652778 56:0.508197 57:0.5 58:0.646154 59:0.571429 60:0.657534 61:0.676056 62:0.823529 63:0.933333 64:0.87037 65:0.671875 66:0.651515 67:0.505376 68:0.561644 69:0.507246 70:0.428571 71:0.316456 72:0.325843 73:0.605634 74:0.506494 75:0.553191 76:0.62963 77:0.686869 78:0.736842 79:0.258621 80:0.411765 81:0.672727 82:0.716418 83:0.756757 84:0.694444 85:0.431373 86:0.430556 87:0.607143 88:0.666667 89:0.825397 90:0.805195 91:0.621622 92:0.527027 93:0.581081 94:0.686567 95:0.783333 96:0.604651 97:0.736842 98:0.640625 99:0.737705 100:0.723077 101:0.672131 102:0.575342 103:0.577982 104:0.459459 105:0.445946 106:0.405797 107:0.272727 108:0.472973 109:0.352113 110:0.375 111:0.634146 112:0.663551 113:0.642857 114:0.585366 115:0.289474 116:0.450704 117:0.790323 118:0.819149 119:0.767677 120:0.318841 121:0.343284 122:0.627119 123:0.851852 124:0.716667 125:0.779221 126:0.595238 127:0.505618 128:0.643836 129:0.782609 130:0.703125 131:0.6 132:0.592233 133:0.611111 134:0.628205 135:0.893939 136:0.824324 137:0.726027 138:0.649351 139:0.591837 140:0.559322 141:0.614035 142:0.548387 143:0.568966 144:0.657143 145:0.352941 146:0.290909 147:0.541176 148:0.648936 149:0.616822 150:0.631579 151:0.266667 152:0.324675 153:0.728395 154:0.755556 155:0.768421 156:0.761905 157:0.274725 158:0.617284 159:0.763889 160:0.769231 161:0.571429 162:0.563218 163:0.365591 164:0.60241 165:0.576923 166:0.735294 167:0.76087 168:0.631068 169:0.516129 170:0.697674 171:0.8 172:0.886076 173:0.817073 174:0.75 175:0.55814 176:0.471429 177:0.459016 178:0.58209 179:0.671053 180:0.746479 181:0.563107 182:0.454545 183:0.573034 184:0.639175 185:0.695238 186:0.758242 187:0.3 188:0.127273 189:0.688525 190:0.72619 191:0.744186 192:0.797297 193:0.413793 194:0.293103 195:0.777778 196:0.726027 197:0.532258 198:0.742424 199:0.507937 200:0.47561 201:0.579545 202:0.597222 203:0.608108 204:0.746479 205:0.727273 206:0.792208 207:0.821429 208:0.728571 209:0.468354 210:0.535714 211:0.633803 212:0.636364 213:0.725 214:0.71831 215:0.565789 216:0.532468 217:0.616438 218:0.53012 219:0.685393 220:0.638095 221:0.612069 222:0.666667 223:0.207547 224:0.111111 225:0.638889 226:0.702381 227:0.661972 228:0.733333 229:0.321429 230:0.307692 231:0.807692 232:0.783784 233:0.517241 234:0.714286 235:0.542857 236:0.4375 237:0.488636 238:0.637681 239:0.733333 240:0.728814 241:0.6 242:0.84058 243:0.802817 244:0.615385 245:0.473684 246:0.518519 247:0.442308 248:0.457447 249:0.514286 250:0.602273 251:0.633333 252:0.7 253:0.423729 254:0.345455 255:0.698795 256:0.681319 257:0.646465 258:0.631579 259:0.151515 260:0.471698 261:0.878049 262:0.797872 263:0.810526 264:0.594059 265:0.390625 266:0.511111 267:0.859155 268:0.716216 269:0.763158 270:0.525641 271:0.662162 272:0.533333 273:0.743243 274:0.830986 275:0.769231 276:0.680851 277:0.621951 278:0.941176 279:0.838235 280:0.7375 281:0.819444 282:0.708861 283:0.794118 284:0.677966 285:0.644068 286:0.521739 287:0.492308 288:0.814286 
3.817136283305673 1:0.586667 2:0.571429 3:0.816327 4:0.857143 5:0.730337 6:0.67033 7:0.42029 8:0.539683 9:0.756098 10:0.847826 11:0.764706 12:0.677083 13:0.403846 14:0.636364 15:0.6 16:0.597403 17:0.602564 18:0.392857 19:0.621212 20:0.52459 21:0.483333 22:0.558442 23:0.37037 24:0.342593 25:0.589744 26:0.675676 27:0.696203 28:0.613333 29:0.57971 30:0.471264 31:0.633803 32:0.541667 33:0.483333 34:0.6 35:0.522388 36:0.449438 37:0.454545 38:0.268817 39:0.486486 40:0.670103 41:0.753086 42:0.697368 43:0.508772 44:0.442308 45:0.854839 46:0.746032 47:0.646154 48:0.813333 49:0.553191 50:0.378788 51:0.473684 52:0.767857 53:0.642857 54:0.703125 55:0.666667 56:0.491803 57:0.385714 58:0.538462 59:0.350649 60:0.520548 61:0.633803 62:0.779412 63:0.8 64:0.944444 65:0.609375 66:0.454545 67:0.634409 68:0.616438 69:0.608696 70:0.519481 71:0.518987 72:0.449438 73:0.577465 74:0.506494 75:0.531915 76:0.62037 77:0.676768 78:0.515789 79:0.362069 80:0.514706 81:0.818182 82:0.850746 83:0.918919 84:0.861111 85:0.529412 86:0.430556 87:0.517857 88:0.5625 89:0.761905 90:0.779221 91:0.689189 92:0.527027 93:0.472973 94:0.522388 95:0.566667 96:0.453488 97:0.671053 98:0.65625 99:0.786885 100:0.784615 101:0.590164 102:0.479452 103:0.550459 104:0.527027 105:0.567568 106:0.57971 107:0.545455 108:0.5 109:0.56338 110:0.609375 111:0.804878 112:0.859813 113:0.826531 114:0.573171 115:0.289474 116:0.464789 117:0.709677 118:0.840426 119:0.848485 120:0.42029 121:0.402985 122:0.627119 123:0.666667 124:0.616667 125:0.753247 126:0.511905 127:0.539326 128:0.657534 129:0.681159 130:0.625 131:0.6625 132:0.485437 133:0.588889 134:0.512821 135:0.621212 136:0.662162 137:0.643836 138:0.506494 139:0.55102 140:0.389831 141:0.491228 142:0.419355 143:0.465517 144:0.471429 145:0.441176 146:0.563636 147:0.717647 148:0.659574 149:0.757009 150:0.757895 151:0.366667 152:0.493506 153:0.716049 154:0.833333 155:0.821053 156:0.857143 157:0.296703 158:0.567901 159:0.555556 160:0.807692 161:0.657143 162:0.563218 163:0.354839 164:0.542169 165:0.435897 166:0.705882 167:0.641304 168:0.456311 169:0.430108 170:0.546512 171:0.694118 172:0.759494 173:0.756098 174:0.583333 175:0.523256 176:0.4 177:0.52459 178:0.61194 179:0.618421 180:0.450704 181:0.368932 182:0.227273 183:0.516854 184:0.556701 185:0.6 186:0.505495 187:0.483333 188:0.472727 189:0.852459 190:0.892857 191:0.94186 192:0.905405 193:0.689655 194:0.637931 195:0.851852 196:0.821918 197:0.725806 198:0.80303 199:0.555556 200:0.47561 201:0.375 202:0.444444 203:0.472973 204:0.591549 205:0.69697 206:0.818182 207:0.892857 208:0.842857 209:0.443038 210:0.428571 211:0.619718 212:0.742424 213:0.8625 214:0.887324 215:0.697368 216:0.38961 217:0.452055 218:0.313253 219:0.505618 220:0.514286 221:0.465517 222:0.5 223:0.566038 224:0.296296 225:0.680556 226:0.916667 227:0.802817 228:0.813333 229:0.607143 230:0.461538 231:0.711538 232:0.810811 233:0.62069 234:0.771429 235:0.671429 236:0.45 237:0.329545 238:0.449275 239:0.583333 240:0.661017 241:0.6625 242:0.811594 243:0.901408 244:0.784615 245:0.407895 246:0.481481 247:0.509615 248:0.5 249:0.552381 250:0.670455 251:0.75 252:0.516667 253:0.59322 254:0.545455 255:0.795181 256:0.802198 257:0.737374 258:0.54386 259:0.454545 260:0.471698 261:0.780488 262:0.797872 263:0.905263 264:0.594059 265:0.546875 266:0.6 267:0.71831 268:0.702703 269:0.789474 270:0.435897 271:0.702703 272:0.466667 273:0.459459 274:0.676056 275:0.769231 276:0.510638 277:0.609756 278:0.735294 279:0.602941 280:0.5375 281:0.625 282:0.556962 283:0.632353 284:0.525424 285:0.474576 286:0.478261 287:0.369231 288:0.471429 
2.464536521437626 1:0.52 2:0.469388 3:0.204082 4:0.178571 5:0.179775 6:0.362637 7:0.550725 8:0.650794 9:0.304878 10:0.326087 11:0.602941 12:0.322917 13:0.653846 14:0.672727 15:0.509091 16:0.285714 17:0.576923 18:0.488095 19:0.69697 20:0.557377 21:0.383333 22:0.311688 23:0.432099 24:0.685185 25:0.397436 26:0.297297 27:0.316456 28:0.28 29:0.202899 30:0.436782 31:0.661972 32:0.5625 33:0.816667 34:0.836364 35:0.746269 36:0.539326 37:0.242424 38:0.236559 39:0.126126 40:0.14433 41:0.444444 42:0.302632 43:0.368421 44:0.480769 45:0.258065 46:0.190476 47:0.6 48:0.213333 49:0.425532 50:0.393939 51:0.421053 52:0.0892857 53:0.0857143 54:0.03125 55:0.597222 56:0.508197 57:0.485714 58:0.353846 59:0.220779 60:0.136986 61:0.464789 62:0.264706 63:0.133333 64:0.185185 65:0.375 66:0.318182 67:0.526882 68:0.356164 69:0.289855 70:0.376623 71:0.468354 72:0.348315 73:0.43662 74:0.402597 75:0.0957447 76:0.240741 77:0.313131 78:0.284211 79:0.448276 80:0.573529 81:0.236364 82:0.0895522 83:0.567568 84:0.222222 85:0.470588 86:0.652778 87:0.535714 88:0.208333 89:0.285714 91:0.472973 92:0.635135 93:0.567568 94:0.432836 95:0.183333 96:0.0697674 97:0.473684 98:0.3125 99:0.147541 100:0.276923 101:0.377049 102:0.273973 103:0.486239 104:0.418919 105:0.337838 106:0.376812 107:0.454545 108:0.459459 109:0.464789 110:0.53125 111:0.109756 112:0.280374 113:0.367347 114:0.353659 115:0.539474 116:0.732394 117:0.387097 118:0.170213 119:0.515152 120:0.826087 121:0.567164 122:0.79661 123:0.62963 124:0.433333 125:0.675325 126:0.654762 127:0.561798 128:0.712329 129:0.478261 130:0.578125 131:0.7 132:0.883495 133:0.488889 134:0.346154 135:0.242424 136:0.391892 137:0.260274 138:0.506494 139:0.602041 140:0.627119 141:0.684211 142:0.854839 143:0.689655 144:0.671429 145:0.382353 146:0.563636 147:0.129412 148:0.234043 149:0.252336 150:0.284211 151:0.388889 152:0.402597 153:0.271605 154:0.233333 155:0.231579 156:0.261905 157:0.417582 158:0.54321 159:0.541667 160:0.448718 161:0.414286 162:0.574713 163:0.55914 164:0.86747 165:0.653846 166:0.647059 167:0.413043 168:0.339806 169:0.483871 170:0.476744 171:0.352941 172:0.329114 173:0.268293 174:0.472222 175:0.604651 176:0.542857 177:0.590164 178:0.731343 179:0.631579 180:0.577465 181:0.213592 182:0.193182 183:0.157303 184:0.206186 185:0.247619 186:0.351648 187:0.483333 188:0.636364 189:0.344262 190:0.25 191:0.186047 192:0.121622 193:0.551724 194:0.62069 195:0.481481 196:0.383562 197:0.451613 198:0.166667 199:0.539683 200:0.585366 201:0.613636 202:0.611111 203:0.635135 204:0.492958 205:0.560606 206:0.415584 207:0.27381 208:0.357143 209:0.468354 210:0.5 211:0.71831 212:0.590909 213:0.5 214:0.56338 215:0.513158 216:0.480519 217:0.30137 218:0.240964 219:0.213483 220:0.171429 221:0.189655 222:0.314815 223:0.54717 224:0.592593 225:0.277778 226:0.297619 227:0.267606 228:0.266667 229:0.446429 230:0.711538 231:0.461538 232:0.405405 233:0.62069 234:0.285714 235:0.614286 236:0.675 237:0.715909 238:0.57971 239:0.616667 240:0.745763 241:0.4625 242:0.362319 243:0.380282 244:0.307692 245:0.460526 246:0.506173 247:0.509615 248:0.351064 249:0.380952 250:0.431818 251:0.716667 252:0.5 253:0.508475 254:0.509091 255:0.277108 256:0.230769 257:0.141414 258:0.394737 259:0.5 260:0.622642 261:0.280488 262:0.234043 263:0.294737 264:0.306931 265:0.625 266:0.733333 267:0.507042 268:0.432432 269:0.75 270:0.371795 271:0.743243 272:0.72 273:0.648649 274:0.535211 275:0.758242 276:0.5 277:0.45122 278:0.470588 279:0.294118 280:0.375 281:0.291667 282:0.417722 283:0.735294 284:0.508475 285:0.694915 286:0.695652 287:0.553846 288:0.528571 
0.1146508994125416 1:0.426667 2:0.244898 3:0.836735 4:0.848214 5:0.707865 6:0.615385 7:0.26087 8:0.555556 9:0.804878 10:0.934783 11:0.867647 12:0.71875 13:0.423077 14:0.654545 15:0.745455 16:0.779221 17:0.782051 18:0.583333 19:0.636364 20:0.393443 21:0.45 22:0.506494 23:0.382716 24:0.416667 25:0.653846 26:0.608108 27:0.620253 28:0.52 29:0.507246 30:0.517241 31:0.690141 32:0.395833 33:0.483333 34:0.6 35:0.462687 36:0.47191 37:0.373737 38:0.333333 39:0.522523 40:0.721649 41:0.876543 42:0.776316 43:0.280702 44:0.384615 45:0.806452 46:0.888889 47:0.615385 48:0.773333 49:0.446809 50:0.393939 51:0.631579 52:0.964286 53:0.671429 54:0.71875 55:0.611111 56:0.393443 57:0.485714 58:0.6 59:0.376623 60:0.60274 61:0.71831 62:0.705882 63:0.633333 64:0.611111 65:0.46875 66:0.666667 67:0.569892 68:0.520548 69:0.594203 70:0.428571 71:0.455696 72:0.382022 73:0.633803 74:0.558442 75:0.638298 76:0.62963 77:0.656566 78:0.6 79:0.362069 80:0.514706 81:0.836364 82:0.850746 83:0.864865 84:0.777778 85:0.588235 86:0.472222 87:0.678571 88:0.625 89:0.777778 90:0.779221 91:0.783784 92:0.405405 93:0.567568 94:0.597015 95:0.55 96:0.511628 97:0.763158 98:0.640625 99:0.688525 100:0.692308 101:0.540984 102:0.575342 103:0.495413 104:0.513514 105:0.635135 106:0.565217 107:0.469697 108:0.527027 109:0.577465 110:0.515625 111:0.780488 112:0.813084 113:0.693878 114:0.536585 115:0.513158 116:0.422535 117:0.774194 118:0.893617 119:0.868687 120:0.42029 121:0.58209 122:0.627119 123:0.833333 124:0.783333 125:0.779221 126:0.571429 127:0.629213 128:0.561644 129:0.507246 130:0.671875 131:0.6625 132:0.543689 133:0.566667 134:0.333333 135:0.484848 136:0.702703 137:0.69863 138:0.597403 139:0.489796 140:0.474576 141:0.438596 142:0.5 143:0.551724 144:0.671429 145:0.470588 146:0.581818 147:0.776471 148:0.744681 149:0.757009 150:0.642105 151:0.411111 152:0.415584 153:0.876543 154:0.855556 155:0.821053 156:0.833333 157:0.373626 158:0.555556 159:0.708333 160:0.807692 161:0.742857 162:0.643678 163:0.419355 164:0.481928 165:0.346154 166:0.514706 167:0.597826 168:0.436893 169:0.397849 170:0.476744 171:0.576471 172:0.582278 173:0.658537 174:0.625 175:0.406977 176:0.342857 177:0.459016 178:0.343284 179:0.5 180:0.619718 181:0.359223 182:0.329545 183:0.550562 184:0.639175 185:0.533333 186:0.538462 187:0.333333 188:0.381818 189:0.836066 190:0.892857 191:0.872093 192:0.783784 193:0.534483 194:0.482759 195:0.796296 196:0.794521 197:0.66129 198:0.69697 199:0.634921 200:0.329268 201:0.295455 202:0.416667 203:0.445946 204:0.535211 205:0.621212 206:0.727273 207:0.821429 208:0.7 209:0.35443 210:0.488095 211:0.535211 212:0.757576 213:0.8375 214:0.873239 215:0.592105 216:0.545455 217:0.438356 218:0.361446 219:0.494382 220:0.495238 221:0.508621 222:0.527778 223:0.396226 224:0.314815 225:0.75 226:0.904762 227:0.873239 228:0.88 229:0.428571 230:0.480769 231:0.865385 232:0.851351 233:0.517241 234:0.8 235:0.7 236:0.3375 237:0.272727 238:0.318841 239:0.516667 240:0.711864 241:0.575 242:0.637681 243:0.873239 244:0.8 245:0.381579 246:0.592593 247:0.442308 248:0.351064 249:0.52381 250:0.727273 251:0.8 252:0.766667 253:0.661017 254:0.436364 255:0.73494 256:0.89011 257:0.777778 258:0.526316 259:0.318182 260:0.415094 261:0.804878 262:0.819149 263:0.873684 264:0.584158 265:0.5 266:0.488889 267:0.661972 268:0.662162 269:0.815789 270:0.487179 271:0.77027 272:0.413333 273:0.351351 274:0.56338 275:0.736264 276:0.553191 277:0.658537 278:0.573529 279:0.558824 280:0.575 281:0.611111 282:0.607595 283:0.838235 284:0.372881 285:0.40678 286:0.449275 287:0.476923 288:0.671429 
0.5574719526092081 1:0.533333 2:0.530612 3:0.244898 4:0.285714 5:0.280899 6:0.384615 7:0.608696 8:0.650794 9:0.329268 10:0.48913 11:0.75 12:0.427083 13:0.692308 14:0.727273 15:0.472727 16:0.649351 17:0.833333 18:0.666667 19:0.757576 20:0.721311 21:0.383333 22:0.883117 23:0.728395 24:0.935185 25:0.461538 26:0.391892 27:0.329114 28:0.426667 29:0.434783 30:0.666667 31:0.816901 32:0.604167 33:0.733333 34:0.6 35:0.731343 36:0.561798 37:0.353535 38:0.408602 39:0.36036 40:0.42268 41:0.592593 42:0.657895 43:0.578947 44:0.596154 45:0.451613 46:0.428571 47:0.6 48:0.413333 49:0.531915 50:0.530303 51:0.666667 52:0.517857 53:0.6 54:0.4375 55:0.638889 56:0.704918 57:0.671429 58:0.523077 59:0.571429 60:0.493151 61:0.591549 62:0.397059 63:0.366667 64:0.37037 65:0.5 66:0.393939 67:0.666667 68:0.465753 69:0.507246 70:0.493506 71:0.493671 72:0.41573 73:0.577465 74:0.649351 75:0.478723 76:0.5 77:0.525253 78:0.536842 79:0.5 80:0.602941 81:0.490909 82:0.298507 83:0.662162 84:0.5 85:0.627451 86:0.708333 87:0.767857 88:0.375 89:0.634921 90:0.532468 91:0.716216 92:0.716216 93:0.702703 94:0.58209 95:0.5 96:0.255814 97:0.657895 98:0.46875 99:0.377049 100:0.369231 101:0.409836 102:0.30137 103:0.614679 104:0.540541 105:0.405405 106:0.434783 107:0.424242 108:0.567568 109:0.521127 110:0.5625 111:0.304878 112:0.233645 113:0.22449 114:0.390244 115:0.473684 116:0.647887 117:0.451613 118:0.234043 119:0.424242 120:0.782609 121:0.58209 122:0.694915 123:0.62963 124:0.483333 125:0.714286 126:0.821429 127:0.696629 128:0.739726 129:0.521739 130:0.625 131:0.825 132:0.650485 133:0.577778 134:0.5 135:0.424242 136:0.432432 137:0.465753 138:0.61039 139:0.561224 140:0.813559 141:0.789474 142:0.725806 143:0.672414 144:0.685714 145:0.313725 146:0.563636 147:0.376471 148:0.297872 149:0.28972 150:0.4 151:0.388889 152:0.623377 153:0.419753 154:0.288889 155:0.389474 156:0.345238 157:0.428571 158:0.604938 159:0.625 160:0.576923 161:0.771429 162:0.402299 163:0.494624 164:0.722892 165:0.794872 166:0.705882 167:0.673913 168:0.621359 169:0.537634 170:0.534884 171:0.447059 172:0.43038 173:0.487805 174:0.458333 175:0.686047 176:0.614286 177:0.491803 178:0.820896 179:0.565789 180:0.56338 181:0.339806 182:0.284091 183:0.460674 184:0.453608 185:0.409524 186:0.43956 187:0.483333 188:0.6 189:0.442623 190:0.369048 191:0.72093 192:0.5 193:0.551724 194:0.689655 195:0.740741 196:0.493151 197:0.774194 198:0.560606 199:0.698413 200:0.731707 201:0.772727 202:0.652778 203:0.635135 204:0.422535 205:0.69697 206:0.636364 207:0.416667 208:0.385714 209:0.518987 210:0.404762 211:0.676056 212:0.560606 213:0.5375 214:0.450704 215:0.394737 216:0.311688 217:0.465753 218:0.313253 219:0.438202 220:0.409524 221:0.362069 222:0.481481 223:0.603774 224:0.666667 225:0.375 226:0.369048 227:0.352113 228:0.4 229:0.625 230:0.807692 231:0.769231 232:0.594595 233:0.586207 234:0.4 235:0.714286 236:0.7625 237:0.784091 238:0.768116 239:0.7 240:0.559322 241:0.5875 242:0.521739 243:0.478873 244:0.384615 245:0.565789 246:0.728395 247:0.519231 248:0.319149 249:0.409524 250:0.386364 251:0.533333 252:0.45 253:0.610169 254:0.472727 255:0.289157 256:0.395604 257:0.383838 258:0.429825 259:0.545455 260:0.660377 261:0.304878 262:0.308511 263:0.336842 264:0.623762 265:0.640625 266:0.6 267:0.422535 268:0.391892 269:0.473684 270:0.897436 271:0.702703 272:0.573333 273:0.567568 274:0.549296 275:0.406593 276:0.723404 277:0.52439 278:0.485294 279:0.382353 280:0.575 281:0.527778 282:0.860759 283:0.75 284:0.474576 285:0.745763 286:0.797101 287:0.692308 288:0.785714 
2.359070769616199 1:0.573333 2:0.469388 3:0.765306 4:0.821429 5:0.730337 6:0.659341 7:0.405797 8:0.555556 9:0.707317 10:0.858696 11:0.838235 12:0.760417 13:0.365385 14:0.745455 15:0.618182 16:0.649351 17:0.628205 18:0.535714 19:0.560606 20:0.442623 21:0.416667 22:0.493506 23:0.345679 24:0.37963 25:0.525641 26:0.662162 27:0.683544 28:0.733333 29:0.637681 30:0.448276 31:0.535211 32:0.520833 33:0.583333 34:0.709091 35:0.567164 36:0.359551 37:0.424242 38:0.354839 39:0.54955 40:0.71134 41:0.864198 42:0.75 43:0.438596 44:0.519231 45:0.83871 46:0.809524 47:0.615385 48:0.826667 49:0.574468 50:0.484848 51:0.526316 52:0.678571 53:0.642857 54:0.6875 55:0.652778 56:0.393443 57:0.357143 58:0.538462 59:0.38961 60:0.479452 61:0.619718 62:0.735294 63:0.75 64:0.703704 65:0.421875 66:0.378788 67:0.505376 68:0.547945 69:0.507246 70:0.480519 71:0.455696 72:0.337079 73:0.535211 74:0.597403 75:0.638298 76:0.648148 77:0.676768 78:0.6 79:0.37931 80:0.441176 81:0.818182 82:0.820896 83:0.878378 84:0.861111 85:0.54902 86:0.430556 87:0.553571 88:0.541667 89:0.777778 90:0.753247 91:0.716216 92:0.472973 93:0.405405 94:0.492537 95:0.633333 96:0.523256 97:0.697368 98:0.65625 99:0.721311 100:0.707692 101:0.47541 102:0.452055 103:0.486239 104:0.472973 105:0.567568 106:0.507246 107:0.530303 108:0.445946 109:0.591549 110:0.609375 111:0.853659 112:0.859813 113:0.846939 114:0.646341 115:0.381579 116:0.450704 117:0.822581 118:0.893617 119:0.909091 120:0.492754 121:0.507463 122:0.59322 123:0.648148 124:0.75 125:0.714286 126:0.583333 127:0.561798 128:0.643836 129:0.608696 130:0.59375 131:0.7125 132:0.582524 133:0.577778 134:0.525641 135:0.651515 136:0.716216 137:0.739726 138:0.701299 139:0.489796 140:0.322034 141:0.526316 142:0.516129 143:0.603448 144:0.642857 145:0.431373 146:0.509091 147:0.717647 148:0.670213 149:0.700935 150:0.642105 151:0.344444 152:0.467532 153:0.82716 154:0.766667 155:0.8 156:0.833333 157:0.285714 158:0.555556 159:0.652778 160:0.769231 161:0.685714 162:0.609195 163:0.344086 164:0.518072 165:0.410256 166:0.5 167:0.597826 168:0.485437 169:0.430108 170:0.523256 171:0.729412 172:0.632911 173:0.731707 174:0.736111 175:0.5 176:0.385714 177:0.590164 178:0.58209 179:0.618421 180:0.591549 181:0.300971 182:0.272727 183:0.550562 184:0.556701 185:0.6 186:0.571429 187:0.416667 188:0.381818 189:0.786885 190:0.857143 191:0.918605 192:0.891892 193:0.62069 194:0.655172 195:0.814815 196:0.808219 197:0.693548 198:0.772727 199:0.571429 200:0.463415 201:0.295455 202:0.319444 203:0.445946 204:0.577465 205:0.681818 206:0.779221 207:0.797619 208:0.757143 209:0.417722 210:0.452381 211:0.661972 212:0.727273 213:0.7625 214:0.788732 215:0.671053 216:0.428571 217:0.410959 218:0.421687 219:0.505618 220:0.504762 221:0.5 222:0.518519 223:0.54717 224:0.444444 225:0.736111 226:0.916667 227:0.830986 228:0.853333 229:0.607143 230:0.576923 231:0.75 232:0.837838 233:0.586207 234:0.814286 235:0.7 236:0.4125 237:0.295455 238:0.362319 239:0.433333 240:0.627119 241:0.6875 242:0.811594 243:0.887324 244:0.8 245:0.407895 246:0.530864 247:0.548077 248:0.553191 249:0.561905 250:0.704545 251:0.8 252:0.65 253:0.728814 254:0.6 255:0.807229 256:0.769231 257:0.767677 258:0.570175 259:0.530303 260:0.490566 261:0.780488 262:0.797872 263:0.852632 264:0.693069 265:0.609375 266:0.422222 267:0.661972 268:0.702703 269:0.75 270:0.602564 271:0.756757 272:0.453333 273:0.364865 274:0.661972 275:0.857143 276:0.56383 277:0.585366 278:0.764706 279:0.647059 280:0.5625 281:0.722222 282:0.620253 283:0.602941 284:0.627119 285:0.627119 286:0.507246 287:0.430769 288:0.6 
2.515990860526429 1:0.653333 2:0.530612 3:0.846939 4:0.883929 5:0.752809 6:0.714286 7:0.434783 8:0.666667 9:0.829268 10:0.858696 11:0.823529 12:0.770833 13:0.519231 14:0.890909 15:0.890909 16:0.792208 17:0.75641 18:0.607143 19:0.757576 20:0.688525 21:0.8 22:0.805195 23:0.54321 24:0.518519 25:0.615385 26:0.810811 27:0.810127 28:0.826667 29:0.695652 30:0.62069 31:0.507042 32:0.666667 33:0.65 34:0.636364 35:0.462687 36:0.561798 37:0.353535 38:0.236559 39:0.468468 40:0.597938 41:0.641975 42:0.513158 43:0.473684 44:0.519231 45:0.822581 46:0.68254 47:0.507692 48:0.653333 49:0.489362 50:0.484848 51:0.614035 52:0.875 53:0.785714 54:0.703125 55:0.555556 56:0.540984 57:0.571429 58:0.676923 59:0.545455 60:0.547945 61:0.591549 62:0.779412 63:0.866667 64:0.722222 65:0.578125 66:0.575758 67:0.451613 68:0.424658 69:0.478261 70:0.428571 71:0.329114 72:0.370787 73:0.422535 74:0.337662 75:0.5 76:0.546296 77:0.626263 78:0.452632 79:0.327586 80:0.529412 81:0.836364 82:0.80597 83:0.891892 84:0.777778 85:0.45098 86:0.611111 87:0.696429 88:0.729167 89:0.857143 90:0.74026 91:0.554054 92:0.648649 93:0.581081 94:0.626866 95:0.766667 96:0.523256 97:0.539474 98:0.65625 99:0.737705 100:0.615385 101:0.590164 102:0.506849 103:0.33945 104:0.405405 105:0.459459 106:0.289855 107:0.181818 108:0.378378 109:0.633803 110:0.671875 111:0.780488 112:0.831776 113:0.836735 114:0.585366 115:0.342105 116:0.549296 117:0.774194 118:0.851064 119:0.909091 120:0.434783 121:0.462687 122:0.694915 123:0.814815 124:0.733333 125:0.896104 126:0.619048 127:0.516854 128:0.712329 129:0.84058 130:0.859375 131:0.75 132:0.631068 133:0.555556 134:0.551282 135:0.742424 136:0.837838 137:0.739726 138:0.597403 139:0.44898 140:0.508475 141:0.631579 142:0.322581 143:0.362069 144:0.542857 145:0.5 146:0.745455 147:0.870588 148:0.787234 149:0.775701 150:0.726316 151:0.422222 152:0.597403 153:0.839506 154:0.877778 155:0.789474 156:0.809524 157:0.32967 158:0.679012 159:0.791667 160:0.871795 161:0.728571 162:0.62069 163:0.430108 164:0.674699 165:0.641026 166:0.823529 167:0.76087 168:0.553398 169:0.505376 170:0.72093 171:0.858824 172:0.78481 173:0.792683 174:0.708333 175:0.523256 176:0.485714 177:0.590164 178:0.686567 179:0.631579 180:0.605634 181:0.407767 182:0.329545 183:0.47191 184:0.536082 185:0.533333 186:0.450549 187:0.433333 188:0.418182 189:0.737705 190:0.797619 191:0.813953 192:0.756757 193:0.568966 194:0.655172 195:0.87037 196:0.767123 197:0.629032 198:0.742424 199:0.619048 200:0.597561 201:0.545455 202:0.611111 203:0.594595 204:0.591549 205:0.681818 206:0.883117 207:0.928571 208:0.814286 209:0.544304 210:0.511905 211:0.549296 212:0.651515 213:0.8 214:0.732394 215:0.552632 216:0.454545 217:0.424658 218:0.313253 219:0.47191 220:0.447619 221:0.422414 222:0.444444 223:0.509434 224:0.314815 225:0.680556 226:0.77381 227:0.746479 228:0.626667 229:0.5 230:0.538462 231:0.807692 232:0.77027 233:0.5 234:0.614286 235:0.557143 236:0.5 237:0.477273 238:0.565217 239:0.633333 240:0.59322 241:0.55 242:0.84058 243:0.84507 244:0.769231 245:0.539474 246:0.469136 247:0.480769 248:0.542553 249:0.533333 250:0.647727 251:0.7 252:0.55 253:0.677966 254:0.636364 255:0.891566 256:0.846154 257:0.707071 258:0.587719 259:0.409091 260:0.433962 261:0.865854 262:0.87234 263:0.831579 264:0.574257 265:0.5 266:0.555556 267:0.774648 268:0.824324 269:0.868421 270:0.487179 271:0.716216 272:0.6 273:0.702703 274:0.887324 275:0.868132 276:0.595745 277:0.634146 278:0.941176 279:0.867647 280:0.75 281:0.736111 282:0.582278 283:0.676471 284:0.694915 285:0.644068 286:0.57971 287:0.492308 288:0.657143 
0.04653690257251663 1:0.52 2:0.795918 3:0.306122 4:0.348214 5:0.337079 6:0.472527 7:0.550725 8:0.634921 9:0.256098 10:0.521739 11:0.735294 12:0.395833 13:0.788462 14:0.763636 15:0.472727 16:0.779221 17:0.679487 18:0.619048 19:0.878788 20:0.803279 21:0.566667 22:0.87013 23:0.62963 24:0.777778 25:0.615385 26:0.608108 27:0.506329 28:0.533333 29:0.463768 30:0.528736 31:0.802817 32:0.75 33:0.716667 34:0.763636 35:0.761194 36:0.674157 37:0.373737 38:0.462366 39:0.414414 40:0.556701 41:0.728395 42:0.657895 43:0.596491 44:0.788462 45:0.451613 46:0.52381 47:0.661538 48:0.453333 49:0.702128 50:0.712121 51:0.684211 52:0.410714 53:0.5 54:0.390625 55:0.736111 56:0.721311 57:0.8 58:0.507692 59:0.467532 60:0.452055 61:0.704225 62:0.691176 63:0.666667 64:0.666667 65:0.734375 66:0.651515 67:0.569892 68:0.438356 69:0.289855 70:0.233766 71:0.379747 72:0.47191 73:0.633803 74:0.662338 75:0.510638 76:0.5 77:0.535354 78:0.547368 79:0.603448 80:0.632353 81:0.545455 82:0.358209 83:0.702703 84:0.5 85:0.666667 86:0.638889 87:0.625 88:0.458333 89:0.650794 90:0.480519 91:0.878378 92:0.797297 93:0.797297 94:0.58209 95:0.416667 96:0.244186 97:0.868421 98:0.6875 99:0.655738 100:0.630769 101:0.852459 102:0.616438 103:0.577982 104:0.418919 105:0.22973 106:0.231884 107:0.424242 108:0.689189 109:0.647887 110:0.578125 111:0.402439 112:0.317757 113:0.377551 114:0.45122 115:0.526316 116:0.619718 117:0.451613 118:0.297872 119:0.515152 120:0.869565 121:0.58209 122:0.762712 123:0.537037 124:0.416667 125:0.779221 126:0.892857 127:0.685393 128:0.794521 129:0.681159 130:0.65625 131:0.775 132:0.796117 133:0.677778 134:0.602564 135:0.515152 136:0.513514 137:0.479452 138:0.701299 139:0.653061 140:0.644068 141:0.719298 142:0.758065 143:0.706897 144:0.857143 145:0.372549 146:0.636364 147:0.411765 148:0.404255 149:0.457944 150:0.526316 151:0.388889 152:0.571429 153:0.382716 154:0.377778 155:0.442105 156:0.404762 157:0.428571 158:0.679012 159:0.569444 160:0.564103 161:0.685714 162:0.390805 163:0.526882 164:0.819277 165:0.794872 166:0.661765 167:0.641304 168:0.592233 169:0.548387 170:0.627907 171:0.6 172:0.481013 173:0.512195 174:0.694444 175:0.686047 176:0.585714 177:0.770492 178:0.850746 179:0.842105 180:0.830986 181:0.349515 182:0.352273 183:0.382022 184:0.43299 185:0.514286 186:0.549451 187:0.466667 188:0.709091 189:0.57377 190:0.47619 191:0.662791 192:0.527027 193:0.706897 194:0.827586 195:0.666667 196:0.493151 197:0.66129 198:0.424242 199:0.777778 200:0.768293 201:0.852273 202:0.708333 203:0.662162 204:0.464789 205:0.818182 206:0.636364 207:0.488095 208:0.442857 209:0.607595 210:0.571429 211:0.788732 212:0.621212 213:0.5625 214:0.507042 215:0.552632 216:0.623377 217:0.493151 218:0.337349 219:0.404494 220:0.409524 221:0.413793 222:0.518519 223:0.679245 224:0.740741 225:0.486111 226:0.440476 227:0.394366 228:0.48 229:0.625 230:0.75 231:0.576923 232:0.594595 233:0.637931 234:0.428571 235:0.857143 236:0.8 237:0.852273 238:0.724638 239:0.683333 240:0.627119 241:0.7375 242:0.594203 243:0.549296 244:0.430769 245:0.618421 246:0.777778 247:0.644231 248:0.361702 249:0.4 250:0.465909 251:0.65 252:0.866667 253:0.762712 254:0.545455 255:0.421687 256:0.494505 257:0.383838 258:0.473684 259:0.621212 260:0.716981 261:0.402439 262:0.361702 263:0.378947 264:0.534653 265:0.65625 266:0.777778 267:0.43662 268:0.378378 269:0.407895 270:0.74359 271:0.851351 272:0.773333 273:0.648649 274:0.521127 275:0.373626 276:0.670213 277:0.621951 278:0.75 279:0.529412 280:0.575 281:0.541667 282:0.696203 283:0.779412 284:0.610169 285:0.881356 286:0.869565 287:0.846154 288:0.828571 
3.075224543901755 1:0.106667 2:0.408163 3:0.153061 4:0.205357 5:0.213483 6:0.296703 7:0.376812 8:0.571429 9:0.170732 10:0.521739 11:0.5 12:0.28125 13:0.557692 14:0.472727 15:0.290909 16:0.74026 17:0.461538 18:0.535714 19:0.727273 20:0.459016 21:0.35 22:0.662338 23:0.518519 24:0.657407 25:0.525641 26:0.310811 27:0.177215 28:0.266667 29:0.173913 30:0.275862 31:0.661972 32:0.3125 33:0.416667 34:0.345455 35:0.402985 36:0.348315 37:0.151515 38:0.365591 39:0.279279 40:0.360825 41:0.506173 42:0.381579 43:0.368421 44:0.519231 45:0.306452 46:0.31746 47:0.584615 48:0.346667 49:0.361702 50:0.409091 51:0.508772 52:0.232143 53:0.271429 54:0.328125 55:0.5 56:0.508197 57:0.457143 58:0.292308 59:0.220779 60:0.356164 61:0.478873 62:0.294118 63:0.166667 64:0.111111 65:0.34375 66:0.378788 67:0.494624 68:0.246575 69:0.231884 70:0.233766 71:0.316456 72:0.303371 73:0.253521 74:0.506494 75:0.276596 76:0.296296 77:0.363636 78:0.368421 79:0.327586 80:0.455882 81:0.218182 82:0.208955 83:0.675676 84:0.388889 85:0.235294 86:0.486111 87:0.482143 88:0.25 89:0.444444 90:0.298701 91:0.486486 92:0.648649 93:0.418919 94:0.358209 95:0.216667 96:0.162791 97:0.486842 98:0.265625 99:0.163934 100:0.2 101:0.344262 102:0.315068 103:0.366972 104:0.189189 105:0.148649 106:0.26087 107:0.242424 108:0.364865 109:0.0985915 110:0.3125 111:0.109756 112:0.149533 113:0.295918 114:0.317073 115:0.302632 116:0.492958 117:0.177419 118:0.0638298 119:0.494949 120:0.753623 121:0.268657 122:0.474576 123:0.314815 124:0.233333 125:0.714286 126:0.77381 127:0.393258 128:0.520548 129:0.492754 130:0.40625 131:0.675 132:0.679612 133:0.355556 134:0.25641 135:0.181818 136:0.135135 137:0.191781 138:0.545455 139:0.367347 140:0.305085 141:0.45614 142:0.290323 143:0.362069 144:0.528571 145:0.0392157 146:0.145455 147:0.117647 148:0.0957447 149:0.140187 150:0.273684 151:0.133333 152:0.337662 153:0.0987654 154:0.155556 155:0.378947 156:0.238095 157:0.175824 158:0.382716 159:0.277778 160:0.358974 161:0.542857 162:0.310345 163:0.290323 164:0.542169 165:0.487179 166:0.441176 167:0.554348 168:0.514563 169:0.225806 170:0.232558 171:0.235294 172:0.265823 173:0.402439 174:0.513889 175:0.395349 176:0.257143 177:0.393443 178:0.567164 179:0.460526 180:0.56338 181:0.0582524 182:0.102273 183:0.0337079 184:0.0515464 185:0.142857 186:0.263736 187:0.216667 188:0.563636 189:0.131148 190:0.0595238 191:0.581395 192:0.378378 193:0.396552 194:0.448276 195:0.314815 196:0.191781 197:0.451613 198:0.151515 199:0.412698 200:0.52439 201:0.488636 202:0.430556 203:0.351351 204:0.211268 205:0.393939 206:0.402597 207:0.214286 208:0.328571 209:0.341772 210:0.345238 211:0.521127 212:0.287879 213:0.3625 214:0.28169 215:0.355263 216:0.428571 217:0.0684932 218:0.0963855 219:0.0786517 220:0.0380952 221:0.0948276 222:0.203704 223:0.301887 224:0.425926 225:0.0694444 226:0.130952 227:0.183099 228:0.226667 229:0.214286 230:0.461538 231:0.346154 232:0.22973 233:0.310345 234:0.228571 235:0.4 236:0.6 237:0.579545 238:0.391304 239:0.333333 240:0.372881 241:0.4 242:0.434783 243:0.295775 244:0.153846 245:0.328947 246:0.62963 247:0.461538 248:0.255319 249:0.314286 250:0.318182 251:0.466667 252:0.433333 253:0.101695 254:0.127273 255:0.0722892 256:0.131868 257:0.0707071 258:0.210526 259:0.19697 260:0.433962 261:0.097561 262:0.138298 263:0.357895 264:0.386139 265:0.390625 266:0.4 267:0.309859 268:0.0810811 269:0.302632 270:0.576923 271:0.648649 272:0.52 273:0.432432 274:0.253521 275:0.340659 276:0.574468 277:0.463415 278:0.397059 279:0.191176 280:0.325 281:0.333333 282:0.620253 283:0.676471 284:0.305085 285:0.508475 286:0.565217 287:0.476923 288:0.571429 
0.4607622369892088 1:0.493333 2:0.367347 3:0.142857 4:0.214286 5:0.213483 6:0.373626 7:0.623188 8:0.634921 9:0.207317 10:0.5 11:0.455882 12:0.302083 13:0.75 14:0.472727 15:0.436364 16:0.324675 17:0.230769 18:0.345238 19:0.818182 20:0.655738 21:0.75 22:0.805195 23:0.641975 24:0.583333 25:0.653846 26:0.486486 27:0.481013 28:0.613333 29:0.42029 30:0.402299 31:0.774648 32:0.520833 33:0.75 34:0.709091 35:0.791045 36:0.393258 37:0.333333 38:0.419355 39:0.279279 40:0.350515 41:0.530864 42:0.407895 43:0.438596 44:0.557692 45:0.241935 46:0.285714 47:0.6 48:0.146667 49:0.340426 50:0.393939 51:0.421053 52:0.125 53:0.257143 54:0.109375 55:0.513889 56:0.672131 57:0.857143 58:0.569231 59:0.298701 60:0.30137 61:0.492958 62:0.5 63:0.433333 64:0.277778 65:0.296875 66:0.30303 67:0.483871 68:0.205479 69:0.318841 70:0.376623 71:0.443038 72:0.303371 73:0.380282 74:0.428571 75:0.329787 76:0.277778 77:0.353535 78:0.421053 79:0.362069 80:0.426471 81:0.2 82:0.149254 83:0.648649 84:0.472222 85:0.294118 86:0.527778 87:0.410714 88:0.208333 89:0.396825 90:0.12987 91:0.540541 92:0.77027 93:0.878378 94:0.641791 95:0.55 96:0.267442 97:0.578947 98:0.625 99:0.52459 100:0.246154 101:0.327869 102:0.328767 103:0.504587 104:0.310811 105:0.391892 106:0.434783 107:0.469697 108:0.445946 109:0.380282 110:0.40625 111:0.268293 112:0.242991 113:0.183673 114:0.329268 115:0.342105 116:0.591549 117:0.387097 118:0.212766 119:0.353535 120:0.623188 121:0.358209 122:0.728814 123:0.518519 124:0.4 125:0.467532 126:0.369048 127:0.539326 128:0.863014 129:0.811594 130:0.734375 131:0.7125 132:0.68932 133:0.555556 134:0.615385 135:0.560606 136:0.391892 137:0.410959 138:0.727273 139:0.561224 140:0.59322 141:0.719298 142:0.693548 143:0.517241 144:0.414286 145:0.313725 146:0.4 147:0.258824 148:0.191489 149:0.121495 150:0.368421 151:0.344444 152:0.532468 153:0.283951 154:0.155556 155:0.157895 156:0.488095 157:0.340659 158:0.506173 159:0.527778 160:0.423077 161:0.542857 162:0.804598 163:0.430108 164:0.698795 165:0.858974 166:0.764706 167:0.608696 168:0.776699 169:0.494624 170:0.476744 171:0.635294 172:0.455696 173:0.390244 174:0.611111 175:0.569767 176:0.428571 177:0.672131 178:0.80597 179:0.657895 180:0.633803 181:0.281553 182:0.204545 183:0.134831 184:0.206186 185:0.209524 186:0.384615 187:0.333333 188:0.490909 189:0.262295 190:0.214286 191:0.418605 192:0.378378 193:0.517241 194:0.603448 195:0.462963 196:0.315068 197:0.677419 198:0.272727 199:0.52381 200:0.731707 201:0.772727 202:0.666667 203:0.445946 204:0.352113 205:0.590909 206:0.844156 207:0.714286 208:0.585714 209:0.658228 210:0.607143 211:0.591549 212:0.439394 213:0.4875 214:0.591549 215:0.513158 216:0.415584 217:0.356164 218:0.253012 219:0.11236 220:0.219048 221:0.224138 222:0.324074 223:0.320755 224:0.425926 225:0.0972222 226:0.214286 227:0.112676 228:0.24 229:0.410714 230:0.653846 231:0.403846 232:0.324324 233:0.482759 234:0.242857 235:0.514286 236:0.6875 237:0.897727 238:0.753623 239:0.466667 240:0.322034 241:0.5375 242:0.797101 243:0.929577 244:0.738462 245:0.684211 246:0.530864 247:0.490385 248:0.276596 249:0.409524 250:0.431818 251:0.75 252:0.416667 253:0.474576 254:0.363636 255:0.13253 256:0.252747 257:0.20202 258:0.394737 259:0.454545 260:0.622642 261:0.170732 262:0.340426 263:0.210526 264:0.326733 265:0.546875 266:0.666667 267:0.464789 268:0.743243 269:0.697368 270:0.551282 271:0.716216 272:0.76 273:0.783784 274:0.56338 275:0.692308 276:0.510638 277:0.573171 278:0.676471 279:0.470588 280:0.45 281:0.305556 282:0.329114 283:0.705882 284:0.254237 285:0.661017 286:0.724638 287:0.630769 288:0.442857 
2.585961370942938 1:0.466667 2:0.530612 3:0.72449 4:0.732143 5:0.617978 6:0.659341 7:0.304348 8:0.650794 9:0.719512 10:0.869565 11:0.794118 12:0.697917 13:0.480769 14:0.854545 15:0.818182 16:0.714286 17:0.730769 18:0.547619 19:0.681818 20:0.491803 21:0.366667 22:0.376623 23:0.246914 24:0.388889 25:0.551282 26:0.689189 27:0.696203 28:0.48 29:0.304348 30:0.517241 31:0.676056 32:0.708333 33:0.533333 34:0.436364 35:0.507463 36:0.58427 37:0.444444 38:0.483871 39:0.585586 40:0.773196 41:0.888889 42:0.868421 43:0.491228 44:0.673077 45:0.806452 46:0.793651 47:0.569231 48:0.68 49:0.574468 50:0.575758 51:0.649123 52:0.803571 53:0.528571 54:0.640625 55:0.722222 56:0.393443 57:0.328571 58:0.415385 59:0.25974 60:0.506849 61:0.732394 62:0.676471 63:0.6 64:0.648148 65:0.390625 66:0.651515 67:0.645161 68:0.60274 69:0.478261 70:0.493506 71:0.481013 72:0.52809 73:0.71831 74:0.571429 75:0.670213 76:0.675926 77:0.707071 78:0.673684 79:0.431034 80:0.573529 81:0.854545 82:0.895522 83:0.810811 84:0.819444 85:0.666667 86:0.527778 87:0.75 88:0.708333 89:0.68254 90:0.779221 91:0.702703 92:0.513514 93:0.405405 94:0.462687 95:0.5 96:0.5 97:0.75 98:0.71875 99:0.704918 100:0.661538 101:0.459016 102:0.534247 103:0.59633 104:0.621622 105:0.635135 106:0.594203 107:0.5 108:0.608108 109:0.605634 110:0.46875 111:0.804878 112:0.766355 113:0.693878 114:0.54878 115:0.434211 116:0.43662 117:0.774194 118:0.840426 119:0.808081 120:0.362319 121:0.432836 122:0.627119 123:0.814815 124:0.7 125:0.714286 126:0.583333 127:0.561798 128:0.547945 129:0.478261 130:0.375 131:0.4625 132:0.533981 133:0.588889 134:0.512821 135:0.651515 136:0.662162 137:0.547945 138:0.532468 139:0.571429 140:0.440678 141:0.701754 142:0.532258 143:0.655172 144:0.671429 145:0.470588 146:0.509091 147:0.682353 148:0.62766 149:0.663551 150:0.663158 151:0.322222 152:0.402597 153:0.839506 154:0.788889 155:0.778947 156:0.821429 157:0.340659 158:0.604938 159:0.763889 160:0.75641 161:0.657143 162:0.62069 163:0.387097 164:0.518072 165:0.371795 166:0.529412 167:0.521739 168:0.495146 169:0.44086 170:0.581395 171:0.647059 172:0.708861 173:0.634146 174:0.638889 175:0.476744 176:0.428571 177:0.491803 178:0.537313 179:0.5 180:0.577465 181:0.466019 182:0.352273 183:0.516854 184:0.597938 185:0.590476 186:0.582418 187:0.45 188:0.545455 189:0.901639 190:0.880952 191:0.837209 192:0.797297 193:0.672414 194:0.706897 195:0.796296 196:0.780822 197:0.66129 198:0.772727 199:0.650794 200:0.439024 201:0.340909 202:0.472222 203:0.554054 204:0.690141 205:0.727273 206:0.74026 207:0.72619 208:0.742857 209:0.392405 210:0.488095 211:0.732394 212:0.666667 213:0.75 214:0.788732 215:0.526316 216:0.467532 217:0.60274 218:0.46988 219:0.516854 220:0.542857 221:0.508621 222:0.546296 223:0.528302 224:0.592593 225:0.777778 226:0.880952 227:0.802817 228:0.813333 229:0.571429 230:0.615385 231:0.884615 232:0.756757 233:0.517241 234:0.814286 235:0.728571 236:0.3875 237:0.340909 238:0.449275 239:0.6 240:0.830508 241:0.775 242:0.855072 243:0.816901 244:0.661538 245:0.434211 246:0.592593 247:0.644231 248:0.585106 249:0.552381 250:0.636364 251:0.75 252:0.683333 253:0.694915 254:0.709091 255:0.722892 256:0.78022 257:0.69697 258:0.570175 259:0.333333 260:0.509434 261:0.853659 262:0.87234 263:0.789474 264:0.544554 265:0.59375 266:0.533333 267:0.746479 268:0.662162 269:0.697368 270:0.448718 271:0.743243 272:0.426667 273:0.432432 274:0.521127 275:0.527473 276:0.531915 277:0.670732 278:0.882353 279:0.588235 280:0.525 281:0.583333 282:0.620253 283:0.808824 284:0.644068 285:0.491525 286:0.536232 287:0.415385 288:0.7 
0.5379800380694663 1:0.266667 2:0.510204 3:0.193878 4:0.285714 5:0.382022 6:0.615385 7:0.405797 8:0.619048 9:0.304878 10:0.478261 11:0.808824 12:0.614583 13:0.5 14:0.636364 15:0.436364 16:0.662338 17:0.705128 18:0.785714 19:0.636364 20:0.622951 21:0.366667 22:0.831169 23:0.54321 24:0.87963 25:0.423077 26:0.297297 27:0.291139 28:0.4 29:0.347826 30:0.494253 31:0.690141 32:0.479167 33:0.633333 34:0.581818 35:0.686567 36:0.438202 37:0.242424 38:0.258065 39:0.162162 40:0.237113 41:0.506173 42:0.434211 43:0.403509 44:0.557692 45:0.354839 46:0.349206 47:0.584615 48:0.346667 49:0.382979 50:0.484848 51:0.578947 52:0.392857 53:0.414286 54:0.296875 55:0.569444 56:0.688525 57:0.614286 58:0.430769 59:0.246753 60:0.342466 61:0.535211 62:0.426471 63:0.533333 64:0.518519 65:0.640625 66:0.590909 67:0.526882 68:0.232877 69:0.289855 70:0.220779 71:0.202532 72:0.224719 73:0.380282 74:0.38961 75:0.138298 76:0.203704 77:0.292929 78:0.378947 79:0.431034 80:0.5 81:0.309091 82:0.19403 83:0.621622 84:0.486111 85:0.431373 86:0.569444 87:0.607143 88:0.291667 89:0.492063 90:0.415584 91:0.554054 92:0.648649 93:0.621622 94:0.477612 95:0.216667 96:0.0930233 97:0.539474 98:0.40625 99:0.393443 100:0.507692 101:0.721311 102:0.424658 103:0.495413 104:0.283784 105:0.135135 106:0.173913 107:0.136364 108:0.310811 109:0.422535 110:0.609375 111:0.146341 112:0.17757 113:0.204082 114:0.304878 115:0.407895 116:0.56338 117:0.306452 118:0.117021 119:0.424242 120:0.73913 121:0.477612 122:0.59322 123:0.5 124:0.366667 125:0.714286 126:0.72619 127:0.52809 128:0.643836 129:0.492754 130:0.5625 131:0.7 132:0.61165 133:0.466667 134:0.397436 135:0.242424 136:0.324324 137:0.260274 138:0.558442 139:0.5 140:0.627119 141:0.649123 142:0.612903 143:0.448276 144:0.5 145:0.215686 146:0.418182 147:0.152941 148:0.170213 149:0.168224 150:0.221053 151:0.311111 152:0.480519 153:0.271605 154:0.222222 155:0.463158 156:0.154762 157:0.32967 158:0.506173 159:0.583333 160:0.5 161:0.757143 162:0.413793 163:0.430108 164:0.662651 165:0.769231 166:0.632353 167:0.673913 168:0.61165 169:0.408602 170:0.418605 171:0.341176 172:0.405063 173:0.439024 174:0.402778 175:0.523256 176:0.514286 177:0.393443 178:0.746269 179:0.592105 180:0.577465 181:0.223301 182:0.204545 183:0.235955 184:0.257732 185:0.266667 186:0.307692 187:0.383333 188:0.545455 189:0.262295 190:0.178571 191:0.72093 192:0.5 193:0.448276 194:0.551724 195:0.537037 196:0.39726 197:0.532258 198:0.378788 199:0.52381 200:0.707317 201:0.727273 202:0.625 203:0.540541 204:0.295775 205:0.5 206:0.415584 207:0.321429 208:0.385714 209:0.493671 210:0.27381 211:0.605634 212:0.439394 213:0.55 214:0.464789 215:0.434211 216:0.428571 217:0.260274 218:0.216867 219:0.292135 220:0.27619 221:0.284483 222:0.333333 223:0.509434 224:0.592593 225:0.305556 226:0.238095 227:0.295775 228:0.32 229:0.410714 230:0.634615 231:0.576923 232:0.472973 233:0.448276 234:0.3 235:0.585714 236:0.7125 237:0.704545 238:0.550725 239:0.416667 240:0.542373 241:0.4625 242:0.391304 243:0.380282 244:0.292308 245:0.407895 246:0.777778 247:0.528846 248:0.287234 249:0.438095 250:0.431818 251:0.683333 252:0.533333 253:0.305085 254:0.290909 255:0.192771 256:0.285714 257:0.282828 258:0.508772 259:0.30303 260:0.433962 261:0.170732 262:0.234043 263:0.368421 264:0.722772 265:0.421875 266:0.466667 267:0.450704 268:0.378378 269:0.473684 270:0.846154 271:0.594595 272:0.6 273:0.594595 274:0.591549 275:0.351648 276:0.797872 277:0.402439 278:0.397059 279:0.279412 280:0.45 281:0.416667 282:0.759494 283:0.617647 284:0.389831 285:0.644068 286:0.768116 287:0.615385 288:0.6 
1.879744345351875 1:0.306667 2:0.44898 3:0.326531 4:0.258929 5:0.247191 6:0.516484 7:0.57971 8:0.777778 9:0.317073 10:0.347826 11:0.5 12:0.4375 13:0.788462 14:0.727273 15:0.581818 16:0.337662 17:0.576923 18:0.345238 19:0.848485 20:0.52459 21:0.55 22:0.701299 23:0.604938 24:0.555556 25:0.615385 26:0.351351 27:0.392405 28:0.453333 29:0.231884 30:0.482759 31:0.943662 32:0.5625 33:0.766667 34:0.690909 35:0.716418 36:0.617978 37:0.333333 38:0.430108 39:0.378378 40:0.43299 41:0.580247 42:0.539474 43:0.666667 44:0.865385 45:0.516129 46:0.460317 47:0.723077 48:0.453333 49:0.617021 50:0.606061 51:0.631579 52:0.285714 53:0.371429 54:0.484375 55:0.680556 56:0.47541 57:0.5 58:0.492308 59:0.38961 60:0.60274 61:0.619718 62:0.367647 63:0.3 64:0.259259 65:0.296875 66:0.590909 67:0.763441 68:0.561644 69:0.463768 70:0.467532 71:0.468354 72:0.550562 73:0.492958 74:0.662338 75:0.425532 76:0.37037 77:0.454545 78:0.557895 79:0.603448 80:0.75 81:0.563636 82:0.432836 83:0.824324 84:0.652778 85:0.647059 86:0.722222 87:0.607143 88:0.458333 89:0.587302 90:0.415584 91:0.72973 92:0.689189 93:0.513514 94:0.552239 95:0.733333 96:0.604651 97:0.671053 98:0.4375 99:0.393443 100:0.307692 101:0.344262 102:0.479452 103:0.577982 104:0.594595 105:0.486486 106:0.507246 107:0.530303 108:0.702703 109:0.394366 110:0.421875 111:0.341463 112:0.364486 113:0.295918 114:0.304878 115:0.552632 116:0.71831 117:0.387097 118:0.351064 119:0.424242 120:0.608696 121:0.641791 122:0.79661 123:0.611111 124:0.45 125:0.493506 126:0.511905 127:0.741573 128:0.671233 129:0.507246 130:0.53125 131:0.4625 132:0.825243 133:0.633333 134:0.538462 135:0.439394 136:0.324324 137:0.191781 138:0.623377 139:0.683673 140:0.779661 141:0.649123 142:0.532258 143:0.672414 144:0.8 145:0.254902 146:0.363636 147:0.364706 148:0.297872 149:0.317757 150:0.452632 151:0.344444 152:0.571429 153:0.333333 154:0.255556 155:0.305263 156:0.440476 157:0.527473 158:0.691358 159:0.430556 160:0.358974 161:0.257143 162:0.62069 163:0.623656 164:0.771084 165:0.5 166:0.411765 167:0.26087 168:0.601942 169:0.44086 170:0.523256 171:0.4 172:0.329114 173:0.280488 174:0.902778 175:0.662791 176:0.542857 177:0.590164 178:0.746269 179:0.631579 180:0.774648 181:0.262136 182:0.238636 183:0.292135 184:0.309278 185:0.371429 186:0.472527 187:0.516667 188:0.872727 189:0.508197 190:0.345238 191:0.523256 192:0.486486 193:0.741379 194:0.775862 195:0.555556 196:0.383562 197:0.677419 198:0.439394 199:0.650794 200:0.621951 201:0.625 202:0.569444 203:0.418919 204:0.422535 205:0.712121 206:0.597403 207:0.416667 208:0.514286 209:0.683544 210:0.72619 211:0.676056 212:0.560606 213:0.5125 214:0.56338 215:0.592105 216:0.701299 217:0.383562 218:0.26506 219:0.247191 220:0.27619 221:0.310345 222:0.462963 223:0.490566 224:0.685185 225:0.291667 226:0.345238 227:0.309859 228:0.546667 229:0.5 230:0.769231 231:0.576923 232:0.324324 233:0.396552 234:0.471429 235:0.685714 236:0.6125 237:0.704545 238:0.608696 239:0.266667 240:0.355932 241:0.7 242:0.594203 243:0.661972 244:0.630769 245:0.736842 246:0.753086 247:0.692308 248:0.414894 249:0.428571 250:0.488636 251:0.766667 252:0.866667 253:0.423729 254:0.290909 255:0.337349 256:0.318681 257:0.333333 258:0.526316 259:0.439394 260:0.603774 261:0.365854 262:0.308511 263:0.389474 264:0.485149 265:0.625 266:0.8 267:0.478873 268:0.256757 269:0.539474 270:0.333333 271:0.810811 272:0.573333 273:0.527027 274:0.28169 275:0.318681 276:0.351064 277:0.609756 278:0.514706 279:0.485294 280:0.4875 281:0.333333 282:0.443038 283:0.955882 284:0.440678 285:0.59322 286:0.594203 287:0.6 288:0.757143 
2.058602051447237 1:0.466667 2:0.367347 3:0.846939 4:0.892857 5:0.797753 6:0.626374 7:0.391304 8:0.603175 9:0.756098 10:0.902174 11:0.852941 12:0.697917 13:0.423077 14:0.709091 15:0.745455 16:0.688312 17:0.666667 18:0.452381 19:0.606061 20:0.393443 21:0.433333 22:0.402597 23:0.234568 24:0.342593 25:0.628205 26:0.635135 27:0.620253 28:0.506667 29:0.376812 30:0.448276 31:0.690141 32:0.4375 33:0.5 34:0.581818 35:0.402985 36:0.325843 37:0.313131 38:0.225806 39:0.423423 40:0.57732 41:0.777778 42:0.723684 43:0.315789 44:0.442308 45:0.83871 46:0.777778 47:0.553846 48:0.706667 49:0.361702 50:0.333333 51:0.561404 52:0.821429 53:0.557143 54:0.625 55:0.486111 56:0.262295 57:0.371429 58:0.523077 59:0.272727 60:0.438356 61:0.690141 62:0.705882 63:0.683333 64:0.648148 65:0.359375 66:0.439394 67:0.55914 68:0.465753 69:0.565217 70:0.38961 71:0.392405 72:0.280899 73:0.394366 74:0.376623 75:0.574468 76:0.574074 77:0.606061 78:0.526316 79:0.258621 80:0.411765 81:0.763636 82:0.835821 83:0.783784 84:0.708333 85:0.411765 86:0.361111 87:0.589286 88:0.541667 89:0.68254 90:0.714286 91:0.472973 92:0.297297 93:0.364865 94:0.432836 95:0.416667 96:0.44186 97:0.631579 98:0.59375 99:0.590164 100:0.584615 101:0.442623 102:0.452055 103:0.458716 104:0.486486 105:0.540541 106:0.478261 107:0.409091 108:0.432432 109:0.549296 110:0.5625 111:0.841463 112:0.859813 113:0.72449 114:0.5 115:0.460526 116:0.408451 117:0.741935 118:0.882979 119:0.818182 120:0.391304 121:0.447761 122:0.508475 123:0.740741 124:0.7 125:0.623377 126:0.452381 127:0.483146 128:0.39726 129:0.463768 130:0.5625 131:0.6 132:0.466019 133:0.477778 134:0.333333 135:0.454545 136:0.594595 137:0.575342 138:0.545455 139:0.428571 140:0.474576 141:0.45614 142:0.451613 143:0.344828 144:0.557143 145:0.431373 146:0.472727 147:0.764706 148:0.680851 149:0.691589 150:0.631579 151:0.377778 152:0.376623 153:0.82716 154:0.822222 155:0.747368 156:0.75 157:0.285714 158:0.469136 159:0.583333 160:0.74359 161:0.614286 162:0.505747 163:0.322581 164:0.361446 165:0.320513 166:0.5 167:0.434783 168:0.320388 169:0.333333 170:0.476744 171:0.658824 172:0.607595 173:0.512195 174:0.458333 175:0.395349 176:0.4 177:0.47541 178:0.313433 179:0.368421 180:0.56338 181:0.359223 182:0.238636 183:0.426966 184:0.494845 185:0.47619 186:0.494505 187:0.366667 188:0.327273 189:0.786885 190:0.833333 191:0.813953 192:0.824324 193:0.465517 194:0.413793 195:0.814815 196:0.712329 197:0.548387 198:0.681818 199:0.47619 200:0.243902 201:0.25 202:0.305556 203:0.324324 204:0.464789 205:0.424242 206:0.636364 207:0.785714 208:0.685714 209:0.278481 210:0.369048 211:0.577465 212:0.787879 213:0.825 214:0.816901 215:0.631579 216:0.597403 217:0.39726 218:0.337349 219:0.404494 220:0.419048 221:0.439655 222:0.462963 223:0.301887 224:0.277778 225:0.680556 226:0.880952 227:0.816901 228:0.773333 229:0.375 230:0.403846 231:0.692308 232:0.77027 233:0.534483 234:0.685714 235:0.471429 236:0.275 237:0.215909 238:0.231884 239:0.4 240:0.525424 241:0.425 242:0.637681 243:0.84507 244:0.707692 245:0.276316 246:0.432099 247:0.5 248:0.43617 249:0.542857 250:0.727273 251:0.85 252:0.75 253:0.644068 254:0.418182 255:0.759036 256:0.802198 257:0.727273 258:0.517544 259:0.363636 260:0.396226 261:0.841463 262:0.819149 263:0.8 264:0.524752 265:0.4375 266:0.422222 267:0.633803 268:0.621622 269:0.618421 270:0.384615 271:0.621622 272:0.333333 273:0.405405 274:0.535211 275:0.67033 276:0.531915 277:0.573171 278:0.544118 279:0.544118 280:0.6 281:0.513889 282:0.556962 283:0.794118 284:0.389831 285:0.457627 286:0.434783 287:0.323077 288:0.571429 
0.3370833047862439 1:0.0666667 2:0.265306 3:0.234694 4:0.232143 5:0.224719 6:0.340659 7:0.347826 8:0.634921 9:0.219512 10:0.380435 11:0.661765 12:0.291667 13:0.519231 14:0.527273 15:0.472727 16:0.623377 17:0.692308 18:0.321429 19:0.666667 20:0.47541 21:0.466667 22:0.922078 23:0.654321 24:0.935185 25:0.487179 26:0.743243 27:0.556962 28:0.733333 29:0.347826 30:0.563218 31:0.647887 32:0.625 33:0.766667 34:0.854545 35:0.776119 36:0.47191 37:0.121212 38:0.268817 39:0.234234 40:0.319588 41:0.530864 42:0.473684 43:0.508772 44:0.596154 45:0.193548 46:0.206349 47:0.476923 48:0.346667 49:0.446809 50:0.363636 51:0.298246 52:0.178571 53:0.4 54:0.3125 55:0.569444 56:0.622951 57:0.7 58:0.507692 59:0.233766 60:0.260274 61:0.507042 62:0.676471 63:0.716667 64:0.462963 65:0.21875 66:0.333333 67:0.537634 68:0.328767 69:0.405797 70:0.467532 71:0.43038 72:0.370787 73:0.225352 74:0.428571 75:0.234043 76:0.268519 77:0.353535 78:0.410526 79:0.413793 80:0.558824 81:0.2 82:0.104478 83:0.581081 84:0.375 85:0.372549 86:0.430556 87:0.375 88:0.166667 89:0.428571 90:0.311688 91:0.554054 92:0.581081 93:0.662162 94:0.477612 95:0.25 96:0.139535 97:0.513158 98:0.578125 99:0.655738 100:0.430769 101:0.147541 102:0.164384 103:0.449541 104:0.351351 105:0.472973 106:0.391304 107:0.424242 108:0.405405 109:0.15493 110:0.296875 111:0.243902 112:0.17757 113:0.183673 114:0.243902 115:0.25 116:0.605634 117:0.387097 118:0.0957447 119:0.414141 120:0.652174 121:0.373134 122:0.627119 123:0.592593 124:0.15 125:0.532468 126:0.833333 127:0.460674 128:0.657534 129:0.637681 130:0.765625 131:0.9 132:0.660194 133:0.477778 134:0.666667 135:0.69697 136:0.486486 137:0.369863 138:0.649351 139:0.5 140:0.59322 141:0.701754 142:0.645161 143:0.672414 144:0.657143 145:0.117647 146:0.254545 147:0.211765 148:0.159574 149:0.214953 150:0.378947 151:0.222222 152:0.467532 153:0.209877 154:0.122222 155:0.242105 156:0.25 157:0.307692 158:0.567901 159:0.5 160:0.525641 161:0.857143 162:0.356322 163:0.365591 164:0.590361 165:0.692308 166:0.588235 167:0.652174 168:0.679612 169:0.387097 170:0.581395 171:0.623529 172:0.658228 173:0.731707 174:0.736111 175:0.5 176:0.514286 177:0.508197 178:0.716418 179:0.723684 180:0.676056 181:0.116505 182:0.0909091 183:0.157303 184:0.185567 185:0.238095 186:0.351648 187:0.2 188:0.418182 189:0.229508 190:0.154762 191:0.476744 192:0.378378 193:0.448276 194:0.362069 195:0.407407 196:0.232877 197:0.741935 198:0.409091 199:0.539683 200:0.609756 201:0.795455 202:0.652778 203:0.391892 204:0.309859 205:0.590909 206:0.727273 207:0.797619 208:0.657143 209:0.379747 210:0.202381 211:0.633803 212:0.348485 213:0.4 214:0.492958 215:0.486842 216:0.402597 217:0.178082 218:0.192771 219:0.146067 220:0.152381 221:0.206897 222:0.259259 223:0.415094 224:0.518519 225:0.0833333 226:0.190476 227:0.183099 228:0.266667 229:0.410714 230:0.576923 231:0.230769 232:0.351351 233:0.310345 234:0.242857 235:0.557143 236:0.6625 237:0.693182 238:0.594203 239:0.283333 240:0.186441 241:0.5625 242:0.811594 243:0.746479 244:0.476923 245:0.25 246:0.666667 247:0.471154 248:0.319149 249:0.390476 250:0.397727 251:0.566667 252:0.65 253:0.186441 254:0.345455 255:0.204819 256:0.252747 257:0.313131 258:0.289474 259:0.227273 260:0.641509 261:0.158537 262:0.180851 263:0.273684 264:0.376238 265:0.5 266:0.666667 267:0.408451 268:0.27027 269:0.539474 270:0.910256 271:0.648649 272:0.533333 273:0.662162 274:0.507042 275:0.32967 276:0.606383 277:0.487805 278:0.75 279:0.573529 280:0.55 281:0.430556 282:0.898734 283:0.602941 284:0.440678 285:0.610169 286:0.695652 287:0.615385 288:0.757143 
1.390320072572576 1:0.346667 2:0.510204 3:0.72449 4:0.723214 5:0.595506 6:0.593407 7:0.333333 8:0.52381 9:0.670732 10:0.815217 11:0.661765 12:0.65625 13:0.480769 14:0.8 15:0.636364 16:0.545455 17:0.589744 18:0.5 19:0.681818 20:0.278689 21:0.2 22:0.285714 23:0.222222 24:0.333333 25:0.589744 26:0.648649 27:0.582278 28:0.52 29:0.434783 30:0.425287 31:0.591549 32:0.729167 33:0.45 34:0.472727 35:0.402985 36:0.382022 37:0.353535 38:0.365591 39:0.558559 40:0.649485 41:0.790123 42:0.802632 43:0.54386 44:0.538462 45:0.774194 46:0.68254 47:0.569231 48:0.786667 49:0.425532 50:0.257576 51:0.403509 52:0.607143 53:0.571429 54:0.75 55:0.555556 56:0.344262 57:0.271429 58:0.430769 59:0.350649 60:0.465753 61:0.619718 62:0.720588 63:0.616667 64:0.666667 65:0.578125 66:0.530303 67:0.55914 68:0.589041 69:0.478261 70:0.402597 71:0.367089 72:0.348315 73:0.380282 74:0.480519 75:0.62766 76:0.666667 77:0.686869 78:0.673684 79:0.327586 80:0.455882 81:0.618182 82:0.835821 83:0.810811 84:0.736111 85:0.411765 86:0.347222 87:0.428571 88:0.479167 89:0.68254 90:0.714286 91:0.540541 92:0.324324 93:0.27027 94:0.38806 95:0.533333 96:0.418605 97:0.565789 98:0.5 99:0.639344 100:0.661538 101:0.622951 102:0.438356 103:0.431193 104:0.5 105:0.459459 106:0.376812 107:0.393939 108:0.472973 109:0.309859 110:0.375 111:0.719512 112:0.691589 113:0.632653 114:0.439024 115:0.223684 116:0.295775 117:0.645161 118:0.776596 119:0.79798 120:0.304348 121:0.283582 122:0.491525 123:0.62963 124:0.566667 125:0.701299 126:0.559524 127:0.494382 128:0.410959 129:0.405797 130:0.359375 131:0.4625 132:0.514563 133:0.533333 134:0.461538 135:0.560606 136:0.581081 137:0.616438 138:0.571429 139:0.397959 140:0.338983 141:0.438596 142:0.451613 143:0.362069 144:0.557143 145:0.215686 146:0.290909 147:0.635294 148:0.606383 149:0.616822 150:0.589474 151:0.255556 152:0.324675 153:0.790123 154:0.722222 155:0.747368 156:0.75 157:0.285714 158:0.469136 159:0.680556 160:0.717949 161:0.514286 162:0.528736 163:0.376344 164:0.385542 165:0.282051 166:0.308824 167:0.445652 168:0.436893 169:0.462366 170:0.430233 171:0.6 172:0.481013 173:0.560976 174:0.625 175:0.453488 176:0.328571 177:0.42623 178:0.328358 179:0.605263 180:0.605634 181:0.242718 182:0.204545 183:0.382022 184:0.474227 185:0.514286 186:0.549451 187:0.316667 188:0.381818 189:0.737705 190:0.77381 191:0.813953 192:0.77027 193:0.517241 194:0.448276 195:0.648148 196:0.726027 197:0.580645 198:0.69697 199:0.507937 200:0.317073 201:0.284091 202:0.347222 203:0.459459 204:0.605634 205:0.636364 206:0.662338 207:0.630952 208:0.628571 209:0.443038 210:0.488095 211:0.605634 212:0.515152 213:0.6625 214:0.690141 215:0.578947 216:0.532468 217:0.219178 218:0.253012 219:0.337079 220:0.342857 221:0.396552 222:0.5 223:0.283019 224:0.240741 225:0.555556 226:0.72619 227:0.690141 228:0.8 229:0.482143 230:0.480769 231:0.673077 232:0.743243 233:0.431034 234:0.671429 235:0.542857 236:0.3375 237:0.295455 238:0.434783 239:0.55 240:0.694915 241:0.575 242:0.753623 243:0.732394 244:0.692308 245:0.486842 246:0.493827 247:0.509615 248:0.5 249:0.495238 250:0.602273 251:0.633333 252:0.6 253:0.389831 254:0.436364 255:0.674699 256:0.714286 257:0.626263 258:0.5 259:0.393939 260:0.45283 261:0.792683 262:0.765957 263:0.778947 264:0.564356 265:0.46875 266:0.466667 267:0.647887 268:0.608108 269:0.657895 270:0.461538 271:0.675676 272:0.36 273:0.364865 274:0.521127 275:0.604396 276:0.468085 277:0.646341 278:0.676471 279:0.529412 280:0.5 281:0.555556 282:0.493671 283:0.647059 284:0.525424 285:0.440678 286:0.405797 287:0.323077 288:0.557143 
0.9205471409614097 1:0.333333 2:0.530612 3:0.214286 4:0.205357 5:0.280899 6:0.362637 7:0.42029 8:0.650794 9:0.304878 10:0.380435 11:0.720588 12:0.270833 13:0.557692 14:0.563636 15:0.454545 16:0.480519 17:0.884615 18:0.547619 19:0.651515 20:0.655738 21:0.733333 22:0.727273 23:0.728395 24:0.87037 25:0.474359 26:0.324324 27:0.35443 28:0.373333 29:0.304348 30:0.413793 31:0.661972 32:0.5 33:0.733333 34:0.636364 35:0.626866 36:0.449438 37:0.262626 38:0.408602 39:0.27027 40:0.319588 41:0.518519 42:0.565789 43:0.315789 44:0.557692 45:0.322581 46:0.206349 47:0.492308 48:0.373333 49:0.340426 50:0.348485 51:0.403509 52:0.285714 53:0.342857 54:0.296875 55:0.527778 56:0.540984 57:0.714286 58:0.507692 59:0.285714 60:0.328767 61:0.535211 62:0.367647 63:0.316667 64:0.166667 65:0.4375 66:0.409091 67:0.494624 68:0.315068 69:0.449275 70:0.454545 71:0.493671 72:0.348315 73:0.352113 74:0.623377 75:0.37234 76:0.342593 77:0.363636 78:0.452632 79:0.327586 80:0.544118 81:0.254545 82:0.164179 83:0.554054 84:0.430556 85:0.392157 86:0.597222 87:0.517857 88:0.270833 89:0.396825 90:0.467532 91:0.5 92:0.810811 93:0.864865 94:0.552239 95:0.316667 96:0.290698 97:0.513158 98:0.40625 99:0.360656 100:0.292308 101:0.47541 102:0.438356 103:0.449541 104:0.310811 105:0.391892 106:0.434783 107:0.333333 108:0.378378 109:0.28169 110:0.46875 111:0.365854 112:0.205607 113:0.183673 114:0.195122 115:0.25 116:0.507042 117:0.451613 118:0.180851 119:0.373737 120:0.623188 121:0.313433 122:0.677966 123:0.592593 124:0.266667 125:0.649351 126:0.75 127:0.449438 128:0.780822 129:0.710145 130:0.625 131:0.7875 132:0.660194 133:0.411111 134:0.397436 135:0.272727 136:0.310811 137:0.356164 138:0.714286 139:0.428571 140:0.644068 141:0.596491 142:0.645161 143:0.586207 144:0.685714 145:0.137255 146:0.363636 147:0.294118 148:0.170213 149:0.196262 150:0.242105 151:0.222222 152:0.441558 153:0.407407 154:0.177778 155:0.273684 156:0.27381 157:0.21978 158:0.54321 159:0.5 160:0.512821 161:0.785714 162:0.494253 163:0.322581 164:0.698795 165:0.794872 166:0.705882 167:0.717391 168:0.679612 169:0.27957 170:0.406977 171:0.4 172:0.405063 173:0.560976 174:0.555556 175:0.44186 176:0.442857 177:0.557377 178:0.656716 179:0.565789 180:0.619718 181:0.174757 182:0.227273 183:0.202247 184:0.206186 185:0.238095 186:0.340659 187:0.366667 188:0.636364 189:0.393443 190:0.178571 191:0.651163 192:0.554054 193:0.344828 194:0.431034 195:0.444444 196:0.30137 197:0.5 198:0.393939 199:0.539683 200:0.719512 201:0.829545 202:0.569444 203:0.459459 204:0.338028 205:0.439394 206:0.506494 207:0.440476 208:0.328571 209:0.468354 210:0.369048 211:0.535211 212:0.439394 213:0.5 214:0.521127 215:0.421053 216:0.532468 217:0.219178 218:0.228916 219:0.247191 220:0.238095 221:0.241379 222:0.268519 223:0.45283 224:0.703704 225:0.333333 226:0.261905 227:0.352113 228:0.373333 229:0.375 230:0.730769 231:0.557692 232:0.445946 233:0.344828 234:0.285714 235:0.557143 236:0.7625 237:0.875 238:0.681159 239:0.366667 240:0.525424 241:0.4375 242:0.434783 243:0.549296 244:0.307692 245:0.421053 246:0.728395 247:0.490385 248:0.276596 249:0.428571 250:0.420455 251:0.616667 252:0.55 253:0.440678 254:0.418182 255:0.204819 256:0.252747 257:0.30303 258:0.289474 259:0.378788 260:0.490566 261:0.207317 262:0.191489 263:0.263158 264:0.465347 265:0.453125 266:0.622222 267:0.380282 268:0.256757 269:0.434211 270:0.820513 271:0.621622 272:0.586667 273:0.716216 274:0.619718 275:0.384615 276:0.702128 277:0.463415 278:0.367647 279:0.352941 280:0.525 281:0.541667 282:0.78481 283:0.676471 284:0.322034 285:0.694915 286:0.681159 287:0.661538 288:0.6 
2.434991320517769 1:0.48 2:0.77551 3:0.918367 4:0.785714 5:0.674157 6:0.604396 7:0.42029 8:0.761905 9:0.780488 10:0.771739 11:0.705882 12:0.625 13:0.557692 14:0.781818 15:0.618182 16:0.545455 17:0.5 18:0.309524 19:0.69697 20:0.442623 21:0.283333 22:0.350649 23:0.382716 24:0.361111 25:0.628205 26:0.648649 27:0.468354 28:0.413333 29:0.347826 30:0.402299 31:0.647887 32:0.708333 33:0.45 34:0.418182 35:0.343284 36:0.370787 37:0.414141 38:0.430108 39:0.531532 40:0.731959 41:0.925926 42:0.776316 43:0.54386 44:0.711538 45:0.822581 46:0.793651 47:0.569231 48:0.613333 49:0.531915 50:0.469697 51:0.54386 52:0.678571 53:0.471429 54:0.578125 55:0.652778 56:0.344262 57:0.357143 58:0.492308 59:0.376623 60:0.506849 61:0.690141 62:0.647059 63:0.666667 64:0.555556 65:0.328125 66:0.378788 67:0.55914 68:0.452055 69:0.478261 70:0.376623 71:0.303797 72:0.314607 73:0.478873 74:0.558442 75:0.670213 76:0.722222 77:0.69697 78:0.589474 79:0.586207 80:0.661765 81:0.836364 82:0.80597 83:0.783784 84:0.708333 85:0.568627 86:0.527778 87:0.607143 88:0.520833 89:0.634921 90:0.688312 91:0.527027 92:0.432432 93:0.378378 94:0.447761 95:0.5 96:0.418605 97:0.539474 98:0.515625 99:0.508197 100:0.584615 101:0.377049 102:0.410959 103:0.440367 104:0.418919 105:0.432432 106:0.434783 107:0.227273 108:0.364865 109:0.422535 110:0.5625 111:0.841463 112:0.841121 113:0.765306 114:0.682927 115:0.394737 116:0.56338 117:0.822581 118:0.734043 119:0.767677 120:0.463768 121:0.328358 122:0.610169 123:0.648148 124:0.533333 125:0.519481 126:0.52381 127:0.426966 128:0.506849 129:0.362319 130:0.375 131:0.4125 132:0.592233 133:0.477778 134:0.333333 135:0.454545 136:0.486486 137:0.424658 138:0.753247 139:0.428571 140:0.305085 141:0.526316 142:0.33871 143:0.396552 144:0.685714 145:0.313725 146:0.763636 147:0.835294 148:0.840426 149:0.766355 150:0.736842 151:0.277778 152:0.519481 153:0.765432 154:0.8 155:0.768421 156:0.892857 157:0.241758 158:0.530864 159:0.5 160:0.628205 161:0.428571 162:0.563218 163:0.354839 164:0.457831 165:0.294872 166:0.455882 167:0.423913 168:0.61165 169:0.430108 170:0.523256 171:0.588235 172:0.620253 173:0.5 174:0.805556 175:0.5 176:0.342857 177:0.327869 178:0.447761 179:0.460526 180:0.802817 181:0.320388 182:0.329545 183:0.606742 184:0.639175 185:0.647619 186:0.461538 187:0.616667 188:0.672727 189:0.885246 190:0.797619 191:0.72093 192:0.72973 193:0.672414 194:0.706897 195:0.703704 196:0.684932 197:0.516129 198:0.575758 199:0.444444 200:0.304878 201:0.284091 202:0.319444 203:0.310811 204:0.464789 205:0.606061 206:0.675325 207:0.702381 208:0.542857 209:0.291139 210:0.404762 211:0.704225 212:0.772727 213:0.7875 214:0.56338 215:0.539474 216:0.675325 217:0.424658 218:0.409639 219:0.561798 220:0.561905 221:0.577586 222:0.462963 223:0.490566 224:0.462963 225:0.666667 226:0.845238 227:0.690141 228:0.653333 229:0.535714 230:0.461538 231:0.673077 232:0.675676 233:0.517241 234:0.614286 235:0.628571 236:0.3125 237:0.25 238:0.376812 239:0.4 240:0.508475 241:0.625 242:0.73913 243:0.71831 244:0.615385 245:0.328947 246:0.45679 247:0.653846 248:0.606383 249:0.52381 250:0.534091 251:0.616667 252:0.733333 253:0.474576 254:0.763636 255:0.879518 256:0.934066 257:0.848485 258:0.491228 259:0.5 260:0.698113 261:0.780488 262:0.776596 263:0.852632 264:0.50495 265:0.46875 266:0.511111 267:0.577465 268:0.567568 269:0.578947 270:0.25641 271:0.621622 272:0.32 273:0.364865 274:0.408451 275:0.505495 276:0.382979 277:0.634146 278:0.75 279:0.544118 280:0.525 281:0.486111 282:0.468354 283:0.661765 284:0.59322 285:0.423729 286:0.463768 287:0.384615 288:0.542857 
1.27255323082321 1:0.293333 2:0.530612 3:0.27551 4:0.276786 5:0.213483 6:0.285714 7:0.391304 8:0.587302 9:0.219512 10:0.641304 11:0.441176 12:0.302083 13:0.480769 14:0.654545 15:0.381818 16:0.792208 17:0.512821 18:0.5 19:0.666667 20:0.688525 21:0.533333 22:0.792208 23:0.790123 24:0.537037 25:0.435897 26:0.472973 27:0.392405 28:0.413333 29:0.275362 30:0.252874 31:0.633803 32:0.458333 33:0.65 34:0.618182 35:0.567164 36:0.292135 37:0.292929 38:0.44086 39:0.351351 40:0.463918 41:0.555556 42:0.368421 43:0.45614 44:0.634615 45:0.354839 46:0.349206 47:0.538462 48:0.266667 49:0.489362 50:0.5 51:0.45614 52:0.160714 53:0.328571 54:0.1875 55:0.597222 56:0.819672 57:0.785714 58:0.276923 59:0.194805 60:0.287671 61:0.521127 62:0.382353 63:0.35 64:0.185185 65:0.453125 66:0.454545 67:0.483871 68:0.30137 69:0.391304 70:0.350649 71:0.443038 72:0.258427 73:0.380282 74:0.558442 75:0.361702 76:0.444444 77:0.454545 78:0.4 79:0.37931 80:0.5 81:0.218182 82:0.313433 83:0.689189 84:0.277778 85:0.470588 86:0.555556 87:0.446429 88:0.125 89:0.428571 90:0.220779 91:0.581081 92:0.716216 93:0.756757 94:0.38806 95:0.15 96:0.116279 97:0.552632 98:0.328125 99:0.377049 100:0.338462 101:0.393443 102:0.315068 103:0.449541 104:0.189189 105:0.324324 106:0.362319 107:0.424242 108:0.324324 109:0.380282 110:0.46875 111:0.231707 112:0.280374 113:0.397959 114:0.158537 115:0.381579 116:0.605634 117:0.290323 118:0.234043 119:0.656566 120:0.637681 121:0.343284 122:0.728814 123:0.481481 124:0.516667 125:0.636364 126:0.714286 127:0.561798 128:0.780822 129:0.565217 130:0.578125 131:0.6625 132:0.708738 133:0.477778 134:0.371795 135:0.348485 136:0.324324 137:0.356164 138:0.74026 139:0.428571 140:0.372881 141:0.596491 142:0.629032 143:0.586207 144:0.614286 145:0.186275 146:0.327273 147:0.211765 148:0.287234 149:0.271028 150:0.263158 151:0.288889 152:0.454545 153:0.185185 154:0.311111 155:0.452632 156:0.22619 157:0.318681 158:0.469136 159:0.361111 160:0.564103 161:0.642857 162:0.436782 163:0.419355 164:0.662651 165:0.705128 166:0.676471 167:0.684783 168:0.650485 169:0.376344 170:0.465116 171:0.482353 172:0.493671 173:0.52439 174:0.666667 175:0.5 176:0.428571 177:0.655738 178:0.626866 179:0.631579 180:0.690141 181:0.194175 182:0.227273 183:0.168539 184:0.268041 185:0.27619 186:0.208791 187:0.416667 188:0.654545 189:0.213115 190:0.321429 191:0.627907 192:0.351351 193:0.551724 194:0.603448 195:0.351852 196:0.315068 197:0.516129 198:0.181818 199:0.666667 200:0.731707 201:0.784091 202:0.541667 203:0.364865 204:0.225352 205:0.621212 206:0.584416 207:0.559524 208:0.542857 209:0.392405 210:0.416667 211:0.661972 212:0.484848 213:0.575 214:0.478873 215:0.5 216:0.402597 217:0.246575 218:0.26506 219:0.224719 220:0.2 221:0.232759 222:0.212963 223:0.415094 224:0.555556 225:0.347222 226:0.345238 227:0.253521 228:0.253333 229:0.375 230:0.653846 231:0.442308 232:0.351351 233:0.327586 234:0.228571 235:0.542857 236:0.7625 237:0.75 238:0.434783 239:0.35 240:0.423729 241:0.5125 242:0.565217 243:0.577465 244:0.384615 245:0.5 246:0.679012 247:0.625 248:0.446809 249:0.485714 250:0.397727 251:0.566667 252:0.4 253:0.372881 254:0.436364 255:0.26506 256:0.252747 257:0.212121 258:0.263158 259:0.409091 260:0.660377 261:0.292683 262:0.297872 263:0.526316 264:0.346535 265:0.421875 266:0.622222 267:0.380282 268:0.364865 269:0.618421 270:0.423077 271:0.635135 272:0.68 273:0.635135 274:0.338028 275:0.527473 276:0.43617 277:0.439024 278:0.588235 279:0.470588 280:0.3875 281:0.597222 282:0.506329 283:0.5 284:0.440678 285:0.745763 286:0.623188 287:0.661538 288:0.471429 
0.9841199840703165 1:0.32 2:0.693878 3:0.27551 4:0.214286 5:0.258427 6:0.362637 7:0.26087 8:0.396825 9:0.304878 10:0.25 11:0.779412 12:0.5625 13:0.346154 14:0.4 15:0.418182 16:0.415584 17:0.820513 18:0.785714 19:0.5 20:0.42623 21:0.333333 22:0.363636 23:0.765432 24:0.75 25:0.410256 26:0.378378 27:0.556962 28:0.493333 29:0.536232 30:0.609195 31:0.380282 32:0.0416667 33:0.25 34:0.254545 35:0.238806 36:0.280899 37:0.20202 38:0.397849 39:0.369369 40:0.443299 41:0.580247 42:0.618421 43:0.368421 44:0.615385 45:0.467742 46:0.31746 47:0.461538 48:0.573333 49:0.468085 50:0.757576 51:1 52:0.714286 53:0.3 54:0.46875 55:0.361111 56:0.327869 57:0.285714 58:0.276923 59:0.116883 60:0.369863 61:0.464789 62:0.352941 63:0.4 64:0.518519 65:0.703125 66:0.772727 67:0.580645 68:0.287671 69:0.101449 70:0.0649351 71:0.139241 72:0.269663 73:0.323944 74:0.61039 75:0.468085 76:0.361111 77:0.333333 78:0.526316 79:0.275862 80:0.529412 81:0.309091 82:0.373134 83:0.364865 84:0.722222 85:0.27451 86:0.805556 87:0.732143 88:0.708333 89:0.47619 90:0.519481 91:0.391892 92:0.513514 93:0.283784 94:0.298507 95:0.2 96:0.162791 97:0.552632 98:0.421875 99:0.295082 100:0.476923 101:0.57377 102:0.69863 103:0.440367 104:0.22973 105:0.0405405 106:0.0724638 107:0.030303 108:0.391892 109:0.267606 110:0.453125 111:0.329268 112:0.242991 113:0.193878 114:0.280488 115:0.184211 116:0.408451 117:0.274194 118:0.255319 119:0.131313 120:0.811594 121:0.208955 122:0.610169 123:0.407407 124:0.383333 125:0.649351 126:0.678571 127:0.348315 128:0.534247 129:0.362319 130:0.25 131:0.6 132:0.417476 133:0.411111 134:0.320513 135:0.409091 136:0.581081 137:0.493151 138:0.623377 139:0.336735 140:0.101695 141:0.140351 142:0.290323 143:0.103448 144:0.371429 145:0.137255 146:0.363636 147:0.294118 148:0.148936 149:0.214953 150:0.231579 151:0.155556 152:0.311688 153:0.234568 154:0.166667 155:0.526316 156:0.416667 157:0.186813 158:0.45679 159:0.333333 160:0.320513 161:0.528571 162:0.505747 163:0.290323 164:0.590361 165:0.410256 166:0.397059 167:0.608696 168:0.407767 169:0.27957 170:0.290698 171:0.4 172:0.556962 173:0.560976 174:0.763889 175:0.406977 176:0.157143 177:0.245902 178:0.432836 179:0.342105 180:0.549296 181:0.116505 182:0.375 183:0.337079 184:0.247423 185:0.247619 186:0.274725 187:0.3 188:0.781818 189:0.557377 190:0.380952 191:0.465116 192:0.837838 193:0.344828 194:0.603448 195:0.5 196:0.547945 197:0.370968 198:0.636364 199:0.349206 200:0.621951 201:0.636364 202:0.708333 203:0.581081 204:0.478873 205:0.393939 206:0.363636 207:0.202381 208:0.285714 209:0.531646 210:0.571429 211:0.760563 212:0.651515 213:0.5625 214:0.676056 215:0.671053 216:0.74026 217:0.150685 218:0.301205 219:0.325843 220:0.247619 221:0.206897 222:0.194444 223:0.45283 224:0.62963 225:0.458333 226:0.380952 227:0.225352 228:0.413333 229:0.357143 230:0.75 231:0.634615 232:0.486486 233:0.258621 234:0.457143 235:0.428571 236:0.675 237:0.715909 238:0.666667 239:0.25 240:0.745763 241:0.3625 242:0.362319 243:0.408451 244:0.353846 245:0.368421 246:0.716049 247:0.557692 248:0.393617 249:0.447619 250:0.465909 251:0.583333 252:0.716667 253:0.288136 254:0.254545 255:0.240964 256:0.252747 257:0.141414 258:0.219298 259:0.272727 260:0.320755 261:0.317073 262:0.340426 263:0.168421 264:0.673267 265:0.328125 266:0.422222 267:0.464789 268:0.202703 269:0.105263 270:0.717949 271:0.5 272:0.48 273:0.472973 274:0.28169 275:0.208791 276:0.776596 277:0.292683 278:0.308824 279:0.455882 280:0.55 281:0.638889 282:0.734177 283:0.470588 284:0.169492 285:0.389831 286:0.376812 287:0.384615 288:0.528571 
1.688623314324243 1:0.333333 2:0.204082 3:0.826531 4:0.830357 5:0.752809 6:0.582418 7:0.289855 8:0.507937 9:0.817073 10:0.847826 11:0.838235 12:0.645833 13:0.269231 14:0.636364 15:0.690909 16:0.623377 17:0.679487 18:0.464286 19:0.590909 20:0.47541 21:0.466667 22:0.571429 23:0.419753 24:0.351852 25:0.5 26:0.662162 27:0.658228 28:0.613333 29:0.594203 30:0.402299 31:0.43662 32:0.4375 33:0.483333 34:0.454545 35:0.402985 36:0.337079 37:0.313131 38:0.215054 39:0.522523 40:0.680412 41:0.790123 42:0.592105 43:0.315789 44:0.423077 45:0.903226 46:0.746032 47:0.615385 48:0.733333 49:0.340426 50:0.287879 51:0.526316 52:0.910714 53:0.7 54:0.65625 55:0.569444 56:0.360656 57:0.342857 58:0.492308 59:0.415584 60:0.506849 61:0.619718 62:0.75 63:0.75 64:0.777778 65:0.59375 66:0.530303 67:0.44086 68:0.506849 69:0.463768 70:0.428571 71:0.316456 72:0.348315 73:0.295775 74:0.376623 75:0.606383 76:0.666667 77:0.686869 78:0.442105 79:0.241379 80:0.441176 81:0.781818 82:0.850746 83:0.837838 84:0.722222 85:0.45098 86:0.513889 87:0.589286 88:0.479167 89:0.777778 90:0.727273 91:0.540541 92:0.554054 93:0.459459 94:0.522388 95:0.7 96:0.476744 97:0.578947 98:0.6875 99:0.721311 100:0.753846 101:0.655738 102:0.410959 103:0.394495 104:0.337838 105:0.364865 106:0.246377 107:0.227273 108:0.364865 109:0.28169 110:0.5 111:0.670732 112:0.785047 113:0.846939 114:0.573171 115:0.184211 116:0.450704 117:0.693548 118:0.893617 119:0.919192 120:0.550725 121:0.283582 122:0.59322 123:0.703704 124:0.65 125:0.753247 126:0.511905 127:0.348315 128:0.616438 129:0.623188 130:0.59375 131:0.675 132:0.504854 133:0.377778 134:0.435897 135:0.606061 136:0.608108 137:0.726027 138:0.519481 139:0.336735 140:0.220339 141:0.473684 142:0.387097 143:0.413793 144:0.371429 145:0.166667 146:0.290909 147:0.729412 148:0.734043 149:0.728972 150:0.621053 151:0.211111 152:0.493506 153:0.765432 154:0.833333 155:0.810526 156:0.72619 157:0.186813 158:0.481481 159:0.611111 160:0.769231 161:0.671429 162:0.597701 163:0.268817 164:0.506024 165:0.320513 166:0.529412 167:0.576087 168:0.407767 169:0.333333 170:0.534884 171:0.588235 172:0.56962 173:0.646341 174:0.527778 175:0.383721 176:0.314286 177:0.344262 178:0.41791 179:0.486842 180:0.323944 181:0.184466 182:0.193182 183:0.516854 184:0.556701 185:0.571429 186:0.450549 187:0.183333 188:0.236364 189:0.754098 190:0.833333 191:0.872093 192:0.824324 193:0.448276 194:0.465517 195:0.759259 196:0.794521 197:0.612903 198:0.712121 199:0.444444 200:0.378049 201:0.329545 202:0.388889 203:0.459459 204:0.492958 205:0.545455 206:0.753247 207:0.738095 208:0.7 209:0.468354 210:0.392857 211:0.450704 212:0.621212 213:0.6875 214:0.647887 215:0.5 216:0.311688 217:0.178082 218:0.168675 219:0.438202 220:0.457143 221:0.431034 222:0.361111 223:0.358491 224:0.222222 225:0.736111 226:0.845238 227:0.746479 228:0.653333 229:0.446429 230:0.384615 231:0.730769 232:0.702703 233:0.517241 234:0.514286 235:0.428571 236:0.3375 237:0.261364 238:0.42029 239:0.516667 240:0.457627 241:0.45 242:0.782609 243:0.816901 244:0.676923 245:0.447368 246:0.345679 247:0.413462 248:0.478723 249:0.466667 250:0.568182 251:0.616667 252:0.416667 253:0.186441 254:0.272727 255:0.783133 256:0.813187 257:0.747475 258:0.421053 259:0.227273 260:0.358491 261:0.804878 262:0.851064 263:0.873684 264:0.49505 265:0.3125 266:0.511111 267:0.704225 268:0.689189 269:0.763158 270:0.358974 271:0.527027 272:0.346667 273:0.472973 274:0.619718 275:0.736264 276:0.425532 277:0.463415 278:0.676471 279:0.529412 280:0.525 281:0.652778 282:0.417722 283:0.455882 284:0.440678 285:0.389831 286:0.362319 287:0.384615 288:0.4 
0.8863015632396725 1:0.253333 2:0.755102 3:0.265306 4:0.25 5:0.258427 6:0.32967 7:0.275362 8:0.539683 9:0.219512 10:0.597826 11:0.617647 12:0.333333 13:0.480769 14:0.563636 15:0.436364 16:0.818182 17:0.512821 18:0.630952 19:0.651515 20:0.606557 21:0.516667 22:0.792208 23:0.617284 24:0.694444 25:0.397436 26:0.364865 27:0.35443 28:0.333333 29:0.231884 30:0.356322 31:0.619718 32:0.416667 33:0.716667 34:0.636364 35:0.641791 36:0.460674 37:0.191919 38:0.344086 39:0.27027 40:0.329897 41:0.592593 42:0.447368 43:0.45614 44:0.615385 45:0.419355 46:0.301587 47:0.476923 48:0.293333 49:0.425532 50:0.545455 51:0.614035 52:0.25 53:0.342857 54:0.28125 55:0.5 56:0.672131 57:0.557143 58:0.323077 59:0.103896 60:0.315068 61:0.492958 62:0.455882 63:0.366667 64:0.481481 65:0.5625 66:0.545455 67:0.430108 68:0.219178 69:0.202899 70:0.194805 71:0.253165 72:0.247191 73:0.225352 74:0.623377 75:0.319149 76:0.324074 77:0.444444 78:0.4 79:0.258621 80:0.544118 81:0.290909 82:0.268657 83:0.608108 84:0.291667 85:0.392157 86:0.569444 87:0.428571 88:0.354167 89:0.52381 90:0.272727 91:0.486486 92:0.689189 93:0.540541 94:0.507463 95:0.1 96:0.116279 97:0.473684 98:0.375 99:0.47541 100:0.523077 101:0.721311 102:0.452055 103:0.348624 104:0.121622 105:0.148649 106:0.202899 107:0.166667 108:0.378378 109:0.253521 110:0.390625 111:0.329268 112:0.271028 113:0.316327 114:0.329268 115:0.236842 116:0.492958 117:0.370968 118:0.223404 119:0.565657 120:0.797101 121:0.283582 122:0.677966 123:0.425926 124:0.366667 125:0.779221 126:0.738095 127:0.449438 128:0.726027 129:0.507246 130:0.515625 131:0.7375 132:0.796117 133:0.388889 134:0.333333 135:0.378788 136:0.297297 137:0.219178 138:0.532468 139:0.459184 140:0.491525 141:0.736842 142:0.645161 143:0.534483 144:0.628571 145:0.215686 146:0.509091 147:0.305882 148:0.212766 149:0.186916 150:0.263158 151:0.211111 152:0.428571 153:0.271605 154:0.322222 155:0.536842 156:0.261905 157:0.263736 158:0.555556 159:0.416667 160:0.448718 161:0.642857 162:0.436782 163:0.387097 164:0.746988 165:0.576923 166:0.529412 167:0.652174 168:0.514563 169:0.301075 170:0.360465 171:0.411765 172:0.417722 173:0.54878 174:0.680556 175:0.453488 176:0.342857 177:0.655738 178:0.835821 179:0.710526 180:0.661972 181:0.0873786 182:0.204545 183:0.224719 184:0.237113 185:0.209524 186:0.241758 187:0.366667 188:0.8 189:0.459016 190:0.27381 191:0.651163 192:0.432432 193:0.448276 194:0.568966 195:0.462963 196:0.342466 197:0.532258 198:0.212121 199:0.47619 200:0.731707 201:0.670455 202:0.652778 203:0.459459 204:0.267606 205:0.424242 206:0.402597 207:0.321429 208:0.542857 209:0.443038 210:0.380952 211:0.661972 212:0.515152 213:0.6 214:0.56338 215:0.526316 216:0.428571 217:0.0958904 218:0.216867 219:0.292135 220:0.209524 221:0.224138 222:0.277778 223:0.415094 224:0.62963 225:0.319444 226:0.297619 227:0.267606 228:0.293333 229:0.285714 230:0.711538 231:0.480769 232:0.378378 233:0.327586 234:0.271429 235:0.514286 236:0.75 237:0.659091 238:0.565217 239:0.333333 240:0.491525 241:0.3875 242:0.376812 243:0.408451 244:0.353846 245:0.434211 246:0.765432 247:0.557692 248:0.382979 249:0.438095 250:0.465909 251:0.633333 252:0.65 253:0.288136 254:0.436364 255:0.277108 256:0.274725 257:0.171717 258:0.315789 259:0.333333 260:0.641509 261:0.353659 262:0.287234 263:0.536842 264:0.524752 265:0.40625 266:0.622222 267:0.366197 268:0.22973 269:0.394737 270:0.666667 271:0.594595 272:0.613333 273:0.540541 274:0.338028 275:0.450549 276:0.638298 277:0.329268 278:0.411765 279:0.397059 280:0.425 281:0.5 282:0.683544 283:0.5 284:0.40678 285:0.728814 286:0.710145 287:0.723077 288:0.614286 
2.65461376438617 1:0.36 2:0.44898 3:0.795918 4:0.75 5:0.730337 6:0.626374 7:0.318841 8:0.555556 9:0.719512 10:0.902174 11:0.911765 12:0.739583 13:0.307692 14:0.727273 15:0.672727 16:0.61039 17:0.653846 18:0.511905 19:0.530303 20:0.377049 21:0.35 22:0.363636 23:0.283951 24:0.305556 25:0.474359 26:0.675676 27:0.632911 28:0.533333 29:0.492754 30:0.37931 31:0.478873 32:0.625 33:0.516667 34:0.545455 35:0.373134 36:0.359551 37:0.343434 38:0.365591 39:0.531532 40:0.680412 41:0.876543 42:0.763158 43:0.438596 44:0.538462 45:0.83871 46:0.84127 47:0.661538 48:0.826667 49:0.468085 50:0.393939 51:0.561404 52:0.75 53:0.657143 54:0.671875 55:0.569444 56:0.327869 57:0.314286 58:0.461538 59:0.376623 60:0.39726 61:0.535211 62:0.705882 63:0.616667 64:0.722222 65:0.640625 66:0.424242 67:0.451613 68:0.506849 69:0.405797 70:0.415584 71:0.455696 72:0.280899 73:0.394366 74:0.493506 75:0.648936 76:0.666667 77:0.616162 78:0.515789 79:0.344828 80:0.558824 81:0.909091 82:0.910448 83:0.824324 84:0.75 85:0.470588 86:0.5 87:0.625 88:0.583333 89:0.698413 90:0.649351 91:0.540541 92:0.472973 93:0.418919 94:0.447761 95:0.55 96:0.430233 97:0.513158 98:0.59375 99:0.672131 100:0.646154 101:0.606557 102:0.410959 103:0.357798 104:0.351351 105:0.527027 106:0.449275 107:0.363636 108:0.418919 109:0.352113 110:0.53125 111:0.768293 112:0.766355 113:0.816327 114:0.512195 115:0.197368 116:0.43662 117:0.709677 118:0.882979 119:0.89899 120:0.434783 121:0.268657 122:0.559322 123:0.740741 124:0.683333 125:0.649351 126:0.52381 127:0.426966 128:0.465753 129:0.434783 130:0.4375 131:0.525 132:0.504854 133:0.466667 134:0.397436 135:0.545455 136:0.567568 137:0.657534 138:0.584416 139:0.377551 140:0.288136 141:0.491228 142:0.5 143:0.413793 144:0.514286 145:0.245098 146:0.472727 147:0.752941 148:0.744681 149:0.682243 150:0.610526 151:0.222222 152:0.480519 153:0.814815 154:0.855556 155:0.821053 156:0.797619 157:0.208791 158:0.530864 159:0.597222 160:0.75641 161:0.642857 162:0.597701 163:0.301075 164:0.445783 165:0.294872 166:0.411765 167:0.456522 168:0.398058 169:0.376344 170:0.488372 171:0.588235 172:0.518987 173:0.536585 174:0.583333 175:0.406977 176:0.357143 177:0.491803 178:0.447761 179:0.526316 180:0.535211 181:0.23301 182:0.284091 183:0.550562 184:0.525773 185:0.561905 186:0.472527 187:0.35 188:0.454545 189:0.852459 190:0.833333 191:0.860465 192:0.810811 193:0.551724 194:0.655172 195:0.87037 196:0.808219 197:0.612903 198:0.651515 199:0.460317 200:0.402439 201:0.295455 202:0.277778 203:0.337838 204:0.43662 205:0.590909 206:0.779221 207:0.72619 208:0.642857 209:0.506329 210:0.392857 211:0.56338 212:0.636364 213:0.6625 214:0.690141 215:0.605263 216:0.441558 217:0.30137 218:0.361446 219:0.47191 220:0.495238 221:0.5 222:0.416667 223:0.339623 224:0.388889 225:0.736111 226:0.857143 227:0.816901 228:0.706667 229:0.428571 230:0.442308 231:0.653846 232:0.783784 233:0.551724 234:0.6 235:0.514286 236:0.3125 237:0.227273 238:0.318841 239:0.45 240:0.491525 241:0.4625 242:0.652174 243:0.690141 244:0.661538 245:0.5 246:0.419753 247:0.471154 248:0.457447 249:0.47619 250:0.568182 251:0.683333 252:0.533333 253:0.288136 254:0.418182 255:0.759036 256:0.725275 257:0.717172 258:0.464912 259:0.30303 260:0.45283 261:0.817073 262:0.819149 263:0.842105 264:0.584158 265:0.4375 266:0.511111 267:0.704225 268:0.648649 269:0.631579 270:0.512821 271:0.581081 272:0.32 273:0.364865 274:0.478873 275:0.648352 276:0.468085 277:0.512195 278:0.617647 279:0.544118 280:0.525 281:0.513889 282:0.443038 283:0.544118 284:0.525424 285:0.508475 286:0.463768 287:0.384615 288:0.485714 
0.0514800299094107 1:0.533333 2:0.469388 3:0.663265 4:0.642857 5:0.58427 6:0.593407 7:0.492754 8:0.492063 9:0.634146 10:0.76087 11:0.705882 12:0.6875 13:0.519231 14:0.727273 15:0.672727 16:0.532468 17:0.615385 18:0.511905 19:0.651515 20:0.344262 21:0.233333 22:0.272727 23:0.17284 24:0.268519 25:0.576923 26:0.581081 27:0.518987 28:0.48 29:0.347826 30:0.264368 31:0.56338 32:0.5625 33:0.4 34:0.563636 35:0.462687 36:0.235955 37:0.535354 38:0.44086 39:0.576577 40:0.701031 41:0.802469 42:0.710526 43:0.561404 44:0.5 45:0.66129 46:0.730159 47:0.6 48:0.746667 49:0.553191 50:0.439394 51:0.526316 52:0.642857 53:0.514286 54:0.65625 55:0.708333 56:0.377049 57:0.257143 58:0.323077 59:0.194805 60:0.39726 61:0.633803 62:0.676471 63:0.666667 64:0.703704 65:0.390625 66:0.348485 67:0.569892 68:0.506849 69:0.507246 70:0.454545 71:0.405063 72:0.213483 73:0.704225 74:0.675325 75:0.638298 76:0.648148 77:0.666667 78:0.568421 79:0.431034 80:0.5 81:0.654545 82:0.746269 83:0.878378 84:0.736111 85:0.490196 86:0.430556 87:0.571429 88:0.604167 89:0.698413 90:0.753247 91:0.756757 92:0.513514 93:0.378378 94:0.477612 95:0.483333 96:0.395349 97:0.776316 98:0.640625 99:0.721311 100:0.661538 101:0.491803 102:0.260274 103:0.541284 104:0.445946 105:0.472973 106:0.463768 107:0.454545 108:0.256757 109:0.549296 110:0.5625 111:0.707317 112:0.654206 113:0.72449 114:0.536585 115:0.421053 116:0.450704 117:0.774194 118:0.829787 119:0.828283 120:0.405797 121:0.507463 122:0.542373 123:0.685185 124:0.65 125:0.688312 126:0.595238 127:0.539326 128:0.493151 129:0.347826 130:0.34375 131:0.425 132:0.446602 133:0.555556 134:0.423077 135:0.545455 136:0.716216 137:0.561644 138:0.428571 139:0.561224 140:0.355932 141:0.385965 142:0.548387 143:0.568966 144:0.314286 145:0.392157 146:0.472727 147:0.623529 148:0.648936 149:0.672897 150:0.663158 151:0.377778 152:0.402597 153:0.666667 154:0.733333 155:0.821053 156:0.869048 157:0.362637 158:0.641975 159:0.708333 160:0.769231 161:0.728571 162:0.62069 163:0.408602 164:0.493976 165:0.410256 166:0.5 167:0.586957 168:0.466019 169:0.483871 170:0.488372 171:0.6 172:0.64557 173:0.621951 174:0.5 175:0.581395 176:0.371429 177:0.557377 178:0.597015 179:0.657895 180:0.394366 181:0.407767 182:0.284091 183:0.404494 184:0.474227 185:0.542857 186:0.549451 187:0.45 188:0.4 189:0.803279 190:0.75 191:0.848837 192:0.864865 193:0.706897 194:0.672414 195:0.759259 196:0.808219 197:0.709677 198:0.818182 199:0.650794 200:0.45122 201:0.340909 202:0.458333 203:0.472973 204:0.633803 205:0.80303 206:0.74026 207:0.702381 208:0.685714 209:0.291139 210:0.333333 211:0.760563 212:0.727273 213:0.8 214:0.816901 215:0.631579 216:0.298701 217:0.479452 218:0.385542 219:0.41573 220:0.447619 221:0.439655 222:0.472222 223:0.490566 224:0.462963 225:0.583333 226:0.797619 227:0.746479 228:0.76 229:0.553571 230:0.519231 231:0.692308 232:0.756757 233:0.5 234:0.685714 235:0.7 236:0.3875 237:0.318182 238:0.391304 239:0.45 240:0.627119 241:0.7 242:0.753623 243:0.760563 244:0.584615 245:0.236842 246:0.308642 247:0.615385 248:0.531915 249:0.571429 250:0.681818 251:0.666667 252:0.35 253:0.745763 254:0.636364 255:0.614458 256:0.637363 257:0.636364 258:0.473684 259:0.530303 260:0.528302 261:0.682927 262:0.723404 263:0.768421 264:0.574257 265:0.6875 266:0.511111 267:0.676056 268:0.581081 269:0.697368 270:0.525641 271:0.77027 272:0.346667 273:0.324324 274:0.450704 275:0.604396 276:0.393617 277:0.621951 278:0.735294 279:0.573529 280:0.525 281:0.569444 282:0.341772 283:0.735294 284:0.559322 285:0.491525 286:0.463768 287:0.430769 288:0.357143 
0.1318925250237072 1:0.266667 2:0.530612 3:0.214286 4:0.25 5:0.258427 6:0.351648 7:0.42029 8:0.571429 9:0.256098 10:0.434783 11:0.75 12:0.333333 13:0.519231 14:0.563636 15:0.4 16:0.701299 17:0.692308 18:0.642857 19:0.666667 20:0.622951 21:0.433333 22:0.74026 23:0.530864 24:0.842593 25:0.410256 26:0.391892 27:0.341772 28:0.36 29:0.231884 30:0.45977 31:0.605634 32:0.5 33:0.666667 34:0.636364 35:0.701493 36:0.595506 37:0.212121 38:0.473118 39:0.369369 40:0.42268 41:0.567901 42:0.513158 43:0.473684 44:0.692308 45:0.370968 46:0.349206 47:0.707692 48:0.386667 49:0.574468 50:0.575758 51:0.45614 52:0.285714 53:0.357143 54:0.265625 55:0.583333 56:0.622951 57:0.557143 58:0.446154 59:0.233766 60:0.328767 61:0.591549 62:0.485294 63:0.466667 64:0.444444 65:0.53125 66:0.545455 67:0.548387 68:0.315068 69:0.275362 70:0.285714 71:0.417722 72:0.404494 73:0.422535 74:0.623377 75:0.404255 76:0.407407 77:0.393939 78:0.515789 79:0.482759 80:0.544118 81:0.345455 82:0.343284 83:0.675676 84:0.541667 85:0.431373 86:0.583333 87:0.5 88:0.395833 89:0.492063 90:0.38961 91:0.594595 92:0.702703 93:0.662162 94:0.462687 95:0.216667 96:0.162791 97:0.657895 98:0.53125 99:0.52459 100:0.523077 101:0.655738 102:0.410959 103:0.449541 104:0.256757 105:0.27027 106:0.231884 107:0.424242 108:0.554054 109:0.295775 110:0.4375 111:0.317073 112:0.28972 113:0.285714 114:0.280488 115:0.302632 116:0.478873 117:0.306452 118:0.265957 119:0.474747 120:0.782609 121:0.447761 122:0.661017 123:0.481481 124:0.383333 125:0.74026 126:0.857143 127:0.516854 128:0.726027 129:0.550725 130:0.53125 131:0.7125 132:0.718447 133:0.444444 134:0.384615 135:0.378788 136:0.364865 137:0.30137 138:0.649351 139:0.5 140:0.491525 141:0.666667 142:0.693548 143:0.724138 144:0.771429 145:0.22549 146:0.436364 147:0.282353 148:0.244681 149:0.271028 150:0.305263 151:0.288889 152:0.415584 153:0.271605 154:0.288889 155:0.442105 156:0.202381 157:0.285714 158:0.444444 159:0.347222 160:0.5 161:0.728571 162:0.37931 163:0.430108 164:0.686747 165:0.602564 166:0.602941 167:0.684783 168:0.669903 169:0.344086 170:0.372093 171:0.364706 172:0.43038 173:0.573171 174:0.625 175:0.534884 176:0.342857 177:0.47541 178:0.746269 179:0.763158 180:0.633803 181:0.203883 182:0.306818 183:0.258427 184:0.329897 185:0.352381 186:0.461538 187:0.45 188:0.727273 189:0.393443 190:0.297619 191:0.709302 192:0.527027 193:0.551724 194:0.586207 195:0.537037 196:0.39726 197:0.548387 198:0.393939 199:0.571429 200:0.682927 201:0.727273 202:0.611111 203:0.513514 204:0.323944 205:0.560606 206:0.467532 207:0.357143 208:0.457143 209:0.56962 210:0.428571 211:0.633803 212:0.454545 213:0.5875 214:0.492958 215:0.526316 216:0.532468 217:0.260274 218:0.337349 219:0.314607 220:0.285714 221:0.310345 222:0.416667 223:0.566038 224:0.759259 225:0.402778 226:0.345238 227:0.225352 228:0.32 229:0.428571 230:0.75 231:0.461538 232:0.472973 233:0.37931 234:0.285714 235:0.585714 236:0.7625 237:0.681818 238:0.57971 239:0.35 240:0.508475 241:0.5375 242:0.463768 243:0.492958 244:0.369231 245:0.486842 246:0.802469 247:0.538462 248:0.37234 249:0.457143 250:0.5 251:0.733333 252:0.733333 253:0.305085 254:0.527273 255:0.337349 256:0.296703 257:0.252525 258:0.350877 259:0.272727 260:0.509434 261:0.268293 262:0.265957 263:0.347368 264:0.584158 265:0.46875 266:0.511111 267:0.394366 268:0.283784 269:0.381579 270:0.782051 271:0.648649 272:0.666667 273:0.594595 274:0.507042 275:0.351648 276:0.755319 277:0.402439 278:0.5 279:0.367647 280:0.475 281:0.472222 282:0.810127 283:0.617647 284:0.372881 285:0.59322 286:0.681159 287:0.738462 288:0.685714 
0.1588390731891729 1:0.293333 2:0.591837 3:0.295918 4:0.285714 5:0.179775 6:0.373626 7:0.434783 8:0.698413 9:0.292683 10:0.402174 11:0.632353 12:0.322917 13:0.5 14:0.654545 15:0.4 16:0.506494 17:0.807692 18:0.547619 19:0.727273 20:0.721311 21:0.45 22:0.766234 23:0.654321 24:0.842593 25:0.423077 26:0.378378 27:0.35443 28:0.44 29:0.275362 30:0.45977 31:0.676056 32:0.5 33:0.75 34:0.818182 35:0.761194 36:0.58427 37:0.212121 38:0.462366 39:0.405405 40:0.484536 41:0.493827 42:0.447368 43:0.508772 44:0.692308 45:0.516129 46:0.428571 47:0.538462 48:0.346667 49:0.574468 50:0.590909 51:0.578947 52:0.339286 53:0.342857 54:0.28125 55:0.597222 56:0.754098 57:0.714286 58:0.415385 59:0.25974 60:0.287671 61:0.422535 62:0.323529 63:0.3 64:0.222222 65:0.359375 66:0.409091 67:0.494624 68:0.356164 69:0.42029 70:0.467532 71:0.544304 72:0.460674 73:0.394366 74:0.61039 75:0.457447 76:0.462963 77:0.454545 78:0.378947 79:0.37931 80:0.588235 81:0.363636 82:0.38806 83:0.689189 84:0.430556 85:0.352941 86:0.652778 87:0.5 88:0.395833 89:0.444444 90:0.363636 91:0.540541 92:0.783784 93:0.689189 94:0.58209 95:0.2 96:0.151163 97:0.460526 98:0.328125 99:0.344262 100:0.384615 101:0.344262 102:0.273973 103:0.449541 104:0.337838 105:0.432432 106:0.478261 107:0.469697 108:0.581081 109:0.309859 110:0.34375 111:0.292683 112:0.280374 113:0.306122 114:0.231707 115:0.355263 116:0.577465 117:0.370968 118:0.297872 119:0.454545 120:0.695652 121:0.373134 122:0.576271 123:0.462963 124:0.383333 125:0.688312 126:0.785714 127:0.516854 128:0.69863 129:0.652174 130:0.65625 131:0.8125 132:0.76699 133:0.433333 134:0.320513 135:0.409091 136:0.364865 137:0.39726 138:0.675325 139:0.540816 140:0.542373 141:0.684211 142:0.66129 143:0.706897 144:0.671429 145:0.166667 146:0.381818 147:0.329412 148:0.287234 149:0.280374 150:0.221053 151:0.244444 152:0.480519 153:0.407407 154:0.3 155:0.347368 156:0.27381 157:0.296703 158:0.530864 159:0.5 160:0.564103 161:0.757143 162:0.482759 163:0.387097 164:0.73494 165:0.769231 166:0.632353 167:0.684783 168:0.621359 169:0.344086 170:0.418605 171:0.470588 172:0.443038 173:0.585366 174:0.638889 175:0.523256 176:0.485714 177:0.688525 178:0.820896 179:0.802632 180:0.690141 181:0.194175 182:0.181818 183:0.235955 184:0.350515 185:0.295238 186:0.318681 187:0.45 188:0.781818 189:0.42623 190:0.345238 191:0.662791 192:0.472973 193:0.465517 194:0.62069 195:0.555556 196:0.493151 197:0.548387 198:0.348485 199:0.507937 200:0.743902 201:0.738636 202:0.680556 203:0.486486 204:0.323944 205:0.5 206:0.532468 207:0.416667 208:0.428571 209:0.556962 210:0.428571 211:0.661972 212:0.439394 213:0.525 214:0.549296 215:0.486842 216:0.506494 217:0.178082 218:0.228916 219:0.280899 220:0.247619 221:0.232759 222:0.296296 223:0.54717 224:0.722222 225:0.486111 226:0.452381 227:0.28169 228:0.346667 229:0.428571 230:0.846154 231:0.634615 232:0.554054 233:0.413793 234:0.314286 235:0.571429 236:0.8125 237:0.784091 238:0.652174 239:0.4 240:0.525424 241:0.45 242:0.536232 243:0.535211 244:0.4 245:0.460526 246:0.765432 247:0.5 248:0.308511 249:0.409524 250:0.420455 251:0.666667 252:0.733333 253:0.271186 254:0.381818 255:0.325301 256:0.32967 257:0.20202 258:0.298246 259:0.378788 260:0.679245 261:0.329268 262:0.340426 263:0.326316 264:0.475248 265:0.46875 266:0.555556 267:0.366197 268:0.337838 269:0.434211 270:0.820513 271:0.608108 272:0.586667 273:0.635135 274:0.507042 275:0.362637 276:0.734043 277:0.341463 278:0.426471 279:0.5 280:0.5125 281:0.444444 282:0.772152 283:0.529412 284:0.440678 285:0.847458 286:0.73913 287:0.630769 288:0.571429 
0.2316244109800921 1:0.213333 2:0.326531 3:0.714286 4:0.651786 5:0.606742 6:0.549451 7:0.318841 8:0.507937 9:0.768293 10:0.826087 11:0.794118 12:0.708333 13:0.269231 14:0.763636 15:0.8 16:0.649351 17:0.717949 18:0.607143 19:0.5 20:0.278689 21:0.283333 22:0.350649 23:0.283951 24:0.305556 25:0.435897 26:0.581081 27:0.56962 28:0.586667 29:0.434783 30:0.321839 31:0.464789 32:0.5625 33:0.416667 34:0.581818 35:0.38806 36:0.314607 37:0.292929 38:0.27957 39:0.54955 40:0.731959 41:0.82716 42:0.671053 43:0.438596 44:0.461538 45:0.758065 46:0.825397 47:0.538462 48:0.733333 49:0.382979 50:0.272727 51:0.54386 52:0.732143 53:0.528571 54:0.65625 55:0.555556 56:0.344262 57:0.285714 58:0.430769 59:0.324675 60:0.383562 61:0.577465 62:0.691176 63:0.666667 64:0.722222 65:0.578125 66:0.424242 67:0.430108 68:0.452055 69:0.434783 70:0.415584 71:0.392405 72:0.269663 73:0.338028 74:0.441558 75:0.606383 76:0.657407 77:0.707071 78:0.568421 79:0.362069 80:0.514706 81:0.727273 82:0.820896 83:0.851351 84:0.666667 85:0.333333 86:0.416667 87:0.553571 88:0.604167 89:0.698413 90:0.662338 91:0.513514 92:0.459459 93:0.337838 94:0.462687 95:0.55 96:0.348837 97:0.513158 98:0.609375 99:0.688525 100:0.676923 101:0.721311 102:0.383562 103:0.366972 104:0.364865 105:0.459459 106:0.449275 107:0.439394 108:0.351351 109:0.183099 110:0.375 111:0.670732 112:0.663551 113:0.653061 114:0.414634 115:0.171053 116:0.450704 117:0.758065 118:0.882979 119:0.838384 120:0.347826 121:0.208955 122:0.508475 123:0.759259 124:0.75 125:0.74026 126:0.5 127:0.404494 128:0.493151 129:0.42029 130:0.375 131:0.5 132:0.427184 133:0.444444 134:0.371795 135:0.606061 136:0.621622 137:0.671233 138:0.454545 139:0.387755 140:0.288136 141:0.508772 142:0.435484 143:0.448276 144:0.371429 145:0.127451 146:0.236364 147:0.576471 148:0.606383 149:0.588785 150:0.526316 151:0.122222 152:0.376623 153:0.740741 154:0.744444 155:0.778947 156:0.75 157:0.241758 158:0.617284 159:0.722222 160:0.75641 161:0.614286 162:0.586207 163:0.258065 164:0.445783 165:0.282051 166:0.455882 167:0.478261 168:0.339806 169:0.354839 170:0.465116 171:0.564706 172:0.531646 173:0.597561 174:0.472222 175:0.395349 176:0.314286 177:0.508197 178:0.537313 179:0.631579 180:0.422535 181:0.174757 182:0.147727 183:0.438202 184:0.546392 185:0.590476 186:0.472527 187:0.216667 188:0.272727 189:0.770492 190:0.833333 191:0.906977 192:0.77027 193:0.482759 194:0.465517 195:0.703704 196:0.821918 197:0.725806 198:0.651515 199:0.412698 200:0.304878 201:0.295455 202:0.388889 203:0.418919 204:0.450704 205:0.560606 206:0.675325 207:0.678571 208:0.628571 209:0.43038 210:0.392857 211:0.549296 212:0.606061 213:0.725 214:0.71831 215:0.644737 216:0.428571 217:0.123288 218:0.204819 219:0.370787 220:0.438095 221:0.448276 222:0.444444 223:0.150943 224:0.12963 225:0.541667 226:0.785714 227:0.676056 228:0.586667 229:0.321429 230:0.365385 231:0.730769 232:0.797297 233:0.448276 234:0.542857 235:0.4 236:0.2625 237:0.329545 238:0.391304 239:0.4 240:0.542373 241:0.525 242:0.681159 243:0.647887 244:0.646154 245:0.473684 246:0.407407 247:0.423077 248:0.5 249:0.514286 250:0.659091 251:0.7 252:0.466667 253:0.135593 254:0.345455 255:0.650602 256:0.659341 257:0.565657 258:0.447368 259:0.19697 260:0.377358 261:0.756098 262:0.819149 263:0.831579 264:0.544554 265:0.390625 266:0.377778 267:0.704225 268:0.581081 269:0.657895 270:0.5 271:0.5 272:0.24 273:0.351351 274:0.478873 275:0.582418 276:0.414894 277:0.487805 278:0.632353 279:0.441176 280:0.4625 281:0.583333 282:0.417722 283:0.514706 284:0.474576 285:0.474576 286:0.42029 287:0.369231 288:0.457143 
1.149686676152963 1:0.2 2:0.244898 3:0.244898 4:0.357143 5:0.303371 6:0.494505 7:0.405797 8:0.571429 9:0.182927 10:0.51087 11:0.544118 12:0.364583 13:0.442308 14:0.545455 15:0.418182 16:0.792208 17:0.5 18:0.511905 19:0.560606 20:0.590164 21:0.433333 22:0.831169 23:0.703704 24:0.898148 25:0.461538 26:0.432432 27:0.329114 28:0.48 29:0.333333 30:0.471264 31:0.690141 32:0.458333 33:0.7 34:0.654545 35:0.656716 36:0.483146 37:0.232323 38:0.376344 39:0.243243 40:0.360825 41:0.54321 42:0.5 43:0.54386 44:0.865385 45:0.370968 46:0.428571 47:0.630769 48:0.4 49:0.574468 50:0.545455 51:0.473684 52:0.339286 53:0.485714 54:0.40625 55:0.694444 56:0.721311 57:0.6 58:0.4 59:0.207792 60:0.342466 61:0.56338 62:0.352941 63:0.233333 64:0.166667 65:0.484375 66:0.606061 67:0.569892 68:0.315068 69:0.449275 70:0.454545 71:0.518987 72:0.47191 73:0.380282 74:0.441558 75:0.223404 76:0.296296 77:0.40404 78:0.421053 79:0.482759 80:0.661765 81:0.309091 82:0.238806 83:0.662162 84:0.444444 85:0.509804 86:0.597222 87:0.482143 88:0.291667 89:0.492063 90:0.363636 91:0.72973 92:0.797297 93:0.594595 94:0.537313 95:0.216667 96:0.197674 97:0.644737 98:0.40625 99:0.311475 100:0.292308 101:0.393443 102:0.369863 103:0.513761 104:0.337838 105:0.513514 106:0.550725 107:0.5 108:0.513514 109:0.323944 110:0.34375 111:0.329268 112:0.308411 113:0.357143 114:0.292683 115:0.421053 116:0.605634 117:0.274194 118:0.202128 119:0.474747 120:0.652174 121:0.432836 122:0.711864 123:0.537037 124:0.316667 125:0.649351 126:0.809524 127:0.58427 128:0.821918 129:0.536232 130:0.609375 131:0.8875 132:0.61165 133:0.533333 134:0.474359 135:0.378788 136:0.391892 137:0.493151 138:0.701299 139:0.479592 140:0.474576 141:0.701754 142:0.709677 143:0.706897 144:0.714286 145:0.254902 146:0.327273 147:0.294118 148:0.276596 149:0.336449 150:0.431579 151:0.288889 152:0.441558 153:0.222222 154:0.255556 155:0.315789 156:0.27381 157:0.340659 158:0.54321 159:0.375 160:0.525641 161:0.857143 162:0.37931 163:0.387097 164:0.698795 165:0.576923 166:0.588235 167:0.73913 168:0.757282 169:0.365591 170:0.55814 171:0.482353 172:0.544304 173:0.743902 174:0.708333 175:0.465116 176:0.342857 177:0.57377 178:0.731343 179:0.605263 180:0.71831 181:0.291262 182:0.318182 183:0.280899 184:0.309278 185:0.4 186:0.472527 187:0.4 188:0.709091 189:0.295082 190:0.22619 191:0.686047 192:0.594595 193:0.62069 194:0.603448 195:0.333333 196:0.287671 197:0.677419 198:0.363636 199:0.619048 200:0.560976 201:0.625 202:0.694444 203:0.5 204:0.352113 205:0.666667 206:0.636364 207:0.5 208:0.642857 209:0.379747 210:0.357143 211:0.676056 212:0.469697 213:0.675 214:0.56338 215:0.5 216:0.493506 217:0.369863 218:0.373494 219:0.337079 220:0.333333 221:0.353448 222:0.435185 223:0.490566 224:0.740741 225:0.291667 226:0.321429 227:0.323944 228:0.413333 229:0.482143 230:0.788462 231:0.461538 232:0.351351 233:0.413793 234:0.385714 235:0.7 236:0.7125 237:0.602273 238:0.507246 239:0.4 240:0.576271 241:0.65 242:0.724638 243:0.535211 244:0.338462 245:0.434211 246:0.814815 247:0.528846 248:0.276596 249:0.409524 250:0.477273 251:0.7 252:0.75 253:0.457627 254:0.454545 255:0.289157 256:0.406593 257:0.363636 258:0.412281 259:0.318182 260:0.566038 261:0.256098 262:0.319149 263:0.378947 264:0.415842 265:0.5 266:0.577778 267:0.380282 268:0.337838 269:0.526316 270:0.858974 271:0.689189 272:0.64 273:0.635135 274:0.521127 275:0.43956 276:0.648936 277:0.5 278:0.661765 279:0.441176 280:0.6 281:0.722222 282:0.886076 283:0.632353 284:0.355932 285:0.644068 286:0.681159 287:0.830769 288:0.714286 
