svm_type c_svc
kernel_type rbf
gamma 0.09
nr_class 10
total_sv 1694
rho -1.02348 -0.484336 -0.156216 -0.536247 -0.739695 0.762299 -0.861761 -0.646568 -0.324703 1.19791 1.07976 0.17779 0.556258 1.48709 -0.0190128 0.511711 0.901817 0.266758 -0.442656 -0.50972 0.810026 -0.604808 -0.144233 -0.102165 -0.587606 -1.36841 1.12783 -2.33818 -1.17163 -0.349545 -0.304634 1.33515 -0.247891 0.0358396 0.196247 1.88392 -0.0272171 0.500552 0.651071 -1.58038 -1.87866 -1.55523 1.18337 1.26497 -0.313244
label 21 22 23 28 3 30 5 61 62 63
probA -4.93536 -4.3439 -5.63603 -6.18721 -5.75434 -5.76861 -5.16847 -5.7095 -5.91644 -4.90905 -4.50517 -4.9799 -4.57453 -4.62107 -3.78629 -4.65413 -4.81365 -5.23282 -5.67171 -5.39737 -5.31507 -4.62391 -5.2836 -5.5372 -5.36686 -5.11024 -4.86289 -4.78296 -5.06614 -5.06508 -5.5726 -5.51098 -5.02269 -5.55421 -5.6459 -5.30345 -4.6527 -5.19042 -5.31905 -4.58046 -5.25097 -5.37757 -4.41357 -4.58576 -3.35892
probB -0.178936 -0.791989 -0.473892 -0.0382947 -0.427601 -0.180843 -1.00433 -0.360803 -0.118869 0.0255408 0.132618 0.623415 0.559644 0.373993 0.201451 0.186906 0.327969 -0.00913433 0.38443 -0.0200166 0.140442 -0.459552 0.0103781 0.0481322 0.246528 0.0607806 0.151094 -0.150111 0.04402 -0.042782 -0.266714 -0.290433 -0.800545 -0.36247 -0.204594 0.215254 -0.189971 0.0837674 -0.0750394 -0.294161 -0.193329 -0.349619 0.145175 0.193712 -0.307877
nr_sv 270 28 160 160 169 147 210 41 177 332
SV
0 0 0 0 0 0 0 1.308147537486306 0 1:0.5527491 2:0.48688808 3:0.20214759 4:0.43326163 5:0.49536908 6:0.44165519 7:0.33089587 8:0.19665505 9:0.35299909 10:0.42041185 11:0.6620065 12:0.35449234 13:0.58635265 14:0.6774838 15:0.34502265 16:0.40152264 17:0.55050141 18:0.4138898 19:0.39306891 20:0.63886732 21:0.51575828 22:0.34814921 23:0.75004989 24:0.46821398 25:0.64840424 26:0.43226168 27:0.47771943 28:0.39055142 29:0.42770427 30:0.25645006 31:0.42096731 32:0.49361172 33:0.5550707 34:0.52799302 35:0.49544677 36:0.58852178 37:0.45379373 38:0.33328524 39:0.4340845 40:0.54505062 41:0.73124331 42:0.56750256 43:0.49246809 44:0.59515536 45:0.3758997 46:0.28502089 47:0.72601253 48:0.54631656 49:0.52954513 50:0.4160234 51:0.32374978 52:0.41692382 53:0.74371552 54:0.57731718 55:0.4142803 56:0.66656101 57:0.40395254 58:0.51166868 59:0.61920989 60:0.19888537 61:0.54227751 62:0.59224147 63:0.4800204 64:0.51828462 65:0.47582096 66:0.3203702 67:0.23891504 68:0.43046817 69:0.3773104 70:0.58126605 71:0.58253819 72:0.55519956 73:0.17358235 74:0.31829846 75:0.33994836 76:0.61836052 77:0.46423966 78:0.36943424 79:0.46989736 80:0.22708337 81:0.51327735 82:0.61849618 83:0.47323978 84:0.26735744 85:0.52896452 86:0.49245644 87:0.72631699 88:0.52756774 89:0.2838788 90:0.57078642 91:0.5372014 92:0.39825013 93:0.59166354 94:0.35585681 95:0.35880122 96:0.43193513 97:0.62743109 98:0.41142541 99:0.69883966 100:0.36385071 101:0.70933306 
0 0 0 0 0 0 0 0 2.160289754065865 1:0.34769139 2:0.43121421 3:0.44044968 4:0.52974695 5:0.52193004 6:0.53816158 7:0.55193615 8:0.45638216 9:0.444002 10:0.26964027 11:0.79624504 12:0.49047643 13:0.63052428 14:0.58888853 15:0.53094184 16:0.31532276 17:0.34061462 18:0.4333775 19:0.45650712 20:0.56440258 21:0.62728745 22:0.46800545 23:0.64548707 24:0.56648129 25:0.27563995 26:0.39121872 27:0.68475974 28:0.5131743 29:0.68821168 30:0.36944559 31:0.51780123 32:0.56749624 33:0.80941826 34:0.42840832 35:0.2417638 36:0.52522087 37:0.66289711 38:0.44505119 39:0.42238572 40:0.68469006 41:0.46775666 42:0.49427262 43:0.50328761 44:0.62086105 45:0.49063441 46:0.29816324 47:0.72510612 48:0.30122796 49:0.28246459 50:0.53112513 51:0.48706523 52:0.36619988 53:0.5411576 54:0.60569561 55:0.55467731 56:0.64275509 57:0.29792151 58:0.55126899 59:0.4440299 60:0.44989702 61:0.51991081 62:0.55471951 63:0.52968907 64:0.63977665 65:0.19999827 66:0.65567476 67:0.56132054 68:0.50013232 69:0.37363988 70:0.20842052 71:0.61529052 72:0.37679306 73:0.61449659 74:0.40293518 75:0.69113195 76:0.69623041 77:0.56675816 78:0.39983967 79:0.41809449 80:0.23410937 81:0.42070663 82:0.596205 83:0.32927477 84:0.41933635 85:0.38872063 86:0.16523334 87:0.6038658 88:0.73002821 89:0.5237174 90:0.41807774 91:0.5684576 92:0.26344272 93:0.68864089 94:0.49494192 95:0.51376241 96:0.42247662 97:0.60803664 98:0.5864408 99:0.65443546 100:0.49160275 101:0.77631819 
0 3.459659361714017 0 0 0 0 0 0 0 1:0.38738224 2:0.40366653 3:0.48674738 4:0.52926415 5:0.47680363 6:0.64735281 7:0.47642496 8:0.32837167 9:0.50684339 10:0.26150626 11:0.76007658 12:0.3726036 13:0.53419304 14:0.55526745 15:0.57512319 16:0.4443869 17:0.41386613 18:0.33040139 19:0.44885901 20:0.43245298 21:0.65826541 22:0.48074397 23:0.35281441 24:0.57974458 25:0.38571027 26:0.5047493 27:0.2740137 28:0.66094393 29:0.6823554 30:0.4357866 31:0.2448594 32:0.523673 33:0.57407928 34:0.32432258 35:0.53735495 36:0.40636197 37:0.38188618 38:0.4986015 39:0.52745056 40:0.605528 41:0.50599235 42:0.44718269 43:0.47675681 44:0.52063078 45:0.49979061 46:0.51188016 47:0.55506563 48:0.35651496 49:0.66497159 50:0.63067412 51:0.26321793 52:0.3935079 53:0.60595208 54:0.69615191 55:0.66660494 56:0.33086687 57:0.61583221 58:0.7269159 59:0.63947427 60:0.53734368 61:0.64283776 62:0.68842167 63:0.63307363 64:0.48934451 65:0.49543661 66:0.23674601 67:0.11573617 68:0.31271687 69:0.5117327 70:0.54544145 71:0.57697135 72:0.37348953 73:0.51440173 74:0.4681057 75:0.4341819 76:0.82597238 77:0.52281362 78:0.52803159 79:0.49952108 80:0.38340145 81:0.53733003 82:0.41801825 83:0.31204912 84:0.18925755 85:0.50695479 86:0.71673971 87:0.62716818 88:0.55703533 89:0.38370144 90:0.54563159 91:0.59620875 92:0.62676036 93:0.48327479 94:0.44611126 95:0.34676123 96:0.4112578 97:0.6001687 98:0.6393224 99:0.34888029 100:0.52422249 101:0.74308914 
0.7083224271327169 0 0 0 0 0 0 0 0 1:0.49591318 2:0.34501001 3:0.47182688 4:0.48452777 5:0.41580209 6:0.60370392 7:0.37390587 8:0.44644263 9:0.47276765 10:0.35443902 11:0.62140977 12:0.40841487 13:0.80690652 14:0.46393257 15:0.26368237 16:0.54711056 17:0.5530718 18:0.57253599 19:0.5849824 20:0.42982608 21:0.35353494 22:0.38576975 23:0.55428129 24:0.68990839 25:0.4168967 26:0.56993252 27:0.68504 28:0.53665388 29:0.69976944 30:0.39771092 31:0.52377421 32:0.51635283 33:0.54125983 34:0.43421441 35:0.35513949 36:0.42423555 37:0.69622719 38:0.42520621 39:0.45384249 40:0.57417214 41:0.58741313 42:0.56545156 43:0.7716524 44:0.72187245 45:0.58723646 46:0.60963303 47:0.56974751 48:0.43832442 49:0.50878382 50:0.60670996 51:0.49895021 52:0.49806607 53:0.51003391 54:0.52533394 55:0.52744937 56:0.52286005 57:0.51996356 58:0.45282584 59:0.31721324 60:0.44606894 61:0.2522952 62:0.46671575 63:0.57493943 64:0.47446927 65:0.46688184 66:0.47007257 67:0.43676749 68:0.38325629 69:0.65759319 70:0.37043941 71:0.57701784 72:0.61428183 73:0.51908654 74:0.6433959 75:0.37839687 76:0.71794224 77:0.39786237 78:0.44549379 79:0.54432905 80:0.51869601 81:0.45365635 82:0.53328425 83:0.39468712 84:0.18957202 85:0.44947797 86:0.37609375 87:0.70171714 88:0.73997885 89:0.55938172 90:0.4218035 91:0.5315721 92:0.6353609 93:0.44324747 94:0.51892501 95:0.48573723 96:0.37950724 97:0.61929303 98:0.53142834 99:0.20082842 100:0.49935746 101:0.75302148 
0 0 0.1504777595688087 0 0 0 0 0 0 1:0.59604651 2:0.44222513 3:0.44170082 4:0.60979539 5:0.81114233 6:0.5318228 7:0.42241779 8:0.42817983 9:0.35495487 10:0.62807441 11:0.63412416 12:0.49278843 13:0.49732754 14:0.70748734 15:0.40700307 16:0.57770181 17:0.46196073 18:0.65748864 19:0.60636932 20:0.44769552 21:0.49462208 22:0.42200521 23:0.63013834 24:0.62541842 25:0.70537663 26:0.53361851 27:0.51616639 28:0.48644897 29:0.41977081 30:0.5299356 31:0.38619784 32:0.60579652 33:0.18967898 34:0.35574996 35:0.36829478 36:0.65837246 37:0.66985732 38:0.40029374 39:0.54366106 40:0.6472984 41:0.52089137 42:0.46992752 43:0.77510536 44:0.57493716 45:0.68662721 46:0.26547918 47:0.50491714 48:0.45215937 49:0.46080634 50:0.71841598 51:0.47888082 52:0.42030197 53:0.53304189 54:0.47343835 55:0.54714382 56:0.54966277 57:0.52157217 58:0.52293819 59:0.49166441 60:0.70766562 61:0.24629691 62:0.40030423 63:0.5335623 64:0.51519966 65:0.34959373 66:0.36933532 67:0.47348604 68:0.38969216 69:0.34256461 70:0.56550443 71:0.58839035 72:0.37446886 73:0.4883723 74:0.45989212 75:0.29501933 76:0.47300977 77:0.50003171 78:0.39168331 79:0.51762038 80:0.50111836 81:0.53983909 82:0.63220221 83:0.39687607 84:0.46518776 85:0.40507516 86:0.57952863 87:0.62238914 88:0.72865409 89:0.24243015 90:0.42825079 91:0.45994851 92:0.32416168 93:0.65192467 94:0.25619906 95:0.25258851 96:0.35260227 97:0.63739151 98:0.3231906 99:0.52518815 100:0.41061363 101:0.68870741 
0 0 0 0 0 0 0 0.3850148677806197 0 1:0.47395512 2:0.53751606 3:0.43753412 4:0.63080841 5:0.52440882 6:0.61390072 7:0.37037528 8:0.15583111 9:0.32528776 10:0.6234951 11:0.49598792 12:0.48964402 13:0.41502419 14:0.59690958 15:0.30354628 16:0.57510442 17:0.31523311 18:0.45954913 19:0.37489429 20:0.38706517 21:0.49657643 22:0.37882274 23:0.43568981 24:0.60677671 25:0.59765327 26:0.35917458 27:0.3397958 28:0.49675184 29:0.44088066 30:0.45819211 31:0.370197 32:0.61606127 33:0.31261522 34:0.56876904 35:0.38245833 36:0.65862387 37:0.74923706 38:0.32693654 39:0.5059191 40:0.51763082 41:0.72103465 42:0.42451864 43:0.69416261 44:0.51705372 45:0.55783576 46:0.31660706 47:0.4629907 48:0.61697704 49:0.56522876 50:0.39321285 51:0.44212037 52:0.44105145 53:0.61789274 54:0.47404739 55:0.43043712 56:0.44280896 57:0.45603618 58:0.60506356 59:0.57725954 60:0.50554049 61:0.58669603 62:0.61294854 63:0.62096483 64:0.21853825 65:0.511051 66:0.28922665 67:0.44998902 68:0.49644321 69:0.46700916 70:0.30451211 71:0.72540903 72:0.70878953 73:0.53754717 74:0.38111928 75:0.41213879 76:0.30841368 77:0.49392569 78:0.3657901 79:0.57335669 80:0.44133231 81:0.7494688 82:0.46249878 83:0.39006451 84:0.40090153 85:0.22480246 86:0.29689372 87:0.73797238 88:0.63005781 89:0.4525944 90:0.38345984 91:0.49005234 92:0.80562067 93:0.59102434 94:0.53097886 95:0.29883075 96:0.28616586 97:0.6476782 98:0.41783714 99:0.47828603 100:0.43525589 101:0.78483444 
0 0 2.222768532577763 0 0 1.103534488157412 0 0 0 1:0.45601749 2:0.38401547 3:0.47339293 4:0.49056071 5:0.60052717 6:0.34632313 7:0.39709938 8:0.52076882 9:0.6405465 10:0.37733153 11:0.47961357 12:0.42521897 13:0.24064447 14:0.39757407 15:0.45898515 16:0.66567791 17:0.56787515 18:0.34997731 19:0.35662737 20:0.57297331 21:0.63896036 22:0.20672885 23:0.45333943 24:0.51616246 25:0.60796487 26:0.48570827 27:0.31986976 28:0.4257023 29:0.52678251 30:0.57398862 31:0.37848154 32:0.76074195 33:0.41845885 34:0.63716257 35:0.56631732 36:0.46818715 37:0.55082947 38:0.42485434 39:0.46493047 40:0.52463245 41:0.52799034 42:0.54443693 43:0.52827185 44:0.64694661 45:0.47929382 46:0.42198679 47:0.39774019 48:0.40401849 49:0.58137691 50:0.57480419 51:0.65780067 52:0.34344378 53:0.5715034 54:0.40602186 55:0.50763607 56:0.57249343 57:0.28457853 58:0.63540798 59:0.53838247 60:0.54335064 61:0.46331987 62:0.37935752 63:0.38576367 64:0.47120398 65:0.22866516 66:0.32499051 67:0.20970693 68:0.72027671 69:0.46274942 70:0.53015327 71:0.42241883 72:0.57702625 73:0.45230973 74:0.36476749 75:0.47779331 76:0.58084267 77:0.49017477 78:0.42883566 79:0.49392152 80:0.45573783 81:0.42731971 82:0.441672 83:0.31566408 84:0.394593 85:0.4769356 86:0.58015364 87:0.69815898 88:0.66848665 89:0.1177757 90:0.56822073 91:0.49297625 92:0.56540859 93:0.68714154 94:0.34425375 95:0.25388587 96:0.39091092 97:0.49571976 98:0.14845575 99:0.89655143 100:0.29154494 101:0.64024097 
0 0 0.1113536246806954 0 0 0 0 0 0 1:0.52444589 2:0.56836551 3:0.41011912 4:0.68438119 5:0.62882829 6:0.59872848 7:0.47005463 8:0.65307909 9:0.5010035 10:0.31382906 11:0.66176456 12:0.48174748 13:0.49476552 14:0.43681896 15:0.51148123 16:0.29828164 17:0.59116787 18:0.35308054 19:0.57307768 20:0.35834351 21:0.62592858 22:0.38934398 23:0.4667494 24:0.3059499 25:0.42262998 26:0.41357613 27:0.4344947 28:0.57639432 29:0.45964327 30:0.51246005 31:0.45546508 32:0.38974693 33:0.63080585 34:0.38105866 35:0.40561473 36:0.49679855 37:0.56854397 38:0.32802975 39:0.49755588 40:0.52134454 41:0.2355845 42:0.40038687 43:0.63517517 44:0.3881498 45:0.42488858 46:0.23987107 47:0.49379593 48:0.65700573 49:0.8407461 50:0.41021156 51:0.79914427 52:0.49733335 53:0.46796554 54:0.58336097 55:0.73380947 56:0.57555962 57:0.24212597 58:0.57557076 59:0.56990445 60:0.43493664 61:0.51084697 62:0.47465423 63:0.69892639 64:0.5420481 65:0.37508327 66:0.26187223 67:0.32264444 68:0.4119181 69:0.58998823 70:0.72107142 71:0.54443419 72:0.45798558 73:0.50972277 74:0.48191941 75:0.56756508 76:0.51456362 77:0.5810948 78:0.39366829 79:0.425668 80:0.37682301 81:0.71897388 82:0.66902834 83:0.38806546 84:0.45504478 85:0.66282028 86:0.48164341 87:0.68094742 88:0.6008392 89:0.28426337 90:0.54290879 91:0.79168791 92:0.46693122 93:0.71826923 94:0.31266788 95:0.48154607 96:0.30790585 97:0.39208093 98:0.30954993 99:0.77848393 100:0.38927618 101:0.77416086 
0 0 0 0 0.7604362225303967 0 0 0.830949319216516 0 1:0.45032212 2:0.56893516 3:0.45010123 4:0.25904366 5:0.57160747 6:0.45831424 7:0.29570788 8:0.47330311 9:0.55294937 10:0.70015424 11:0.69665831 12:0.44911391 13:0.816782 14:0.4192763 15:0.58294094 16:0.63258177 17:0.43587434 18:0.40729904 19:0.49929422 20:0.44829139 21:0.32894143 22:0.4127467 23:0.84434795 24:0.28491327 25:0.59692591 26:0.43044722 27:0.30097917 28:0.84972852 29:0.53601766 30:0.51767069 31:0.35188887 32:0.33958077 33:0.43734404 34:0.49603817 35:0.4980101 36:0.50090659 37:0.48570415 38:0.16602659 39:0.51585478 40:0.44193673 41:0.37804404 42:0.53345233 43:0.45900688 44:0.55153626 45:0.34444237 46:0.5085153 47:0.63880104 48:0.53141022 49:0.52465236 50:0.621975 51:0.74817723 52:0.45352724 53:0.58000875 54:0.95444649 55:0.48771477 56:0.40425774 57:0.37799579 58:0.59616601 59:0.60719419 60:0.45040232 61:0.31441256 62:0.37935418 63:0.48875836 64:0.21169901 65:0.37558231 66:0.48900166 67:0.34482691 68:0.35306174 69:0.52586454 70:0.32116997 71:0.5235815 72:0.27582145 73:0.61618793 74:0.55425 75:0.29136547 76:0.60659736 77:0.55706471 78:0.65299827 79:0.4730587 80:0.47115886 81:0.5249815 82:0.53362936 83:0.26155919 84:0.24045841 85:0.37204129 86:0.31574294 87:0.75562668 88:0.56907046 89:0.33487815 90:0.60827357 91:0.65853041 92:0.57307559 93:0.68447608 94:0.43769154 95:0.42476428 96:0.46766341 97:0.70761615 98:0.26596764 99:0.81706744 100:0.29445335 101:0.69292253 
0 0 0 0 1.652363117951696 0.7552877304708357 0.7555711657515171 0 0 1:0.50985181 2:0.2826651 3:0.28114855 4:0.72059977 5:0.45838991 6:0.42404866 7:0.3927868 8:0.47300613 9:0.31035569 10:0.68950313 11:0.59254813 12:0.37595788 13:0.35457486 14:0.65051359 15:0.61159045 16:0.45733279 17:0.507366 18:0.36711556 19:0.44374999 20:0.55089766 21:0.58219194 22:0.60476327 23:0.5403865 24:0.48284048 25:0.58259022 26:0.40761298 27:0.42747864 28:0.64682621 29:0.51137483 30:0.5271734 31:0.18535267 32:0.53740108 33:0.52331895 34:0.43324846 35:0.60845375 36:0.54151142 37:0.69010913 38:0.26680449 39:0.4735041 40:0.63671523 41:0.45163593 42:0.38095194 43:0.45075926 44:0.56397426 45:0.47977778 46:0.26878071 47:0.35817799 48:0.59515417 49:0.44413215 50:0.442895 51:0.5106228 52:0.61652452 53:0.47124147 54:0.68868542 55:0.52123791 56:0.60660243 57:0.42895871 58:0.3712903 59:0.23579305 60:0.63047898 61:0.41067708 62:0.45689076 63:0.39709178 64:0.3799316 65:0.40824538 66:0.29505485 67:0.45649916 68:0.68202043 69:0.59663624 70:0.37814307 71:0.37739488 72:0.57985204 73:0.23755097 74:0.22373793 75:0.38099071 76:0.38921475 77:0.21685749 78:0.37888616 79:0.51750392 80:0.31483895 81:0.36729836 82:0.50547683 83:0.242899 84:0.31632826 85:0.4607392 86:0.79306513 87:0.75777352 88:0.57863265 89:0.27481264 90:0.43112165 91:0.22356753 92:0.5004254 93:0.64453232 94:0.3652755 95:0.24030294 96:0.39360869 97:0.66288817 98:0.36864284 99:0.73941994 100:0.3939665 101:0.64683396 
0 0 0.5056537046412597 0 0 0 0 0 0 1:0.28522477 2:0.4904699 3:0.43695331 4:0.51447421 5:0.4104667 6:0.39087832 7:0.4859097 8:0.6322701 9:0.45937136 10:0.38883954 11:0.55926251 12:0.48466459 13:0.71966851 14:0.48069906 15:0.37696058 16:0.61606824 17:0.66003132 18:0.42039815 19:0.53988391 20:0.31859288 21:0.46214807 22:0.27892202 23:0.44613358 24:0.25798327 25:0.50016379 26:0.59423041 27:0.35776162 28:0.37822178 29:0.49324971 30:0.51077783 31:0.63292778 32:0.56368321 33:0.61526906 34:0.58627445 35:0.30946895 36:0.66899467 37:0.64642519 38:0.31986955 39:0.58358055 40:0.52014136 41:0.5699985 42:0.42650777 43:0.57366443 44:0.62917048 45:0.7196973 46:0.37152839 47:0.2948004 48:0.45042118 49:0.65954697 50:0.60218215 51:0.58168358 52:0.74362594 53:0.5936355 54:0.55492586 55:0.68336421 56:0.67183489 57:0.42724827 58:0.53131461 59:0.48961243 60:0.70377922 61:0.35118958 62:0.29453051 63:0.49798018 64:0.33557257 65:0.32068053 66:0.58898038 67:0.48462015 68:0.71648508 69:0.37868235 70:0.43510953 71:0.58230543 72:0.57716215 73:0.36329439 74:0.33077237 75:0.33389616 76:0.36149096 77:0.59076542 78:0.35509798 79:0.50797766 80:0.52997351 81:0.25704411 82:0.52593029 83:0.35959119 84:0.47066504 85:0.39810616 86:0.19071917 87:0.72273821 88:0.579678 89:0.3183507 90:0.46230319 91:0.39894775 92:0.24800581 93:0.64507985 94:0.46843323 95:0.33544967 96:0.58520079 97:0.82783526 98:0.52584958 99:0.56323093 100:0.42813021 101:0.75389212 
0.3065821800492813 0 0 0 0 0 0.9438707807475326 0 0 1:0.47798255 2:0.50482571 3:0.46549776 4:0.57571512 5:0.55249655 6:0.42528459 7:0.58246237 8:0.50508404 9:0.48457289 10:0.60251319 11:0.51647878 12:0.42353219 13:0.45681125 14:0.4477922 15:0.41208363 16:0.54419678 17:0.40979919 18:0.3504768 19:0.25779098 20:0.46482721 21:0.4443911 22:0.52689344 23:0.84373331 24:0.2697573 25:0.4159897 26:0.46434069 27:0.51400304 28:0.51505923 29:0.58786398 30:0.60674489 31:0.38648254 32:0.39784384 33:0.56200886 34:0.50339317 35:0.52732223 36:0.66586572 37:0.64166075 38:0.36655432 39:0.62872303 40:0.38252214 41:0.43636173 42:0.45449802 43:0.45579183 44:0.72115237 45:0.56871951 46:0.26378775 47:0.38924474 48:0.43840811 49:0.40061802 50:0.63221842 51:0.72390836 52:0.51109588 53:0.45483744 54:0.47608802 55:0.46993268 56:0.49370524 57:0.64605683 58:0.53397447 59:0.5177747 60:0.54444396 61:0.37700638 62:0.56117636 63:0.45260942 64:0.39333436 65:0.27564695 66:0.40104195 67:0.33331931 68:0.51658982 69:0.42607573 70:0.57790852 71:0.68511075 72:0.60843539 73:0.70278376 74:0.39384377 75:0.34425411 76:0.6196515 77:0.53979778 78:0.41705433 79:0.44068527 80:0.54465973 81:0.49853221 82:0.68436968 83:0.68486947 84:0.85976356 85:0.62787282 86:0.46533394 87:0.67554653 88:0.72449017 89:0.089049622 90:0.44495699 91:0.48457602 92:0.37392125 93:0.79959029 94:0.40277895 95:0.26517344 96:0.56750625 97:0.70049959 98:0.21750018 99:0.64379913 100:0.43682644 101:0.69869393 
0 0 0 0 0 0 0.2225320204587317 0 0 1:0.46996915 2:0.50370806 3:0.49867949 4:0.64213485 5:0.53204721 6:0.40838039 7:0.37075034 8:0.42240548 9:0.50105911 10:0.65045816 11:0.66674793 12:0.56075722 13:0.6101284 14:0.60841316 15:0.45885023 16:0.42263454 17:0.46196845 18:0.44972521 19:0.62058705 20:0.39574441 21:0.56024969 22:0.31323963 23:0.6244486 24:0.45585421 25:0.57018912 26:0.50113851 27:0.41391188 28:0.49826816 29:0.58834118 30:0.44075257 31:0.51119685 32:0.38276026 33:0.34549603 34:0.49709785 35:0.32338828 36:0.59144068 37:0.67654264 38:0.36230308 39:0.42142555 40:0.57001251 41:0.58780628 42:0.52174705 43:0.4705174 44:0.7656737 45:0.52452713 46:0.43700871 47:0.60065895 48:0.51540977 49:0.5578844 50:0.5260734 51:0.40773144 52:0.51600152 53:0.79458165 54:0.51874107 55:0.44163063 56:0.71676528 57:0.49814501 58:0.54524696 59:0.56723571 60:0.8428126 61:0.47320423 62:0.43137789 63:0.33150268 64:0.60260212 65:0.35986266 66:0.33846015 67:0.42611101 68:0.60758466 69:0.29153526 70:0.49641579 71:0.36113396 72:0.50677025 73:0.31793517 74:0.31063956 75:0.35030293 76:0.27894545 77:0.50916082 78:0.38026178 79:0.43900663 80:0.45532438 81:0.32782459 82:0.47431624 83:0.30275616 84:0.51120543 85:0.57581133 86:0.53130949 87:0.64518946 88:0.54844135 89:0.19171081 90:0.50199217 91:0.49264097 92:0.33204854 93:0.70497125 94:0.27376148 95:0.23762222 96:0.34087747 97:0.69683552 98:0.35059425 99:0.52323788 100:0.46464428 101:0.68647963 
0 0 0 0 0 0.2558523981857199 0 0.345409745349293 0.0572122399261997 1:0.41299653 2:0.4805477 3:0.37765849 4:0.41929772 5:0.68300706 6:0.52996123 7:0.45130822 8:0.61718726 9:0.41677856 10:0.45601684 11:0.79048687 12:0.69686681 13:0.56539559 14:0.61345214 15:0.57182693 16:0.52465391 17:0.54857677 18:0.41756183 19:0.39369905 20:0.29862142 21:0.67096895 22:0.47748116 23:0.50834268 24:0.35789645 25:0.38511619 26:0.30180666 27:0.35073701 28:0.4882772 29:0.49843553 30:0.40810573 31:0.47492266 32:0.46665847 33:0.58847445 34:0.51381826 35:0.53357702 36:0.52194548 37:0.52396333 38:0.50120944 39:0.42593205 40:0.54204625 41:0.5176456 42:0.5393005 43:0.73687571 44:0.53299618 45:0.46705306 46:0.44182667 47:0.58876646 48:0.51573139 49:0.60743576 50:0.53759736 51:0.58451176 52:0.46753371 53:0.58551216 54:0.56206584 55:0.28259584 56:0.49700019 57:0.30162847 58:0.3001385 59:0.62706274 60:0.58258688 61:0.61401784 62:0.39893049 63:0.36774278 64:0.57470846 65:0.58105153 66:0.31815726 67:0.20333548 68:0.57777029 69:0.36947942 70:0.67518497 71:0.55118543 72:0.43582162 73:0.55550647 74:0.40170819 75:0.60031033 76:0.78098297 77:0.69868881 78:0.64083833 79:0.33205485 80:0.34863085 81:0.75499266 82:0.6265741 83:0.37757367 84:0.33457267 85:0.604711 86:0.3735117 87:0.66812551 88:0.63383192 89:0.22058648 90:0.48718598 91:0.56785667 92:0.29983395 93:0.66385001 94:0.12136409 95:0.40489036 96:0.36818671 97:0.39906102 98:0.217916 99:0.47451723 100:0.38777328 101:0.6887899 
0 0 0 0 0 0.2416114628578354 0 0 0.235540869593404 1:0.19221237 2:0.42617419 3:0.58000332 4:0.65293783 5:0.64476079 6:0.45994169 7:0.44590431 8:0.41530833 9:0.53691399 10:0.64689517 11:0.48721698 12:0.53667235 13:0.71715659 14:0.74084711 15:0.34651187 16:0.56651604 17:0.19219612 18:0.3896772 19:0.49530795 20:0.57789546 21:0.78772759 22:0.51319033 23:0.70471549 24:0.51022625 25:0.60679746 26:0.25249627 27:0.46096209 28:0.44192031 29:0.55157793 30:0.44486135 31:0.62361473 32:0.41775861 33:0.52010483 34:0.49786291 35:0.32502356 36:0.52649713 37:0.59622288 38:0.4281739 39:0.27804998 40:0.58054209 41:0.50679165 42:0.46173161 43:0.45825854 44:0.6491186 45:0.38123029 46:0.59428239 47:0.63479888 48:0.52081823 49:0.46619147 50:0.49467087 51:0.26928854 52:0.5674141 53:0.72641796 54:0.43983954 55:0.34789127 56:0.52641708 57:0.34771642 58:0.55536348 59:0.56990153 60:0.97927213 61:0.4018825 62:0.5432111 63:0.45736253 64:0.86559266 65:0.28609061 66:0.54138106 67:0.56031376 68:0.43109632 69:0.18245949 70:0.49147543 71:0.45661956 72:0.60790402 73:0.63251084 74:0.47660467 75:0.50401694 76:0.7145173 77:0.65834326 78:0.59876221 79:0.53262091 80:0.50610429 81:0.28432757 82:0.56119829 83:0.55129999 84:0.4672589 85:0.5302071 86:0.52771527 87:0.5369119 88:0.68158561 89:0.079336867 90:0.46053305 91:0.40813813 92:0.33460939 93:0.68484223 94:0.3139514 95:0.29119051 96:0.48346251 97:0.68537813 98:0.35844982 99:0.51968598 100:0.48064768 101:0.76173764 
0 0 0.8106674896206392 1.101853927566717 0 0 0 1.653767795579297 0 1:0.36964387 2:0.53749645 3:0.64945555 4:0.79522377 5:0.60831642 6:0.75287461 7:0.40862557 8:0.50793475 9:0.46098417 10:0.37697083 11:0.54747868 12:0.65836984 13:0.59452891 14:0.44882804 15:0.54313052 16:0.4557755 17:0.30268058 18:0.42371991 19:0.35831624 20:0.54831994 21:0.58755457 22:0.35013232 23:0.67108339 24:0.43436342 25:0.377413 26:0.48844573 27:0.43455029 28:0.65113324 29:0.49441817 30:0.64682001 31:0.44623393 32:0.44762608 33:0.44309527 34:0.32912731 35:0.59832364 36:0.58393294 37:0.43995014 38:0.36062384 39:0.3376542 40:0.38216779 41:0.34997103 42:0.48611104 43:0.48315892 44:0.40876147 45:0.57825989 46:0.47835919 47:0.54758567 48:0.68775868 49:0.42092225 50:0.43466946 51:0.56287301 52:0.39373484 53:0.5208115 54:0.49108469 55:0.61768883 56:0.68066871 57:0.091796413 58:0.55251563 59:0.48394439 60:0.43695453 61:0.47185668 62:0.69007063 63:0.23485993 64:0.62113053 65:0.51307464 66:0.17750259 67:0.53460538 68:0.50944495 69:0.30456263 70:0.56088293 71:0.53781533 72:0.64479154 73:0.30534098 74:0.54143304 75:0.51183027 76:0.46775344 77:0.46819755 78:0.64857215 79:0.49530074 80:0.49478287 81:0.39996409 82:0.37708518 83:0.51054609 84:0.6809867 85:0.44524691 86:0.52115685 87:0.79944438 88:0.59591371 89:0.26403657 90:0.40255269 91:0.50651985 92:0.36734566 93:0.46145377 94:0.38706321 95:0.34371972 96:0.58807611 97:0.71099865 98:0.54813576 99:0.49399829 100:0.54666656 101:0.65437275 
0 0 1.18031890305012 0 0 0 0 0 0 1:0.62891424 2:0.43178397 3:0.60956037 4:0.55350894 5:0.51740915 6:0.32658264 7:0.62504685 8:0.5419355 9:0.34303445 10:0.43303153 11:0.51302958 12:0.49351451 13:0.45573035 14:0.37223798 15:0.4515034 16:0.45157453 17:0.39917627 18:0.446262 19:0.53904974 20:0.53932822 21:0.47847748 22:0.28245604 23:0.56225187 24:0.5502817 25:0.57293385 26:0.45532548 27:0.68604541 28:0.4605166 29:0.66735095 30:0.24142313 31:0.28651804 32:0.43885103 33:0.39033005 34:0.53170377 35:0.58680141 36:0.66625458 37:0.50485587 38:0.27300954 39:0.44828054 40:0.54443926 41:0.32675213 42:0.41707554 43:0.71426404 44:0.65918475 45:0.3937929 46:0.53197801 47:0.26410624 48:0.67752266 49:0.7794593 50:0.49595788 51:0.52524543 52:0.50118327 53:0.5088371 54:0.45834318 55:0.50998974 56:0.53145373 57:0.18236831 58:0.33446661 59:0.3101722 60:0.68710583 61:0.58794981 62:0.43870524 63:0.81516206 64:0.68831509 65:0.47714099 66:0.43406993 67:0.45511648 68:0.31612998 69:0.28730941 70:0.51147705 71:0.55383456 72:0.71515435 73:0.46667802 74:0.41000324 75:0.47799864 76:0.61576641 77:0.70965606 78:0.37438035 79:0.5737884 80:0.46339762 81:0.53014266 82:0.41294715 83:0.3017742 84:0.25707865 85:0.25644997 86:0.39331016 87:0.63087928 88:0.6468792 89:0.39579108 90:0.52625036 91:0.66221511 92:0.52026498 93:0.5767538 94:0.38603529 95:0.5755716 96:0.14828481 97:0.40678006 98:0.30555126 99:0.44096383 100:0.37038565 101:0.72349888 
0 0 0 0.7158792673189047 0 0 0.06293092061090241 0 0 1:0.79809344 2:0.40973663 3:0.5130949 4:0.35667685 5:0.42379278 6:0.53053397 7:0.45480883 8:0.5506916 9:0.54386115 10:0.51187807 11:0.5520981 12:0.58893234 13:0.43674621 14:0.59204239 15:0.58656883 16:0.45041502 17:0.64854276 18:0.52580106 19:0.72862744 20:0.61059147 21:0.1609505 22:0.70449507 23:0.47959647 24:0.41808057 25:0.35559219 26:0.68299615 27:0.31375322 28:0.46949476 29:0.66421372 30:0.56380683 31:0.50448012 32:0.5434866 33:0.42170107 34:0.54172671 35:0.741552 36:0.64487201 37:0.4866007 38:0.22017328 39:0.48529351 40:0.68867904 41:0.58496791 42:0.34225613 43:0.49462938 44:0.54435176 45:0.46188453 46:0.38885659 47:0.53039366 48:0.69139993 49:0.42613438 50:0.4024711 51:0.38423496 52:0.38819346 53:0.67540056 54:0.48007813 55:0.40577552 56:0.74547148 57:0.34920868 58:0.39252725 59:0.4321309 60:0.32883281 61:0.41462427 62:0.37011346 63:0.29911077 64:0.60624933 65:0.35700479 66:0.27787408 67:0.15688913 68:0.61338049 69:0.31547064 70:0.4725194 71:0.55754131 72:0.54173499 73:0.36530706 74:0.66561627 75:0.45476943 76:0.49566025 77:0.49242419 78:0.5827325 79:0.34962675 80:0.50129825 81:0.39919412 82:0.36672223 83:0.37302527 84:0.47158504 85:0.62775606 86:0.51169771 87:0.62725478 88:0.61885458 89:0.14710058 90:0.56259596 91:0.49841991 92:0.50851578 93:0.50734341 94:0.29215613 95:0.039776683 96:0.67274064 97:0.78486741 98:0.28566933 99:0.69565952 100:0.52197999 101:0.67341202 
0 9.336031261654506 0 0 0 0 0 0 0 1:0.52651167 2:0.54556513 3:0.55228478 4:0.72790658 5:0.56452984 6:0.56946731 7:0.36153904 8:0.59359121 9:0.49506155 10:0.34091225 11:0.64575732 12:0.55344367 13:0.24038781 14:0.44086307 15:0.54967183 16:0.57767498 17:0.34613737 18:0.31525654 19:0.54034895 20:0.39097533 21:0.35881993 22:0.51877147 23:0.69509315 24:0.40823114 25:0.4422456 26:0.49908087 27:0.50480402 28:0.61424762 29:0.66662669 30:0.54640037 31:0.5238598 32:0.41384429 33:0.66841233 34:0.68043226 35:0.5547927 36:0.43653095 37:0.63333368 38:0.35539174 39:0.62558216 40:0.65610021 41:0.37892234 42:0.37864214 43:0.50210881 44:0.43224484 45:0.33713683 46:0.59503466 47:0.55988914 48:0.46631593 49:0.47085536 50:0.65612465 51:0.56991923 52:0.58138311 53:0.50458622 54:0.42782322 55:0.64915448 56:0.44822973 57:0.55390525 58:0.64078748 59:0.45372695 60:0.80075961 61:0.54432613 62:0.4058741 63:0.58164746 64:0.40350652 65:0.52673191 66:0.49060434 67:0.48079273 68:0.5444864 69:0.51436132 70:0.38916612 71:0.42232722 72:0.78407204 73:0.51890779 74:0.42405871 75:0.3457976 76:0.65742946 77:0.56704772 78:0.39803717 79:0.47546896 80:0.54192895 81:0.3960602 82:0.26181668 83:0.48102051 84:0.5041098 85:0.29972789 86:0.65509468 87:0.58442634 88:0.62660497 89:0.4311097 90:0.29466072 91:0.37624639 92:0.31663263 93:0.47040802 94:0.29599413 95:0.40739784 96:0.23167139 97:0.56392056 98:0.5575636 99:0.18860331 100:0.5090968 101:0.75093067 
0.09420763191777555 0 0 0 0 0 0 0 0 1:0.19380066 2:0.48511189 3:0.33006325 4:0.65130204 5:0.51453471 6:0.4097676 7:0.81411958 8:0.71429676 9:0.54289126 10:0.6294986 11:0.45635948 12:0.56071448 13:0.54303813 14:0.66442472 15:0.8640914 16:0.41687837 17:0.73716938 18:0.42476851 19:0.31788069 20:0.81133288 21:0.40339243 22:0.78047019 23:0.44498089 24:0.42273185 25:0.44353288 26:0.38460639 27:0.50313842 28:0.3678689 29:0.46591604 30:0.59547293 31:0.52325457 32:0.10678235 33:0.60487968 34:0.54510355 35:0.39982376 36:0.52106923 37:0.5889346 38:0.53486902 39:0.89018756 40:0.57497728 41:0.69867057 42:0.54095906 43:0.57332611 44:0.49547613 45:0.47052392 46:0.49166256 47:0.31576446 48:0.52284873 49:0.77031094 50:0.66779774 51:0.52436149 52:0.50528979 53:0.56484097 54:0.34469655 55:0.37002644 56:0.59181887 57:0.59405285 58:0.56870782 59:0.27470982 60:0.67358923 61:0.22924669 62:0.55661404 63:0.29548866 64:0.68672991 65:0.42211619 66:0.59990454 67:0.58670413 68:0.29491025 69:0.459777 70:0.48599198 71:0.67815387 72:0.62309653 73:0.40892237 74:0.58865404 75:0.38453382 76:0.36382163 77:0.50439358 78:0.56044024 79:0.32009932 80:0.49802023 81:0.59375101 82:0.2753396 83:0.44626135 84:0.5239529 85:0.49491835 86:0.32570499 87:0.71100146 88:0.73505974 89:0.34425685 90:0.50656229 91:0.54359591 92:0.66157252 93:0.56295258 94:0.59382212 95:0.47946712 96:0.48827052 97:0.57207346 98:0.57733524 99:0.6095798 100:0.5829981 101:0.82558572 
1.839638847931119 3.582870989339348 0 0 0 0 0 0 0.1685829212335589 1:0.58341098 2:0.52978683 3:0.24379063 4:0.56484818 5:0.40485424 6:0.50486797 7:0.73214859 8:0.77360243 9:0.49483535 10:0.20102765 11:0.54750264 12:0.25687745 13:0.59407771 14:0.3178542 15:0.78934097 16:0.4675971 17:0.53603393 18:0.42930749 19:0.41460717 20:0.62149507 21:0.57088041 22:0.52263147 23:0.42083478 24:0.26114413 25:0.54709864 26:0.46374699 27:0.63271153 28:0.52462888 29:0.51390821 30:0.49296704 31:0.35847318 32:0.37019494 33:0.58668429 34:0.37849784 35:0.24434498 36:0.61635828 37:0.74219173 38:0.26403067 39:0.49612743 40:0.62302995 41:0.49857309 42:0.49715641 43:0.40887442 44:0.49521983 45:0.45017457 46:0.49098548 47:0.35653391 48:0.69370556 49:0.40056115 50:0.51955342 51:0.72186738 52:0.36573511 53:0.42617992 54:0.35303757 55:0.60179526 56:0.57152039 57:0.54587632 58:0.69608635 59:0.21198693 60:0.39951468 61:0.52192742 62:0.43829116 63:0.38124946 64:0.64465141 65:0.55428988 66:0.25117669 67:0.46741569 68:0.3270207 69:0.50211233 70:0.54941314 71:0.56153965 72:0.61646754 73:0.41136229 74:0.4718819 75:0.47248283 76:0.56951284 77:0.45188993 78:0.61097056 79:0.63800955 80:0.49191439 81:0.47688144 82:0.68827391 83:0.38081804 84:0.49922141 85:0.45372024 86:0.76658905 87:0.85554761 88:0.59249288 89:0.57898694 90:0.52174258 91:0.34822431 92:0.61474538 93:0.47853643 94:0.35252076 95:0.50159407 96:0.27970794 97:0.51455045 98:0.58210301 99:0.40338597 100:0.47397795 101:0.66071498 
0 5.541795930437911 0 0 0 0 0 0 0 1:0.46643078 2:0.4296672 3:0.41002113 4:0.32773328 5:0.47605973 6:0.4987185 7:0.43908191 8:0.50528574 9:0.1860467 10:0.66050899 11:0.77397561 12:0.35788214 13:0.4779098 14:0.3492417 15:0.50986558 16:0.5132494 17:0.58177787 18:0.56572241 19:0.33987761 20:0.65575254 21:0.53199613 22:0.51136881 23:0.45932692 24:0.4288975 25:0.46853328 26:0.49131832 27:0.6679309 28:0.29558852 29:0.43036368 30:0.41561395 31:0.36053002 32:0.78772247 33:0.40920892 34:0.4745959 35:0.73596114 36:0.56327164 37:0.65753895 38:0.51973242 39:0.34678623 40:0.43598825 41:0.60787755 42:0.74749428 43:0.68901485 44:0.3171629 45:0.6614157 46:0.39396238 47:0.42437333 48:0.57825232 49:0.5473904 50:0.36435661 51:0.46721691 52:0.25714236 53:0.53877926 54:0.53660691 55:0.56992453 56:0.39999047 57:0.28060731 58:0.43002155 59:0.36124429 60:0.3208766 61:0.43505523 62:0.51999009 63:0.41039914 64:0.50305033 65:0.46617961 66:0.46399057 67:0.75586706 68:0.75730872 69:0.44300228 70:0.37391612 71:0.61513585 72:0.5200603 73:0.60919714 74:0.56953901 75:0.60424322 76:0.57726234 77:0.46916348 78:0.61972612 79:0.37427616 80:0.45358849 81:0.43097782 82:0.24270684 83:0.47322071 84:0.4515416 85:0.33022282 86:0.49213612 87:0.64294064 88:0.68661356 89:0.57186943 90:0.43962812 91:0.5548507 92:0.3907623 93:0.50458527 94:0.37304693 95:0.56857109 96:0.33354384 97:0.49196401 98:0.54195464 99:0.65295351 100:0.60644937 101:0.89051241 
0 0 0 1.271792259994244 0 0 0 0 0 1:0.38742876 2:0.3888545 3:0.56411493 4:0.25838992 5:0.36717987 6:0.49346587 7:0.49952966 8:0.45884079 9:0.35505083 10:0.48164642 11:0.52041847 12:0.4349699 13:0.39494452 14:0.43413305 15:0.64382589 16:0.57295197 17:0.43433005 18:0.47994405 19:0.4220629 20:0.50603181 21:0.58401388 22:0.4835 23:0.5715276 24:0.50838566 25:0.61781079 26:0.18367729 27:0.49346417 28:0.63913655 29:0.56748611 30:0.42079708 31:0.40512824 32:0.71694112 33:0.44120052 34:0.51589578 35:0.59287333 36:0.31465811 37:0.68285936 38:0.566562 39:0.41304111 40:0.52156186 41:0.5228563 42:0.53118604 43:0.60654104 44:0.50904572 45:0.47321856 46:0.56239414 47:0.6071707 48:0.6837731 49:0.58931756 50:0.30943632 51:0.4536536 52:0.45502338 53:0.37536877 54:0.58026147 55:0.38239995 56:0.36085165 57:0.46084887 58:0.31989622 59:0.25679517 60:0.31988135 61:0.58241278 62:0.46200019 63:0.31381917 64:0.58874571 65:0.52904308 66:0.36128643 67:0.51611036 68:0.47168395 69:0.52895129 70:0.35289696 71:0.47817403 72:0.50648838 73:0.40776423 74:0.32756698 75:0.42590269 76:0.5877555 77:0.26946214 78:0.44539592 79:0.50813341 80:0.42491406 81:0.52746755 82:0.57151705 83:0.37175566 84:0.39372134 85:0.60072738 86:0.83627194 87:0.73313206 88:0.65450507 89:0.34871221 90:0.44710621 91:0.26449209 92:0.57279474 93:0.57469261 94:0.37435654 95:0.52377051 96:0.35134563 97:0.56888676 98:0.62999827 99:0.5412246 100:0.61385661 101:0.7171945 
0 0 0 0 0 0.6814625892779214 0 0 1.128077195519319 1:0.39632019 2:0.37564689 3:0.34335408 4:0.67677021 5:0.55427796 6:0.34061205 7:0.46083331 8:0.63846529 9:0.39419967 10:0.48108199 11:0.40609825 12:0.69629532 13:0.67718953 14:0.51756811 15:0.71667957 16:0.52104855 17:0.58382392 18:0.42805731 19:0.59514987 20:0.49110273 21:0.48511857 22:0.60584688 23:0.37867707 24:0.65834248 25:0.49760395 26:0.54757494 27:0.46594536 28:0.43389598 29:0.62922269 30:0.50939554 31:0.41628897 32:0.45191842 33:0.52619767 34:0.45448926 35:0.231179 36:0.42873186 37:0.65811431 38:0.3794955 39:0.79906422 40:0.66190314 41:0.50210673 42:0.57355458 43:0.68060219 44:0.45253041 45:0.54241902 46:0.55365664 47:0.41284367 48:0.5538581 49:0.59378755 50:0.60258245 51:0.46546483 52:0.4299008 53:0.51858598 54:0.3968229 55:0.40017444 56:0.35512921 57:0.33392227 58:0.51973349 59:0.26575381 60:0.51910961 61:0.72666323 62:0.53417832 63:0.50105637 64:0.4403041 65:0.4041042 66:0.50258982 67:0.29238433 68:0.55741441 69:0.48831919 70:0.47796381 71:0.51295072 72:0.56291676 73:0.45663491 74:0.2081039 75:0.50315434 76:0.5964129 77:0.59960288 78:0.39353436 79:0.55334419 80:0.45207602 81:0.53025615 82:0.52667576 83:0.32335615 84:0.38740849 85:0.53953731 86:0.86087859 87:0.76833749 88:0.46134105 89:0.39966461 90:0.58609045 91:0.3746607 92:0.54383034 93:0.46564135 94:0.39635259 95:0.40738371 96:0.42515773 97:0.56876677 98:0.67933768 99:0.34452623 100:0.45805457 101:0.71119535 
2.405662696676989 0 0.6653359476299737 0 0 0 0 0 2.358644241422439 1:0.55821097 2:0.79554343 3:0.4267821 4:0.19523458 5:0.5291549 6:0.71471298 7:0.58943987 8:0.50828862 9:0.29654911 10:0.47459334 11:0.54562771 12:0.45120403 13:0.75801986 14:0.55165237 15:0.41545564 16:0.5892477 17:0.57249629 18:0.44125178 19:0.48510432 20:0.25500795 21:0.3874062 22:0.47288239 23:0.59469593 24:0.4409025 25:0.33706626 26:0.41297531 27:0.7409088 28:0.57735282 29:0.5065676 30:0.32036889 31:0.31167734 32:0.48502719 33:0.48960796 34:0.37339935 35:0.34498134 36:0.362472 37:0.75429475 38:0.20694782 39:0.3652904 40:0.52750015 41:0.54449016 42:0.35487249 43:0.62771446 44:0.42988077 45:0.71725643 46:0.42380163 47:0.37789631 48:0.30739751 49:0.56063819 50:0.74581927 51:0.40385902 52:0.55188537 53:0.49355942 54:0.6206634 55:0.48829356 56:0.77544349 57:0.41562268 58:0.58203602 59:0.63132393 60:0.47483131 61:0.66349906 62:0.58494753 63:0.59276825 64:0.58073813 65:0.49151635 66:0.36488831 67:0.42234847 68:0.49720532 69:0.47144055 70:0.45942065 71:0.49804488 72:0.53095442 73:0.56566912 74:0.56630641 75:0.29329655 76:0.6772998 77:0.5897699 78:0.40080315 79:0.58388418 80:0.43380767 81:0.5824582 82:0.36027274 83:0.3848888 84:0.23242165 85:0.41517809 86:0.3994416 87:0.76194733 88:0.54027015 89:0.37701574 90:0.73209262 91:0.59101665 92:0.6136595 93:0.51211786 94:0.43034768 95:0.79518706 96:0.24089989 97:0.53554827 98:0.58885062 99:0.30220568 100:0.42091873 101:0.665398 
1.158147625239831 10 0 1.027854663744474 0 0 0.02325876290413465 0 0 1:0.62568879 2:0.4397113 3:0.56125915 4:0.57491004 5:0.53499961 6:0.59392017 7:0.40298995 8:0.50108737 9:0.36269778 10:0.4016239 11:0.56415534 12:0.2259136 13:0.64608812 14:0.47513491 15:0.29327136 16:0.39136264 17:0.44593075 18:0.36385489 19:0.23666954 20:0.4053798 21:0.21802738 22:0.62077248 23:0.5798167 24:0.66143692 25:0.60215795 26:0.45243847 27:0.44840714 28:0.59756458 29:0.54720491 30:0.35493436 31:0.43912897 32:0.46436918 33:0.33601621 34:0.38146228 35:0.71733332 36:0.40511695 37:0.59858692 38:0.45435381 39:0.3910051 40:0.5754348 41:0.55421108 42:0.64100862 43:0.65739381 44:0.67267996 45:0.54492402 46:0.47130728 47:0.49438092 48:0.61757272 49:0.50802815 50:0.70540071 51:0.36186314 52:0.30409914 53:0.5475086 54:0.61802948 55:0.33615363 56:0.44907427 57:0.29681435 58:0.47334453 59:0.49504372 60:0.5403443 61:0.46123788 62:0.49171948 63:0.36024603 64:0.40465263 65:0.36386332 66:0.42233494 67:0.4784638 68:0.28695402 69:0.56053847 70:0.5559541 71:0.47169238 72:0.48275107 73:0.23835553 74:0.40084869 75:0.43063772 76:0.48496088 77:0.44757485 78:0.37327805 79:0.50794965 80:0.3988874 81:0.45882314 82:0.6544553 83:0.40028065 84:0.56920624 85:0.44907519 86:0.22728409 87:0.68246436 88:0.60624844 89:0.84352285 90:0.54348165 91:0.73798233 92:0.44338486 93:0.67574281 94:0.51491302 95:0.59670484 96:0.35135943 97:0.55627114 98:0.48865476 99:0.5696308 100:0.54197294 101:0.71070689 
0 0 0 0 0 0 0 0.1915924010122577 0 1:0.53001302 2:0.53457075 3:0.56241477 4:0.59814554 5:0.56133735 6:0.36170462 7:0.62747973 8:0.48396397 9:0.31176165 10:0.3763946 11:0.85669726 12:0.36366239 13:0.56745905 14:0.71878314 15:0.50570643 16:0.57517731 17:0.59247077 18:0.59717315 19:0.34451225 20:0.67153728 21:0.42023474 22:0.36424398 23:0.50821906 24:0.48944411 25:0.52599531 26:0.59804964 27:0.22988234 28:0.65462863 29:0.55622572 30:0.45765311 31:0.5125773 32:0.49097049 33:0.40927011 34:0.4352625 35:0.2599465 36:0.53478205 37:0.6939382 38:0.28658119 39:0.73669934 40:0.73339653 41:0.37576613 42:0.48878556 43:0.46273506 44:0.42707625 45:0.43709016 46:0.50307989 47:0.36978194 48:0.35261458 49:0.70728505 50:0.3969391 51:0.41165757 52:0.37398887 53:0.69243985 54:0.68609273 55:0.48115355 56:0.47808191 57:0.42182684 58:0.61094362 59:0.53352362 60:0.3267425 61:0.57928503 62:0.56605214 63:0.44118893 64:0.24437058 65:0.38382003 66:0.48184988 67:0.37327671 68:0.45928097 69:0.46124473 70:0.37592745 71:0.7127502 72:0.55854321 73:0.45729515 74:0.3861171 75:0.26050797 76:0.25538203 77:0.43891713 78:0.46886876 79:0.50437653 80:0.52704149 81:0.43917203 82:0.51734024 83:0.63670808 84:0.67508334 85:0.55702734 86:0.53966576 87:0.6991756 88:0.47889203 89:0.23649701 90:0.6697734 91:0.53763521 92:0.59451073 93:0.5802241 94:0.57097304 95:0.35303107 96:0.61747545 97:0.73705447 98:0.57204157 99:0.467033 100:0.50466508 101:0.72718269 
0 0 0.7601784181566755 0.5991858044619919 0 1.631562122770399 0 0.2732886689162929 0 1:0.52462035 2:0.48428982 3:0.65554535 4:0.35031506 5:0.5855062 6:0.26897454 7:0.6359722 8:0.62189347 9:0.2297965 10:0.51918674 11:0.62133873 12:0.37710452 13:0.52583939 14:0.85931516 15:0.32845086 16:0.73132193 17:0.34298384 18:0.49852219 19:0.45796737 20:0.40230227 21:0.2696133 22:0.5863356 23:0.48404112 24:0.1759119 25:0.27901149 26:0.20411226 27:0.34115985 28:0.38733464 29:0.62712193 30:0.60102981 31:0.4674173 32:0.64068335 33:0.37215111 34:0.52969205 35:0.42769578 36:0.63412416 37:0.47407803 38:0.33643609 39:0.50453335 40:0.75987422 41:0.44430038 42:0.39117455 43:0.57861072 44:0.15545745 45:0.63272583 46:0.91566747 47:0.59537923 48:0.34255895 49:0.41751176 50:0.45062113 51:0.56214416 52:0.14666218 53:0.48935959 54:0.75897861 55:0.60708296 56:0.31466934 57:0.39212769 58:0.86848283 59:0.49801505 60:0.65840316 61:0.32104218 62:0.44833633 63:0.76275146 64:0.37707186 65:0.3176448 66:0.37012905 67:0.53662837 68:0.61634189 69:0.49240601 70:0.19915056 71:0.45901045 72:0.6593166 73:0.6378029 74:0.49303332 75:0.48380387 76:0.82390368 77:0.36893952 78:0.53270495 79:0.42428041 80:0.56923074 81:0.65085793 82:0.33949775 83:0.3918705 84:0.29429799 85:0.27289757 86:0.57551742 87:0.77546638 88:0.63353449 89:0.43881798 90:0.20269847 91:0.43650833 92:0.69411033 93:0.54621136 94:0.49334663 95:0.41602898 96:0.4047069 97:0.68789959 98:0.59189886 99:0.3628363 100:0.39165086 101:0.75184429 
0 0 0 0.4069269476499602 0 2.023464294263396 0 0 0 1:0.68011224 2:0.62053925 3:0.50161505 4:0.41294277 5:0.61878443 6:0.57446653 7:0.33388865 8:0.42119801 9:0.49189055 10:0.57429057 11:0.62133026 12:0.34935996 13:0.61713141 14:0.41338333 15:0.52959347 16:0.49750039 17:0.36578172 18:0.43534049 19:0.32671773 20:0.53647679 21:0.48158759 22:0.52457565 23:0.60548621 24:0.52743691 25:0.34621772 26:0.79015017 27:0.26123965 28:0.64772433 29:0.63633478 30:0.59898746 31:0.6103934 32:0.38226095 33:0.43471161 34:0.46107 35:0.5449481 36:0.52310318 37:0.67868245 38:0.34537211 39:0.35357162 40:0.56931871 41:0.34277469 42:0.5567795 43:0.44700155 44:0.4021669 45:0.34141999 46:0.4048081 47:0.66346765 48:0.40390775 49:0.44662711 50:0.54360276 51:0.74772984 52:0.35364017 53:0.62038338 54:0.65121073 55:0.5094111 56:0.44910523 57:0.42071417 58:0.5088129 59:0.45586181 60:0.28485531 61:0.42630893 62:0.45546907 63:0.34974864 64:0.49130753 65:0.51307434 66:0.35807714 67:0.46811086 68:0.78712714 69:0.63189709 70:0.44747695 71:0.57315719 72:0.41557297 73:0.50537479 74:0.50558758 75:0.36224559 76:0.73363262 77:0.42597628 78:0.42840183 79:0.48759508 80:0.59227729 81:0.48320624 82:0.4196524 83:0.33776405 84:0.28276253 85:0.39747506 86:0.48447579 87:0.70027226 88:0.59281331 89:0.44326663 90:0.50489682 91:0.62615043 92:0.50863379 93:0.49669698 94:0.37578696 95:0.51088691 96:0.3335692 97:0.58370042 98:0.52265823 99:0 100:0.43639669 101:0.64248419 
0 0 0.05158409645848828 0 0 0 0 0 0 1:0.43529275 2:0.62593186 3:0.41968828 4:0.52243656 5:0.57298332 6:0.27462089 7:0.23879196 8:0.71185046 9:0.3565048 10:0.40264866 11:0.59534061 12:0.57742882 13:0.920798 14:0.50860775 15:0.53784817 16:0.44798571 17:0.46007711 18:0.5865677 19:0.34724113 20:0.74357605 21:0.21448775 22:0.50140595 23:0.76105922 24:0.34064081 25:0.65523165 26:0.42434719 27:0.19525908 28:0.4276233 29:0.46022579 30:0.44531205 31:0.42680928 32:0.41013825 33:0.63158774 34:0.34707975 35:0.54215401 36:0.600977 37:0.50398129 38:0.28769359 39:0.48260498 40:0.66354543 41:0.54733121 42:0.45666346 43:0.34072831 44:0.32062408 45:0.53031003 46:0.59216917 47:0.19315901 48:0.60145211 49:0.65974385 50:0.39333007 51:0.53173029 52:0.43859488 53:0.52912527 54:0.41243157 55:0.40392536 56:0.60090214 57:0.39118502 58:0.60245425 59:0.46349129 60:0.40535361 61:0.42538488 62:0.62684035 63:0.42843401 64:0.71599942 65:0.63754201 66:0.6937021 67:0.6089021 68:0.50319171 69:0.28854597 70:0.5010637 71:0.31071061 72:0.56248248 73:0.5268473 74:0.56201214 75:0.42012227 76:0.49708581 77:0.46954125 78:0.6434859 79:0.47358605 80:0.48883459 81:0.16396329 82:0.48328096 83:0.40595794 84:0.4522652 85:0.55256146 86:0.57324725 87:0.66796809 88:0.62778878 89:0.37558955 90:0.57832664 91:0.56264478 92:0.39821959 93:0.45245641 94:0.37041733 95:0.48432538 96:0.38004068 97:0.50655496 98:0.68673778 99:0.46290419 100:0.54409474 101:0.79044282 
0 0 0.8103082504818835 0 0.4232325972115362 0 0.7069887179768188 0.6253742861496364 0.04470537970018111 1:0.3839401 2:0.84812188 3:0.62035924 4:0.36276075 5:0.78702909 6:0.76184332 7:0.61132294 8:0.35708049 9:0.29395425 10:0.33302075 11:0.45909747 12:0.41383079 13:0.2513338 14:0.47103992 15:0.36924171 16:0.50176477 17:0.53247476 18:0.21975531 19:0.16066322 20:0.74169666 21:0.66197342 22:0.58460271 23:0.68446851 24:0.43823734 25:0.24014565 26:0.55437613 27:0.2911112 28:0.74474424 29:0.7041527 30:0.61103797 31:0.53658903 32:0.52163529 33:0.39711809 34:0.3766031 35:0.4623926 36:0.6284281 37:0.55480266 38:0.33718327 39:0.59293759 40:0.66630566 41:0.37021241 42:0.6465047 43:0.25982878 44:0.28657281 45:0.77665496 46:0.7465241 47:0.293248 48:0.56746632 49:0.87969327 50:0.54333997 51:0.61579865 52:0.57577294 53:0.32377189 54:0.41505086 55:0.783095 56:0.438146 57:0.51802999 58:0.38567457 59:0.44489306 60:0.64228261 61:0.63679725 62:0.50123763 63:0.58628887 64:0.30250567 65:0.22593731 66:0.33843476 67:0.65758771 68:0.20849927 69:0.43305093 70:0.41263637 71:0.43655241 72:0.49161813 73:0.42299938 74:0.43435401 75:0.70914644 76:0.59769964 77:0.626647 78:0.58510506 79:0.70648128 80:0.39979631 81:0.48086146 82:0.62488312 83:0.6265316 84:0.37254882 85:0.47304806 86:0.6339131 87:0.70316112 88:0.35960144 89:0.1350548 90:0.68258101 91:0.83303142 92:0.38941157 93:0.24435478 94:0.37728244 95:0.51586968 96:0.51921886 97:0.62504536 98:0.67589825 99:0.24934794 100:0.35392916 101:0.6194523 
0 0 1.669874680028651 0 0 0 0 0 0 1:0.59635276 2:0.58636451 3:0.6177755 4:0.50111991 5:0.76464212 6:0.44235295 7:0.42406449 8:0.3036055 9:0.24254784 10:0.42309171 11:0.4802992 12:0.2525607 13:0.65001792 14:0.5479883 15:0.53710562 16:0.71413857 17:0.37620267 18:0.21850592 19:0.56104165 20:0.42931235 21:0.66930515 22:0.66135353 23:0.62938017 24:0.17610839 25:0.49707031 26:0.41507417 27:0.43828833 28:0.45524356 29:0.44591051 30:0.72803611 31:0.41878513 32:0.39307311 33:0.42411593 34:0.32185012 35:0.49823895 36:0.59289235 37:0.4487519 38:0.24982376 39:0.34783903 40:0.52745402 41:0.4337675 42:0.2490662 43:0.29288235 44:0.51747578 45:0.66509831 46:0.68344593 47:0.51691508 48:0.4813728 49:0.45718706 50:0.78360796 51:0.72638077 52:0.46883413 53:0.24935865 54:0.56807351 55:0.709975 56:0.31029484 57:0.80965751 58:0.4209694 59:0.44772911 60:0.51901096 61:0.37726325 62:0.59747863 63:0.44773245 64:0.5897463 65:0.24168898 66:0.55481434 67:0.63900036 68:0.5481894 69:0.34417084 70:0.38159627 71:0.49409688 72:0.50961173 73:0.53531677 74:0.43248186 75:0.47087887 76:0.70953983 77:0.45638019 78:0.39313009 79:0.51187503 80:0.51249534 81:0.54875004 82:0.48336026 83:0.45973164 84:0.52786553 85:0.47570962 86:0.65743053 87:0.80363029 88:0.39945063 89:0.23567793 90:0.79885298 91:0.88842714 92:0.6953882 93:0.2829099 94:0.44696182 95:0.56950378 96:0.45970139 97:0.6465838 98:0.55646503 99:0.36309487 100:0.34846702 101:0.62827355 
0 0 1.646691897477477 0 0 0 0 0 0 1:0.40498343 2:0.46609002 3:0.35325447 4:0.45727038 5:0.71146429 6:0.31526339 7:0.41368285 8:0.63142896 9:0.4039053 10:0.32904857 11:0.74096084 12:0.49326876 13:0.57828778 14:0.33271825 15:0.56499928 16:0.55649358 17:0.44217339 18:0.40645355 19:0.47860542 20:0.69541687 21:0.47105303 22:0.66071779 23:0.53228402 24:0.41265029 25:0.50140262 26:0.64201093 27:0.43777832 28:0.44426903 29:0.57937831 30:0.72136784 31:0.41410056 32:0.80775338 33:0.6083889 34:0.67677838 35:0.22594839 36:0.61053842 37:0.7587921 38:0.33758658 39:0.60324454 40:0.7291016 41:0.64897978 42:0.22120973 43:0.3513819 44:0.30992603 45:0.35461682 46:0.37224537 47:0.32821426 48:0.46979111 49:0.63594282 50:0.43116572 51:0.59398776 52:0.50346148 53:0.53202116 54:0.73182893 55:0.40636304 56:0.45322075 57:0.59357619 58:0.62831318 59:0.2233303 60:0.62742597 61:0.47146982 62:0.33689943 63:0.64097869 64:0.29145512 65:0.35979524 66:0.67958093 67:0.61110693 68:0.5538547 69:0.2915391 70:0.38773674 71:0.48603746 72:0.75639188 73:0.38788694 74:0.46363312 75:0.51137662 76:0.44164208 77:0.37962154 78:0.42632332 79:0.42697296 80:0.47935435 81:0.25408468 82:0.55963761 83:0.34699354 84:0.58267003 85:0.62692225 86:0.78150219 87:0.77496421 88:0.58043057 89:0.14096624 90:0.56706619 91:0.36886972 92:0.4391005 93:0.50484771 94:0.27274641 95:0.64504653 96:0.29642922 97:0.53247762 98:0.65873837 99:0.48965198 100:0.61416584 101:0.68355495 
0 0 0.9033802543410423 0 0 0 0 0 0 1:0.65646034 2:0.4089314 3:0.61353844 4:0.57017314 5:0.66236126 6:0.44348702 7:0.55664456 8:0.52175611 9:0.58764195 10:0.53653365 11:0.76456577 12:0.4608863 13:0.5966928 14:0.46821404 15:0.51932013 16:0.52666885 17:0.29425532 18:0.21843022 19:0.52041429 20:0.5501253 21:0.40297097 22:0.60933936 23:0.42397368 24:0.18293159 25:0.58834016 26:0.54913652 27:0.31066132 28:0.64747572 29:0.23583287 30:0.63175118 31:0.56276345 32:0.41585881 33:0.69111711 34:0.46832997 35:0.78869826 36:0.4804731 37:0.61816537 38:0.37453899 39:0.70410204 40:0.46924633 41:0.51996309 42:0.60259271 43:0.50706941 44:0.54774493 45:0.41853464 46:0.41335025 47:0.6286124 48:0.4326221 49:0.42947194 50:0.68062371 51:0.51797193 52:0.29559135 53:0.60524076 54:0.70666367 55:0.49673218 56:0.49212965 57:0.39412007 58:0.46861348 59:0.48450339 60:0.44536152 61:0.65815175 62:0.39438048 63:0.50735855 64:0.55783969 65:0.5253948 66:0.32501256 67:0.37126854 68:0.61179429 69:0.41239411 70:0.44351178 71:0.42869502 72:0.51112819 73:0.41420126 74:0.46013084 75:0.46734735 76:0.58156663 77:0.41736555 78:0.26635122 79:0.3333481 80:0.35513115 81:0.43152249 82:0.47806415 83:0.33142543 84:0.48620793 85:0.21264787 86:0.6174441 87:0.78087336 88:0.63248259 89:0.35649839 90:0.67995095 91:0.43381932 92:0.66963637 93:0.47347614 94:0.46874925 95:0.37907344 96:0.4733623 97:0.69148737 98:0.43449685 99:0.76986772 100:0.4523713 101:0.72471714 
0.1062610731930067 0 0 1.299025706494301 0 0 0 0 0 1:0.58023393 2:0.41833282 3:0.40366441 4:0.55800092 5:0.43147436 6:0.61211067 7:0.51946104 8:0.31059527 9:0.28077814 10:0.62980539 11:0.57747531 12:0.3994644 13:0.70732778 14:0.3553037 15:0.63009411 16:0.61147273 17:0.41522646 18:0.59279037 19:0.15151657 20:0.53451854 21:0.40839362 22:0.35834131 23:0.37280956 24:0.46068215 25:0.66984177 26:0.3991046 27:0.4647803 28:0.57403308 29:0.43285367 30:0.67003363 31:0.60293943 32:0.48552907 33:0.71766698 34:0.50449997 35:0.79202765 36:0.52004641 37:0.58077484 38:0.21042234 39:0.41083863 40:0.40433291 41:0.41001445 42:0.32792583 43:0.33071539 44:0.43977061 45:0.57268375 46:0.38283598 47:0.40575182 48:0.39832029 49:0.54343039 50:0.40940464 51:0.6603322 52:0.52052587 53:0.48294091 54:0.32574832 55:0.47007746 56:0.45677686 57:0.26233265 58:0.39382902 59:0.41282454 60:0.33465913 61:0.56143028 62:0.32996196 63:0.38939652 64:0.36943436 65:0.38326302 66:0.43109456 67:0.48951897 68:0.66705579 69:0.49512151 70:0.40578321 71:0.45697266 72:0.67442054 73:0.23081172 74:0.35268202 75:0.50487548 76:0.59617114 77:0.53205985 78:0.33942127 79:0.53930187 80:0.48265076 81:0.35385704 82:0.44953519 83:0.1631043 84:0.40484864 85:0.35988003 86:0.64581126 87:0.75141925 88:0.60703826 89:0.41010305 90:0.48191479 91:0.26484644 92:0.74233276 93:0.45597699 94:0.5240556 95:0.4059937 96:0.49963915 97:0.84601897 98:0.55376971 99:0.74662369 100:0.50664693 101:0.69713312 
0 0 0 0 0 0 0.002904140261617117 0 0 1:0.29180774 2:0.58193111 3:0.47643739 4:0.65450317 5:0.49387619 6:0.51950318 7:0.37287325 8:0.48033887 9:0.60081083 10:0.51721615 11:0.4728137 12:0.51116836 13:0.5931623 14:0.60295391 15:0.48373204 16:0.60983211 17:0.52189612 18:0.49480456 19:0.25726095 20:0.3379589 21:0.44442502 22:0.27640849 23:0.50838608 24:0.58973014 25:0.54848945 26:0.72976542 27:0.55197352 28:0.61104262 29:0.62720662 30:0.48439905 31:0.31036472 32:0.43234035 33:0.36926186 34:0.55229002 35:0.43193659 36:0.50178975 37:0.4079223 38:0.31521547 39:0.30465472 40:0.56267232 41:0.5737645 42:0.672822 43:0.61995828 44:0.42228606 45:0.63185269 46:0.59893125 47:0.52538043 48:0.49426672 49:0.72269809 50:0.2621226 51:0.15995087 52:0.47161487 53:0.45724091 54:0.44177204 55:0.46820942 56:0.37300298 57:0.53845227 58:0.50519598 59:0.44199505 60:0.61205083 61:0.55570316 62:0.68586314 63:0.56250811 64:0.5223456 65:0.4305214 66:0.36260536 67:0.61646616 68:0.2125064 69:0.54415888 70:0.34528551 71:0.52481383 72:0.36623198 73:0.53321105 74:0.47824189 75:0.52547085 76:0.6499052 77:0.47979498 78:0.37552309 79:0.44048238 80:0.49051508 81:0.52524036 82:0.56148547 83:0.4550578 84:0.29596862 85:0.37769383 86:0.27442303 87:0.75899971 88:0.47667485 89:0.39938712 90:0.64792866 91:0.72841394 92:0.53706008 93:0.53218997 94:0.50582886 95:0.62833065 96:0.41894794 97:0.57387108 98:0.64019561 99:0.68187237 100:0.5031895 101:0.84999484 
0.591001922747892 4.951126247875604 0 0 0 0 0 0 0 1:0.34957445 2:0.40073624 3:0.39030311 4:0.51323622 5:0.47862279 6:0.5639872 7:0.51567525 8:0.52022612 9:0.64742744 10:0.27611047 11:0.93625015 12:0.49844477 13:0.54696566 14:0.44623554 15:0.22422539 16:0.52909499 17:0.24432774 18:0.52418131 19:0.63440883 20:0.32321626 21:0.44767243 22:0.46393767 23:0.46589929 24:0.55113959 25:0.49371475 26:0.48887259 27:0.41706201 28:0.41715291 29:0.51922011 30:0.68407345 31:0.58727229 32:0.74695778 33:0.24678566 34:0.58634931 35:0.78851742 36:0.52270734 37:0.5473038 38:0.37300044 39:0.6573233 40:0.48411375 41:0.20821309 42:0.72865546 43:0.60544384 44:0.42957368 45:0.36034206 46:0.34703913 47:0.43002048 48:0.6466586 49:0.49791008 50:0.47377387 51:0.35505113 52:0.61523712 53:0.56644088 54:0.54964495 55:0.54723197 56:0.56170988 57:0.55267656 58:0.61495876 59:0.32067782 60:0.43176752 61:0.65957028 62:0.40109906 63:0.49200535 64:0.53190482 65:0.41558397 66:0.53584778 67:0.45766789 68:0.41365245 69:0.55854255 70:0.46038738 71:0.73018748 72:0.47581857 73:0.48388082 74:0.3813625 75:0.54397899 76:0.52672064 77:0.47861424 78:0.35349846 79:0.51053965 80:0.56252021 81:0.46719334 82:0.50793332 83:0.17236023 84:0.50932699 85:0.48470429 86:0.57461971 87:0.75680947 88:0.59747034 89:0.52073985 90:0.67209929 91:0.47987771 92:0.50484902 93:0.49085835 94:0.37831086 95:0.62117821 96:0.29995131 97:0.52971554 98:0.65870947 99:0.73204046 100:0.60056192 101:0.76419348 
0 0 0 0.0260200483128708 0 0 0 0 0 1:0.62097257 2:0.42176393 3:0.27341753 4:0.6139248 5:0.53307658 6:0.56795555 7:0.64988446 8:0.60287106 9:0.30787137 10:0.39612558 11:0.67398298 12:0.33245298 13:0.88310617 14:0.58900702 15:0.56486839 16:0.44811288 17:0.66902673 18:0.5245344 19:0.55467361 20:0.44094634 21:0.5841943 22:0.52443171 23:0.30434096 24:0.36683044 25:0.41623178 26:0.81570959 27:0.40896669 28:0.73087919 29:0.5255416 30:0.57573634 31:0.26307884 32:0.65296221 33:0.5657503 34:0.44005656 35:0.73202807 36:0.54629415 37:0.62553447 38:0.42066696 39:0.26143879 40:0.67148751 41:0.68994045 42:0.62867188 43:0.41417354 44:0.50944477 45:0.58994496 46:0.585549 47:0.3956567 48:0.43993291 49:0.54668444 50:0.5791924 51:0.34513196 52:0.38671935 53:0.62225616 54:0.5936197 55:0.24124731 56:0.42652825 57:0.27391514 58:0.70684767 59:0.11697979 60:0.31620499 61:0.41844228 62:0.50609362 63:0.76223111 64:0.65036279 65:0.7194013 66:0.36918485 67:0.73531091 68:0.23833697 69:0.56326675 70:0.77508992 71:0.50055933 72:0.56131685 73:0.30014786 74:0.57573158 75:0.4247745 76:0.65266299 77:0.2812255 78:0.53864646 79:0.45012358 80:0.40392494 81:0.42292428 82:0.5880664 83:0.35702676 84:0.40740991 85:0.47705474 86:0.63707465 87:0.71565425 88:0.46724364 89:0.30926588 90:0.61881506 91:0.49242076 92:0.46075729 93:0.57936919 94:0.27397794 95:0.60387981 96:0.37460142 97:0.5133779 98:0.63273108 99:0.68792111 100:0.61142349 101:0.78714186 
0 6.13328873078051 0 0 0 0 0 0 0 1:0.67222464 2:0.44671497 3:0.49558052 4:0.31142503 5:0.60953045 6:0.33129063 7:0.55433345 8:0.38029236 9:0.38608846 10:0.32792917 11:0.61617178 12:0.45730895 13:0.47959667 14:0.64339256 15:0.40193275 16:0.27998406 17:0.4812611 18:0.33078885 19:0.63736302 20:0.5164659 21:0.46609694 22:0.26046905 23:0.54375976 24:0.48366678 25:0.53753704 26:0.45790741 27:0.32131118 28:0.57035458 29:0.6125291 30:0.63568419 31:0.61189854 32:0.66439718 33:0.49755159 34:0.47329521 35:0.4094958 36:0.39555016 37:0.66493434 38:0.44806629 39:0.44018701 40:0.63163155 41:0.42639354 42:0.5820902 43:0.49000531 44:0.49505857 45:0.27319518 46:0.46023527 47:0.43416342 48:0.52304858 49:0.7886399 50:0.59835172 51:0.36249807 52:0.50409108 53:0.58721542 54:0.45407718 55:0.41492504 56:0.76142573 57:0.67206687 58:0.87476128 59:0.31948182 60:0.69619638 61:0.50734955 62:0.33451036 63:0.53067577 64:0.6132319 65:0.66517204 66:0.57770807 67:0.56802797 68:0.11984584 69:0.37273026 70:0.50943416 71:0.45750728 72:0.50737417 73:0.54371321 74:0.58646673 75:0.51953745 76:0.49953142 77:0.31297788 78:0.497989 79:0.4256748 80:0.4051483 81:0.47628072 82:0.37287408 83:0.43944478 84:0.37793735 85:0.40750784 86:0.56910926 87:0.60267311 88:0.64446872 89:0.41444468 90:0.44799197 91:0.62907416 92:0.2637772 93:0.70261455 94:0.41460061 95:0.52248991 96:0.38408321 97:0.53503913 98:0.59413314 99:0.7278924 100:0.69804877 101:0.87264985 
0 3.366533866579352 0 0 0 0 0 0 0 1:0.45487899 2:0.41870588 3:0.31698313 4:0.45407626 5:0.50802433 6:0.47961563 7:0.28046209 8:0.6176191 9:0.43489462 10:0.39121571 11:0.4938255 12:0.24748373 13:0.50656104 14:0.41587558 15:0.67890388 16:0.49068865 17:0.46992865 18:0.4083097 19:0.33433893 20:0.3075425 21:0.68627262 22:0.54085702 23:0.44373214 24:0.45098177 25:0.46225685 26:0.4955368 27:0.30674994 28:0.64042807 29:0.42497006 30:0.52205551 31:0.59879923 32:0.61242896 33:0.41378745 34:0.41512042 35:0.57594818 36:0.38519058 37:0.55021632 38:0.54452693 39:0.41119751 40:0.46413168 41:0.53737044 42:0.24648049 43:0.52098787 44:0.52983171 45:0.52859062 46:0.36345926 47:0.35759506 48:0.44071451 49:0.58468461 50:0.53250539 51:0.4736307 52:0.51703274 53:0.65035272 54:0.42005143 55:0.35199839 56:0.38368663 57:0.65392661 58:0.36602262 59:0.39316437 60:0.26697177 61:0.49438781 62:0.60946363 63:0.44626263 64:0.53890079 65:0.40546191 66:0.44563806 67:0.39880255 68:0.27111652 69:0.61916798 70:0.50002217 71:0.54290521 72:0.43143195 73:0.34553933 74:0.38971132 75:0.66732961 76:0.64886612 77:0.65999573 78:0.40336218 79:0.50160933 80:0.29470435 81:0.59490865 82:0.56657022 83:0.30116391 84:0.22635634 85:0.37293765 86:0.61940175 87:0.69822806 88:0.57694483 89:0.58676928 90:0.36592957 91:0.60200399 92:0.68758088 93:0.65025681 94:0.48942751 95:0.43185741 96:0.37258726 97:0.59314936 98:0.63262296 99:0.70460898 100:0.53004694 101:0.85566622 
0 1.543666389489977 0 0 0 0 0 0 0 1:0.43743098 2:0.47978458 3:0.50365007 4:0.64161068 5:0.40086362 6:0.68962717 7:0.69416934 8:0.65836996 9:0.49386671 10:0.44607025 11:0.58523059 12:0.4595173 13:0.40204254 14:0.70151722 15:0.55756462 16:0.77021134 17:0.5340271 18:0.40916887 19:0.32347083 20:0.30211416 21:0.68548203 22:0.34400859 23:0.48276022 24:0.48753592 25:0.42317513 26:0.72556168 27:0.42896381 28:0.48187447 29:0.65729052 30:0.62032086 31:0.41579753 32:0.54680753 33:0.61803561 34:0.45365116 35:0.62620091 36:0.52135742 37:0.71877009 38:0.45741805 39:0.37347671 40:0.61866671 41:0.17813206 42:0.45977968 43:0.58318967 44:0.27440998 45:0.36912453 46:0.32112652 47:0.57325059 48:0.52681357 49:0.47573793 50:0.54966086 51:0.49905971 52:0.45686069 53:0.51147819 54:0.568672 55:0.54900336 56:0.41646063 57:0.4827728 58:0.59935379 59:0.25036591 60:0.58322585 61:0.33639488 62:0.59935099 63:0.4546704 64:0.42169583 65:0.44699836 66:0.50817943 67:0.81959379 68:0.44097814 69:0.4331556 70:0.62248868 71:0.5853883 72:0.44112727 73:0.58529121 74:0.47051039 75:0.64302522 76:0.55923647 77:0.53597164 78:0.40887311 79:0.45757002 80:0.50298619 81:0.39206296 82:0.44164631 83:0.26952904 84:0.30618879 85:0.44950828 86:0.58580709 87:0.6488443 88:0.61362731 89:0.50747412 90:0.31119251 91:0.55690324 92:0.68671495 93:0.61237639 94:0.59482729 95:0.49695882 96:0.45020455 97:0.68784583 98:0.60364324 99:0.68189842 100:0.57204002 101:0.90767306 
0 0 0.3528126187915006 0 0 0 0 0 0 1:0.58564657 2:0.41791865 3:0.52008754 4:0.94871104 5:0.52092957 6:0.67940521 7:0.455309 8:0.46732306 9:0.225733 10:0.54977232 11:0.63910353 12:0.64378941 13:0.47313237 14:0.69145852 15:0.51245725 16:0.48863059 17:0.5077545 18:0.49933115 19:0.59478086 20:0.58992231 21:0.63781852 22:0.36147666 23:0.49693283 24:0.59551281 25:0.61762065 26:0.48938876 27:0.50850332 28:0.50324976 29:0.6491968 30:0.49402183 31:0.42535672 32:0.39125007 33:0.53315961 34:0.68066847 35:0.46149236 36:0.59570855 37:0.61394083 38:0.41425622 39:0.47399431 40:0.55809307 41:0.48732743 42:0.47608131 43:0.52938271 44:0.46216846 45:0.68350422 46:0.36119282 47:0.22819898 48:0.69150233 49:0.61750937 50:0.32444984 51:0.41023073 52:0.7257933 53:0.48338029 54:0.36054531 55:0.49730295 56:0.65229225 57:0.60559618 58:0.59828919 59:0.42553261 60:0.74328095 61:0.57132304 62:0.53977394 63:0.42425966 64:0.8048088 65:0.44362977 66:0.31540728 67:0.84658062 68:0.83377856 69:0.43354511 70:0.45706752 71:0.61698467 72:0.67867714 73:0.3762328 74:0.49539483 75:0.45168439 76:0.53472865 77:0.30741647 78:0.34943014 79:0.4589299 80:0.48554209 81:0.41682392 82:0.28081223 83:0.44707495 84:0.46409708 85:0.31924349 86:0.14921372 87:0.68171102 88:0.69960541 89:0.35104397 90:0.34638116 91:0.4297469 92:0.33108255 93:0.68455964 94:0.62900239 95:0.46362507 96:0.38076895 97:0.717538 98:0.52731538 99:0.70904499 100:0.5727933 101:0.87213814 
0 0 0 0 0 0 0.6190115279762607 0 0 1:0.56130856 2:0.51287979 3:0.38665581 4:0.69383419 5:0.72332054 6:0.52496767 7:0.31280765 8:0.73530054 9:0.39309192 10:0.52508605 11:0.60290658 12:0.31578168 13:0.36642811 14:0.50675565 15:0.44448748 16:0.67226887 17:0.40756774 18:0.54668534 19:0.45740557 20:0.62233347 21:0.36796227 22:0.64388466 23:0.46068075 24:0.32004145 25:0.55150372 26:0.55569339 27:0.41041902 28:0.60340041 29:0.51153523 30:0.62113971 31:0.58474219 32:0.6555022 33:0.50043899 34:0.59393805 35:0.60069555 36:0.54973722 37:0.30822533 38:0.38556945 39:0.43345171 40:0.58912724 41:0.53336334 42:0.34353426 43:0.31667104 44:0.3454318 45:0.48765671 46:0.50229144 47:0.42159626 48:0.58391029 49:0.39627263 50:0.48124388 51:0.4182694 52:0.84407806 53:0.4940598 54:0.3478668 55:0.23163591 56:0.32931647 57:0.50361341 58:0.48282948 59:0.259747 60:0.59307247 61:0.50462461 62:0.33053234 63:0.45440975 64:0.6633476 65:0.50574708 66:0.56199712 67:0.82413322 68:0.48710245 69:0.47446033 70:0.49849367 71:0.54324943 72:0.66473609 73:0.18196656 74:0.49253505 75:0.51778787 76:0.49660328 77:0.41021165 78:0.27024564 79:0.49994531 80:0.481933 81:0.3449274 82:0.58450156 83:0.41790512 84:0.42963567 85:0.3156274 86:0.53025359 87:0.6803329 88:0.77450264 89:0.34367785 90:0.40760472 91:0.55270028 92:0.41427654 93:0.56708694 94:0.35047841 95:0.5878458 96:0.25986651 97:0.54094261 98:0.643664 99:0.70843935 100:0.58173281 101:0.87933737 
0 0 0 0 0 1.682659579291166 0 0 0.5855983733402644 1:0.41016784 2:0.42738098 3:0.39778 4:0.45036089 5:0.32571024 6:0.53860396 7:0.55986845 8:0.69622755 9:0.610484 10:0.40632284 11:0.62533677 12:0.53216583 13:0.62433374 14:0.72998518 15:0.5934484 16:0.63515943 17:0.60179746 18:0.76022083 19:0.43204418 20:0.56500459 21:0.48685732 22:0.44253692 23:0.41686192 24:0.59427482 25:0.69759095 26:0.56190765 27:0.56482929 28:0.50533366 29:0.89602655 30:0.46413866 31:0.46594012 32:0.46006814 33:0.64876616 34:0.36967033 35:0.31525555 36:0.35231048 37:0.53078544 38:0.51910657 39:0.5077306 40:0.64270437 41:0.4817878 42:0.33759221 43:0.70134461 44:0.43451035 45:0.64103436 46:0.52123868 47:0.4547452 48:0.66309786 49:0.56280833 50:0.66967505 51:0.46498242 52:0.32644981 53:0.32991004 54:0.54254133 55:0.34569529 56:0.32349417 57:0.55555868 58:0.6455158 59:0.41690937 60:0.31731963 61:0.45503786 62:0.54241472 63:0.23314302 64:0.81901675 65:0.4848128 66:0.67064756 67:0.51182169 68:0.44912148 69:0.45050311 70:0.56689644 71:0.53460771 72:0.62822974 73:0.747899 74:0.49425289 75:0.58505112 76:0.58856553 77:0.40877441 78:0.50169027 79:0.42617986 80:0.44402778 81:0.63914311 82:0.5963217 83:0.8125419 84:0.90565294 85:0.72030956 86:0.69028836 87:0.62196445 88:0.78424293 89:0.14869079 90:0.37701797 91:0.43626198 92:0.44177917 93:0.77114081 94:0.50250393 95:0.52728444 96:0.49401236 97:0.53452712 98:0.49097922 99:0.65010011 100:0.66317087 101:0.81521279 
0 1.372027538040866 0 0 0 0 0 0 0 1:0.68180221 2:0.52508134 3:0.4969458 4:0.58699936 5:0.56662774 6:0.44366053 7:0.34671411 8:0.49091882 9:0.38470474 10:0.65228707 11:0.45837173 12:0.44509098 13:0.54809153 14:0.36830014 15:0.46759927 16:0.33018309 17:0.51749659 18:0.38738701 19:0.53621233 20:0.56496882 21:0.27594453 22:0.46134955 23:0.54645824 24:0.46754852 25:0.65675235 26:0.68145305 27:0.60900307 28:0.35626802 29:0.69380289 30:0.65270793 31:0.52755386 32:0.56795692 33:0.66391611 34:0.5367139 35:0.57281053 36:0.5903945 37:0.63022494 38:0.34782448 39:0.45771164 40:0.595613 41:0.33970055 42:0.63512176 43:0.81809944 44:0.48318335 45:0.57194519 46:0.27231252 47:0.49438432 48:0.62832481 49:0.60613197 50:0.36190653 51:0.44187054 52:0.42903948 53:0.48981878 54:0.37949565 55:0.50287837 56:0.50513619 57:0.69397283 58:0.64337486 59:0.22357541 60:0.55133957 61:0.38169503 62:0.37391719 63:0.56114179 64:0.59476477 65:0.36429578 66:0.5525865 67:0.67716938 68:0.20808421 69:0.38440847 70:0.50602645 71:0.54791838 72:0.73917437 73:0.50476724 74:0.63143665 75:0.67283797 76:0.55482376 77:0.49103662 78:0.60095751 79:0.40383318 80:0.5148831 81:0.52785856 82:0.40077126 83:0.31310883 84:0.42304358 85:0.45124093 86:0.49093714 87:0.71663851 88:0.63481635 89:0.47236738 90:0.47262421 91:0.67309964 92:0.46311402 93:0.58885318 94:0.38105136 95:0.55807281 96:0.39659923 97:0.54656428 98:0.59194523 99:0.75158507 100:0.57951951 101:0.81914729 
0 0 0 0 0 0 0.2395040189291872 0 0 1:0.67080355 2:0.46688384 3:0.42872033 4:0.59515852 5:0.53729981 6:0.40337873 7:0.50966775 8:0.47229165 9:0.23497887 10:0.45294321 11:0.57101524 12:0.43698558 13:0.71981233 14:0.5806641 15:0.41030711 16:0.39868748 17:0.42867151 18:0.38913557 19:0.53092033 20:0.6286937 21:0.30764106 22:0.54692727 23:0.59418023 24:0.51314312 25:0.49641824 26:0.58354896 27:0.37180275 28:0.70170081 29:0.48391247 30:0.84482127 31:0.44945136 32:0.57785302 33:0.29412538 34:0.5123027 35:0.71886462 36:0.39454931 37:0.65457821 38:0.22466224 39:0.55441099 40:0.67776573 41:0.58631378 42:0.59751546 43:0.43138868 44:0.64273077 45:0.45984837 46:0.35299999 47:0.42377526 48:0.72549748 49:0.73213345 50:0.70245826 51:0.46724412 52:0.58923817 53:0.66311479 54:0.79444373 55:0.21644466 56:0.67347676 57:0.62234885 58:0.50188333 59:0.45334285 60:0.60533732 61:0.46617377 62:0.57276487 63:0.76774627 64:0.57512665 65:0.58344072 66:0.45670465 67:0.50943774 68:0.098704092 69:0.6090048 70:0.56289864 71:0.54410362 72:0.59809005 73:0.49520543 74:0.71856248 75:0.59645617 76:0.5542348 77:0.3270317 78:0.36147782 79:0.50357765 80:0.46315682 81:0.55390131 82:0.63474268 83:0.47900584 84:0.54104555 85:0.68856108 86:0.64000905 87:0.68673474 88:0.60080296 89:0.1971121 90:0.43463379 91:0.4112024 92:0.66157603 93:0.62399286 94:0.48132092 95:0.42975429 96:0.3904264 97:0.56611389 98:0.60107607 99:0.71230853 100:0.64093888 101:0.86171931 
1.510790579092953 0 0 0 0 0 0 0 0 1:0.536421 2:0.51716673 3:0.64914322 4:0.39604208 5:0.73315346 6:0.48621726 7:0.40602311 8:0.44893104 9:0.39928052 10:0.57044077 11:0.68624377 12:0.51832634 13:0.34232846 14:0.46579352 15:0.34600124 16:0.46561369 17:0.17342986 18:0.52570444 19:0.60434729 20:0.28932914 21:0.29412988 22:0.73212725 23:0.57871979 24:0.3834503 25:0.3884187 26:0.67690831 27:0.55642736 28:0.48253739 29:0.35387361 30:0.64618474 31:0.45657623 32:0.59168476 33:0.49057713 34:0.46962586 35:0.57844204 36:0.4814235 37:0.69092971 38:0.49184644 39:0.37829795 40:0.51367921 41:0.41534093 42:0.54954237 43:0.47893208 44:0.39258277 45:0.35347149 46:0.33836877 47:0.67128581 48:0.62153453 49:0.40916416 50:0.5941577 51:0.59881288 52:0.37686956 53:0.6586293 54:0.71600479 55:0.4866547 56:0.61314243 57:0.43039143 58:0.39875144 59:0.55740213 60:0.45857412 61:0.54244894 62:0.44107074 63:0.41492364 64:0.69774061 65:0.56753814 66:0.24522589 67:0.56065053 68:0.45928153 69:0.35268751 70:0.55615968 71:0.57657534 72:0.33282816 73:0.30306599 74:0.36854705 75:0.61803937 76:0.54732382 77:0.50451899 78:0.2561422 79:0.43091303 80:0.41346565 81:0.46392107 82:0.64139938 83:0.20492877 84:0.23270883 85:0.46715757 86:0.48630688 87:0.7776134 88:0.7035203 89:0.4249121 90:0.44265065 91:0.40761423 92:0.72189051 93:0.37871462 94:0.48249155 95:0.59150487 96:0.31351659 97:0.52028555 98:0.60508877 99:0.55917901 100:0.53455234 101:0.76184124 
0 0 0 0.8506957686690821 0 0.2151273667069484 0.08047813141883808 0 0 1:0.51760566 2:0.52311116 3:0.34695548 4:0.47429928 5:0.5201838 6:0.24614792 7:0.71505171 8:0.45266557 9:0.62662506 10:0.46463338 11:0.5796451 12:0.4390938 13:0.38489237 14:0.39776826 15:0.6385833 16:0.36299828 17:0.41097483 18:0.45705479 19:0.4003737 20:0.51436371 21:0.56754929 22:0.63993067 23:0.68331373 24:0.51734078 25:0.33570257 26:0.55884105 27:0.40688905 28:0.49661878 29:0.45810223 30:0.44182107 31:0.42147347 32:0.58990031 33:0.4286254 34:0.49651569 35:0.21245919 36:0.36690286 37:0.57231891 38:0.45073706 39:0.43881869 40:0.50782889 41:0.50619632 42:0.51096457 43:0.33383828 44:0.20134787 45:0.29156518 46:0.65129948 47:0.38070381 48:0.50349104 49:0.46968222 50:0.44802618 51:0.30599374 52:0.55692679 53:0.72831786 54:0.43709174 55:0.47897807 56:0.45684364 57:0.69141012 58:0.64523256 59:0.56923938 60:0.74476898 61:0.88542604 62:0.42967811 63:0.53641194 64:0.79295695 65:0.56847364 66:0.39990038 67:0.47675693 68:0.45615771 69:0.40465134 70:0.42104271 71:0.29608536 72:0.50177526 73:0.32214594 74:0.22736226 75:0.62210751 76:0.4519788 77:0.30925912 78:0.3712993 79:0.51761132 80:0.47729939 81:0.16549885 82:0.36223587 83:0.3903949 84:0.62110162 85:0.63591915 86:0.60590494 87:0.53481424 88:0.59760547 89:0.16681622 90:0.40224364 91:0.36817047 92:0.42043057 93:0.68467957 94:0.27282685 95:0.60074741 96:0.33008689 97:0.54930794 98:0.64892548 99:0.71433842 100:0.74769473 101:0.74597269 
0 0.8622296634309164 0 0 0 0 0 0 0 1:0.53040868 2:0.65527654 3:0.32286912 4:0.64829767 5:0.80481589 6:0.29753119 7:0.40464696 8:0.67409849 9:0.60159117 10:0.86247092 11:0.38188863 12:0.40753806 13:0.62209725 14:0.50613493 15:0.51756483 16:0.60188764 17:0.57160556 18:0.35393107 19:0.44515029 20:0.50507867 21:0.2811479 22:0.65286326 23:0.51409584 24:0.43542841 25:0.26955983 26:0.59285539 27:0.22523762 28:0.63413775 29:0.93958282 30:0.69174588 31:0.45705414 32:0.65821326 33:0.59851843 34:0.44315973 35:0.56539762 36:0.46118516 37:0.73900342 38:0.31495905 39:0.43577689 40:0.47650129 41:0.38705602 42:0.50817436 43:0.61457849 44:0.74517381 45:0.5580976 46:0.61430806 47:0.45843723 48:0.27934676 49:0.4873592 50:0.64288467 51:0.71655416 52:0.29307988 53:0.39312661 54:0.53551322 55:0.40226039 56:0.3314018 57:0.82631946 58:0.55975831 59:0.43194732 60:0.58145845 61:0.21466249 62:0.63551396 63:0.47655216 64:0.53403592 65:0.37170464 66:0.45781094 67:0.40106389 68:0.36793092 69:0.47474259 70:0.57575005 71:0.80620652 72:0.44839942 73:0.65681529 74:0.50368947 75:0.60342509 76:0.53331828 77:0.41106111 78:0.30325368 79:0.44779572 80:0.40736502 81:0.6305204 82:0.69147307 83:0.60867822 84:0.82216787 85:0.67376745 86:0.79232413 87:0.68377101 88:0.67942119 89:0.25637901 90:0.34678236 91:0.47075415 92:0.55380267 93:0.71375722 94:0.49723843 95:0.46982273 96:0.48917115 97:0.61022842 98:0.57864404 99:0.66099012 100:0.63338578 101:0.81597406 
0 0.8655459841486493 0 0 0 0 0 0 0.2047219221687606 1:0.49094287 2:0.64569223 3:0.46636409 4:0.4056417 5:0.4869543 6:0.48323298 7:0.54558885 8:0.58858478 9:0.6306597 10:0.45668501 11:0.54590255 12:0.20515987 13:0.2689853 14:0.60206014 15:0.33572787 16:0.54654825 17:0.49668816 18:0.71691602 19:0.59643352 20:0.33722866 21:0.30647275 22:0.39456567 23:0.50480103 24:0.39359665 25:0.47013679 26:0.4718976 27:0.46933788 28:0.50913227 29:0.96466208 30:0.50296438 31:0.43091586 32:0.48207644 33:0.81127989 34:0.47933143 35:0.71704501 36:0.50927222 37:0.41574186 38:0.48804259 39:0.51127148 40:0.53576875 41:0.60680622 42:0.56592941 43:0.62012804 44:0.22330223 45:0.54420161 46:0.53804207 47:0.43164897 48:0.65918314 49:0.44162941 50:0.28982812 51:0.52220577 52:0.44397411 53:0.36725166 54:0.45873794 55:0.10990658 56:0.41746119 57:0.59029496 58:0.68926501 59:0.30698255 60:0.40611216 61:0.41866922 62:0.4657537 63:0.40175989 64:0.78528804 65:0.5344575 66:0.38424456 67:0.53315574 68:0.17877823 69:0.51348042 70:0.63294107 71:0.46401486 72:0.59294856 73:0.33385071 74:0.52997828 75:0.75777429 76:0.63035244 77:0.35878512 78:0.5101459 79:0.31462097 80:0.338002 81:0.40022528 82:0.33403125 83:0.49101675 84:0.54989898 85:0.62402135 86:0.58281267 87:0.59395921 88:0.69690132 89:0.34969467 90:0.41203761 91:0.47191691 92:0.5065968 93:0.51265854 94:0.30693051 95:0.46942464 96:0.44062197 97:0.5438357 98:0.61405116 99:0.67447793 100:0.63339698 101:0.79268062 
0 3.368713646380066 0 0 0 0 0 0 0 1:0.41609997 2:0.6174469 3:0.32711989 4:0.34620288 5:0.72902209 6:0.35837239 7:0.47715193 8:0.51828098 9:0.44309011 10:0.50954688 11:0.56682438 12:0.48249951 13:0.55740172 14:0.44634223 15:0.49462941 16:0.50921118 17:0.42900285 18:0.35993966 19:0.50516802 20:0.61744112 21:0.55635011 22:0.47635087 23:0.52129626 24:0.46901146 25:0.53054953 26:0.64366084 27:0.46419397 28:0.42186117 29:0.6337046 30:0.66057205 31:0.54998642 32:0.58970022 33:0.30225095 34:0.4424527 35:0.85492224 36:0.70327008 37:0.42165524 38:0.38587952 39:0.31887725 40:0.49149463 41:0.25435561 42:0.58279234 43:0.60218853 44:0.49774104 45:0.48421505 46:0.3954547 47:0.50304413 48:0.61515182 49:0.44586962 50:0.41970357 51:0.47099507 52:0.38656783 53:0.56616014 54:0.55575138 55:0.40886873 56:0.38781086 57:0.59834868 58:0.58612692 59:0.49714807 60:0.4567523 61:0.62346423 62:0.61500853 63:0.52525228 64:0.45034301 65:0.3058756 66:0.54239315 67:0.62623811 68:0.55818397 69:0.55945253 70:0.52271146 71:0.75602484 72:0.41603929 73:0.48043507 74:0.46154642 75:0.45485654 76:0.73632669 77:0.3145704 78:0.3334949 79:0.42130437 80:0.49708971 81:0.3096613 82:0.62155688 83:0.57805252 84:0.45294634 85:0.36120808 86:0.41644585 87:0.7192477 88:0.64558268 89:0.48349363 90:0.55394256 91:0.63038367 92:0.466609 93:0.54427516 94:0.43579194 95:0.64326209 96:0.3314774 97:0.56213331 98:0.60017121 99:0.7071389 100:0.60673469 101:0.90941513 
0 0 0.09542425163955635 0.8604051549668253 0 0 0 0 0 1:0.51638532 2:0.54873294 3:0.39175314 4:0.3827135 5:0.49231169 6:0.14863299 7:0.51923752 8:0.60401255 9:0.50003332 10:0.26218149 11:0.82462549 12:0.46389747 13:0.76966888 14:0.57643795 15:0.54743272 16:0.47076428 17:0.66575128 18:0.51288295 19:0.67069858 20:0.27806732 21:0.48374334 22:0.30121362 23:0.72044683 24:0.52689487 25:0.49332863 26:0.64034772 27:0.46548948 28:0.59527749 29:0.52668279 30:0.33458978 31:0.30982339 32:0.72771388 33:0.45314008 34:0.44933745 35:0.38040572 36:0.56983554 37:0.50704354 38:0.25745538 39:0.32664955 40:0.67579144 41:0.41197219 42:0.53930485 43:0.45474985 44:0.63162744 45:0.68138242 46:0.47632787 47:0.37781978 48:0.40072349 49:0.65665859 50:0.59125984 51:0.25388721 52:0.61745012 53:0.66976899 54:0.65019161 55:0.65256941 56:0.5195514 57:0.3673389 58:0.61749345 59:0.41745937 60:0.67666346 61:0.67766958 62:0.32204124 63:0.64802355 64:0.67020494 65:0.55754155 66:0.61389762 67:0.34029973 68:0.19727251 69:0.54638159 70:0.38466644 71:0.54104114 72:0.48651564 73:0.3030273 74:0.33764344 75:0.52404875 76:0.66385818 77:0.52708304 78:0.46476448 79:0.61800987 80:0.21392168 81:0.31490487 82:0.54074973 83:0.25342432 84:0.32396585 85:0.44359049 86:0.81142426 87:0.62473643 88:0.62852985 89:0.3487705 90:0.28100905 91:0.3869392 92:0.73045343 93:0.52136809 94:0.48908705 95:0.405909 96:0.40451387 97:0.61980218 98:0.66514623 99:0.60338598 100:0.55491781 101:0.7534582 
0 0 0 0 0 0 0 0 0.3318039850360864 1:0.5047372 2:0.42016628 3:0.48256579 4:0.43877131 5:0.68201822 6:0.57299668 7:0.22670062 8:0.52767426 9:0.49888122 10:0.49445784 11:0.62019002 12:0.26125738 13:0.66901338 14:0.64636701 15:0.4994795 16:0.41273862 17:0.52451795 18:0.36621279 19:0.44279811 20:0.42389435 21:0.38377377 22:0.56216311 23:0.55046004 24:0.4422926 25:0.37266901 26:0.66839504 27:0.56600261 28:0.57308012 29:0.73718393 30:0.5566783 31:0.51348543 32:0.43884322 33:0.41470081 34:0.60123211 35:0.52262354 36:0.58143353 37:0.73162842 38:0.47716907 39:0.63504261 40:0.50374895 41:0.37268019 42:0.56227607 43:0.70834064 44:0.59315062 45:0.64834756 46:0.25590071 47:0.31523821 48:0.57230473 49:0.62916285 50:0.58453822 51:0.29985669 52:0.54580271 53:0.34030119 54:0.32823253 55:0.11595621 56:0.47246766 57:0.29890651 58:0.32726806 59:0.19374402 60:0.52025151 61:0.45679209 62:0.51344401 63:0.43544853 64:0.44220319 65:0.32249382 66:0.40222731 67:0.62428057 68:0.35677645 69:0.55116045 70:0.44200838 71:0.71703845 72:0.43704617 73:0.68881971 74:0.36673838 75:0.66090202 76:0.37848553 77:0.45046809 78:0.2637032 79:0.52228099 80:0.50102782 81:0.53379238 82:0.69657338 83:0.61694741 84:0.60806155 85:0.47356927 86:0.53377855 87:0.62873816 88:0.81026512 89:0.29823014 90:0.43551165 91:0.44507122 92:0.51845843 93:0.60201126 94:0.57682794 95:0.62299591 96:0.3881723 97:0.53601813 98:0.66207707 99:0.60786229 100:0.58637178 101:0.82772964 
0 0 0.3463075732773643 0 0 0 0 0 0 1:0.38381344 2:0.52601647 3:0.36056653 4:0.57272929 5:0.56689852 6:0.40769923 7:0.425338 8:0.44509301 9:0.35298583 10:0.50717735 11:0.52969784 12:0.56667346 13:0.69683504 14:0.47885185 15:0.3624272 16:0.47977775 17:0.52805394 18:0.44500276 19:0.62015325 20:0.64526999 21:0.45279264 22:0.46007213 23:0.62675184 24:0.49878576 25:0.49494365 26:0.47011399 27:0.42213175 28:0.50029325 29:0.34706992 30:0.33402792 31:0.43807307 32:0.70632565 33:0.59699851 34:0.59230769 35:0.45623973 36:0.75177616 37:0.30924651 38:0.34467778 39:0.64549392 40:0.51636511 41:0.48959726 42:0.46613109 43:0.64407814 44:0.26820019 45:0.60632974 46:0.57512128 47:0.6496889 48:0.64599818 49:0.61007822 50:0.43117574 51:0.26098686 52:0.47709063 53:0.54788226 54:0.4942531 55:0.56870908 56:0.45341352 57:0.68464124 58:0.53815168 59:0.53328431 60:0.3963775 61:0.58952749 62:0.67558712 63:0.56867617 64:0.64265817 65:0.43607986 66:0.55037433 67:0.62105215 68:0.37673488 69:0.3728452 70:0.41837746 71:0.70551908 72:0.52473539 73:0.50054836 74:0.67743778 75:0.48189768 76:0.65666884 77:0.43828389 78:0.30955124 79:0.45468509 80:0.43292189 81:0.45562387 82:0.51774096 83:0.45153919 84:0.29510662 85:0.33182865 86:0.34885913 87:0.72118241 88:0.62656039 89:0.43238154 90:0.52154171 91:0.54131609 92:0.64907461 93:0.47131515 94:0.54480278 95:0.57533169 96:0.36937907 97:0.5644486 98:0.64429468 99:0.69779015 100:0.57958978 101:0.87279254 
0 0 0 0 0 0 0 0.1043258198016045 0 1:0.36488742 2:0.47843125 3:0.48771754 4:0.64009929 5:0.3202861 6:0.58623666 7:0.60668105 8:0.59982824 9:0.30668664 10:0.37828767 11:0.45046735 12:0.39613688 13:0.64260191 14:0.37249681 15:0.27204999 16:0.57123768 17:0.66815442 18:0.43192551 19:0.58309472 20:0.47060728 21:0.6080606 22:0.29523712 23:0.56488186 24:0.51097131 25:0.67581952 26:0.62981164 27:0.24971357 28:0.59544641 29:0.64305329 30:0.25409436 31:0.57686627 32:0.51513118 33:0.49678579 34:0.46836165 35:0.53033787 36:0.53872967 37:0.75326705 38:0.46008188 39:0.57781261 40:0.64525336 41:0.48290008 42:0.35975876 43:0.44759497 44:0.63587081 45:0.34740999 46:0.58908707 47:0.64206237 48:0.36996463 49:0.59126246 50:0.56942236 51:0.59151518 52:0.55437529 53:0.49565288 54:0.50860703 55:0.69732296 56:0.57012111 57:0.45811763 58:0.62059373 59:0.66776478 60:0.59215301 61:0.42082357 62:0.4328582 63:0.54175246 64:0.61517644 65:0.56868368 66:0.44316775 67:0.58614326 68:0.42561871 69:0.43871188 70:0.5959062 71:0.61916268 72:0.72147137 73:0.36712211 74:0.52789241 75:0.54014695 76:0.74873632 77:0.39755219 78:0.433669 79:0.56847429 80:0.46888202 81:0.48397759 82:0.36808285 83:0.65866601 84:0.32793719 85:0.33845657 86:0.37023228 87:0.61116719 88:0.79992968 89:0.32482815 90:0.14943282 91:0.51276517 92:0.41711649 93:0.55270743 94:0.4301331 95:0.37666741 96:0.27495068 97:0.63391501 98:0.59736794 99:0.22830088 100:0.47729018 101:0.79542345 
0 0.5753839426948053 0 0 0 0 0 0 0 1:0.4685666 2:0.41967115 3:0.27394035 4:0.59184062 5:0.46295524 6:0.52841914 7:0.39642745 8:0.37300709 9:0.32874385 10:0.52980548 11:0.66699684 12:0.49836275 13:0.56805313 14:0.4427065 15:0.2152072 16:0.47580636 17:0.57163626 18:0.70612496 19:0.38212201 20:0.52268165 21:0.51093853 22:0.54683077 23:0.52661067 24:0.48775473 25:0.30720773 26:0.44185269 27:0.58383596 28:0.49602348 29:0.43686512 30:0.32321125 31:0.609469 32:0.37307483 33:0.40467158 34:0.53965551 35:0.6628446 36:0.59489596 37:0.6165635 38:0.2703205 39:0.54448271 40:0.5282746 41:0.45623428 42:0.75799102 43:0.47793096 44:0.71278667 45:0.53813767 46:0.59951168 47:0.85463262 48:0.54302025 49:0.39277774 50:0.51847035 51:0.55670005 52:0.54408675 53:0.44264176 54:0.53357226 55:0.38474026 56:0.30664137 57:0.2287797 58:0.54461551 59:0.61157745 60:0.4534564 61:0.30024275 62:0.52860409 63:0.3646042 64:0.61121756 65:0.15997048 66:0.49220079 67:0.66795987 68:0.53425491 69:0.49791723 70:0.23974453 71:0.49983263 72:0.39937285 73:0.32929891 74:0.37887406 75:0.54159647 76:0.73168325 77:0.49100637 78:0.32076454 79:0.52597135 80:0.33150989 81:0.45217413 82:0.58424067 83:0.46364042 84:0.23145527 85:0.50027812 86:0.71643341 87:0.65176946 88:0.61053878 89:0.53183031 90:0.43818831 91:0.76017714 92:0.4978601 93:0.45204523 94:0.59152818 95:0.35452375 96:0.33963183 97:0.60061145 98:0.59617418 99:0.19116235 100:0.4444983 101:0.81651425 
0.8877998397344878 0 0 0 0 0 0 0 0 1:0.72998881 2:0.55419809 3:0.64845705 4:0.79387069 5:0.48474228 6:0.49149591 7:0.4073939 8:0.36940199 9:0.47392428 10:0.55352253 11:0.69426912 12:0.54399276 13:0.70728534 14:0.48597395 15:0.42660308 16:0.54409295 17:0.68133992 18:0.4287113 19:0.55738771 20:0.44869551 21:0.41844717 22:0.71236563 23:0.46419984 24:0.42851543 25:0.54271781 26:0.62217873 27:0.65869737 28:0.55372447 29:0.69350237 30:0.50322634 31:0.65893757 32:0.42882198 33:0.40960586 34:0.54456562 35:0.6559245 36:0.70399207 37:0.59529507 38:0.38421956 39:0.63562047 40:0.45584959 41:0.2992045 42:0.75473994 43:0.51583558 44:0.60442555 45:0.50042027 46:0.48603642 47:0.47179025 48:0.50163597 49:0.48440799 50:0.57860982 51:0.6311323 52:0.5210892 53:0.59395355 54:0.71572655 55:0.3610833 56:0.60601318 57:0.44459289 58:0.23038365 59:0.387923 60:0.46598607 61:0.34103444 62:0.39787927 63:0.44488695 64:0.50909209 65:0.30806136 66:0.57582116 67:0.45704663 68:0.56651372 69:0.36242321 70:0.46010453 71:0.60387772 72:0.45147103 73:0.40579593 74:0.51074207 75:0.45667467 76:0.5667643 77:0.46592072 78:0.33546811 79:0.46437436 80:0.58048534 81:0.516348 82:0.4935827 83:0.33598787 84:0.44385922 85:0.57134372 86:0.46485597 87:0.73828131 88:0.54852581 89:0.43483138 90:0.3603574 91:0.61396992 92:0.69307011 93:0.41369718 94:0.55494511 95:0.4026818 96:0.44654101 97:0.66026938 98:0.58382326 99:0.2129024 100:0.46787119 101:0.74527568 
0 0 0.2530252187066792 0 0 0 0 0.8353880897950754 0 1:0.56170112 2:0.53936797 3:0.57682103 4:0.82073843 5:0.440449 6:0.42598295 7:0.45272666 8:0.42538676 9:0.67062849 10:0.69987071 11:0.48959291 12:0.59377819 13:0.53886104 14:0.5251025 15:0.5717414 16:0.63951802 17:0.53646117 18:0.5349524 19:0.47729921 20:0.45181665 21:0.35625985 22:0.46339393 23:0.25312641 24:0.46414152 25:0.19571888 26:0.4314329 27:0.57938713 28:0.33239177 29:0.47693011 30:0.47256395 31:0.64089584 32:0.47551218 33:0.62026203 34:0.45226982 35:0.41902378 36:0.69566369 37:0.60074258 38:0.52321494 39:0.72758698 40:0.463539 41:0.4198676 42:0.89413273 43:0.69172388 44:0.30076903 45:0.38535473 46:0.53772175 47:0.39280206 48:0.41154191 49:0.41561061 50:0.60884142 51:0.47718623 52:0.42295358 53:0.57801956 54:0.54858476 55:0.3491897 56:0.61609972 57:0.27238247 58:0.65745044 59:0.55481696 60:0.45853552 61:0.5036158 62:0.38641179 63:0.41288427 64:0.69326079 65:0.3643305 66:0.57173389 67:0.50212461 68:0.60659415 69:0.16076826 70:0.49768388 71:0.83562714 72:0.42417502 73:0.56735331 74:0.51697725 75:0.32951319 76:0.49539727 77:0.37997106 78:0.5146907 79:0.41317809 80:0.61104667 81:0.52400714 82:0.51427954 83:0.4976193 84:0.4924092 85:0.35480964 86:0.44560087 87:0.74521124 88:0.539217 89:0.28020835 90:0.51302963 91:0.63098621 92:0.61466712 93:0.45990127 94:0.56200838 95:0.36457267 96:0.55677682 97:0.68634218 98:0.56282055 99:0.30438858 100:0.46667537 101:0.70500338 
0 0 0 0.4064978769825009 0 0 0.4644084700386182 0 0 1:0.47280887 2:0.44886303 3:0.63064235 4:0.48502105 5:0.39518473 6:0.51184994 7:0.3312304 8:0.34742025 9:0.45671821 10:0.32657346 11:0.57607913 12:0.58964741 13:0.4306199 14:0.47700188 15:0.69415712 16:0.62420994 17:0.27785879 18:0.45506456 19:0.41797087 20:0.44469514 21:0.28430903 22:0.40410435 23:0.45722649 24:0.4351334 25:0.52622902 26:0.4899084 27:0.43857113 28:0.56370479 29:0.38557816 30:0.46930251 31:0.49241018 32:0.46081981 33:0.53371775 34:0.55883062 35:0.79418796 36:0.45464605 37:0.42684108 38:0.36948869 39:0.48472193 40:0.56217229 41:0.19009477 42:0.27503201 43:0.60793263 44:0.40356004 45:0.36143491 46:0.48249048 47:0.40807945 48:0.60817403 49:0.37823117 50:0.31326509 51:0.63591176 52:0.38042739 53:0.55072474 54:0.66228783 55:0.51326454 56:0.55497396 57:0.55688727 58:0.81736863 59:0.47641075 60:0.55084747 61:0.35321957 62:0.44711044 63:0.63720065 64:0.6460672 65:0.41186762 66:0.30017993 67:0.29965067 68:0.1075065 69:0.47136068 70:0.39670303 71:0.59945935 72:0.67293417 73:0.46665472 74:0.58880597 75:0.56754929 76:0.51284665 77:0.54205513 78:0.25899288 79:0.51989973 80:0.37621656 81:0.30695251 82:0.51035529 83:0.12848623 84:0.51261455 85:0.60834247 86:0.58514845 87:0.59819597 88:0.44373396 89:0.26193094 90:0.37256649 91:0.66103864 92:0.27706259 93:0.67607766 94:0.27621284 95:0.51174295 96:0.40518439 97:0.67986792 98:0.62291461 99:0.67170751 100:0.60482794 101:0.71894538 
0 0 0 0 0 0.06940471609736469 0 0 0 1:0.45333487 2:0.66003752 3:0.45435125 4:0.40655985 5:0.57418358 6:0.51752985 7:0.63928419 8:0.51616025 9:0.24026379 10:0.43658569 11:0.71149367 12:0.74024975 13:0.57882065 14:0.42068627 15:0.37218463 16:0.49434292 17:0.39788657 18:0.50873584 19:0.44985706 20:0.70862359 21:0.41382074 22:0.36613393 23:0.40992561 24:0.46038422 25:0.65610158 26:0.63459426 27:0.37187371 28:0.67653823 29:0.33953896 30:0.80452877 31:0.42159519 32:0.71129805 33:0.4267109 34:0.38531417 35:0.70415699 36:0.22404209 37:0.58944911 38:0.42658371 39:0.5423466 40:0.524822 41:0.41732228 42:0.2255697 43:0.48820007 44:0.54717678 45:0.48837695 46:0.53909272 47:0.36687648 48:0.22189771 49:0.38873047 50:0.53466541 51:0.6928612 52:0.36214712 53:0.53983849 54:0.80380005 55:0.53765279 56:0.3024787 57:0.2894848 58:0.26496732 59:0.70378369 60:0.16859652 61:0.43347132 62:0.67946535 63:0.57720226 64:0.33496264 65:0.52624011 66:0.52512205 67:0.64908862 68:0.42340893 69:0.58540076 70:0.62557328 71:0.8196485 72:0.69129586 73:0.81077182 74:0.27827749 75:0.47852892 76:0.55352265 77:0.49767956 78:0.42537865 79:0.55895537 80:0.52962554 81:0.45543703 82:0.41039664 83:0.51765996 84:0.70225674 85:0.43756285 86:0.57612044 87:0.58486032 88:0.69210202 89:0.24032158 90:0.22156794 91:0.33432227 92:0.37802297 93:0.56675231 94:0.24108216 95:0.54299229 96:0.34974897 97:0.50552773 98:0.57001656 99:0.53089708 100:0.62088108 101:0.84259117 
0 1.223303046045786 0 0 0 0 0 0 0 1:0.4399623 2:0.08694984 3:0.48147666 4:0.26455295 5:0.520935 6:0.59271061 7:0.72507429 8:0.60831141 9:0.6068455 10:0.27010876 11:0.67924517 12:0.5782277 13:0.38183793 14:0.31785598 15:0.47756335 16:0.49984264 17:0.50834823 18:0.50546628 19:0.38047051 20:0.40749764 21:0.48555282 22:0.13632524 23:0.49017894 24:0.46364218 25:0.62848759 26:0.34598926 27:0.54880196 28:0.43973765 29:0.52042955 30:0.2815603 31:0.41803116 32:0.7375614 33:0.58083981 34:0.35618812 35:0.63537431 36:0.46014249 37:0.35238037 38:0.54591709 39:0.46770611 40:0.39741001 41:0.47685379 42:0.54755044 43:0.43526161 44:0.42227179 45:0.4876731 46:0.5209229 47:0.51940256 48:0.3970297 49:0.1295931 50:0.50132215 51:0.63506627 52:0.35229307 53:0.592296 54:0.45747605 55:0.34327969 56:0.50509518 57:0.41812977 58:0.8083958 59:0.46251905 60:0.56986076 61:0.59456027 62:0.30748317 63:0.30673394 64:0.63420105 65:0.4913637 66:0.31480873 67:0.6381405 68:0.47890919 69:0.18910936 70:0.51291275 71:0.44767684 72:0.53683901 73:0.41706267 74:0.10108875 75:0.54956675 76:0.56447333 77:0.37289807 78:0.38831532 79:0.63758361 80:0.38179451 81:0.63477051 82:0.5934903 83:0.27505448 84:0.46266112 85:0.64305264 86:0.68183422 87:0.80476391 88:0.72010678 89:0.45682192 90:0.23898593 91:0.52591157 92:0.86579144 93:0.43481529 94:0.54447019 95:0.34835139 96:0.41381776 97:0.63085347 98:0.48755264 99:0.67657506 100:0.47532684 101:0.68365091 
0 0 0 0 0.3254704038423045 0 0.0405632243158461 0.7696406011084086 0.2216930821884674 1:0.43678436 2:0.63141394 3:0.46126375 4:0.70928895 5:0.54688752 6:0.52487659 7:0.54047495 8:0.51950496 9:0.54901606 10:0.51003528 11:0.38318852 12:0.63119191 13:0.65436101 14:0.48508886 15:0.46113318 16:0.40054771 17:0.5475871 18:0.49915475 19:0.45387897 20:0.53209984 21:0.49207327 22:0.65961683 23:0.57097793 24:0.32415682 25:0.49545541 26:0.20015939 27:0.46989369 28:0.35408479 29:0.53472078 30:0.35155344 31:0.52695894 32:0.56047451 33:0.73716688 34:0.36117396 35:0.76934916 36:0.55517274 37:0.46256649 38:0.243379 39:0.57696503 40:0.6397413 41:0.62708056 42:0.30808589 43:0.24582604 44:0.51548409 45:0.7396065 46:0.73782831 47:0.58489555 48:0.55165094 49:0.3614209 50:0.77649647 51:0.44991878 52:0.41330966 53:0.69007891 54:0.53722262 55:0.78406954 56:0.64305073 57:0.34369355 58:0.74915898 59:0.44269681 60:0.3144111 61:0.24028184 62:0.54383641 63:0.75444514 64:0.49421638 65:0.36635807 66:0.45988944 67:0.52045387 68:0.28934231 69:0.66899449 70:0.55285227 71:0.69489688 72:0.56936073 73:0.3871004 74:0.41456088 75:0.68887848 76:0.59912282 77:0.4101043 78:0.30823249 79:0.57622343 80:0.29528499 81:0.53411585 82:0.51471573 83:0.22091335 84:0.33980036 85:0.26386437 86:0.65275228 87:0.77424031 88:0.67328721 89:0.2469296 90:0.28912225 91:0.40426508 92:0.68839312 93:0.44570264 94:0.31177649 95:0.29348484 96:0.27378052 97:0.62664646 98:0.54167247 99:0.59511298 100:0.43291566 101:0.70820534 
0 0 0 0.2341383489796436 0.6497018946977838 0 0 0 0 1:0.68531543 2:0.50668949 3:0.31673801 4:0.52250159 5:0.54203063 6:0.42785284 7:0.34596083 8:0.47198948 9:0.45298916 10:0.21577661 11:0.41436309 12:0.42058852 13:0.4239915 14:0.50358331 15:0.70260596 16:0.21183272 17:0.79422295 18:0.31383452 19:0.37685376 20:0.49683052 21:0.60110533 22:0.46365577 23:0.31082854 24:0.44216973 25:0.47344437 26:0.64937758 27:0.39288619 28:0.61513209 29:0.56220359 30:0.40997881 31:0.6447646 32:0.26955226 33:0.58369619 34:0.27622026 35:0.017735867 36:0.52881938 37:0.50648302 38:0.25768325 39:0.57343143 40:0.56973732 41:0.42071012 42:0.58380258 43:0.52903181 44:0.74252242 45:0.72201163 46:0.67063528 47:0.55154192 48:0.47590002 49:0.64692771 50:0.28851473 51:0.69524306 52:0.49694419 53:0.55228943 54:0.22179519 55:0.015819311 56:0.50220221 57:0.28059712 58:0.77228904 59:0.50373894 60:0.54025269 61:0.35643497 62:0.40586281 63:0.5507375 64:0.54803562 65:0.33780634 66:0.53902006 67:0.59452027 68:0.54341233 69:0.44249907 70:0.45360461 71:0.72706097 72:0.63205636 73:0.39372644 74:0.24473594 75:0.46784842 76:0.42004392 77:0.45831949 78:0.40220594 79:0.4892647 80:0.46144888 81:0.35781446 82:0.36268675 83:0.23820293 84:0.42982262 85:0.54029357 86:0.71314138 87:0.5824753 88:0.56931478 89:0.34609061 90:0.42109367 91:0.74046284 92:0.18360704 93:0.69118291 94:0.30359313 95:0.50269496 96:0.32192081 97:0.65781385 98:0.60216826 99:0.65017819 100:0.63647068 101:0.83563244 
0 0 0 0.1179691498516118 0 0 0 0 0 1:0.28724882 2:0.50711113 3:0.5207786 4:0.31576881 5:0.64066195 6:0.26811543 7:0.37427947 8:0.17742734 9:0.46492404 10:0.72052109 11:0.46623245 12:0.55571765 13:0.60980517 14:0.28521368 15:0.51107299 16:0.59076005 17:0.51337039 18:0.32368699 19:0.20045592 20:0.51580286 21:0.40736765 22:0.39907601 23:0.45201012 24:0.29714134 25:0.34771952 26:0.76769763 27:0.30409813 28:0.32063606 29:0.46028206 30:0.53217238 31:0.48505101 32:0.53232038 33:0.53252995 34:0.48594075 35:0.34714484 36:0.67952728 37:0.58551937 38:0.45719802 39:0.67243767 40:0.55017316 41:0.26799622 42:0.50164121 43:0.39835992 44:0.53489614 45:0.51949531 46:0.46860072 47:0.49990058 48:0.39344221 49:0.58038628 50:0.62290752 51:0.83202273 52:0.38483196 53:0.74526846 54:0.76869959 55:0.20866348 56:0.34490535 57:0.75996649 58:0.6052711 59:0.30052179 60:0.52166253 61:0.18038678 62:0.35978052 63:0.49624148 64:0.39084452 65:0.43817359 66:0.47386757 67:0.51256984 68:0.3795974 69:0.54023832 70:0.43884602 71:0.68686289 72:0.65983874 73:0.65981561 74:0.29441166 75:0.62882644 76:0.63884604 77:0.36481029 78:0.2259822 79:0.60297048 80:0.43203694 81:0.45216039 82:0.82055873 83:0.59268034 84:0.61450124 85:0.68936926 86:0.70660859 87:0.63937175 88:0.67600286 89:0.31350273 90:0.39451846 91:0.45650628 92:0.39107579 93:0.69094849 94:0.29314855 95:0.59541911 96:0.40522557 97:0.56152552 98:0.5948779 99:0.52733511 100:0.66832817 101:0.74976248 
0 0 0 0 0 0 0.06820708671549953 0 0 1:0.3783983 2:0.50336587 3:0.38877624 4:0.53345537 5:0.38219646 6:0.26209497 7:0.515692 8:0.70847052 9:0.50134444 10:0.44203886 11:0.45292777 12:0.36242488 13:0.65076089 14:0.5315147 15:0.69890255 16:0.3815496 17:0.35740048 18:0.51250041 19:0.61895269 20:0.42985877 21:0.44130328 22:0.38699043 23:0.29935426 24:0.61168778 25:0.50008166 26:0.7893362 27:0.56968582 28:0.57176107 29:0.29088381 30:0.56424534 31:0.38855329 32:0.45662346 33:0.49329594 34:0.54071575 35:0.78334373 36:0.50350815 37:0.36737823 38:0.31578577 39:0.54400599 40:0.45541573 41:0.53340071 42:0.57679051 43:0.4216893 44:0.56732637 45:0.35683548 46:0.40331179 47:0.41169351 48:0.73413163 49:0.34729394 50:0.60891783 51:0.58861089 52:0.33870697 53:0.61822098 54:0.65345573 55:0.66249859 56:0.39618149 57:0.46134424 58:0.62435877 59:0.31566429 60:0.61706281 61:0.52211666 62:0.76235437 63:0.69688976 64:0.44314516 65:0.44900557 66:0.39422059 67:0.4463802 68:0.14976832 69:0.47754151 70:0.58198905 71:0.59160441 72:0.59190351 73:0.43128341 74:0.34691244 75:0.47648934 76:0.47107151 77:0.4184567 78:0.2731027 79:0.64187109 80:0.48717824 81:0.51898521 82:0.40332106 83:0.14368252 84:0.37333164 85:0.28471389 86:0.73206621 87:0.65679467 88:0.35094935 89:0.35447344 90:0.58965099 91:0.43408367 92:0.48652938 93:0.4603276 94:0.31351936 95:0.45639399 96:0.24837188 97:0.56325036 98:0.68161196 99:0.59784669 100:0.54996103 101:0.7715078 
0 0 0 0 0 0 0 0.1122762549923736 0.2422821696680263 1:0.37949365 2:0.49060252 3:0.42642134 4:0.58218598 5:0.48650497 6:0.42166153 7:0.50672632 8:0.24078934 9:0.53371549 10:0.25410765 11:0.72805709 12:0.65477335 13:0.39954603 14:0.5406146 15:0.31127352 16:0.36680871 17:0.38234234 18:0.66111207 19:0.44568846 20:0.59782618 21:0.46434009 22:0.13807987 23:0.46796563 24:0.39937115 25:0.81281632 26:0.7665925 27:0.34799767 28:0.69667864 29:0.65739375 30:0.3749491 31:0.7603994 32:0.55245727 33:0.43534228 34:0.5078451 35:0.71020526 36:0.54131609 37:0.59376127 38:0.42114526 39:0.60381401 40:0.70524108 41:0.32695323 42:0.59252715 43:0.4650403 44:0.32128054 45:0.44640648 46:0.55338091 47:0.10596921 48:0.54602134 49:0.48840064 50:0.65273148 51:0.32913816 52:0.35118243 53:0.49164161 54:0.74284613 55:0.47938967 56:0.77519864 57:0.53201634 58:0.75660932 59:0.62699276 60:0.72238922 61:0.51342678 62:0.66656572 63:0.44907585 64:0.50086796 65:0.5544247 66:0.468337 67:0.35690969 68:0.6305548 69:0.51566702 70:0.50278413 71:0.31806386 72:0.40060285 73:0.6246019 74:0.3189579 75:0.34193975 76:0.50106514 77:0.25649676 78:0.31702396 79:0.48934874 80:0.57048005 81:0.47432792 82:0.4186227 83:0.28047368 84:0.59702635 85:0.56245631 86:0.63809603 87:0.64043623 88:0.62475294 89:0.15389463 90:0.52839446 91:0.35692948 92:0.29719985 93:0.74268484 94:0.32899556 95:0.49778849 96:0.35472691 97:0.51672065 98:0.69356191 99:0.57998151 100:0.63357705 101:0.73672771 
0 0 0 0.9510173850118191 2.233072474967673 2.906033904615413 0 1.343769014249854 2.419086681964598 1:0.55738795 2:0.40382171 3:0.45048329 4:0.57259595 5:0.58770591 6:0.52299416 7:0.43546134 8:0.12481523 9:0.33448476 10:0.37330899 11:0.50544441 12:0.51583946 13:0.36971924 14:0.33176988 15:0.69935501 16:0.81407106 17:0.7196793 18:0.43142071 19:0.28280792 20:0.55327344 21:0.63916063 22:0.22678334 23:0.49839616 24:0.68065017 25:0.58847433 26:0.51801634 27:0.56345838 28:0.66632199 29:0.6253069 30:0.52918679 31:0.22266583 32:0.65670729 33:0.48240328 34:0.37067869 35:0.41121966 36:0.85008889 37:0.48993668 38:0.2646085 39:0.52476895 40:0.41882104 41:0.48096693 42:0.33017856 43:0.62960213 44:0.55702746 45:0.44214159 46:0.29378355 47:0.37258697 48:0.53838319 49:0.35814741 50:0.5625996 51:0.80191582 52:0.50059229 53:0.55293626 54:0.53288251 55:0.56096607 56:0.68612599 57:0.3794376 58:0.46548381 59:0.40576571 60:0.3948665 61:0.26269621 62:0.50920862 63:0.42012835 64:0.41404733 65:0.42929575 66:0.39692941 67:0.26945806 68:0.66637653 69:0.35922211 70:0.56467986 71:0.61866862 72:0.31648058 73:0.59724945 74:0.43233222 75:0.4743782 76:0.53885502 77:0.38852274 78:0.57040733 79:0.50993454 80:0.40781394 81:0.49084607 82:0.75183088 83:0.49127382 84:0.58992928 85:0.2662549 86:0.23861602 87:0.71397954 88:0.69963324 89:0.21207802 90:0.59934074 91:0.70623887 92:0.4879024 93:0.54202473 94:0.47625658 95:0.26625043 96:0.68620527 97:0.81825989 98:0.34704289 99:0.40241426 100:0.30098394 101:0.54326224 
0.8026093432518873 0 0 0 0 0 0 0 0 1:0.57352537 2:0.44200668 3:0.50438696 4:0.51398796 5:0.56562537 6:0.40819988 7:0.339369 8:0.4553293 9:0.33855417 10:0.42807502 11:0.67786002 12:0.2320141 13:0.68536216 14:0.52965105 15:0.52636129 16:0.69470394 17:0.54389578 18:0.44912457 19:0.34436101 20:0.51420617 21:0.37503716 22:0.30919784 23:0.66265535 24:0.47225976 25:0.59535784 26:0.495534 27:0.30609262 28:0.73439962 29:0.62270457 30:0.60393709 31:0.49296117 32:0.47931403 33:0.60040259 34:0.54459393 35:0.42519313 36:0.59267145 37:0.58777326 38:0.13573335 39:0.71084702 40:0.56333715 41:0.52474332 42:0.5078032 43:0.50228363 44:0.53332531 45:0.44651634 46:0.31627259 47:0.68711221 48:0.59558231 49:0.45637032 50:0.42918733 51:0.72824675 52:0.31420884 53:0.49308926 54:0.60476625 55:0.56303471 56:0.6217317 57:0.48852292 58:0.6428504 59:0.44573653 60:0.5287568 61:0.51123673 62:0.67198938 63:0.61510235 64:0.45284685 65:0.31797343 66:0.25500521 67:0.57828385 68:0.51283473 69:0.50685245 70:0.47006819 71:0.54557019 72:0.59563357 73:0.64432877 74:0.45317891 75:0.26443163 76:0.58513981 77:0.529773 78:0.56543243 79:0.45922703 80:0.54821724 81:0.51892138 82:0.33914384 83:0.27228823 84:0.38512605 85:0.42786837 86:0.43000656 87:0.66921985 88:0.58869505 89:0.414139 90:0.50553012 91:0.35537618 92:0.42895281 93:0.4456805 94:0.31111941 95:0.49689794 96:0.27460125 97:0.55790067 98:0.61190486 99:0.1896387 100:0.462816 101:0.7030552 
