svm_type c_svc
kernel_type rbf
gamma 0.09
nr_class 11
total_sv 268
rho -0.108624 0.00842908 -0.0217082 -0.014695 -0.10932 0.00359414 -0.0506518 0.0206418 0.0234124 -0.0970515 -0.0281943 0.0522824 -0.0424132 -0.0220401 0.00717772 -0.0880747 0.0427845 0.0418549 0.013814 0.0318625 0.0305209 0.0626351 0.0231249 -0.00426634 -0.00482204 0.0363684 0.0994534 -0.0861432 0.0652041 0.00507887 -0.000306069 -0.0197808 0.00394746 0.105296 0.055676 -0.00162016 0.0605788 0.0201231 0.0176249 0.125708 -0.0606224 -0.0279551 -0.00626671 -0.0191595 0.0130386 -0.028715 0.0304267 0.0340585 -0.0428128 0.00309984 0.0598836 0.320157 -0.00839984 0.0986858 -0.0112911
label 0 1 10 2 3 4 5 6 7 8 9
probA -4.51886 -4.67055 -4.51816 -4.61308 -4.53841 -4.21574 -4.61567 -4.53397 -4.54196 -4.53537 -4.82684 -4.45961 -4.67346 -4.67562 -4.56275 -4.26485 -4.55381 -4.59551 -4.21894 -4.705 -4.5644 -4.67198 -4.57922 -4.85681 -4.71797 -4.79083 -4.7927 -4.00033 -4.6439 -4.64715 -4.60208 -4.41173 -4.70412 -4.60098 -4.7034 -4.69054 -4.73121 -4.55262 -4.79979 -4.74187 -4.42393 -4.65628 -4.76798 -4.78705 -4.55449 -4.74919 -4.72215 -4.61139 -4.58929 -4.75333 -4.7622 -4.12019 -4.77498 -4.65181 -4.69276
probB 0.0112124 -0.0762736 0.0456013 -0.0707281 -0.0428719 -0.307875 0.0408771 -0.0739993 -0.0794996 0.0248785 -0.0544269 0.0706074 -0.012215 -0.00327597 -0.177685 -0.0471352 -0.0776424 -0.0890182 -0.207912 0.0751148 0.0846112 0.00949723 0.0450903 0.134075 0.0434356 0.1237 0.0974778 -0.168839 0.0948175 -0.0348677 -0.0131336 -0.104128 -0.0309707 -0.00246151 0.0653796 0.0324965 0.0973185 -0.125118 -0.0372275 0.0648254 -0.097956 -0.0413 -0.0310319 0.00934016 0.0119633 0.0226929 -0.0850311 0.169386 0.124011 -0.14325 0.000696334 0.0591336 -0.00407576 0.0879582 0.0588411
nr_sv 23 32 15 33 22 16 13 30 21 22 41
SV
0 0.6647911819578158 0 0 0.6199013928046733 0 0 0 0 0 1:0.875 2:0.46315789 3:0.10869565 4:0.85393256 5:0.47474748 6:0.067415729 7:0.36842105 8:0.25 9:0.10204082 10:0.48235294 11:0.32584271 12:0.14942528 13:0.39080459 14:0.30882353 15:0.12307692 16:0.14666666 17:0.13846155 18:0.13725491 19:0.44578314 20:0.94680852 21:0.86666667 22:0.27142859 23:0.57303369 24:0.72727275 25:0.2037037 26:0.15116279 27:0.086956523 28:0.16470589 29:0.36082473 30:0.48051947 31:0.11111111 32:0.24038461 33:0.5 34:0.24324325 35:0.14516129 36:0.2278481 37:0.2 38:0.17741935 39:0.30526316 40:0.090909094 41:0.31868133 42:0.78260869 43:0.11956522 44:0.47916666 45:0.93258429 46:0.1147541 47:0.084337346 48:0.15492958 49:0.1724138 50:0.14444445 51:0.44086021 52:0.15189873 53:0.38043478 54:0.65476191 55:0.15189873 56:0.12345679 57:0.20454545 58:0.52747256 59:0.48958334 60:0.15068494 61:0.8125 62:0.95918369 63:0.55421686 64:0.36764705 65:0.26923078 66:0.24242425 67:0.43877551 68:0.3125 69:0.14473684 70:0.50537634 71:0.45833334 72:0.19354838 
0 0 0.4026691576413731 0.4932522436215366 0 0 0.1296907381327965 0 0 0 1:0.38749999 2:0.32631579 3:0.043478262 4:0.41573033 5:0.45454547 6:0.067415729 7:0.21052632 8:0.2647059 9:0 10:0.45882353 11:0.38202247 12:0.14942528 13:0.44827586 14:0.63235295 15:0.24615385 16:0.053333335 17:0.061538462 18:0 19:0.48192772 20:0.65957445 21:0.65555555 22:0.5 23:0.6179775 24:0.69318181 25:0.074074075 26:0.11627907 27:0.19565217 28:0.05882353 29:0.39175257 30:0.54545456 31:0.013888889 32:0.41346154 33:0.68085104 34:0 35:0.22580644 36:0.34177214 37:0.125 38:0.25806451 39:0.15789473 40:0 41:0.20879121 42:0.34782609 43:0 44:0.3125 45:0.5955056 46:0 47:0 48:0 49:0 50:0.24444444 51:0.41935483 52:0 53:0.52173913 54:0.72619045 55:0 56:0 57:0 58:0.46153846 59:0.4375 60:0.30136988 61:0.70833331 62:0.73469388 63:0.51807231 64:0 65:0 66:0 67:0.39795917 68:0.42708334 69:0.10526316 70:0.55913979 71:0.53125 72:0.11827957 
0 0 0 0 0 0 0 0 0.3790679813267609 0 1:0.64999998 2:0.41052631 3:0.086956523 4:0.74157304 5:0.56565654 6:0.056179777 7:0.37894738 8:0.36764705 9:0.081632651 10:0.3764706 11:0.33707866 12:0.14942528 13:0.29885057 14:0.39705881 15:0.12307692 16:0.16 17:0.13846155 18:0.078431375 19:0.44578314 20:0.74468082 21:0.55555558 22:0.44285715 23:0.74157304 24:0.70454544 25:0.25925925 26:0.11627907 27:0.11956522 28:0.14117648 29:0.46391752 30:0.54545456 31:0.11111111 32:0.39423078 33:0.68085104 34:0.1891892 35:0.16129032 36:0.25316456 37:0 38:0.24193548 39:0.18947369 40:0.025974026 41:0.26373628 42:0.63043481 43:0.076086953 44:0.33333334 45:0.80898875 46:0.016393442 47:0.072289154 48:0.12676056 49:0.05172414 50:0.11111111 51:0.30107528 52:0.12658228 53:0.33695653 54:0.66666669 55:0.10126583 56:0.074074075 57:0.20454545 58:0.36263737 59:0.47916666 60:0.30136988 61:0.63541669 62:0.8877551 63:0.60240966 64:0.19117647 65:0.17307693 66:0.24242425 67:0.3877551 68:0.375 69:0.13157895 70:0.55913979 71:0.53125 72:0.17204301 
0 0 0 0 0 0 0.43648747676484 0 0 0 1:0.96249998 2:0.46315789 3:0.097826086 4:0.73033708 5:0.37373737 6:0.13483146 7:0.28421053 8:0.20588236 9:0.1632653 10:0.49411765 11:0.16853933 12:0.16091955 13:0.45977011 14:0.20588236 15:0.18461539 16:0.16 17:0.18461539 18:0.11764706 19:0.53012049 20:0.97872341 21:1 22:0.37142858 23:0.49438202 24:0.67045456 25:0.24074075 26:0.15116279 27:0.086956523 28:0.24705882 29:0.42268041 30:0.42857143 31:0.15277778 32:0.1923077 33:0.44680852 34:0.21621622 35:0.16129032 36:0.1392405 37:0.125 38:0.14516129 39:0.24210526 40:0.12987013 41:0.17582418 42:0.65217394 43:0.097826086 44:0.39583334 45:0.98876405 46:0.1147541 47:0.10843374 48:0.11267605 49:0.20689656 50:0.11111111 51:0.38709676 52:0.1392405 53:0.23913044 54:0.5714286 55:0.16455697 56:0.13580246 57:0.25 58:0.59340662 59:0.46875 60:0.19178082 61:0.95833331 62:0.98979592 63:0.6506024 64:0.45588234 65:0.28846154 66:0.33333334 67:0.35714287 68:0.22916667 69:0.21052632 70:0.41935483 71:0.41666666 72:0.27956989 
0 0 0 0 0 2.07548823652813 0 0 0 0 1:0.77499998 2:0.40000001 3:0.10869565 4:0.77528089 5:0.42424244 6:0.089887641 7:0.34736842 8:0.23529412 9:0.12244898 10:0.52941179 11:0.48314607 12:0.11494253 13:0.34482759 14:0.42647058 15:0.12307692 16:0.17333333 17:0.12307692 18:0.098039217 19:0.3493976 20:0.80851066 21:0.76666665 22:0.31428573 23:0.57303369 24:0.625 25:0.27777779 26:0.069767445 27:0.054347824 28:0.14117648 29:0.38144329 30:0.59740257 31:0.11111111 32:0.30769232 33:0.63829786 34:0.21621622 35:0.11290322 36:0.16455697 37:0.175 38:0.17741935 39:0.25263157 40:0.038961038 41:0.2857143 42:0.70652175 43:0.032608695 44:0.375 45:0.86516851 46:0.098360658 47:0.060240965 48:0.098591551 49:0.086206898 50:0.16666667 51:0.37634408 52:0.1392405 53:0.44565219 54:0.71428573 55:0.10126583 56:0.074074075 57:0.22727273 58:0.43956044 59:0.51041669 60:0.26027396 61:0.70833331 62:0.8877551 63:0.48192772 64:0.17647059 65:0.096153848 66:0.39393941 67:0.5 68:0.34375 69:0.15789473 70:0.56989247 71:0.52083331 72:0.24731183 
0.453992076810988 0 0 0 0 0 0 0 0 0 1:0.76249999 2:0.49473685 3:0.076086953 4:0.64044946 5:0.50505048 6:0 7:0.21052632 8:0.17647059 9:0 10:0.47058824 11:0.44943821 12:0.080459774 13:0.41379312 14:0.41176471 15:0 16:0.13333334 17:0.061538462 18:0 19:0.30120483 20:0.76595747 21:0.76666665 22:0.34285715 23:0.57303369 24:0.63636363 25:0.12962963 26:0.034883723 27:0.054347824 28:0.094117649 29:0.43298969 30:0.59740257 31:0.055555556 32:0.33653846 33:0.64893615 34:0.10810811 35:0.12903225 36:0.2278481 37:0 38:0.048387095 39:0.052631579 40:0 41:0.25274727 42:0.55434781 43:0.065217391 44:0.35416666 45:0.84269661 46:0 47:0 48:0 49:0 50:0.14444445 51:0.27956989 52:0.037974682 53:0.33695653 54:0.5714286 55:0.10126583 56:0 57:0 58:0.49450549 59:0.51041669 60:0.19178082 61:0.71875 62:0.84693879 63:0.44578314 64:0.17647059 65:0 66:0 67:0.5 68:0.40625 69:0.11842106 70:0.56989247 71:0.5625 72:0.22580644 
0 0 0 0 0 0 0 0.1234458570180456 0 0 1:0.63749999 2:0.41052631 3:0.11956522 4:0.73033708 5:0.57575756 6:0.056179777 7:0.36842105 8:0.36764705 9:0.06122449 10:0.3882353 11:0.34831461 12:0.13793103 13:0.31034482 14:0.39705881 15:0.092307694 16:0.12 17:0.07692308 18:0.039215688 19:0.44578314 20:0.73404253 21:0.56666666 22:0.47142857 23:0.74157304 24:0.71590906 25:0.27777779 26:0.11627907 27:0.11956522 28:0.15294118 29:0.46391752 30:0.54545456 31:0.125 32:0.39423078 33:0.67021275 34:0.21621622 35:0.16129032 36:0.2658228 37:0.15000001 38:0.24193548 39:0.2 40:0 41:0.26373628 42:0.61956519 43:0.043478262 44:0.33333334 45:0.7977528 46:0 47:0.096385539 48:0.18309858 49:0 50:0.077777781 51:0.27956989 52:0.11392405 53:0.32608697 54:0.65476191 55:0.16455697 56:0.098765433 57:0.25 58:0.37362638 59:0.46875 60:0.30136988 61:0.63541669 62:0.86734694 63:0.61445785 64:0.22058824 65:0.15384616 66:0.27272728 67:0.39795917 68:0.38541666 69:0.11842106 70:0.56989247 71:0.54166669 72:0.15053764 
1.971427134418124 0.1709325973776494 1.110277436529741 0.8685623002784654 0.6178750802578681 0.7099960847996868 0.7688732183750365 0.7406350872883392 0.2193780137891017 1.507841550186336 1:0.92500001 2:0.43157893 3:0.11956522 4:0.66292137 5:0.36363637 6:0.12359551 7:0.25263157 8:0.20588236 9:0.1632653 10:0.52941179 11:0.21348314 12:0.13793103 13:0.51724136 14:0.2647059 15:0.16923077 16:0.18666667 17:0.2 18:0.11764706 19:0.45783132 20:0.95744681 21:1 22:0.38571429 23:0.49438202 24:0.68181819 25:0.24074075 26:0.12790698 27:0.065217391 28:0.25882354 29:0.41237113 30:0.42857143 31:0.125 32:0.15384616 33:0.40425533 34:0.1891892 35:0.12903225 36:0.15189873 37:0.22499999 38:0.17741935 39:0.22105263 40:0.15584415 41:0.1978022 42:0.59782606 43:0.097826086 44:0.39583334 45:0.95505619 46:0.081967212 47:0.12048193 48:0.15492958 49:0.15517241 50:0.1 51:0.41935483 52:0.12658228 53:0.23913044 54:0.59523809 55:0.15189873 56:0.18518518 57:0.25 58:0.61538464 59:0.46875 60:0.1780822 61:0.94791669 62:0.97959185 63:0.62650603 64:0.5 65:0.38461539 66:0.33333334 67:0.32653061 68:0.25 69:0.15789473 70:0.41935483 71:0.4375 72:0.25806451 
1.997232206886521 0 0 0 0 0 1.149199377050781 0 0 0 1:0.63749999 2:0.40000001 3:0.076086953 4:0.70786518 5:0.54545456 6:0.033707865 7:0.36842105 8:0.35294119 9:0.06122449 10:0.36470589 11:0.32584271 12:0.1724138 13:0.29885057 14:0.39705881 15:0.092307694 16:0.13333334 17:0.10769231 18:0.039215688 19:0.45783132 20:0.74468082 21:0.56666666 22:0.45714286 23:0.74157304 24:0.71590906 25:0.27777779 26:0.12790698 27:0.13043478 28:0.14117648 29:0.46391752 30:0.53246754 31:0.11111111 32:0.40384614 33:0.68085104 34:0.13513513 35:0.17741935 36:0.29113925 37:0.050000001 38:0.24193548 39:0.17894737 40:0.025974026 41:0.26373628 42:0.61956519 43:0.010869565 44:0.32291666 45:0.7977528 46:0 47:0.048192769 48:0.12676056 49:0.034482758 50:0.11111111 51:0.30107528 52:0.11392405 53:0.35869566 54:0.6785714 55:0.12658228 56:0.074074075 57:0.29545453 58:0.36263737 59:0.47916666 60:0.31506848 61:0.63541669 62:0.87755102 63:0.60240966 64:0.30882353 65:0.1923077 66:0.18181819 67:0.44897959 68:0.41666666 69:0.11842106 70:0.56989247 71:0.54166669 72:0.16129032 
0 0 0 0 0 0 0 0 0.8126156606890841 1.010603379763455 1:0.8125 2:0.51578945 3:0.086956523 4:0.80898875 5:0.50505048 6:0.089887641 7:0.34736842 8:0.25 9:0.14285715 10:0.45882353 11:0.38202247 12:0.12643678 13:0.42528737 14:0.39705881 15:0.2 16:0.16 17:0.16923077 18:0.17647059 19:0.39759037 20:0.88297874 21:0.78888887 22:0.25714287 23:0.58426964 24:0.69318181 25:0.18518518 26:0.11627907 27:0.10869565 28:0.15294118 29:0.45360824 30:0.5714286 31:0.125 32:0.30769232 33:0.61702126 34:0.1891892 35:0.20967741 36:0.20253165 37:0.075000003 38:0.12903225 39:0.23157895 40:0.077922076 41:0.24175824 42:0.70652175 43:0.076086953 44:0.40625 45:0.95505619 46:0.065573767 47:0.084337346 48:0.11267605 49:0.1724138 50:0.14444445 51:0.26881722 52:0.16455697 53:0.31521741 54:0.60714287 55:0.12658228 56:0.11111111 57:0.22727273 58:0.45054945 59:0.48958334 60:0.1780822 61:0.69791669 62:0.91836733 63:0.53012049 64:0.13235295 65:0.17307693 66:0.27272728 67:0.52040815 68:0.38541666 69:0.18421052 70:0.60215056 71:0.63541669 72:0.30107528 
0.9309506496946404 0 0 0 0 0 0 0 0 0 1:0.375 2:0.32631579 3:0.032608695 4:0.41573033 5:0.45454547 6:0.056179777 7:0.21052632 8:0.2647059 9:0 10:0.45882353 11:0.34831461 12:0.10344828 13:0.44827586 14:0.61764705 15:0.23076923 16:0.053333335 17:0.046153847 18:0 19:0.49397591 20:0.68085104 21:0.66666669 22:0.5 23:0.62921351 24:0.69318181 25:0.074074075 26:0.11627907 27:0.19565217 28:0.047058824 29:0.38144329 30:0.55844158 31:0.013888889 32:0.41346154 33:0.67021275 34:0 35:0.22580644 36:0.34177214 37:0.1 38:0.25806451 39:0.15789473 40:0 41:0.20879121 42:0.34782609 43:0 44:0.3125 45:0.5955056 46:0 47:0 48:0 49:0 50:0.24444444 51:0.41935483 52:0 53:0.52173913 54:0.73809522 55:0 56:0 57:0 58:0.47252747 59:0.4375 60:0.30136988 61:0.71875 62:0.74489796 63:0.51807231 64:0 65:0 66:0 67:0.39795917 68:0.42708334 69:0.10526316 70:0.54838711 71:0.52083331 72:0.11827957 
0 0 0 0 0 0 0 0 0.1054747001685476 0 1:0.625 2:0.41052631 3:0.10869565 4:0.70786518 5:0.5959596 6:0.056179777 7:0.35789475 8:0.38235295 9:0.06122449 10:0.3882353 11:0.34831461 12:0.068965517 13:0.29885057 14:0.38235295 15:0.061538462 16:0.17333333 17:0.10769231 18:0.039215688 19:0.43373495 20:0.73404253 21:0.58888888 22:0.45714286 23:0.74157304 24:0.69318181 25:0.2962963 26:0.11627907 27:0.11956522 28:0.14117648 29:0.45360824 30:0.53246754 31:0.125 32:0.40384614 33:0.71276593 34:0.13513513 35:0.19354838 36:0.32911393 37:0.125 38:0.20967741 39:0.1368421 40:0.038961038 41:0.25274727 42:0.57608694 43:0.054347824 44:0.32291666 45:0.78651685 46:0.016393442 47:0.036144577 48:0.098591551 49:0.05172414 50:0.088888891 51:0.27956989 52:0.15189873 53:0.32608697 54:0.66666669 55:0.11392405 56:0.037037037 57:0.18181819 58:0.36263737 59:0.46875 60:0.30136988 61:0.625 62:0.86734694 63:0.61445785 64:0.16176471 65:0.13461539 66:0.18181819 67:0.40816328 68:0.38541666 69:0.10526316 70:0.56989247 71:0.54166669 72:0.13978495 
0 0 0 0 0 0 0 0 0 0.04515866228230832 1:0.64999998 2:0.41052631 3:0.076086953 4:0.71910113 5:0.55555558 6:0.078651689 7:0.36842105 8:0.36764705 9:0.12244898 10:0.36470589 11:0.33707866 12:0.14942528 13:0.29885057 14:0.39705881 15:0.10769231 16:0.12 17:0.13846155 18:0.078431375 19:0.44578314 20:0.73404253 21:0.55555558 22:0.44285715 23:0.73033708 24:0.69318181 25:0.25925925 26:0.11627907 27:0.11956522 28:0.14117648 29:0.4742268 30:0.55844158 31:0.125 32:0.41346154 33:0.69148934 34:0.081081077 35:0.16129032 36:0.2658228 37:0.125 38:0.22580644 39:0.17894737 40:0.064935066 41:0.27472529 42:0.61956519 43:0.032608695 44:0.33333334 45:0.80898875 46:0 47:0.072289154 48:0.12676056 49:0.05172414 50:0.1 51:0.29032257 52:0.12658228 53:0.34782609 54:0.66666669 55:0.12658228 56:0.086419754 57:0.29545453 58:0.35164836 59:0.46875 60:0.30136988 61:0.625 62:0.86734694 63:0.60240966 64:0.2647059 65:0.17307693 66:0.15151516 67:0.42857143 68:0.40625 69:0.10526316 70:0.56989247 71:0.55208331 72:0.15053764 
0 0 0 0 1.899415316698436 0 0.730407270574143 0 0 1.896359551257214 1:0.375 2:0.31578946 3:0.043478262 4:0.41573033 5:0.45454547 6:0.056179777 7:0.21052632 8:0.2647059 9:0 10:0.47058824 11:0.39325842 12:0.13793103 13:0.45977011 14:0.63235295 15:0.23076923 16:0.06666667 17:0.061538462 18:0 19:0.48192772 20:0.67021275 21:0.66666669 22:0.5 23:0.62921351 24:0.69318181 25:0.09259259 26:0.11627907 27:0.19565217 28:0.047058824 29:0.38144329 30:0.54545456 31:0.013888889 32:0.40384614 33:0.68085104 34:0 35:0.22580644 36:0.35443038 37:0.125 38:0.25806451 39:0.15789473 40:0 41:0.20879121 42:0.34782609 43:0 44:0.3125 45:0.5955056 46:0 47:0 48:0 49:0 50:0.24444444 51:0.40860215 52:0 53:0.52173913 54:0.73809522 55:0 56:0 57:0 58:0.47252747 59:0.42708334 60:0.30136988 61:0.70833331 62:0.73469388 63:0.51807231 64:0 65:0 66:0 67:0.39795917 68:0.42708334 69:0.10526316 70:0.55913979 71:0.53125 72:0.11827957 
0 1.063726731410895 0 0 0 0 0 0 0 0 1:0.75 2:0.46315789 3:0.11956522 4:0.67415732 5:0.49494949 6:0.033707865 7:0.31578946 8:0.27941176 9:0 10:0.43529412 11:0.34831461 12:0.1724138 13:0.50574714 14:0.52941179 15:0.10769231 16:0.093333334 17:0.046153847 18:0 19:0.3493976 20:0.69148934 21:0.6111111 22:0.34285715 23:0.62921351 24:0.65909094 25:0.074074075 26:0.046511628 27:0.065217391 28:0.11764706 29:0.43298969 30:0.63636363 31:0.041666668 32:0.34615386 33:0.65957445 34:0 35:0.16129032 36:0.27848101 37:0.175 38:0.3548387 39:0.28421053 40:0.012987013 41:0.30769232 42:0.56521738 43:0.097826086 44:0.41666666 45:0.84269661 46:0 47:0.084337346 48:0.16901408 49:0 50:0.18888889 51:0.33333334 52:0.2278481 53:0.53260869 54:0.59523809 55:0.037974682 56:0 57:0 58:0.35164836 59:0.29166666 60:0.06849315 61:0.64583331 62:0.64285713 63:0.25301206 64:0.05882353 65:0 66:0 67:0.47959185 68:0.36458334 69:0 70:0.73118281 71:0.59375 72:0.021505376 
0 0 0 0 0.3365761295169435 0 0 0 0 0 1:0.71249998 2:0.40000001 3:0.13043478 4:0.76404494 5:0.49494949 6:0.044943821 7:0.37894738 8:0.29411766 9:0.040816326 10:0.48235294 11:0.37078652 12:0.12643678 13:0.45977011 14:0.45588234 15:0.07692308 16:0.22666667 17:0.16923077 18:0 19:0.37349397 20:0.74468082 21:0.56666666 22:0.38571429 23:0.68539327 24:0.56818181 25:0.16666667 26:0.1627907 27:0.17391305 28:0.11764706 29:0.42268041 30:0.61038959 31:0.097222224 32:0.46153846 33:0.84042555 34:0 35:0.30645162 36:0.49367088 37:0.1 38:0.22580644 39:0.21052632 40:0.012987013 41:0.20879121 42:0.40217391 43:0 44:0.41666666 45:0.85393256 46:0 47:0.060240965 48:0.070422538 49:0 50:0.16666667 51:0.26881722 52:0 53:0.51086956 54:0.59523809 55:0 56:0 57:0.090909094 58:0.37362638 59:0.36458334 60:0.09589041 61:0.76041669 62:0.74489796 63:0.27710843 64:0 65:0 66:0.27272728 67:0.35714287 68:0.21875 69:0 70:0.68817204 71:0.48958334 72:0.07526882 
0 0 0 0 0 0 0 0.4219539580301766 0 0.1583965089023033 1:0.78750002 2:0.40000001 3:0.22826087 4:0.70786518 5:0.37373737 6:0.13483146 7:0.28421053 8:0.13235295 9:0 10:0.57647061 11:0.43820226 12:0.27586207 13:0.41379312 14:0.41176471 15:0.27692309 16:0.12 17:0.061538462 18:0 19:0.37349397 20:0.71276593 21:0.54444444 22:0.32857144 23:0.52808988 24:0.46590909 25:0.14814815 26:0.058139537 27:0.043478262 28:0.2 29:0.61855668 30:0.72727275 31:0.15277778 32:0.46153846 33:0.68085104 34:0 35:0.16129032 36:0.16455697 37:0.050000001 38:0.19354838 39:0.2 40:0.012987013 41:0.40659341 42:0.63043481 43:0 44:0.47916666 45:0.86516851 46:0 47:0.048192769 48:0.084507041 49:0 50:0.21111111 51:0.34408602 52:0 53:0.34782609 54:0.5714286 55:0.088607594 56:0.024691358 57:0.20454545 58:0.48351648 59:0.42708334 60:0.1369863 61:0.82291669 62:0.87755102 63:0.42168674 64:0.11764706 65:0.03846154 66:0.42424244 67:0.46938777 68:0.26041666 69:0.052631579 70:0.63440859 71:0.41666666 72:0.096774191 
0 0 0 0 0 1.24986418167332 0 0 0 0 1:0.82499999 2:0.40000001 3:0.13043478 4:0.74157304 5:0.4040404 6:0.044943821 7:0.32631579 8:0.20588236 9:0.06122449 10:0.50588238 11:0.33707866 12:0.12643678 13:0.41379312 14:0.4852941 15:0.21538462 16:0.10666667 17:0.15384616 18:0.098039217 19:0.39759037 20:0.76595747 21:0.66666669 22:0.34285715 23:0.5955056 24:0.55681819 25:0.09259259 26:0.11627907 27:0.097826086 28:0.24705882 29:0.54639173 30:0.54545456 31:0.2638889 32:0.47115386 33:0.65957445 34:0.081081077 35:0.17741935 36:0.24050634 37:0.2 38:0.25806451 39:0.15789473 40:0.064935066 41:0.32967034 42:0.63043481 43:0.021739131 44:0.42708334 45:0.86516851 46:0 47:0.048192769 48:0.21126761 49:0.20689656 50:0.23333333 51:0.27956989 52:0.088607594 53:0.53260869 54:0.60714287 55:0 56:0.086419754 57:0.29545453 58:0.41758242 59:0.39583334 60:0.15068494 61:0.75 62:0.77551019 63:0.3253012 64:0 65:0.03846154 66:0.12121212 67:0.46938777 68:0.29166666 69:0.10526316 70:0.69892472 71:0.47916666 72:0.15053764 
0 0 0 0.2179976249921099 0 0 0 0 0 0 1:0.80000001 2:0.42105263 3:0.065217391 4:0.71910113 5:0.42424244 6:0.033707865 7:0.25263157 8:0.16176471 9:0 10:0.48235294 11:0.38202247 12:0.14942528 13:0.34482759 14:0.38235295 15:0.030769231 16:0.053333335 17:0 18:0 19:0.36144578 20:0.73404253 21:0.60000002 22:0.2857143 23:0.58426964 24:0.53409094 25:0.055555556 26:0.069767445 27:0.043478262 28:0.16470589 29:0.57731956 30:0.61038959 31:0.15277778 32:0.49038461 33:0.65957445 34:0 35:0.20967741 36:0.20253165 37:0.025 38:0.080645159 39:0.14736842 40:0.038961038 41:0.45054945 42:0.64130437 43:0.043478262 44:0.53125 45:0.8202247 46:0 47:0.024096385 48:0.12676056 49:0.12068965 50:0.25555557 51:0.33333334 52:0.1392405 53:0.5 54:0.51190478 55:0.088607594 56:0.024691358 57:0.20454545 58:0.36263737 59:0.36458334 60:0.09589041 61:0.71875 62:0.79591835 63:0.31325302 64:0.05882353 65:0.01923077 66:0.060606062 67:0.58163267 68:0.34375 69:0.013157895 70:0.7096774 71:0.41666666 72:0 
0 0.895910662393841 0 0 0.5530405990431194 0 0 0 1.150680793940525 0 1:0.73750001 2:0.49473685 3:0.10869565 4:0.77528089 5:0.54545456 6:0.033707865 7:0.41052631 8:0.32352942 9:0.040816326 10:0.44705883 11:0.34831461 12:0.20689656 13:0.45977011 14:0.35294119 15:0.061538462 16:0.22666667 17:0.13846155 18:0.039215688 19:0.42168674 20:0.69148934 21:0.55555558 22:0.40000001 23:0.66292137 24:0.63636363 25:0.18518518 26:0.13953489 27:0.16304348 28:0.1882353 29:0.62886596 30:0.53246754 31:0.16666667 32:0.56730771 33:0.72340423 34:0.081081077 35:0.29032257 36:0.37974682 37:0.2 38:0.25806451 39:0.14736842 40:0.090909094 41:0.37362638 42:0.5 43:0.043478262 44:0.55208331 45:0.87640452 46:0.049180329 47:0.072289154 48:0.23943663 49:0.10344828 50:0.15555556 51:0.31182796 52:0.088607594 53:0.36956522 54:0.45238096 55:0.10126583 56:0.061728396 57:0.25 58:0.27472529 59:0.25 60:0.08219178 61:0.71875 62:0.73469388 63:0.30120483 64:0.13235295 65:0.057692308 66:0.15151516 67:0.33673468 68:0.21875 69:0.013157895 70:0.72043014 71:0.44791666 72:0 
0 0 0 0 0 0 0 0 0.4707598559675787 0.4922989315221648 1:0.69999999 2:0.47368422 3:0 4:0.66292137 5:0.53535354 6:0 7:0.30526316 8:0.25 9:0 10:0.47058824 11:0.40449437 12:0 13:0.49425286 14:0.44117647 15:0 16:0.23999999 17:0.15384616 18:0 19:0.3493976 20:0.72340423 21:0.62222224 22:0.35714287 23:0.52808988 24:0.5 25:0.18518518 26:0.08139535 27:0.097826086 28:0.14117648 29:0.54639173 30:0.5714286 31:0.1388889 32:0.56730771 33:0.69148934 34:0 35:0.30645162 36:0.34177214 37:0.125 38:0.24193548 39:0.15789473 40:0 41:0.38461539 42:0.57608694 43:0.076086953 44:0.55208331 45:0.84269661 46:0 47:0.036144577 48:0.11267605 49:0.10344828 50:0.14444445 51:0.23655914 52:0.17721519 53:0.41304347 54:0.44047618 55:0.050632913 56:0 57:0.27272728 58:0.41758242 59:0.34375 60:0.09589041 61:0.6875 62:0.70408165 63:0.30120483 64:0.088235296 65:0 66:0.21212122 67:0.45918366 68:0.38541666 69:0.078947365 70:0.65591395 71:0.59375 72:0.10752688 
0 0 0.9644552643488629 0.7303556354942423 0 0 0 0 0 0 1:0.72500002 2:0.47368422 3:0.086956523 4:0.64044946 5:0.4848485 6:0 7:0.25263157 8:0.19117647 9:0 10:0.45882353 11:0.38202247 12:0.19540229 13:0.43678162 14:0.47058824 15:0.12307692 16:0.16 17:0.10769231 18:0 19:0.3493976 20:0.76595747 21:0.67777777 22:0.30000001 23:0.62921351 24:0.65909094 25:0.14814815 26:0.058139537 27:0.076086953 28:0.12941177 29:0.4742268 30:0.51948053 31:0 32:0.40384614 33:0.60638297 34:0.10810811 35:0.14516129 36:0.31645569 37:0.2 38:0.25806451 39:0.21052632 40:0 41:0.36263737 42:0.65217394 43:0.043478262 44:0.4375 45:0.84269661 46:0.13114753 47:0.14457831 48:0.22535211 49:0 50:0.18888889 51:0.30107528 52:0.075949363 53:0.41304347 54:0.53571427 55:0.18987341 56:0.11111111 57:0.22727273 58:0.36263737 59:0.34375 60:0.10958904 61:0.6875 62:0.79591835 63:0.40963855 64:0.16176471 65:0.15384616 66:0.21212122 67:0.56122446 68:0.42708334 69:0 70:0.72043014 71:0.57291669 72:0.086021505 
0.7197028199419859 0 1.287350842458367 0.5414752076701882 0 0 0 1.763596534237462 0 0 1:0.76249999 2:0.43157893 3:0.14130434 4:0.69662923 5:0.43434343 6:0.056179777 7:0.2736842 8:0.16176471 9:0 10:0.48235294 11:0.31460676 12:0.27586207 13:0.36781609 14:0.30882353 15:0.2 16:0.17333333 17:0.061538462 18:0 19:0.39759037 20:0.75531918 21:0.54444444 22:0.38571429 23:0.69662923 24:0.54545456 25:0.16666667 26:0.058139537 27:0.10869565 28:0.23529412 29:0.54639173 30:0.61038959 31:0.20833333 32:0.45192307 33:0.62765956 34:0 35:0.19354838 36:0.35443038 37:0.15000001 38:0.22580644 39:0.18947369 40:0.012987013 41:0.43956044 42:0.63043481 43:0.054347824 44:0.55208331 45:0.80898875 46:0 47:0 48:0.070422538 49:0 50:0.21111111 51:0.36559141 52:0.15189873 53:0.57608694 54:0.5714286 55:0.1392405 56:0 57:0 58:0.41758242 59:0.38541666 60:0.09589041 61:0.75 62:0.73469388 63:0.24096386 64:0.23529412 65:0 66:0 67:0.54081631 68:0.36458334 69:0.065789476 70:0.67741936 71:0.54166669 72:0.13978495 
-0 0 0 0 0 0 0 0 0 1.2031084078418 1:0.75 2:0.32631579 3:0.11956522 4:0.29213482 5:0.17171717 6:0.089887641 7:0.073684208 8:0.22058824 9:0.22448979 10:0.72941178 11:0.35955057 12:0.14942528 13:0.36781609 14:0.20588236 15:0.12307692 16:0.12 17:0.07692308 18:0.098039217 19:0.49397591 20:0.89361703 21:0.5777778 22:0.27142859 23:0.56179774 24:0.59090906 25:0.12962963 26:0.10465116 27:0.13043478 28:0.082352944 29:0.62886596 30:0.63636363 31:0.11111111 32:0.52884614 33:0.85106385 34:0.13513513 35:0.27419356 36:0.46835443 37:0.125 38:0.11290322 39:0.10526316 40:0.15584415 41:0.21978022 42:0.52173913 43:0.086956523 44:0.35416666 45:0.85393256 46:0.13114753 47:0.10843374 48:0.18309858 49:0.18965517 50:0.033333335 51:0.11827957 52:0.075949363 53:0.27173913 54:0.55952382 55:0.69620252 56:0.51851851 57:0.27272728 58:0.93406594 59:0.875 60:0.38356164 61:0.21875 62:0.5 63:0.55421686 64:0.5 65:0.5 66:0.30303031 67:0.35714287 68:0.82291669 69:0.61842108 70:0.19354838 71:0.8125 72:0.67741936 
-0 0 0 0 0 0.04301159898174762 0 0 0 0 1:0.78750002 2:0.34736842 3:0.11956522 4:0.30337077 5:0.17171717 6:0.11235955 7:0.08421053 8:0.088235296 9:0.18367347 10:0.69411767 11:0.33707866 12:0.13793103 13:0.35632184 14:0.19117647 15:0.15384616 16:0.10666667 17:0.092307694 18:0.098039217 19:0.49397591 20:0.89361703 21:0.5777778 22:0.27142859 23:0.56179774 24:0.59090906 25:0.16666667 26:0.10465116 27:0.13043478 28:0.10588235 29:0.63917524 30:0.63636363 31:0.15277778 32:0.52884614 33:0.85106385 34:0.21621622 35:0.24193548 36:0.48101267 37:0.15000001 38:0.096774191 39:0.11578947 40:0.15584415 41:0.21978022 42:0.52173913 43:0.086956523 44:0.35416666 45:0.84269661 46:0.14754099 47:0.10843374 48:0.15492958 49:0.15517241 50:0.011111111 51:0.096774191 52:0.075949363 53:0.27173913 54:0.55952382 55:0.69620252 56:0.53086418 57:0.27272728 58:0.93406594 59:0.875 60:0.39726028 61:0.20833333 62:0.48979592 63:0.56626505 64:0.5147059 65:0.48076922 66:0.33333334 67:0.37755102 68:0.82291669 69:0.60526317 70:0.19354838 71:0.82291669 72:0.67741936 
-0 0 0 0 0 0.5542053131980499 0 0 0 0 1:0.64999998 2:0.44210526 3:0.065217391 4:0.19101124 5:0.26262626 6:0.17977528 7:0.094736844 8:0.54411763 9:0.53061223 10:0.49411765 11:0.37078652 12:0.057471264 13:0.21839081 14:0.14705883 15:0.16923077 16:0.16 17:0.2 18:0.21568628 19:0.51807231 20:0.79787236 21:0.71111113 22:0.31428573 23:0.40449437 24:0.67045456 25:0.27777779 26:0.18604651 27:0.30434781 28:0.023529412 29:0.67010307 30:0.79220778 31:0.11111111 32:0.38461539 33:0.78723407 34:0.32432431 35:0.16129032 36:0.37974682 37:0.025 38:0.16129032 39:0.24210526 40:0.1038961 41:0.10989011 42:0.33695653 43:0.086956523 44:0.083333336 45:0.50561798 46:0.098360658 47:0.060240965 48:0.11267605 49:0.22413793 50:0.077777781 51:0.36559141 52:0.15189873 53:0.18478261 54:0.61904764 55:0.63291138 56:0.60493827 57:0.36363637 58:0.63736266 59:0.83333331 60:0.67123288 61:0.16666667 62:0.39795917 63:0.6506024 64:0.69117647 65:0.96153843 66:0.5151515 67:0.40816328 68:0.88541669 69:0.7368421 70:0.12903225 71:0.57291669 72:0.52688169 
-0 0 0 0 0 0 1.840339979122548 0 0 0 1:0.82499999 2:0.38947368 3:0.13043478 4:0.23595506 5:0.21212122 6:0.25842696 7:0.073684208 8:0.54411763 9:0.97959185 10:0.61176473 11:0.30337077 12:0.21839081 13:0.26436782 14:0.16176471 15:0.18461539 16:0.10666667 17:0.15384616 18:0.098039217 19:0.48192772 20:0.91489363 21:0.63333333 22:0.24285714 23:0.48314607 24:0.61363637 25:0.2037037 26:0.11627907 27:0.23913044 28:0.24705882 29:0.67010307 30:0.76623374 31:0.11111111 32:0.44230768 33:0.90425533 34:0.1891892 35:0.25806451 36:0.56962025 37:0.1 38:0.14516129 39:0.22105263 40:0.090909094 41:0.15384616 42:0.45652175 43:0.065217391 44:0.25 45:0.84269661 46:0.18032786 47:0.10843374 48:0.16901408 49:0.34482759 50:0.1 51:0.22580644 52:0.12658228 53:0.22826087 54:0.5714286 55:0.82278478 56:0.64197528 57:0.27272728 58:0.74725276 59:0.88541669 60:0.50684929 61:0.14583333 62:0.47959185 63:0.61445785 64:0.63235295 65:0.65384614 66:0.39393941 67:0.41836736 68:0.83333331 69:0.68421054 70:0.13978495 71:0.63541669 72:0.65591395 
-0 0 0.2968789389076392 0 0 0 0 0 0 0 1:0.83749998 2:0.38947368 3:0.11956522 4:0.24719101 5:0.21212122 6:0.24719101 7:0.073684208 8:0.54411763 9:1 10:0.61176473 11:0.31460676 12:0.21839081 13:0.26436782 14:0.16176471 15:0.18461539 16:0.12 17:0.15384616 18:0.11764706 19:0.48192772 20:0.90425533 21:0.62222224 22:0.22857143 23:0.48314607 24:0.61363637 25:0.2037037 26:0.11627907 27:0.25 28:0.23529412 29:0.65979379 30:0.76623374 31:0.125 32:0.44230768 33:0.89361703 34:0.1891892 35:0.25806451 36:0.54430377 37:0.125 38:0.16129032 39:0.24210526 40:0.090909094 41:0.16483517 42:0.48913044 43:0.065217391 44:0.25 45:0.84269661 46:0.1147541 47:0.084337346 48:0.16901408 49:0.20689656 50:0.055555556 51:0.21505377 52:0.11392405 53:0.25 54:0.58333331 55:0.82278478 56:0.64197528 57:0.27272728 58:0.75824177 59:0.875 60:0.50684929 61:0.14583333 62:0.46938777 63:0.60240966 64:0.63235295 65:0.67307693 66:0.42424244 67:0.41836736 68:0.84375 69:0.68421054 70:0.13978495 71:0.63541669 72:0.64516127 
-0 0.5364142716146533 0 0 0 0 0 0.4679084631187321 0 0 1:0.73750001 2:0.44210526 3:0.11956522 4:0.20224719 5:0.25252524 6:0.17977528 7:0.12631579 8:0.70588237 9:0.63265306 10:0.56470591 11:0.35955057 12:0.11494253 13:0.21839081 14:0.13235295 15:0.21538462 16:0.16 17:0.2 18:0.23529412 19:0.37349397 20:0.74468082 21:0.62222224 22:0.2 23:0.34831461 24:0.56818181 25:0.2037037 26:0.13953489 27:0.26086956 28:0.21176471 29:0.77319586 30:0.8051948 31:0.1388889 32:0.49038461 33:0.87234044 34:0.27027026 35:0.29032257 36:0.50632912 37:0.1 38:0.19354838 39:0.25263157 40:0.11688311 41:0.21978022 42:0.51086956 43:0.11956522 44:0.32291666 45:0.8202247 46:0.13114753 47:0.072289154 48:0.12676056 49:0.27586207 50:0.088888891 51:0.24731183 52:0.1392405 53:0.30434781 54:0.66666669 55:0.70886075 56:0.54320985 57:0.27272728 58:0.61538464 59:0.76041669 60:0.46575344 61:0.17708333 62:0.43877551 63:0.49397591 64:0.83823532 65:0.98076922 66:0.42424244 67:0.51020408 68:0.94791669 69:0.63157892 70:0.1827957 71:0.70833331 72:0.53763443 
-0 0 0 0 0.4165779218195922 0 0 0 1.443937227197259 0 1:0.69999999 2:0.33684212 3:0.010869565 4:0.23595506 5:0.26262626 6:0.17977528 7:0.12631579 8:0.66176468 9:0.59183675 10:0.60000002 11:0.46067417 12:0.068965517 13:0.32183909 14:0.27941176 15:0.030769231 16:0.21333334 17:0.21538462 18:0.15686275 19:0.43373495 20:0.76595747 21:0.56666666 22:0.2857143 23:0.51685393 24:0.625 25:0.2962963 26:0.18604651 27:0.28260869 28:0.21176471 29:0.68041235 30:0.6883117 31:0.15277778 32:0.53846157 33:0.92553192 34:0.24324325 35:0.32258064 36:0.58227849 37:0.125 38:0.096774191 39:0.073684208 40:0.12987013 41:0.14285715 42:0.36956522 43:0.13043478 44:0.3125 45:0.75280899 46:0.1147541 47:0.036144577 48:0.11267605 49:0.31034482 50:0.077777781 51:0.26881722 52:0.20253165 53:0.28260869 54:0.63095236 55:0.60759491 56:0.49382716 57:0.20454545 58:0.64835167 59:0.73958331 60:0.42465752 61:0.21875 62:0.55102038 63:0.61445785 64:0.7352941 65:0.82692307 66:0.33333334 67:0.56122446 68:0.91666669 69:0.59210527 70:0.20430107 71:0.67708331 72:0.49462366 
-0 0 0 0 0 0.8540205550501285 0 0 0 0 1:0.69999999 2:0.33684212 3:0.021739131 4:0.23595506 5:0.26262626 6:0.17977528 7:0.10526316 8:0.67647058 9:0.59183675 10:0.60000002 11:0.44943821 12:0.068965517 13:0.31034482 14:0.2647059 15:0.030769231 16:0.18666667 17:0.18461539 18:0.17647059 19:0.43373495 20:0.76595747 21:0.56666666 22:0.2857143 23:0.51685393 24:0.625 25:0.31481481 26:0.19767442 27:0.27173913 28:0.21176471 29:0.68041235 30:0.6883117 31:0.16666667 32:0.53846157 33:0.92553192 34:0.2972973 35:0.30645162 36:0.56962025 37:0.075000003 38:0.11290322 39:0.094736844 40:0.15584415 41:0.14285715 42:0.36956522 43:0.10869565 44:0.32291666 45:0.76404494 46:0.081967212 47:0.048192769 48:0.11267605 49:0.25862068 50:0.055555556 51:0.25806451 52:0.17721519 53:0.32608697 54:0.6785714 55:0.62025315 56:0.50617284 57:0.20454545 58:0.65934068 59:0.73958331 60:0.42465752 61:0.22916667 62:0.53061223 63:0.53012049 64:0.7352941 65:0.82692307 66:0.33333334 67:0.54081631 68:0.91666669 69:0.59210527 70:0.20430107 71:0.66666669 72:0.49462366 
-0 0 0 0 0 0 0.4765909707086299 0 0 0 1:0.78750002 2:0.37894738 3:0.097826086 4:0.21348314 5:0.16161616 6:0.21348314 7:0.052631579 8:0.38235295 9:0.91836733 10:0.65882355 11:0.42696628 12:0.13793103 13:0.25287357 14:0.14705883 15:0.12307692 16:0.039999999 17:0.13846155 18:0.15686275 19:0.37349397 20:0.86170214 21:0.75555557 22:0.11428571 23:0.32584271 24:0.625 25:0.074074075 26:0.093023255 27:0.25 28:0.11764706 29:0.58762884 30:0.85714287 31:0.11111111 32:0.34615386 33:0.86170214 34:0.081081077 35:0.14516129 36:0.5316456 37:0.15000001 38:0.12903225 39:0.21052632 40:0.11688311 41:0.032967035 42:0.34782609 43:0.043478262 44:0.041666668 45:0.67415732 46:0.16393442 47:0.15662651 48:0.15492958 49:0.24137931 50:0.06666667 51:0.23655914 52:0.06329114 53:0.10869565 54:0.5714286 55:0.88607597 56:0.7037037 57:0.40909091 58:0.76923078 59:0.9375 60:0.6438356 61:0.09375 62:0.3877551 63:0.67469877 64:0.66176468 65:0.69230771 66:0.45454547 67:0.30612245 68:0.79166669 69:0.82894737 70:0.07526882 71:0.57291669 72:0.76344085 
-0.6271827008570239 0 0 0 0 0 0 0 0.006217722957095346 0 1:0.76249999 2:0.37894738 3:0.097826086 4:0.26966292 5:0.30303031 6:0.20224719 7:0.094736844 8:0.70588237 9:0.6122449 10:0.5411765 11:0.30337077 12:0.14942528 13:0.28735632 14:0.25 15:0.12307692 16:0.21333334 17:0.21538462 18:0.078431375 19:0.49397591 20:0.82978725 21:0.53333336 22:0.30000001 23:0.51685393 24:0.61363637 25:0.25925925 26:0.1627907 27:0.28260869 28:0.2 29:0.70103091 30:0.71428573 31:0.16666667 32:0.54807693 33:0.91489363 34:0.1891892 35:0.29032257 36:0.50632912 37:0.15000001 38:0.17741935 39:0.14736842 40:0.1038961 41:0.15384616 42:0.40217391 43:0.086956523 44:0.34375 45:0.7977528 46:0.13114753 47:0.10843374 48:0.14084508 49:0.29310346 50:0.06666667 51:0.26881722 52:0.16455697 53:0.28260869 54:0.63095236 55:0.6708861 56:0.51851851 57:0.25 58:0.65934068 59:0.72916669 60:0.41095892 61:0.21875 62:0.54081631 63:0.60240966 64:0.66176468 65:0.80769229 66:0.36363637 67:0.54081631 68:0.91666669 69:0.59210527 70:0.19354838 71:0.67708331 72:0.49462366 
-0 0 0.06013962027599006 0 0 0 0 0.4334454368991581 0 0 1:0.75 2:0.36842105 3:0.086956523 4:0.26966292 5:0.29292929 6:0.19101124 7:0.12631579 8:0.70588237 9:0.6122449 10:0.56470591 11:0.29213482 12:0.1724138 13:0.27586207 14:0.23529412 15:0.13846155 16:0.18666667 17:0.2 18:0.05882353 19:0.49397591 20:0.85106385 21:0.54444444 22:0.2857143 23:0.52808988 24:0.625 25:0.24074075 26:0.15116279 27:0.28260869 28:0.2 29:0.68041235 30:0.71428573 31:0.18055555 32:0.53846157 33:0.91489363 34:0.32432431 35:0.32258064 36:0.51898736 37:0.125 38:0.16129032 39:0.14736842 40:0.12987013 41:0.15384616 42:0.41304347 43:0.11956522 44:0.34375 45:0.80898875 46:0.081967212 47:0.10843374 48:0.15492958 49:0.24137931 50:0.06666667 51:0.26881722 52:0.16455697 53:0.28260869 54:0.60714287 55:0.68354428 56:0.51851851 57:0.27272728 58:0.67032969 59:0.73958331 60:0.41095892 61:0.20833333 62:0.54081631 63:0.61445785 64:0.66176468 65:0.80769229 66:0.33333334 67:0.53061223 68:0.91666669 69:0.59210527 70:0.20430107 71:0.67708331 72:0.49462366 
-0 0.3775410876586076 0.04799938499057989 0.7224680127149249 0.2426219643096651 0.001713697684445382 0 0.006181560736481937 0.4052120463298185 0 1:0.36250001 2:0.2736842 3:0.054347824 4:0.067415729 5:0.16161616 6:0.15730338 7:0.12631579 8:0.35294119 9:0.32653061 10:0.63529414 11:0.44943821 12:0.057471264 13:0.25287357 14:0.25 15:0.40000001 16:0.16 17:0.12307692 18:0.3137255 19:0.54216868 20:0.77659577 21:0.77777779 22:0.2857143 23:0.34831461 24:0.61363637 25:0.27777779 26:0.15116279 27:0.18478261 28:0 29:0.54639173 30:0.8051948 31:0.1388889 32:0.31730768 33:0.59574467 34:0.2972973 35:0.12903225 36:0.1392405 37:0 38:0.14516129 39:0.16842106 40:0.1038961 41:0.08791209 42:0.13043478 43:0.11956522 44:0.083333336 45:0 46:0.032786883 47:0.048192769 48:0.14084508 49:0.12068965 50:0.044444446 51:0.19354838 52:0.12658228 53:0.097826086 54:0.29761904 55:0.70886075 56:0.53086418 57:0.36363637 58:0.74725276 59:0.80208331 60:0.75342464 61:0.22916667 62:0.45918366 63:0.84337348 64:0.63235295 65:0.90384614 66:0.39393941 67:0.44897959 68:0.86458331 69:0.63157892 70:0.19354838 71:0.625 72:0.60215056 
-0 0 0 0 0 0 0.471448451173683 0 0 0 1:0.63749999 2:0.43157893 3:0.054347824 4:0.17977528 5:0.25252524 6:0.16853933 7:0.08421053 8:0.54411763 9:0.51020408 10:0.49411765 11:0.35955057 12:0.080459774 13:0.21839081 14:0.13235295 15:0.15384616 16:0.16 17:0.18461539 18:0.21568628 19:0.51807231 20:0.80851066 21:0.71111113 22:0.32857144 23:0.40449437 24:0.67045456 25:0.27777779 26:0.19767442 27:0.30434781 28:0 29:0.67010307 30:0.77922076 31:0.097222224 32:0.38461539 33:0.76595747 34:0.24324325 35:0.16129032 36:0.41772151 37:0.125 38:0.17741935 39:0.2736842 40:0.064935066 41:0.12087912 42:0.38043478 43:0.097826086 44:0.0625 45:0.49438202 46:0.1147541 47:0.072289154 48:0.15492958 49:0.20689656 50:0.077777781 51:0.36559141 52:0.1392405 53:0.18478261 54:0.61904764 55:0.64556962 56:0.60493827 57:0.36363637 58:0.65934068 59:0.84375 60:0.65753424 61:0.1875 62:0.39795917 63:0.6506024 64:0.70588237 65:0.94230771 66:0.5151515 67:0.39795917 68:0.88541669 69:0.7368421 70:0.11827957 71:0.58333331 72:0.52688169 
-0 0 0 0 0 0 0 0 0 1.884854592158299 1:0.78750002 2:0.37894738 3:0.10869565 4:0.21348314 5:0.16161616 6:0.23595506 7:0.052631579 8:0.38235295 9:0.91836733 10:0.67058825 11:0.42696628 12:0.11494253 13:0.25287357 14:0.16176471 15:0.12307692 16:0.06666667 17:0.18461539 18:0.15686275 19:0.37349397 20:0.86170214 21:0.75555557 22:0.12857144 23:0.32584271 24:0.61363637 25:0.074074075 26:0.093023255 27:0.25 28:0.12941177 29:0.59793812 30:0.87012988 31:0.097222224 32:0.34615386 33:0.87234044 34:0.081081077 35:0.14516129 36:0.55696201 37:0.075000003 38:0.096774191 39:0.2 40:0.1038961 41:0.021978023 42:0.32608697 43:0.054347824 44:0.041666668 45:0.66292137 46:0.16393442 47:0.16867469 48:0.14084508 49:0.24137931 50:0.06666667 51:0.22580644 52:0.06329114 53:0.10869565 54:0.5714286 55:0.88607597 56:0.71604937 57:0.38636363 58:0.76923078 59:0.95833331 60:0.65753424 61:0.09375 62:0.40816328 63:0.67469877 64:0.63235295 65:0.67307693 66:0.4848485 67:0.31632653 68:0.78125 69:0.81578946 70:0.07526882 71:0.5625 72:0.76344085 
-0 0 0 0 0 0 0 0 0.03426240271176904 0 1:0.76249999 2:0.37894738 3:0.097826086 4:0.23595506 5:0.18181819 6:0.16853933 7:0.11578947 8:0.33823529 9:0.67346936 10:0.50588238 11:0.32584271 12:0.10344828 13:0.26436782 14:0.23529412 15:0.12307692 16:0.14666666 17:0.15384616 18:0.11764706 19:0.45783132 20:0.85106385 21:0.65555555 22:0.24285714 23:0.43820226 24:0.67045456 25:0.24074075 26:0.1744186 27:0.29347825 28:0.16470589 29:0.62886596 30:0.83116883 31:0.15277778 32:0.40384614 33:0.90425533 34:0.37837839 35:0.24193548 36:0.48101267 37:0 38:0.11290322 39:0.15789473 40:0.15584415 41:0.07692308 42:0.2173913 43:0.15217391 44:0.09375 45:0.60674155 46:0.098360658 47:0.048192769 48:0.11267605 49:0.25862068 50:0.077777781 51:0.31182796 52:0.1392405 53:0.15217391 54:0.54761904 55:0.56962025 56:0.58024693 57:0.36363637 58:0.65934068 59:0.86458331 60:0.57534248 61:0.17708333 62:0.41836736 63:0.54216868 64:0.7647059 65:0.82692307 66:0.4848485 67:0.48979592 68:0.83333331 69:0.86842108 70:0.17204301 71:0.55208331 72:0.77419353 
-3.353842227013992 0 0 0 0 0 0 0 0 0 1:0.66250002 2:0.22105263 3:0 4:0.23595506 5:0.11111111 6:0 7:0.18947369 8:0.14705883 9:0 10:0.5411765 11:0.14606741 12:0.11494253 13:0.25287357 14:0.044117648 15:0.030769231 16:0.17333333 17:0.12307692 18:0.019607844 19:0.75903612 20:0.91489363 21:0.65555555 22:0.40000001 23:0.51685393 24:0.55681819 25:0.2037037 26:0.11627907 27:0.2173913 28:0.17647059 29:0.6082474 30:0.6883117 31:0.125 32:0.50961536 33:0.81914896 34:0 35:0.29032257 36:0.50632912 37:0 38:0.11290322 39:0.16842106 40:0 41:0.17582418 42:0.36956522 43:0 44:0.29166666 45:0.75280899 46:0 47:0.036144577 48:0.11267605 49:0 50:0.1 51:0.23655914 52:0 53:0.17391305 54:0.44047618 55:0.50632912 56:0.27160493 57:0.022727273 58:0.7912088 59:0.63541669 60:0.28767124 61:0.5625 62:0.64285713 63:0.49397591 64:0.58823532 65:0.48076922 66:0 67:0.68367344 68:0.71875 69:0.32894737 70:0.47311828 71:0.79166669 72:0.53763443 
-0 0 1.284851711562107 0 0 0 0 0 0 0 1:0.57499999 2:0.21052632 3:0 4:0.15730338 5:0.1010101 6:0 7:0.23157895 8:0.22058824 9:0.081632651 10:0.62352943 11:0.21348314 12:0.32183909 13:0.24137931 14:0.14705883 15:0.24615385 16:0.2 17:0.12307692 18:0.039215688 19:0.56626505 20:0.85106385 21:0.6111111 22:0.32857144 23:0.48314607 24:0.53409094 25:0.18518518 26:0.11627907 27:0.19565217 28:0.12941177 29:0.69072163 30:0.71428573 31:0.125 32:0.52884614 33:0.82978725 34:0.10810811 35:0.29032257 36:0.56962025 37:0 38:0.14516129 39:0.2 40:0.038961038 41:0.17582418 42:0.42391303 43:0.076086953 44:0.26041666 45:0.71910113 46:0 47:0.024096385 48:0.12676056 49:0.27586207 50:0.077777781 51:0.26881722 52:0.2278481 53:0.30434781 54:0.63095236 55:0.58227849 56:0.34567901 57:0.13636364 58:0.7912088 59:0.6875 60:0.31506848 61:0.44791666 62:0.53061223 63:0.36144578 64:0.67647058 65:0.63461536 66:0.090909094 67:0.62244898 68:0.8125 69:0.42105263 70:0.39784947 71:0.83333331 72:0.47311828 
-1.486007173413505 0.9745765752967278 1.72840786880342 0.8057415178721005 1.703935996275668 0.4371035124690609 0 1.961821750572313 0 2.213307158950818 1:0.6875 2:0.2736842 3:0.054347824 4:0.23595506 5:0.16161616 6:0.078651689 7:0.17894737 8:0.19117647 9:0.081632651 10:0.67058825 11:0.28089887 12:0.1724138 13:0.26436782 14:0.10294118 15:0.10769231 16:0.23999999 17:0.16923077 18:0.098039217 19:0.56626505 20:0.81914896 21:0.63333333 22:0.31428573 23:0.46067417 24:0.60227275 25:0.18518518 26:0.093023255 27:0.20652173 28:0.21176471 29:0.72164947 30:0.66233766 31:0.1388889 32:0.56730771 33:0.85106385 34:0.10810811 35:0.29032257 36:0.50632912 37:0 38:0.22580644 39:0.2736842 40:0.025974026 41:0.14285715 42:0.30434781 43:0.032608695 44:0.27083334 45:0.74157304 46:0 47:0.10843374 48:0.26760563 49:0.15517241 50:0.088888891 51:0.25806451 52:0.24050634 53:0.28260869 54:0.51190478 55:0.50632912 56:0.30864197 57:0.15909091 58:0.82417583 59:0.72916669 60:0.31506848 61:0.5 62:0.5714286 63:0.36144578 64:0.67647058 65:0.51923078 66:0.18181819 67:0.62244898 68:0.69791669 69:0.32894737 70:0.43010753 71:0.82291669 72:0.44086021 
-0.2032894510981351 0.02233577437730629 0 0 0 0.2286768523252511 0 0.3589279334864035 0.2502841166030724 0 1:0.58749998 2:0.14736842 3:0.032608695 4:0.13483146 5:0.11111111 6:0.089887641 7:0.15789473 8:0.17647059 9:0.06122449 10:0.69411767 11:0.26966292 12:0.20689656 13:0.22988506 14:0.088235296 15:0.2923077 16:0.14666666 17:0.12307692 18:0.039215688 19:0.59036142 20:0.87234044 21:0.66666669 22:0.30000001 23:0.48314607 24:0.54545456 25:0.2037037 26:0.069767445 27:0.17391305 28:0.31764707 29:0.63917524 30:0.74025977 31:0.18055555 32:0.46153846 33:0.76595747 34:0.1891892 35:0.19354838 36:0.41772151 37:0.1 38:0.11290322 39:0.094736844 40:0.22077923 41:0.18681319 42:0.44565219 43:0.2173913 44:0.28125 45:0.71910113 46:0.065573767 47:0.084337346 48:0.028169014 49:0.53448278 50:0.1 51:0.23655914 52:0.36708862 53:0.26086956 54:0.55952382 55:0.60759491 56:0.4074074 57:0.13636364 58:0.84615386 59:0.75 60:0.42465752 61:0.40625 62:0.58163267 63:0.57831323 64:0.55882353 65:0.48076922 66:0.15151516 67:0.52040815 68:0.76041669 69:0.43421054 70:0.39784947 71:0.78125 72:0.52688169 
-0 0 0 0 0 0.7680733644029372 0 0 0 0 1:0.63749999 2:0.2736842 3:0 4:0.17977528 5:0.11111111 6:0.067415729 7:0.24210526 8:0.27941176 9:0.22448979 10:0.67058825 11:0.22471911 12:0.10344828 13:0.24137931 14:0.11764706 15:0.21538462 16:0.23999999 17:0.2923077 18:0.11764706 19:0.53012049 20:0.87234044 21:0.75555557 22:0.25714287 23:0.41573033 24:0.54545456 25:0.25925925 26:0.13953489 27:0.14130434 28:0.1882353 29:0.63917524 30:0.75324672 31:0.083333336 32:0.41346154 33:0.79787236 34:0.1891892 35:0.17741935 36:0.48101267 37:0 38:0.14516129 39:0.12631579 40:0.2857143 41:0.1978022 42:0.43478259 43:0.17391305 44:0.16666667 45:0.69662923 46:0 47:0.036144577 48:0.04225352 49:0.36206895 50:0.14444445 51:0.26881722 52:0.24050634 53:0.32608697 54:0.61904764 55:0.59493673 56:0.45679012 57:0.15909091 58:0.7912088 59:0.80208331 60:0.4520548 61:0.42708334 62:0.58163267 63:0.51807231 64:0.72058821 65:0.53846157 66:0.18181819 67:0.59183675 68:0.73958331 69:0.56578946 70:0.33333334 71:0.69791669 72:0.64516127 
-0 0 0 0 0 0 0.9084056500506563 0 0 0 1:0.58749998 2:0.18947369 3:0.043478262 4:0.13483146 5:0.17171717 6:0.13483146 7:0.15789473 8:0.23529412 9:0.20408164 10:0.5529412 11:0.12359551 12:0.20689656 13:0.21839081 14:0.088235296 15:0.092307694 16:0.17333333 17:0.13846155 18:0.078431375 19:0.74698794 20:0.89361703 21:0.65555555 22:0.35714287 23:0.51685393 24:0.57954544 25:0.25925925 26:0.1627907 27:0.25 28:0.023529412 29:0.65979379 30:0.66233766 31:0.069444448 32:0.53846157 33:0.86170214 34:0.10810811 35:0.30645162 36:0.59493673 37:0.050000001 38:0.17741935 39:0.11578947 40:0.051948052 41:0.13186814 42:0.23913044 43:0 44:0.26041666 45:0.74157304 46:0.065573767 47:0.10843374 48:0.11267605 49:0.24137931 50:0.12222222 51:0.19354838 52:0.2278481 53:0.23913044 54:0.52380955 55:0.63291138 56:0.37037036 57:0.11363637 58:0.80219781 59:0.71875 60:0.3561644 61:0.51041669 62:0.6122449 63:0.55421686 64:0.57352942 65:0.46153846 66:0.15151516 67:0.63265306 68:0.69791669 69:0.38157895 70:0.38709676 71:0.8125 72:0.49462366 
-0 0 0 0 0 0 0 0 0.4487585150999527 0 1:0.63749999 2:0.30526316 3:0.097826086 4:0.19101124 5:0.12121212 6:0.067415729 7:0.22105263 8:0.23529412 9:0.06122449 10:0.61176473 11:0.21348314 12:0.19540229 13:0.26436782 14:0.13235295 15:0.15384616 16:0.22666667 17:0.18461539 18:0 19:0.61445785 20:0.85106385 21:0.69999999 22:0.2857143 23:0.48314607 24:0.54545456 25:0.33333334 26:0.15116279 27:0.18478261 28:0.28235295 29:0.69072163 30:0.66233766 31:0.15277778 32:0.50961536 33:0.85106385 34:0.32432431 35:0.27419356 36:0.54430377 37:0.1 38:0.11290322 39:0.073684208 40:0.064935066 41:0.14285715 42:0.25 43:0.11956522 44:0.23958333 45:0.67415732 46:0.081967212 47:0.072289154 48:0.014084507 49:0.24137931 50:0.1 51:0.23655914 52:0.29113925 53:0.2173913 54:0.53571427 55:0.49367088 56:0.35802469 57:0.090909094 58:0.78021979 59:0.69791669 60:0.32876712 61:0.45833334 62:0.56122446 63:0.57831323 64:0.70588237 65:0.55769229 66:0.12121212 67:0.64285713 68:0.78125 69:0.40789473 70:0.40860215 71:0.83333331 72:0.4623656 
-0 0 0 0 0.222867034561191 0 0 0 0 0 1:0.60000002 2:0.23157895 3:0.097826086 4:0.22471911 5:0.21212122 6:0.11235955 7:0.21052632 8:0.20588236 9:0 10:0.71764708 11:0.24719101 12:0.22988506 13:0.29885057 14:0.14705883 15:0.26153848 16:0.28 17:0.18461539 18:0.039215688 19:0.56626505 20:0.90425533 21:0.65555555 22:0.32857144 23:0.51685393 24:0.54545456 25:0.18518518 26:0.10465116 27:0.22826087 28:0.22352941 29:0.61855668 30:0.70129871 31:0.069444448 32:0.49038461 33:0.84042555 34:0.10810811 35:0.29032257 36:0.5316456 37:0 38:0.064516127 39:0.15789473 40:0 41:0.13186814 42:0.28260869 43:0.054347824 44:0.25 45:0.66292137 46:0 47:0 48:0.098591551 49:0 50:0.06666667 51:0.24731183 52:0.088607594 53:0.23913044 54:0.55952382 55:0.64556962 56:0.41975307 57:0.11363637 58:0.78021979 59:0.69791669 60:0.369863 61:0.48958334 62:0.60204083 63:0.54216868 64:0.60294116 65:0.51923078 66:0.15151516 67:0.62244898 68:0.75 69:0.36842105 70:0.38709676 71:0.77083331 72:0.50537634 
-0 0 0 0 0 0 0 0 0.8608737538496023 0 1:0.61250001 2:0.30526316 3:0.20652173 4:0.20224719 5:0.16161616 6:0.11235955 7:0.16842106 8:0.23529412 9:0.14285715 10:0.68235296 11:0.37078652 12:0.21839081 13:0.34482759 14:0.20588236 15:0.13846155 16:0.2 17:0.2 18:0.05882353 19:0.48192772 20:0.82978725 21:0.67777777 22:0.30000001 23:0.42696628 24:0.57954544 25:0.24074075 26:0.11627907 27:0.16304348 28:0.15294118 29:0.65979379 30:0.77922076 31:0.22222222 32:0.46153846 33:0.84042555 34:0.35135135 35:0.22580644 36:0.5316456 37:0 38:0.12903225 39:0.1368421 40:0.20779221 41:0.0989011 42:0.31521741 43:0.17391305 44:0.15625 45:0.70786518 46:0 47:0 48:0.056338027 49:0.36206895 50:0.11111111 51:0.19354838 52:0.31645569 53:0.26086956 54:0.40476191 55:0.68354428 56:0.41975307 57:0.22727273 58:0.73626375 59:0.76041669 60:0.46575344 61:0.36458334 62:0.53061223 63:0.66265059 64:0.66176468 65:0.73076922 66:0.39393941 67:0.58163267 68:0.84375 69:0.5131579 70:0.36559141 71:0.80208331 72:0.61290324 
-0 0 0 0 0 0 0 0 0 0.8057201758749611 1:0.52499998 2:0.25263157 3:0.15217391 4:0.10112359 5:0.15151516 6:0.17977528 7:0.1368421 8:0.16176471 9:0.22448979 10:0.74117649 11:0.30337077 12:0.36781609 13:0.24137931 14:0.10294118 15:0.2 16:0.06666667 17:0.07692308 18:0 19:0.54216868 20:0.80851066 21:0.66666669 22:0.14285715 23:0.33707866 24:0.47727272 25:0.037037037 26:0.069767445 27:0.14130434 28:0.21176471 29:0.69072163 30:0.85714287 31:0.097222224 32:0.40384614 33:0.86170214 34:0.10810811 35:0.22580644 36:0.48101267 37:0.125 38:0.20967741 39:0.073684208 40:0.16883117 41:0.18681319 42:0.28260869 43:0.086956523 44:0.19791667 45:0.76404494 46:0.14754099 47:0.14457831 48:0.056338027 49:0.31034482 50:0.21111111 51:0.1827957 52:0.18987341 53:0.28260869 54:0.54761904 55:0.6708861 56:0.44444445 57:0.11363637 58:0.86813188 59:0.76041669 60:0.3561644 61:0.42708334 62:0.52040815 63:0.51807231 64:0.57352942 65:0.51923078 66:0.18181819 67:0.54081631 68:0.73958331 69:0.56578946 70:0.41935483 71:0.80208331 72:0.66666669 
-0 0 0 0.4965390440717483 0 0 0 0 0 0 1:0.58749998 2:0.16842106 3:0.097826086 4:0.19101124 5:0.15151516 6:0.10112359 7:0.2 8:0.16176471 9:0.040816326 10:0.75294119 11:0.28089887 12:0.27586207 13:0.20689656 14:0.11764706 15:0.18461539 16:0.16 17:0.10769231 18:0 19:0.48192772 20:0.88297874 21:0.75555557 22:0.18571429 23:0.37078652 24:0.46590909 25:0.11111111 26:0.046511628 27:0.097826086 28:0.10588235 29:0.59793812 30:0.71428573 31:0.19444445 32:0.42307693 33:0.81914896 34:0.27027026 35:0.22580644 36:0.43037975 37:0.1 38:0.16129032 39:0.11578947 40:0.18181819 41:0.18681319 42:0.34782609 43:0.18478261 44:0.28125 45:0.73033708 46:0.16393442 47:0.19277108 48:0.098591551 49:0.27586207 50:0.17777778 51:0.20430107 52:0.11392405 53:0.25 54:0.61904764 55:0.68354428 56:0.44444445 57:0.20454545 58:0.85714287 59:0.77083331 60:0.31506848 61:0.47916666 62:0.59183675 63:0.54216868 64:0.70588237 65:0.48076922 66:0.24242425 67:0.56122446 68:0.72916669 69:0.5 70:0.38709676 71:0.79166669 72:0.52688169 
-0 0 0 0 0 0 0 0 0 0.6852630110161991 1:0.61250001 2:0.22105263 3:0.11956522 4:0.15730338 5:0.12121212 6:0.10112359 7:0.17894737 8:0.32352942 9:0.24489796 10:0.7647059 11:0.40449437 12:0.34482759 13:0.24137931 14:0.11764706 15:0.21538462 16:0.2 17:0.33846155 18:0.13725491 19:0.49397591 20:0.80851066 21:0.71111113 22:0.24285714 23:0.38202247 24:0.59090906 25:0.11111111 26:0.13953489 27:0.18478261 28:0.035294119 29:0.6082474 30:0.79220778 31:0.013888889 32:0.38461539 33:0.72340423 34:0 35:0.12903225 36:0.51898736 37:0.075000003 38:0.17741935 39:0.14736842 40:0.012987013 41:0.12087912 42:0.36956522 43:0 44:0.020833334 45:0.56179774 46:0.032786883 47:0.096385539 48:0.12676056 49:0.068965517 50:0.13333334 51:0.27956989 52:0.088607594 53:0.11956522 54:0.38095239 55:0.69620252 56:0.43209878 57:0.27272728 58:0.80219781 59:0.76041669 60:0.47945204 61:0.40625 62:0.53061223 63:0.55421686 64:0.55882353 65:0.65384614 66:0.42424244 67:0.58163267 68:0.80208331 69:0.52631581 70:0.34408602 71:0.72916669 72:0.67741936 
-0 0 2.048863075868576 0.8554976372078089 0 0 1.02266012387594 0 0 0 1:0.4375 2:0.18947369 3:0 4:0.089887641 5:0.090909094 6:0.078651689 7:0.1368421 8:0.088235296 9:0.18367347 10:0.72941178 11:0.23595506 12:0.21839081 13:0.14942528 14:0.088235296 15:0.10769231 16:0.13333334 17:0.13846155 18:0.13725491 19:0.51807231 20:0.85106385 21:0.72222221 22:0.18571429 23:0.40449437 24:0.53409094 25:0.09259259 26:0.08139535 27:0.18478261 28:0.23529412 29:0.62886596 30:0.72727275 31:0.1388889 32:0.45192307 33:0.74468082 34:0.13513513 35:0.27419356 36:0.55696201 37:0.025 38:0.22580644 39:0.2 40:0.038961038 41:0.21978022 42:0.47826087 43:0.076086953 44:0.25 45:0.71910113 46:0.13114753 47:0.13253012 48:0.1971831 49:0.44827586 50:0.18888889 51:0.29032257 52:0.24050634 53:0.19565217 54:0.42857143 55:0.59493673 56:0.39506173 57:0.18181819 58:0.73626375 59:0.70833331 60:0.369863 61:0.4375 62:0.53061223 63:0.43373495 64:0.77941179 65:0.65384614 66:0.30303031 67:0.64285713 68:0.78125 69:0.4868421 70:0.39784947 71:0.79166669 72:0.60215056 
-0.4029833353696036 0 0 0 0.1941600519839412 0 0 0 0 0 1:0.5 2:0.18947369 3:0.021739131 4:0.16853933 5:0.17171717 6:0.10112359 7:0.17894737 8:0.36764705 9:0.22448979 10:0.7647059 11:0.26966292 12:0.25287357 13:0.32183909 14:0.16176471 15:0.07692308 16:0.30666667 17:0.2 18:0.039215688 19:0.54216868 20:0.86170214 21:0.71111113 22:0.31428573 23:0.48314607 24:0.61363637 25:0.37037036 26:0.11627907 27:0.16304348 28:0.10588235 29:0.63917524 30:0.71428573 31:0.069444448 32:0.44230768 33:0.78723407 34:0.35135135 35:0.17741935 36:0.41772151 37:0 38:0.11290322 39:0.10526316 40:0 41:0.0989011 42:0.39130434 43:0.097826086 44:0.083333336 45:0.76404494 46:0 47:0.060240965 48:0.04225352 49:0.24137931 50:0.11111111 51:0.27956989 52:0.35443038 53:0.19565217 54:0.45238096 55:0.59493673 56:0.4074074 57:0.090909094 58:0.83516484 59:0.76041669 60:0.39726028 61:0.46875 62:0.63265306 63:0.66265059 64:0.66176468 65:0.5 66:0.15151516 67:0.59183675 68:0.70833331 69:0.43421054 70:0.36559141 71:0.76041669 72:0.53763443 
-0 0 0 0 0 0 1.384312012669302 0 0 0.4516899531829529 1:0.5 2:0.18947369 3:0.021739131 4:0.13483146 5:0.14141414 6:0.089887641 7:0.25263157 8:0.23529412 9:0.22448979 10:0.65882355 11:0.20224719 12:0.045977011 13:0.19540229 14:0.088235296 15:0.092307694 16:0.23999999 17:0.2 18:0.098039217 19:0.50602412 20:0.78723407 21:0.6111111 22:0.24285714 23:0.37078652 24:0.51136363 25:0.31481481 26:0.12790698 27:0.23913044 28:0.2 29:0.67010307 30:0.76623374 31:0.125 32:0.47115386 33:0.85106385 34:0.27027026 35:0.29032257 36:0.62025315 37:0.125 38:0.19354838 39:0.23157895 40:0.064935066 41:0.14285715 42:0.2173913 43:0.097826086 44:0.22916667 45:0.62921351 46:0.16393442 47:0.13253012 48:0.16901408 49:0.3275862 50:0.12222222 51:0.24731183 52:0.2278481 53:0.25 54:0.54761904 55:0.65822786 56:0.43209878 57:0.15909091 58:0.82417583 59:0.71875 60:0.3561644 61:0.44791666 62:0.58163267 63:0.54216868 64:0.66176468 65:0.51923078 66:0.21212122 67:0.62244898 68:0.75 69:0.42105263 70:0.39784947 71:0.77083331 72:0.54838711 
-0 0 0 0 0 0.1444119764096027 1.366281134244974 0 0 0 1:0.4375 2:0.17894737 3:0.15217391 4:0.16853933 5:0.2020202 6:0.24719101 7:0.16842106 8:0.4852941 9:0.55102038 10:0.70588237 11:0.22471911 12:0.22988506 13:0.24137931 14:0.14705883 15:0.18461539 16:0.21333334 17:0.30769232 18:0.15686275 19:0.51807231 20:0.87234044 21:0.67777777 22:0.30000001 23:0.39325842 24:0.5 25:0.27777779 26:0.15116279 27:0.16304348 28:0.12941177 29:0.57731956 30:0.84415585 31:0.15277778 32:0.36538461 33:0.79787236 34:0.21621622 35:0.17741935 36:0.54430377 37:0 38:0.096774191 39:0.15789473 40:0.14285715 41:0.065934069 42:0.33695653 43:0.14130434 44:0.11458334 45:0.64044946 46:0.19672132 47:0.096385539 48:0.15492958 49:0.43103448 50:0.15555556 51:0.24731183 52:0.29113925 53:0.25 54:0.34523809 55:0.74683547 56:0.49382716 57:0.34090909 58:0.82417583 59:0.84375 60:0.50684929 61:0.35416666 62:0.53061223 63:0.56626505 64:0.66176468 65:0.63461536 66:0.33333334 67:0.54081631 68:0.71875 69:0.56578946 70:0.34408602 71:0.65625 72:0.66666669 
-0 0 0 0.08134234033677043 0 0 1.058137987195171 0 0 2.358667770983645 1:0.63749999 2:0.2631579 3:0 4:0.19101124 5:0.15151516 6:0.044943821 7:0.11578947 8:0.17647059 9:0.040816326 10:0.65882355 11:0.34831461 12:0.18390805 13:0.28735632 14:0.19117647 15:0.18461539 16:0.053333335 17:0.061538462 18:0.11764706 19:0.45783132 20:0.82978725 21:0.73333335 22:0.25714287 23:0.39325842 24:0.54545456 25:0.12962963 26:0.08139535 27:0.17391305 28:0.11764706 29:0.61855668 30:0.72727275 31:0.11111111 32:0.42307693 33:0.80851066 34:0.1891892 35:0.19354838 36:0.59493673 37:0 38:0.16129032 39:0.17894737 40:0.14285715 41:0.16483517 42:0.32608697 43:0.11956522 44:0.15625 45:0.60674155 46:0.21311475 47:0.16867469 48:0.18309858 49:0.48275861 50:0.21111111 51:0.22580644 52:0.25316456 53:0.25 54:0.58333331 55:0.69620252 56:0.45679012 57:0.31818181 58:0.72527474 59:0.77083331 60:0.4520548 61:0.36458334 62:0.5 63:0.51807231 64:0.64705884 65:0.75 66:0.18181819 67:0.55102038 68:0.80208331 69:0.52631581 70:0.3548387 71:0.79166669 72:0.59139782 
-0 -0 0 0 0 0 0.05957065860040304 0 0.2797143448096756 0 1:0.34999999 2:0.96842104 3:0.60869563 4:0.62921351 5:0.95959598 6:0.35955057 7:0.90526319 8:0.92647058 9:0.18367347 10:0.11764706 11:0.39325842 12:0.39080459 13:0.50574714 14:0.70588237 15:0.2923077 16:0.70666665 17:0.52307695 18:0.15686275 19:0.15662651 20:0.08510638 21:0.11111111 22:0.25714287 23:0.14606741 24:0.079545453 25:0.42592594 26:0.12790698 27:0.086956523 28:0.14117648 29:0.17525773 30:0.29870129 31:0.15277778 32:0.13461539 33:0.095744684 34:0.24324325 35:0.25806451 36:0.11392405 37:0.22499999 38:0.82258064 39:0.96842104 40:0.24675325 41:0.91208792 42:0.76086956 43:0.44565219 44:0.96875 45:0.50561798 46:0.18032786 47:0.33734939 48:0.74647886 49:0.24137931 50:0.44444445 51:0.58064514 52:0.41772151 53:0.63043481 54:0.32142857 55:0.18987341 56:0.16049382 57:0.34090909 58:0.12087912 59:0.10416666 60:0.15068494 61:0.34375 62:0.17346939 63:0.10843374 64:0.19117647 65:0.38461539 66:0.42424244 67:0.071428575 68:0.11458334 69:0.17105263 70:0.3548387 71:0.17708333 72:0.096774191 
-0 -0.04089720433305202 0 0 0 0 0.1226765759730666 0.5054157283221233 0 0 1:0.16249999 2:0.85263157 3:0.85869563 4:0.52808988 5:0.98989898 6:0.51685393 7:0.88421053 8:0.97058821 9:0.26530612 10:0.023529412 11:0.41573033 12:0.63218391 13:0.48275861 14:0.86764705 15:0.49230769 16:0.70666665 17:0.69230771 18:0.19607843 19:0.084337346 20:0.074468084 21:0.15555556 22:0.24285714 23:0.10112359 24:0.06818182 25:0.24074075 26:0.10465116 27:0.097826086 28:0.094117649 29:0.06185567 30:0.37662336 31:0.18055555 32:0.086538464 33:0.08510638 34:0.27027026 35:0.19354838 36:0.12658228 37:0.2 38:0.64516127 39:0.96842104 40:0.2857143 41:0.87912089 42:0.8369565 43:0.47826087 44:0.95833331 45:0.46067417 46:0.14754099 47:0.31325302 48:0.76056337 49:0.27586207 50:0.52222222 51:0.61290324 52:0.6708861 53:0.73913044 54:0.32142857 55:0.1392405 56:0.11111111 57:0.18181819 58:0.12087912 59:0.125 60:0.26027396 61:0.5 62:0.23469388 63:0.13253012 64:0.11764706 65:0.26923078 66:0.36363637 67:0.081632651 68:0.11458334 69:0.18421052 70:0.3548387 71:0.15625 72:0.096774191 
-0.03662719143657386 -0 0 0 0 0 0 0 0 0 1:0.57499999 2:0.84210527 3:0.38043478 4:0.77528089 5:0.76767677 6:0.23595506 7:0.80000001 8:0.55882353 9:0.040816326 10:0.3764706 11:0.69662923 12:0.71264368 13:0.55172414 14:0.63235295 15:0.15384616 16:0.66666669 17:0.38461539 18:0.019607844 19:0.28915662 20:0.26595744 21:0.65555555 22:0.34285715 23:0.10112359 24:0.079545453 25:0.42592594 26:0.11627907 27:0.076086953 28:0.16470589 29:0.12371134 30:0.3116883 31:0.19444445 32:0.14423077 33:0.10638298 34:0.24324325 35:0.12903225 36:0.11392405 37:0.1 38:0.53225809 39:0.80000001 40:0.24675325 41:0.71428573 42:0.8369565 43:0.35869566 44:0.84375 45:0.60674155 46:0.065573767 47:0.22891566 48:0.59154928 49:0.24137931 50:0.52222222 51:0.64516127 52:0.74683547 53:0.81521738 54:0.53571427 55:0.11392405 56:0.13580246 57:0.20454545 58:0.14285715 59:0.16666667 60:0.16438356 61:0.52083331 62:0.19387755 63:0.12048193 64:0.20588236 65:0.096153848 66:0.060606062 67:0.21428572 68:0.083333336 69:0.052631579 70:0.29032257 71:0.14583333 72:0.021505376 
-0 -0 0 0 0 0.4580534870482891 0 0.2776084294308552 0.2492768552133341 0.2260174174710252 1:0.51249999 2:0.85263157 3:0.41304347 4:0.75280899 5:0.76767677 6:0.22471911 7:0.84210527 8:0.54411763 9:0.18367347 10:0.40000001 11:0.69662923 12:0.7241379 13:0.62068963 14:0.63235295 15:0.21538462 16:0.65333331 17:0.40000001 18:0 19:0.3493976 20:0.28723404 21:0.62222224 22:0.32857144 23:0.13483146 24:0.11363637 25:0.22222222 26:0.093023255 27:0.086956523 28:0.29411766 29:0.17525773 30:0.37662336 31:0.31944445 32:0.13461539 33:0.19148937 34:0.16216215 35:0.16129032 36:0.16455697 37:0.40000001 38:0.58064514 39:0.80000001 40:0.25974026 41:0.80219781 42:0.76086956 43:0.41304347 44:0.88541669 45:0.55056179 46:0.22950819 47:0.31325302 48:0.67605633 49:0.29310346 50:0.46666667 51:0.63440859 52:0.72151899 53:0.79347825 54:0.53571427 55:0.20253165 56:0.18518518 57:0.34090909 58:0.15384616 59:0.09375 60:0.20547946 61:0.57291669 62:0.17346939 63:0.14457831 64:0.32352942 65:0.38461539 66:0.5151515 67:0.20408164 68:0.16666667 69:0.22368421 70:0.25806451 71:0.09375 72:0.15053764 
-0 -0 0 0.08629486206071393 0 0 0 0.2732405781593409 0 0 1:0.52499998 2:0.82105261 3:0.40217391 4:0.75280899 5:0.73737371 6:0.25842696 7:0.75789475 8:0.54411763 9:0.081632651 10:0.3882353 11:0.69662923 12:0.7241379 13:0.60919541 14:0.70588237 15:0.2 16:0.61333334 17:0.35384616 18:0.11764706 19:0.30120483 20:0.21276596 21:0.64444447 22:0.32857144 23:0.13483146 24:0.06818182 25:0.3888889 26:0.093023255 27:0.10869565 28:0.15294118 29:0.11340206 30:0.22077923 31:0.2638889 32:0.11538462 33:0.08510638 34:0.1891892 35:0.25806451 36:0.2278481 37:0.2 38:0.45161289 39:0.78947371 40:0.24675325 41:0.70329672 42:0.80434781 43:0.31521741 44:0.82291669 45:0.58426964 46:0.14754099 47:0.24096386 48:0.6056338 49:0.22413793 50:0.52222222 51:0.69892472 52:0.77215189 53:0.85869563 54:0.5714286 55:0.20253165 56:0.14814815 57:0.27272728 58:0.16483517 59:0.14583333 60:0.16438356 61:0.54166669 62:0.1632653 63:0.15662651 64:0.30882353 65:0.36538461 66:0.39393941 67:0.23469388 68:0.17708333 69:0.15789473 70:0.36559141 71:0.13541667 72:0 
-0 -0 0 0.01417731351497448 0.9681442677999085 0 0 0 0 0 1:0.48750001 2:0.82105261 3:0.40217391 4:0.74157304 5:0.76767677 6:0.25842696 7:0.81052631 8:0.54411763 9:0.020408163 10:0.36470589 11:0.73033708 12:0.85057473 13:0.60919541 14:0.75 15:0.27692309 16:0.63999999 17:0.43076923 18:0.019607844 19:0.30120483 20:0.18085106 21:0.56666666 22:0.30000001 23:0.078651689 24:0.10227273 25:0.35185185 26:0.12790698 27:0.2173913 28:0.15294118 29:0.082474224 30:0.49350649 31:0.19444445 32:0.096153848 33:0.18085106 34:0.35135135 35:0.32258064 36:0.16455697 37:0.125 38:0.5 39:0.7263158 40:0.20779221 41:0.72527474 42:0.81521738 43:0.33695653 44:0.83333331 45:0.60674155 46:0.14754099 47:0.27710843 48:0.64788735 49:0.25862068 50:0.53333336 51:0.69892472 52:0.64556962 53:0.79347825 54:0.48809522 55:0.1392405 56:0.037037037 57:0.06818182 58:0.10989011 59:0.10416666 60:0.10958904 61:0.48958334 62:0.20408164 63:0.19277108 64:0.2647059 65:0.25 66:0.15151516 67:0.21428572 68:0.17708333 69:0.11842106 70:0.36559141 71:0.15625 72:0.032258064 
-0 -0.4559044908816559 0.7966910632787252 0.2966816717479431 0 0 0.2806805355786259 0.07247306742908889 0 0 1:0.55000001 2:0.77894735 3:0.33695653 4:0.80898875 5:0.71717173 6:0.17977528 7:0.80000001 8:0.52941179 9:0.020408163 10:0.42352942 11:0.74157304 12:0.73563218 13:0.59770113 14:0.60294116 15:0.2 16:0.70666665 17:0.33846155 18:0.039215688 19:0.43373495 20:0.25531915 21:0.62222224 22:0.32857144 23:0.15730338 24:0.090909094 25:0.48148149 26:0.08139535 27:0.13043478 28:0.10588235 29:0.14432989 30:0.3116883 31:0.11111111 32:0.21153846 33:0.22340426 34:0.13513513 35:0.17741935 36:0.25316456 37:0.050000001 38:0.5 39:0.7473684 40:0.19480519 41:0.6813187 42:0.84782606 43:0.35869566 44:0.875 45:0.64044946 46:0.14754099 47:0.26506025 48:0.67605633 49:0.24137931 50:0.46666667 51:0.61290324 52:0.58227849 53:0.76086956 54:0.60714287 55:0.34177214 56:0.19753087 57:0.18181819 58:0.23076923 59:0.09375 60:0.08219178 61:0.23958333 62:0.05102041 63:0.12048193 64:0.54411763 65:0.34615386 66:0.18181819 67:0.22448979 68:0.09375 69:0.052631579 70:0.12903225 71:0.03125 72:0 
-0.7777670079054566 -0.5574332539837118 0.4337080307963714 0.2051842593216506 0 0 0.4972981351797918 0 0.5713307472055449 0.6575700107463033 1:0.64999998 2:0.77894735 3:0.25 4:0.84269661 5:0.62626261 6:0.12359551 7:0.75789475 8:0.35294119 9:0.1632653 10:0.44705883 11:0.65168542 12:0.45977011 13:0.56321841 14:0.4852941 15:0.10769231 16:0.49333334 17:0.21538462 18:0.13725491 19:0.21686748 20:0.22340426 21:0.5 22:0.085714288 23:0.033707865 24:0.03409091 25:0.09259259 26:0.10465116 27:0.097826086 28:0.023529412 29:0.13402061 30:0.35064936 31:0.083333336 32:0.03846154 33:0.11702128 34:0.081081077 35:0.14516129 36:0.1392405 37:0.125 38:0.87096775 39:0.84210527 40:0.33766234 41:0.91208792 42:0.64130437 43:0.51086956 44:0.875 45:0.43820226 46:0.065573767 47:0.3493976 48:0.59154928 49:0.36206895 50:0.53333336 51:0.59139782 52:0.75949365 53:0.73913044 54:0.48809522 55:0.17721519 56:0.074074075 57:0.20454545 58:0.12087912 59:0.10416666 60:0.23287672 61:0.54166669 62:0.1632653 63:0.18072289 64:0.30882353 65:0.15384616 66:0.12121212 67:0.18367347 68:0.09375 69:0.23684211 70:0.25806451 71:0.10416666 72:0.15053764 
-0 -0 0 0 0 0 0 0 0.1228197817270505 0 1:0.625 2:0.82105261 3:0.32608697 4:0.85393256 5:0.69696969 6:0.17977528 7:0.82105261 8:0.42647058 9:0.18367347 10:0.45882353 11:0.70786518 12:0.60919541 13:0.58620691 14:0.54411763 15:0.16923077 16:0.58666664 17:0.32307693 18:0.15686275 19:0.22891566 20:0.23404256 21:0.60000002 22:0.11428571 23:0.078651689 24:0.045454547 25:0.2037037 26:0.058139537 27:0.086956523 28:0.047058824 29:0.16494845 30:0.37662336 31:0.083333336 32:0.1826923 33:0.21276596 34:0.21621622 35:0.17741935 36:0.21518987 37:0.15000001 38:0.74193549 39:0.81052631 40:0.27272728 41:0.87912089 42:0.69565219 43:0.5 44:0.91666669 45:0.48314607 46:0.16393442 47:0.33734939 48:0.61971831 49:0.31034482 50:0.5 51:0.60215056 52:0.74683547 53:0.75 54:0.41666666 55:0.18987341 56:0.074074075 57:0.25 58:0.15384616 59:0.11458334 60:0.31506848 61:0.48958334 62:0.14285715 63:0.28915662 64:0.19117647 65:0.11538462 66:0.15151516 67:0.12244898 68:0.072916664 69:0.23684211 70:0.26881722 71:0.11458334 72:0.16129032 
-0.873046238801683 -0.2431655487005682 0 0 0 0 0.1428662512866198 0 0 0 1:0.53750002 2:0.86315787 3:0.36956522 4:0.78651685 5:0.77777779 6:0.23595506 7:0.86315787 8:0.57352942 9:0.22448979 10:0.3882353 11:0.69662923 12:0.71264368 13:0.56321841 14:0.63235295 15:0.2 16:0.65333331 17:0.41538462 18:0.15686275 19:0.30120483 20:0.23404256 21:0.60000002 22:0.34285715 23:0.11235955 24:0.10227273 25:0.3888889 26:0.069767445 27:0.13043478 28:0.16470589 29:0.12371134 30:0.36363637 31:0.11111111 32:0.11538462 33:0.21276596 34:0.1891892 35:0.14516129 36:0.21518987 37:0.32499999 38:0.51612902 39:0.78947371 40:0.15584415 41:0.70329672 42:0.82608694 43:0.32608697 44:0.91666669 45:0.67415732 46:0.14754099 47:0.24096386 48:0.53521127 49:0.12068965 50:0.37777779 51:0.63440859 52:0.34177214 53:0.54347825 54:0.5 55:0.27848101 56:0.098765433 57:0.11363637 58:0.10989011 59:0.09375 60:0.08219178 61:0.13541667 62:0.14285715 63:0.31325302 64:0.17647059 65:0.15384616 66:0.15151516 67:0.10204082 68:0.10416666 69:0.18421052 70:0.22580644 71:0.14583333 72:0.25806451 
-0.4182706797517779 -0 0.3368998653654569 1.254172758806168 0.4256968514301149 0 0 0 0 0 1:0.53750002 2:0.78947371 3:0.33695653 4:0.75280899 5:0.73737371 6:0.21348314 7:0.67368424 8:0.4852941 9:0 10:0.3882353 11:0.70786518 12:0.65517241 13:0.59770113 14:0.67647058 15:0.2 16:0.60000002 17:0.33846155 18:0.039215688 19:0.40963855 20:0.29787233 21:0.69999999 22:0.34285715 23:0.11235955 24:0.17045455 25:0.35185185 26:0.12790698 27:0.16304348 28:0.21176471 29:0.092783503 30:0.22077923 31:0.1388889 32:0.067307696 33:0.12765957 34:0.054054055 35:0.20967741 36:0.2278481 37:0.30000001 38:0.64516127 39:0.80000001 40:0.32467532 41:0.80219781 42:0.75 43:0.42391303 44:0.83333331 45:0.47191012 46:0.24590164 47:0.27710843 48:0.6056338 49:0.29310346 50:0.56666666 51:0.66666669 52:0.74683547 53:0.80434781 54:0.54761904 55:0.32911393 56:0.11111111 57:0.27272728 58:0.17582418 59:0.11458334 60:0.2739726 61:0.55208331 62:0.20408164 63:0.12048193 64:0.2647059 65:0.23076923 66:0.18181819 67:0.17346939 68:0.11458334 69:0.13157895 70:0.41935483 71:0.17708333 72:0 
-0 -0 0 0 0 0 0 0.09973497455057193 0 0 1:0.5 2:0.82105261 3:0.41304347 4:0.70786518 5:0.79797977 6:0.23595506 7:0.82105261 8:0.61764705 9:0 10:0.30588236 11:0.68539327 12:0.82758623 13:0.54022986 14:0.64705884 15:0.26153848 16:0.57333332 17:0.41538462 18:0 19:0.33734939 20:0.24468085 21:0.60000002 22:0.34285715 23:0.089887641 24:0.17045455 25:0.3888889 26:0.15116279 27:0.18478261 28:0.1882353 29:0.082474224 30:0.27272728 31:0.29166666 32:0.057692308 33:0.14893617 34:0.32432431 35:0.17741935 36:0.2278481 37:0.27500001 38:0.53225809 39:0.80000001 40:0.29870129 41:0.75824177 42:0.79347825 43:0.42391303 44:0.86458331 45:0.53932583 46:0.14754099 47:0.25301206 48:0.6056338 49:0.29310346 50:0.51111114 51:0.68817204 52:0.6708861 53:0.80434781 54:0.59523809 55:0.1392405 56:0.086419754 57:0.13636364 58:0.16483517 59:0.11458334 60:0.16438356 61:0.53125 62:0.22448979 63:0.14457831 64:0.2647059 65:0.25 66:0.090909094 67:0.23469388 68:0.19791667 69:0.078947365 70:0.34408602 71:0.17708333 72:0 
-0.6896500552447097 -0.4777571899452437 0.3335044480920554 0.006236982201973863 0.4122940058046374 1.618394736974397 0.313864267490875 0.881419273472879 0.2466946276427466 0.9845593729682904 1:0.51249999 2:0.84210527 3:0.45652175 4:0.80898875 5:0.75757575 6:0.31460676 7:0.81052631 8:0.63235295 9:0.040816326 10:0.30588236 11:0.65168542 12:0.75862068 13:0.57471263 14:0.80882353 15:0.38461539 16:0.69333333 17:0.40000001 18:0.27450982 19:0.28915662 20:0.22340426 21:0.62222224 22:0.48571429 23:0.17977528 24:0.11363637 25:0.4074074 26:0.11627907 27:0.20652173 28:0.12941177 29:0.11340206 30:0.29870129 31:0.22222222 32:0.11538462 33:0.21276596 34:0.21621622 35:0.24193548 36:0.30379745 37:0.27500001 38:0.5 39:0.78947371 40:0.20779221 41:0.62637365 42:0.88043481 43:0.31521741 44:0.85416669 45:0.67415732 46:0.24590164 47:0.18072289 48:0.53521127 49:0.31034482 50:0.41111112 51:0.62365592 52:0.4050633 53:0.69565219 54:0.59523809 55:0.2278481 56:0.13580246 57:0.13636364 58:0.14285715 59:0.1875 60:0.31506848 61:0.27083334 62:0.19387755 63:0.19277108 64:0.27941176 65:0.40384614 66:0.27272728 67:0.081632651 68:0.09375 69:0.13157895 70:0.39784947 71:0.17708333 72:0.053763442 
-0 -0.1357100211030633 0.6611786368637003 1.017190479841622 1.157027929295806 0 0.6521073195857525 0.3941167631726463 0.9029175998567256 0.3366841781140387 1:0.55000001 2:0.86315787 3:0.42391303 4:0.8202247 5:0.73737371 6:0.24719101 7:0.83157897 8:0.54411763 9:0.36734694 10:0.32941177 11:0.66292137 12:0.60919541 13:0.59770113 14:0.66176468 15:0.18461539 16:0.75999999 17:0.43076923 18:0.3137255 19:0.33734939 20:0.32978722 21:0.67777777 22:0.35714287 23:0.15730338 24:0.17045455 25:0.22222222 26:0.15116279 27:0.23913044 28:0.22352941 29:0.10309278 30:0.3116883 31:0.18055555 32:0.20192307 33:0.18085106 34:0.13513513 35:0.46774194 36:0.29113925 37:0.40000001 38:0.67741936 39:0.84210527 40:0.27272728 41:0.75824177 42:0.79347825 43:0.45652175 44:0.90625 45:0.52808988 46:0.16393442 47:0.26506025 48:0.61971831 49:0.29310346 50:0.55555558 51:0.63440859 52:0.54430377 53:0.69565219 54:0.48809522 55:0.18987341 56:0.086419754 57:0.22727273 58:0.17582418 59:0.14583333 60:0.23287672 61:0.16666667 62:0.1122449 63:0.28915662 64:0.39705881 65:0.32692307 66:0.060606062 67:0.21428572 68:0.15625 69:0.27631578 70:0.24731183 71:0.072916664 72:0.1827957 
-0 -0 0 0 0 0.4988296574047897 0 0 0.1324337026863535 0 1:0.6875 2:0.7263158 3:0.22826087 4:0.87640452 5:0.61616164 6:0.15730338 7:0.76842105 8:0.35294119 9:0.14285715 10:0.51764709 11:0.77528089 12:0.64367819 13:0.58620691 14:0.52941179 15:0.16923077 16:0.53333336 17:0.24615385 18:0.13725491 19:0.22891566 20:0.32978722 21:0.58888888 22:0.2 23:0.089887641 24:0.090909094 25:0.18518518 26:0.034883723 27:0.097826086 28:0.12941177 29:0.19587629 30:0.46753246 31:0.25 32:0.07692308 33:0.12765957 34:0.21621622 35:0.12903225 36:0.16455697 37:0 38:0.77419353 39:0.77894735 40:0.33766234 41:0.90109891 42:0.69565219 43:0.48913044 44:0.82291669 45:0.42696628 46:0 47:0.38554215 48:0.63380283 49:0.36206895 50:0.52222222 51:0.55913979 52:0.92405063 53:0.81521738 54:0.52380955 55:0.15189873 56:0.11111111 57:0.20454545 58:0.07692308 59:0.041666668 60:0.21917808 61:0.55208331 62:0.030612245 63:0.14457831 64:0.22058824 65:0.32692307 66:0.27272728 67:0.13265306 68:0.0625 69:0.13157895 70:0.22580644 71:0.03125 72:0.064516127 
-0 -0 -0 1.181694957552653 1.336838111812118 0 0 0 0 0 1:0.73750001 2:0.31578946 3:0.45652175 4:0.26966292 5:0.16161616 6:0.15730338 7:0.18947369 8:0.41176471 9:0.32653061 10:0.61176473 11:0.50561798 12:0.88505745 13:0.32183909 14:0.44117647 15:0.63076925 16:0.18666667 17:0.12307692 18:0.19607843 19:0.55421686 20:0.87234044 21:0.6111111 22:0.35714287 23:0.56179774 24:0.42045453 25:0.2037037 26:0.29069766 27:0.30434781 28:0.16470589 29:0.21649484 30:0.12987013 31:0.1388889 32:0.51923078 33:0.5 34:0.35135135 35:0.75806451 36:0.64556962 37:0.2 38:0.40322581 39:0.48421052 40:0.1038961 41:0.48351648 42:0.53260869 43:0.11956522 44:0.42708334 45:0.6179775 46:0.1147541 47:0.40963855 48:0.8309859 49:0.1724138 50:0.56666666 51:0.91397852 52:0.1392405 53:0.39130434 54:0.39285713 55:0.48101267 56:0.34567901 57:0.25 58:0.69230771 59:0.61458331 60:0.1780822 61:0.30208334 62:0.45918366 63:0.26506025 64:0.72058821 65:0.59615386 66:0.30303031 67:0.74489796 68:0.83333331 69:0.30263159 70:0.43010753 71:0.77083331 72:0.36559141 
-0 -0 -0 1.927696947674092 0 0 0 0 0 0 1:0.46250001 2:0.24210526 3:0.39130434 4:0.12359551 5:0.090909094 6:0.089887641 7:0.12631579 8:0.22058824 9:0.1632653 10:0.69411767 11:0.44943821 12:0.89655173 13:0.37931034 14:0.36764705 15:0.61538464 16:0.14666666 17:0.10769231 18:0.15686275 19:0.59036142 20:0.89361703 21:0.51111114 22:0.35714287 23:0.52808988 24:0.30681819 25:0.24074075 26:0.15116279 27:0.18478261 28:0.070588239 29:0.13402061 30:0.19480519 31:0.069444448 32:0.32692307 33:0.47872341 34:0.2972973 35:0.48387095 36:0.59493673 37:0.050000001 38:0.37096775 39:0.34736842 40:0.090909094 41:0.49450549 42:0.5 43:0.097826086 44:0.375 45:0.56179774 46:0.065573767 47:0.37349397 48:0.74647886 49:0.20689656 50:0.56666666 51:0.90322578 52:0.1392405 53:0.39130434 54:0.44047618 55:0.51898736 56:0.32098764 57:0.18181819 58:0.71428573 59:0.59375 60:0.1780822 61:0.32291666 62:0.46938777 63:0.27710843 64:0.69117647 65:0.59615386 66:0.18181819 67:0.72448981 68:0.72916669 69:0.19736843 70:0.48387095 71:0.67708331 72:0.19354838 
-0 -0 -0 0 0.1264615146456889 0 0.7449829428100023 0 0 0.04587330100704064 1:0.67500001 2:0.36842105 3:0.51086956 4:0.23595506 5:0.21212122 6:0.22471911 7:0.1368421 8:0.45588234 9:0.42857143 10:0.57647061 11:0.47191012 12:0.93103451 13:0.29885057 14:0.41176471 15:0.66153848 16:0.18666667 17:0.18461539 18:0.15686275 19:0.57831323 20:0.88297874 21:0.51111114 22:0.40000001 23:0.5955056 24:0.39772728 25:0.2962963 26:0.22093023 27:0.22826087 28:0.21176471 29:0.2783505 30:0.15584415 31:0.16666667 32:0.42307693 33:0.63829786 34:0.4054054 35:0.58064514 36:0.69620252 37:0.125 38:0.40322581 39:0.51578945 40:0.1038961 41:0.42857143 42:0.57608694 43:0.11956522 44:0.36458334 45:0.6179775 46:0.1147541 47:0.3493976 48:0.76056337 49:0.22413793 50:0.46666667 51:0.86021507 52:0.1392405 53:0.33695653 54:0.48809522 55:0.55696201 56:0.39506173 57:0.25 58:0.71428573 59:0.69791669 60:0.30136988 61:0.28125 62:0.55102038 63:0.40963855 64:0.75 65:0.69230771 66:0.27272728 67:0.67346936 68:0.84375 69:0.40789473 70:0.33333334 71:0.71875 72:0.41935483 
-0 -0 -0.05693588410176934 0 0.02315581233040294 0 0 0 0 0 1:0.5 2:0.25263157 3:0.38043478 4:0.13483146 5:0.1010101 6:0.10112359 7:0.14736842 8:0.25 9:0.20408164 10:0.71764708 11:0.46067417 12:0.89655173 13:0.37931034 14:0.36764705 15:0.61538464 16:0.12 17:0.07692308 18:0.13725491 19:0.54216868 20:0.88297874 21:0.52222222 22:0.35714287 23:0.51685393 24:0.30681819 25:0.25925925 26:0.1627907 27:0.17391305 28:0.12941177 29:0.18556701 30:0.20779221 31:0.069444448 32:0.31730768 33:0.47872341 34:0.27027026 35:0.48387095 36:0.59493673 37:0.025 38:0.3548387 39:0.33684212 40:0.077922076 41:0.49450549 42:0.5 43:0.097826086 44:0.375 45:0.56179774 46:0.065573767 47:0.37349397 48:0.74647886 49:0.18965517 50:0.56666666 51:0.90322578 52:0.1392405 53:0.39130434 54:0.44047618 55:0.51898736 56:0.32098764 57:0.18181819 58:0.74725276 59:0.59375 60:0.1780822 61:0.33333334 62:0.45918366 63:0.27710843 64:0.66176468 65:0.57692307 66:0.30303031 67:0.70408165 68:0.71875 69:0.18421052 70:0.48387095 71:0.67708331 72:0.19354838 
-0.4292198651204578 -1.258590113225846 -0 0 0 0 0 0 0.7226842841806972 0 1:0.71249998 2:0.38947368 3:0.47826087 4:0.25842696 5:0.21212122 6:0.19101124 7:0.12631579 8:0.38235295 9:0.36734694 10:0.52941179 11:0.35955057 12:0.88505745 13:0.27586207 14:0.33823529 15:0.66153848 16:0.18666667 17:0.21538462 18:0.17647059 19:0.66265059 20:0.93617022 21:0.58888888 22:0.41428572 23:0.60674155 24:0.40909091 25:0.27777779 26:0.22093023 27:0.22826087 28:0.22352941 29:0.29896906 30:0.19480519 31:0.16666667 32:0.45192307 33:0.67021275 34:0.37837839 35:0.58064514 36:0.68354428 37:0.15000001 38:0.38709676 39:0.58947366 40:0.1038961 41:0.38461539 42:0.5869565 43:0.13043478 44:0.39583334 45:0.68539327 46:0.13114753 47:0.3493976 48:0.73239434 49:0.18965517 50:0.46666667 51:0.87096775 52:0.16455697 53:0.38043478 54:0.53571427 55:0.5316456 56:0.38271606 57:0.18181819 58:0.6813187 59:0.6875 60:0.2739726 61:0.27083334 62:0.53061223 63:0.3493976 64:0.77941179 65:0.71153843 66:0.30303031 67:0.70408165 68:0.86458331 69:0.43421054 70:0.32258064 71:0.78125 72:0.4623656 
-0 -0 -0.7258403021690492 0 0 1.288856119596946 1.085304698494754 2.763367122576722 0.766995880581213 2.358065594165915 1:0.6875 2:0.37894738 3:0.52173913 4:0.23595506 5:0.21212122 6:0.23595506 7:0.14736842 8:0.44117647 9:0.40816328 10:0.57647061 11:0.47191012 12:0.91954023 13:0.29885057 14:0.41176471 15:0.66153848 16:0.2 17:0.2 18:0.21568628 19:0.59036142 20:0.88297874 21:0.51111114 22:0.41428572 23:0.58426964 24:0.39772728 25:0.25925925 26:0.20930232 27:0.22826087 28:0.21176471 29:0.2783505 30:0.18181819 31:0.16666667 32:0.42307693 33:0.63829786 34:0.35135135 35:0.56451613 36:0.65822786 37:0.050000001 38:0.40322581 39:0.50526315 40:0.1038961 41:0.42857143 42:0.57608694 43:0.14130434 44:0.375 45:0.62921351 46:0.1147541 47:0.3493976 48:0.76056337 49:0.24137931 50:0.46666667 51:0.86021507 52:0.16455697 53:0.34782609 54:0.5 55:0.55696201 56:0.39506173 57:0.25 58:0.71428573 59:0.69791669 60:0.28767124 61:0.28125 62:0.53061223 63:0.38554215 64:0.75 65:0.69230771 66:0.27272728 67:0.66326529 68:0.84375 69:0.40789473 70:0.33333334 71:0.72916669 72:0.41935483 
-0 -0 -0 0 0 0 0.3226584249872435 0 0 0 1:0.85000002 2:0.36842105 3:0.56521738 4:0.22471911 5:0.070707068 6:0.11235955 7:0.12631579 8:0.5 9:0.42857143 10:0.36470589 11:0.50561798 12:0.81609195 13:0.091954023 14:0.29411766 15:0.41538462 16:0.06666667 17:0.10769231 18:0.19607843 19:0.86746991 20:0.86170214 21:0.36666667 22:0.24285714 23:0.37078652 24:0.18181819 25:0.055555556 26:0.15116279 27:0.13043478 28:0.10588235 29:0.19587629 30:0.51948053 31:0.069444448 32:0.69230771 33:0.54255319 34:0.081081077 35:0.87096775 36:0.58227849 37:0.15000001 38:0.5 39:0.85263157 40:0.1038961 41:0.51648355 42:0.5 43:0.054347824 44:0.6875 45:0.62921351 46:0.098360658 47:0.49397591 48:0.77464789 49:0.1724138 50:0.63333333 51:0.84946239 52:0.075949363 53:0.34782609 54:0.23809524 55:0.82278478 56:0.38271606 57:0.13636364 58:0.72527474 59:0.48958334 60:0.1369863 61:0.15625 62:0.39795917 63:0.27710843 64:0.77941179 65:0.55769229 66:0.18181819 67:0.76530612 68:0.90625 69:0.30263159 70:0.49462366 71:0.90625 72:0.43010753 
-0 -0 -0 0 0 0.2344294871556408 0 0 0 0 1:0.71249998 2:0.38947368 3:0.47826087 4:0.25842696 5:0.21212122 6:0.20224719 7:0.11578947 8:0.42647058 9:0.40816328 10:0.52941179 11:0.48314607 12:0.91954023 13:0.27586207 14:0.44117647 15:0.69230771 16:0.18666667 17:0.21538462 18:0.19607843 19:0.66265059 20:0.88297874 21:0.53333336 22:0.41428572 23:0.57303369 24:0.38636363 25:0.25925925 26:0.20930232 27:0.2173913 28:0.21176471 29:0.29896906 30:0.19480519 31:0.16666667 32:0.45192307 33:0.67021275 34:0.4054054 35:0.58064514 36:0.69620252 37:0.27500001 38:0.38709676 39:0.58947366 40:0.1038961 41:0.38461539 42:0.5869565 43:0.13043478 44:0.39583334 45:0.68539327 46:0.16393442 47:0.3493976 48:0.73239434 49:0.15517241 50:0.46666667 51:0.87096775 52:0.15189873 53:0.38043478 54:0.53571427 55:0.54430377 56:0.38271606 57:0.18181819 58:0.6813187 59:0.6875 60:0.28767124 61:0.26041666 62:0.53061223 63:0.3493976 64:0.77941179 65:0.69230771 66:0.27272728 67:0.70408165 68:0.86458331 69:0.42105263 70:0.33333334 71:0.77083331 72:0.4623656 
-0.7062210102419625 -0 -0 0 0 0 0 0 0 0 1:0.47499999 2:0.2736842 3:0.35869566 4:0.13483146 5:0.11111111 6:0.078651689 7:0.12631579 8:0.17647059 9:0.20408164 10:0.68235296 11:0.44943821 12:0.90804595 13:0.34482759 14:0.35294119 15:0.61538464 16:0.12 17:0.07692308 18:0.098039217 19:0.57831323 20:0.90425533 21:0.52222222 22:0.32857144 23:0.52808988 24:0.35227272 25:0.18518518 26:0.093023255 27:0.16304348 28:0.082352944 29:0.13402061 30:0.16883117 31:0.097222224 32:0.29807693 33:0.54255319 34:0.24324325 35:0.41935483 36:0.56962025 37:0 38:0.40322581 39:0.42105263 40:0.077922076 41:0.46153846 42:0.5869565 43:0.097826086 44:0.33333334 45:0.5955056 46:0 47:0.30120483 48:0.69014084 49:0.12068965 50:0.43333334 51:0.83870965 52:0.12658228 53:0.35869566 54:0.55952382 55:0.55696201 56:0.35802469 57:0.06818182 58:0.71428573 59:0.66666669 60:0.2739726 61:0.28125 62:0.55102038 63:0.3493976 64:0.7352941 65:0.67307693 66:0.27272728 67:0.69387758 68:0.78125 69:0.27631578 70:0.43010753 71:0.66666669 72:0.29032257 
-0.1863963613394301 -0.8550784419965646 -0 0 0 0 0 0 0 0 1:0.64999998 2:0.17894737 3:0.021739131 4:0.17977528 5:0.080808081 6:0.056179777 7:0.16842106 8:0.10294118 9:0.06122449 10:0.47058824 11:0.47191012 12:0.77011496 13:0.20689656 14:0.25 15:0.33846155 16:0.21333334 17:0.13846155 18:0.078431375 19:0.6987952 20:0.84042555 21:0.62222224 22:0.31428573 23:0.35955057 24:0.29545453 25:0.09259259 26:0.069767445 27:0.11956522 28:0.047058824 29:0.10309278 30:0.48051947 31:0.125 32:0.36538461 33:0.46808511 34:0.13513513 35:0.40322581 36:0.44303799 37:0.050000001 38:0.45161289 39:0.51578945 40:0.090909094 41:0.52747256 42:0.5869565 43:0.076086953 44:0.47916666 45:0.73033708 46:0.14754099 47:0.40963855 48:0.85915494 49:0.22413793 50:0.44444445 51:0.75268817 52:0.12658228 53:0.28260869 54:0.42857143 55:0.60759491 56:0.33333334 57:0.06818182 58:0.72527474 59:0.55208331 60:0.20547946 61:0.48958334 62:0.6122449 63:0.33734939 64:0.83823532 65:0.59615386 66:0.060606062 67:0.71428573 68:0.76041669 69:0.22368421 70:0.48387095 71:0.75 72:0.34408602 
-0 -1.206397423459092 -0 0 0.3861998870103108 0 0 0 0 0 1:0.51249999 2:0.094736844 3:0.021739131 4:0.21348314 5:0.11111111 6:0.011235955 7:0.18947369 8:0.17647059 9:0.12244898 10:0.5529412 11:0.38202247 12:0.74712646 13:0.25287357 14:0.16176471 15:0.32307693 16:0.18666667 17:0.092307694 18:0.13725491 19:0.71084338 20:0.88297874 21:0.64444447 22:0.27142859 23:0.40449437 24:0.31818181 25:0.16666667 26:0.10465116 27:0.17391305 28:0.14117648 29:0.2371134 30:0.37662336 31:0.041666668 32:0.48076922 33:0.46808511 34:0.2972973 35:0.54838711 36:0.44303799 37:0 38:0.46774194 39:0.62105262 40:0.064935066 41:0.50549453 42:0.54347825 43:0.15217391 44:0.51041669 45:0.66292137 46:0 47:0.40963855 48:0.69014084 49:0.1724138 50:0.54444444 51:0.79569894 52:0.25316456 53:0.36956522 54:0.38095239 55:0.59493673 56:0.33333334 57:0 58:0.7912088 59:0.60416669 60:0.15068494 61:0.46875 62:0.51020408 63:0.22891566 64:0.82352942 65:0.51923078 66:0 67:0.69387758 68:0.66666669 69:0.15789473 70:0.53763443 71:0.73958331 72:0.27956989 
-0 -0.1947936446265459 -0 0 0 0 1.712739966432032 0 0 0.2463259853932101 1:0.55000001 2:0.094736844 3:0.065217391 4:0.14606741 5:0.15151516 6:0.16853933 7:0.23157895 8:0.22058824 9:0.26530612 10:0.5529412 11:0.48314607 12:0.79310346 13:0.18390805 14:0.32352942 15:0.41538462 16:0.2 17:0.15384616 18:0 19:0.72289157 20:0.82978725 21:0.63333333 22:0.32857144 23:0.42696628 24:0.36363637 25:0.14814815 26:0.12790698 27:0.18478261 28:0 29:0.11340206 30:0.32467532 31:0.027777778 32:0.43269232 33:0.5 34:0.10810811 35:0.48387095 36:0.4556962 37:0 38:0.48387095 39:0.56842107 40:0.012987013 41:0.53846157 42:0.57608694 43:0.032608695 44:0.57291669 45:0.74157304 46:0 47:0.3493976 48:0.71830988 49:0.24137931 50:0.43333334 51:0.78494626 52:0.20253165 53:0.30434781 54:0.4642857 55:0.58227849 56:0.35802469 57:0.31818181 58:0.72527474 59:0.59375 60:0.2739726 61:0.44791666 62:0.5714286 63:0.3493976 64:0.86764705 65:0.5 66:0.33333334 67:0.76530612 68:0.70833331 69:0.34210527 70:0.52688169 71:0.78125 72:0.41935483 
-0 -0 -0 0 0 0 0 0 0 0.005835982165389218 1:0.60000002 2:0.11578947 3:0.13043478 4:0.13483146 5:0.02020202 6:0.089887641 7:0.1368421 8:0.05882353 9:0.10204082 10:0.52941179 11:0.51685393 12:0.79310346 13:0.13793103 14:0.35294119 15:0.40000001 16:0.10666667 17:0 18:0.078431375 19:0.75903612 20:0.79787236 21:0.5777778 22:0.31428573 23:0.39325842 24:0.29545453 25:0 26:0.12790698 27:0.17391305 28:0.24705882 29:0.2783505 30:0.46753246 31:0.055555556 32:0.45192307 33:0.5106383 34:0.081081077 35:0.54838711 36:0.46835443 37:0 38:0.5 39:0.48421052 40:0.064935066 41:0.5714286 42:0.45652175 43:0.17391305 44:0.51041669 45:0.67415732 46:0.032786883 47:0.40963855 48:0.81690139 49:0.12068965 50:0.5 51:0.86021507 52:0.21518987 53:0.35869566 54:0.44047618 55:0.58227849 56:0.30864197 57:0.20454545 58:0.78021979 59:0.59375 60:0.24657534 61:0.5 62:0.58163267 63:0.28915662 64:0.77941179 65:0.46153846 66:0.21212122 67:0.72448981 68:0.65625 69:0.22368421 70:0.53763443 71:0.70833331 72:0.30107528 
-0.4222579972242958 -0 -0 0 0.4467391840595742 0 0 0 0 0 1:0.44999999 2:0.15789473 3:0.13043478 4:0.12359551 5:0.060606062 6:0 7:0.1368421 8:0.17647059 9:0 10:0.49411765 11:0.52808988 12:0.79310346 13:0.16091955 14:0.36764705 15:0.49230769 16:0.16 17:0.061538462 18:0 19:0.83132529 20:0.80851066 21:0.55555558 22:0.42857143 23:0.44943821 24:0.31818181 25:0.16666667 26:0.11627907 27:0.18478261 28:0.21176471 29:0.26804122 30:0.46753246 31:0.027777778 32:0.43269232 33:0.42553192 34:0.13513513 35:0.56451613 36:0.43037975 37:0.1 38:0.45161289 39:0.60000002 40:0.11688311 41:0.5714286 42:0.59782606 43:0.13043478 44:0.59375 45:0.70786518 46:0.081967212 47:0.43373495 48:0.74647886 49:0.3275862 50:0.53333336 51:0.79569894 52:0.18987341 53:0.31521741 54:0.41666666 55:0.56962025 56:0.28395063 57:0.15909091 58:0.73626375 59:0.5 60:0.04109589 61:0.54166669 62:0.56122446 63:0.22891566 64:0.7352941 65:0.40384614 66:0 67:0.76530612 68:0.61458331 69:0.11842106 70:0.60215056 71:0.72916669 72:0.25806451 
-0 -0.5430854362474664 -0 0 0 0 0 0 0 0 1:0.44999999 2:0.12631579 3:0.10869565 4:0.089887641 5:0.060606062 6:0.16853933 7:0.16842106 8:0.13235295 9:0.26530612 10:0.49411765 11:0.32584271 12:0.75862068 13:0.13793103 14:0.19117647 15:0.43076923 16:0.17333333 17:0.061538462 18:0.11764706 19:0.77108431 20:0.87234044 21:0.60000002 22:0.34285715 23:0.48314607 24:0.30681819 25:0 26:0.12790698 27:0.15217391 28:0.28235295 29:0.2783505 30:0.38961038 31:0.041666668 32:0.42307693 33:0.4893617 34:0.027027028 35:0.48387095 36:0.46835443 37:0.050000001 38:0.48387095 39:0.53684211 40:0.038961038 41:0.5714286 42:0.53260869 43:0.14130434 44:0.58333331 45:0.71910113 46:0.065573767 47:0.39759037 48:0.80281693 49:0.18965517 50:0.46666667 51:0.82795697 52:0.24050634 53:0.31521741 54:0.36904761 55:0.60759491 56:0.33333334 57:0.20454545 58:0.78021979 59:0.55208331 60:0.1780822 61:0.48958334 62:0.58163267 63:0.27710843 64:0.79411763 65:0.5 66:0.21212122 67:0.72448981 68:0.66666669 69:0.28947368 70:0.52688169 71:0.76041669 72:0.36559141 
-0.7341559317224309 -0 -0 0 0 0 0 0 0 0 1:0.625 2:0.18947369 3:0.14130434 4:0.21348314 5:0.090909094 6:0.10112359 7:0.16842106 8:0.029411765 9:0.12244898 10:0.48235294 11:0.39325842 12:0.68965518 13:0.18390805 14:0.2647059 15:0.40000001 16:0.12 17:0.030769231 18:0.17647059 19:0.67469877 20:0.82978725 21:0.56666666 22:0.2857143 23:0.41573033 24:0.29545453 25:0 26:0.093023255 27:0.14130434 28:0.11764706 29:0.17525773 30:0.48051947 31:0.013888889 32:0.42307693 33:0.43617022 34:0.10810811 35:0.58064514 36:0.49367088 37:0 38:0.48387095 39:0.63157892 40:0.051948052 41:0.58241761 42:0.5869565 43:0.097826086 44:0.58333331 45:0.66292137 46:0 47:0.42168674 48:0.67605633 49:0.086206898 50:0.54444444 51:0.77419353 52:0.1392405 53:0.30434781 54:0.30952382 55:0.49367088 56:0.2962963 57:0.06818182 58:0.63736266 59:0.47916666 60:0.1780822 61:0.4375 62:0.41836736 63:0.19277108 64:0.7647059 65:0.51923078 66:0.060606062 67:0.78571427 68:0.66666669 69:0.065789476 70:0.65591395 71:0.76041669 72:0.021505376 
-0 -0 -0 0 0 0 1.353574266313485 0 0 0 1:0.48750001 2:0.1368421 3:0.054347824 4:0.13483146 5:0.15151516 6:0.078651689 7:0.21052632 8:0.22058824 9:0.081632651 10:0.49411765 11:0.26966292 12:0.75862068 13:0.18390805 14:0.17647059 15:0.30769232 16:0.29333332 17:0.16923077 18:0.039215688 19:0.74698794 20:0.89361703 21:0.63333333 22:0.25714287 23:0.39325842 24:0.30681819 25:0.2037037 26:0.15116279 27:0.17391305 28:0.05882353 29:0.092783503 30:0.36363637 31:0.097222224 32:0.45192307 33:0.54255319 34:0.1891892 35:0.58064514 36:0.62025315 37:0.075000003 38:0.5 39:0.57894737 40:0.077922076 41:0.53846157 42:0.56521738 43:0.22826087 44:0.46875 45:0.70786518 46:0.1147541 47:0.38554215 48:0.77464789 49:0.3275862 50:0.45555556 51:0.80645162 52:0.25316456 53:0.38043478 54:0.40476191 55:0.6708861 56:0.38271606 57:0.11363637 58:0.76923078 59:0.625 60:0.12328767 61:0.42708334 62:0.54081631 63:0.31325302 64:0.75 65:0.53846157 66:0.12121212 67:0.71428573 68:0.67708331 69:0.25 70:0.54838711 71:0.77083331 72:0.32258064 
-1.01598718078163 -0 -0 0 0 0 0 0 0 0 1:0.66250002 2:0.1368421 3:0 4:0.21348314 5:0.070707068 6:0.033707865 7:0.15789473 8:0.10294118 9:0.10204082 10:0.48235294 11:0.43820226 12:0.67816091 13:0.14942528 14:0.22058824 15:0.30769232 16:0.12 17:0 18:0 19:0.72289157 20:0.86170214 21:0.60000002 22:0.30000001 23:0.42696628 24:0.26136363 25:0 26:0.12790698 27:0.13043478 28:0.094117649 29:0.18556701 30:0.48051947 31:0 32:0.43269232 33:0.45744681 34:0 35:0.61290324 36:0.43037975 37:0.125 38:0.5 39:0.60000002 40:0.11688311 41:0.56043959 42:0.61956519 43:0.054347824 44:0.60416669 45:0.71910113 46:0.081967212 47:0.42168674 48:0.66197181 49:0.22413793 50:0.54444444 51:0.74193549 52:0.15189873 53:0.32608697 54:0.30952382 55:0.48101267 56:0.25925925 57:0 58:0.67032969 59:0.47916666 60:0.02739726 61:0.42708334 62:0.3877551 63:0.19277108 64:0.82352942 65:0.5 66:0 67:0.80612242 68:0.64583331 69:0.092105262 70:0.66666669 71:0.80208331 72:0.20430107 
-0 -0 -0 0.9337172701039479 0 0 0 0 0 0 1:0.47499999 2:0.08421053 3:0.076086953 4:0.13483146 5:0 6:0.12359551 7:0.2 8:0.11764706 9:0.22448979 10:0.51764709 11:0.44943821 12:0.81609195 13:0.22988506 14:0.32352942 15:0.49230769 16:0.14666666 17:0.061538462 18:0.098039217 19:0.86746991 20:0.89361703 21:0.60000002 22:0.42857143 23:0.52808988 24:0.375 25:0.16666667 26:0.1744186 27:0.18478261 28:0.10588235 29:0.13402061 30:0.44155845 31:0.083333336 32:0.48076922 33:0.47872341 34:0.2972973 35:0.53225809 36:0.43037975 37:0.2 38:0.48387095 39:0.57894737 40:0.11688311 41:0.52747256 42:0.51086956 43:0.20652173 44:0.625 45:0.67415732 46:0.14754099 47:0.48192772 48:0.77464789 49:0.29310346 50:0.62222224 51:0.83870965 52:0.1392405 53:0.34782609 54:0.34523809 55:0.55696201 56:0.25925925 57:0.13636364 58:0.73626375 59:0.53125 60:0.1369863 61:0.44791666 62:0.48979592 63:0.16867469 64:0.75 65:0.46153846 66:0.12121212 67:0.79591835 68:0.61458331 69:0.18421052 70:0.63440859 71:0.75 72:0.31182796 
-0 -0 -0.1200932511632845 0 0 0 0 0 0 0 1:0.55000001 2:0.14736842 3:0.097826086 4:0.17977528 5:0.070707068 6:0.067415729 7:0.18947369 8:0.22058824 9:0.20408164 10:0.5411765 11:0.42696628 12:0.78160918 13:0.1724138 14:0.27941176 15:0.41538462 16:0.2 17:0.2 18:0.098039217 19:0.81927711 20:0.87234044 21:0.6111111 22:0.30000001 23:0.43820226 24:0.27272728 25:0.16666667 26:0.11627907 27:0.086956523 28:0.047058824 29:0.12371134 30:0.37662336 31:0.055555556 32:0.44230768 33:0.44680852 34:0.1891892 35:0.51612902 36:0.46835443 37:0.025 38:0.51612902 39:0.61052632 40:0.051948052 41:0.56043959 42:0.54347825 43:0.11956522 44:0.58333331 45:0.64044946 46:0.13114753 47:0.42168674 48:0.71830988 49:0.36206895 50:0.55555558 51:0.8172043 52:0.29113925 53:0.36956522 54:0.40476191 55:0.55696201 56:0.30864197 57:0.13636364 58:0.72527474 59:0.51041669 60:0.1369863 61:0.45833334 62:0.48979592 63:0.22891566 64:0.7352941 65:0.46153846 66:0.12121212 67:0.75510204 68:0.63541669 69:0.14473684 70:0.58064514 71:0.75 72:0.30107528 
-0 -0.8863422827865222 -0 0 0 0 0 0 0 0 1:0.52499998 2:0.2 3:0.17391305 4:0.11235955 5:0.090909094 6:0.089887641 7:0.15789473 8:0.17647059 9:0.20408164 10:0.50588238 11:0.53932583 12:0.85057473 13:0.1724138 14:0.36764705 15:0.47692308 16:0.21333334 17:0.16923077 18:0.11764706 19:0.78313255 20:0.82978725 21:0.60000002 22:0.2857143 23:0.34831461 24:0.26136363 25:0.22222222 26:0.13953489 27:0.11956522 28:0.094117649 29:0.18556701 30:0.35064936 31:0.083333336 32:0.35576922 33:0.54255319 34:0.16216215 35:0.40322581 36:0.46835443 37:0 38:0.40322581 39:0.58947366 40:0.038961038 41:0.45054945 42:0.6630435 43:0.097826086 44:0.4375 45:0.77528089 46:0 47:0.30120483 48:0.66197181 49:0.12068965 50:0.40000001 51:0.77419353 52:0.2278481 53:0.28260869 54:0.39285713 55:0.62025315 56:0.38271606 57:0.31818181 58:0.75824177 59:0.60416669 60:0.26027396 61:0.39583334 62:0.52040815 63:0.30120483 64:0.85294116 65:0.59615386 66:0.15151516 67:0.73469388 68:0.76041669 69:0.28947368 70:0.51612902 71:0.8125 72:0.3548387 
-0 -0.1108967770120692 -0 0 0 0 0 0 0 0 1:0.625 2:0.11578947 3:0.065217391 4:0.13483146 5:0.05050505 6:0.044943821 7:0.094736844 8:0.10294118 9:0 10:0.51764709 11:0.46067417 12:0.93103451 13:0.14942528 14:0.20588236 15:0.36923078 16:0.079999998 17:0.030769231 18:0.019607844 19:0.77108431 20:0.84042555 21:0.5 22:0.2 23:0.32584271 24:0.19318181 25:0.074074075 26:0.11627907 27:0.11956522 28:0.011764706 29:0.12371134 30:0.36363637 31:0.083333336 32:0.44230768 33:0.55319148 34:0.10810811 35:0.46774194 36:0.48101267 37:0 38:0.33870968 39:0.52631581 40:0.11688311 41:0.37362638 42:0.48913044 43:0.086956523 44:0.48958334 45:0.77528089 46:0.065573767 47:0.3493976 48:0.73239434 49:0.22413793 50:0.46666667 51:0.87096775 52:0.20253165 53:0.45652175 54:0.54761904 55:0.70886075 56:0.33333334 57:0.20454545 58:0.81318682 59:0.5625 60:0.05479452 61:0.45833334 62:0.51020408 63:0.24096386 64:0.69117647 65:0.5 66:0.21212122 67:0.71428573 68:0.73958331 69:0.30263159 70:0.54838711 71:0.83333331 72:0.40860215 
-0 -0 -0 0 0 0 0.09083576356927792 0 0 0 1:0.60000002 2:0.094736844 3:0.10869565 4:0.13483146 5:0.070707068 6:0.13483146 7:0.18947369 8:0.088235296 9:0.1632653 10:0.52941179 11:0.51685393 12:0.88505745 13:0.091954023 14:0.2647059 15:0.33846155 16:0.16 17:0.092307694 18:0.078431375 19:0.77108431 20:0.79787236 21:0.43333334 22:0.2 23:0.28089887 24:0.15909091 25:0.11111111 26:0.093023255 27:0.097826086 28:0.11764706 29:0.18556701 30:0.51948053 31:0.069444448 32:0.53846157 33:0.57446808 34:0.054054055 35:0.66129035 36:0.55696201 37:0.27500001 38:0.41935483 39:0.69473684 40:0.15584415 41:0.43956044 42:0.55434781 43:0.076086953 44:0.58333331 45:0.74157304 46:0.16393442 47:0.42168674 48:0.70422536 49:0.18965517 50:0.51111114 51:0.80645162 52:0.12658228 53:0.34782609 54:0.41666666 55:0.73417723 56:0.2962963 57:0.20454545 58:0.82417583 59:0.5 60:0.15068494 61:0.45833334 62:0.47959185 63:0.30120483 64:0.66176468 65:0.5 66:0.18181819 67:0.71428573 68:0.75 69:0.23684211 70:0.56989247 71:0.89583331 72:0.36559141 
-0 -0 -0 0 0 0 0 0 0 0.1728114922223983 1:0.61250001 2:0.073684208 3:0.17391305 4:0.15730338 5:0.060606062 6:0.10112359 7:0.16842106 8:0.10294118 9:0.040816326 10:0.51764709 11:0.65168542 12:0.89655173 13:0.14942528 14:0.41176471 15:0.40000001 16:0.093333334 17:0.07692308 18:0.05882353 19:0.77108431 20:0.67021275 21:0.44444445 22:0.31428573 23:0.28089887 24:0.125 25:0.09259259 26:0 27:0.076086953 28:0.36470589 29:0.20618556 30:0.42857143 31:0.19444445 32:0.51923078 33:0.54255319 34:0.13513513 35:0.64516127 36:0.54430377 37:0.2 38:0.37096775 39:0.69473684 40:0.12987013 41:0.40659341 42:0.57608694 43:0.010869565 44:0.58333331 45:0.74157304 46:0.13114753 47:0.42168674 48:0.69014084 49:0.24137931 50:0.55555558 51:0.82795697 52:0.16455697 53:0.34782609 54:0.40476191 55:0.64556962 56:0.28395063 57:0.22727273 58:0.82417583 59:0.5 60:0.05479452 61:0.52083331 62:0.46938777 63:0.22891566 64:0.69117647 65:0.40384614 66:0.33333334 67:0.70408165 68:0.69791669 69:0.21052632 70:0.55913979 71:0.88541669 72:0.3548387 
-0 -0 -0 0 0.8580161826051449 0.1062197133356007 0 0 0 0.6264728717655486 1:0.40000001 2:0.073684208 3:0.14130434 4:0.067415729 5:0.090909094 6:0.10112359 7:0.21052632 8:0.29411766 9:0.18367347 10:0.57647061 11:0.49438202 12:0.87356323 13:0.20689656 14:0.25 15:0.35384616 16:0.2 17:0.2 18:0.13725491 19:0.87951809 20:0.84042555 21:0.54444444 22:0.2857143 23:0.37078652 24:0.18181819 25:0.14814815 26:0.1744186 27:0.13043478 28:0.16470589 29:0.10309278 30:0.51948053 31:0.11111111 32:0.5 33:0.54255319 34:0.13513513 35:0.64516127 36:0.54430377 37:0.25 38:0.3548387 39:0.62105262 40:0.12987013 41:0.37362638 42:0.51086956 43:0.097826086 44:0.55208331 45:0.69662923 46:0.26229507 47:0.44578314 48:0.73239434 49:0.41379312 50:0.58888888 51:0.87096775 52:0.27848101 53:0.43478259 54:0.51190478 55:0.65822786 56:0.27160493 57:0.20454545 58:0.84615386 59:0.57291669 60:0.10958904 61:0.45833334 62:0.55102038 63:0.22891566 64:0.54411763 65:0.42307693 66:0.12121212 67:0.73469388 68:0.58333331 69:0.11842106 70:0.62365592 71:0.77083331 72:0.25806451 
-0 -0 -0 0 0 0 0 1.748089941381728 0 0 1:0.58749998 2:0.094736844 3:0.20652173 4:0.12359551 5:0.1010101 6:0.12359551 7:0.15789473 8:0.11764706 9:0.10204082 10:0.5529412 11:0.5955056 12:0.91954023 13:0.12643678 14:0.36764705 15:0.40000001 16:0.17333333 17:0.061538462 18:0.039215688 19:0.75903612 20:0.69148934 21:0.43333334 22:0.34285715 23:0.32584271 24:0.10227273 25:0 26:0.15116279 27:0.097826086 28:0.43529412 29:0.25773194 30:0.53246754 31:0.16666667 32:0.52884614 33:0.56382978 34:0.054054055 35:0.66129035 36:0.59493673 37:0.27500001 38:0.32258064 39:0.61052632 40:0.12987013 41:0.35164836 42:0.54347825 43:0.021739131 44:0.53125 45:0.78651685 46:0.16393442 47:0.43373495 48:0.77464789 49:0.27586207 50:0.5777778 51:0.86021507 52:0.075949363 53:0.40217391 54:0.36904761 55:0.63291138 56:0.24691358 57:0.22727273 58:0.75824177 59:0.47916666 60:0.1780822 61:0.47916666 62:0.42857143 63:0.24096386 64:0.7352941 65:0.42307693 66:0.30303031 67:0.80612242 68:0.67708331 69:0.21052632 70:0.61290324 71:0.88541669 72:0.3548387 
